2183 128
452 0.019195322 -0.47075808 0.54173344 -0.25782463 -0.030223005 0.0072485507 -0.5119694 -0.21824884 0.013071052 -0.023445465 -0.27836284 0.2673651 0.3324911 0.3764804 0.1024529 0.1952147 -0.20681229 0.232629 0.02727843 -0.0059612836 0.2371188 0.17108019 0.061388876 -0.308282 -0.088585354 -0.114605986 0.090694346 -0.56190324 0.34453616 0.13064887 -0.27649498 0.65303904 0.93429625 0.12547442 -0.106196776 -0.26702854 -0.09024303 0.3091099 -0.41488442 0.14983088 -0.8205044 0.24947637 0.63140935 -0.06495053 0.43193507 0.3005011 -0.49461856 -0.411334 0.025203763 -0.9583274 -0.61067665 0.15172237 0.28934917 0.101285495 -0.94837266 -0.28025803 0.37564144 -0.37443843 -0.1452709 0.35845459 0.46502236 0.052022133 0.37285325 -0.09883531 0.016075704 0.25917497 -0.07961509 -0.35771897 0.00947168 -0.36283264 -0.10075962 -0.07378862 -0.65118545 -0.25500044 0.28110263 0.26853833 0.531087 0.2914197 0.4460766 -0.09000901 -0.341562 -0.44099918 0.079516135 -0.15585224 0.13818973 0.3993048 -0.07260003 -0.48800555 0.22626756 -0.07117104 0.37803593 -0.20405173 0.44070497 -0.24482992 0.2659934 -0.11608279 0.12821215 -0.61971927 0.34941202 0.054325875 -0.6794435 0.34987828 0.1679615 0.10081307 0.5425604 0.06291649 -0.14495 0.38729173 0.4272999 0.43459132 0.4216946 0.13321753 -0.265871 -0.30538487 -0.42804986 -0.2732274 -0.3803503 -0.27943406 0.032221105 0.0931223 -0.16347295 -0.12294981 0.22164506 0.8155771 0.23670462 0.050315548 0.11969826 0.5939448
2462 -0.14152595 0.41994768 0.04136115 -0.1985643 0.34939903 -0.0940894 -0.43843144 -0.55861616 0.26275763 -0.0016958629 -0.5690792 0.4430021 -0.42074886 -0.19674675 0.047007423 0.2991778 -0.3810762 -0.15321577 -0.3388776 0.43367454 0.06588165 -0.2931902 -0.15583062 0.31095994 0.12647451 -0.027562752 -0.01026121 -0.5108396 -0.0017580953 0.22507566 -0.68264276 0.35357916 0.32543308 -0.51194924 -0.55021423 -0.09449806 -0.15107958 -0.4789691 0.14733927 -0.0123475585 -0.28662008 0.05941536 0.76248187 -0.07660254 0.39285436 -0.031428427 -0.3757703 0.14192544 0.5489202 -0.38767037 0.34936744 -0.6112868 0.69150233 -0.00097588095 0.25462276 0.28502274 -0.03969794 -0.09620848 0.23160464 -0.13080895 0.61618346 0.41789725 0.15549211 -0.2687895 -0.3437425 -0.14846762 -0.17012897 0.1044166 0.022388536 -0.0576292 -0.24983266 0.04540118 -0.34270132 -0.22203629 -0.43408823 0.13091904 0.08929971 0.38305882 -0.007046889 0.108936414 0.17801498 0.06922744 -0.105563 -0.32642615 0.13478051 0.17698202 -0.111793965 -0.58732754 0.33349797 -0.045664404 0.0900424 0.032248635 0.21742141 -0.6683577 0.18170571 0.35946506 -0.14447944 -0.23539554 0.1740858 0.14414796 -0.28339243 0.56638527 -0.09820831 0.12381937 0.63826585 0.038963646 0.12672041 0.25812286 0.17342025 0.17651886 -0.43139744 -0.10978049 -0.5000191 0.36116448 0.037574314 -0.013077448 0.08174316 -0.05048021 -0.29575884 0.0689799 -0.052512735 0.06823905 0.08271202 0.53950155 0.12280238 0.12646368 -0.16185899 0.095853195
35 0.45814556 0.5629507 0.5470647 1.0786737 0.3898263 0.24145058 -0.7829183 -0.33789474 -0.005094953 -0.32382146 -0.51373446 0.20887813 -0.33707964 -0.14661309 0.49534476 0.32428616 -0.37945682 -0.39370134 -0.119520016 0.5920771 -0.0062417523 0.28679848 0.1917398 -0.2701349 0.19065897 0.8239309 0.04518696 -0.0993706 0.23970519 0.22223008 -0.30880687 0.49299237 -0.35549316 0.626511 0.7420507 -0.4868517 -0.02678447 0.29649955 0.26788875 0.23959118 0.5941747 0.40881687 0.2786724 0.80448544 0.14619352 -0.07329635 0.41511995 0.5492473 -0.08951315 -0.2991854 -0.020272754 0.14096369 0.51391727 0.55738574 0.2666636 0.6755987 0.4495072 0.55922717 -0.14816839 0.19356303 -0.12848647 -0.21765898 0.07415123 -0.104825266 0.266198 -0.73592085 0.2873129 0.33495674 -0.20696634 0.32010755 -0.7635008 -0.09160927 -0.1802909 -0.06665047 -0.0024142587 0.156634 -0.15328749 -0.6725149 0.122231126 -0.18346907 0.29642382 0.14509743 -0.21380456 0.6973138 -0.216609 0.3100065 -0.53313494 0.5658579 0.49118516 0.3031825 -0.14523093 -0.42142233 -0.75157523 0.031112252 -0.342732 -0.3557992 -0.32581347 -0.7989533 -0.86409223 -0.058245998 -0.9329658 -0.09266444 0.06804875 0.43562102 0.02217223 -0.6532901 0.02958338 0.11794233 -0.5849519 0.90743476 0.3161595 0.39085957 -0.0055254763 0.3536704 0.4012014 -0.054536305 0.1596764 -0.21101686 0.3821832 0.0012320164 -0.14052771 -0.018465798 -0.1298178 -0.06632795 -0.24877289 -0.23861755 -0.057525113 0.041279364
724 -0.107547306 -0.058172554 0.05339025 -0.3963514 0.14600438 -0.28697547 -0.3389127 0.017591206 0.56404173 -0.20964998 -0.5269241 0.039034106 0.055117078 -0.098298974 0.060612284 0.33507162 -0.4654905 0.2084793 -0.23649599 -0.19693153 0.05029061 -0.2578722 -0.12131795 0.009705598 -0.15174831 -0.00019819607 0.1571718 -0.69366986 -0.19065632 0.3106394 -0.1210856 0.08897906 -0.14064169 -0.25375745 -0.4140343 -0.7129622 -0.17979641 -0.5881672 0.015533879 -0.19801605 0.053189844 0.18663025 -0.034463894 -0.24937695 0.3816249 0.13159725 -0.33849087 0.244036 0.052675504 0.25392935 -0.19881913 0.075508565 0.12131951 0.4215463 0.4623082 0.52146673 0.33662722 -0.030574258 -0.2761505 -0.18838692 0.10701777 0.5118896 0.13688913 -0.3293953 0.09356972 -0.35098103 0.08591046 -0.16418563 -0.09941345 -0.15702298 -0.44578937 0.31142604 0.10858485 0.046973504 0.14418094 0.05975197 -0.057333432 0.23007432 -0.029070882 -0.01953547 0.323523 0.2101962 -0.26200494 0.044327963 -0.045689505 0.102933094 -0.013912194 0.04887282 0.08369912 -0.052564237 0.32925463 -0.034565147 -0.56472355 -0.14894085 0.14358196 0.108460024 -0.54041904 -0.038036637 0.052136526 0.20396529 -0.4047945 -0.049086254 0.06012974 -0.056819 0.30732316 -0.08243077 0.20753632 0.20834878 0.29765174 -0.33412293 -0.19200861 0.12503424 -0.14840364 -0.039498877 -0.18386473 -0.08852696 -0.2042322 -0.27214336 -0.49753574 -0.17260765 0.50617635 -0.17325917 0.36114308 0.163301 -0.33691925 0.189901 0.10808115 -0.003632271
5731 0.080549255 0.08420639 0.07077679 -0.1922231 0.32112816 0.07867101 -0.2881206 -0.3649613 0.03871943 -0.13166432 -0.63567543 0.42122376 -0.26101613 -0.14126377 0.07997724 0.20604198 -0.4568703 0.01598789 -0.27342013 0.3825655 -0.18577906 -0.46927682 -0.16942069 0.2019421 0.026999412 -0.20898297 0.09171919 -0.6047776 -0.23004706 0.18727657 -0.93174326 0.5531968 0.4856086 -0.5598994 -0.13861768 -0.17564291 -0.28857288 -0.3664053 0.058080435 0.16401479 -0.26217985 -0.06645096 0.8321676 -0.20930369 0.45533854 -0.12240244 -0.37803602 0.33590236 0.6599772 -0.2784987 0.24624278 -0.72917706 0.65075415 -0.11987621 0.3939324 0.41471106 0.049290244 0.18711622 0.16895589 -0.1385655 0.5791305 0.617233 0.22971885 -0.30512026 -0.13165125 -0.23778443 -0.02103523 0.21712565 0.25840002 -0.056002572 -0.3076549 0.02213204 -0.43776092 -0.43619946 -0.36145318 0.02738885 0.23272397 0.30410975 0.23459317 0.3791844 0.036382582 -0.29763097 -0.070920646 -0.33958426 -0.010813924 0.047662284 -0.06999082 -0.47616863 0.3618097 -0.08717417 0.15826716 0.3081508 0.03663915 -0.7182285 0.34087908 0.26169166 0.09531785 -0.39301088 0.09552775 0.05892744 -0.41457248 0.8770557 -0.3334574 -0.09981374 0.61696225 0.12541866 -0.29079103 0.23952715 0.17417794 0.28859004 -0.06082335 -0.27821097 -0.42058265 0.22765404 0.0825222 -0.08048051 0.17837092 -0.053533394 0.0826841 0.13034023 0.1990331 0.044409417 0.11433245 0.5984906 -0.219616 0.019837951 0.095873185 0.20187747
2 -0.23993462 -0.055981733 -0.10924837 -0.36714336 0.049671035 0.28421345 -0.49728844 0.34068656 0.39134812 -0.22677934 0.36899465 0.5313158 0.004222795 -0.023833776 0.571624 -0.20500104 -0.39972472 0.16352428 -0.19032298 -0.49101508 0.20952941 0.4780037 0.32312375 -0.34520996 -0.051399786 0.38958964 -0.22483374 0.32385474 -0.5297111 -0.6925686 -0.24329992 0.6042324 -0.5467447 0.5142569 -0.21293312 -0.08336602 -0.19008477 -0.028090792 -0.21122839 0.7527038 0.15464938 -0.2646627 -0.11406347 0.0890015 0.05588122 -0.43580335 -0.8082275 -0.1164063 0.51799065 0.50680435 -0.4446032 -0.3848466 0.43084273 0.6219914 -0.119324006 0.09864239 -0.033394586 -0.09008735 0.29176155 -0.10303894 -0.2867641 0.21614361 -0.05746015 0.024572033 0.64876646 0.10396986 -0.21268034 -0.12709899 -0.08874966 0.28996035 -0.05013552 0.35935056 0.6446492 0.037175063 -0.08234587 -0.10653596 -0.17354472 -0.42341745 0.3748489 -0.21208301 -0.47134802 -0.80303526 0.60557777 0.44199437 0.0498342 0.24654815 -0.38934028 -0.23828483 -0.18750507 0.660851 -0.2295282 0.12409276 -0.23616335 0.18636681 -0.071642995 0.010333078 0.015136729 -0.992221 -0.12556256 -0.33725664 -0.42415085 0.055553827 -0.26496992 0.02629464 -0.23685664 0.3931561 1.617344 -0.3245147 -0.5121582 -0.043062225 -0.19390762 0.11936387 -0.7059248 0.41859442 -0.43037242 -0.24000584 0.28750947 -1.0724363 -0.30082238 0.12403574 0.017493328 -0.08623793 0.37884507 0.42214182 -0.3439422 -0.5670451 -0.02900448 0.92960966
1465 -0.0389273 0.11819589 0.11675101 0.10979729 0.71574956 0.68923724 -0.18016277 -0.17388055 0.25868717 -0.19741878 -0.29630435 0.38486835 -0.037707474 -0.19565149 0.56134903 0.087740585 -0.44100758 -0.16015606 -0.20171541 -0.11874505 0.15273477 -0.27936777 0.6510345 -0.045222122 0.04454465 0.022674998 0.10103976 0.15620689 -0.24546207 -0.26529154 -0.61725146 0.5896938 -0.17794168 -0.2012246 -0.30635202 0.015564929 0.17568274 0.0008143173 -0.6054912 -0.06105797 0.32104468 -0.19343217 -0.28285122 0.047535658 -0.41656068 0.018886212 -0.17352706 -0.4346062 0.24104275 0.117003806 -0.14147241 -0.36843866 -0.29131168 0.30594343 0.23128508 -0.0608302 0.47039965 0.1331432 0.10254222 0.21014045 -0.14481446 -0.24619608 -0.0034968008 -0.8296153 -0.122920096 -0.46970215 -0.4315679 0.2996687 0.30357563 0.58377415 0.20318043 -0.22819002 0.44035175 -0.07120831 -0.56574684 0.13100196 -0.37628013 -0.3352987 0.0810435 -0.15823156 0.24870029 -0.029656146 0.233824 0.39168775 -0.008442285 0.45362857 -0.69025 0.43258435 -0.09122632 0.1437581 -0.16044222 -0.58025014 0.17928624 -0.18646035 -0.18382557 0.3303284 -0.35853025 -0.36561856 -0.049037013 -0.094015084 -0.7077398 -0.15674253 0.59979665 -0.14341876 -0.16281053 -0.08645396 0.2333459 0.3988601 0.05126794 0.22959 0.26196948 0.3440409 -0.3864306 0.14008896 -0.5518958 -0.1772871 0.69286335 -0.30559164 0.1348787 0.35814667 0.34635356 0.38171783 -0.25331435 0.00875979 -0.15598874 -0.2511692 0.5596473 0.13626944
8349 0.34966335 -0.7117233 0.406498 -0.32504672 -0.13325037 0.36391932 -0.7270951 -0.009697772 0.01765152 0.1542972 -0.6583156 0.28424078 0.106105335 0.15032311 -0.13417166 -0.14350855 -0.40328306 0.08831877 -0.41787893 -0.3364898 0.44652462 -0.24067329 -0.34663263 -0.090428874 0.5763177 -0.46070954 0.60050803 -0.27251425 0.3674098 -0.36398473 -0.53018194 1.3460417 0.27060723 0.10051487 0.23717853 -0.30439723 -0.4324661 0.0017970927 0.16753529 -0.16131935 -0.45400766 -0.076951705 0.549489 0.21305442 0.5181931 -0.033134606 -0.50944793 0.12685889 0.36578465 -0.21243654 -0.30163565 -0.15494235 0.051713023 -0.021318698 -0.3615706 0.042886026 0.2662073 -0.025782496 0.29352966 0.18411031 0.35769236 0.32691392 -0.21940218 -0.31726217 -0.11824627 -0.19837558 -0.17815861 0.4392909 0.06853512 0.37684923 -0.273486 -0.36781937 -0.7791272 0.07432619 -0.07662496 0.008788116 0.4193247 0.60162824 0.2656718 -0.23400626 0.23278855 -0.52621746 -0.34477475 -0.6222577 0.41756552 0.23551188 -0.2472665 -0.35404143 -0.048773047 -0.19975573 0.25394621 -0.11102116 0.06349626 -0.3441048 0.3649472 0.06257608 0.010892915 -0.47573286 0.37243673 0.23460028 -0.38723513 0.43272996 -0.59983814 -0.315776 0.61285686 0.008210169 -0.5297822 0.31993955 0.011215236 0.19059764 0.3381434 -0.4129305 -0.1451722 -0.13656169 -0.07935844 -0.1485979 -0.33387753 0.06346167 -0.1559305 0.08401717 -0.06671729 -0.18674259 -0.016369138 0.5345894 0.2456251 0.13368279 0.40482774 0.5751497
491 -0.2528165 0.05585582 0.18910395 0.16382945 0.43285522 -0.28097254 -1.0741104 -0.20763889 0.3816709 0.106952935 -0.26964763 0.1198086 -0.07021663 -0.3386765 0.058720104 0.15413082 -0.45847154 -0.527318 -0.4319361 0.2389474 0.004655376 -0.36059847 -0.056454606 0.33274597 0.57845575 -0.030615559 0.21107659 -0.20907919 -0.0021766885 -0.1715918 -0.6616815 0.2182761 0.6007441 -0.14499684 -0.31345087 -0.37614194 -0.31289184 -0.34277123 0.037781015 0.5657673 0.27808532 0.098548375 0.4425515 0.20299715 0.30862463 -0.14111187 -0.33321384 0.06954992 0.634708 -0.3388479 -0.11357896 -0.4163695 0.82975465 -0.035438996 0.14277011 0.41290992 0.27353334 -0.18393913 0.009331267 -0.24092928 0.2707901 0.28431642 -0.23665805 -0.7202836 -0.10304701 -0.08158434 -0.4113883 0.048535135 0.16255444 -0.13583641 -0.36050072 0.26688513 -0.24892972 -0.51730514 0.12100144 -0.092861846 -0.035984945 0.13857277 -0.08340591 0.49016142 0.31915188 -0.03691592 0.1287339 -0.5583628 0.34235016 0.26142326 0.4303664 -0.7377078 0.31475234 0.22020215 0.089558154 0.28300014 0.29552275 -0.5777702 0.19009702 -0.09833963 0.16752927 -0.30691594 0.5699998 0.1899329 -0.54217595 0.71039957 -0.15930088 -0.048210908 0.71803266 0.024311777 -0.010730097 0.26730713 0.593968 0.089915395 -0.054875568 -0.48838514 -0.552527 -0.005958758 -0.08106677 -0.25828943 -0.015160015 0.19148979 -0.1808515 -0.10661431 -0.14113145 -0.2266664 0.36709073 0.27779853 0.039282408 -0.21605892 0.11381917 0.4922685
1565 -0.16946213 0.111705095 -0.22637342 0.29111576 0.73351896 0.6179179 -0.21495377 0.027467813 0.38493747 -0.5595305 -0.31254005 0.49833196 -0.08403475 -0.073534735 0.63737565 -0.09042247 -0.3917119 -0.14515738 0.14587568 -0.063298814 0.14387213 -0.088897206 0.56024015 -0.15017225 0.07218553 0.2061397 0.31595755 0.42052716 0.0049473946 -0.37286323 -0.53320706 0.72056895 -0.32310554 -0.106207915 -0.085666604 0.08079839 0.121078745 0.073600315 -0.6857759 0.00698308 0.39554635 -0.025325518 -0.19125418 0.08809647 -0.7239183 0.048112106 -0.37895614 -0.25995213 0.30084848 -0.1958152 0.00797029 -0.13650918 -0.35131726 0.41327366 0.0065650684 -0.24224427 0.41661322 -0.11393632 0.11518847 0.3628207 -0.23136717 -0.3097815 -0.055330507 -0.7460022 -0.19003174 -0.6799655 -0.123815164 0.20296083 0.3167464 0.6252867 0.20575523 -0.23368704 0.54777944 0.10583176 -0.8542678 0.034311302 -0.21983656 -0.06639013 0.06028747 -0.19381993 0.096899375 0.40780365 0.23200628 0.70680106 0.1739419 0.794173 -0.88230157 0.25544852 0.27860668 -0.02820823 -0.039297357 -0.68898696 0.03540744 -0.39948475 -0.14629833 0.3324269 -0.22145535 -0.27309227 0.17408104 -0.09702119 -0.97245866 0.28579375 0.4934735 0.034299612 0.14536692 -0.2117938 0.13809218 0.6105667 0.085103214 0.13060382 0.3758612 0.33917075 -0.6256721 0.010061141 -0.55472165 -0.08095245 0.79070926 -0.54650974 0.17852174 0.47808295 0.76825446 0.6752985 -0.04946314 0.032329258 -0.3057552 -0.36161172 0.5136035 0.5916358
1788 -0.41678745 0.5239931 0.0448083 -1.0958468 0.57922065 -0.8035298 -0.044517625 1.1511781 0.92064846 0.29394162 -0.42360854 -0.3485829 -0.81279194 -0.08236755 0.8195157 0.523448 -0.511437 0.08395716 -0.22257374 -0.66589916 0.32755652 -0.4691748 -0.1367992 0.46187404 0.17819344 0.19238888 0.74815595 -0.006204764 0.8488298 0.37794948 -0.47588274 0.2629761 -1.2149092 0.03610838 -0.25313497 0.21891817 -1.013601 0.7059413 -0.0019684366 0.6505951 -0.60353905 0.52878505 0.11585623 0.5527959 -0.3604377 -0.3354185 -0.20503089 -0.017763358 0.14729679 -0.24111104 0.723138 -1.1680498 -1.3321115 0.01197665 -0.017178258 -0.6871723 0.52732277 0.4823389 -0.3698505 0.2370269 0.5856047 0.09808966 0.30423906 -0.18489753 -0.28356898 -1.2358809 0.16961114 0.13826363 1.1292304 0.2597227 0.27099514 1.0148861 -1.1806642 -0.30206355 0.67382723 0.40929997 0.0312465 -0.09994736 -0.76586264 -0.1936275 -0.09075389 -0.3633801 0.14147478 0.7686248 0.19596244 0.9860179 -0.9121739 0.78832215 0.5688543 0.2559837 0.47717774 -0.93802565 -0.38964927 0.04838678 -0.6542163 -0.8909611 0.63179547 -0.2782539 1.0406903 0.4943968 -0.3524045 0.56699944 0.6527545 -0.34495234 1.4841841 0.08397223 0.12459923 -0.77167535 0.44252437 0.46966493 -0.19669819 0.46948996 -0.40434325 -0.8910561 -0.55608714 0.09669619 0.9978457 -0.07937743 -0.1157323 -0.58800215 0.016077591 -0.5257397 -0.3127966 0.4050689 -0.5368077 0.14153366 1.0628382 0.26577687
4473 0.2766471 0.04233424 0.44570044 -0.1561218 0.1513932 -0.13677745 -0.0144586135 -0.06316418 0.030768437 0.40894032 -0.6087638 0.120205924 0.2533164 -0.21908697 0.020397177 0.17348625 -0.27826148 -0.2208634 -0.083027594 0.08439056 0.83549625 -0.2626396 0.16433495 -0.2605183 0.5377326 -0.05040785 0.14927152 -0.6990718 -0.26466674 -0.057799842 0.033335023 0.44954962 -0.25567764 -0.08348777 0.06704179 -0.06313177 -0.044913538 -0.31088665 -0.15893564 0.2468495 -0.62890404 0.42435843 0.5503408 0.4084832 -0.07664796 0.36720622 0.23076643 -0.080753624 -0.23644963 0.5006506 -0.108682364 -0.49589598 0.022876518 0.0029154313 0.07975529 0.1346691 0.68643725 0.05296461 0.23337285 -0.007377903 -0.19167925 0.11171236 0.41323045 0.26536253 -0.13651127 -0.043158215 0.024133531 0.09790504 -0.044865992 0.55590874 -0.16260594 -0.031422947 0.053789023 0.30002642 0.4771591 0.8116921 0.25563803 0.45052707 0.72762793 -0.10365804 -0.034681633 0.20442027 0.39668262 0.5509586 0.44533646 0.31231815 -0.007036946 -0.25011608 -0.16665529 -0.216276 0.04015178 -0.237796 0.040456742 0.35160035 0.1189928 0.032547783 0.14098872 -0.38691178 -0.17231661 0.06884063 -0.36199522 0.16377574 -0.34729356 -0.24101816 0.8027878 0.03468379 0.12077194 0.063095786 0.33938563 -0.02558038 -0.12916607 0.0021807668 -0.017865825 0.18737474 -0.19334014 0.035984427 -0.57224965 0.31191882 -0.6562832 0.111141704 0.5206675 0.23776405 0.05174591 0.36760122 -0.12863742 -0.15491165 0.2695573 -0.13131137
50114 -0.33685845 0.55654114 0.12241234 -1.2194155 0.62789863 -0.8649542 -0.1407289 1.1534562 0.8903754 0.27043676 -0.428974 -0.38255244 -0.7662694 -0.122786 0.7929447 0.47557977 -0.46841866 0.18224102 -0.21869425 -0.73096406 0.32367596 -0.4458917 -0.17029196 0.53934747 0.14773397 0.21119772 0.68838626 0.04763729 0.8509658 0.36885566 -0.48772594 0.23677778 -1.2217468 -0.0017679589 -0.24527997 0.18173608 -1.0128794 0.7057997 0.028503267 0.611198 -0.56080455 0.51894355 0.23658079 0.55778587 -0.42138463 -0.40306953 -0.16240181 0.019835014 0.16089775 -0.2691214 0.7434342 -1.1795703 -1.352645 0.0033956876 -0.01664308 -0.69204026 0.54676175 0.40262455 -0.25281984 0.28318554 0.5283828 0.1517568 0.31544057 -0.15179822 -0.3185132 -1.3086587 0.17767328 0.17843947 1.1800789 0.3524934 0.21135816 1.0805352 -1.3355438 -0.28955474 0.6723468 0.50461245 0.06823723 -0.10890876 -0.76366615 -0.25262597 -0.04033121 -0.33195353 0.11138254 0.78152794 0.13297416 0.94795203 -0.94375986 0.77540576 0.637155 0.21918035 0.44641733 -1.0443528 -0.40831104 0.08554534 -0.63341045 -0.90386444 0.69208115 -0.30435854 1.0613054 0.44191387 -0.34296066 0.61764413 0.62772626 -0.36117473 1.5362022 0.116682984 0.16579184 -0.83691746 0.55845076 0.49503812 -0.2301816 0.55647594 -0.40554076 -0.93650264 -0.5274119 0.11534328 1.0043175 -0.18361706 -0.08467631 -0.59747213 0.051115394 -0.54393595 -0.24313909 0.38227928 -0.6655951 0.23581292 1.0639805 0.18598333
1897 -0.20378314 0.17768018 -0.22464737 0.18186274 0.6647012 0.49768278 -0.2804831 0.09429213 0.2552738 -0.57100123 -0.29108524 0.48529917 -0.07488385 -0.08255872 0.82876 -0.044045564 -0.40200615 -0.25856087 0.02966197 -0.03284364 0.38014406 -0.04571794 0.7785792 -0.14502817 0.00899656 0.2253192 0.26424164 0.39240062 0.3259717 -0.23984528 -0.6205305 0.6477575 -0.49881005 -0.17168799 -0.04664917 0.06791547 0.29644746 -0.072467804 -0.82371336 -0.13252942 0.41319183 -0.031618617 -0.23837157 0.09085497 -0.8184787 0.020046096 -0.27941364 -0.38154075 0.2791448 -0.12364466 -0.15438507 -0.16975805 -0.5794936 0.4258999 0.2217258 -0.13590173 0.59682304 -0.12465961 0.16202033 0.50218403 -0.3084713 -0.25517303 -0.14968167 -0.820584 -0.23956287 -0.562989 -0.091006406 0.15675189 0.20879637 0.6571453 0.046281762 -0.36574754 0.39227927 0.12623572 -0.9275757 0.07325039 -0.307152 -0.20595132 0.0028129672 -0.29961413 0.10849111 0.26862377 0.33891448 0.49945548 0.33153507 0.7168204 -0.8479579 0.26943588 0.20629059 -0.104648024 -0.030056642 -0.77977073 -0.049740218 -0.6538382 -0.23663342 0.3704467 -0.16479495 -0.302297 0.08714783 -0.007856019 -1.0139778 0.23580527 0.473027 -0.08736504 0.008930634 0.0075649032 0.2616026 0.5494779 0.06003174 0.16630384 0.3578153 0.43156597 -0.6032018 0.14363763 -0.58716494 -0.2527241 0.7827677 -0.5760228 0.3252641 0.6003603 0.8992088 0.78952163 -0.1838125 0.010036264 -0.3294408 -0.18799488 0.6335047 0.38917625
3153 -0.22606243 0.12377281 0.25131834 -0.15194052 0.50232434 0.14625226 -0.49902722 0.13854851 0.47291794 0.2296525 -0.5148727 0.1887282 -0.21500947 -0.4412602 -0.13410206 0.81494266 -0.9353754 0.05692944 -0.4011721 0.28912026 -0.07154084 -0.2654647 -0.058459226 0.15975733 -0.120814204 0.041374367 0.32447463 -0.15301256 -0.2598177 0.22078484 -0.1450294 -0.061877888 -0.5995262 -0.3179889 -0.21507491 -0.3048007 0.059055638 -0.19965772 -0.6410316 -0.44748014 -0.04093699 -0.18143313 0.58920276 -0.0055450215 0.17856377 0.051207658 -0.25817594 -0.0014350683 0.13279419 -0.45897797 -0.038357675 -0.16944349 -0.0048141973 0.309836 0.35645708 0.05110503 0.5936048 -0.00048227815 0.42107525 0.16249013 0.12732847 0.16833234 -0.063738756 -0.42061952 0.5448126 0.096290976 -0.26492903 0.27797034 0.045484856 0.20970958 -0.47220865 0.2716496 -0.31929561 -0.10361256 -0.2935926 0.16648477 -0.2736172 0.188293 0.32078236 0.49643612 0.17333551 0.08991271 0.28049797 -0.15324706 -0.033711948 0.29721385 -0.23254023 -0.82765055 0.6447906 0.307814 0.15072043 -0.22762167 -0.17281897 -0.27338415 -0.2656115 0.38301724 -0.1284882 0.2280265 0.28501436 0.11184226 -0.028775802 0.1540944 -0.47310245 0.37268728 0.35324076 -0.17275691 0.13726425 0.14669608 -0.2934678 -0.20461544 -0.08784369 -0.2983029 -0.09116171 -0.014522868 -0.022882609 0.21522146 -0.00497136 0.2682317 0.18544988 0.040524494 -0.15995675 -0.09238992 0.16567571 0.36738136 0.14215024 0.19104281 -0.26593244 -0.07393111
1615 0.6588314 -0.41497955 0.20648697 -0.31182602 -0.3191268 -0.051160753 0.04662476 0.20035294 -0.056966405 0.5018592 -0.7994571 0.027366474 -0.21600336 0.15156224 0.16531283 -0.109191895 -0.10732675 0.075575836 -0.11995265 0.64618576 0.31104386 -0.46589306 -0.14531435 -0.21721785 0.5292734 -0.18787576 0.19419053 -1.1314402 -0.11782614 0.2708723 0.0454919 0.8897158 -0.35841295 -0.14060344 -0.12032636 -0.16994944 -0.19310924 -0.13080417 -0.50491184 0.22342573 -0.67568606 0.3780408 0.6219196 0.18105328 -0.19117117 0.18678005 0.14726004 -0.35981318 -0.19219126 0.54015845 -0.06799449 -0.677397 0.2910395 -0.5413437 0.008212622 0.35183057 0.88093084 -0.10161645 0.021294616 0.26574257 0.111955725 -0.04131573 0.4197719 -0.122003116 0.0825631 0.13668711 -0.43012372 0.08735335 -0.2652115 0.4743859 0.056412492 -0.43173838 -0.063279055 0.24843769 0.38778606 -0.020706678 0.19989699 0.30211198 0.30542207 -0.23084693 0.1274397 0.15651797 0.2202304 0.43223664 0.13864201 0.4683859 -0.059371345 -0.8514155 0.5358609 -0.20363888 0.34068474 -0.37181455 -0.4337896 0.5351092 0.11495902 -0.0126402285 0.05222395 -0.6685082 -0.116415724 0.20058748 -0.55304885 0.38853684 -0.31425884 0.02273026 0.79113674 -0.18450272 0.17788193 0.22316498 0.4528347 0.23806697 0.23461744 -0.44340557 -0.43852064 0.013941184 -0.29361638 0.40131915 -0.79259366 0.20341499 -0.12689455 0.24639824 0.7587536 0.42842916 0.19479361 -0.06382215 -0.14068787 -0.12349452 0.25795248 -0.022310635
13620 0.041063447 -0.39878467 0.50252426 -0.12564296 0.02469054 -0.39988232 0.078942314 0.37091407 0.22474657 0.69770724 -0.022539277 -0.21098822 -0.2781014 0.0841203 -0.27768427 -0.28624636 -0.320967 0.015259028 -0.046715297 0.34350848 0.056697235 -0.29270768 0.23567982 -0.017904228 0.35136175 -0.27877375 0.31140023 -0.77205426 -0.014507072 0.29636076 -0.37328997 -0.10145336 -0.026495012 0.0153685985 0.48781905 -0.5537389 -0.25323585 0.57404095 -0.04357933 -0.042449795 -0.25913814 0.10041271 0.11750772 0.6265691 0.3233103 0.3914592 -0.2430679 -0.19837429 0.41902813 -0.7148883 -0.4211021 0.40543297 -0.50975746 -0.16192845 0.44834116 0.9145458 1.2386454 0.35099182 -0.015251013 -0.7196305 0.3711791 0.10651961 0.64387673 -0.20570894 -0.31504542 0.08409692 0.07557621 -0.6966464 -0.1273279 0.27289933 -0.0170268 0.11914442 -0.116405115 0.29322797 -0.0458655 -0.27170953 0.89913327 -0.032731432 0.0013375892 0.16693485 0.014506664 -0.5692212 0.10105021 0.41186056 0.40347624 0.5998104 -0.67241865 -0.5294614 -0.23072971 0.49340376 0.17388017 -0.84535354 0.09746484 0.5319449 0.30113727 0.040054504 0.30732578 -0.56110686 0.04575838 -0.06887154 -0.06542518 -0.063296065 -0.1302585 0.54350543 0.42042544 0.19839624 0.011804079 0.46245527 0.094265915 -0.007566627 -0.38219 0.2551229 -0.8316999 -0.26455793 -0.13645695 -0.14477701 0.0033305364 0.06432883 -0.7579157 0.7219414 -0.062272772 0.071043864 -0.37116492 0.50604457 -0.18740028 -0.0322719 0.42393553 0.3450885
82920 0.3672339 0.7020318 0.5153872 1.1026305 0.49370876 -0.0009809127 -0.91963065 -0.19687161 -0.0106786 -0.3571716 -0.5755512 0.30958137 -0.4248805 -0.21727677 0.32135406 0.2927483 -0.56108403 -0.31509873 -0.029603766 0.60146904 -0.13983105 0.33773315 0.088354014 -0.38577682 0.24426752 1.1484861 -0.14138414 0.07868154 0.44359347 0.16420287 -0.29735887 0.5091702 -0.39082813 0.43624613 0.9804942 -0.50954336 0.06673504 0.29492754 0.13176896 0.38241753 0.6068709 0.68481123 0.27188492 0.79762805 0.16268116 0.057226636 0.3939965 0.6796036 0.16182785 -0.39990127 0.09540462 0.01523801 0.4209805 0.5918448 0.13907337 0.5011406 0.28683737 0.36467084 -0.1178445 -0.10762082 -0.35878906 0.07942349 -0.0698966 0.009382313 0.2560552 -0.98966515 -0.05119518 0.01450337 -0.28524664 0.1921109 -0.8261588 -0.104044214 0.0952484 -0.025108354 -0.029668545 0.36775398 0.0865258 -0.34278226 0.26946676 -0.3826986 0.23538202 0.06043093 0.064880714 0.90798837 -0.18051945 0.2588003 -0.71192956 0.4888883 0.64857554 0.36950105 -0.12923765 -0.38760757 -0.59306294 -0.049668632 -0.2726167 -0.18676902 -0.32717457 -0.92817736 -0.99457276 0.16407038 -1.0634999 0.035282653 0.23320554 0.3908891 0.12747982 -0.94610876 0.08187966 0.2085261 -0.7698455 1.1853358 0.50728136 0.2664651 0.20340933 0.44639766 0.588534 -0.2125708 0.34421608 -0.038180258 0.097312704 -0.124030255 -0.2522584 0.080328204 0.09723108 -0.14391781 -0.13004331 -0.091010705 -0.3561304 0.006206375
210872 0.37305874 0.48300505 0.4552392 1.0338076 0.35155964 0.16409115 -0.77407604 -0.30861545 -0.07469856 -0.3934954 -0.5099518 0.24414821 -0.22522637 -0.20937198 0.4211965 0.36817157 -0.4148832 -0.4489677 -0.28842992 0.52131844 -0.04318997 0.2322366 0.19631764 -0.26105043 0.2740692 0.8941272 0.10282938 -0.07856041 0.30443752 0.31832358 -0.39472693 0.44360346 -0.39871323 0.61392915 0.6146696 -0.45806932 0.06029588 0.29572037 0.19891699 0.25109264 0.5282036 0.4651268 0.2656946 0.8196251 0.019694643 -0.11473376 0.38119477 0.66205597 -0.16441275 -0.3737109 0.0024077676 0.053432412 0.5451355 0.7113608 0.279036 0.7827369 0.49329615 0.46614859 -0.21587247 0.22508179 -0.15538247 -0.023344662 0.04535399 -0.14203879 0.30127063 -0.7349798 0.49195865 0.1974714 -0.15648137 0.30510786 -0.7553496 -0.13305804 -0.07327461 -0.11619101 0.04892614 0.0018703941 0.040904164 -0.59413636 0.1569644 -0.053528406 0.2022549 0.07184724 -0.1918926 0.69721514 -0.29143873 0.33133158 -0.5589995 0.49657106 0.5558159 0.22227846 -0.1785726 -0.3072547 -0.832885 0.0091181155 -0.40197936 -0.3668245 -0.18644358 -0.691109 -0.9758998 0.059068207 -1.1818115 -0.10246261 0.09557052 0.2904157 -0.030163636 -0.6296673 0.08692113 0.20235787 -0.54248667 0.9447305 0.39921018 0.50456685 -0.011670201 0.3884974 0.4182448 -0.048024006 0.16964203 -0.2535954 0.44702965 -0.111058585 -0.19207999 -0.05896034 -0.10930144 -0.07377712 -0.27404678 -0.28405082 -0.2946313 0.055554967
887 -0.0155218 0.2858492 0.45788684 0.9069279 0.27356046 0.1288538 -0.5685434 -0.088896856 -0.07472951 -0.33395055 -0.32036918 0.390083 -0.3387794 -0.17388658 0.39811707 0.10750921 -0.17240399 -0.29389015 -0.17522767 0.57389426 0.056911573 0.31686202 0.09780282 -0.2220097 0.11862723 0.67795193 -0.006658841 0.034548674 0.15547697 -0.013263868 -0.43952665 0.2924948 -0.27122074 0.66522944 0.21899627 -0.20984514 -0.19186907 0.22003706 0.054717213 0.30312163 0.3362135 0.45422745 0.57190937 0.7563868 0.015221255 0.022855725 0.11093912 0.6039278 -0.3035349 -0.056668043 -0.068475224 0.098964125 0.7177369 0.58107924 0.293518 0.6069262 0.45997715 0.6242879 0.017277153 0.07686802 -0.25463396 0.02322478 -0.03987367 -0.005150231 0.18584491 -0.48131964 0.31607947 -0.07632287 -0.29552397 0.3188571 -0.68005043 -0.16910487 -0.22880876 -0.13842784 0.06234343 -0.006795347 -0.11297858 -0.782992 0.14351854 0.1160428 0.5011513 0.17239295 -0.4219269 0.9454757 -0.31331185 0.085904345 -0.51814574 0.6488856 0.30082458 0.30633318 -0.39006072 -0.48968676 -0.58249396 -0.13084334 -0.5576086 -0.30964193 -0.06329032 -0.6340469 -0.7758052 0.15685129 -0.76128817 0.13860275 0.07417607 0.6049113 -0.12539172 -0.64004797 -0.040564105 0.061070547 -0.46432292 0.6597041 0.24941902 0.4883045 -0.12094851 0.10567514 0.24968737 -0.008776561 0.13149954 -0.18525195 0.10969701 -0.009490515 -0.09128609 0.057514343 0.0858482 0.36577183 -0.24241059 -0.12788354 0.12671024 -0.042821556
4584 -0.54505306 0.3850533 0.62077403 0.73416984 0.4005191 0.42265305 -0.56747955 -0.11304897 0.19087422 -0.18117534 -0.4190061 0.17424352 -0.56494486 -0.1898317 0.63791096 -0.3902724 -0.16433026 -0.1458075 0.1735225 0.10182436 -0.23921055 0.38824308 0.15595561 -0.41589302 0.2614612 0.35299692 -0.27700648 -0.55393547 -0.21546322 0.07872808 -0.45549616 0.54848075 -0.3476129 0.23034635 0.19995178 -0.07841123 -0.14868511 0.40752214 -0.5851728 0.227987 0.31154847 0.96453726 0.39664564 0.5715781 -0.3707633 0.4109995 0.24773648 0.20169716 -0.07717503 -0.08612267 0.43222922 -0.36392397 0.3721433 -0.1275491 0.36107442 0.18574293 0.11534023 0.5557181 0.5607962 -0.2820164 0.027290318 0.24655932 -0.22275327 0.016214913 0.93073136 -0.6553038 -0.3365657 -0.32107323 -0.17841159 -0.020053316 -0.15369901 -0.44677374 -0.051549334 -0.27393052 -0.21617295 0.35429788 0.055025574 -0.45945305 -0.30422747 0.3327012 0.37584049 0.49865314 -0.334325 1.554074 0.29643324 -0.61421144 -0.50288236 0.8420093 0.2913663 0.22658935 -0.092652515 -0.35972092 -0.1615683 -0.6748474 -0.4661679 -0.56475836 -0.1575677 -0.5085468 -0.63538677 0.43604276 -0.80005056 0.35168388 -0.3901964 0.593378 0.07464936 -1.253847 -0.13897982 0.24494141 -0.7492935 0.37180713 0.19248329 0.32424873 0.30409646 0.15530394 0.04810075 -0.06298867 0.29068974 -0.027494103 -0.4909721 -0.39026558 -0.31012315 -0.024958672 0.18947966 0.33072606 -0.102330424 0.14819442 -0.013292899 -0.078990646
6213 -0.04917944 0.3431142 0.4032381 0.83883214 0.059634693 0.41596767 -0.2949289 -0.17131385 -0.185441 -0.30706647 -0.2575145 0.13042322 -0.50342137 -0.36502254 0.4255479 -0.079062045 -0.19905058 -0.25601685 0.1952555 0.22886272 0.16398606 0.3096216 0.08837041 -0.07580829 0.26964048 0.051623933 -0.32097644 -0.18921837 0.09536325 0.2277097 -0.24032214 0.36694938 -0.15899275 0.64701986 -0.07224455 -0.33832487 -0.24493273 -0.04562003 -0.430638 0.34885317 0.011251114 0.43177518 0.4258848 0.8262191 -0.02403086 0.18067092 -0.0652849 0.2862969 -0.15181501 -0.44036853 -0.2333637 -0.052712675 0.3839609 0.16808967 0.29443347 0.41481328 0.19132814 0.7044514 -0.19937074 0.22687776 -0.09752377 0.11669091 -0.051901408 -0.0022046072 0.6786156 -0.66596645 -0.16648607 0.14175516 0.21038823 0.087627165 -0.14039505 -0.33768147 -0.291273 -0.21187523 -0.44793615 0.26201487 -0.01463129 -0.6373689 -0.19670469 0.13822962 0.31027076 0.38680056 -0.53208286 0.9082303 0.17112924 -0.20357257 -0.6109389 0.6877399 0.10454276 0.3224877 -0.13328384 -0.47411758 -0.16677721 -0.36345804 -0.10394343 -0.4552289 0.11089916 -0.31273517 -0.6796975 0.7868391 -1.0736862 -0.057077423 -0.19048074 0.7651792 -0.18239456 -0.6568584 -0.0031154803 0.21726258 -0.30723748 0.34562707 0.22522782 0.3100861 0.017300798 0.37449208 0.083038285 -0.18967457 0.10763626 0.14706112 -0.15733416 -0.3371343 -0.28621554 -0.13999687 0.39572364 0.43238294 -0.21499822 -0.17654128 0.11111842 0.26374936
8327 -0.5067441 0.27979228 0.18632503 -0.24603373 0.5729388 0.144326 -0.24249978 -0.5016084 0.9669842 0.2895263 -0.58037245 0.41486204 -0.056599606 -0.48350802 -0.07812792 0.2293916 -0.9920173 0.0126214875 -0.94184023 0.10050701 0.36554164 -0.31164956 -0.28244647 0.28658894 -0.11278758 0.1801608 0.5323689 -0.023726612 -0.13914602 0.04981337 -0.17675786 0.091300234 -0.5018 -0.17749196 -0.49177563 -0.5795603 -0.08608287 0.08689117 -0.6606009 -0.13604008 -0.18543932 -0.1666432 0.51570904 0.051868994 0.333896 0.17357595 -0.485773 0.16638574 0.1781485 -0.555223 -0.053654063 -0.20326117 0.677724 0.2843495 0.6111122 -0.08386525 0.6998958 0.1015148 0.40215865 -0.35710737 0.5857929 0.21508686 0.14362697 0.0432161 0.36615282 -0.1817762 -0.03171899 0.29890618 0.15368377 0.11271066 -0.34828523 0.062502615 -0.7311531 -0.24255869 -0.43732822 -0.17722972 0.2554322 0.1783362 0.2753165 0.7680005 0.32746693 0.041337434 -0.083651066 -0.42827547 0.4985032 0.08092372 -0.18147758 -0.81852376 0.18772039 -0.039168034 -0.09452205 -0.26108253 -0.06349232 0.07037044 0.18899718 0.22798519 0.63515544 0.089232996 0.5026007 0.23446722 -0.027757198 0.42804572 -0.17728917 0.23965637 0.96770245 -0.7401244 0.4758366 0.18080097 0.06336751 -0.07335092 0.01588008 -0.2465366 -0.19775307 0.004100436 -0.3147575 0.30432227 0.29535943 0.14833392 0.33941162 0.21031262 -0.45675778 -0.17647 0.21384129 0.49088392 0.14705436 0.003860484 -0.43678302 0.0771449
5222 -0.16199785 -0.02102541 -0.30863735 -0.3395484 0.64782614 -0.36677346 0.08851359 -0.06913209 0.42192227 -0.032744557 -0.65958947 0.4811673 -0.16205952 -0.036511406 -0.04466945 0.51137704 -0.27723804 -0.5235405 -0.34208977 -0.40552512 0.09548424 -0.026066704 0.07790094 -0.16600268 0.14919555 -0.6095157 -0.14924349 -0.053443603 -0.2501829 0.5106545 0.07860677 0.05649536 -0.029883962 0.33469117 -0.12678847 -0.9929376 -0.63210505 -0.46809542 -0.060985237 -0.38399243 -0.23835307 0.15879188 0.26225138 -0.07283724 0.45246953 0.49524713 -0.34978554 -0.03116393 -0.48849195 -0.2534263 -0.27329525 -0.41117844 -0.15582259 0.022217358 0.46966994 0.6109993 0.74634606 0.20924498 -0.25205615 -0.23922391 0.56581354 0.21685754 0.15198058 -0.8364843 0.2436108 -0.114700094 0.32569277 -0.20050763 0.02037663 0.17503987 -0.15126896 -0.11799765 0.07934182 0.55442977 -0.0018019235 -0.08585794 0.13742757 0.2895734 0.07714406 -0.38751695 0.11481872 0.022477018 0.0019143455 0.10139609 -0.108046226 0.0030881446 -0.1014167 -0.29558295 0.3148829 0.066937804 0.07182855 0.05045975 0.16006142 -0.16557012 0.011465882 0.36011028 -0.27701786 -0.1801719 -0.0034450735 0.15378575 -0.29749572 0.5825689 0.11627943 0.31841126 0.79406893 0.13185373 -0.21810023 0.048464157 0.72431326 0.06977858 0.01724573 -0.2337539 0.60386556 0.5072457 0.23242752 0.1543964 -0.12511562 -0.3475549 -0.6281122 0.14956653 0.37622637 -0.23257299 0.15981914 -0.2040657 -0.4310789 -0.08167818 0.3101222 -0.12882799
9570 0.008304932 -0.30979612 -0.06801281 -0.30909863 0.77176714 -0.3548537 0.4439743 -0.11186366 0.6776682 0.0030501394 -0.4501769 0.17201658 0.010079098 -0.102031134 -0.019186964 -0.2424832 -0.64987683 -0.11057082 0.26048025 -0.23770814 0.15186606 0.44503945 0.52753204 -0.059201624 0.6848924 0.17855331 0.43952942 -0.121994294 -0.1754284 0.47975773 0.047843147 0.604177 -0.5677361 0.047159895 -0.513658 -0.92231524 0.38595358 0.18414582 -0.6697548 -0.25422713 0.39287668 0.70301485 -0.33727676 0.07232567 -0.020902695 -0.33637244 -0.39411643 -0.48500168 -0.102658525 -0.16288936 -0.15984343 -0.049729895 -0.8630405 0.233358 0.16260885 -0.010468196 0.2674811 0.5595855 -0.17167048 0.79036105 -0.4496535 0.5456305 0.058864087 0.0019163663 -0.38665095 -0.6778336 -0.59420466 0.14093336 -0.14406781 0.120355636 -0.6411433 0.08957588 -0.2658632 -0.16337796 0.9175742 0.053844742 -0.22547801 -0.4222244 -0.14125055 0.54323214 0.26807064 0.087601505 -0.19637549 -0.16374412 -0.48073104 0.12534544 0.2689997 -0.666254 0.25332323 -0.0772579 0.22006874 0.42300642 0.004094212 0.037858885 0.054849908 -0.36474 0.26611158 -0.7810142 0.56781745 -0.12574892 -1.1136335 0.49035743 0.20724258 0.40922785 0.014731718 -0.20438713 -0.15753286 0.13351908 0.33491528 0.43095946 0.32356346 0.22313944 -0.7502092 0.52873904 0.0128143495 0.4246961 0.3256129 -0.40521246 -0.8782318 -0.021360446 0.35287812 0.40687203 -0.54644984 0.66818255 -0.055399105 0.26431063 -0.5647533 -0.39362204
3028 0.18761985 0.050770257 0.37085876 -0.3021844 0.607522 -0.10025531 -0.10731086 0.08822018 0.008194914 -0.25580916 -0.7766039 -0.33687684 -0.7905039 -0.6659879 0.17157434 0.50028116 -0.85513747 -0.038277056 -0.42241642 0.17531118 0.16999117 -0.29343042 0.2052621 0.555351 -0.36460817 0.037348483 -0.2268684 -0.06498926 0.14558475 0.0915884 -0.058997944 0.09610137 -0.40562603 0.040896125 -0.32399666 -0.23270656 0.47439614 -0.41302204 -0.30851197 -0.4911267 0.51432705 0.2587163 -0.19600478 -0.23881553 0.9787013 -0.04032169 -0.3731109 0.62604487 -0.04261517 -0.22840604 -0.36879218 -0.30118576 1.2169834 0.20737374 0.6834779 0.18664308 0.45725483 -0.21613902 -0.27304038 -0.34128216 -0.06768009 0.23122866 0.2911068 0.023604209 0.014005547 -0.36051634 -0.25247502 -0.24376324 0.3851883 0.35638213 -0.2822825 0.24430409 -0.10307099 -0.22267152 0.16065305 0.3723594 0.44182116 0.37505358 0.4447517 0.56282765 0.3573023 -0.22144493 0.17910308 -0.53669566 -0.24001168 -0.23235199 0.19081411 -0.65021586 -0.12367487 -0.5459719 0.28964537 -0.43052763 -0.2806783 -0.056118615 -0.014661114 0.5054281 0.14570908 -0.2725731 0.19461909 0.08219631 -0.5946616 0.43736237 -0.17630339 0.21480638 1.1320693 -0.22666532 0.5882142 0.2999346 0.027292287 -0.37165427 -0.025933044 -0.1815578 0.055936843 -0.40388396 -0.19572657 -0.5394676 0.27898425 0.038293377 -0.16435 0.9132535 -0.13529527 -0.12964994 0.123011604 0.061066378 -0.1041281 -0.23891959 0.0812572 -0.13600412
8251 1.3038608 -0.54803604 -0.15700091 -0.21002512 0.5716446 -0.11195892 -1.1639559 -0.60934716 1.0555007 0.87337506 0.17838153 -0.5156047 -0.39023855 0.67460537 1.6365136 0.19489098 0.6255143 0.48155102 -0.5011328 -0.49505094 -0.348128 -0.34328818 1.1761241 -0.06325305 0.6178998 -0.43420857 0.28936335 -0.48894927 -0.43254736 1.0587738 -1.1250894 0.16384286 -0.78434896 -0.42343438 -1.2239444 -1.1245476 0.7093855 0.085670374 -1.0648124 -1.0098704 -0.46316317 0.05453539 0.1361286 0.77753353 0.6172568 0.8415218 1.0473256 0.24807243 -0.97962826 -0.9304073 0.58393985 -0.23128352 0.11341165 0.45876855 0.16292705 0.20434994 0.8692672 -0.5566934 0.4100412 1.0339333 -0.9408786 -0.98212475 0.1514444 -1.0183011 -0.39078376 -0.7882406 -0.3761409 0.21769726 -0.59705293 0.42231733 -0.066708855 0.68514824 -1.4691825 -0.4989612 -0.54274863 0.5113338 -0.44946915 0.21376662 -0.27461165 0.6157798 -0.010875088 -0.59704673 -0.23612022 0.515218 0.073749885 -0.14829485 -0.42614388 0.18560928 0.435054 0.22814237 0.08423781 -0.60835385 0.101206325 -0.059481002 -1.1831878 -0.4538871 0.47036552 -0.893963 -0.1915851 -0.6031364 -1.536482 0.58576757 -0.25741303 0.09715411 -0.4070263 0.3781184 0.75144833 0.8275823 -0.5379785 1.2945381 -0.6164166 -0.24512562 0.5956503 1.0789417 -1.1550319 -0.4466518 0.5606953 -0.2905183 -1.2183357 -0.026642887 1.0058568 0.32995635 -0.08542353 1.2329756 -0.059603367 0.6424989 0.22636394 0.26051205
8237 1.4062715 -0.5138977 -0.19628459 -0.19745594 0.6245917 -0.059350047 -1.1942011 -0.61320186 1.0761539 0.8727575 0.12416887 -0.64308274 -0.27685833 0.6777025 1.6581542 0.27017602 0.6638952 0.6214476 -0.52057254 -0.60493815 -0.27502254 -0.40489537 1.2496996 -0.10690276 0.62730473 -0.3775068 0.3404394 -0.43290567 -0.40690055 1.1670502 -1.2617446 0.21112393 -0.74716645 -0.43366662 -1.2957398 -1.2199935 0.74754614 0.09434349 -1.1433942 -0.9508631 -0.52159643 0.044502553 0.15747976 0.8508089 0.583728 0.9320388 1.0515454 0.3169144 -1.0465176 -0.89613545 0.69213235 -0.2725433 0.07537723 0.42306623 0.065469235 0.15996362 0.9481519 -0.54962593 0.32990026 1.0251564 -1.0152166 -1.0265715 0.17244832 -1.0901614 -0.4353725 -0.8874885 -0.40698367 0.2415809 -0.6027983 0.44342607 -0.03892916 0.7712999 -1.5705628 -0.6220856 -0.5577462 0.574371 -0.4558057 0.24905632 -0.32325122 0.63292944 -0.052025985 -0.5997446 -0.2442236 0.59627396 0.072151504 -0.21755038 -0.39196557 0.21354762 0.45304105 0.23550244 0.059123464 -0.64876306 0.036585286 -0.06402541 -1.183601 -0.45639446 0.3857113 -0.9467212 -0.22268434 -0.5424623 -1.624895 0.62778896 -0.14308618 0.084555656 -0.48420846 0.3457993 0.7672866 1.0148215 -0.54347706 1.3281693 -0.6335189 -0.28460836 0.5832611 1.1125818 -1.209864 -0.44553718 0.695443 -0.3547704 -1.2115426 -0.019848805 0.9791102 0.34560016 -0.09419757 1.3483621 -0.060930632 0.6589025 0.21633454 0.27100655
2537 0.2995853 0.05907879 0.15722086 0.20868263 0.24153022 -0.21944837 0.11465227 0.27226964 -0.00059967506 0.42388982 -0.26109117 0.038273707 0.3469378 -0.07270375 -0.3419459 -0.15281843 -0.33727014 0.013197036 -0.20234048 -0.028255384 -0.059174452 -0.44405025 -0.088227816 -0.34581932 0.6070927 -0.11160533 -0.43462342 -0.5411114 -0.042356398 -0.3594518 -0.30525383 0.53697234 -0.09283032 -0.2750325 0.47518495 -0.66811377 0.19536324 0.036481496 -0.8233221 0.1383952 -0.32898778 0.14541095 0.03438773 0.4368063 0.58988124 0.58734864 0.038557734 -0.43101725 -0.42252427 -0.37439618 -0.15110463 0.20801172 -0.23209131 0.10015918 0.108759284 0.39324945 0.21382345 0.06741272 -0.6073966 0.026965704 0.27328628 0.18208985 -0.3518357 -0.085671246 -0.10797749 0.05115483 0.1326373 -0.63140976 -0.27480865 0.4919487 0.40019166 0.38499263 -0.35366496 0.037510965 0.03572281 0.18192308 -0.44287825 0.4083269 0.5320243 -0.05642331 0.01298808 0.31289208 -0.266628 0.8100636 -0.18409073 0.101710625 -0.12480113 -0.45633963 -0.3427487 -0.14547533 -0.02575768 -0.54814345 0.14975892 -0.16176099 -0.087552756 -0.4236484 -0.08004113 -0.2512522 -0.11988911 -0.10429027 -0.026411664 0.3710821 0.06968668 0.0020316583 0.9025602 0.4664878 0.03769461 0.16603588 -0.37041065 0.06544445 -0.0456873 0.24700311 -0.5955163 -0.10507441 0.11207406 -0.17881136 -0.11610449 0.13112457 -0.3923565 0.381503 0.061714653 0.42840883 -0.18060553 0.5830442 -0.49848813 -0.613243 0.029940965 0.13322142
1888 0.24563572 0.18493813 0.26099968 -0.39663157 0.1924557 0.122504175 -0.34740204 0.1920388 0.2074875 0.3273039 -0.91408974 -0.29786676 0.28215057 -0.5883849 -0.35886398 0.17385669 -0.034778684 0.00013509142 -0.17166573 -0.3688216 0.75406 -0.5746932 0.06371916 0.026458167 0.5140833 0.058499373 -0.24929182 -0.690575 -0.5703862 0.17349502 0.23508283 0.29718608 -0.20938128 -0.0067218724 0.113560185 -0.087212436 0.457299 -0.41927078 -0.08428906 0.39103016 -0.6119098 -0.06397885 0.11761474 0.47109354 -0.25891188 0.63602996 -0.19561066 -0.30910558 0.22257495 0.2402986 -0.16414326 -0.39372686 -0.032101978 -0.06591735 0.015042289 0.59191597 0.4451772 0.23739216 0.1473069 -0.30748072 -0.20209198 0.1980661 0.16317968 0.40759203 -0.28530386 -0.15179494 0.011823169 0.016454076 0.07971267 0.30094004 -0.3612384 0.049220446 -0.08949223 0.45073685 0.17638132 0.2815528 0.21775036 0.3069457 0.24540493 -0.021417981 0.044302274 -0.38016933 0.1774491 0.1340392 0.33210635 0.11921859 -0.16221434 -0.4525505 0.43453366 0.2907923 -0.24643138 -0.12439934 -0.19343507 0.39144748 0.12606302 -0.18181773 0.25172967 -0.3343676 0.2181761 -0.039378323 -0.2826546 0.51474047 0.1273296 -0.018141517 0.6201642 -0.132547 0.07977638 -0.09211404 0.07999369 0.40552875 -0.24980521 0.26838535 -0.23303555 0.014022238 -0.28646344 -0.41767275 -0.17793462 0.3746365 -0.02816963 0.033757333 0.18147607 0.07083706 -0.008069898 -0.07586986 -0.15890373 -0.062491514 0.4700182 -0.27711073
24755 -0.1652019 0.119793355 -0.27861798 0.13560362 0.79317003 0.6139284 -0.15191285 0.04980236 0.21606326 -0.5304705 -0.45650277 0.46734586 -0.16883528 -0.069164306 0.943767 -0.06572485 -0.59019727 -0.055477694 0.10573854 -0.018851625 0.1238839 -0.052638546 0.7610148 -0.16029017 0.08583883 0.17054364 0.28895485 0.42364842 0.10363114 -0.32305726 -0.6829242 0.6361375 -0.40375298 -0.156103 -0.12241234 0.21854335 0.2346758 0.057659257 -0.8843719 -0.17834872 0.3604461 -0.060821433 -0.12971845 -0.013900197 -0.86091834 -0.040177632 -0.33930555 -0.27186528 0.22086152 -0.21243344 -0.03664501 -0.23524654 -0.58344895 0.4996554 0.2032642 -0.23620501 0.54676104 0.0038219779 0.19636752 0.44416258 -0.32870793 -0.43509305 -0.13513654 -0.87544525 -0.3050373 -0.57686895 -0.21626584 0.17986064 0.25867283 0.66958195 0.1265399 -0.31862274 0.43080127 0.081983484 -0.9298725 0.05696641 -0.17176385 -0.09571111 -0.065722644 -0.22402573 0.15881975 0.4307717 0.24498188 0.6409406 0.2016144 0.8811578 -0.8242595 0.32787982 0.16125837 -0.061439794 -0.097717695 -0.9080209 0.009249252 -0.4288883 -0.19836316 0.5005165 -0.32179278 -0.3802605 0.08809883 -0.069772184 -0.9917443 0.17831942 0.48157516 -0.13884346 -0.020257501 -0.07800439 0.15639071 0.6802979 0.012719181 0.13459633 0.24412818 0.4480014 -0.6026953 0.006115928 -0.4804136 -0.24831441 0.686504 -0.58218133 0.36106035 0.5998455 0.83603936 0.90703034 -0.26991525 0.059275575 -0.2979417 -0.21752806 0.522117 0.4744526
27699 -0.0023879602 -0.039349288 -0.03788387 -0.31757575 0.17145588 0.2512556 -0.23702833 -0.3154827 -0.25529483 0.02801206 -0.3925708 0.63508284 -0.28492585 -0.018233776 0.08304001 0.25083795 -0.5426579 0.068149716 -0.21142155 0.293917 -0.22306888 -0.49423495 -0.03847942 0.31837067 0.092456914 -0.20365365 0.17323992 -0.50073415 -0.22113569 0.16054419 -0.8806376 0.599823 0.59570616 -0.38641796 -0.16462062 -0.03929289 -0.30011526 -0.61093813 0.18015046 -0.10299262 -0.32409787 -0.24773894 0.6530371 -0.19719245 0.63856584 -0.18161596 -0.76122874 0.30378914 0.6281745 -0.43454558 0.21513003 -0.8088895 0.5211773 0.043832086 0.27976066 0.4460235 -0.08032811 0.32837844 0.17146885 -0.1371771 0.55429393 0.38381773 0.3515293 -0.29586196 -0.29821476 -0.4235276 -0.11235456 0.38799608 0.12582186 -0.03643613 -0.26026866 0.16261713 -0.873763 -0.3647365 -0.49643221 0.08405855 0.23265441 0.2841264 0.41666883 0.31930384 0.1675555 -0.17071474 -0.106148675 -0.12597679 0.093904935 0.09734882 -0.28874436 -0.56312394 0.19469933 -0.14851773 0.17744742 0.23974374 0.09680243 -0.9345375 0.35917225 0.410391 -0.0046173623 -0.47190344 0.0016815271 0.04653035 -0.42684555 0.8194744 -0.5140991 -0.09286659 0.619638 0.08394851 -0.22968408 0.24559464 0.087996975 0.5168827 -0.028935444 -0.16006783 -0.38542312 0.2759109 0.27846473 0.03613197 0.08205693 0.0064714975 -0.07279537 0.106467366 0.28857124 -0.1551401 -0.07129195 0.72775054 -0.22635414 -0.03430382 0.19258547 0.16855961
2390 0.042540513 -0.14201322 0.30739635 -0.07665573 -0.37615952 -0.06355797 0.04135905 0.36008248 0.27344412 0.43298548 -0.3401977 -0.43615025 0.13351363 0.05884165 -0.123420745 0.2962255 -0.10265521 0.18742096 -0.043308903 0.32390368 0.07429892 0.03859553 -0.19875233 -0.2614773 0.7467822 -0.11786565 0.21910405 -0.0542336 0.36981192 0.5543645 -0.4180893 0.21437675 -0.40229538 0.33927307 -0.183318 -0.33919466 0.0242557 -0.045429766 -0.140545 0.25986162 -0.12095075 0.06704293 -0.45110983 0.34702408 0.22009115 0.2824095 -0.100061625 0.21440952 0.094961755 -0.18889916 -0.10074428 -0.335002 -0.25184348 -0.004040174 0.54499596 0.21629025 0.88614845 0.30945364 -0.3326652 -0.39485443 0.41832072 -0.04641867 0.26333383 -0.48646334 -0.22941448 -0.06915492 -0.46226907 -0.4059031 -0.4598574 0.31888002 -0.4336195 -0.11918498 -0.064679004 0.3703729 -0.011876707 0.265482 0.44429824 0.45701975 -0.12863551 0.3947321 -0.016714513 -0.58344674 -0.024925414 0.011791065 0.65221936 0.6839725 -0.32097426 -0.513327 0.29142565 0.32378584 -0.12661253 -0.2775618 0.003892027 0.40423638 0.3187244 0.17808464 -0.16294993 -0.59241515 -0.46364063 0.14616005 0.12288277 0.04410673 -0.28754738 0.22011907 0.75621766 -0.022849048 0.049938772 0.22950238 0.2234033 0.07733719 -0.72435623 0.15281689 -0.3954157 0.19262595 -0.32942402 0.20487238 -0.31157336 0.21463849 -0.44732624 0.20117722 0.31024227 0.13827598 -0.22607102 0.42054594 -0.6401723 -0.30936426 0.4818237 0.34040362
4013 -0.02198774 0.060122367 0.3255863 -0.192092 0.67035973 0.20945634 -0.03608339 -0.24773583 0.61156994 0.37024042 -0.53772074 0.43607423 -0.37899524 -0.39179152 -0.21473835 0.68744373 -0.8758515 0.06691261 -0.51682633 0.040964365 -0.042291954 -0.47651765 0.19566035 0.027048677 0.046030432 -0.17304377 0.0997227 -0.34674606 -0.15521537 0.32940733 -0.16291443 0.07296316 -0.49206594 -0.093139805 -0.49780554 -0.04507694 -0.021771656 0.022861311 -0.53875273 -0.3350318 0.0038579132 -0.21917644 0.86247486 -0.20971383 0.33494207 -0.050879996 -0.016330266 -0.12087069 -0.19204007 -0.4982863 -0.28915897 -0.40424177 0.34840465 0.42584786 0.45047233 -0.2731602 0.49945796 -0.2644409 0.44933218 0.06551065 0.5689064 0.09178736 0.14210291 -0.16770877 0.38316387 -0.021779584 -0.27339345 0.5764687 0.26842535 0.18705583 -0.3359137 0.26371893 -0.3991327 -0.53990513 -0.35813597 -0.24414515 -0.010187375 0.069430396 0.48388454 0.73471326 0.12670277 0.18929274 -0.1936724 -0.08215932 -0.17464615 0.26565632 -0.09537024 -0.45256236 0.6245231 0.34260473 0.03709391 -0.1389774 -0.024375943 -0.19917087 -0.014563316 0.27764127 -0.3228701 0.44045076 0.047709286 -0.04541546 -0.14260511 0.28943324 -0.19251534 0.28260434 0.63233936 -0.3469265 0.28601098 0.01147345 0.12728578 0.08821552 -0.24881424 -0.2412795 -0.37136623 0.069000214 0.19838576 0.45265937 -0.12955548 0.14848733 0.215562 0.060367484 -0.24959455 -0.18601647 0.05065694 0.6198292 -0.060292993 -0.14737447 -0.3101759 0.05742821
78805 -0.11204479 0.26797637 -0.18435928 0.24164584 0.8525011 0.54041845 -0.21881701 0.18649313 0.1895616 -0.71795315 -0.475128 0.5130966 -0.24649563 -0.08165862 0.9676743 0.017304633 -0.39406398 -0.18450995 0.053550262 0.016649825 0.5104522 -0.023740022 0.80872184 -0.16525812 0.1341236 0.2899515 0.35336408 0.5320656 0.301738 -0.53750706 -0.65444475 0.6465289 -0.44010252 -0.0897633 -0.13750122 0.079877414 0.21307585 -0.09012695 -0.8401645 -0.12930185 0.31202894 -0.008665803 -0.2400448 0.025780492 -0.8868053 -0.012575446 -0.1701597 -0.111737505 0.26142845 -0.25265265 -0.15661508 -0.23508085 -0.5331142 0.475892 0.15675418 -0.2446217 0.67762655 -0.16737866 0.13213125 0.49459094 -0.33557728 -0.40415645 -0.20604116 -0.8539736 -0.37015 -0.7627926 -0.11818714 -0.054114584 0.21779345 0.6950848 0.092551485 -0.39183465 0.48972943 0.10617378 -1.0489221 0.20433308 -0.09248126 -0.1910714 -0.019026017 -0.3057395 0.03456166 0.27733585 0.296557 0.62542516 0.26994148 0.89676267 -0.9969991 0.22410402 0.33073643 -0.15536612 0.0024417054 -0.83202183 0.05869136 -0.523257 -0.2551159 0.45784613 -0.22542672 -0.16531959 0.07351751 -0.14242089 -1.1404325 0.22089063 0.4898264 0.16234224 0.19581692 0.10934386 0.2911459 0.5955682 0.027333923 0.08187583 0.37494305 0.32061732 -0.58162844 0.11026595 -0.5435235 -0.37496838 0.8013556 -0.6579417 0.44893053 0.6455915 0.9617767 0.9498391 -0.18800868 -0.0017473577 -0.31851003 -0.41520205 0.7200538 0.4954852
1047 -0.037120067 -0.43976676 0.28564957 -0.14360282 1.0681021 0.498372 0.49538982 -0.18628235 0.50899065 0.098005675 -0.78098595 -0.1143978 -0.18989919 0.617363 -0.3628006 -0.40724033 -0.6228459 0.086969435 -0.5511237 0.23632473 0.3640307 0.6995211 0.35869744 0.23718345 -0.18367353 0.36439735 -0.6334607 0.32231724 0.24253108 -0.11543208 -0.028100625 0.083238535 -0.42412585 -0.37738293 -0.14398871 -0.7413736 0.113114424 -0.9942727 -1.0682017 0.566008 0.7266855 0.3260192 0.5472129 0.95901656 -0.40159827 -0.20032276 -0.88705057 0.20165153 0.06264572 -0.3355756 0.37327626 -0.87778896 0.023334239 0.28328416 0.9730772 -0.16245589 0.32879612 0.47642243 0.09772003 -0.11687985 0.22141556 0.5894237 -0.13394181 0.024045367 0.28013626 -0.20538767 0.23629592 0.09643155 -0.491477 0.23259279 -0.71404237 0.6580274 -0.7112381 -0.4836536 0.49933597 0.4301926 -0.060329072 0.19238862 -0.0839441 -0.40346184 -0.15259941 -0.7620576 -0.24600118 0.44492966 0.50124943 -0.17150144 -0.3017001 -0.63127595 0.23629478 0.3340959 0.92437834 0.12572958 0.49409825 0.26448965 0.80288434 -0.15292422 -0.1883303 0.1984356 0.7689335 0.08698055 0.026040107 0.15230538 -0.45103124 -0.62953115 1.0173137 0.30622393 0.5185015 0.3980105 0.33530164 0.47162467 0.04889068 0.5382199 -0.48138177 -0.23575662 0.18235287 0.104978986 0.058330674 -0.091678545 -0.7335019 0.04853048 0.4281063 -0.18312117 0.09904308 0.12100927 -0.1745329 -0.022224471 0.25229582 0.4248894
124378 -0.055172928 -0.40314007 0.051964965 0.38112774 -0.39994496 0.05266373 -0.03570207 0.28275833 0.5146631 0.2255868 -0.49712887 -0.09603256 -0.059077144 0.40245533 -0.47314316 0.053421058 -0.3583758 0.49298483 -0.5542205 0.27490523 0.25096664 -0.37742323 -0.29002514 -0.4614902 0.39146468 -0.50613374 0.32486922 0.073688 0.54235744 0.37755594 -0.71559125 0.13985549 -0.08495233 0.32002467 0.046624526 -0.52580076 -0.05457618 -0.028182361 -0.54508674 0.57481277 -0.3222626 0.23547833 -0.8085418 0.07673816 0.25290328 0.08023822 -0.1616003 -0.06970924 0.13356578 -0.34738082 -0.17496085 -0.34592676 0.07094224 0.07493602 0.8998266 0.5494901 0.90644306 0.30322927 -0.05635009 -0.053484634 0.23173924 -0.18661235 0.41903874 -0.70529234 0.044134606 -0.059324592 -0.18868202 -0.71085197 -0.19862148 0.3374937 -0.7723099 -0.25040132 0.049693827 0.29177368 0.10798971 0.25687936 0.116946004 0.24218282 -0.21308425 0.52059186 -0.17979872 -0.59095466 -0.27406698 0.08586108 0.71514577 1.0433475 -0.55574834 -0.48941815 0.47494954 -0.029076565 0.164511 -0.05929808 -0.21514325 0.45044786 0.2764955 0.12988307 0.0052812775 -0.8255703 -0.4050332 -0.18670407 0.057472967 0.335478 -0.23413923 -0.0053400784 1.1754136 -0.31095695 -0.2906157 -0.024156766 -0.07276663 -0.36489204 -0.75958574 0.11822928 -0.39758316 0.28320643 -0.3155866 -0.09186592 -0.7733557 0.25819758 -0.50868934 -0.037530188 0.26537535 0.056750845 -0.39708656 0.28269506 -0.71978223 -0.49393463 0.61240435 0.04765338
10177 0.49925146 0.35593188 0.39334145 -0.43942225 0.59450775 0.94219965 -0.57228357 -0.5325578 0.45173922 -0.8502934 -0.73397565 -0.23390223 0.19849999 -0.486448 0.57903886 0.41730303 -0.36544648 0.44229132 -0.84322584 0.2381848 0.28096023 0.46386242 0.8772703 0.37189797 0.48443264 0.023187438 -0.25192997 -0.5146571 -0.16243927 0.37190533 -0.07367226 1.1775868 -0.27738783 0.54778457 0.033196487 -0.110084966 -0.5587224 -0.5355087 -0.030476972 0.5287069 1.3038192 0.8425771 0.26147076 -0.18974952 0.26789385 -1.001609 0.0096459435 0.099722825 -0.43229926 -0.4189362 -1.0051014 -0.21715339 -0.84143645 -0.8859314 0.49777424 0.0944884 0.062160883 0.26171094 -0.036860645 -0.21530789 -0.08718562 -0.71105725 -0.69251794 0.926598 0.60440844 -0.20774378 -0.88871807 -1.1087354 0.13372384 0.65021354 -0.5680074 -0.39419934 -0.6557379 -0.775358 -0.7148679 0.08934533 0.19361256 -0.7505696 -0.3813101 -0.07397626 -0.81660956 0.49886316 0.08691289 1.0629869 0.3934199 -0.4657365 -0.56402475 -0.05464894 -0.85333484 1.1871508 -0.22123407 -0.6691791 0.1511812 0.19446093 0.015800472 0.55991465 0.13385086 -0.24946788 -0.72278607 -0.03851111 -1.4363309 0.22550045 0.17943646 -0.10090342 -0.16476607 -0.11937205 0.45828196 -0.20499326 -0.4700903 0.29724756 0.25431472 0.8168025 -0.23782502 0.7803633 -0.36128163 0.5193655 0.35130414 -0.69258136 -0.1614895 -0.30039668 0.553646 0.38215372 -0.53397924 -0.07152036 -0.17080452 -0.45769575 0.36577368 -0.049346898
3465 -0.39801303 -0.3491178 -0.27954403 -0.38703373 0.40016934 0.3843689 -1.2651776 -0.106066294 -0.3103086 -1.1718826 -0.6566093 -0.31069288 -0.61436194 0.15922138 0.8421431 0.16247155 -0.6570717 -0.29657936 -0.6258593 -0.12786318 -0.5490388 -0.37313086 0.6097933 -0.9312196 0.20694676 -0.1969277 0.9781924 -0.04862708 -0.51205623 0.7013936 -0.22603004 0.5740788 -1.0975325 0.6593522 1.0588052 0.75548136 -1.2312342 -1.2538162 -0.33710268 -0.43522426 -0.4953485 1.283844 -0.1817499 0.48466787 0.22614586 -0.7933324 0.52816385 0.111540385 0.16330752 -0.41882253 0.30553734 1.2844769 -0.060721915 -0.23576434 0.62229204 0.3457047 0.543125 0.13342868 -0.88261557 1.2923546 0.9136985 -0.6861531 0.40419888 -0.28107005 -0.30094674 -0.56654716 -0.395584 -0.36438605 0.24561673 0.45775145 -0.05192124 1.3432025 -1.0013703 -1.1092236 0.23725584 0.15862471 0.49009997 -0.3187991 0.36287835 0.1531232 0.62146056 0.655475 0.24673428 2.0602334 1.08034 -0.23184405 -0.42599764 -0.7090652 0.36614677 0.030821491 -0.5747251 0.19370878 0.40096235 1.434594 0.54676414 0.3995278 0.18351103 -0.34223464 0.067988895 0.006884506 -0.21024331 0.22711459 0.21161623 -0.93868345 0.74690425 -0.7752894 0.77815366 0.2440627 0.1586006 -0.41192403 -0.266183 0.04513626 -0.36051917 -0.108721174 -0.11004242 0.2784113 1.0136172 -0.6233894 0.013012479 0.02230877 0.38204855 0.5651816 0.13068174 0.3667381 0.38987777 -0.13423768 0.40413755 -0.3743922
29180 -1.0621452 0.15382281 -0.59316784 0.0182353 0.47769526 -0.47261947 -0.6604821 0.15538374 -0.5536067 0.0049165324 -0.9423522 -0.14793651 -0.7447355 -0.15675095 -0.05319511 -0.8583513 -0.8018633 -1.1704189 -0.6091352 -0.056946542 0.78395075 0.24696691 0.38403007 -0.24307415 0.07532991 0.540263 0.03383141 0.5072505 0.38799322 -0.43259683 0.22973892 0.42640346 -0.0535214 0.6081535 -0.13028891 -0.3456206 -1.3610096 0.36495364 -0.4805177 0.25606546 0.0360495 0.9647892 0.6681626 -0.08722842 -0.40827078 0.15208513 0.6382806 0.38640714 0.022932017 -1.3726022 -0.5011861 -0.70927835 0.0830316 -0.1539869 0.24889529 0.7408136 -0.20517722 -0.09371798 0.01757501 -0.19093242 -0.16481796 0.25119495 0.47071537 0.091381215 0.10838465 -0.009340822 -0.60592103 0.6306591 -0.08416864 0.88146573 -0.5068734 0.27019453 -0.6772777 -0.6896624 0.421302 -0.15718517 -0.52040845 0.6732951 0.3933321 1.010273 -0.34717074 -0.61330837 -0.046378043 0.13987833 0.4378391 0.87068313 0.5251821 -0.06322906 0.74253964 0.15887783 -0.27493858 -0.48125848 -0.035486665 0.1109744 -0.10311929 -0.5609359 -0.2107514 -0.05658138 -0.85815454 0.116278596 -0.4231298 0.76385033 -0.032679673 -0.2109914 -0.32314312 -0.43166363 0.22633685 0.75850576 -0.14615974 0.7094288 -0.31425628 0.15889975 -0.080459245 -1.041751 -1.1708364 0.9336051 1.0538554 -0.43149015 0.3178354 0.2960974 0.49772882 -0.2747822 -1.180078 0.23401956 -0.47273245 0.1138527 0.08569597 0.38392013
1553 -0.04981898 -0.7182857 -0.45015466 -0.059983425 -0.018227212 -0.42649442 -0.10675696 -0.36812615 0.16895588 0.008614605 -0.829132 0.2766428 -0.13242228 -0.33445606 0.19036964 0.14058848 -0.4335885 0.092736766 0.36098674 -0.27479622 -0.14178996 0.2795089 0.30981863 0.20939781 0.25607058 -0.5881025 -0.39591002 -0.87027645 -0.47561806 -0.31451225 -0.6376136 0.10830192 0.3162914 -0.23625697 -0.78145 -0.49200344 -0.14188614 -0.75176513 -0.19306716 -0.35249937 0.5373849 -0.006751901 0.50806427 -0.27037066 0.4063839 -0.10387741 -0.21343508 0.5887319 0.14505851 -0.5088375 -0.11914765 -0.36368287 0.39784127 0.29654473 0.38086212 0.51772493 0.16032945 0.42801398 0.46676388 -0.17499289 0.51849216 0.2298179 0.08211726 -0.107462816 -0.22331771 -0.09401846 -0.5567503 0.2567447 -0.2995789 0.016518742 -0.65137726 0.14305142 0.07045621 -0.13825008 0.4140116 0.39215323 0.30105284 0.035308763 0.29077044 -0.2182779 0.5121132 -0.48403853 0.446516 0.5163129 -0.04604661 0.14460005 -0.7748858 -0.23941572 0.16782391 0.20707291 -0.14230742 -0.40338814 -0.57149833 -0.17459637 -0.26641315 -0.34474018 -0.50966114 -0.097391665 -0.12489944 -0.21142279 -0.004083551 0.23948231 -0.06535527 -0.25944126 0.5123496 0.0024774345 -0.4008243 0.106950514 0.16088231 -0.08787507 -0.8153666 -0.32316673 -0.62157875 -0.28305689 -0.2019801 0.1740381 -0.1937886 -0.295755 -0.29596367 0.0740096 -0.038244188 -0.16669653 0.32509497 -0.082055904 -0.0817367 0.0068769837 0.01600006 -0.31189084
18130 -0.5021616 -0.19035117 0.2743849 -0.13185847 0.52458465 0.3092037 0.6402779 -0.17598231 0.33739743 0.31419337 -0.76748306 0.038056992 0.1306439 0.88493806 -0.30044508 -0.36334413 -0.46794847 0.08867121 -0.6644781 0.55586225 0.037046045 0.4791533 0.22444552 0.08974345 -0.14124967 0.5481439 -0.9826103 0.10700959 0.2919929 -0.33130893 -0.33209136 0.09534387 -0.63310033 -0.019846285 -0.49139085 -0.6162418 -0.23506808 -0.72926337 -0.82492965 0.4660315 0.58043516 0.4033199 0.5420625 0.660162 0.076441266 -0.07912662 -0.57604885 -0.09664208 -0.20342195 0.23919348 0.37104425 -0.50008446 0.17578778 0.05989119 0.32365617 0.029847804 0.54289216 0.48382893 0.2477931 0.329498 -0.02068055 0.4567504 -0.048177917 -0.28607014 0.18955678 0.0048015267 -0.25928795 0.320428 -0.45142785 0.055378545 -0.93861955 0.80445564 -0.32094696 -0.28241026 0.16777885 0.5438881 -0.19713295 0.28066164 -0.31205207 -0.20837438 0.14429127 -0.64063084 -0.013256703 0.10089149 0.29790628 -0.24922949 -0.10686796 -0.47584006 0.13704829 0.31413117 0.8442096 -0.07129218 0.101333894 0.03304143 0.517806 0.2592124 -0.12874767 0.3399842 0.5095658 0.14765468 -0.06919467 0.32734993 -0.02490954 -0.72720635 0.72695243 -0.071501344 0.5603075 0.19476908 0.24115685 0.33492237 -0.13986956 0.8456466 -0.4423242 0.03473705 0.32787788 0.11762503 0.52113587 0.113928646 -0.64543897 0.21205962 0.24140015 -0.035767213 -0.09204924 0.7226005 -0.093935296 -0.0673988 0.4813843 -0.032288935
21033 -0.52650666 -0.46483254 -0.18089427 -0.23098868 0.3545285 0.43494543 -1.0963144 -0.24182837 -0.56645644 -0.6043971 -0.21036689 -0.22988063 -0.099499576 -0.059581388 0.484725 -0.08308342 -0.70098835 -0.31587842 -0.6904614 -0.025099684 -0.6541549 -0.33988264 0.22341156 -0.9530118 0.027108053 -0.219816 0.4406945 -0.101700865 -0.038304653 0.4509784 -0.29224512 0.3849416 -0.9421251 0.57959086 0.5271321 0.345947 -0.9263128 -0.84476966 -0.41607207 -0.06188834 -0.49059823 1.092126 -0.16651984 0.1365852 0.07779015 -0.46816498 0.46715352 0.037098568 0.21810836 -0.26071522 0.15068875 0.9088736 0.046767488 -0.32709873 0.08947685 0.3598657 1.0167657 0.037843276 -0.40371016 1.07796 0.60455525 -0.33423808 -0.21172927 0.084710866 -0.11587285 -0.27789336 -0.4111533 -0.36152688 -0.033082742 0.07696053 -0.19834536 1.0803171 -0.8957298 -0.78132474 -0.08077002 -0.11051895 0.4603068 0.15834628 0.12966764 0.27388588 0.5608843 0.6663055 0.24324186 1.3546393 0.74124205 0.09144335 -0.4770432 -0.2741907 0.35464853 0.21246539 -0.3331147 0.24454418 0.20676191 1.1268953 0.46471763 0.54467165 0.29574224 -0.016470833 0.3002937 -0.10026114 0.08148783 0.6360533 0.21073213 -0.3617489 0.22285806 -0.7269166 0.69973093 0.24533162 0.29778302 -0.27129492 -0.5930434 0.07487336 -0.18324353 0.15599388 -0.37645456 -0.059644915 1.0600071 -0.75320876 0.062498067 0.5013 0.31185403 0.8914402 -0.013333868 0.39293617 0.29151317 0.04134634 0.10550855 -0.49633124
4468 0.009788444 -0.21057332 0.22994208 -0.32713452 0.5295379 0.34627682 0.14133345 0.77373934 0.21388087 -0.17840734 0.19687185 0.7430492 0.60098046 0.021603059 0.17878178 -0.09130469 0.041777447 0.2983883 -0.8045896 0.16914979 0.58952284 -0.16832685 -0.17624992 -0.4957498 0.7796419 -0.43669114 -0.35123137 -1.0351946 0.23263001 -0.13092004 0.2946886 -0.84278464 -0.7970576 0.24897522 0.20546766 -0.0038736155 -0.33279827 -0.3352412 -0.98954123 0.20548059 -0.45266077 0.40748245 0.6499517 0.7260062 -0.4142787 0.0566193 -0.31308785 -0.45394155 0.622207 -0.23140906 -0.9653857 -0.25561827 0.1998898 0.33904102 0.3017744 0.44454762 0.33931476 -0.63535625 0.04546334 -0.13366309 0.5898723 -0.08026066 0.3802277 0.024659293 -0.29919508 -0.41930202 -0.15160006 0.26800367 -0.080871165 0.17117119 -0.24631374 -0.0212702 -0.82512426 0.7701153 0.49919823 -0.08018318 0.2466878 0.124186106 0.21997352 -0.3014428 -0.17423718 -0.04492376 0.5651177 -0.3531929 -0.0015399286 -0.91357905 0.012892242 0.19944301 -0.0928283 -0.08696001 1.0679854 -0.43520358 0.11330646 0.30364966 -0.44102162 -0.14587219 -0.59851 -1.2902082 -0.12712683 -0.35295445 -0.5384516 0.20851438 -0.4696661 -0.15629554 0.4100567 -0.639634 0.38794503 -0.2563867 0.18327537 0.20172638 -0.62938005 -0.25052056 -0.54671764 0.37693965 -0.5900405 -0.17269085 -0.18330471 -0.03147662 -0.4595165 0.29817173 0.40195847 0.20471221 -0.14358252 -0.10776734 -0.34864342 -0.35211182 -0.35994074 0.32836387
9136 -0.074912846 -0.09864357 0.48356655 -0.028899984 -0.09865199 0.038699225 -0.0374453 0.1442002 0.19054984 0.45671895 -1.0234462 -0.1655034 0.37771857 -0.54047763 -0.33163634 0.22784598 0.01570087 -0.23997375 -0.16973923 -0.15059943 0.6377208 -0.33878678 0.031040143 -0.24196465 0.64521617 -0.085947126 0.11366535 -0.60659087 -0.23828812 0.23254834 0.0051159994 0.55102116 -0.48834798 -0.061461594 0.009037175 -0.18080261 0.39241892 -0.10342631 0.17906083 0.33362615 -0.71230197 0.11646275 0.3721797 0.48652613 -0.047251962 0.5923974 -0.16257203 -0.17250498 0.07159843 0.32484013 -0.15428242 -0.47817335 -0.18711454 -0.19779406 -0.033115346 0.5306193 0.43951407 0.39811298 0.12635994 -0.07157307 -0.20775068 0.07596724 0.51155233 0.4098345 -0.37975445 0.17953297 0.056649648 -0.0032509437 0.01557262 0.29798743 -0.16372679 -0.19875766 -0.026237445 0.12436784 0.31132787 0.49598056 -0.11305673 0.43371093 0.17389238 0.110575095 0.20000619 -0.029747281 0.24976404 0.14516142 0.50202006 -0.090890266 -0.12835164 -0.22944044 0.0758355 0.20064092 0.040231973 -0.40319034 -0.2751908 0.37354136 0.1911663 0.15372276 0.0030397458 -0.43573934 0.14654641 -0.22753718 -0.23873298 0.66912776 0.02654106 -0.29086196 0.46789342 -0.19543554 0.06765184 -0.14699881 0.17114903 0.3975055 -0.25394422 0.4954014 -0.269721 0.031041488 -0.30615097 -0.42244285 -0.3453897 0.1956606 -0.11609869 0.024172228 0.36341587 0.11437252 -0.061427016 0.20367764 -0.33509675 -0.19313736 0.04649456 -0.35055876
6644 -0.384573 0.19376543 0.48440966 -0.081136085 0.39668965 0.4795147 -0.9044251 -0.35808542 -0.49822417 -0.5197877 -0.21251921 0.6893455 -1.4234014 -0.49230447 0.061372224 -0.25427204 -0.86963403 -0.24861163 -1.1498239 -0.26638576 0.14154944 0.047805637 -0.5976746 0.028962765 0.24496481 1.026872 0.15269515 0.011287473 0.0410399 0.41244563 -0.49231994 0.08608276 0.11027791 0.047498666 -0.09202566 -0.21865314 0.09411093 0.24048956 -0.54519606 0.531696 0.21292208 -0.01849101 0.52574074 0.13560596 0.4255238 0.09903334 0.20769459 -0.61620593 -0.5150966 0.27158517 -0.37899518 -0.4721842 -0.8336896 -0.33592677 0.29460904 0.55289435 0.030472826 0.25791553 -0.75132793 0.6988621 0.18415684 0.37526804 0.069013305 -0.27787706 0.061355636 -0.09658098 -1.0731137 0.3129399 -0.32834488 0.018615292 -0.4153669 0.3121182 -0.46445647 -0.24972327 -0.1846067 0.4037424 0.3518871 -0.31746963 -0.10428255 0.39054406 -0.16689508 -0.07659977 0.6703239 0.4298865 0.3193602 -0.09574165 -1.0340481 0.402337 -0.2554014 -0.25131658 -0.8763737 -0.1633993 -0.6027778 0.88107896 -0.19487956 -0.24994963 0.15790905 0.44688532 0.6212009 -0.2320495 -0.49377623 0.3820142 0.033146158 -0.16133846 0.5754941 -0.04237704 -0.1824094 0.07502984 0.015567934 1.0022781 0.0313334 0.32066122 0.2722713 0.039206784 0.019411542 -0.30632964 -0.124230996 -0.42903283 -0.34843054 -0.017710846 0.38413712 0.37919903 -0.9947252 0.4062229 -0.53725696 0.3015558 -0.32962343 0.687892
3563 -0.10543656 0.21573666 0.38696367 -0.4558733 0.7950273 0.018179074 -0.35040677 0.052672822 0.3888602 0.27356398 -0.38384938 0.03601068 -0.26501167 -0.33734772 0.10621659 0.693502 -0.888763 0.21844459 -0.3483985 0.19966038 0.051614016 -0.53808945 0.03729089 0.20262812 -0.059520368 -0.015663689 0.1657173 0.17145613 -0.2538673 0.14293775 -0.18928361 -0.05796783 -0.42365304 -0.000119830394 -0.47915098 -0.2842727 0.015953822 -0.094869114 -0.46950948 -0.36425418 0.011640542 -0.032903127 0.65389305 -0.06376023 0.41787538 0.15253292 -0.27505285 -0.22185604 0.20003052 -0.27419877 -0.27086857 -0.21924546 0.21639447 0.25361678 0.107067525 0.06756342 0.4764911 0.17939849 0.33982015 0.2405451 0.19373053 -0.09404382 0.028980222 -0.43424353 0.46475902 -0.25808457 -0.2141593 0.3006546 0.0665064 0.12258656 -0.60694015 0.018634148 -0.40672722 -0.27208817 -0.44317672 -0.069964334 -0.115799025 0.2807708 0.6060905 0.7980979 -0.054467537 0.013441719 -0.102686875 -0.18440332 0.25201017 0.31271204 -0.09596253 -0.7068732 0.3589754 0.070997216 0.17522068 -0.3588731 -0.23580064 -0.25847623 -0.2343642 0.41991058 -0.09676351 0.22787797 0.32605773 0.103088334 0.14819 0.2959901 -0.3781736 0.31734103 0.4145794 -0.12976706 -0.10953264 -0.031529102 0.024563663 -0.10904298 -0.07754816 0.024183095 -0.21665376 -0.07209665 -0.1566649 0.10234066 0.0073736347 0.20276813 0.12532647 -0.033086944 -0.04113204 -0.16832305 0.18557195 0.58070743 0.05079609 0.093949996 -0.37477645 -0.2246573
248634 0.5896208 -0.28899634 0.40378022 -0.3542326 -0.5174376 0.0596746 0.052182905 0.23579569 -0.04141401 0.72846055 -0.71339804 0.13838965 -0.031215938 0.009969079 0.055634577 -0.0461271 -0.13039568 -0.023070317 -0.44145793 0.33006948 0.83946687 -0.36074528 0.08738975 -0.18204102 0.5532631 -0.46287283 0.40059978 -0.3246908 0.10697566 -0.07721927 -0.5639137 1.0064168 -0.26928928 -0.17502643 0.14170644 0.07701247 -0.15201798 -0.0512785 -0.47874025 0.52003473 -0.07611125 0.34363556 0.2101659 0.1570896 0.270456 0.5773537 -0.16034414 -0.17583962 -0.3057316 0.5531627 -0.31739804 -0.677507 0.21140903 -0.6552501 -0.02206485 0.3175921 0.7507525 -0.047758836 0.31907007 0.008806734 0.33233112 0.15816264 0.34317222 -0.18091825 -0.16645215 -0.16204657 -0.045190267 0.29467198 -0.25519857 0.8169333 -0.20139183 -0.15273282 -0.43250015 0.29008493 0.316799 0.008678477 0.31017655 0.7500991 0.6399364 -0.43700495 0.23834838 0.32237685 -0.19970839 0.33777115 0.30476987 0.8272094 -0.46463078 -0.87551194 0.2520585 -0.37005818 0.08813378 -0.37048665 -0.40123293 0.7715155 0.18923046 0.0077642524 -0.031343315 -0.2559653 -0.16083097 0.39532036 -0.733063 0.38693127 -0.22110234 -0.45707595 0.7396709 -0.2105887 0.012155673 0.57629037 0.3726354 -0.012614323 0.24196273 -0.7314131 -0.12803523 0.03595217 -0.03765806 0.1562403 -0.5720129 0.2980504 -0.63249445 -0.33641237 0.27388644 0.14048749 -0.36727688 0.42224434 -0.40144083 0.108291954 -0.054401435 -0.07097629
1632 -0.19688527 -0.13464835 0.2889465 0.14135331 -0.11587268 -0.17614017 0.12804233 0.11096485 0.15820248 0.18910845 -0.39808875 -0.68267286 0.036132626 0.23457089 -0.13355322 0.10334952 0.012423664 0.07982337 -0.21585366 0.65392756 0.13717777 -0.082823195 -0.026214117 -0.38932234 0.33565703 -0.45579657 0.3085348 -0.18834844 0.13088486 0.62882894 -0.67981124 0.3330592 -0.24431069 0.16235699 -0.060924757 -0.22097908 -0.26185608 -0.06431309 -0.31999132 0.39959553 -0.13443087 -0.14631598 -0.43953222 0.4592609 0.40988463 0.43964782 -0.061569244 0.018870872 0.10357895 -0.122287415 -0.18056539 -0.12487606 -0.27563974 -0.14523533 0.6352627 0.4405103 0.6859887 0.35438123 -0.18052195 -0.14971665 0.13656497 -0.10314423 0.3463577 -0.23276646 -0.18887317 0.11832114 -0.4384898 -0.37564054 -0.34275913 0.08869806 -0.42507392 -0.48495123 -0.21063161 0.29555482 0.030945437 0.2896451 0.33273935 0.452888 0.099306695 0.43696147 -0.03901519 -0.5563411 -0.05557666 0.24556965 0.64214295 0.74999857 -0.55781 -0.5958115 0.2378983 -0.033616558 -0.19316053 -0.35578594 -0.27692646 0.23102666 0.30635732 0.460514 -0.31179556 -0.5892241 -0.50412077 0.030126972 -0.08846606 0.08640984 -0.11730836 0.02301256 0.71749234 -0.07887351 -0.029757917 0.02693961 0.19568372 -0.010851929 -0.58380646 0.30809718 -0.3366573 0.3402244 -0.32955104 0.027035866 -0.5234693 -0.017467527 -0.5786351 0.25653386 0.010237291 0.04483398 -0.2711306 0.64828163 -0.36754546 -0.09933968 0.5675646 0.17431226
1331 0.055297833 -0.038551927 0.15188357 0.48288545 0.42718565 -0.6456328 -0.0027639123 0.020339034 0.33991313 0.5383535 -0.030244427 0.01907685 0.16469367 -0.061003186 0.18586835 -0.513593 -0.45507345 -0.06307133 -0.65891 0.1293812 -0.04913336 -0.34840053 0.28003827 -0.18108699 0.44220442 -0.029944906 -0.32952783 -0.75490016 -0.31442323 -0.11337957 -0.5592457 0.27413866 -0.19262248 -0.1359712 0.40287843 -0.85733235 0.2392812 0.06357956 -0.72870344 -0.049861703 -0.4343938 0.33666867 -0.09808474 0.42911732 0.20024791 0.26891482 0.16924828 -0.3379748 -0.08578369 -0.15917799 -0.37883362 0.2645499 -0.1908597 -0.0027604874 -0.43191594 0.8331152 0.07881827 0.41429567 -0.68731874 0.12188474 0.0058441334 0.055934772 -0.05409951 0.010320631 0.0074977144 -0.057748336 -0.02590083 -0.5625616 -0.07635193 0.85822165 0.34056574 0.46081653 -0.3269651 0.46721396 -0.14311434 0.027714191 0.028061872 0.4808143 0.2879565 -0.10673471 0.045029547 0.31126553 -0.39250654 0.934141 0.0029592211 0.28664428 -0.5528817 -0.28501087 -0.52104276 -0.09997346 0.23237388 -0.4338013 0.16128568 -0.2555633 -0.6249437 -0.13464122 0.07991219 -0.14211433 -0.060424395 0.20580095 0.23049676 0.057437357 -0.101693034 0.13631625 0.72145873 0.6313743 -0.14032146 0.06251902 -0.2675578 0.67186487 -0.06944568 0.08226069 -0.7276197 -0.0041949353 0.11554354 0.090791084 -0.3066801 0.12870191 -0.12072541 0.4764698 -0.106771335 0.11425864 -0.39785218 0.7184305 -0.38357937 -0.54112536 -0.15024789 0.21286161
4792 0.087952636 0.044238035 0.24026327 0.15736 0.73591125 0.62894946 -0.07252013 -0.27112472 0.2724587 -0.13463691 -0.15545827 0.0046641803 -0.006258701 -0.25538275 0.7020599 -0.19496244 -0.28765836 -0.010234175 -0.12272926 -0.12381496 -0.0022216898 -0.34823143 0.7290898 0.023301907 0.4139888 0.24665372 0.14825317 -0.09405304 -0.26685065 -0.37570295 -0.6011107 0.7492398 -0.35251045 -0.07202798 -0.46369135 -0.08560753 0.16109107 -0.21249807 -0.91463006 -0.116057195 0.17800538 -0.18312001 -0.0476072 0.14015183 -0.5269283 -0.14668448 0.07706843 -0.27124763 0.18378207 0.24248393 -0.040273838 -0.46281967 -0.10055862 0.42877227 0.24523832 -0.03676214 0.1739252 0.18407667 0.06958325 0.3195762 -0.25520667 -0.32916814 -0.044758886 -0.9987187 -0.07263924 -0.60315156 -0.061468843 0.3181491 0.2214489 0.7015124 0.190153 -0.2535586 0.47452554 0.22410923 -0.4450916 -0.07225745 -0.44692108 -0.18733282 0.260521 0.081712954 0.095182866 -0.033601854 0.45266414 0.28236532 -0.002486199 0.68071663 -0.62357247 0.31962737 -0.25210777 0.033316255 -0.3138305 -0.61536485 0.29119468 -0.06750205 -0.13918786 0.2552004 -0.48852235 -0.33101302 0.006898565 -0.18459181 -0.49428147 -0.1273505 0.51213056 0.1311755 -0.09531787 -0.19523643 0.17346925 0.6721459 -0.1238654 0.42022812 0.19201176 0.5758171 -0.38491857 -0.054565582 -0.4148385 -0.25805813 0.84857607 -0.30276582 -0.021750247 0.36755314 0.21489717 0.30401385 -0.11916366 -0.020471532 -0.19116026 -0.3369106 0.36979574 0.0049829595
6841 -0.18686377 0.48324373 0.9526595 0.76844907 0.23449859 1.0330092 -1.4043312 -0.28082436 0.061414402 -0.40076882 0.35401043 0.77658767 -1.2909381 -1.5561723 0.53459007 -0.085563585 -1.6518217 1.2379092 -0.096931815 -1.2730527 0.2564275 -0.79734933 0.9439396 -0.39346027 0.117446415 0.5443295 0.25916857 0.7723924 -0.8343721 0.33062324 -0.65011454 0.47367042 0.2451953 0.969736 -1.1854948 0.059974097 -0.42641905 -0.40194294 -1.1756161 -0.53715664 0.080244064 0.5587863 0.42067367 0.7723025 -0.63644266 0.12778725 0.38947874 -0.44963616 -1.3404068 0.21785754 -0.4815377 -0.7797946 -0.1633232 0.26445293 1.8877352 0.3656421 -0.5205954 0.18622385 -0.65143126 -0.41311595 0.40636864 0.04637633 0.07338818 -0.19924307 -1.0208985 0.6858064 -0.16616374 0.46596998 0.7323498 0.49848565 -1.0407258 -0.26397243 -1.524251 -1.5680035 -0.17518757 0.27317008 -0.19089124 0.894733 -0.36787698 -0.68622935 0.6244308 -0.95384914 0.50324625 0.79269916 0.17508754 1.5773065 -1.5077156 -0.3865221 0.7993235 -0.5055257 0.38958573 -0.35123 -1.1447697 0.5127596 -0.8769407 -0.9506352 -0.24699475 -1.0881627 -0.6649852 -0.30308554 -0.77989805 -0.022445021 -0.32719874 1.0190233 0.71073794 -0.10908097 -0.0662006 0.41841212 0.5805888 0.82912713 0.34314233 0.22738086 0.3622234 0.08233798 0.09365697 -0.18642575 0.6383901 -0.59761614 0.024215262 -0.64138734 0.3335861 -0.29525673 0.83092177 1.1470026 -0.80352145 0.41749752 -0.085438415 -1.2267041
5395 -0.472986 -0.2518736 -0.93563 -0.21272467 -0.15843348 -0.4864357 -0.36195725 -0.5681231 0.5380316 -0.20990342 -0.56056845 0.5735303 -0.7018029 -0.31199735 0.09924399 0.1640688 -0.7591154 -0.4173825 -0.38284883 0.19581565 -0.0731416 -0.11916799 0.24435315 0.5236012 0.48098326 -0.14712851 0.16720124 -0.62450826 -0.07574314 0.3548158 -0.77107316 0.29302403 0.14464213 -0.6257553 -0.33310172 -0.8600754 0.055326164 -0.9657768 -0.09535651 0.20242293 0.06141411 0.07680317 0.370591 -0.14842428 -0.020707538 0.06626135 -0.7435079 0.07079954 0.10083377 -0.44706604 0.0152409095 -0.2683596 0.5122587 0.3411217 0.49575657 0.19360106 0.54971623 0.2283589 0.1365377 -0.46018872 0.34180433 0.19337961 0.40302286 -0.18488112 -0.09642677 0.182152 -0.3393232 -0.2888174 -0.4336549 0.20637392 -0.63417965 0.040166087 0.16286051 -0.20658435 0.507978 0.2710455 0.546267 -0.07393849 0.11098517 -0.020798057 0.12383784 -0.008072963 0.22576062 -0.41703907 0.27808872 0.03913036 -0.46888265 -0.20167609 -0.07232377 0.2707349 0.49877906 -0.2055255 -0.28234228 -0.0254795 -0.1681152 -0.4128158 0.13626513 -0.12678279 0.12585716 -0.04804094 -0.108048715 0.09409016 -0.60597056 -0.0972454 0.56301296 -0.021603249 0.19901305 0.30046415 0.082854815 -0.30954403 -0.3034061 0.2888768 -0.241328 -0.2627872 -0.17950287 -0.53256094 0.17433313 -0.057241146 -0.4797096 0.17171307 -0.15790033 0.073130555 0.41345087 -0.37097013 0.5715864 -0.32126036 0.43667278 -0.15718804
11255 -0.29468334 0.5459517 0.8889634 0.74355304 0.26953954 1.0358459 -1.4928871 -0.2319347 0.09647524 -0.45678094 0.3229812 0.7783071 -1.3994861 -1.7094251 0.52928835 -0.14333984 -1.6994777 1.3277187 -0.040667303 -1.2926637 0.30933216 -0.81017315 0.9890042 -0.4046516 0.07947718 0.59977275 0.4268013 0.70472795 -0.9144886 0.3651055 -0.7000343 0.42810577 0.18731384 1.0018934 -1.2339579 0.023537006 -0.42027578 -0.3517254 -1.139003 -0.5082757 0.011653379 0.5379868 0.3939953 0.81465966 -0.72814375 0.064880975 0.3570558 -0.5011182 -1.4362276 0.23854147 -0.48153043 -0.86902136 -0.14020856 0.24659511 1.9290392 0.30201983 -0.43857414 0.17765616 -0.6667721 -0.44966695 0.33778286 0.11410622 0.055951163 -0.24180745 -1.0022454 0.64492637 -0.20376267 0.54605407 0.85491556 0.5337385 -1.1282727 -0.32341737 -1.5192789 -1.6207955 -0.13472676 0.27939698 -0.22964194 0.95931894 -0.4170177 -0.6711339 0.6397569 -0.9766164 0.49677992 0.79020405 0.1978654 1.5315251 -1.506832 -0.32730216 0.85109746 -0.44716248 0.39709005 -0.32399908 -1.2148474 0.50756454 -0.98041856 -0.95807856 -0.21866111 -1.0958266 -0.7606845 -0.409123 -0.8892341 -0.0005234965 -0.39274698 1.0991585 0.7149433 -0.12701747 -0.06702335 0.48899335 0.5612897 0.88190204 0.4047675 0.28353453 0.42259002 0.05138322 0.10310378 -0.080812305 0.68652797 -0.5914617 0.030236462 -0.5924845 0.37896535 -0.27213272 0.9256473 1.0945885 -0.88743687 0.40380248 -0.079041354 -1.2866591
13382 -0.022403367 -0.43541154 0.36293426 -0.0037662087 0.43790537 -0.07197636 -0.09796553 0.2916758 0.22372067 0.69455504 -0.15008973 0.011486999 0.0004862959 -0.8482045 -0.45466137 0.49018437 -0.0064324765 -0.13741457 -0.5625164 -0.54517967 1.1693681 -0.2410204 -0.31478444 0.077875644 0.8487738 0.16005702 -0.625422 -0.5239615 -0.083017565 0.903036 -0.115703754 0.4586 0.04116913 0.38102952 0.16232182 -0.22406933 0.47026953 -0.552905 -0.7693037 -0.4169043 -0.5518927 -0.15052676 0.45938677 0.21240449 -0.475149 0.3898555 -0.27641672 -0.36874792 0.7642922 0.04350166 -0.18983744 -0.45424464 0.4404646 0.21948552 -0.17424648 1.1805394 0.8268368 -0.28684756 0.25229982 -0.047506455 0.31787613 0.24794257 0.23878914 0.80459404 -0.5641966 -0.6422446 0.26651374 -0.13746701 0.076318696 0.6010275 -0.38137987 0.24718949 -0.072599545 0.4726737 -0.15678734 0.23449653 0.17600802 -0.29172295 -0.008087425 -0.09819589 -0.21593432 -0.39351514 0.11241419 0.294857 -0.027453532 -0.21313478 -0.16774645 -1.0379099 0.124495186 0.15739995 0.19344147 -0.26860085 -0.15007026 0.13095814 -0.0041134795 -0.41601834 0.34100363 -0.16712783 0.28995124 -0.65232456 -0.06612774 0.9521363 0.16572632 -0.3581221 0.72244614 -0.8313994 0.052993253 0.4184488 0.16955847 0.2109423 -0.58313537 0.65544623 -0.4114462 0.30694753 -0.49467734 0.15620145 -0.2172399 0.22442304 -0.57227576 -0.02642836 0.6255617 -0.14489546 0.06315086 -0.12951891 -0.2587864 -0.3006775 0.29679042 -0.20048435
17532 0.25381288 -0.022774456 0.7183117 0.124993354 0.46573675 -0.04497655 -0.728777 0.35714364 -0.02027236 -0.042450212 -0.18055195 0.06212193 -0.4992665 0.29335177 -0.0423316 -0.5535882 -0.11180722 0.25828353 -0.39463538 0.27854094 0.2920915 0.1888525 -0.070471354 -0.46719888 0.96886885 -0.0382883 -0.66369814 -0.21590242 0.354753 0.33482867 -0.7473411 0.29885677 0.056759454 0.17776047 0.12598965 0.21833727 0.25140634 -0.57787514 0.01005017 0.07938821 -0.8150011 0.34110624 0.102548294 0.19683409 0.8731772 -0.30786172 -0.5370339 -0.28942314 -0.046036758 -0.41080055 -0.45294276 0.10214357 -0.28560826 0.25813997 0.75817925 0.55650544 1.3973854 0.19912216 0.083913445 -0.08029127 0.2411385 0.6674223 0.7352086 0.115664475 0.6089978 0.36448303 -0.18073426 -0.43865293 -0.5513497 0.46786484 0.8426331 0.32137975 -0.46788442 0.40031713 0.3304014 0.13325977 -0.48008427 0.6181883 0.3994185 -0.6916424 0.11914128 -0.27465793 0.10115079 0.5356782 0.63052183 0.29611057 -0.3691344 -0.6558471 -0.043078676 0.039087452 0.23081785 -0.8236669 0.75748754 0.04453458 -0.7230048 -0.22415593 0.17678219 -0.62619334 -0.29485697 0.019366963 -0.57997614 -0.5201239 1.0735632 0.20532823 0.74515754 -0.15178685 -0.5314104 0.5279079 -0.23019779 -0.15012693 0.83141804 -0.101276875 -1.0825222 0.11616257 0.018305784 0.053519666 -0.57320815 0.01172618 -0.37407085 0.3767258 0.32957166 -0.16438717 -0.31399545 0.38459107 -0.39999565 -0.09733673 0.24723692 0.0058595007
5291 0.38922352 0.27231506 0.5443087 -0.23528692 0.48659843 0.3081647 -0.67626613 0.31671312 -0.07991715 -0.37344968 -0.61447716 -0.07150067 -0.35555878 0.075522214 0.066700324 -0.6923654 -0.3441958 0.56365323 -0.3392897 0.15441099 0.46969756 0.17427999 0.0050364267 -0.64523983 1.0695698 0.1483422 -0.8765388 -0.15397078 0.28047067 0.53289306 -0.7299173 0.4543076 0.046448693 0.24477239 -0.04107671 -0.108375736 0.1538058 -0.17071103 -0.10997932 0.26079494 -0.6468229 0.18552801 -0.43596917 0.1597462 0.5987523 0.1207744 -0.22041138 -0.10159618 -0.15722243 -0.19643028 -0.3693377 -0.11206293 -0.31142524 0.2507524 0.64478374 0.6740627 1.084957 0.033200413 0.27503335 0.0509158 0.12898059 0.45475435 0.7252633 -0.11391937 0.501166 0.4521568 0.007620465 -0.13718882 -0.18650705 0.49512416 0.53792024 0.0505367 -0.6964472 0.32497734 0.26146957 0.29904655 -0.5115745 0.56238484 0.65492415 0.096783064 0.0070740227 -0.32275572 0.46475175 0.3219655 0.4931151 0.4059876 0.22761424 -0.4989002 -0.26438802 -0.020280186 0.11052094 -0.552876 0.5925462 -0.17627706 -0.49575582 -0.2948681 0.3337279 -0.5278539 -0.5290875 0.16005032 -0.08162082 -0.15747657 0.8047633 -0.14488576 0.7514624 -0.2610625 -0.6005058 0.22609045 -0.061133005 0.13688578 0.52470535 -0.15128995 -0.55259746 -0.0078240745 0.10846983 0.10158131 -0.30871528 0.027337529 -0.13449438 0.54750276 0.6425594 -0.33744663 0.05633614 0.28029388 -0.95597357 -0.015336777 -0.029394504 -0.1898666
15360 -0.14065428 0.1008672 0.5135438 -0.11597882 0.5748296 -0.23193291 -0.189289 -0.029737914 0.46015272 0.24891263 -0.28075898 0.48967016 -0.20360999 -0.30799773 -0.37067556 0.5819162 -0.846128 0.08903776 -0.2894655 0.12620814 -0.18526231 -0.47577232 0.1322475 -0.32126892 -0.18779461 -0.1108677 0.13034716 -0.12534487 -0.39527565 0.5113205 -0.27994794 -0.055183608 -0.2945605 -0.26911244 -0.5122454 -0.4924424 0.1457933 0.024945796 -0.44204 -0.5131034 -0.058567014 -0.01249224 1.0345885 -0.24202947 0.35983527 -0.26613346 -0.02807309 -0.17268421 0.29253078 -0.16987583 -0.13468654 -0.5687097 0.45043996 0.46241632 0.7480462 -0.2786327 0.45143926 -0.05853786 0.49987838 0.13073282 0.3270356 0.26584804 0.022860423 -0.25209054 0.6685536 0.02779962 -0.36491865 0.2194751 0.2609851 -0.08851679 -0.58902574 0.004912028 -0.47902068 -0.38494715 -0.46141866 0.108306624 -0.057302717 0.20441982 0.7229666 0.5379607 0.24396096 0.30090934 0.24478705 -0.06745169 0.14708501 0.31840602 -0.43715587 -0.7411958 0.76531076 0.28260073 -0.0010286026 -0.3239775 -0.03767138 -0.17444393 0.026346702 0.2096758 -0.22380184 0.13503912 0.36772344 0.07850478 0.3143046 0.47480276 -0.3483076 0.13979486 0.40598077 -0.45770264 0.2214325 0.25339264 -0.08120949 0.12870689 0.15274586 -0.2617993 -0.4346159 0.0148009835 0.046631794 0.09620065 0.09790153 0.2239059 0.031021347 -0.0074815345 -0.106026776 -0.25224048 -0.09410437 0.61832356 0.027601028 0.2724244 -0.34001037 -0.10753702
1016 -0.24431492 0.12208347 0.078630045 -0.4011855 0.2529928 -0.20478952 0.14612386 -0.10396247 0.4445291 0.2206098 -0.9778727 0.594294 0.19837764 -0.765561 0.24158801 0.17114136 -0.37060177 -0.5971824 -0.118264124 -0.21388891 -0.29236373 -0.45023152 -0.049799446 0.0990011 -0.072773896 -0.19124626 -0.10255423 0.032357126 -0.38521698 0.6192618 -0.24457927 -0.13894005 -0.00035511533 0.1401936 0.2775162 -0.8610302 -0.07930887 -0.44376642 -0.120350674 -0.295551 -0.6078907 0.50740564 0.09460497 -0.2095023 0.4584035 -0.18459576 -0.18305713 -0.0020002264 -0.4981546 -0.068863064 -0.5139019 -0.35892913 0.00059766247 0.11116494 0.40294644 0.09142485 0.25129896 0.18773136 0.12261577 -0.35113797 0.14391549 0.48761204 0.1234927 -0.98099905 0.16026323 -0.11398242 0.034083195 -0.44402778 -0.3717077 0.17751984 -0.36800548 -0.057475295 0.5441073 0.8484227 0.13509369 -0.28345755 0.05605619 0.48971447 0.06675126 -0.17308018 -0.045107085 -0.363555 -0.16869481 0.45206338 0.1747741 -0.011282805 0.14448357 -0.09655094 0.34465212 -0.3632164 0.3929297 -0.32258958 0.18007761 -0.063535266 -0.024383457 0.09559585 -0.4685752 -0.420369 0.3472376 0.0056956317 -0.22522774 0.5906221 0.3588802 0.077312514 0.6416642 -0.20534375 -0.47060844 0.19753906 0.25026524 0.3949785 -0.020186068 -0.38223952 0.34581453 0.40112397 0.31493068 0.4123526 0.012878483 -0.4543469 -0.5546565 0.24066378 0.64938194 -0.5179582 0.13068753 0.10979963 -0.017745178 0.0011958375 -0.04966571 0.27675062
18957 -0.16695549 -0.18268104 0.127053 0.08692478 -0.13967815 -0.089449205 0.2056025 0.5195161 0.26718897 0.18852037 -0.39370146 -0.5975345 0.16133024 0.14433381 -0.14934546 0.034093946 -0.1894985 0.10057204 -0.28075546 0.5408417 0.03129203 0.038318783 -0.21732877 -0.3388688 0.41374832 -0.2563049 0.44348052 -0.104639366 0.34654704 0.5272433 -0.5790781 0.22780083 -0.24500422 0.2264664 0.019399839 -0.25010026 -0.23909044 -0.08533881 -0.37625664 0.351916 -0.3396837 -0.022101676 -0.51892865 0.5271028 0.33221254 0.30600923 0.0048793135 -0.012053071 0.13091652 -0.16736257 -0.029940033 -0.35309616 -0.32422116 -0.09761199 0.49176094 0.37333187 0.81424814 0.4089835 -0.24224676 -0.37215567 0.21033363 -0.2664054 0.21679649 -0.40791327 -0.353048 0.05889126 -0.40968233 -0.5521779 -0.42189848 0.14989115 -0.36537385 -0.30798748 0.0027499432 0.29602483 -0.12478768 0.29320213 0.4905016 0.4135672 -0.13127278 0.5801783 -0.0008389094 -0.56700504 0.0023469643 0.3061625 0.55145186 0.5763855 -0.45069626 -0.71482474 0.42122126 0.024707906 -0.17988373 -0.56028074 -0.36361557 0.4649279 0.3756284 0.4020423 -0.29838508 -0.6235983 -0.30938977 -0.08445643 -0.13181902 0.069306575 -0.16589414 0.20121937 0.74754465 -0.20893122 -0.05857826 0.071521826 0.09893382 -0.08726829 -0.6463477 0.19661382 -0.50177914 0.21931687 -0.31248823 0.17775202 -0.5929511 0.22852734 -0.48488858 0.24093488 0.07318692 0.037480198 -0.17915146 0.5926563 -0.33901817 -0.2487645 0.58545333 0.21375193
25296 -0.2254625 0.15214996 0.41498342 -0.038549207 1.2578346 -0.0678951 -0.12968364 0.29488412 0.009519599 -0.030365584 -0.42081615 -0.5012177 -0.5914237 -0.15521273 0.25358406 0.27739447 -0.91590345 -0.016057707 -0.6777521 0.12192191 0.15578668 -0.8200893 -0.01447364 0.79118085 -0.6278035 -0.3747008 -0.113223955 -0.17903504 0.028711768 0.35308367 -0.12534912 0.49614438 -0.4069601 -0.12081842 -0.034379583 0.01984244 0.07577718 -0.101371 -0.54536784 -0.616603 0.49739835 0.3873828 -0.31910855 -0.0971029 0.89075273 0.59829867 -0.18588057 -0.13480152 0.021665085 -0.16688916 -0.45263815 -0.47259995 0.71834505 -0.104589425 0.57852185 0.30619988 0.3490345 0.33904913 0.5843496 0.50611067 -0.22648576 -0.32316962 0.4040642 -0.044151116 0.50314575 -0.7761019 -0.13378905 -0.0855769 0.51265943 0.6262417 -0.3907336 0.27170283 -0.3572129 -0.2453803 -0.46510252 -0.04391762 0.04489457 0.43554392 1.0267383 1.0523151 -0.6704128 -0.22461414 0.25569993 -0.20446578 0.14127532 0.1199101 0.25030476 -0.72435164 0.12357278 0.1406561 0.2881152 -0.18502375 -0.2579942 0.116011 0.022067979 -0.35331866 0.02245244 -0.060063515 0.7418497 0.13701628 -0.46442035 0.08345077 -0.7680522 0.604221 0.9882964 -0.5176121 0.14190784 -0.075047314 -0.063341446 -0.37710762 0.32430214 -0.09718294 -0.015593218 -0.033328157 0.43703356 0.18934181 0.5987761 0.03561744 0.19388936 0.3660133 -0.10469165 -0.17645086 0.35772228 0.3753154 0.4302781 0.119293034 0.06969061 -0.022928933
6151 -0.14595881 0.17988747 0.5484494 0.78402394 -0.060987625 0.53728604 -0.33005786 -0.079799935 -0.04416344 -0.39392763 -0.34487796 0.2498273 -0.5747123 -0.46193078 0.51541156 -0.24635376 -0.28214997 -0.3525966 0.0726792 0.09869884 0.1616247 0.1869342 0.19611602 -0.04870295 0.37496004 0.089985415 -0.32990497 -0.4221004 0.10343445 0.27278483 -0.11142282 0.17731251 -0.26100847 0.87466645 0.09942468 -0.32111597 -0.19603013 0.12753078 -0.5682073 0.37363598 0.1661861 0.511171 0.48017436 0.7801199 -0.13046068 0.08561779 -0.10169542 0.3445596 -0.0043716896 -0.27967614 -0.07990356 -0.03786975 0.32928845 0.14484772 0.24665461 0.26421967 0.17418347 0.9289206 0.108265854 0.24380666 -0.15855862 0.26301333 0.010518465 0.030787505 0.6272421 -0.6900515 -0.18966971 0.12353312 0.14902176 0.32833248 -0.3562994 -0.21412666 -0.17147464 -0.17907229 -0.38893273 -0.08923003 -0.19058847 -0.59789854 -0.14303483 0.37525135 0.21231319 0.2802714 -0.58027226 0.99112517 0.07943903 -0.2983438 -0.3592728 0.76905286 0.26605156 0.30278605 -0.18278494 -0.5885258 -0.038209543 -0.48467374 -0.07950278 -0.6337394 -0.13846298 -0.39343208 -0.6883483 0.75162965 -1.0621588 -0.12220359 -0.45148897 0.68064374 -0.17515118 -0.8549344 -0.028497808 0.29329264 -0.41422433 0.19446789 0.2686824 0.3839554 0.13602847 0.33434469 -0.031349007 -0.23811461 0.16508894 0.12162909 -0.32508487 -0.44278932 -0.23803996 0.10261198 0.55330414 0.47078392 -0.35908276 -0.07779295 0.07771312 0.17805137
2911 0.3121642 -0.13751093 0.19653626 -0.07914191 0.00036780947 -0.3052858 0.11110032 -0.15506858 -0.118437596 0.116897695 -0.49307573 -0.32454154 -0.03697592 0.117742315 0.2671807 0.042186297 0.033596333 -0.28610355 -0.37022528 0.30358925 0.314281 -0.25346097 0.091217756 -0.37532747 0.15557231 -0.47035572 -0.13223705 -0.29777488 -0.036752965 0.6437264 -0.2667542 0.67897445 -0.2750347 0.13489482 0.024955116 -0.34633327 -0.34632042 0.056656424 -0.28656557 0.41753647 -0.37480122 0.13850908 0.18418741 0.14870569 0.21237296 0.46033573 -0.38493842 -0.01037869 -0.10186233 0.20972373 -0.12424216 -0.38677004 -0.5288667 -0.23265518 0.26041836 -0.097036384 0.6877479 -0.024358077 -0.01736501 0.16066834 0.14225112 0.0053860946 0.15403356 0.1162543 -0.14596374 0.07026944 -0.043837216 -0.17169662 -0.21856035 -0.23475584 -0.22588222 -0.17700154 -0.09427135 0.44276094 0.08249354 -0.1021468 0.14452833 0.27746853 0.42931065 0.24576068 0.25098068 -0.25339222 0.23846135 -0.11138675 0.26576665 0.61713904 -0.40549466 -0.6399471 0.2271081 -0.019451244 0.15283374 -0.23812777 -0.017920624 -0.038049664 0.189467 -0.27564183 -0.42462465 -0.584077 -0.30686447 0.17170684 0.06823665 -0.08514639 -0.23529826 -0.08284808 0.6653669 -0.1419988 0.025985843 0.45084065 0.31641632 -0.052001685 -0.25826377 0.15200897 -0.28358594 0.3339459 -0.050582297 -0.026005834 -0.5866428 -0.32601285 -0.3674891 0.020785661 0.20070618 0.32968384 -0.23304899 0.344911 -0.25719577 -0.33833823 -0.18011665 -0.10419292
19720 -0.17587687 0.043461252 0.11556106 0.21781759 0.5888801 1.0206805 -0.123669825 0.24118738 0.5905226 -0.19054964 -0.6600673 0.5985439 -0.3418404 0.47765365 0.3446279 0.20060581 -0.99227226 -0.8740076 -0.06906339 0.21451485 0.6973347 -0.017471315 -0.08930304 0.40037745 -0.31641376 0.36510697 -0.27399793 -0.052883353 -0.06269075 -0.2213966 -0.4405388 1.0821654 -0.09695601 -0.38817438 -0.687032 -0.12999174 0.7128309 -0.28002656 -0.585768 -0.095415235 -0.27669883 -0.3843105 -0.08367403 0.72623605 -0.30395725 -0.21383552 -0.12669899 -0.25001925 -0.56866413 0.7786029 0.3192307 -0.8556265 -0.3170276 0.2710713 0.7300081 0.67390406 0.008844359 0.35201374 -0.65783095 0.86318594 0.5387399 -0.4309542 0.14100581 -0.582095 -0.83039004 -1.1164004 -0.471009 0.68432796 0.59318435 0.027906783 -0.22409287 -0.16416465 0.16012767 -0.41166586 -0.14628704 -0.23990886 -0.07142148 0.45341045 0.19609414 -0.070603855 0.32882792 -0.3243354 0.8659824 0.2540989 -0.7324195 0.32190114 -0.21156241 -0.19926052 -0.6834853 0.34729376 0.2615953 -0.7358346 0.5475609 -0.26224527 -0.21852523 0.84292996 0.24302058 -0.4404746 -0.09869724 -0.16871499 -0.5879237 0.09688793 0.666073 -0.41696286 -0.34344873 0.056495283 -0.22773236 0.32112834 0.31205332 0.2130527 0.7131678 0.6445314 0.09817532 -0.005628761 -1.10252 -0.23241289 0.11611697 -0.49885875 0.55179083 -0.3653526 0.5553033 -0.1709392 -0.69497764 0.1956524 0.4175604 -0.83555275 0.39502704 0.8146592
5111 0.36341575 0.4252256 0.34932345 -0.34107435 0.3470538 -0.35973668 0.10947505 -0.41180876 -0.01526313 0.3272483 0.04181831 0.5130515 0.08389051 0.24586353 -0.22839405 -0.38441557 -1.0028354 -0.2353909 -0.09791576 -0.6075268 0.26720557 0.31963438 0.44366685 0.08176058 0.7493916 0.28283703 0.5402574 -0.1442555 0.0060351156 -0.6765631 -0.23096903 0.5309106 -0.53137296 -0.0010388707 -0.51493675 -0.8563791 0.14063263 -0.22619598 -0.56555396 -0.093067266 0.53391594 0.7864181 -0.52147114 0.59165496 -0.024231402 -0.3352806 0.11642026 -0.6418012 -0.0031301535 -0.5445936 -0.042174365 -0.6773067 -0.35552573 0.16043587 0.08673195 0.41476282 0.6643459 0.15216975 0.06875027 1.2770953 0.24715509 0.76406044 -0.20142886 0.14435779 -0.11499211 -1.1628182 -0.68350434 -0.37589473 -0.1789217 0.17618518 -0.45449746 0.038017575 -0.38252726 -0.7172172 1.1008018 0.48573178 -0.2967258 -0.3537422 0.017654229 0.4842694 0.052554414 0.08061098 0.8142459 -0.24363971 -0.0662746 -0.33681312 -0.15326981 -0.7051076 0.0850681 0.08491882 0.48658514 0.73366946 -0.21243265 -0.4438418 0.35106 -0.45918608 -0.19888337 -0.64745504 0.3369021 -0.42783308 -0.7657203 -0.058531776 0.7863936 0.8214434 0.32446834 0.14925927 0.17665687 -0.05494303 0.42314717 0.30624235 -0.15920357 0.18325369 -0.7698415 0.785178 -0.23750363 0.2687993 -0.061227504 0.008325288 -0.69848317 0.25319836 -0.015103596 0.034909375 -0.5293783 0.32767582 -0.069421396 0.0955991 -0.33353865 -0.113580644
14277 0.14589807 0.009988466 0.1693479 0.06326755 0.5808474 0.48750126 -0.33620867 -0.17339532 0.2478684 -0.27222008 -0.631183 0.22194159 -0.13710612 0.010582709 0.4063009 0.22589982 -0.3669481 -0.09506584 -0.31185585 -0.20905583 0.24032722 0.03671635 0.6709389 0.198016 -0.15705024 -0.11362473 0.09182315 0.09994551 0.11898777 -0.09902916 -0.28874093 0.96395063 0.12907039 -0.26177838 -0.46016818 -0.3468987 0.4186465 0.32345846 -0.5564525 -0.2339889 0.14367536 -0.40013188 -0.37813252 0.06148788 -0.38418514 -0.2759293 -0.51757604 -0.29979187 -0.009692727 0.25551486 -0.03776956 -0.4543919 -0.21385033 0.4235516 -0.11549763 -0.18890376 0.26380968 -0.080705464 -0.32531092 -0.18037437 0.027248109 0.027368084 -0.22235003 -0.4851653 -0.16516264 -0.52328724 -0.7076332 0.2488698 0.04706787 0.88726074 -0.073704995 -0.5894826 0.46895516 -0.46603402 -0.2979441 -0.019297002 -0.33922142 -0.4819228 0.4252771 -0.34979707 0.06827129 -0.024411084 0.24267708 0.8057966 0.01424116 0.2929968 -0.40628028 0.50418574 0.066973135 0.42486128 -0.50721735 -0.8827237 0.5465433 -0.28471294 -0.2946417 0.16802752 0.028041467 -0.18557277 -0.12431242 -0.31923723 -0.8062977 0.13484463 0.47510517 -0.24110362 -0.113324836 0.13124916 0.124679126 0.19283976 0.3573686 0.080380246 0.6756686 0.6992052 -0.053720232 -0.058538925 -0.7422022 0.5083049 0.54903835 -0.26113135 0.44909558 0.36329228 0.38852343 0.09007111 -0.0601913 0.17646457 0.031407773 0.04192446 0.3037324 0.38495407
2289 -0.22103505 0.08743294 0.16122122 -0.0832752 0.82399756 0.6879072 -0.23175131 0.042288825 0.32531458 -0.5069904 -0.3117552 0.44844303 -0.16095218 -0.2590217 0.3860743 0.33898166 -0.4024639 -0.10487907 -0.28629914 0.2145587 0.2140814 -0.07996848 0.58632684 -0.0028805323 -0.0703435 -0.19642842 -0.03210905 0.1662122 0.0024527384 -0.5364803 -0.50599515 0.77563363 0.09388976 0.007065916 -0.19143872 -0.6300364 0.48638895 -0.09555095 -0.3666237 -0.25339732 0.17491394 -0.33022702 -0.17865981 -0.112511925 -0.1780577 -0.22499773 -0.4697781 -0.30156496 0.057578277 -0.010322051 -0.040531196 -0.5337769 -0.35673413 0.3165783 0.010162299 -0.18372007 0.078128055 -0.03900386 0.08970909 -0.09677403 0.077828206 -0.070220485 -0.21210484 -0.4310663 0.02358266 -0.7889776 -0.3545919 0.18865983 0.023494171 0.8645488 -0.30656138 -0.13368168 0.701701 -0.16872826 -0.37994763 0.14817768 -0.20190798 -0.2684622 0.4154815 -0.41482273 0.24121682 -0.07391072 0.3151374 0.8360708 0.0015441866 0.28156695 -0.47917366 0.55447155 -0.32386175 0.18863834 -0.26303762 -0.7770119 0.5081551 -0.33832547 -0.16093959 0.26911953 -0.05271397 -0.61652553 0.26772553 -0.30230758 -0.72693497 0.09616514 0.54705596 -0.23112282 -0.24516098 -0.0013459516 0.2821523 0.11615347 0.46000144 0.22994289 0.6827711 0.35716438 -0.1840744 0.08519282 -0.813017 0.302735 0.23807104 -0.14462866 0.38049883 0.3384885 0.30468494 0.18911554 -0.43362883 0.117605455 0.1443755 0.1857688 0.2507125 0.11505286
13351 -0.077407315 0.59805995 -0.5039184 -0.5846719 0.23572399 1.8793391 -0.35284686 -0.49967355 0.09399925 0.51120126 -1.0382333 0.42678618 -0.6071714 -0.21609378 0.3387337 -0.3960398 -0.79295474 0.59587115 -0.6181841 -0.3124736 0.8259888 -0.056801297 0.7502109 -0.2746211 1.440923 -0.2837243 0.3589389 -0.57639825 0.6941501 -0.91143316 -0.41169816 0.7678344 0.1154279 0.019433094 -0.5562349 0.71541584 0.41036856 -0.15563275 -0.8535335 -0.98145133 0.0661886 0.26406452 -0.8415923 1.3327826 -0.7226781 -0.18806733 0.473937 0.08494312 0.31513104 -0.24557114 -1.0598886 -0.14218737 1.0544925 0.0794025 0.82774174 0.38053957 0.1865399 0.61313236 -1.2582598 0.14435917 0.58763134 -1.3293588 0.5942131 -0.45549276 2.2479184 -0.25219816 -0.59128535 -0.1445132 0.12881891 -0.29259083 -0.30380568 0.28193974 -1.2407362 -0.9866814 -0.1269784 0.36227816 -0.6528536 0.95062625 1.0168953 -0.044398066 -0.4057949 -0.33717692 0.6184629 0.47959515 -0.22880477 0.6091795 -0.38182828 -0.35523212 -0.051504575 0.27351037 0.63858324 -1.1225669 1.0046788 0.16977742 -0.6089436 0.59168273 -0.0016610646 -0.64753574 0.04370076 -0.48848853 -0.2753591 -0.68619454 1.3794653 0.101109155 0.43120986 -0.25776613 0.35665503 2.0168073 0.9457899 1.4306979 -0.24254282 0.7089955 -0.07454094 1.39411 0.22864369 -0.07400099 0.32713306 -0.50635177 0.31947574 0.099741206 0.5925873 -0.5059367 -0.44720694 0.27514294 0.21475771 -0.42945144 -0.559024 -0.5652403
