2182 128
452 0.59028083 -0.19807263 0.81691504 -0.14155573 -0.061938327 -0.5630321 -0.3054043 -0.43399867 0.24341308 0.6051722 -0.36587712 0.20724037 0.55249596 0.09506285 0.7180643 0.20061277 -0.20245925 0.04417803 -0.07459343 0.09118502 0.27622464 -0.06804833 -0.04252863 -0.42322108 -0.24407674 -0.101054974 -0.08707198 0.009529296 -0.2472557 0.0956709 0.090768896 -0.08455869 0.27684978 -0.23890091 -0.05383175 -0.31990716 -0.048912358 -0.24952377 0.019963572 0.07718172 0.028134597 0.38409922 0.4985715 0.30100304 0.12791099 0.6294667 0.08468141 -0.07149107 -0.5449719 0.13417529 -0.39918807 -0.350272 -0.3162778 -0.44408444 -0.20630623 0.23765148 0.21406125 0.013009545 0.24720305 0.13534436 0.38760456 -0.13567896 0.20358449 -0.33647844 -0.009488068 0.27463615 -0.4190272 -0.25013298 -0.2087597 0.42665592 -0.3302642 0.29307362 0.20055425 -0.12493382 -0.3064592 0.6660905 0.8575319 0.61585873 0.08748183 -0.056697153 0.37977794 0.045376193 0.31245166 -0.20284578 -0.3323444 -0.2563164 -0.24085352 -0.761759 0.06908155 -0.3348955 -0.073781796 -0.40240496 0.5603725 -0.46078855 -0.13207604 0.45665902 -0.022827035 0.3583899 0.14129616 0.07728181 0.01821836 0.75475144 -0.60045356 -0.4209061 0.7948637 0.22775678 0.21375988 -0.35384876 0.15095443 0.038691446 0.5401225 0.18065819 -0.30008858 0.2018585 -0.8279099 -0.12478489 -0.66824275 -0.63312376 0.3300822 0.3033405 -0.12418784 0.3364122 0.066009454 0.009881255 -0.13094851 -0.055974413 0.018411499 0.32716793
2462 0.15645371 0.07995203 -0.28431976 -0.46750635 0.15251882 -0.6262584 -0.38429785 -0.42742336 0.62015104 0.014100722 -0.32963812 0.29367054 0.17761198 -0.11085381 -0.25864565 -0.0687733 -0.70646584 0.35396624 0.2853692 -0.42068213 0.029283626 -0.014368566 0.14554878 0.47562054 0.36708012 0.110757455 -0.08030844 -0.6341867 0.10627425 -0.5822839 -0.24783197 0.32640308 -0.088956885 -0.37677968 -0.31164378 0.21195513 0.06723363 -0.067933954 -0.095199145 -0.15200262 0.08840603 -0.24037863 0.7258227 0.43020472 -0.16933233 -0.34193987 -0.4448097 -0.38231656 0.14648554 0.030099612 0.5940302 -0.2864009 0.58083045 -0.08864968 -0.015109619 0.0702333 0.1996159 0.063581735 -0.19650026 -0.12560208 0.32157347 0.17437825 -0.24273224 -0.3184269 0.04479773 0.39233038 -0.77359813 -0.26096737 0.12615438 0.3468616 -0.109332606 0.22557057 0.524806 0.26842764 -0.44181255 -0.03759696 0.31388676 0.09057819 0.34700516 0.11591577 0.017377537 0.04974799 -0.10092942 -0.06557782 -0.19219805 -0.09415643 0.28880548 -0.14103356 0.22747746 -0.17710868 0.47729418 -0.14579603 0.44419655 -0.81897455 0.061422594 0.23923416 0.14388314 0.022445269 -0.10907456 -0.20550638 0.10892959 0.08820965 -0.18946342 -0.7347945 -0.0021683613 0.13221937 0.26924932 -0.23411702 0.5430645 -0.19354478 0.15539213 0.2203737 -0.26570117 0.08783462 -0.048592504 0.22803168 0.038322706 -0.029150607 0.21349786 0.42593622 0.12998568 0.061642572 -0.116401054 0.16570549 -0.268194 -0.48081326 0.031480763 0.46988317
724 0.05272757 0.32063124 -0.12249145 -0.6221164 0.34737614 -0.091466226 0.21577676 -0.21894754 0.47523913 0.10831481 -0.37760386 -0.17014267 0.29000866 0.057655696 -0.18962924 0.081444025 -0.4079769 0.45430154 -0.06920079 -0.6047073 -0.25669646 -0.008931105 -0.3965104 0.16699983 0.16248406 0.16680837 -0.13021564 -0.4917741 -0.039212577 -0.33316013 0.12970923 0.38244057 -0.2511115 -0.1199894 0.14287983 -0.18370287 0.49865422 -0.47942683 0.092552684 -0.17439768 -0.36316 0.20045207 -0.14986546 0.2698047 -0.13580205 -0.2451751 -0.3613523 0.07739641 0.15045485 -0.0045051095 0.07026718 -0.40297773 0.6482596 0.0345076 0.34620178 0.33345902 0.4113139 -0.048123326 -0.12950546 -0.24685924 0.20151094 0.12977058 0.30783585 -0.22954698 -0.15313363 -0.014720482 -0.3190212 -0.83440673 -0.031817906 0.23670453 -0.24782795 0.2317057 0.12869743 0.1289442 -0.25239012 0.5610991 0.03038117 0.00395646 0.07162166 0.04601114 0.44877833 -0.050350502 -0.010308956 0.22308636 -0.6789175 -0.11257086 0.030035077 0.031323206 -0.430637 -0.22744466 0.26671302 -0.10403391 -0.0690186 -0.10648874 -0.29338515 0.10523519 -0.2540792 0.005000227 -0.16862625 -0.38597882 -0.010643585 -0.0068045775 0.536538 0.075174525 0.015993938 0.026718544 0.4361129 0.11191573 0.0687516 0.15022606 -0.15491603 0.1200644 -0.05121225 0.30018812 0.04833087 -0.37269747 -0.14260694 -0.40713602 -0.07505691 -0.1729996 0.06321533 -0.07140146 -0.094527766 0.181846 -0.13257419 -0.086348966 0.05828211 -0.03706319
35 0.15553331 0.47505763 0.1738811 0.09220728 0.74161017 -0.1899501 -0.7608015 -0.004810404 -0.09199931 -0.467029 -0.47175127 0.47855434 -0.6465745 0.024990093 0.35715482 0.021592796 -0.6552802 0.4198642 -0.1676316 -0.05440408 -0.13565518 0.0012644625 0.43462816 0.08517076 0.5100506 0.48370478 -0.47437835 0.56061935 0.20449002 0.5799468 -0.6720109 0.21957381 -0.3445391 0.61664546 0.08948019 -0.08773297 -0.42335525 -0.3084635 0.1280598 -0.52663845 0.10913193 0.3156741 0.18722348 -0.6909493 0.09601078 -0.34024376 -0.45437717 0.33760136 -0.79490304 -0.23126942 0.21244656 -0.79238325 -0.16878739 -0.4107941 0.31660923 0.07103832 0.027469901 0.3746196 -0.05434034 -0.17163216 0.2812432 0.36827743 -0.0761835 -0.34790644 -0.18559939 -0.045430597 0.08486569 0.6106971 -0.11247905 0.74514604 -0.11183461 -0.14128235 -0.48358637 -0.025436243 -0.100173995 0.6771367 0.07564434 -0.16601916 -0.00674996 0.7642911 0.063542366 -0.36276063 -0.14628069 0.1582413 0.60111654 0.08046174 0.074074164 0.37062627 0.6379119 0.33411276 -0.14154267 0.059160337 -0.20296218 -0.5611367 -0.47980374 -0.22020733 -0.4726836 -0.2747389 -0.67401075 -0.52452904 -1.1440072 -0.010630049 0.0024112677 0.28221458 -0.67564726 -0.37821606 -0.3165485 0.12941423 -0.21949144 0.80731755 0.12758708 0.36527875 -0.20519404 0.009895917 -0.27778092 -0.3605924 -0.13447782 -0.64109445 -0.14524345 -0.71844417 0.7296454 0.37437427 0.21624102 0.24370646 -0.34709647 0.4223695 0.522523 0.14525501
2 -0.4666835 0.40099913 -0.014067938 -0.2703755 0.027029166 -0.049136814 -0.85219467 0.16072945 -0.31912872 -0.38152653 -0.5597154 0.4191043 -0.11538299 -0.49248773 0.66262853 0.28683785 -0.07629577 0.25160983 -1.1916429 -0.69812685 0.6189794 0.4192558 0.027551185 -0.39406916 -0.042654984 0.3319156 0.13215938 -0.46471703 -0.8896557 0.37373015 0.18980037 -0.24157047 -0.3774598 -0.016804153 0.374109 0.43360874 0.03228722 0.04275845 0.12204243 -0.026140166 0.42484322 -0.08491578 -0.087767646 -0.16192988 0.6987651 -0.12685294 -0.23192203 -0.5247679 -0.034510233 -0.19294192 -0.061693322 -0.08400331 -0.21247399 -0.11465482 0.10881078 -0.45386863 -0.38961124 0.25561383 0.62250304 -0.3569724 -0.5038469 -0.19156884 0.09069524 0.67596346 0.37335795 -0.53261256 -0.6486464 -0.687241 0.3647969 0.28467903 0.08006955 -0.009957747 -0.16852988 0.2664488 -0.67699647 0.18057626 -0.26570576 -0.65030926 0.1134 -0.0982306 -0.39816096 -0.15180896 0.76150316 -0.47884622 -0.17560779 0.38940522 -0.170578 -0.36384663 0.044555154 0.052875597 0.18915468 -0.33507416 0.036523875 0.2059912 -0.20943046 0.39393297 0.41177383 0.20945226 0.1661242 -0.4617327 -1.0417285 0.19857079 0.5060546 -0.16801652 -0.24803078 -0.06707843 0.5225672 0.14113392 0.32045522 0.36286694 0.13174297 -0.1607866 -0.30441207 0.9857663 0.14891972 0.68865496 0.7004299 -0.55222106 -0.26814803 -0.5748993 -0.20509954 0.12662268 -0.22047943 -0.25559133 -0.46773311 -0.23685399 -0.063807674 0.111719824
5731 0.27785426 0.052919775 -0.56751764 -0.5751301 -0.0953462 -0.60627085 -0.592334 -0.44700935 0.8249837 -0.08590161 -0.42446226 0.29982275 0.23537765 0.09925568 0.08114771 -0.24570413 -0.524867 0.19892935 0.43448824 -0.5025202 0.03998347 0.06778998 -0.056188907 0.4924929 0.17538737 -0.039938215 0.056822952 -0.71414447 0.24686708 -0.59561294 -0.48571327 0.5755966 -0.09180142 -0.3949102 0.11230627 0.31382197 -0.016357902 0.009033782 0.11799743 -0.41710085 0.15945612 -0.14401673 0.9747978 0.047107726 -0.0133814495 -0.37132984 -0.6054763 -0.28977498 0.26763904 0.24047053 0.56244224 -0.52822435 0.23293085 -0.09816971 0.20579895 0.36248034 0.07059518 0.38296637 -0.15706089 -0.056809485 0.19984968 -0.024084007 -0.22387356 -0.43820325 0.12037079 0.39250493 -0.78172064 -0.10983319 0.014401348 0.45056102 0.08806487 -0.1882191 0.31917316 0.43832466 -0.6674228 -0.16223462 0.37563473 0.24991329 -0.013196808 -0.03620381 -0.07206852 -0.086660616 -0.15245849 0.16649328 -0.4573713 -0.12447949 0.1427821 0.09196476 -0.10431098 -0.20819652 0.4225871 -0.1239437 0.30992106 -0.8024106 0.30964544 0.45404083 0.14981404 0.16367634 0.23976493 -0.05272137 0.18394129 0.07612995 -0.2265722 -0.8189782 0.34137928 0.27713385 0.108020104 -0.08921904 0.3452961 0.075148635 0.359742 0.1890774 -0.29499224 0.1715064 -0.22766797 0.30725753 -0.027559223 -0.25624365 0.105735585 0.44535068 0.0114671355 0.018322451 0.018292163 0.15410869 -0.30874124 -0.27268147 0.019394452 0.5969339
1465 -0.0028518082 0.3556823 0.14138086 0.043161523 0.96310985 0.46243033 -0.09036847 -0.20642512 -0.047095235 -0.44763306 -0.3505692 0.6145191 -0.3408056 -0.2717029 0.41875237 0.08930661 -0.024634037 0.3754515 -0.49346983 -0.0023810721 0.4856453 0.16128713 0.4841784 -0.114407875 0.28625748 -0.08109073 0.11920094 0.10533992 -0.42129126 -0.008002032 -0.22712338 0.3518884 -0.134076 -0.19021536 -0.021032088 0.18384826 -0.0215459 -0.050732154 -0.52374893 0.31221518 0.086747974 -0.15124124 -0.25481212 -0.078043975 -0.31685805 -0.10939653 -0.085244834 -0.57008344 0.25708538 0.34027615 -0.15358509 -0.22408037 -0.2695725 0.15954609 0.39380258 0.088307105 0.16746983 0.30665648 0.068843246 0.5023672 0.009922511 0.12543795 0.1559061 -0.48146257 -0.13610704 -0.34424818 -0.50826454 -0.14551306 0.042220157 0.20373553 -0.059056073 -0.6525523 0.50664234 -0.21206728 -0.34165737 -0.3326067 0.056713082 -0.20106237 0.44945526 -0.108119674 0.0016000326 -0.49962756 0.503545 0.58055454 0.059593394 0.22791828 -0.542986 0.15331988 0.3823389 0.018780349 -0.33604664 -0.8651476 -0.28626966 0.05602998 -0.44997293 0.2691229 -0.4463046 -0.09296362 0.13037294 -0.23634359 -0.65559465 0.15755026 0.28508693 0.24737026 0.04678398 -0.24329059 0.13117026 0.42124727 0.12221519 0.47882232 0.54961133 0.5194509 -0.5706841 0.007938776 0.2088336 0.077834554 0.49114397 -0.20969853 0.1527464 0.15124868 -0.25261846 0.3383904 -0.1942728 0.13528144 -0.25375998 -0.14867374 0.07942652 0.0013450639
8349 0.5350184 -0.11169598 0.5041899 -0.7904282 0.06876048 -0.31493393 -0.29981717 -0.71650076 0.69246614 0.15728372 -0.24393705 0.13520296 -0.007983607 0.025398917 0.2757063 -0.39656144 0.0071565793 0.008138768 0.5145281 -0.15452681 0.44046843 -0.2474184 -0.21358442 -0.16033292 0.17268835 0.28643176 0.18465059 -0.3401168 0.4768001 -0.31464976 0.27820247 0.62592477 -0.31993863 -0.4620757 0.21333377 -0.16211814 -0.10769842 -0.13752303 0.1541147 -0.16843145 -0.21852846 0.5609253 0.5338988 0.51659197 0.110910125 0.063081056 -0.3331118 0.2055335 0.18696372 0.3839711 -0.2565228 -0.57970184 -0.02253846 -0.34533414 0.0073936256 0.25431842 0.5020631 0.45838144 0.6162299 -0.07900877 -0.07014666 0.040371303 -0.030607492 -0.6159483 0.20639153 0.5021768 -0.3797138 -0.18245408 -0.024113024 0.47038502 -0.5057406 0.012279264 -0.56906724 0.40252966 -0.36334106 -0.26019216 0.73465645 0.25053847 -0.20313433 -0.21527113 0.06984945 0.24122827 0.29920265 0.0623155 0.24811652 0.12684 -0.03717098 -0.6974297 -0.2406744 0.096112795 0.1144198 -0.1972877 0.44528422 -0.3556749 0.10304436 0.5210497 0.042924143 0.17904279 -0.21298726 0.17272648 0.002157586 0.48389858 -0.41677666 -0.40863538 0.29817674 0.35662743 -0.14288026 0.009909697 0.44497845 -0.091463886 0.4963008 0.25751454 0.046623845 0.30802426 -0.45467675 0.36818957 -0.5501626 -0.061075293 0.11325259 0.45934567 -0.33908862 0.53152424 -0.15879287 0.08124631 0.18879071 -0.4450776 0.5487198 0.37039652
491 0.34354487 0.06590078 0.11689701 -0.38988146 -0.0606818 -0.73362285 -0.35588148 -0.4888062 0.73068964 -0.16001561 -0.16456814 0.2600185 0.47410262 -0.26808777 0.22995378 -0.2669127 -0.2066306 -0.10514043 0.18009287 -0.3301689 0.43534082 -0.044273965 0.48143366 0.64409184 0.19946514 0.048257876 -0.15319847 -0.43270317 0.1117055 -0.28024086 -0.622697 0.36413816 0.022115434 -0.26921356 -0.4341177 0.08323681 0.10307318 -0.36131182 0.55504394 0.029621849 0.4049749 0.17592539 0.3670049 0.33130994 -0.3241587 -0.25800145 -0.3011912 0.09807675 0.3140646 -0.11832142 0.4474091 -0.7293337 0.18413152 -0.1463847 -0.30655625 0.5081557 0.33478728 0.18417908 -0.3853364 0.011319984 0.14321975 0.48465604 -0.17632774 -0.35134006 0.37996063 0.20893699 -0.61735994 -0.4585857 0.2869438 0.64162487 -0.010600608 0.30910414 0.06956466 0.33974653 -0.7251367 -0.25962368 0.45715582 0.34845436 -0.021068411 0.14898771 0.39577624 -0.28934953 0.040187668 -0.41956303 -0.51326436 0.11456692 0.3621942 -0.2924995 -0.10429057 0.17389336 0.23790239 0.108972766 0.35140476 -0.49327514 0.06661557 0.32973424 0.016316243 0.28783724 0.20428081 -0.33050033 0.09917618 -0.2609586 0.020623146 -0.55122966 0.18991794 0.112829834 0.14732572 -0.3438601 0.7867614 0.062936865 -0.10258774 0.28535378 -0.1749586 -0.38402164 -0.2602466 0.29231665 -0.114196576 -0.49379107 0.16562146 0.34653038 -0.2124705 -0.15525143 -0.33801302 0.21312337 -0.06640143 -0.57776207 0.19693044 0.119050555
1565 -0.18069002 0.32757914 0.16546234 0.009303236 0.74153703 0.5903091 -0.2591231 -0.3753016 0.32102466 -0.585343 -0.3565147 0.63671523 -0.027108325 -0.19751915 0.76272976 0.1939259 -0.17857556 0.4706661 -0.52047694 -0.17597997 0.47263885 0.20625517 0.46186996 -0.107257314 0.5292185 0.053544115 0.12611987 0.14094613 -0.16253711 -0.19917564 0.003356415 0.23209894 -0.09078824 -0.20881785 0.013696203 0.26564324 -0.18416893 0.088262536 -0.73828924 0.24989608 0.011001229 -0.06752306 -0.46780202 -0.10953437 -0.4375066 -0.42586976 -0.25666273 -0.3294929 0.28005555 -0.08722505 -0.23062693 -0.24075457 -0.18608193 0.21572226 0.3648651 -0.10013618 -0.07321715 0.4119537 0.11626804 0.64794886 -0.0008861704 -0.3135659 0.16335556 -0.81664485 0.23725733 -0.57138467 -0.53075683 0.05032105 0.12963776 0.2936269 0.009287193 -0.5937002 0.25132954 -0.399728 -0.62270176 -0.09663416 0.01643877 -0.20223123 0.24018215 0.062143695 0.020351794 -0.22786173 0.81897926 0.324209 0.15573627 0.4997954 -1.1922777 0.36130378 0.33239424 -0.26103398 -0.32539716 -1.1697952 -0.4172431 -0.22618365 -0.5541781 0.574299 -0.3461635 0.25680825 0.3715845 -0.09264846 -0.38717964 0.3219526 0.45579988 0.0258006 0.15855625 -0.559305 0.0885263 0.49766392 0.09184139 0.39940214 0.67643875 0.7672136 -0.7421771 -0.27888766 0.15944164 -0.28047204 0.70313185 -0.30937234 0.08108263 0.077254176 0.23235206 0.67227185 -0.039342728 0.13352236 -0.20137142 -0.45099902 0.3356409 0.11729879
4473 0.27560246 -0.30299294 0.19430217 -0.2056972 -0.17898902 0.044689592 -0.0943505 0.044712417 0.14679019 0.1912627 -0.4019728 -0.37426758 0.043155223 0.083825685 -0.52946097 -0.2734602 0.055069868 -0.06414518 -0.053534474 -0.18397336 0.20873259 0.29124594 0.14131816 0.22867684 0.28383553 -0.14855035 -0.49278733 -0.5984785 -0.026104845 -0.3278996 -0.26043203 0.13968787 0.048726145 0.31137326 0.2212583 -0.2279722 0.6348665 -0.44728282 -0.33215252 -0.16424151 0.16240178 -0.0051621515 -0.19960937 0.3554116 -0.41760737 0.009678136 0.0030982678 -0.56528527 -0.26948294 0.32036763 -0.42897603 -0.36345762 -0.11704579 0.024102965 0.43925607 0.70131385 0.7330698 0.12816408 0.11679012 0.17207341 -0.13927656 0.15304162 0.4343985 -0.35177472 -0.4624289 0.15375578 -0.75668097 -0.16077034 -0.34131882 0.6532495 0.14459583 0.1125528 -0.2723257 0.37407827 -0.038529303 0.74340403 0.19216181 0.19136213 0.22381496 0.2138193 -0.26770684 0.34659162 0.6422979 0.18607166 0.21622269 0.26627508 -0.16918166 -0.45339927 -0.020935569 -0.27433926 0.041451894 -0.35793453 0.27061614 -0.04057129 0.16418748 0.12115816 0.020468634 -0.31161612 -0.1875846 0.30701545 -0.7763864 -0.15404554 0.32820567 -0.5233641 0.44021985 0.10642396 -0.18564476 0.031149926 0.08310214 -0.07419982 0.019057054 -0.43684325 -0.4191059 0.35600656 -0.18549328 -0.09723061 -0.30109942 0.16784428 -0.28751388 0.033774808 0.2994051 0.01137671 -0.15141559 0.18336286 0.038769055 -0.0740658 0.3854513 0.11753227
1788 0.0063485606 0.6197123 0.8187711 -0.44204965 0.25767487 0.37912455 -0.26896074 1.0062737 0.25826043 0.48402706 -0.8071266 0.15009098 0.7072421 0.014653883 0.77666503 0.3285829 -1.3905686 -0.026002508 -0.44298783 -0.7453809 -0.9664858 -0.6525649 0.06907383 0.2424869 1.098918 -0.2933145 0.62704426 0.38742068 0.99491036 0.385851 -0.86840326 0.5964637 -1.2051398 0.102942355 0.049610633 0.009411164 0.35367084 0.40301466 0.21409635 -0.17919263 -0.21127856 0.2340261 -0.19487534 -0.3540861 -0.41193163 -0.14936267 -0.28410128 -0.30757067 0.29376864 -0.17541984 0.2076003 -0.53951657 -0.79453945 -0.36703286 -0.26329657 0.09938619 0.75963324 0.8098142 -0.09456728 1.217496 0.78550535 0.7155778 0.732547 0.17013526 0.20522644 -0.48113307 0.09034175 0.24657828 0.5062727 0.5422987 0.88095003 0.748977 -0.53039795 -0.083416335 0.39298373 1.4833019 0.24537626 -0.07361667 0.010023416 -0.19545709 0.30610305 -0.078442976 0.3402169 0.27741277 1.3236398 -0.10669041 -1.5888202 0.33834922 0.15682451 0.2998446 0.85217375 -0.41727397 0.4260914 -0.030783692 -0.38554215 0.021015614 0.7844644 -1.275481 0.53319055 0.32990056 -0.8963104 0.6728195 0.8563466 -0.33254108 0.7612097 -0.055783242 -0.8222564 -0.7547607 0.69875497 0.32680753 0.6683187 0.43530056 -0.6297691 -0.9298209 -0.30178872 0.24919708 0.40006346 -0.6600786 0.78645194 -0.45654362 -0.38011223 -0.31845045 0.052257087 -0.3479702 -0.42884266 -0.60419494 1.3504027 0.35463622
50114 0.113939896 0.70137185 0.81890416 -0.372036 0.29547238 0.35775888 -0.29232824 1.057844 0.25873947 0.5512791 -0.7707826 0.12294599 0.67663836 0.045980968 0.8348032 0.27718997 -1.4386479 0.017806992 -0.53701806 -0.6821435 -1.0073787 -0.7784815 0.03049912 0.30424193 1.1423479 -0.36976823 0.67535365 0.40113798 0.90499914 0.31584185 -0.928642 0.57216316 -1.2415991 0.06232075 0.03329768 0.06382986 0.2939989 0.3577166 0.18397163 -0.27005982 -0.1783743 0.24228159 -0.1862841 -0.39332086 -0.48930943 -0.10498073 -0.37300345 -0.38952562 0.35013288 -0.15562369 0.28601 -0.5452586 -0.85425717 -0.3207462 -0.37185878 0.17244986 0.74719054 0.76688814 -0.1483872 1.2047404 0.82906675 0.71304864 0.82538843 0.14746886 0.33309415 -0.47470972 0.021831997 0.23806798 0.5939421 0.5294245 0.90760386 0.7928515 -0.5858747 -0.07068348 0.42185676 1.4991692 0.20407043 -0.14954942 0.02052633 -0.20478453 0.28701526 -0.08408348 0.4114743 0.1718739 1.3941468 -0.08816131 -1.6803565 0.3663619 0.26227787 0.28905374 0.9134582 -0.4857193 0.49168652 0.02026151 -0.39712325 0.12960358 0.8457531 -1.3129593 0.5864836 0.20976856 -0.97284305 0.68655634 0.7666347 -0.31085712 0.7620107 -0.057338435 -0.79733163 -0.727675 0.7203737 0.31561148 0.5971887 0.42702273 -0.6364463 -1.0368142 -0.27204192 0.20478773 0.3135837 -0.6439087 0.84034634 -0.49563316 -0.31998533 -0.32118088 0.009723229 -0.39821416 -0.38401967 -0.63782334 1.4062887 0.26916918
1897 -0.1593638 0.24176091 0.20039238 0.016406495 0.8084073 0.5404285 -0.29450485 -0.28440928 0.3730023 -0.63755566 -0.3043008 0.7427339 -0.2680236 -0.17719711 0.6448625 0.05481563 -0.16776337 0.46600893 -0.40212387 -0.123832196 0.40952095 0.17773591 0.6234353 -0.26045278 0.43238702 0.089391336 0.094364405 0.08340209 -0.15582533 -0.15232018 0.03698685 0.24800597 -0.122691095 -0.26028392 0.19211769 0.31793278 -0.28217807 0.07416381 -0.75876683 0.27373582 0.16215762 -0.0952969 -0.47543412 -0.26715666 -0.5428404 -0.39480624 -0.26821402 -0.33042055 0.4149803 -0.024160182 -0.16910402 -0.3011777 -0.27511138 0.23179202 0.5564666 -0.05948524 0.015472761 0.4642717 -0.078548536 0.64766693 0.052349143 -0.17812261 0.11034431 -1.0158883 0.1870394 -0.6506513 -0.5572733 0.005008385 0.146289 0.29846945 -0.06296751 -0.71991634 0.28132164 -0.48285457 -0.654273 -0.16710714 0.112724565 -0.06696503 0.41686016 -0.08103219 -0.10416834 -0.3349003 0.49999744 0.44739947 0.052764587 0.4836971 -1.2965536 0.4541522 0.30845627 -0.1837417 -0.32150424 -1.3655196 -0.27139038 -0.24824764 -0.6432125 0.73306835 -0.60349196 0.045428164 0.49607867 -0.033246424 -0.57566786 0.19103912 0.47629705 0.026396573 0.068289876 -0.32168832 0.15249604 0.4847597 0.18082193 0.51754344 0.6748 0.89226484 -0.64070815 -0.11905255 0.017124105 -0.2833094 0.7199852 -0.20779184 -0.033204723 -0.02831815 0.16188227 0.74738175 -0.28030935 0.28989744 -0.19370444 -0.35148865 0.3813153 -0.053723205
1615 0.6603283 -0.12197608 0.5630976 -0.0069382265 -0.2673743 -0.17419352 -0.21471493 -0.027262226 0.04389694 -0.28044802 -0.8070245 -0.16610682 0.0094574625 0.32850605 -0.19045839 -0.18633376 -0.52074504 -0.03759418 0.30055255 -0.57970315 0.31146938 0.24147855 0.043694336 0.15421757 0.4947434 -0.64203227 -0.033876866 -0.67736685 0.51136553 -0.58704174 -0.3042523 0.1353989 -0.057240035 -0.037461467 0.085970305 -0.3692919 0.18646239 -0.67676 -0.17523773 0.2441513 0.13325024 0.23838772 0.10420273 0.6207116 0.06265944 0.22679275 0.042777598 -0.45912516 0.07933761 0.32117698 -0.25049007 -0.37158337 -0.16264693 -0.41007596 0.65944445 0.66993517 0.70456964 -0.24491046 0.2076615 0.07196192 0.018202512 0.11901785 0.54056954 -0.32517016 -0.45635635 -0.2015668 -0.5892305 -0.23132116 -0.61872095 0.24229266 0.20534728 0.11103191 0.25717106 0.7183786 0.6763124 0.39874062 0.067810476 0.30164468 0.22416145 -0.16493298 0.023536349 0.5486538 0.60716075 0.016711354 0.5060214 0.54198 -0.010955462 -0.21799532 -0.03071543 -0.26056927 -0.05168027 -0.8479116 0.48920757 0.0530136 0.18855757 0.49270242 0.10910186 -0.41316193 -0.021777254 -0.021335365 -0.62723774 -0.015034516 -0.35908216 -0.32293427 0.87041336 -0.09158028 -0.16258058 0.13100816 -0.2512836 -0.036864508 -0.010111111 -0.40976012 -0.5085892 0.43737414 -0.092888474 0.07231444 -0.33611456 0.19821087 0.051885474 0.1456241 0.80225134 0.05755996 -0.1331505 0.16322948 -0.115278 -0.028158793 0.11572805 -0.098177806
3153 -0.33638102 0.142609 -9.130076e-05 -0.6431247 0.056077555 -0.23530391 -0.4701896 -0.09150524 0.4971097 -0.10666009 -0.058089454 0.24676228 -0.101504385 -0.09009145 0.070531115 0.27515763 -0.86535877 -0.18267195 -0.01034783 0.10193123 -0.18025906 0.05052498 0.5082587 0.39722875 -0.19716406 0.3147612 -0.044826828 -0.5553672 0.11427768 -0.4634662 -0.5014218 -0.13419162 -0.49201345 -0.41094604 0.01866775 -0.18920095 0.7504174 -0.48677996 -0.6718945 -0.5031888 -0.26400694 -0.026015617 0.4831301 0.14475161 -0.44240698 -0.079706125 -0.77235895 -0.18342362 0.37024075 0.045750283 0.12046142 -0.5288676 0.1598184 -0.3588193 0.2266355 0.34679425 -0.0405546 0.3370039 0.16968872 0.08487704 0.27938998 0.28056827 -0.07622998 -0.06766465 0.2758854 0.04795294 -0.66584116 0.08388659 -0.062453736 0.09697421 -0.2644619 -0.0028708836 0.31688535 -0.16125737 -0.07811358 -0.12287821 0.10215663 0.10506991 0.21436122 0.38353655 0.087734096 0.58069515 0.15631796 -0.029666018 0.005239805 0.22061568 -0.07667774 -0.31319523 -0.42011935 0.23554237 0.2900434 0.016266026 0.14209343 -0.5861759 -0.0018730373 0.5257512 -0.2293547 -0.07002659 -0.12309266 -0.19363129 0.40462118 -0.32556602 -0.23562826 0.026705597 0.18763307 -0.13344496 0.22513226 -0.40933263 -0.13359565 -0.22154334 0.41097823 -0.20826007 -0.19818114 -0.2226835 -0.081545286 -0.21354021 0.2208245 -0.40137476 -0.12646085 -0.0704662 -0.035452873 0.03942599 0.10925879 0.12873517 -0.18991531 0.23521651 0.06232466 0.08387508
13620 0.4931239 0.029296074 0.5862082 -0.2227037 -0.21858786 -0.67735296 -0.8175976 0.67719465 0.6679487 0.014465617 -0.32321528 -0.07341726 -0.49808368 0.27205506 0.049278017 -0.0062707565 -0.3534987 -0.28610307 -0.8694481 0.1918883 -0.060042877 -0.16880046 0.02274814 0.19480337 -0.04586401 -0.20402418 0.35731944 -0.7969054 -0.21769786 0.11088931 -0.32423744 0.07791878 -0.025419481 -0.17431167 0.569302 -0.3085171 0.12951206 -0.40066734 0.28435275 -0.24724367 -0.36727393 0.049206547 -0.4960713 0.052173164 0.68973947 -0.09915779 -0.14019953 -0.54462403 -0.68592936 0.10592171 -0.42317522 -0.1860499 -0.081452474 -0.141091 0.34227684 0.56225014 0.6382594 -0.0049003637 -0.44492888 -0.3587222 -0.1760137 0.10491418 0.4810657 -0.74467593 0.21770877 -0.54388756 -0.08262989 -0.5085217 -0.41325334 0.30218157 -0.42482957 0.61315966 -0.01860424 0.43603787 -0.5819494 0.10503292 0.20983638 0.53067356 0.40068823 -0.7678459 0.26338813 -0.28080887 -0.014727804 0.046157677 0.14119686 0.35043555 -0.9435349 -0.9156707 0.10626562 0.1393723 -0.058208928 0.016190732 0.19631964 -0.22174107 0.04079528 0.39298564 0.34658033 -0.33709064 0.383929 -0.040166687 -0.008066674 0.19229224 -0.49417287 -0.14563444 0.75617725 -0.872922 -0.033596452 0.34286264 0.0870397 -0.03384151 -0.19381481 0.19739243 0.07771722 0.105310336 0.088630006 -0.24176604 0.06256606 -0.38753745 0.14124897 0.5222004 0.5370887 0.013487503 0.23989496 -0.04602132 -0.23717453 0.14249024 0.07273741 0.2860598
210872 0.1646939 0.40047184 0.38190505 0.073923744 0.751103 -0.13509463 -0.85508144 -0.0866475 -0.047143735 -0.59812856 -0.48010996 0.56289566 -0.4799663 -0.0708313 0.28546873 0.10288683 -0.7210135 0.34222278 -0.3280345 -0.09154802 -0.17513208 -0.07036935 0.51543516 0.058173146 0.3110511 0.44317198 -0.23831777 0.5473014 0.33937752 0.70268875 -0.50426835 0.20616323 -0.3146196 0.60874456 -0.044816226 -0.20181014 -0.36498222 -0.3111212 0.26408145 -0.37323114 0.14082669 0.32642356 0.28690988 -0.72075754 0.08860008 -0.3304037 -0.4050388 0.3883215 -0.7902763 -0.2709504 0.14453149 -0.7588995 -0.21638708 -0.35802943 0.2380169 0.09601588 0.040602572 0.3246826 -0.070175335 -0.1284356 0.35998562 0.33372843 -0.07133737 -0.5021506 -0.085540324 -0.13741964 0.012498181 0.62460643 -0.110529006 0.8859676 -0.19046949 -0.09434108 -0.5836488 0.11643892 -0.3676768 0.83640575 0.2185256 -0.031338822 0.112945236 0.79307604 0.035014838 -0.35185954 -0.25814566 -0.00626398 0.63717854 0.072576396 -0.009950829 0.3528949 0.676821 0.26295772 -0.19635731 0.12846045 -0.17459266 -0.61936045 -0.44745073 -0.34372538 -0.45162815 -0.2944651 -0.58932906 -0.44300324 -1.1665072 -0.039697535 -0.00057991594 0.37780535 -0.72373134 -0.46972758 -0.35028458 0.16755007 -0.22487067 0.7172825 0.16328014 0.41872144 -0.2771371 0.12433798 -0.17613646 -0.32581705 -0.18137002 -0.6665642 -0.09991221 -0.8067759 0.75144225 0.34076506 0.25701684 0.31244576 -0.42080066 0.35016432 0.63918823 0.027570069
82920 0.03511197 0.6921264 0.4149793 0.028100906 0.83458984 -0.59325606 -0.66760796 -0.08528011 -0.20551057 -0.5781518 -0.5990985 0.30836457 -0.49208638 -0.046513844 0.33196178 -0.052203495 -0.61402285 0.33398318 -0.20619664 -0.353997 -0.25960588 0.06273097 0.453397 0.075722605 0.54919475 0.53740305 -0.3937502 0.4558679 0.26869193 0.72331625 -0.56459665 0.46501827 -0.43829146 0.49354035 0.044434085 -0.25419247 -0.5316192 -0.31932595 -0.029474733 -0.7493745 0.23737003 0.2223818 0.23728096 -0.5066002 -0.09869582 -0.29779318 -0.18711253 0.5149886 -0.95872724 -0.47031838 0.31205186 -0.5544864 -0.531089 -0.67290366 0.17235382 0.20166193 -0.2599449 0.2498667 0.04995251 -0.34666306 0.6303666 0.45667288 0.0120243 -0.6580561 -0.46334317 -0.34012815 0.033876315 0.40881905 -0.23320371 0.6230903 0.20229645 -0.15485148 -0.65315694 0.2502258 -0.24096103 0.6091752 0.00903344 -0.024834933 0.054146826 1.0152233 0.009412077 -0.5035206 -0.18192182 0.04114443 0.59057444 -0.047144186 -0.2615271 0.41802412 0.6959865 0.41781592 -0.2216517 0.18272983 -0.347452 -0.7929614 -0.46365172 -0.26110318 -0.3183153 -0.37899655 -0.8089604 -0.5730936 -1.1444534 -0.07166382 -0.15246901 0.4138757 -0.62577933 -0.21406996 -0.27142593 0.3441002 -0.061799902 1.1321269 0.08138835 0.4545803 -0.3596949 0.007839242 -0.03247661 -0.2782217 -0.1505418 -0.5481874 -0.03851713 -0.9885894 0.59797704 0.19651477 0.08763397 0.23693644 -0.29718652 0.585923 0.5549754 0.2660612
887 -0.006516148 0.40014058 0.21784134 0.12925775 0.47222537 -0.21341388 -0.6505644 -0.04884269 0.3910046 -0.60689706 -0.36176527 0.3961105 -0.50448114 0.08990229 0.24506253 0.00790391 -0.33656847 0.32690835 -0.093361326 0.04964265 -0.4085025 -0.16561686 0.14551477 0.12815325 0.075740136 0.77778006 -0.20837857 0.18279016 -0.027569564 0.25332248 -0.5725796 0.22203371 -0.16627572 0.5311812 0.20306574 -0.25252566 -0.62190086 -0.3398546 0.058394473 -0.36210573 0.083885245 0.33221212 0.22171912 -0.29276842 -0.057429038 -0.089843 -0.4508042 0.14164193 -0.78628665 -0.049604375 0.13234952 -0.700829 0.06480212 -0.44735533 0.097334564 0.098336324 0.13942012 0.4536892 0.1441278 -0.10000047 0.079761244 0.1684866 -0.06503393 -0.16769579 -0.097552426 0.10550384 -0.03165787 0.432362 -0.087389864 0.6297166 -0.014171466 -0.36139292 -0.31144047 -0.069453046 0.06921616 0.82970154 0.1686064 -0.21438794 -0.19418776 0.57967055 0.08482057 -0.45066205 -0.056281872 0.3941477 0.66211164 0.0040285145 -0.03291122 0.15224591 0.52659285 0.20924145 -0.24270974 0.08250766 -0.22178014 -0.6314458 -0.6897859 -0.49008438 -0.4414055 -0.14775805 -0.57283396 -0.40291566 -0.89957625 -0.21642841 0.0944263 0.40247723 -0.2617342 -0.50697577 -0.31847742 0.22303997 -0.13594234 0.79744583 -0.14148888 0.38441008 -0.24424386 -0.101759285 -0.43807483 -0.26481885 -0.17612296 -0.80410415 0.022723857 -0.5942946 0.65669876 0.23956099 0.25657815 0.112417474 -0.066376776 0.18388091 0.5832828 0.15025717
4584 0.15385447 0.68183386 0.013406242 0.062079344 -0.056515586 0.0044296007 0.10228992 -0.044358347 -0.061659746 -0.70623726 -0.403305 0.25574422 -1.0074743 -0.095870554 -0.12571706 -0.55285126 0.6673481 0.5474182 -0.28731608 0.049167342 -0.21192047 -0.3221836 0.52628005 0.2023984 0.23059793 0.5973759 -0.5209868 0.35773838 0.07781246 0.055418152 -0.6450559 0.062320527 -0.19899286 -0.010651022 0.29159456 -0.56135917 -0.6129662 -0.4547322 -0.4706897 -0.49837247 0.43167698 0.18121772 0.18980344 -0.37198967 -0.33867973 0.12830114 -0.32488617 0.02116192 -0.5336019 -0.5342397 0.42950997 -0.6892629 0.0881905 -0.5524185 0.31762803 0.039024383 -0.17395672 1.0686523 0.44036087 -0.024648152 0.43631148 0.21178521 -0.06452981 -0.3002735 -0.029435197 -0.37495157 -0.24429783 0.09618377 -0.24558945 0.39513883 -0.09904063 -0.6490587 -0.5299797 -0.08965515 0.42327616 0.75668466 -0.19988108 -0.6363333 -0.048502687 0.35737345 -0.062296256 -0.55580896 -0.25303116 0.77061474 0.7376836 -0.24092114 -0.69260275 0.0962116 0.47728434 -0.4570426 0.12524708 -0.0573183 0.14835693 -0.76439816 -0.4630023 -0.5642858 -0.059317444 -0.20119542 -0.5802379 -0.80113757 -0.7505781 -0.26593193 0.3539247 -0.18782754 0.3109862 -0.124410085 -0.015824499 0.15160064 -0.26671365 1.0438036 0.5353087 0.36704785 0.02190454 -0.13713327 -0.094915845 -0.13899054 -0.38339776 -0.6184744 -0.7303051 -0.5153454 0.392182 0.014748596 0.18482178 0.52023447 -0.15377383 -0.39231732 0.12565547 0.22808437
5222 0.69367164 0.34478056 -0.13751748 -0.11057511 0.7326737 -0.15282102 0.11763909 -0.300103 0.57396233 0.35972977 -0.021686586 -0.3704565 0.25360915 -0.12747554 0.018437406 -0.20016247 -0.4624666 -0.51450235 -0.1403842 -0.33292526 0.08028268 0.08096247 -0.1568613 -0.015371226 0.117612414 -0.093523845 -0.3089784 -0.60536796 -0.12912545 -0.47845083 -0.21076441 0.4306587 0.013458709 -0.34959638 0.36160222 0.13598938 0.12955734 -0.4677488 -0.5577397 0.025646884 -0.43115434 0.20879847 0.046465654 0.4182111 -0.09319182 -0.40864554 -0.30168018 -0.17781064 -0.20487384 -0.3323304 -0.4068606 -0.09511053 0.53708535 0.088045016 0.507732 0.8266195 0.7118045 0.10464089 -0.047355533 -0.1274412 0.30507344 0.47706267 0.03227047 -0.5461517 -0.08445894 0.4481992 -0.12882268 -0.31457436 0.17606585 0.39233032 -0.53175855 -0.31831506 -0.029422425 0.16089833 0.18539774 0.09476435 0.06316967 0.2985406 0.54072464 -0.0019550358 0.012860657 -0.3473853 0.28804338 0.06813637 -0.33188114 -0.06028133 0.27199858 0.070716634 -0.7081843 0.03195582 0.55238426 0.34243947 0.259652 -0.01826638 0.37232742 -0.10366272 0.26833928 -0.22015388 0.041860614 -0.51957816 0.06519232 0.4173566 0.22171965 0.10609636 -0.14639345 0.20552237 0.27706662 0.44885796 0.17472601 -0.15919098 0.14600188 0.21355592 -0.4200218 0.23065478 0.010303352 -0.41749626 -0.18045677 -0.41431576 -0.523069 0.047916483 0.41483924 0.013748616 0.13386926 -0.37594402 -0.8051863 -0.28377193 0.3122242 -0.14809583
6213 -0.0844434 0.43222892 0.35190254 0.094163 0.39255756 0.20301215 -0.18506427 -0.08873059 0.1889316 -0.6280361 -0.39939478 0.15960865 -0.8895052 -0.031942226 -0.31302732 -0.06698907 0.34242004 0.45178008 -0.4928279 -0.026289562 -0.12421504 -0.10492086 0.20858024 0.27639464 0.34880713 0.36755756 -0.55595237 0.15728132 -0.08022555 0.21185595 -1.0216054 0.047553625 -0.4792667 0.13733688 0.06842314 -0.6258356 -0.5557418 -0.33423302 -0.13780962 -0.25532877 0.2386202 -0.004821373 0.16891973 -0.18555121 -0.086779475 -0.075704895 -0.46147668 0.008817509 -0.37653425 -0.28797194 0.4268356 -0.35874766 -0.029416744 -0.40395102 0.18948087 0.13839029 0.12887512 0.66864073 0.20825642 -0.19801232 0.3916904 0.11495824 -0.40699765 -0.3316867 0.39343944 -0.2698271 -0.038018256 0.3671816 -0.23169151 0.5389484 -0.21964185 -0.26127347 -0.19283636 -0.325902 0.3770874 0.7350102 -0.018527417 -0.109619826 -0.3260639 0.5098245 -0.072469786 -0.47267127 -0.14242126 0.41244125 0.727273 -0.36160776 -0.17205463 -0.047470503 0.173914 0.32862812 0.2594885 -0.38560972 -0.42723992 -0.73847157 -0.22214746 -0.5006633 -0.36215362 0.33517793 -0.25908917 -0.29795986 -0.7282003 0.29741615 -0.29887134 0.25050378 0.036242224 -0.31217054 -0.20734684 0.32180786 -0.016582103 0.5690533 0.17736344 0.75666076 -0.15405963 -0.103727356 -0.22265244 -0.19559228 -0.5763322 -0.6618965 -0.4292204 -0.5674145 0.4528266 0.22098078 0.19229007 0.030338617 -0.2838683 -0.056768708 0.15269613 0.251256
8327 -0.06385066 0.24935018 0.016099783 -0.9343738 0.40536225 -0.5432225 -0.4140898 -0.20210181 0.5606851 -0.38067433 -0.07317731 0.24284434 0.18783398 0.25475737 0.17754036 -0.19372447 -1.0350659 -0.054438822 0.048910752 0.10775467 0.007818712 0.0016040426 0.35199457 0.42469102 -0.1245508 0.60811514 0.27056092 -0.59945434 -0.11356832 -0.23439513 -0.5166424 0.16747065 -0.49490455 -0.6854517 -0.20160426 0.051343422 0.3585546 -0.6843359 -0.48892003 -0.4348393 -0.231769 -0.5032512 0.4015431 0.063019715 -0.47857073 -0.25679392 -0.58280253 -0.41970628 0.27249122 0.30850926 0.1578548 -0.45454112 0.21311572 -0.7257907 -0.0215667 0.32803455 0.5528046 0.3060041 0.2737219 0.3370728 0.122327305 0.49420744 -0.30014563 -0.31656453 -0.00965306 0.05515048 -0.825806 0.071293384 0.31671676 -0.342941 -0.04849753 0.3150119 -0.261676 -0.11189891 0.026463393 -0.113130115 0.17241137 0.4260769 0.8278492 0.2740069 0.16408826 0.3387913 -0.20677644 -0.41702318 0.25132227 0.10475286 0.049893934 -0.5371979 -0.33536702 0.1853684 0.33747843 0.0629998 0.091914535 -0.58510137 -0.016076403 0.58701766 0.05889417 0.1489299 0.1856334 -0.2912231 0.12056997 -0.5493457 -0.6172732 0.0060753203 0.53276986 0.0402461 0.2531781 -0.37384602 0.7492501 -0.26226407 0.32131338 -0.14218508 -0.33970872 -0.19953509 0.40627006 -0.20903827 -0.052303262 -0.1899199 0.35383365 0.13311666 0.09101013 -0.2179702 -0.24993767 0.30860296 -0.09516357 -0.41232976 -0.12927975 -0.4672678
9570 0.3704491 0.084276825 -0.062230926 -0.08692687 0.70622003 -0.5811529 0.2679259 0.041336097 1.0447006 0.18150616 -0.45014542 -0.40245593 0.10577905 -0.13670342 0.28658292 0.6131932 -1.1142422 -0.20828561 0.14520185 0.23497811 0.025126548 0.4292844 -0.07507427 0.30773163 0.28951243 -0.20493752 0.16929525 -0.08647797 -0.25587222 -0.31257644 -0.08609814 0.44002828 0.04483941 0.054563235 -0.4833499 -0.43424156 0.1977417 0.43111494 -0.050441727 -0.2655298 0.39222053 0.89427465 0.0038257232 -0.043368705 0.12397664 -0.55931956 -0.55068123 0.07029507 -0.069185786 0.29498607 0.80302715 0.084041834 -0.15308867 0.8362852 0.49378502 -0.08111849 0.9826583 0.2989503 -0.09925781 0.0226364 0.07259062 0.8122076 -0.03880184 0.011421605 -0.46538058 -0.71948117 -0.82029915 -0.15766303 -0.2464519 0.34844786 -0.4904364 0.106187396 -0.7423474 -0.24138711 0.48888576 0.38879344 0.08554214 -0.24104473 -0.5480057 0.39458665 0.0122102555 0.10928663 -0.060017835 0.034074675 -0.5858141 0.08419052 -0.60732865 -0.26926666 0.17063157 -0.39902332 0.15160859 -0.0014404001 0.15226766 -0.2804021 0.025028909 0.38420594 0.3491814 -0.1298179 0.09974969 -0.21701165 -0.51921713 0.6446473 0.5595763 0.4867994 0.7216709 -0.10691262 -0.27595145 -0.37559327 0.046654057 0.16587587 0.7587606 0.5774492 -0.44490442 0.06923857 0.011650616 0.18148524 -0.033073813 -0.05709635 -0.34845763 -0.5282868 -0.09671905 0.14551826 -0.25961953 0.22101982 -0.27458924 0.18754746 -0.14370143 -0.560977
3028 -0.38365126 0.11401344 -0.13863558 -1.0038965 0.2998857 -0.093002595 -0.19474971 -0.54894483 -0.11099248 -0.0988838 -0.1332797 0.026051026 0.26436213 -0.38413784 0.22758348 -0.4622449 -0.6869442 -0.10875369 -0.45467025 -0.5059694 -0.22088128 0.48645657 0.34486383 0.63539386 -0.107463785 -0.20766422 -0.0006984123 -0.60026425 0.5735165 -0.62942356 -0.19836007 0.52196634 -0.75969094 -0.46136573 -0.4703959 0.010507998 0.7778537 -0.24602425 -0.20079173 -0.32035902 0.16842234 -0.012431558 0.07261255 -0.7577794 0.43988553 -0.12553188 -0.46633145 -0.3721725 -0.341805 0.517059 0.083212905 -0.85694295 0.5220394 -0.22163282 -0.114849724 0.2687476 -0.018969301 0.4422676 0.31593168 -0.098645076 -0.09620655 0.31646213 -0.20047298 -0.32884148 0.16702639 -0.025869893 -0.45562938 -0.082687005 0.49225384 0.26132163 -0.5926672 0.6754321 -0.22493213 0.27583534 -0.50215864 0.102841385 0.3264179 0.6377774 0.2601723 0.38386238 0.38142163 -0.08336619 -0.032359418 -0.21350503 -0.25789452 0.06923593 0.0651495 -0.66590405 -0.083601825 -0.73115975 0.22602434 -0.22330853 -0.17998591 -0.5341204 -0.2022403 0.010704942 -0.33632478 -0.15727201 0.19510981 0.19101071 0.16205876 -0.397272 -0.11003412 0.08915586 -0.19892904 0.25870952 0.13216497 0.118672945 0.6700548 -0.1690313 0.3149958 -0.25859538 -0.050450098 -0.39247757 0.07761664 -0.38620338 0.1481397 -0.44566572 -0.080830336 0.22513855 0.61924976 -0.23141003 0.37734413 -0.545322 0.2168637 -0.4956319 -0.22166179 -0.3308436
8251 -0.36144435 -0.7650853 0.16794631 -1.2320147 0.86714613 -1.1739686 0.36575326 0.05918529 0.16043684 0.64529175 -1.0504197 -0.4630368 -0.8801099 0.67769825 0.1983261 0.5703904 -0.48670048 -1.0199142 -0.5913131 -0.45141983 0.40634927 -0.55114275 0.86990976 -0.16336673 1.0830458 -0.99341995 1.3981415 0.042122327 -0.24658759 0.63286936 0.09834001 0.8510238 0.042316057 -1.0859183 -1.2054543 -0.56746674 -0.52142054 -0.60929406 -1.6628844 -0.60571975 0.086961105 -0.6017904 0.50947034 -0.30432472 -0.7081932 -1.5249801 -0.82443404 -0.42257378 0.25076082 -0.29827458 -0.28018302 -0.38895798 -0.29045343 0.4202201 0.11425722 -0.8122956 0.15526116 0.4662946 -0.028142083 1.0113406 0.0489467 0.9499727 0.24983406 -1.0942186 -0.4668417 -0.26632375 -0.20374995 -0.23468539 0.50066084 0.7732357 0.25954387 0.22171031 -0.45696273 0.25069308 0.28679845 0.076562114 0.21124525 0.003977462 -0.617576 1.2455662 0.51287156 -0.6623182 -0.59533244 0.018265672 -0.096514985 -0.110301845 0.2935877 -0.2928227 0.73193747 -1.1439342 0.1677801 -0.4150725 0.4219405 0.6396877 -0.8055084 0.70155025 0.50022614 -0.94342077 1.443098 -0.4560824 -0.709506 0.74691623 -0.25146234 0.049787957 0.41164917 -0.84016 0.3980457 0.2187917 0.7324872 1.0881004 0.8620163 -0.2885961 0.49058563 0.34339 -0.435834 -0.17905104 -0.061295163 -0.90328497 -0.6594221 -0.83333486 1.0286885 1.1899358 0.49691647 2.2521455 -0.015125205 -0.06312339 0.24444583 0.8366073
8237 -0.44466168 -0.8300102 0.24281967 -1.2888359 0.96896195 -1.1795554 0.36272314 0.035552308 0.25399113 0.5691337 -1.1409916 -0.5749886 -0.9116686 0.7680386 0.2109263 0.67104214 -0.4947476 -1.1248726 -0.66824764 -0.47362944 0.39264223 -0.5285792 0.95565325 -0.039241128 1.1657819 -1.020617 1.4511096 -0.021828368 -0.27766383 0.6697496 0.13158685 0.86141956 -0.030779444 -1.1778531 -1.2078788 -0.6448591 -0.5446178 -0.60610104 -1.7432752 -0.62688774 0.049137026 -0.5712306 0.5337014 -0.214389 -0.6793846 -1.6166376 -0.87445825 -0.47046822 0.16988967 -0.3803321 -0.25639692 -0.35651416 -0.3410253 0.45419243 0.19977923 -0.8286678 0.13513763 0.46670312 -0.061204396 0.9641967 0.0075843832 0.952872 0.34557563 -1.1543288 -0.38297817 -0.24819453 -0.21622545 -0.3332094 0.5229821 0.8243173 0.3617386 0.24932168 -0.44526222 0.2066822 0.3041603 0.034006093 0.21379882 0.018797385 -0.63476473 1.2424939 0.54074204 -0.7394446 -0.63902366 0.011171271 0.0012442284 -0.19164693 0.36939788 -0.28137827 0.7550395 -1.1071651 0.117679276 -0.4257667 0.41272497 0.61869204 -0.7509114 0.71115917 0.55471337 -0.8382056 1.524937 -0.36982262 -0.79509425 0.6784709 -0.21013443 0.08225404 0.39001969 -0.9105067 0.45985657 0.32006124 0.7548994 1.1701866 0.84921163 -0.3217271 0.5205511 0.3991605 -0.446843 -0.19620465 -0.083552614 -0.9653782 -0.7012472 -0.80504346 1.0721807 1.2899593 0.4326992 2.4287696 0.04720303 -0.112011574 0.19097728 0.95235384
2390 0.35311127 0.1435595 0.21394195 -0.3302873 -0.15821296 -0.20529896 -0.301591 -0.13962448 0.398182 -0.31253695 -0.098829076 0.2439233 -0.24434058 0.57950145 -0.32464948 0.072354116 -0.17592128 -0.16786651 -0.6277124 -0.54537755 -0.0035147157 0.036343902 -0.085769996 0.13857432 0.44816622 -0.18989262 0.3879556 -0.3555513 0.20756187 0.116526 -0.238692 0.3334536 -0.072037406 -0.37677658 0.36471242 -0.18337476 0.061912175 -0.46843982 0.3200631 0.09203832 -0.121288985 0.059748325 -0.36434075 0.10763902 0.4259814 0.05227021 -0.18342564 -0.49496952 -0.35358033 0.091851845 -0.1756545 -0.61705494 -0.030871939 -0.0928801 0.5778671 0.5524245 0.78782344 -0.043894038 -0.43039632 -0.3867068 0.17039315 -0.07504682 0.0028247482 -0.62020886 -0.34642544 -0.12980527 -0.45996565 -0.5255159 -0.5791156 0.08996669 -0.29772443 0.09246717 0.1806481 -0.06633602 -0.2005191 0.042244717 -0.03582237 0.45604908 0.019362409 -0.39898697 0.0011241536 -0.0020182708 0.11237802 -0.29126298 -0.09289408 0.38584232 -0.913973 -0.42913318 0.29375303 0.5884482 0.06888013 0.109378815 0.09425471 -0.07684135 0.13062046 0.09397972 -0.009963772 -0.45506632 -0.040296648 -0.08857635 -0.22809875 -0.23784639 -0.018777966 -0.16205175 0.5706423 -0.174659 -0.4093902 0.19628094 0.44593287 -0.235083 -0.10164681 -0.6070374 -0.4031742 0.22484845 -0.19250491 -0.16862987 -0.39006802 -0.0023458055 -0.12590629 0.43648392 0.68974495 0.014199694 0.57293946 0.049206033 -0.4769704 0.11827284 0.407002 0.19655345
2537 0.2248225 -0.16403152 0.39111218 0.3374778 0.09297042 -0.15556742 -0.4291351 -0.009255199 0.07897759 -0.008650267 -0.24413615 -0.15245916 -0.52437013 0.306925 0.19093223 -0.14786763 -0.7084112 -0.46235806 -0.3709912 -0.15897456 -0.2971113 -0.44380552 -0.04908819 0.097944856 0.26357847 -0.19099274 -0.24760865 -0.48008317 -0.43861055 0.16703726 -0.27865297 0.66898763 -0.19578019 -0.57416356 -0.096621715 -0.3609626 0.02823161 -0.48766473 -0.46509612 0.14847122 -0.17584625 -0.3882108 0.079575494 0.0046576886 0.46243954 0.45096087 -0.2008966 -0.15929022 -0.4835528 0.34761992 -0.30939648 0.17064849 -0.44400015 0.30409086 -0.011339778 0.2505814 0.6601693 -0.1384116 -0.6737459 0.5861284 0.25856766 0.26965347 0.27921566 0.053759627 -0.20773561 -0.013131364 -0.15718766 -0.39876458 -0.278169 0.3667658 0.0874035 0.45421094 -0.48271623 0.46856853 -0.17007115 -0.1544524 -0.087728396 0.35358825 0.5603353 0.2660126 0.22757979 0.24453583 0.2549671 0.6504125 0.083002396 0.5156387 0.13578364 -0.3823334 0.25846002 -0.3192814 -0.10360877 -0.3851025 0.5092237 -0.19260319 -0.1488271 0.060498882 0.13765396 0.39937302 -0.03235739 -0.1155946 -0.24717782 0.35095996 0.50951046 -0.24235316 0.5946706 0.34877864 -0.42485702 0.12398026 -0.09418841 0.25822848 -0.044379286 -0.13347182 -0.18459962 0.26432177 0.23832226 -0.30523616 -0.17383644 -0.25854024 -0.2720523 0.38398778 0.3239566 0.20149735 0.42189702 0.02951965 -0.053018786 -0.5539157 -0.2675522 0.04321854
24755 -0.28637564 0.3007868 0.017742649 0.034083698 0.9406825 0.5582164 -0.24626638 -0.4304368 0.30060324 -0.63649637 -0.27770513 0.71307325 -0.16085447 -0.26411816 0.7155982 0.15476666 -0.14406838 0.4605146 -0.48958516 -0.2614157 0.39784685 0.30767736 0.51206475 -0.31457078 0.5709728 0.18404698 0.19928494 0.07309849 -0.054071736 -0.18337508 -0.029917365 0.27576855 -0.039976373 -0.3160414 0.15924957 0.21285185 -0.30902115 0.05544096 -0.8667589 0.383596 0.044755235 -0.11142181 -0.4349495 -0.21213856 -0.6442676 -0.38895437 -0.22513556 -0.46515438 0.15262453 -0.041773476 -0.16079843 -0.32242846 -0.32202676 0.2447396 0.5266198 -0.11362281 0.06340986 0.44520652 0.04513452 0.6562483 0.123479344 -0.18348798 0.1102564 -0.9042203 0.11552141 -0.75407916 -0.5040571 0.0042236373 0.035148907 0.27094233 0.009045924 -0.74301934 0.36130676 -0.4853402 -0.58263576 -0.1981083 0.096860915 -0.25398183 0.39326936 -0.10058965 -0.06673059 -0.4284864 0.6707765 0.48167428 0.058584344 0.54591805 -1.2738638 0.49451914 0.21059705 -0.017295541 -0.34472993 -1.3813845 -0.3524517 -0.23702157 -0.58209705 0.61034846 -0.5766803 0.14691263 0.31212974 0.015141224 -0.5074833 0.28324145 0.51302195 0.022116235 0.13113482 -0.41151196 0.09007146 0.5299782 0.22087625 0.6255258 0.715699 0.9090448 -0.8216562 -0.32922122 0.08511695 -0.39346242 0.7942338 -0.30430302 -0.07594648 0.024211798 0.34573868 0.76248324 -0.24265762 0.14351758 -0.1575824 -0.32159615 0.34589556 0.0036624924
1888 0.0802885 -0.15104033 0.04983586 -0.2928666 -0.10269569 -0.467406 -0.021107072 -0.009091372 -0.13094647 0.15487322 -0.38478756 0.38802838 -0.11720782 -0.12366883 -0.27256727 -0.03704965 -0.2795573 -0.2607157 0.0010321339 -0.48342326 -0.053862315 0.33828208 0.25697744 0.29702282 0.33256468 0.37018287 -0.042285975 -0.56975555 0.109743774 0.16794614 -0.3702987 0.5447135 0.07243445 -0.06541041 -0.20732896 0.0051980224 0.7932235 -0.46843156 -0.27809277 0.025045369 0.01842293 0.23323964 -0.27304563 -0.005250218 -0.22917792 -0.042927224 -0.36212674 -0.32230306 0.088989526 0.0290916 -0.51171035 -0.3134499 -0.07923564 -0.4643733 0.09245193 0.7169506 0.6691328 -0.15030362 0.12289807 0.07641543 -0.24280283 0.15210126 -0.031565353 -0.13849421 -0.27710408 0.083118595 -0.12592125 -0.2974205 -0.4214982 -0.009186802 0.13488807 0.40276828 -0.2585148 0.42254704 -0.24857557 0.39260733 0.050093383 -0.028992677 0.4652397 0.0934886 -0.07694193 0.22568756 0.082179524 -0.13706712 -0.2665838 -0.09759236 -0.7511195 -0.6823412 0.08046467 -0.10598455 -0.022111563 -0.21326485 0.24342173 -0.0064153397 0.34353065 0.30828676 -0.27281082 -0.16460732 0.07143107 0.22509784 -0.5768584 0.4185488 0.38935733 -0.57408154 -0.055902842 -0.22870049 -0.30517498 0.1631236 -0.21684512 -0.49376568 0.11094962 -0.10471429 -0.48370063 0.25837454 -0.4836655 0.015953833 0.049946748 0.2596638 -0.07430418 -0.0013099023 0.7240348 0.099068835 0.63846105 -0.08548289 -0.55638087 -0.29966626 0.37625903 0.11886323
1047 0.0590157 0.42499083 0.13616106 -0.6960951 0.4263123 -0.048018303 0.16893482 -0.26700795 0.5763984 -0.22598588 -0.6454434 -0.16453268 -0.24268556 0.5003843 -0.19309193 0.12855166 -0.7071917 0.1798289 -0.058466442 -0.39444122 0.1830573 0.30081674 0.55426574 -0.09281707 -0.66783506 0.76243675 -0.31260335 0.4755547 -0.65099686 -0.39947015 0.15272106 -0.12662941 -0.48177743 -0.54638493 0.08982768 0.39324248 0.14806125 0.386427 0.021920608 -0.6962691 -0.03696277 -0.27674994 0.031755526 0.46546814 -0.73335403 0.26124275 -0.37718588 -0.39381593 -0.0019085999 0.8816923 1.1090544 -0.521904 -0.79617107 0.38367113 0.907781 0.0046277996 0.90360755 0.35532615 0.014412436 -0.12059166 -0.7755354 0.813592 0.42729685 -0.3389114 -0.32676926 0.22678277 -0.17154753 -0.9719951 0.18664916 0.74769837 -0.1926401 1.3163724 0.26012897 -0.025649907 -0.35261834 0.25840187 -0.61179215 0.28962156 -0.31358695 -0.7238388 0.32054445 -0.39379132 0.2316532 -0.59389794 -0.21142389 0.027026057 0.4737934 -0.11447412 -0.08287398 0.72936374 0.2785687 -0.12262787 0.48551774 -0.29243487 -0.16671883 0.48903236 -0.26787075 -0.172454 0.9525576 -0.35046226 -0.071859285 -0.06489626 0.39588457 -0.4761222 0.42810553 0.2478012 -0.065193474 0.243234 0.770003 -0.10293145 0.54976803 0.041891783 -0.52001673 -0.26767468 -0.84009665 -0.055266283 0.08880743 -0.6967914 0.038756464 -0.03246306 1.394329 0.41810507 0.3343426 -0.38016862 -0.23125295 0.0009231997 0.24004202 -0.2623587
124378 0.37093368 0.35647905 0.4300773 -0.7206866 -0.17204867 -0.29192933 -0.24228905 -0.14734988 0.34199 -0.3493943 -0.38395002 0.06621667 0.05736448 0.3443397 -0.25085998 -0.2706761 -0.5130564 -0.49727455 -0.9728214 -0.14339218 -0.049586296 -0.02505935 0.0085676145 0.4282773 0.53062105 -0.5980907 0.29734164 -0.4921518 0.42310634 0.57714605 -0.4735029 0.44288415 -0.006857201 -0.5568015 0.123962484 -0.3821046 0.024669852 -0.56627244 0.056071527 0.1119032 -0.18601343 -0.22631529 -0.4272271 0.073407896 0.08395278 -0.20729187 -0.3147194 -0.33612114 -0.45770514 0.05699192 -0.051798824 -0.7604676 -0.17230467 -0.3116143 0.6661398 0.6552005 1.0550247 0.058997504 0.08794385 -0.20303366 0.013227179 -0.1990149 0.19709326 -0.61936283 -0.28256133 -0.37909967 -0.18789496 -0.5740096 -0.4790694 0.19707437 -0.49405122 0.19007687 0.07983081 0.2483751 -0.031348765 -0.17616895 -0.15249743 0.5025281 -0.040558133 -0.4566466 -0.012184658 -0.11178812 0.39986235 -0.20201933 0.1386394 0.5686001 -0.73524475 -0.6110731 0.48886204 0.63372093 -0.07206721 0.39155895 -0.010625852 -0.026204824 0.1526352 0.22687855 -0.44550753 -0.5836313 -0.18507291 -0.44092467 -0.06439841 0.10452831 0.35624313 0.28516197 0.2981729 -0.023665505 -0.25915718 -0.31932944 0.81031495 -0.1705235 -0.5041786 -0.6499033 -0.026491411 0.47448882 -0.34121007 -0.1292943 -0.42178065 0.64978164 0.11152271 0.46675774 0.8072145 -0.22146824 0.6290512 0.2157075 -0.62341523 0.0054593077 0.5670135 0.05616582
78805 -0.07078127 0.17468208 0.37784734 -0.05023618 1.0806805 0.6918978 -0.21985912 -0.44656855 0.40657902 -0.68740124 -0.23481922 0.75421894 -0.09567915 -0.28029358 0.80034006 0.010776658 -0.12684608 0.4103886 -0.48986387 -0.17567323 0.55918664 0.18910083 0.6145487 -0.33128393 0.7981087 0.11141802 0.14538534 0.29896346 -0.11539314 -0.20293991 -0.093233466 0.15959656 -0.1546037 -0.1788678 0.069817 0.32834947 -0.34797224 -0.017265871 -1.1042687 0.35856023 0.18697783 -0.118840866 -0.39709538 -0.22355707 -0.69846296 -0.4855889 -0.40048134 -0.32062835 0.4137741 -0.032636296 -0.1024036 -0.409919 -0.28181732 0.10110357 0.52396876 -0.08908157 0.0058595743 0.55844307 -0.0065261074 0.8662918 0.055791102 -0.23319352 0.1866109 -1.0730045 0.17455143 -0.812311 -0.5992946 -0.043828662 0.22186595 0.2822776 -0.074721456 -0.85641026 0.39153603 -0.48393917 -0.6640944 -0.3364012 0.10159153 -0.082943134 0.35444292 -0.10423225 -0.021964839 -0.3168328 0.8042657 0.5761085 0.25326273 0.44012564 -1.2885532 0.45298523 0.34527257 -0.13945705 -0.45940268 -1.3753678 -0.226004 -0.32356808 -0.5960453 0.7783879 -0.54546285 -0.007659889 0.35490537 -0.12272633 -0.6052943 0.35570008 0.685214 0.19458298 0.07169436 -0.31585535 0.17248513 0.59442896 0.2097781 0.57546204 0.7497474 0.9708749 -0.86603117 -0.2755794 0.07715998 -0.25728884 0.7284893 -0.24726243 0.021991316 0.029072851 0.27960932 0.8268378 -0.20716871 0.13984287 -0.28851068 -0.37702888 0.6198509 -0.069191605
27699 0.3212735 0.15326537 -0.36713433 -0.7147336 0.12137346 -0.41894624 -0.5876972 -0.52709526 0.79749095 0.06994789 -0.18900226 0.3870755 0.08906084 0.03365647 -0.08606184 -0.23181745 -0.48822954 0.20005092 0.23630352 -0.43111318 -0.0018915674 0.09315881 0.0064647864 0.21819815 0.044696998 -0.10956358 0.11816377 -0.6244426 0.36275256 -0.6562611 -0.5682211 0.70407355 -0.05562483 -0.4655272 0.10645965 0.18738186 -0.32734817 -0.16985832 0.19985972 -0.22841872 0.23615813 -0.21218324 0.97636 -0.077193774 0.0011856502 -0.45722282 -0.6370568 -0.2854502 0.24124958 0.45813197 0.7675026 -0.2817029 0.28050613 -0.030006168 0.14281239 0.5256615 0.09245987 0.43534285 0.17433755 -0.022074064 0.2758781 0.031403497 -0.19399038 -0.37529373 -0.06544462 0.3294318 -0.6788367 -0.13307136 -0.071084306 0.423079 0.2135564 0.03099085 0.45300463 0.47750133 -0.7462617 -0.30051088 0.42536348 -0.1653479 -0.15893145 0.0040980154 -0.010827444 -0.17887338 -0.24209598 0.15103562 -0.37006715 -0.31099397 0.17266747 -0.090003684 -0.085899666 -0.15119573 0.31948245 -0.11286992 0.2805383 -0.5948361 0.003845927 0.7686602 -0.04363519 0.21231945 0.070572555 -0.056424994 0.10442637 0.31717956 -0.30405143 -0.92050606 0.38872755 0.34238204 0.08737869 -0.0019598862 0.25627074 0.101906314 0.45912108 0.30872607 -0.040775176 0.30618197 -0.28995904 0.18219274 -0.18523225 -0.27591038 0.2774274 0.5566362 0.011013541 -0.21480574 -0.078420594 0.21364264 -0.32607493 -0.20368066 0.21901047 0.6363013
4013 -0.115822725 -0.06008233 -0.09982762 -0.6544209 0.3358352 -0.43205553 -0.23719467 -0.1818304 0.4293263 -0.25109127 0.010406355 0.48044986 -0.02674791 -0.14624536 0.056499753 0.10773749 -1.0275108 0.07925996 0.15027475 -0.001508319 -0.21027397 -0.050560765 0.55656856 0.22788338 -0.18164834 0.05013262 -0.2509731 -0.6555522 0.0115387775 -0.6891462 -0.5222036 0.0456286 -0.37147048 -0.6264653 0.20815226 0.024666404 0.18047339 -0.4607527 -0.35969472 -0.43325824 -0.13810204 -0.6000057 0.17856327 -0.064523645 -0.34164312 -0.32682738 -0.63498527 -0.36168805 0.5807358 0.061152894 0.07671519 -0.59402925 0.23343521 -0.28840688 0.16092859 0.68165374 0.2963105 0.26469013 0.14549692 0.22952281 0.525602 0.37025848 -0.39351404 0.3185635 0.13904896 -0.3604022 -1.0342928 0.3341823 0.07196789 0.28670007 0.036129925 -0.069232784 -0.14924194 -0.17584427 0.07099972 -0.088275 0.11237562 0.36603135 0.3735947 0.11102749 0.06676836 0.36984497 -0.086912885 -0.03644023 0.077637866 0.1878097 0.12541755 -0.25050846 -0.35520154 0.07837106 0.29073325 0.26522055 0.14115545 -0.47175872 -0.10425555 0.43892732 -0.2455335 0.17828313 -0.16862303 -0.016952375 0.27639493 -0.15604955 -0.53220147 0.25047326 0.5036987 0.36571804 0.22303839 -0.2154691 0.16117291 -0.14178985 0.36358136 -0.20105913 -0.06154631 -0.3341234 -0.23565902 -0.33609036 0.21802711 -0.42276093 0.07622947 -0.019566884 0.18291084 0.04324528 0.36342448 0.3988466 -0.17048976 -0.07781577 -0.0012899394 0.22844535
1553 -0.1649485 0.11536952 0.0360238 -0.5460408 -0.041009612 -0.546869 0.335814 -0.25055352 0.60663444 0.14077023 -0.84543985 0.15687652 0.23048252 -0.24485688 0.1941617 0.34694457 -0.47988662 -0.058924135 0.040515773 -0.32982072 -0.15367424 -0.09008577 0.42914763 0.81598186 0.5407204 -0.32336703 -0.099327624 -0.73630893 -0.25822756 -1.0400553 -0.02566008 0.37050775 0.18813908 -0.3745642 0.013356805 0.0626511 0.18040738 -0.11542941 0.43607894 -0.7238988 0.14888614 -0.67639905 -0.18764761 0.16492487 0.10205748 -0.10306617 -0.8050663 0.16615205 0.19712135 0.21352951 0.033012815 -0.27106145 0.40736678 0.027011275 -0.09769252 0.48812604 0.57936877 0.07799676 -0.20271003 -0.47826347 0.37005526 -0.2674595 0.62267935 -0.0069683483 -0.6693149 -0.075317435 -0.30993015 -0.3520193 0.01685973 0.33229876 0.09640141 0.35434616 -0.2637283 -0.17304198 0.0037016377 0.3462654 0.10987784 -0.36169365 0.047422245 -0.03821512 0.14724971 -0.18601842 0.5351705 0.40777212 -0.13871981 0.05898933 0.3769422 0.3512924 -0.31588176 0.6167074 0.5550859 -0.27733785 0.18746425 -0.24483229 -0.5770787 -0.35753638 -0.24972324 -0.06968162 -0.27427772 -0.297247 0.3055062 0.27425843 0.19936101 -0.75253206 0.18363169 -0.1668728 0.11139631 0.14429343 0.15183324 0.43707213 0.10204617 0.53937113 0.22874223 0.5459616 -0.15597396 0.06801681 0.19587836 -0.18153061 -0.17065005 0.20963193 0.3777109 0.022415143 0.04612137 -0.28514537 -0.0034036243 -0.81353664 0.25301656 -0.17032745
10177 -0.28567874 0.6960055 0.030437835 -1.078697 0.8391839 0.4980113 -0.25915658 -0.1854611 0.0967053 -0.75825554 0.0069364207 -0.20938292 -0.48843655 -0.22660409 0.81874233 -0.07687236 -0.014254479 0.9759316 -0.8321235 0.071630426 -0.046230134 0.51038903 -0.26004326 -0.5567415 0.30572394 -0.35020006 0.2583522 0.24198727 -0.7319777 -0.14705458 -0.48536283 0.8193053 -0.14416972 -0.63060135 -0.4150536 -0.64152133 -0.26923466 0.24421082 -0.4824738 0.89723545 0.3179823 -0.066554114 -0.07467974 -0.15101963 0.08784425 -0.6051166 0.10337335 -0.69297034 -0.41243976 -0.11055691 0.17224269 -1.4351716 -1.0317345 -0.64336497 -0.55267376 0.3470469 0.3766798 0.5423227 0.022674132 -0.4207308 -0.30791175 -1.0308533 -0.05130414 -0.0011050433 0.28106374 0.4835265 -0.3355669 0.06671433 0.08087508 0.43942872 -0.7820202 -0.3116686 -0.66438 -0.7073003 0.1358115 0.7673018 -0.40612635 0.13684705 0.020101825 0.9485535 -1.1922174 -1.0235301 -0.019273702 0.550213 0.4789149 -0.90818334 -0.08619639 -0.23931447 0.3077606 0.2985428 0.11305658 -0.7385688 0.5426489 0.40223962 -0.046670888 1.3895442 -0.15835166 -0.06536837 -0.46662644 -0.5284586 -0.504423 -0.35108638 -0.15610698 -0.09495986 0.4786575 0.2250043 1.3407387 -0.14038911 -0.6802201 0.026450269 -0.016353004 0.5454608 -0.60871214 -0.0011013721 0.3001137 0.5220648 0.009122599 -0.620052 -1.2146103 -0.3459918 0.39438677 0.1566307 -0.68550014 0.4075198 -1.0618556 -0.187969 -0.009096564 0.54627836
18130 -0.0037732602 0.15976036 -0.053915102 -0.47138816 0.25988913 -0.045454033 0.42797592 -0.6555915 0.37752584 0.11629533 -0.35597605 -0.09696466 -0.08100812 0.917313 -0.048152957 0.21688332 -0.60714024 0.04926672 -0.19689558 -0.8034149 0.066601224 0.20571387 0.48888075 0.06971114 -0.50973046 0.74465996 -0.2936625 0.29960588 -0.4068235 -0.055775117 -0.21855345 0.052364074 -0.3698182 -0.32118827 0.06332292 0.72799784 0.34283894 0.3845795 0.10972296 -0.46303308 -0.15346465 0.05356113 -0.1596747 0.16536386 -0.5696798 0.14497076 -0.06608284 -0.51481575 -0.080055386 0.79911095 0.7719917 -0.5287699 -0.3089384 0.7901192 1.1763529 0.18780243 0.41176468 0.3488882 -0.018004337 -0.035254035 -0.7712579 0.7714264 0.23501278 -0.63354415 -0.27312386 0.2895169 -0.23727334 -0.11005478 0.27594334 0.76682097 -0.21279672 0.7791757 0.13401115 0.040403508 -0.310198 0.5470207 -0.5954954 0.3029765 -0.29242718 -0.26703048 0.17733273 -0.2231305 -0.1372379 -0.2886191 -0.12064686 0.37822163 0.3861467 0.019192982 -0.06487006 0.55542445 0.33425775 -0.33078644 0.355078 -0.43020546 -0.22177707 0.42197672 -0.1424392 0.30987567 0.37479663 -0.45170507 0.3318727 0.10213616 0.5287073 -0.40748793 0.58344686 0.115542755 -0.29635087 -0.09806664 0.73000497 -0.37238106 0.4073395 0.16620095 -0.50525707 -0.14545028 -0.9727198 -0.07855831 0.39467043 -0.6457336 -0.117140956 0.08962059 1.2709079 -0.008259699 0.08243176 -0.14369878 0.011059495 -0.07002206 -0.15551968 -0.34198052
29180 -0.10438322 -0.359827 -0.28606543 -0.02397555 1.1924957 -0.82599455 -0.09827493 0.29650834 0.48517913 -0.63351965 -0.74984264 0.07208116 -0.8288158 1.299539 0.5214056 -0.81397945 -0.42879945 -0.6085745 -0.98208296 0.37194154 1.0039258 -0.13162409 -0.042427164 0.9222503 0.1445756 -0.33455682 -0.09512619 0.31298196 -0.034318548 -0.4331608 0.6312418 0.4749708 0.4312189 -0.124336034 -0.23328878 0.23654081 -0.0896508 -1.125595 0.057821725 0.4361935 0.5060269 0.6671433 0.34012297 -1.189914 -0.04445425 -0.31927556 -0.29184473 -0.1162556 -0.48693094 -0.17605996 0.6969524 -0.49936917 0.46022254 -0.59781873 0.29094133 -0.586601 -0.08097369 0.95715815 -0.17141896 0.55157465 0.124209926 0.4157559 0.8576634 0.103330344 -0.1648579 -0.324416 -1.2923344 -0.046666782 -0.039327245 0.56363994 0.15475686 0.13682333 -0.55428106 -0.10869595 -0.16107807 -0.5392009 -0.13877107 0.5652923 0.43310827 0.69091916 0.67490846 -0.49473172 -0.38310736 -0.349018 0.5521791 0.6251587 -0.13251945 0.011733662 0.15153009 0.21918207 0.18977834 -1.0890067 0.31170502 0.19673955 0.19201484 0.62946445 -0.58704376 0.35169804 -0.0011826023 0.18366946 -0.6944004 -0.03827245 0.7793351 -0.53590834 0.38098428 -0.2241956 0.47326353 -0.34787107 0.6935857 -0.37709057 -0.11714553 0.16385755 -0.09260909 -0.82503825 -1.245506 -0.18164901 0.13113303 -0.075427465 0.33414912 -0.4000464 -0.31508887 0.5049851 -0.66814864 -1.1273826 -0.4969232 -0.45056233 0.40752852 0.638407
4468 0.38323978 0.19924927 0.5866028 -0.84821534 0.25165126 0.14653936 0.2581161 0.18212381 0.04669536 0.49011382 0.065396264 0.7405561 0.53969014 -0.06535109 0.49865508 -0.035408508 0.3658307 -0.6117406 -0.925619 0.220149 0.16244408 -0.0011047121 0.30389693 -0.29062054 0.6091137 -0.055302694 -0.51749474 -0.76557064 -0.057746958 -0.3408036 0.6119695 0.1293147 -0.44684547 -0.29968604 -0.20343119 -0.3874598 -0.22796257 -0.46749678 -0.2832234 -0.035299554 0.67659944 -0.076361775 0.41363132 -0.39734626 -0.29316416 0.29529187 -0.1566466 -0.18998542 -0.19121218 0.22201534 -0.691577 -0.08236953 -0.1667143 0.14532739 1.3684502 0.07888181 0.6321215 -0.20918842 -0.26972583 0.20712085 0.13781741 0.85279065 0.77041006 -0.42368725 0.02185725 -0.3766163 -0.3147838 0.8551302 -0.29900342 0.7396393 -0.33917537 0.51356566 -0.7219081 0.52400386 0.3274156 -0.21555525 -0.21321404 -0.40642765 -0.18523288 -0.40451196 -0.53181916 0.7332992 0.17089932 -0.9937301 -0.41836965 -0.6144284 -0.2770484 -0.7504162 -0.22808704 -0.44701362 0.31167117 -0.3027698 0.93137074 -0.2220001 0.10971703 -0.049022272 -0.5389194 -0.40186197 0.13653499 -0.0881871 -0.50995505 -0.076701276 0.28130615 -0.51052153 0.46102613 -0.4050876 -0.24103625 -0.68571746 0.55795723 0.4537622 -0.4946879 0.19222164 -0.719075 0.61638147 0.029241279 0.14349444 -0.18936361 -0.15012406 0.3742978 0.30454943 0.40912378 0.2847684 0.041278847 0.031208955 0.092165254 -0.31015545 -0.46762916 0.4172693
3465 -0.0075798454 -0.1781956 -0.116748706 -0.7789911 0.7327428 -0.4742414 -0.49951234 0.021089029 -0.3361678 -1.6079937 0.018016161 -0.025718756 -0.72838783 0.16202427 0.5132617 -0.9945809 -1.0242603 0.07732795 -0.7729525 -0.44930896 -0.60036623 0.08315734 0.68154746 -0.3050046 0.9346257 0.33275995 1.0276269 0.6551918 0.007926735 0.5782928 -0.753171 0.5213314 -1.0946805 0.027417934 0.83838737 0.4401409 -1.3725439 -1.134715 -0.20819612 -0.3511663 1.0355728 0.60848516 0.40596542 0.5726423 0.009009456 -1.0053488 0.007160899 -0.7905192 0.15357545 0.0597936 1.1152242 0.54495895 -0.50398517 -0.27422813 0.212563 -0.2312918 0.3248921 0.10658967 -0.23179297 1.2873023 0.35571027 -0.55818355 -0.049634766 -1.0003319 -0.5621733 -0.89588755 -0.65521866 -0.35333097 0.5304044 0.75207436 -0.3684493 0.6319278 -0.7413008 -0.91909575 0.15152283 0.5525645 0.09711493 0.14857355 -0.5607747 -0.7742635 0.042515345 0.40276486 0.69334143 2.2612705 -0.13381757 0.022491528 -0.68413436 -1.289335 -0.52426535 -0.106490314 0.71192396 0.26476672 0.45861867 0.54653823 0.039518546 -0.04485554 -0.11407357 -0.27585283 -1.0969789 -0.87565756 -0.39050132 -0.20910297 0.3441374 -0.9615573 1.2571659 -0.20777254 1.0977666 -0.76912796 0.2808427 -0.067865364 -0.021063564 0.037924822 -0.11337885 -0.41594306 -0.3901057 0.6047516 0.7021563 -0.48345473 0.106609285 -0.051111493 -0.4715296 0.8180223 0.23912607 0.18887708 -0.22592255 0.32153776 -0.118876286 -0.055639297
9136 0.3651745 -0.34074184 0.17064762 0.020121288 -0.15443043 -0.24206665 0.046150792 -0.01053792 0.10715247 -0.112795666 -0.6708775 0.17739473 -0.048769116 0.02138802 -0.39504865 -0.27564883 -0.13458532 -0.28999433 -0.17629269 -0.60266757 0.19533257 0.21653727 0.035819262 0.37715703 0.07321793 0.39976197 -0.10195638 -0.67612565 0.038830638 0.027822515 -0.30938032 0.5937826 0.049227323 0.29890215 0.07898658 -0.10634587 0.58608747 -0.25486115 -0.28121498 -0.0018072932 0.19767325 0.36282036 -0.36910993 0.17383225 -0.23412432 -0.038246274 -0.40813485 -0.44192645 -0.1396022 -0.25204954 -0.21012616 -0.13606495 -0.103747845 -0.63018304 -0.21302378 0.7576756 0.8149525 -0.31028748 0.20918088 0.32894543 -0.13760929 -0.16023897 -0.10516748 -0.4502564 -0.6120043 0.27267846 -0.4517805 -0.19092542 -0.6713183 0.10145289 0.4267029 0.31744507 -0.36810723 0.27523047 -0.1408186 0.091468886 -0.1833571 0.04873379 0.43918642 0.08592571 -0.21686047 0.46278498 0.41766447 -0.027956292 -0.03765191 -0.052849844 -0.45775738 -0.66859585 -0.08376044 0.0012290137 -0.060124304 -0.34392327 0.22467552 -0.22247478 0.17535083 0.42897236 -0.14634004 -0.21411514 0.16859189 0.17511953 -0.5601378 0.35970163 0.32973355 -0.47401202 -0.063480474 -0.3564252 -0.46115404 0.068467274 -0.1523472 -0.15036759 0.079514 -0.21081367 -0.374852 0.33668894 -0.38531795 -0.16274063 0.15731068 -0.08478789 -0.19593555 -0.057424936 0.49535555 0.015061246 0.19721206 0.18477672 -0.12040621 -0.01928092 0.27235526 0.31909826
6644 -0.80268085 0.051615693 0.15290736 -0.2689273 0.6439913 0.37011796 -0.39622268 0.35569885 0.005130063 0.15028895 -0.9188536 -0.015326531 -1.0985583 -1.5438104 0.10538549 -0.19463146 -1.3334455 0.26192597 -0.4723344 -0.34559008 0.034376062 0.08530648 -0.7287011 -0.24521573 0.24328756 0.24255015 0.40379506 0.3029676 0.24904303 0.38300005 -0.10695499 0.36370257 -0.11109561 -0.27964154 -0.49087477 0.4733824 -0.55300254 -0.047668908 0.12081493 -0.2251842 -0.06317 0.5406523 0.5612901 -0.76069474 -0.5432609 0.5321143 -0.1808546 -0.40741324 0.29408747 0.17117615 -0.121151865 -0.61189044 -0.69648385 -0.6214895 0.79959303 0.7576071 0.18933113 -0.11447423 -0.3551826 -0.004094642 0.7401983 0.689016 0.34922978 0.15661323 -0.07591332 0.43822053 -0.93341607 0.06284917 0.0658124 -0.03944982 -0.3354861 -0.20317411 -0.6425692 -0.40544605 0.06830534 0.3002624 0.2952053 0.6641452 -0.19014029 0.6162033 -0.26860955 -0.2941183 1.2018822 -0.087108456 0.40821093 -0.003206507 -0.051873334 -0.08046806 0.6905958 0.10297241 0.0390433 -0.1678139 0.2519892 0.48269588 -0.19399792 0.12465799 -0.7948965 0.22040354 0.4390714 -0.24607454 -0.3522851 0.3182385 0.13349773 -0.37433946 1.017795 -0.017510502 -0.25699058 -0.05841968 0.43771243 0.29708406 -0.34261435 0.7556324 -0.15970744 -0.6336913 0.024188008 -0.113088526 -0.0061420505 -0.23550995 0.15164454 0.19882628 0.5295547 -0.3539036 -0.87663215 0.47348595 -0.33278522 0.24231535 0.3987452 0.14702822
3563 -0.08292571 -0.23411888 -0.09405125 -0.56072366 0.10182413 -0.23156005 -0.5273179 0.05740256 0.25330353 -0.14438893 -0.20806263 0.22031406 -0.2712108 -0.020568099 0.0041103796 -0.0022968273 -0.77039844 -0.026646808 0.07724745 0.17735995 -0.24120188 0.1131003 0.49292427 0.52239674 -0.14715779 0.42111757 0.12023946 -0.22064857 0.13108274 -0.48242596 -0.39976263 -0.15101793 -0.38754228 -0.61960316 0.15572669 -0.03379359 0.56317294 -0.23286478 -0.45407498 -0.26390344 -0.30362484 -0.018494233 0.40085423 0.24453543 -0.098705806 -0.1402539 -0.7220146 -0.33308935 0.38720012 0.2729136 -0.038017116 -0.74631786 0.29490662 -0.27652568 0.13494608 0.3895026 0.2845086 0.23394647 0.26769933 0.12778492 0.25519893 0.28300494 -0.3769174 -0.043321725 0.103274725 0.021878667 -0.68298995 0.12734082 0.012233829 0.4667414 -0.33576107 -0.05189611 0.034514565 -0.115253314 -0.25280994 -0.22968438 0.3253336 0.1996698 0.10630246 0.48571223 -0.012504427 0.29681104 0.13155791 -0.14973295 0.079858825 0.3983798 0.05814604 -0.23941593 -0.7336389 -0.042097013 0.4115567 0.0060261637 0.21165755 -0.41225126 -0.10194703 0.613804 -0.42126215 0.10761414 -0.12697306 -0.19299075 0.31401712 -0.3046664 -0.3423806 0.25921196 0.4452207 -0.15703629 0.20761363 -0.35206568 0.19466937 -0.12515903 0.39179212 -0.3780364 -0.1815926 -0.079383895 -0.2990235 -0.15980129 0.13866225 -0.36350515 0.060162757 -0.04692094 0.1281007 -0.16622573 -0.034435224 0.13304166 0.05817776 -0.1086693 0.0769649 0.0342285
21033 -0.41281095 0.02779644 -0.00030610152 -1.0237845 0.4674172 0.04018985 -0.13279118 0.16785087 -0.24601609 -1.2346284 0.18521008 -0.3232265 -0.37561083 -0.011329212 0.3433455 -0.47088298 -1.0914869 0.06491198 -0.65540755 -0.40543485 -0.73204035 0.38584888 0.75081086 -0.6193052 0.6373193 -0.07579226 0.68111056 0.42363757 0.10611188 0.1697449 -0.60353696 0.27375242 -0.7978718 -0.34112373 0.41561937 0.50115556 -0.9392175 -0.9282257 -0.4390057 -0.29438838 0.85159326 0.17418852 0.23884912 0.79031235 0.029347306 -0.79933655 -0.21945822 -0.62075424 -0.106965855 0.00016150171 0.7860245 0.6355251 -0.2362627 -0.12206195 -0.2049611 -0.28063643 0.26560932 0.18219143 0.009144084 1.2224919 0.3237966 -0.41384232 -0.06938416 -0.9792903 -1.0601122 -0.6902873 -0.6987418 0.15126851 0.37813935 0.09265283 -0.24038905 0.68584234 -0.6721649 -0.55009645 0.009758687 0.33499354 0.1956747 0.30054426 -0.40438327 -0.78090465 0.39105183 0.022141907 0.369767 1.5200543 0.08301269 0.18898137 -0.6488893 -0.6060858 -0.041541163 -0.26163495 0.20181365 0.015908869 0.22242488 0.5070744 0.5641325 -0.2791803 0.0307483 -0.21212104 -1.0747126 -0.12519768 -0.046428077 -0.10659097 0.63851094 -1.038305 0.90031993 -0.29590568 0.6752898 -0.49210313 0.03423616 0.05821289 -0.040311337 -0.063587785 0.17255287 -0.029680401 -0.3539663 0.037149355 0.58976114 -0.50537044 -0.025727788 0.16627169 -0.5578449 0.6596474 0.065741 0.103486486 -0.7333546 0.41386086 -0.1694321 -0.19253437
248634 0.5117627 -0.20441389 0.35950556 -0.44681683 -0.24709162 -0.32201302 -0.13048397 -0.23717202 0.22719018 -0.064040616 -0.72699904 -0.34097037 -0.16678455 -0.2128012 -0.2533971 -0.5780429 -0.099350505 -0.39303604 0.36919507 -0.25330472 0.4288645 -0.1748527 0.073098704 0.30076304 0.51888484 -0.243348 0.45293635 -0.4558895 0.26900157 -0.3105741 -0.06932451 0.45821115 -0.40517157 -0.19213387 0.13360825 -0.28814027 0.58690983 -0.5701487 0.020025922 -0.09253558 -0.010082945 0.28295276 -0.04144408 0.4398695 0.26438996 -0.1993534 -0.028283872 -0.36381432 -0.05246463 0.523741 -0.17579837 -0.85756564 0.004157378 -0.228619 0.42622164 0.93877524 0.7635973 -0.050474223 0.6236197 0.19376343 -0.117441125 0.29069093 0.1780678 -0.6161823 0.045032628 -0.013466639 -0.9204746 -0.2796834 -0.22625758 0.57395667 0.061862294 -0.15584818 -0.23630506 0.9591711 0.23189871 0.08566804 -0.16017435 0.29817405 0.16262959 -0.46583262 0.15322506 0.16419347 0.8219213 0.30821937 0.6352804 0.5010948 0.43751186 -0.48887298 0.19661821 -0.021047805 0.08840985 -0.6594213 0.30505624 0.29500508 0.111945406 0.39990422 0.07156273 -0.43703568 -0.32023963 0.15778512 -0.78407836 0.23298903 -0.32508215 -0.5025433 0.931683 0.028428923 -0.5410591 0.3689306 -0.21475455 -0.35582328 -0.060910083 -0.26364177 -0.4402204 0.22664115 -0.15230586 -0.15090373 -0.47052917 0.441614 -0.06911671 -0.05025778 0.7802126 -0.15313853 -0.23703104 0.1639882 0.051912546 -0.05936483 0.0330836 0.1221005
1632 0.40496716 0.21791548 0.28620976 -0.17359477 -0.32033756 -0.29814065 -0.21600549 -0.02190175 0.40484008 -0.12871677 -0.52868164 0.06733433 -0.3675048 0.34886217 -0.605828 -0.031785835 -0.38816425 -0.44136316 -0.66711485 -0.3616711 -0.0074031116 -0.026658686 -0.28249395 0.10688894 0.52319473 -0.43577668 0.11068212 -0.63496923 -0.0356484 0.2565884 -0.400863 0.02403226 -0.09398975 -0.2950182 0.16001184 -0.08750808 -0.07625528 -0.2770466 0.1266412 0.013536551 -0.2714246 -0.11826382 -0.17291781 0.22594723 0.27601048 -0.11034925 -0.17248522 -0.54387397 -0.3312853 -0.15367562 0.16237794 -0.56204957 -0.14945148 -0.17336585 0.5660315 0.5688897 0.7874477 0.1278333 -0.25273967 -0.46479058 0.05971639 -0.34228966 -0.014209341 -0.58682966 -0.3979746 -0.16732657 -0.13990489 -0.25177756 -0.7635089 0.042945575 -0.44647357 0.025070641 -0.1736352 0.22092271 -0.21417135 -0.15767577 -0.11580913 0.3996339 0.14971536 -0.35019356 0.34178707 -0.3181943 0.32413593 -0.13990231 -0.011256003 0.3801274 -0.7566251 -0.60457075 0.1577922 0.5034133 -0.06130813 -0.20064117 0.12854959 -0.4651548 -0.12001916 0.03981411 -0.20908576 -0.4677192 -0.2430025 -0.14117378 -0.32435676 -0.115014076 0.04036961 -0.12137575 0.54552597 0.007466208 -0.14470412 0.07500775 0.45482206 -0.3657431 0.03091978 -0.46133792 -0.14072102 0.3261941 -0.40378824 -0.15148796 -0.36978805 0.042365316 -0.10195455 0.28772435 0.4340002 0.08026528 0.6062134 0.22800633 -0.25115487 0.42117172 0.44518054 0.27169245
5395 -0.1307657 0.23726286 -0.22222435 -1.2019626 -0.05985872 -0.62488884 -0.12787196 -0.53172225 0.7363944 0.3863572 -0.97432804 0.26793632 0.28906423 0.42936614 0.072685644 0.16682406 -0.42511708 0.05628169 -0.29281938 0.11506473 0.48076466 0.29172474 0.34902778 0.5937179 0.36349148 -0.13450234 0.16433755 -0.9651629 -0.51206124 -0.39284003 -0.014521213 0.63430953 -0.090073444 -0.3076247 -0.36498505 -0.11737271 -0.15316807 -0.31937513 0.4409978 -0.43477774 0.3508865 -0.21203476 0.262518 0.05967343 -0.61763066 0.21533062 -0.4939938 0.5422223 0.12632942 0.2356425 0.022905672 0.091363534 0.1228293 0.05811139 0.057161372 0.6503944 0.53706294 0.03888187 0.029021636 -0.56059176 -0.04735996 0.46645203 0.1720968 -0.5513159 -0.4713269 0.19697556 -0.40566307 -1.077715 0.3477441 0.18179655 -0.14838167 0.50741273 -0.09026221 0.13729443 -0.052931275 0.3157829 0.29827186 0.06669952 0.52998036 0.107634485 -0.3212948 0.017897775 0.5810643 0.12570527 -0.10716417 -0.20970236 0.25628638 0.10303269 -0.31149524 0.06620565 0.22505775 -0.32836047 0.07873859 -0.3889155 0.08998413 -0.124916844 -0.15696616 -0.2587464 0.26680195 -0.8088813 0.053629383 -0.15879388 -0.0048128515 -0.39858916 0.09387038 0.13638052 -0.0666038 -0.16577078 0.09569294 -0.11114883 0.2545368 0.14296849 0.2650052 -0.21350616 0.22416629 -0.25951254 0.532021 -0.3469723 -0.018320402 -0.25009406 0.07968015 0.075753495 -0.10011975 -0.54535145 -0.11135123 -0.52505934 0.10476848 0.014810531
4792 -0.13621266 0.3125196 0.18212785 0.055149514 0.6693473 0.75440955 -0.15914959 -0.13538867 -0.19764899 -0.29548088 -0.48093644 0.50759554 -0.17464896 -0.3697205 0.50236696 -0.05440684 -0.25075364 0.46056896 -0.46707946 -0.08732294 0.4179452 0.11432315 0.25413904 -0.061861157 0.1640398 -0.18995947 0.3683983 -0.036557566 -0.44185823 0.048504967 -0.21207057 0.4370081 -0.013124908 0.014238405 0.054881826 0.20463088 -0.21407606 -0.013821092 -0.47995198 0.45205128 -0.040840004 -0.41063148 -0.32784054 -0.24136207 -0.5263406 -0.15238287 -0.14209826 -0.5610111 0.19709212 0.38504735 -0.13936342 -0.3971556 -0.23157316 0.041964304 0.35461572 -0.13381581 0.15448505 0.514755 0.18938012 0.35673633 -0.10006705 0.30422843 0.19126171 -0.7709193 -0.25673166 -0.28575963 -0.5261219 -0.06834443 0.14419954 0.20311588 -0.04554287 -0.57710534 0.580042 -0.21788049 -0.17389187 -0.28138807 -0.045245137 -0.083281666 -0.021024339 0.22001843 -0.08613962 -0.44551834 0.7712596 0.44696245 -0.0055900207 0.58616036 -0.32991067 0.1305271 0.28821793 -0.00020528672 -0.10871663 -1.0461283 -0.2969019 -0.17412743 -0.38826448 0.44416103 -0.44122624 -0.23049961 0.17818652 -0.44153383 -0.6482655 0.10430276 0.47479355 0.25848448 0.17538312 -0.4490279 0.087081544 0.6378661 0.13340946 0.6602295 0.62505 0.6115855 -0.30284548 -0.18742266 0.16744702 -0.20342146 0.36355227 -0.23334876 0.17693456 0.43634832 -0.25352564 0.10629583 0.12401784 0.123337805 -0.251967 -0.39335585 0.07939333 0.042250495
1331 -0.031355854 -0.36945617 0.4898013 0.38277376 0.2874731 -0.14053407 -0.85974514 0.17043567 0.07613025 -0.23434348 -0.16253215 -0.2217026 -0.22255243 0.39444062 0.060309913 -0.5944965 -0.8701349 -0.90011317 -0.67786247 0.047852356 0.14037484 -0.3676419 0.38792366 -0.0112458225 0.10338454 0.118900485 -0.20384412 -0.91489136 -0.277269 0.3866735 -0.14913432 0.16000661 -0.21643658 -0.4196865 0.24391684 -0.16055441 0.20082018 -0.23513803 -0.40631586 0.2233517 -0.58246577 -0.120675065 0.39991292 -0.006918617 0.45856914 0.1935852 0.06951617 -0.27201557 -0.4141235 0.108235784 -0.3786302 0.19931458 -0.12995455 0.28243792 0.12196996 0.33907998 0.6084023 -0.106203705 -0.65578526 0.34378698 0.09845001 0.12983823 0.3566271 -0.38781855 0.0285504 -0.24330328 0.009496057 -0.37480676 -0.48045743 0.31477678 0.0009426555 0.85902727 -0.49440983 0.41015267 -0.53218263 -0.04076677 -0.24481648 0.49765658 0.2878599 0.2500793 0.3376506 -0.15971825 0.21562055 1.1125901 0.117783055 0.36142153 -0.020405652 -0.20267186 0.21398285 -0.3209925 -0.13965718 0.0021852038 0.5641015 -0.10069047 -0.10900455 0.10829243 0.16396806 0.33472183 -0.08006673 -0.08744128 -0.27814707 0.4799899 0.42017555 -0.10165511 0.5793604 -0.106531195 -0.33617982 0.28792578 -0.21695101 0.6605168 0.29739588 -0.02972171 -0.400683 -0.15261869 0.34612718 -0.24675235 0.18775441 -0.28757325 -0.07456545 0.402232 0.07790689 0.104255095 0.39034185 0.48126426 -0.5286294 -0.45728824 -0.22052737 0.6404082
17532 0.38335508 -0.034611423 0.5711085 -0.34614688 0.4871934 -0.39530623 -1.1875669 -0.1409407 0.27932596 0.0447467 -0.60635185 -0.18120946 -0.34574044 -0.6286297 0.1955183 0.04368528 -0.22945361 0.21952921 -0.24474145 0.245509 -0.040369224 -0.13936834 0.4512897 -0.23369808 0.36857083 0.044422388 0.28662384 -0.87442493 0.3393462 -0.1726108 -0.5464871 -0.11933151 0.015673773 -0.20013157 0.3328339 -0.017875642 0.09837771 -0.14991146 0.094919406 -0.48233455 -0.5210491 0.28501204 -0.33546814 -0.74789613 1.3272432 0.06944568 -0.11680986 -0.6021769 -0.5516105 0.20434782 -0.51696604 0.30176064 -0.23108958 0.011115607 0.5827265 0.16631381 0.49903587 0.43824452 0.009575352 0.24992134 0.15026206 0.12083113 0.9501793 -1.1588371 0.10761038 0.47813085 -0.13468432 -0.23472482 -0.5598544 0.44692072 0.56354696 0.727658 -0.56440026 0.52492356 0.19313309 -0.1810627 0.114313036 0.56644905 0.47272232 -0.17706111 0.087804906 -0.093452245 0.41343445 -0.03242462 0.28375846 0.014657689 0.6139736 -1.3985026 -0.048560724 0.38338634 0.42513096 -0.90239936 1.0136992 0.1901978 -0.38419765 0.2627027 0.00011347986 0.5326712 0.728199 -0.4865128 -0.18857884 0.36270338 0.6611273 0.97497976 0.68314034 -0.7589624 -0.023767412 0.22915973 0.11128792 -0.67287135 0.36088535 -0.12768297 -0.89749736 -0.05724268 -0.15265334 -0.14894505 -0.5364675 -0.2859924 -0.26437703 0.49936125 0.4797373 0.1519207 0.48393247 -0.14490537 -0.08183432 -0.16684498 -0.084851995 0.4352965
18957 0.26478657 0.21664041 0.27275985 -0.14611539 -0.25944626 -0.46928898 -0.06936275 -0.016346961 0.38855717 -0.3407151 -0.28649676 0.1246195 -0.34477797 0.5162537 -0.45966464 -0.029390266 -0.35554293 -0.3059752 -0.6191095 -0.4494989 -0.073278554 -0.11838041 -0.14625849 0.31441468 0.51135355 -0.4306884 0.27085716 -0.50407404 0.00047369456 0.20825714 -0.34767264 0.1928356 -0.17803022 -0.23686168 0.17458759 -0.012960325 -0.088824295 -0.15701689 0.25668603 -0.05145461 -0.24490386 -0.20177035 -0.18847053 0.15929891 0.32102713 0.012044053 -0.22722328 -0.36039335 -0.41832078 -0.1488371 -0.038773183 -0.65584546 -0.22346048 -0.32294837 0.7528196 0.58469856 0.8598207 0.14748771 -0.36563912 -0.44899046 0.16337612 -0.2755078 0.12626892 -0.6497394 -0.26047167 -0.16324033 -0.13472943 -0.12997212 -0.61980194 -0.06488532 -0.5968558 0.09613433 -0.07750645 0.14729942 -0.22751774 -0.15043296 -0.0730749 0.49002746 0.06573244 -0.5635659 0.22089337 -0.04879418 0.30709314 0.10720732 -0.115310065 0.36238003 -0.9881128 -0.46535602 0.091709055 0.58069557 -0.013570291 -0.07551372 0.056300428 -0.30196404 0.08828585 0.30929852 -0.13764009 -0.624689 -0.28885788 -0.16864493 -0.32037124 -0.082422726 0.22464238 -0.20554307 0.38959202 -0.12471578 -0.18181372 -0.17313327 0.60809517 -0.35683692 0.006136778 -0.46190435 -0.2927515 0.30780903 -0.17042609 -0.25184253 -0.3494527 0.2428243 -0.14938152 0.35889506 0.5667374 -0.027335022 0.63038737 0.39294064 -0.34649837 0.32591316 0.4833549 0.11065905
13382 0.7475121 -0.17564614 -0.19478045 -0.45460024 0.11431342 -0.7752282 -0.16482484 0.013858417 0.036219016 0.39212552 -0.689882 0.771878 -0.19377638 -0.5329059 0.038208794 -0.21638079 -0.431706 -0.45076957 -0.24744973 -0.32702032 -0.0034809064 -0.17345838 0.5213193 -0.09717015 0.43440273 0.035909366 -0.48381487 -0.6096711 -0.5820912 0.09243885 -0.7742928 0.46929815 -0.020639583 -0.7303339 0.22450684 -0.03922238 0.6393311 -0.7155952 0.0063235452 0.17564929 0.1572932 0.42666748 -0.26571682 -0.115322426 -0.20644243 0.2373788 -0.8111449 0.34069782 0.5371635 0.437898 -0.55400527 -0.11348226 0.29469386 -0.6021901 0.5142074 0.7747615 1.1544273 -0.27975503 -0.010213508 0.3359891 -0.18994795 0.29740286 0.52513134 -0.27742556 -0.020665487 -0.1593748 0.2684612 0.14966296 -0.5432743 0.3093512 0.14577706 0.37267473 -0.2629523 0.40166482 -0.20627801 0.7079821 -0.4686671 -0.2132611 0.5438507 0.008702036 -0.21091692 0.12008007 -0.48155954 -0.1264665 -0.103207864 -0.47365892 -0.44425976 -0.8492712 -0.038202904 -0.6339413 -0.1723735 -0.8394865 -0.13297348 -0.3017844 0.36897108 0.64119154 -0.083884016 -0.16654383 0.7861869 -0.28072262 -0.23763785 0.51858157 -0.10485978 -0.19926703 0.0005953247 -0.48258117 -0.4635015 -0.64707494 -0.10250611 -0.5868399 -0.2428359 0.3632068 -0.67423415 0.3184942 -0.57175183 0.19745755 0.18116443 0.5890064 -0.077818446 -0.19034937 0.74845624 0.23392604 0.20366682 0.16108693 -0.17752197 -0.5519948 0.66831654 -0.33108994
6841 -1.3895022 0.028351717 -0.2325701 -0.5324647 0.65070057 1.0961038 -1.1296085 0.2169262 0.5202926 -0.50498456 -1.0106671 -0.1696534 -0.0055079707 -0.266799 -0.079546385 -0.32676077 -2.044431 0.30827686 -1.1616862 -1.3536329 -0.0025541638 -0.21877567 0.8226105 0.38306242 1.8934225 0.114542715 -0.46565306 0.24898882 -1.1040308 -0.21480322 -0.7132864 1.7064965 0.5266264 0.45577627 -0.64374864 -0.8491573 -0.076954365 -0.94674677 -0.08597987 -0.49498254 0.40371194 0.1723619 -0.3868515 -0.7443294 0.5128795 -1.3076096 -1.2624615 -1.168369 0.42838237 0.39797482 -0.2765038 0.056478612 -0.5620188 -0.2792447 0.60709494 -0.527631 -0.56703335 0.8446026 -0.5968652 0.38257223 0.3680619 0.71699935 0.23546794 -0.20816496 -0.06525439 1.85789 -0.093074985 0.14580816 0.36802378 0.6454612 -0.06292515 -0.19768949 -0.7596358 -0.81661296 -1.0888757 -0.22723122 0.75077367 0.9326382 -1.0388722 0.08909258 0.11529103 -1.0938495 1.0916126 0.510117 0.13718352 0.6140398 -0.32101837 -1.0485737 -0.9380756 -0.26530102 0.21215883 -0.46599174 0.4087786 -0.31672123 -0.86564887 -0.61772835 -0.16539718 -0.7081048 -1.5677936 -0.28081656 -0.6816056 0.5677289 -0.24560124 1.1860536 -0.52440447 0.386381 0.21065842 0.21159858 0.028206212 0.8025834 0.11744221 0.72469205 0.15545458 -0.059758756 -0.90213823 -0.8626433 -0.5733999 -1.0031139 1.0387187 -0.115275405 1.3914568 0.039759535 -0.42873082 0.23098409 -1.3501534 1.0463202 0.76863134 -0.62241507
1016 0.38219967 -0.013312082 -0.08569594 0.0051443777 0.66454524 -0.15500437 -0.049741935 -0.1917477 0.53194344 -0.021922508 -0.49365652 -0.32713342 0.58288485 -0.13434254 -0.11757005 -0.33487278 -0.5528581 -0.100564465 -0.44681284 -0.481301 0.034975078 -0.35343987 0.070584 0.047657713 -0.25395092 -0.14051685 0.1417221 -0.13656409 0.29934385 -0.7390317 -0.2525178 0.04765022 0.37075174 -0.28305086 0.53921497 -0.2600471 0.034180965 -0.4772075 -0.74616265 0.0010988782 -0.5868314 0.291486 -0.014163821 0.23127912 -0.36931986 -0.14070001 0.28342527 -0.36840278 0.24375857 -0.23845771 -0.5673005 -0.42406884 0.57900745 0.04159108 0.11847747 0.5067583 0.44471654 0.37978336 -0.08633988 -0.33908656 0.23866372 -0.052275896 0.14545585 -0.58881575 -0.31992292 0.45613396 -0.30687612 -0.3076183 0.047980275 0.62686414 -0.39198872 0.20262448 -0.47966978 0.14030749 -0.3557002 0.044120844 -0.2904705 -0.27848196 0.5433436 -0.076631956 0.45317063 0.054055672 0.15998502 0.033701528 -0.8531364 0.18975022 0.20762089 -0.1468452 -0.3048497 -0.25497162 0.59754896 0.6058913 0.20852919 -0.039241537 0.33874685 -0.3482029 0.063076176 -0.37073094 0.2238614 -0.8169247 -0.29981568 0.19956027 -0.24813342 0.19970408 0.052961886 -0.0021322542 0.1881554 0.036346205 -0.082063496 -0.40314925 0.035322346 0.64994544 -0.55724967 0.38430724 0.14134182 -0.08716289 -0.1709207 -0.27382228 -0.89807755 0.05497552 0.39197987 0.056490783 0.18709229 -0.17939448 -0.37378183 -0.646999 -0.42966983 0.094819106
11255 -1.4450955 -0.021917388 -0.15514489 -0.5814667 0.69692755 1.0763328 -1.1929977 0.1235402 0.42812675 -0.51522547 -1.0075289 -0.13466407 -0.029213674 -0.19241913 -0.17496757 -0.41601405 -2.158887 0.25005984 -1.2851188 -1.4113392 0.022734972 -0.09935283 0.87364393 0.41297993 1.9458277 0.11602354 -0.46834928 0.22492291 -1.1672202 -0.16057882 -0.71126646 1.8146262 0.5003283 0.5550655 -0.66750747 -0.92940325 -0.0621117 -1.0028424 -0.15140818 -0.5490354 0.41969556 0.18216872 -0.40205583 -0.73988664 0.4410225 -1.2899911 -1.2928073 -1.1849016 0.37756315 0.35870975 -0.25014633 0.017785238 -0.575631 -0.30525514 0.6365231 -0.5442068 -0.6297694 0.8990445 -0.6431266 0.34412992 0.426037 0.78670526 0.2472176 -0.16377951 0.06967692 1.8769661 -0.08173914 0.14030291 0.4636085 0.61490834 -0.05735529 -0.22864468 -0.8108964 -0.8812955 -1.1688945 -0.31473765 0.8148257 0.92891777 -1.086184 0.112667054 0.1602154 -1.126761 1.0875057 0.53893685 0.13802661 0.6002199 -0.40138897 -1.0536698 -0.93719095 -0.35330677 0.19409113 -0.44826362 0.34498382 -0.39995995 -0.84781015 -0.6613072 -0.06846433 -0.69254583 -1.530345 -0.30312577 -0.6978608 0.59642786 -0.24926443 1.106856 -0.53148 0.37296957 0.24898113 0.27355158 0.08296707 0.75128835 0.13838139 0.78582644 0.085177876 -0.015883982 -0.8974528 -0.91590166 -0.54917413 -0.9632706 0.9815221 -0.17790207 1.3810515 -0.05432049 -0.49630383 0.18375629 -1.3694909 1.0107754 0.8399341 -0.6858453
25296 -0.22271532 0.07815993 0.05085876 -1.1546761 0.5309526 0.02643572 0.03766011 0.2636403 -0.12274304 -0.25056133 -0.20519306 0.106828384 -0.16381295 -0.011527366 -0.42272204 -0.53773326 -0.8723685 -0.2768367 -0.14133425 -0.03184836 -0.30869448 0.18409108 0.16762193 0.8787023 -0.35722983 0.0075361095 -0.09728336 -0.43392298 0.5550691 -0.6881855 -0.603871 0.20824805 -0.289382 -1.1365023 -0.6350546 -0.110808365 0.21709073 -0.29615268 -0.47753814 -0.5247893 0.41774255 -0.034677744 0.5326473 -0.23656201 0.18667302 -0.15983093 -0.4815216 -0.13593361 -0.3761996 0.3645969 0.031970464 -0.79617417 0.11045848 -0.6734286 0.2503333 -0.00097460643 0.27063912 0.28818578 0.39843118 0.11097975 0.059875023 0.012707083 -0.23532775 -0.3710145 0.1004476 -0.41661036 -0.4466867 -0.28966188 0.46495622 0.39583227 0.25305304 0.5917182 -0.3456265 -0.06058136 -0.5174689 -0.2154737 0.25866443 0.59337974 0.5332575 0.83655506 0.19233154 0.102768406 0.07827772 -0.7407298 0.24040225 0.54484886 -0.24575609 -0.2369378 -0.662792 -0.92876005 0.061592128 -0.16308104 -0.22544199 -0.2969718 -0.08771716 0.39116046 -0.29187968 0.30959222 -0.55390435 0.06710337 -0.0222852 -0.4063553 -0.5056353 0.5515545 0.053437475 0.37198296 0.5995109 -0.570599 0.2517013 -0.22843565 0.53369415 -0.25974795 -0.38574058 0.027711704 0.59678483 -0.036451902 0.37600046 -0.49764702 0.40142015 0.38022903 0.4153939 -0.6258357 0.5052925 0.16438271 -0.2664762 -0.1952974 0.21530353 -0.10558787
5291 -0.28303984 0.116968215 0.24584131 -0.5502864 0.21738183 -0.38461486 -0.6993338 -0.091152914 0.314766 -0.023344092 -0.6891885 -0.11555593 -0.15426819 -0.4256724 -0.19072378 -0.12505005 -0.3107884 0.2678239 -0.41188413 0.21033293 0.1300036 0.19445008 0.18051201 -0.4692961 0.44442427 -0.12375914 0.028464187 -0.4595062 0.4741075 0.0702895 -0.5265601 0.44650492 0.38759843 -0.076872654 0.02446811 -0.33676147 -0.16198908 -0.2785319 -0.09667756 -0.23112829 -0.5070673 -0.18598182 -0.0935007 -0.79554737 0.830493 0.2399855 0.004438549 -0.70389754 -0.588324 0.0037152474 -0.2446731 0.1822623 -0.57072383 0.09140161 0.5608708 0.28890598 0.8442014 0.37262654 0.2577854 0.63121814 0.7377713 0.10513464 0.8690941 -0.97471106 -0.10412259 0.50867766 -0.29851365 -0.44019645 -0.43996206 0.35142508 0.6086861 0.092111416 -0.28615293 0.44870585 0.2671005 -0.24404427 -0.26682848 0.6395595 0.543633 0.11795273 -0.09302017 -0.08051158 0.46963227 0.14088657 0.14441004 0.099179424 0.4912151 -0.78946626 -0.24728183 0.27505785 0.15586936 -0.3853803 0.6492879 0.14474356 -0.50204617 -0.21110079 0.06453634 0.365652 0.54901177 -0.50665665 -0.3711353 0.20768872 0.6106258 0.51520926 0.6274256 -0.22674306 -0.14278968 0.12200305 0.14182742 -0.7705285 0.22207426 -0.23152728 -0.5070065 0.17322636 -0.08737386 -0.07934474 -0.43775204 -0.029733505 -0.57238746 0.5040086 0.5547184 0.2295664 0.62277865 0.14476457 -0.31603143 0.24268797 -0.31831688 -0.0068601104
2911 0.44123867 0.09684289 0.4535527 0.39918348 -0.020495044 -0.017900037 -0.14356494 -0.52866334 0.13033997 0.2129885 -0.6379357 0.044443253 -0.22200046 -0.19209391 -0.18799847 -0.14447914 -0.16507609 -0.1907754 -0.02202987 -0.33095565 0.2626501 0.045348927 0.07412275 0.0630211 0.5625545 -0.4725738 -0.10347962 -0.38901356 -0.25197187 0.14571308 -0.16776715 0.017903667 -0.17395845 -0.18048362 0.3524378 -0.14947988 0.33878353 -0.18850113 -0.06592242 0.32345232 -0.16311628 0.097021915 0.11541436 0.16053039 -0.1005149 -0.009000194 -0.37362874 -0.28697088 -0.5307562 0.08835247 -0.06923942 -0.45429963 0.07373467 -0.06762538 0.7636405 0.40263832 0.16619048 -0.03623374 0.093694046 -0.12440021 0.07401007 -0.16413671 0.08557763 -0.3621005 -0.5417811 -0.070715524 -0.5202967 -0.3436287 -0.19163348 0.11103915 0.08281826 0.12226038 -0.3661267 0.56940603 0.18397182 0.019770233 -0.21165383 0.4311462 -0.008471885 -0.021226956 0.4040003 -0.08785296 0.5363424 -0.14123084 0.3059322 0.473117 -0.37005123 -0.4403602 -0.17579983 0.046205606 0.21505918 -0.14591567 0.31382602 -0.3034289 0.0794349 0.25440407 0.30078334 -0.32321635 -0.25035527 -0.22361615 -0.021577887 -0.07864851 0.13590418 -0.26704347 0.47584516 -0.18771338 -0.3081814 -0.0732539 0.2382056 -0.6756656 0.17927003 -0.41759157 -0.30597624 0.59244114 -0.07115005 -0.25565565 -0.43750024 -0.07421539 -0.29588643 -0.0039258343 0.17652373 0.36394656 0.07690957 0.098965205 -0.19623803 0.38812318 0.16822779 0.27284148
5111 0.5529171 0.44827285 0.14502293 0.17984836 0.22824454 -0.7205594 0.17627566 -0.27344325 1.0175171 0.29294816 -0.17854923 0.101796515 0.34600103 0.4661184 0.40724394 0.015206501 -1.3346388 -0.23642883 -0.17156976 0.23141657 -0.21641406 -0.22755507 0.47096395 0.46513397 0.60441566 -0.43238226 0.017401671 -0.051752392 -0.20091315 -0.2311213 -0.50447315 0.8013111 -0.12738979 -0.43549222 -0.6959758 -0.33002943 0.53902906 0.27649665 0.69716704 -0.17939885 0.5011392 0.5753923 -0.37933424 -0.42719027 -0.080332324 -0.32072133 -0.49850446 -0.26320356 0.26968768 -0.03251548 1.5540674 -0.22118239 -1.0797019 0.5520868 0.4251347 0.14620113 0.9367723 0.104003124 0.1863264 0.025130635 -0.2602481 0.3000406 0.008231684 -0.06579159 -0.16048463 -0.791528 -1.035392 -0.037814077 0.12579843 0.051627688 -0.69900864 0.78504246 -0.45779586 -0.44916272 0.1318816 0.21200456 0.040159646 -0.20988898 0.12810235 0.099145465 -0.059825607 0.27105436 0.54039305 -0.11418265 -0.26693887 0.32441843 -0.2705903 -0.694038 0.54946905 -0.30870667 0.093589514 0.48762432 -0.08836754 0.05260286 0.037245113 0.040298954 0.0042856913 0.6216174 0.6410803 -0.46269506 -0.663112 0.49252132 0.516082 0.48018244 0.58597076 -0.2658872 -0.36869195 0.014122467 0.18300505 0.4889299 0.48490655 0.7621107 -0.74843127 -0.047061626 -0.0033502283 -0.10628648 -0.3534728 0.055850323 -0.36528125 -0.51596326 -0.24762204 0.34321043 -0.33314893 0.03425125 0.08463358 -0.0059715826 -0.35879123 -0.27425876
14277 0.020874694 -0.15785636 0.3131943 -0.14526877 0.8760945 0.4799045 -0.2463474 -0.13897438 -0.27891424 -0.7556954 -0.35695612 0.64264673 -0.6194398 -0.7469821 0.45720318 0.35211936 -0.15805276 0.41271815 -0.3429322 -0.09175358 0.32365236 0.30770624 0.821755 0.031403333 0.1380617 -0.118594065 -0.02554406 0.1779614 -0.30564773 -0.16588436 -0.27024361 0.35034075 0.27286065 -0.32032236 -0.0005770421 0.20471558 0.04696194 0.04911341 -0.3769851 -0.19819823 -0.11051594 0.20576067 -0.34727263 0.23359089 0.13505235 -0.20198154 0.041032568 -0.28201368 -0.01825144 0.08013869 -0.12661545 -0.24880531 -0.38593793 -0.14278771 -0.078140184 0.16034424 0.23826858 0.46553117 0.15614603 0.44209337 -0.034444362 -0.16700903 -0.28336546 -0.14909047 -0.11859692 -0.5848366 -0.5959598 -0.038032606 -0.1599245 -0.014119454 -0.418111 -0.7117833 0.13390397 0.0013488963 -0.4659194 -0.5422192 -0.10358955 -0.31268397 0.5507415 -0.12441993 0.009386662 -0.7588764 0.06826833 0.47786066 -0.1200126 0.1546464 -0.666024 0.036185615 0.6909443 0.31864434 -0.56277865 -0.70292044 0.05198986 0.19552183 -0.44813117 0.32424486 -0.42059404 -0.25112078 0.3725355 -0.41092804 -0.38940477 0.10365923 0.18218511 -0.21790591 0.07266471 -0.07024482 0.21062382 0.21713577 0.25369963 0.53302544 0.8380616 0.6435876 -0.59113324 -0.054211628 0.6299167 0.1403957 -0.10543227 -0.4976168 0.39977264 0.19429283 -0.25692874 -0.097501285 -0.23208007 0.022654342 -0.14539884 -0.14165865 0.15934268 0.26518464
6151 0.0005434945 0.36839253 0.28032503 -0.0054240073 0.34302998 0.21415564 -0.18306346 -0.019067416 -0.119238816 -0.7598446 -0.6087742 0.17914948 -0.9231396 -0.06912742 -0.24423265 -0.029273871 0.35407254 0.76804173 -0.5012759 -0.014882786 -0.08711389 -0.12430136 0.24056844 0.37210855 0.27871457 0.19734998 -0.71836954 0.13117202 -0.14178933 0.13450241 -0.89063996 0.1716349 -0.55353427 0.11025126 0.034813043 -0.549065 -0.74350905 -0.3196109 -0.20876646 -0.4636824 0.22208455 0.069775395 0.34395444 -0.15735176 -0.25520664 -0.075737715 -0.47641408 0.104780704 -0.61322445 -0.08580187 0.32179046 -0.48652917 -0.2535167 -0.24143238 0.20756304 -0.062364463 0.26867753 0.94200325 0.09999705 -0.23902085 0.3160688 -0.02527587 -0.503146 -0.445679 0.35172603 -0.27121088 -0.18490948 0.16864231 0.019208405 0.66400474 -0.16294377 -0.13515781 -0.45580372 -0.2170667 0.35346666 0.6126245 -0.1322174 -0.23823297 -0.5210093 0.5339801 -0.007257741 -0.46164194 -0.24619597 0.39093548 0.62688017 -0.34902757 -0.2512598 0.116938874 0.2912207 0.022580346 0.18644021 -0.47133285 -0.3409548 -0.71569407 -0.08964728 -0.66209006 -0.323756 0.3571203 -0.3542541 -0.22044277 -0.58987015 0.08783097 -0.14883852 0.15590543 0.07396313 -0.3258361 -0.33237845 0.30202714 -0.029674754 0.6513987 -0.09305194 0.7683191 -0.20346947 -0.18853833 -0.121460125 -0.21801746 -0.64175355 -0.68984324 -0.2674939 -0.6794352 0.43643093 0.27865553 0.11529537 0.22603817 -0.33311692 -0.17487562 0.04757837 0.25903666
1461 0.050423097 0.42043835 0.09268274 -0.9543063 0.49877203 -0.07679136 -0.33818817 -0.3312928 0.18888754 0.021601541 -0.39721662 -0.23359057 0.61682314 0.44624174 -0.057821475 0.20629708 -0.6171971 0.5694239 0.07831522 -0.45625693 0.05291659 0.30894935 -0.15910842 0.039783027 0.08046265 -0.038728718 -0.20518664 -0.3797846 -0.32200715 -0.47600526 -0.13628498 0.2965539 0.17280371 -0.4928908 0.47237483 -0.28425008 0.40536803 -0.6029758 -0.21227844 -0.5551733 -0.279577 0.16632484 -0.28365102 0.16689856 -0.09923513 0.18226877 -0.24998826 -0.1717554 -0.011418683 0.20019346 -0.12916443 0.017304521 0.4837217 -0.3035912 0.18587568 0.038643107 0.8308058 0.39267206 -0.30500606 -0.05403796 0.16816902 0.14129429 -0.069533415 -0.21613428 -0.2544711 -0.16695616 -0.40923306 -0.4725784 0.26832274 0.05211657 -0.6647237 -0.020060087 -0.29993534 0.45836422 -0.048282243 0.40127683 0.12320407 0.23526445 0.058577348 0.030271137 0.30315617 -0.07575609 0.39724198 0.08764324 -0.23096608 -0.08876371 -0.3586479 -0.021838827 -0.010562654 0.15007581 0.101831794 0.36085287 -0.8347513 -0.035125244 -0.01858869 -0.3180462 -0.18428697 0.0372489 0.21880762 -0.06746914 0.59717804 0.2084347 0.44098195 -0.21354486 0.03925397 -0.4553859 0.3431069 -0.1856794 -0.3944222 0.17516518 -0.37791616 -0.28320932 -0.1038763 0.44494796 -0.3122412 -0.3712606 0.1339224 -0.18714228 0.20161611 -0.12634282 0.59276146 -0.06484396 -0.33163118 -0.112834215 0.13352163 -0.22055152 -0.2782957 0.00944757
22563 -0.006323868 -0.37569568 0.36135137 -0.564335 0.5713349 -0.30162182 -0.023028376 0.04829709 0.07876804 0.13031973 0.4885894 -0.18287572 -0.44452733 -0.24636385 0.28236732 0.10001704 -0.12238271 1.0490755 -0.27001327 -0.32824168 0.75407344 -0.0008856129 0.8035023 -0.17756517 0.68530005 -0.18070017 -0.052327894 -0.28342557 0.33186287 0.30886385 -0.09706589 -0.1937514 -0.5843216 -0.16798988 -0.5799907 -0.27440435 -0.2550911 -0.42775223 -0.60906094 0.18176569 -0.04212758 0.3529602 0.37934902 -0.41308895 -0.32044888 0.2907453 -0.811188 -0.4237683 -0.772976 0.7603716 0.5055171 -0.86435425 0.03054605 -0.351761 0.20737118 0.11524602 0.057135753 -0.14977631 0.124307506 0.31511799 -1.1221458 -0.70775175 -0.6154722 -0.57707125 0.25845265 0.5123806 -0.081013374 0.7831027 0.32163143 0.60144055 0.1744678 0.33442846 -0.22263743 0.031094922 0.006837797 0.012014034 -0.6076725 0.0071276245 0.033296343 0.47012824 -0.14932244 -0.6612998 -0.33908084 0.34478775 0.25588277 0.13676682 -0.5484997 -0.05390494 -0.017630162 -0.29620972 0.7484753 -0.4611326 -0.09422058 0.07586613 -0.14872162 -0.40934867 -0.011898088 -0.3763028 -0.43315196 -0.52016705 -0.4477078 0.25147158 0.51547986 -0.09883119 0.6619536 -0.07171373 0.4842729 0.18198755 0.092663996 1.4669907 -0.56090224 0.027995909 0.0019106022 0.48272312 -0.67523736 0.00010830793 0.17222913 -0.504728 -0.82717216 -0.41000873 0.20640495 1.1040049 -0.21615149 -0.030793685 -0.8963199 -0.26649135 0.47121623 -0.04921645
15360 -0.1123636 0.13523829 0.09970136 -0.5825283 0.20579992 -0.35767385 -0.57716054 0.17590421 0.69976556 -0.50977993 -0.21405278 0.22715847 -0.31154323 -0.31022644 -0.014207345 0.31658718 -0.81399643 -0.02004007 0.39343232 -0.14261407 -0.34837916 0.21755983 0.74663275 0.38650885 0.041583553 0.2889374 0.006610273 -0.5758372 -0.041329626 -0.4467746 -0.43465692 -0.09722901 -0.25870982 -0.5466273 0.29405093 0.15707058 0.5054083 -0.4222346 -0.44225806 -0.48248997 -0.17708674 -0.46106654 0.4257282 0.21948488 -0.5531884 -0.25232443 -0.84817255 -0.24367154 0.5499163 0.295044 -0.16414133 -0.48596632 0.22977147 -0.39268252 -0.015912198 0.5456049 -0.01861793 0.2051758 0.11681982 -0.06562833 0.3521936 0.34009823 -0.33228347 0.025228841 0.1421974 0.02736646 -0.8511009 0.17829001 0.168746 0.6635048 -0.12513016 -0.12303603 0.22112525 -0.28719172 -0.12254204 -0.019487083 0.3239651 0.42030835 0.12009396 0.5826004 0.08891907 0.27207878 -0.2359418 -0.32159156 -0.10945653 0.14272885 -0.07767485 -0.5211416 -0.5752796 0.3059428 0.45451212 0.11099941 0.28124693 -0.23273969 -0.2418148 0.57781947 -0.15915194 -0.07816374 0.09745268 -0.04172524 0.33695817 -0.1384203 -0.5978789 -0.12830864 0.5979545 0.27462748 -0.1591662 -0.30868563 0.018567784 -0.06833379 0.30809176 -0.3027341 -0.40575328 -0.16891284 0.27609974 -0.3923639 0.26498437 -0.35944512 -0.00058935554 -0.06576553 -0.18327437 -0.039362155 0.025903942 0.1756738 -0.4338174 -0.06909873 -0.01754482 0.08728614
2289 0.15166883 0.18464874 0.15824519 0.0009237026 0.9120765 0.32399073 -0.274082 -0.13989724 0.04882739 -0.37104177 -0.38969743 0.7286872 -0.49225637 -0.3219824 0.53329957 0.20893529 0.0015728233 0.34601575 -0.23670714 -0.19596757 0.187725 -0.08281282 0.57322925 0.40694264 0.28354222 -0.039583724 0.07923781 0.21083444 -0.20076934 -0.094649754 -0.30550212 0.6930699 0.18885295 -0.11792864 -0.15865123 0.06843336 0.20226888 0.08672213 -0.54869896 0.3582094 -0.09581567 0.07930245 -0.45105895 0.06868022 -0.291185 -0.15075946 0.19010124 -0.086272076 0.22059162 0.16504605 -0.0925748 -0.35809138 -0.29313302 0.039286893 0.44788295 0.34589052 0.12827338 0.42192477 0.04268556 0.29208735 0.06309588 -0.08825744 -0.15265761 -0.011909971 0.05443817 -0.47230434 -0.47206938 -0.16890456 -0.35832614 0.26286805 -0.6010509 -0.96040034 0.12867406 -0.14955975 -0.46293798 -0.66579354 -0.16530438 -0.19423951 0.40869117 -0.23656034 -0.10759326 -0.69105065 0.2096678 0.60968906 -0.070662245 -0.10720553 -0.57468724 -0.18089631 0.2199821 0.2582054 -0.6691315 -0.5528064 0.13663101 0.37055263 -0.6127593 0.31868118 -0.44804507 0.10228237 0.44676557 -0.42815313 -0.5339244 -0.16985583 0.32302985 -0.03419908 0.12092073 -0.3766956 0.15847667 0.1840945 0.31980106 0.6063471 0.49815047 0.5799806 -0.8295931 -0.28808567 0.21110444 0.2264541 0.15670614 -0.3197753 0.34179744 -0.06083622 -0.410659 0.44837543 -0.070077345 -0.05320028 -0.0020097538 0.24155219 -0.19675274 0.33178258
