2182 128
2462 0.5348318 -0.15673023 -0.08882836 -0.21233626 0.07323887 0.13940175 -0.08513051 0.22423299 0.43561527 -0.147748 -0.45262647 -0.4662594 0.27985406 -0.19613752 0.10784184 0.25136808 -0.69409215 -0.12796582 0.06062016 0.3168168 0.04384327 0.18178524 -0.25077578 0.0104085095 -0.4678948 0.41018283 -0.1992475 -0.43201008 0.05693129 0.1398616 -0.22023693 0.2373436 0.17038086 0.64192545 0.2974158 0.5078523 0.36236152 -0.21590233 0.42458054 0.59494066 -0.20774777 -0.015138629 -0.14184543 -0.19874713 -0.36901748 0.3647956 0.09493467 0.21304078 0.7863863 0.18858787 -0.012153092 -0.40730911 0.008380381 -0.14700322 -0.048796047 -1.0258131 -0.24423492 0.44742197 0.100002155 -0.020011885 -0.33145925 -0.3520059 -0.07088977 0.022712087 0.0912175 0.12300696 0.034144398 -0.13226882 0.26333776 -0.13378333 -0.30252564 0.2665916 -0.31310242 -0.35752946 0.60912 0.006001669 0.26431885 0.28159657 -0.084399395 -0.35384288 0.077230915 -0.46838143 -0.36476406 0.33615172 -0.014005596 0.013331254 -0.20345555 -0.09487779 -0.43098283 0.021704527 0.5457216 -0.25029254 0.6190344 0.55006653 0.064429395 -0.058853153 -0.2432603 -0.055122744 -0.5617703 -0.03825511 -0.115937434 0.16029689 -0.60492045 -0.013820586 -0.098240554 0.033725932 0.29584655 0.48197612 -0.05321233 -0.2020201 -0.058084052 0.21119452 0.030047178 0.026706882 0.336019 -0.09184921 -0.047910538 -0.06817607 -0.12003333 0.4325082 -0.10269887 -0.5051315 -0.28602552 -0.10216132 0.004196814 0.057589196 0.15749936 -0.16602322
452 0.020021671 -0.5133809 0.24929515 -0.09709758 -0.5118292 0.5680938 0.3270745 -0.17574233 -0.31397498 -0.13882534 0.09840327 -0.21873324 0.19763681 -0.21497428 0.12295966 -0.24361426 -0.38168198 0.28477296 0.23042452 0.19225833 -0.23412026 0.34807682 -0.5802738 -0.054601584 -0.054725498 0.18477042 -0.3268728 -0.7483098 0.11584647 0.14656818 0.7011642 0.25125533 0.6592926 -0.34588528 -0.23280396 0.7973205 0.25652963 -0.27416626 0.051132727 0.4166073 -0.1655615 -0.09662541 -0.25674245 -0.759258 -0.38821265 0.39285105 0.23769781 0.11124816 -0.03205014 -0.2622825 -0.7291214 -0.35812935 0.6360125 0.13442717 -0.19195321 -0.14198902 -0.26389992 0.05348101 0.026476149 -0.11582592 -0.23223378 -0.028129786 -0.14263979 0.30194324 0.059426 0.08305971 0.040817734 -0.44578084 -0.43604484 -0.122777455 0.5159062 -0.023618087 -0.38447425 0.35557473 0.46053028 -0.19596803 -0.37897676 0.06759033 -0.07141319 -0.19887799 0.026012622 -0.47637433 0.61419445 0.15910912 -0.5567582 -0.098104015 -0.04566526 0.0835689 0.9072473 -0.267694 0.39372864 0.098939426 0.8822588 0.46483287 0.042534422 0.34730288 0.043386593 -0.2526122 0.13388416 -0.27831203 -0.48341778 -0.14945802 0.19704768 -0.12117791 -0.46630558 -0.057103816 0.1373375 0.78283364 0.34424645 -0.39277664 -0.016636698 -0.46686977 0.26976916 0.12716201 0.40460566 -0.07776975 -0.0010183919 -0.23063189 -0.33934784 0.47181106 0.45379427 -0.067209415 -0.8230158 0.16287363 0.16702683 -0.0211182 -0.38669938 -0.23902504
35 -0.97747034 -0.21367903 0.15011853 -0.12531795 -0.10631898 -0.33656344 0.725112 0.5419213 0.24781007 0.6841653 -0.048081007 0.15603298 0.019854417 0.23290493 0.21404295 -0.46778923 0.31643724 -0.083275676 -0.023502031 -0.20666091 -0.30168873 -0.24758928 -0.033647526 -0.8473384 0.053349964 -0.35285985 0.041823518 0.3596961 0.14013045 -0.13642837 -0.9611499 -0.28561196 0.12880501 0.17892991 0.1875014 0.3050868 0.6059182 0.2221803 -0.054957885 -0.15308124 0.3007441 0.37402964 0.054815944 0.2699045 -0.37843087 0.7610171 0.15662058 0.26579842 0.21876064 -0.006415226 -0.19670306 0.34682453 -0.25623378 -0.12992786 0.10331948 -0.741355 -0.35165504 -0.7162164 -0.25839132 0.46795723 -0.12476576 -0.3297198 0.06890569 -0.05670063 -0.096108854 0.41288564 -0.040558334 -0.17551006 0.15978055 -0.28069153 -0.13798733 -0.0337998 -0.25601253 -0.14507312 -0.17119043 -0.042308122 -0.32298768 0.38977084 -0.4318395 0.6780937 -0.22789033 0.3242974 -0.6808996 0.23777407 -0.22059107 0.12934609 -0.09533628 -0.3244835 0.07503714 -0.24312192 0.70741564 -0.07916847 0.15887313 -0.21781023 -0.0076487125 0.21923722 -0.276361 1.0687993 -0.7364409 0.8202057 -0.5147011 -0.062391028 -0.7735339 -0.24067919 -0.6352437 0.9952102 -0.6193611 -0.20645973 0.28424263 -0.25250015 -0.5374758 -0.51255566 -0.110864036 -0.39352667 -0.39777997 -0.48923388 -0.019737883 0.5402313 0.25288785 0.16336463 0.21627012 0.07986933 -0.57473385 0.66813487 -0.6941868 -0.42655912 0.0872314 -0.5527268
724 -0.13729912 -0.13505346 -0.3639434 -0.103385605 0.33608225 0.18631628 0.32405087 0.031389065 0.19131123 0.42342362 -0.071232796 -0.21417138 0.22366682 -0.12922521 0.078009464 0.27285048 -0.42240304 0.28031304 0.36044234 -0.03407468 0.3370155 0.14393553 -0.336926 -0.2037438 -0.15525672 0.30646718 -0.1336256 -0.47993523 0.034297045 0.18885444 -0.19868633 -0.041099332 -0.014753674 0.051084444 0.07734683 -0.24890165 0.24147014 0.18499494 0.0462551 0.088575 -0.4472764 0.07632651 -0.09977939 0.41198388 -0.23280638 0.27780876 -0.19296192 0.4523704 0.08642493 0.15730217 -0.42366368 -0.19918166 0.09342961 -0.15199071 0.33848053 -0.6764645 -0.29914033 0.28128973 -0.26863953 0.30860132 0.13530876 0.35014793 0.15649487 0.3221864 0.1181562 -0.008654942 0.2821021 -0.19490786 -0.14517474 -0.049081534 -0.2639503 0.31944117 0.03447495 0.06398599 0.21750382 0.24377735 0.1547695 -0.015237989 0.123229034 -0.19689988 -0.52392626 -0.11146558 -0.8469939 0.11541979 0.6946426 0.24015602 -0.13288055 -0.31694692 0.1429134 -0.18005086 0.37445375 0.0631198 0.40089253 0.06779769 -0.11383933 -0.09619538 0.262314 -0.29646006 0.23820564 0.15003291 -0.1373875 0.20406803 0.08878768 0.024135362 -0.70893145 0.08483805 0.2781902 0.05295197 0.009876089 -0.26864702 -0.05095436 0.22050956 0.17443214 0.49836877 0.36442354 0.035217766 0.082850225 -0.16885875 0.06544947 0.29343924 0.24511321 -0.018079117 0.11819852 -0.116904326 -0.09931297 -0.24800129 0.20103651 0.11497479
2 0.094125696 -0.56957585 -0.27744558 0.77606225 -0.71866655 0.517652 0.34141442 0.16406527 -0.14618067 0.5922938 0.48386407 0.16393112 -0.040744007 -0.4642503 0.19299579 -0.65272987 0.03750121 -0.1319501 -0.4116323 0.031088913 -0.3037179 0.36197728 -0.16890183 -0.14329664 0.29792985 0.26929563 -0.40167084 0.4572521 0.031663705 0.2776489 0.033723794 -0.041837532 0.6519652 -0.21393524 -0.07524494 -0.0046395455 0.14565274 0.5021198 0.6931588 -0.34963247 0.15243006 -0.3925895 0.26043835 0.55029213 -0.19749002 0.18776233 0.011345762 -0.27932853 0.18205267 0.5022963 -0.30320692 -0.22811864 0.270958 -0.6855548 -0.451179 -0.75179315 0.24750678 0.098682046 0.016319005 0.19611043 -0.24692504 0.35460493 0.23556164 -0.6043572 -0.55293787 0.12827027 0.26012117 0.005338029 -1.1726625 0.61581385 -0.09846664 -1.200729 0.09411538 -0.37510297 0.0040505934 -0.4278387 0.25989568 -0.026000703 -0.4741684 0.18188117 0.18012436 0.15087183 -0.23007669 -0.3001968 0.53359926 -0.34409878 0.47314322 -0.44316328 0.056706063 0.41064593 0.51927084 0.31618553 -0.12681271 -0.005922647 -0.3637428 0.39866054 0.18941565 -0.09050795 0.14510316 -0.19502506 0.75583 0.12077098 -0.23670965 0.14267933 -0.3284444 0.6110815 0.52272224 0.53122723 0.049582873 -0.13693853 -0.18885116 -0.71397316 -0.6756388 -0.16259836 -0.34496862 0.31571558 0.8099972 0.32566443 -0.0818506 -0.26779538 0.5912526 -0.41442642 0.17856064 0.42529386 -0.0046254923 -0.33634278 0.18769307 0.11376426
5731 0.28920352 -0.5845178 -0.033351824 -0.05669639 -0.014753262 0.16422527 -0.27613515 0.14334272 0.29215512 -0.021076033 -0.21202724 -0.5563126 0.4087815 -0.113142416 0.029953353 0.0611987 -0.65781987 -0.11086676 -0.1504814 0.17927518 0.0629714 -0.1651202 -0.17006548 -0.06808458 -0.19151828 0.41614023 -0.3672189 -0.57039857 0.115888886 0.1448128 0.038090996 0.50388706 0.33014566 0.5526927 0.35785535 0.71965086 0.30593327 -0.179366 0.76455647 0.6637588 -0.10255178 0.10961109 -0.006671897 -0.06575241 -0.03591178 0.17977598 0.1618322 0.24220307 0.44003356 0.2394597 -0.41713813 -0.45851105 0.0070988117 -0.18889594 -0.18819077 -0.9832479 -0.21353167 0.45294362 0.12158221 -0.013777761 -0.13300033 -0.29260752 -0.2521997 0.13228467 -0.09115408 0.40849003 0.043538556 -0.21142325 0.35555127 0.11606592 -0.36744046 0.39336124 -0.4319463 -0.0020207113 0.56522 0.10145223 0.18651076 0.21572141 0.11411926 -0.32230622 0.059410807 -0.7778174 -0.38151053 0.46819738 -0.16068585 -0.16685556 -0.35988218 -0.17048563 -0.6790878 -0.19278805 0.32267126 -0.2741769 0.7273341 0.69814575 0.06045649 -0.029429134 -0.12652744 -0.027036248 -0.37591872 -0.12156628 -0.0861401 0.30353624 -0.484024 0.093000874 -0.24994797 0.122727185 -0.16638447 0.7491188 0.18184999 -0.28802353 -0.13723935 0.3824724 0.0695215 -0.09842623 0.5463481 -0.031047722 0.13733904 -0.13443984 -0.057153728 0.44436678 -0.31492382 -0.7396956 -0.07205049 -0.0026150076 0.0016224438 -0.08571571 -0.034305777 -0.21403211
1465 -0.5883469 0.21364625 0.13384447 0.14484909 -0.6714861 -0.35621613 0.14812894 0.59268373 0.15705359 0.116494775 0.42587078 -0.23668824 0.11037232 -0.3997362 -0.22232647 -0.08285151 0.09654741 0.12515154 0.11133189 0.19625273 0.15819673 0.4482484 -0.15826835 0.08172181 -0.35219848 0.41363558 -0.030693248 -0.5035951 0.45434558 0.09831696 0.20281065 -0.18253873 0.37583873 -0.7376555 0.45319304 0.27729818 0.374001 0.1399256 -0.3922982 -0.16694307 0.016132826 0.15182792 0.039010487 0.13914372 -0.17685664 0.24510422 0.08293865 -0.2750959 0.27902246 0.7072548 -0.08781405 -0.11192749 0.31306833 -0.004274197 0.11092027 -0.3337044 -0.27825037 -0.34330696 -0.11213193 -0.20952484 -0.029990943 0.38478076 0.5369817 -0.0071172593 -0.66206807 -0.060906596 0.30651438 -0.19805482 -0.07803329 -0.052913044 -0.22001146 -0.13193208 0.6330122 -0.0719637 0.31222728 -1.1554351 0.24299516 0.005395386 -0.3121035 0.031827897 -0.17734243 -0.36288446 -0.065682754 0.14348759 0.08424312 -0.107135214 0.14687166 -0.29167545 -0.7347943 0.29604185 -0.0322594 0.32376397 -0.41467515 0.22244446 -0.42147794 0.696375 0.26619154 0.18259442 -0.18078804 0.07604133 -0.12218158 0.08802119 0.0979104 0.36314794 -0.53173 0.4034243 -0.040162202 -0.5051166 0.13306387 0.27082658 -0.53402996 0.16168459 -0.2514748 -0.07758533 -0.12634547 0.067361236 0.16860199 0.19266789 0.064276114 -0.040389124 -0.021774432 -0.71025884 -0.7218558 0.51917195 -0.02920932 -0.31726483 -0.094270326 -0.3379749
8349 -0.20380911 -0.23343723 0.3213021 -0.052873537 -0.48263758 -0.045578957 0.14783558 0.12552954 0.15266488 0.3098897 0.28886053 -0.37146705 0.21503295 -0.028688472 -0.06937782 0.05939034 -0.33049512 0.33321983 0.13028276 -0.10203015 -0.114195935 0.13316855 -0.22433831 0.04481548 0.12277664 0.45467132 -0.65860814 -0.5100219 -0.06893493 0.0035583116 0.38269776 0.5811057 0.33825326 0.009813105 0.3855214 0.81573933 0.124783 -0.07497141 0.2372843 0.17459251 0.27135554 0.16728722 -0.39366442 -0.79141897 -0.21274547 0.17930527 0.36959243 0.5919967 -0.13779213 -0.11426577 -1.3357846 -0.07448747 -0.04323751 0.10035113 0.076105684 -0.6518481 0.08057204 0.52573776 0.16913 -0.16196954 -0.26148096 0.021278074 0.20663524 0.24321114 -0.2667372 0.4998031 0.47377217 -0.71593434 -0.24008143 -0.24175896 -0.17674124 0.02854635 -0.20293589 0.009873918 0.2795445 0.32352465 -0.2569211 0.7558826 0.3123067 0.011481579 0.18716389 -0.64951867 0.14583993 0.29317793 -0.0045967456 -0.018803356 -0.38540822 0.17483604 -0.11797107 -0.17523143 0.4149585 0.33157247 0.5291889 0.5167402 0.072208464 -0.034402367 -0.18857805 -0.15750965 0.2159707 -0.63824403 -0.0005235939 0.036889188 -0.21863168 0.33664268 0.08304686 0.1131811 -0.1610505 1.0917202 0.6406427 -0.2608235 -0.026437761 0.09112995 0.5476211 -0.13106835 0.30654192 0.3592897 -0.20100287 0.13290279 -0.006733371 0.26184925 -0.020049226 -0.113977194 -0.69703835 -0.4100372 -0.15215756 -0.35188052 -0.31615227 -0.049203504
491 0.5590541 -0.32494962 -0.26291856 -0.32457644 -0.096793495 0.14104834 0.38458127 0.33588925 0.16990006 0.29074383 -0.31175557 -0.37370095 0.37769315 0.07895352 0.07287422 -0.066331044 -0.7327918 0.066911615 -0.059134144 0.48188758 0.09750713 -0.07511021 -0.17184661 -0.40337396 -0.17365818 0.2833853 -0.19380444 -0.7457733 0.14876686 0.36443275 -0.2072337 0.49377573 0.33432752 0.38832358 -0.014853655 0.4377606 0.44351432 0.22745472 -0.0031383282 0.827179 -0.07058277 0.2760689 0.16495976 -0.5214144 -0.45907032 0.0433743 0.30643362 0.010232629 0.33070785 0.087447844 -0.24428791 -0.4355887 0.26733962 -0.2434254 0.037264146 -0.8432255 0.08981479 0.60492074 0.46208227 -0.35967126 -0.008457919 -0.21494073 0.1766359 -0.108578295 -0.2034473 0.28932616 -0.21668738 -0.16957095 -0.07152897 -0.49716267 -0.27064338 0.37073424 -0.19808504 -0.3449887 0.43910176 -0.10970411 0.040211268 0.27357164 -0.027457941 -0.02302999 -0.020711975 -0.258812 0.1983393 0.6283453 0.10383016 0.22076778 -0.4697259 -0.30897847 -0.10431125 -0.42104465 0.040450715 -0.46967772 0.47930533 0.64145017 -0.13598405 -0.020061916 -0.014940861 -0.07842661 -0.3668728 -0.042246584 0.00076923537 0.040909562 -0.41850367 0.39395422 -0.19405612 -0.05300264 -0.0053461525 0.5221668 -0.03355175 -0.40761656 0.20812948 0.40283978 0.06882762 -0.15004474 0.6065376 0.20294684 0.076668724 -0.108196005 0.23936024 0.7681641 -0.024667336 0.0648668 -0.23446184 0.26853913 -0.18200041 0.43382642 0.2585594 -0.32383546
1565 -0.6391095 0.23058668 0.24837531 -0.09819334 -0.57179534 -0.4721394 -0.06106502 0.7665025 0.0010023378 0.18125522 0.2172829 -0.4156528 0.2614884 -0.44874838 -0.01608168 -0.2050749 0.08803058 0.022997808 0.3846891 0.40964258 0.2637379 0.6319135 -0.14930986 0.13433042 -0.6943684 0.62058556 -0.3686051 -0.2741191 0.22242646 -0.025907056 -0.17005979 0.10808009 0.1627634 -0.8934722 0.63911366 0.5407165 0.70789677 0.076443456 -0.14256005 -0.70104176 0.010318253 -0.04543869 0.317485 0.14846869 -0.13128948 0.23329794 0.112209216 -0.5222105 0.31186843 0.66944885 -0.031471495 -0.06584924 0.47619542 -0.15505067 0.10810307 -0.0029609979 -0.36951697 -0.31289515 0.100305706 -0.04496126 -0.21604712 0.3600628 0.6033835 0.10644564 -0.8275117 -0.004483702 0.27599868 -0.14552028 -0.268054 0.11335063 -0.45392668 -0.18943606 0.3102134 0.16384193 0.43317798 -1.0300407 0.25145856 -0.11515652 -0.3221202 0.12870748 -0.28985322 -0.58426124 0.06376473 -0.1588717 0.16552465 0.06398466 0.20018415 -0.43300095 -0.75039554 0.26677644 0.14786506 0.41489318 -0.30438304 0.34555328 -0.66682345 0.9162327 0.18526275 0.19709934 -0.09479997 0.2527192 -0.14117798 0.29406473 -0.35299695 0.20478302 -0.94760025 0.40299156 -0.1687077 -0.3476455 0.3097212 0.16761333 -0.33784264 0.29749697 -0.11810516 -0.11791009 -0.28718165 0.43013766 0.28036153 -0.07723572 0.091086335 -0.14727645 -0.28765616 -0.8324147 -0.3416683 0.6986571 0.060716543 -0.26802906 -0.009271886 -0.07289497
1788 -0.065344356 0.9614395 0.43410882 -0.71685934 0.34123206 0.52934754 0.14646742 0.2636532 0.44100153 -0.34671164 -0.082179196 -0.54668224 -0.060594313 -0.22062479 0.024186876 0.3917309 -0.9754907 -0.0697758 0.51602054 0.3327629 -0.21646774 -0.6765231 -1.0179706 -0.05509155 0.16836423 0.2419221 -0.108444095 -1.2570693 -0.5277981 -0.9326341 -0.7493549 -0.7893974 1.2103606 -0.1369978 -0.5614302 0.95258987 1.1696398 0.116139375 0.92385745 -1.2463431 1.313197 1.3291833 0.33131084 0.15758735 -1.1995889 0.62199193 0.14730468 0.23954903 1.0893351 -0.020374198 -0.8240117 -0.37051794 0.7088334 0.07981848 -0.77357477 -0.35304788 0.20134592 -0.37238064 0.116836295 0.41344473 0.4787257 -0.24730931 -0.60859406 -0.090731785 -0.71492267 -0.47319958 0.77597266 0.29730737 0.67468387 0.03074305 -0.21094842 -0.37445918 0.5660489 -0.6327039 -0.31574184 0.17931668 -0.1706444 0.13841543 -0.150381 0.2900063 0.2424987 0.03452676 0.5950085 0.9271196 0.54599553 -0.82667303 0.6303202 0.2779243 0.37547213 -0.6823405 -0.5692721 1.1441691 -0.48419476 0.02749692 -1.0932646 0.7594936 -0.0062628766 0.044729114 0.056890067 -0.05609962 -0.8931073 0.74293 -0.464955 0.18521498 -1.1794578 0.47211662 0.21119568 0.2338189 -0.21978512 0.7455467 0.0120266415 0.2963492 0.35170332 -0.116529614 -1.0273205 -0.9094339 0.6652268 0.34136912 0.78466177 -0.0494264 0.48092175 -0.21357077 -0.64324987 0.05792746 -0.121413 -0.29231778 0.49868023 -0.054589152
4473 -0.41228348 0.39345 -0.067547776 0.054801572 -0.10490277 0.09742782 0.3846097 0.19098832 0.02955876 0.22716744 0.12689961 0.033359252 0.7166142 -0.1131449 0.22987041 -0.20159493 -0.09213137 0.23007599 0.39501685 0.11936798 -0.22838695 0.15173356 0.054800484 -0.45875946 -0.19582696 0.4967413 -0.19525075 -0.7016451 0.08369255 0.40120324 -0.097607635 0.11501683 0.11930942 -0.0049281614 -0.46913025 -0.100873195 0.31724232 0.079402275 -0.006956182 -0.3961916 -0.13653031 0.38654798 -0.087847225 0.2719831 -0.61597645 0.08715931 0.30723938 0.28398964 0.15216091 -0.5415693 -0.02276881 -0.17336246 0.28298166 -0.06064312 0.16390796 -0.5093903 -0.14043134 0.28027394 0.036938306 0.53141433 -0.15601055 -0.1669315 0.51814526 0.036679853 -0.20525892 0.36062557 0.32729384 -0.40249708 0.1809019 -0.23892263 0.38543287 -0.6423875 0.061170224 0.33271948 -0.091908075 0.027024625 0.04165854 -0.008612615 0.06630653 -0.25662258 -0.22193697 -0.4556244 0.2249647 0.18114544 -0.14758316 0.44331858 0.71431214 0.108792216 -0.6989173 -0.41233277 0.34106135 0.76959574 0.47330165 0.5305524 0.13445559 -0.43183675 -0.2875346 -0.28982288 -0.1366088 -0.29318294 -0.08217839 0.4532948 -0.027004093 -0.5971824 0.16519874 0.27831662 0.220855 0.38883328 0.10688934 -0.17988345 0.12324021 0.19401777 0.19546297 0.14989647 -0.33400375 -0.19970194 0.030628305 -0.13625546 0.30721718 0.13927473 0.002540592 -0.25829652 -0.060254205 -0.34345376 -0.011951361 -0.43291476 -0.28920597 -0.09465412
50114 0.0032566623 1.0198383 0.49344352 -0.6417255 0.41767788 0.6110054 0.109471634 0.323453 0.4805937 -0.30958807 -0.03125349 -0.5772791 -0.08251159 -0.2485985 0.03370532 0.40835026 -0.9494821 -0.07374951 0.5004654 0.27779183 -0.19978651 -0.7058625 -1.0862155 -0.071115464 0.13347253 0.2753181 -0.119736396 -1.2063848 -0.5717026 -0.87239724 -0.71148765 -0.7511041 1.2890304 -0.02129133 -0.7058784 0.98994255 1.1469004 0.204967 0.9140814 -1.3016523 1.3755236 1.2931926 0.34156245 0.21551201 -1.2748852 0.74366164 0.1692131 0.22585092 1.0869805 -0.05619657 -0.85340536 -0.46106613 0.7078457 0.15092015 -0.7652747 -0.32876042 0.15641221 -0.38146102 0.1957539 0.49759713 0.4513916 -0.301042 -0.6827977 -0.05376109 -0.79375863 -0.52487236 0.8536316 0.22079541 0.65952575 0.012478335 -0.24860878 -0.47071785 0.56999797 -0.6738738 -0.35383922 0.22118863 -0.12258033 0.16429949 -0.20791358 0.27527264 0.2625293 -0.02077708 0.58416724 0.9735173 0.5934822 -0.8074033 0.6039544 0.25380683 0.42177156 -0.58609134 -0.5610106 1.1189976 -0.5388489 -0.02300674 -1.1296585 0.872386 -0.03630433 0.03122413 0.06502295 -0.01696213 -1.0254184 0.8080977 -0.5772341 0.28112713 -1.2220255 0.46728918 0.2218944 0.16870563 -0.12818055 0.76306915 0.036996324 0.2334672 0.38838387 -0.100970864 -1.0285456 -0.93493575 0.70306987 0.33297664 0.7432905 -0.032326583 0.5802452 -0.1975232 -0.64350307 0.07764533 -0.055052806 -0.3425371 0.546799 -0.08408409
1897 -0.7605679 0.08356424 0.29721087 -0.10305868 -0.7593122 -0.48513502 0.0076386645 0.9458878 -0.2557257 0.117932074 0.30506492 -0.4388485 0.18825962 -0.5150203 0.0052571064 -0.084466934 0.12396642 -0.1288957 0.47281542 0.42836154 0.15416902 0.59766066 -0.17989865 0.08261383 -0.8445349 0.70193136 -0.22189176 -0.23396483 0.2841112 0.061247714 0.023143364 0.04292547 0.21248488 -0.8792619 0.6037422 0.6861105 0.6977441 0.19300649 -0.28025842 -0.47129366 0.13977264 -0.045316637 0.22183551 0.1710589 -0.15314427 0.23334523 0.029702535 -0.49599317 0.48632842 0.64175856 0.090816356 -0.07406365 0.6010511 -0.25015458 0.03201134 -0.030557146 -0.42517525 -0.30723876 0.03566753 -0.12614112 -0.23911422 0.31106368 0.45258707 0.051723834 -0.8639684 -0.056619197 0.31258374 -0.2629453 -0.26582116 0.14386131 -0.57356703 -0.18606699 0.30151832 0.044905744 0.32099548 -1.0164374 0.37189966 -0.14528872 -0.2862257 0.0041783494 -0.33341876 -0.44549888 0.004915538 -0.008109178 0.26425296 0.074949175 0.2883711 -0.4038018 -0.912076 0.47227693 -0.0062477444 0.47963214 -0.3351415 0.12123884 -0.58938205 1.0441517 0.008968966 0.17377362 -0.082677804 0.07430287 -0.0084138075 0.4773788 -0.32178816 0.4080352 -1.0310447 0.519991 -0.3677903 -0.5328387 0.15147567 0.053891167 -0.34320533 0.25406995 -0.12511748 -0.09616616 -0.15757106 0.36949486 0.1564916 0.005802018 0.018188704 -0.2476698 -0.17283294 -0.96456647 -0.33054465 0.97890484 0.13155177 -0.43205595 0.02493771 -0.11462755
1615 -0.23536958 -0.061403017 0.28794634 0.05274204 -0.0515219 0.44260353 0.016144864 0.2931149 -0.09018587 0.43729413 0.29687008 0.10110167 0.7858239 -0.11662778 0.15778619 0.04260395 -0.00050935894 0.20608489 0.45326164 -0.17728959 -0.61257374 0.1729346 -0.30315313 -0.9993829 0.027226616 0.01882835 -0.34671733 -0.6657308 0.34536213 0.0539382 0.09900945 0.27132115 0.6945579 -0.15069053 -0.72213966 -0.0580042 0.23781832 -0.15794094 -0.086405 -0.13142255 -0.7539823 0.14108206 -0.3646507 0.59038657 -0.73592985 0.35989484 0.092568435 0.08344034 0.22583407 -0.72514576 -0.24259205 0.094375245 0.3157015 0.29185578 0.13786183 -0.85496914 -0.020264724 0.13874152 0.015702434 0.17285849 -0.34076202 -0.29111007 0.13289341 0.31795067 -0.20529844 0.21506105 0.6196698 -0.12853058 0.09884943 -0.3701672 0.28042212 -0.19053566 -0.30842623 0.5239242 -0.2681973 0.18073796 0.17585921 0.30757898 -0.109267205 -0.5925697 -0.14838885 -0.6486991 0.06638824 0.73764277 -0.045356397 0.278111 0.6621143 0.006935368 -0.8601731 -0.23111421 0.3314579 0.32901728 0.13291076 0.58059454 0.055836927 -0.26652274 -0.11412673 -0.54274374 -0.29663894 -0.4307531 -0.3990355 0.38839614 0.44945335 -0.19705164 0.25188017 0.5154457 0.0035619938 0.6671737 0.19680361 0.09254149 -0.27251133 0.09321542 0.43843624 0.20142882 -0.22143537 -0.25667834 -0.46723962 0.2505389 0.046875287 0.13828352 -0.16605711 -0.1599808 0.15750359 -0.20119873 0.32681113 -0.2951267 -0.33095592 0.064238235
3153 0.08505441 -0.19963123 0.14432178 -0.024787338 0.37326285 0.06276454 0.45576125 0.11046504 -0.18740128 -0.41113043 -0.10718288 0.520192 0.56192625 -0.08116041 0.20138226 0.34755853 -0.23997782 0.24692138 0.036400862 0.2719329 -0.26235625 -0.10616843 0.005121279 -0.0081828255 -0.40590963 -0.20881933 -0.010376467 -0.7131793 -0.34291703 0.2112988 0.049501378 0.12368995 0.194221 0.045792513 0.2482065 0.56037146 0.034268156 -0.2708651 0.47075328 -0.3061851 0.057683304 0.22405659 0.08455573 0.08889304 -0.26605207 0.350102 0.36730295 0.61279315 -0.009993936 0.30486122 0.07256075 -0.58016896 0.037536938 -0.51693195 -0.24511933 -0.507718 -0.023816796 0.10064646 0.103275895 -0.11191985 0.060551737 0.023102589 0.16416721 -0.05926244 -0.10832465 0.13891448 0.011523335 -0.28659314 0.3382718 -0.036592413 -0.4727391 0.36240023 0.21083179 -0.3555597 0.5975763 -0.29594293 0.00533505 0.24340822 0.4658576 -0.44289997 -0.091165155 -0.3103165 -0.38442358 0.32090974 0.3228836 0.38653746 -0.15712085 0.2187546 -0.42040113 0.014277005 0.52046746 -0.06903534 0.3080217 0.33369443 -0.24687812 0.52884644 -0.10284614 -0.067864574 -0.4916799 -0.014864746 -0.51701653 0.4545362 -0.50913376 0.12243047 -0.27829248 0.1866841 0.22692585 0.5175029 -0.10065161 -0.10754013 -0.048110154 -0.22190562 0.34586024 0.14656954 0.22525653 -0.37621543 -0.0424651 0.48600268 -0.011703964 0.34634906 0.30367875 -0.31540006 0.21571857 -0.23471917 0.1485086 0.29537848 0.321728 -0.6690073
13620 -0.45910046 0.23870766 0.32515055 0.15303667 -0.24087818 0.17465092 0.113550775 0.46062937 -0.054616123 0.09110419 -0.21923544 -0.042700477 0.3226217 0.21222575 0.8972626 -0.951996 -0.52353334 0.56416106 0.17650111 0.1403602 -0.10628998 -0.73066986 -0.57334596 -0.37005657 0.112828724 -0.31685022 0.091362245 -0.4577029 0.29772246 0.3494378 0.61661756 0.41582802 -0.22124061 0.08700284 -0.21407644 -0.1330881 -0.111818105 0.7943385 -0.18872549 -0.47834814 -0.45495868 0.60176474 0.08541875 -0.6873063 -0.3364427 0.16430533 -0.33260816 -0.027935555 0.18529199 0.2537483 -0.005422633 -0.106935136 0.6908909 0.3552726 0.13391285 -0.41937807 -0.54985976 0.13596398 -0.26355815 0.0035077794 -0.07926833 0.018726656 0.034036547 0.058748968 -0.19970226 0.16121621 0.49377066 0.23600122 -0.14773019 -0.52614087 0.85533774 0.28931814 -0.3182246 0.15224448 0.26526996 0.00079377514 0.21268702 -0.07435162 0.25807837 -0.05832966 -0.35848454 -0.3041584 0.23303573 0.45082512 -0.4368883 0.10460668 0.072543055 -0.48763373 0.23720002 -0.77313024 0.26532492 0.11276445 0.42281315 0.7606734 -0.23304331 0.43094668 0.16069542 -0.0032964328 -0.003711383 -0.068042815 -0.056600254 0.780575 -0.20059001 0.3038887 -0.41905227 0.6080232 0.12535459 0.7414896 0.031018171 -0.24026705 0.036444686 -0.59248024 1.0152254 0.14437652 -0.25054288 -0.16957486 -0.32723752 0.13727129 -0.2734663 0.16672862 -0.017266808 -0.28074557 -0.09176214 -0.4982685 1.203845 -0.6908186 0.08096454 0.025565673
210872 -1.1585739 -0.1915435 0.14636998 -0.16816698 -0.010739647 -0.3323296 0.5666889 0.64190304 0.18106295 0.7304175 -0.0872477 0.18019648 -0.141824 0.26397917 0.22944622 -0.49028867 0.24223632 -0.037749443 0.037102107 -0.2703476 -0.2719989 -0.2612819 0.081236936 -0.948585 0.11260904 -0.29679462 -0.080006294 0.48488912 0.26163882 -0.09327175 -0.89531714 -0.21856378 0.14229247 0.024396237 0.09678501 0.36440855 0.5704194 0.3254879 -0.02763751 -0.2535602 0.348112 0.38595444 0.017448548 0.40538448 -0.39068392 0.75304526 0.18156326 0.14920159 0.22082822 0.036230877 -0.18070278 0.20055082 -0.27141502 -0.22926 0.037651356 -0.7742044 -0.29653257 -0.8157137 -0.28290647 0.4617486 -0.03491223 -0.4392555 0.04015969 0.034607086 -0.1675901 0.64830506 0.028131856 -0.06950308 0.17366396 -0.18989791 -0.14091583 -0.06988654 -0.3212921 -0.10249457 -0.13753247 -0.002695249 -0.33056977 0.32684582 -0.42704877 0.61518085 -0.27717975 0.19886838 -0.862133 0.26720172 -0.22293821 0.14458823 -0.19440295 -0.17810889 -5.050948e-05 -0.111498386 0.6395191 -0.21411178 0.11445585 -0.19933088 -0.0211718 0.23668922 -0.33807024 1.2222377 -0.78433776 0.9135846 -0.29476738 -0.023404313 -0.71418834 -0.317519 -0.6120361 0.8887031 -0.6396779 -0.18352172 0.32145193 -0.32849744 -0.36085108 -0.574859 -0.08461801 -0.41405264 -0.43049926 -0.59480846 0.049852904 0.5824776 0.2607161 0.17292601 0.32093826 -0.058416817 -0.40588233 0.6178672 -0.9014651 -0.40337232 -0.07346861 -0.5345559
82920 -0.8011308 -0.47006887 0.048080098 -0.28519687 -0.062246103 -0.1479082 0.7594419 0.5422099 0.4614172 0.9384013 -0.11883293 0.43822107 -0.10384147 0.454505 -0.13396062 -0.23940895 0.31854755 -0.20860745 -0.18771893 -0.07741162 -0.43648097 -0.036537644 -0.40025303 -1.0718887 0.057197265 -0.32041243 -0.03434637 0.6429598 0.2775946 -0.0940982 -0.95856184 -0.49509242 0.384391 0.11313128 0.27986145 0.368441 0.7323628 0.36844876 0.00022142506 -0.30273184 0.18935478 0.39243326 -0.05931067 0.33064315 -0.43796578 0.9240661 0.18249829 0.3261353 0.27450106 -0.11051361 -0.23133793 0.27829653 -0.1399804 -0.3531135 -0.16046138 -0.6396101 -0.15389447 -0.84618247 -0.21328244 0.5311185 0.009672359 -0.31138018 -0.25036988 -0.15813078 -0.048360143 0.37908205 0.02259757 -0.052190118 0.056798328 -0.15015693 0.07834592 0.07572574 -0.12824817 -0.21449335 -0.21895638 -0.024579229 -0.50082946 0.3857437 -0.40717676 0.57347226 -0.03760234 0.35163972 -0.5732264 0.1089107 -0.33534813 0.23699477 -0.2334647 -0.36799985 -0.117401876 0.009244512 0.75857484 0.024378268 -0.063201845 -0.49365923 -0.11946532 0.16216193 -0.44027415 0.9640219 -0.72962976 0.78165174 -0.30664048 0.34015188 -0.8325062 -0.6304518 -0.58902425 1.2926413 -0.48349985 -0.05428089 0.26655382 -0.34374902 -0.57221395 -0.3488631 -0.2290205 -0.48995847 -0.44594544 -0.3818286 0.01944286 0.57745194 0.21436156 0.11176885 0.07992574 -0.016031902 -0.31055075 0.87875575 -0.8212377 -0.52748203 0.055026084 -0.7120668
887 -0.5353674 -0.22893988 -0.08730022 -0.004318998 -0.16531797 -0.29828152 0.6789072 0.5144028 -0.00812596 0.31436452 0.21709223 0.31059998 -0.0013587404 0.06862665 0.18487962 -0.35886464 0.37816802 -0.18049479 0.09604711 -0.073005505 -0.22431777 -0.18403688 0.10258358 -0.9821332 0.109637834 -0.23288028 -0.18414374 0.5371781 0.43631676 0.2094542 -1.1632876 -0.43044707 0.33511925 0.18523704 0.29299724 0.13688537 0.5000442 -0.0032229125 -0.16177867 0.03428058 0.41525295 0.49156344 0.07649814 0.10930524 -0.24942411 0.5423564 -0.08574902 0.1576149 0.46761817 0.049018167 -0.014086877 0.29822147 -0.17242263 -0.43189508 0.16655584 -0.57594335 -0.33459926 -0.42448527 0.09651598 0.38394445 -0.23481166 -0.34656313 -0.1542025 0.11530107 -0.35280558 0.33431852 -0.061747678 -0.23406547 0.20863228 -0.25817055 -0.010225811 0.031329837 -0.09057783 -0.22429858 -0.23162392 0.14324489 -0.4333825 0.20963988 -0.4975995 0.78082603 -0.47129807 0.46514136 -0.43896568 0.309813 -0.17445524 0.022041641 -0.10401867 -0.24536204 -0.23070231 -0.121312246 0.76400155 -0.032319237 0.0017812328 -0.03600029 -0.22152074 0.035417717 -0.006886548 0.85716766 -0.6381734 0.65702724 -0.53237635 0.15041049 -0.52616227 -0.045076218 -0.77974194 0.77890617 -0.5092589 -0.033674553 0.1908794 -0.22023052 -0.15139574 -0.5439294 -0.12323318 -0.6587383 -0.21112096 -0.6571942 0.04678267 0.4295071 0.364177 0.07580871 0.1464097 0.075714 -0.36971635 0.57027096 -0.47405177 -0.2546657 -0.19112858 -0.122722685
4584 -0.93389684 0.18302402 -0.2784636 -0.068027385 -0.17080106 0.1137562 0.2413339 0.8117499 -0.24441464 0.32079706 -0.07000653 0.6348133 -0.15237315 0.15875153 0.0063061076 -0.054469585 0.691569 0.26152846 -0.4988803 -0.017514426 -0.04614474 -0.23467612 -0.36862445 -1.0364615 -0.039703682 0.34998664 -0.17312364 0.3136827 -0.059071895 0.10207146 -0.56125194 -0.6871364 0.70578533 -0.022366207 0.87548685 0.036141947 0.52618206 -0.1607767 -0.07899299 -0.50048727 -0.06751958 0.740826 -0.26066828 -0.26307842 -0.4648417 0.7662572 -0.36857173 -0.48973635 0.9034385 -0.42497775 -0.09917607 0.5357012 0.23429978 -0.6575337 -0.37862736 -0.53478366 -0.16553245 -0.8069524 -0.4341885 0.17941156 0.074098885 -0.2164685 0.3461892 0.30666247 -0.28878286 0.3218532 0.29773846 -0.29625005 0.35129032 0.12901583 0.26754475 0.48435074 0.107802935 -0.6242142 0.05623479 -0.17280778 -0.9509539 0.14377078 -0.37384588 0.44178867 -0.60016894 0.6863286 0.031008486 -0.19899198 0.034908872 -0.27050713 0.097275525 -0.89232725 0.21330547 0.40958297 0.6091974 0.24030297 -0.3042738 -0.790024 0.18063013 0.057036534 0.0836707 0.5295565 -0.3149515 0.027569195 -0.89867365 0.3044249 -0.6767174 0.16213815 -0.84642714 0.633367 0.02305211 0.34622458 0.2255836 -0.23937999 0.30892247 -0.23286138 -0.43261456 -0.478493 0.17305535 -0.29677632 0.09380777 0.55915976 0.10077147 0.27438405 0.14028084 -0.19425575 -0.32407683 0.75093776 -0.61217505 -0.1031259 -0.06474541 -0.3409098
8327 0.54687697 0.07089231 0.097250946 -0.10427018 0.31141552 -0.06039407 0.38401958 -0.01763201 -0.16487382 -0.24990274 -0.24897087 -0.02083876 0.78701353 -0.15023638 0.11135611 0.2439909 -0.51846814 0.15366456 -0.16825017 0.07575317 -0.20707013 -0.14372495 0.16637081 0.17715815 -0.3284328 0.10148971 0.23413305 -0.449286 0.197684 -0.07462646 -0.56992745 0.37724358 0.19209324 0.41085094 0.74741054 0.5351772 -0.13634175 -0.2913462 0.4246444 0.033409547 0.058115035 0.17712146 0.10062662 0.06379766 -0.8351623 0.1888425 0.71112204 0.38271335 0.19622593 0.20821029 -0.13694154 -0.10719456 0.90016294 -0.25613526 -0.09508699 -0.9774672 -0.10767049 0.09941874 0.18400583 -0.46920156 -0.14087372 -0.3258217 0.64356416 -0.2868979 -0.315536 -0.0823475 -0.28859448 -0.19985983 0.26912913 -0.3767815 -0.33154443 0.68342084 0.06528653 -0.44943437 0.6038953 -0.34333462 0.050564796 0.11452078 0.6296503 -0.23578042 -0.13111246 -0.19629711 -0.32592717 0.41037545 0.18588395 0.10032084 -0.040125743 0.074534215 -0.4987503 -0.08450289 0.78668267 -0.08552347 0.41962895 -0.26377138 -0.053457357 0.2763244 -0.25700068 -0.31201896 -0.320544 0.31693438 -0.85139847 0.21813421 -0.24101149 0.15001598 -0.5123994 0.33392775 0.5103549 1.0370153 -0.18073964 -0.3444047 0.068580285 -0.10241816 0.74916637 0.37975702 0.16942334 -0.19866945 -0.3071919 0.6259657 -0.008663973 0.6107686 -0.057254706 -0.478675 -0.2666117 -0.025727002 -0.024144195 0.39407587 0.6071251 -0.43353322
6213 -0.72638905 -0.1488313 -0.2708992 0.08046931 -0.037078027 -0.008751493 0.060462806 0.8298358 -0.12005923 0.08759566 -0.026677178 0.37721407 -0.18578544 0.14556049 0.4201575 0.072212495 0.30044517 -0.39717764 -0.3859299 -0.2965148 -0.008021317 -0.46062598 -0.24398458 -0.9828683 0.23939602 0.24451432 0.036226217 0.013146827 -0.16461778 -0.13957441 -0.5524807 -0.46116802 0.2270801 -0.20315136 0.36479583 -0.11233426 0.10320591 -0.0506196 -0.21685821 -0.20328316 -0.06589225 0.3303663 0.24065256 0.17048319 -0.047987856 0.67308867 0.03853493 -0.23982331 0.59134495 -0.30888328 0.007314075 0.26198283 -0.19963744 -0.71178925 -0.12382888 -0.6606787 -0.367498 -0.71005166 0.09094603 0.27800405 0.08024823 -0.39019206 0.07210849 0.509753 -0.26413655 0.27398378 0.48799986 -0.14322628 0.61515903 -0.015023803 -0.09093448 0.17479709 -0.1335205 -0.14634977 -0.11470468 -0.26425862 -0.49482518 0.2891089 -0.46866226 0.42801228 -0.49933633 -0.10161165 -0.101143844 0.1876841 0.18446155 -0.3419738 0.10796422 -0.66171724 -0.21292564 0.21003701 0.3356777 -0.37855354 -0.11693669 -0.41313246 0.2525078 -0.007995187 0.030680183 0.80436295 -0.50763375 0.07181318 -0.70189553 0.0926284 -0.6514023 -0.17059751 -0.67418754 0.6397108 -0.3039352 0.18200032 0.39146766 -0.051540572 -0.03702012 0.09344925 -0.32590073 -0.5493959 -0.17456552 -0.35526517 0.053539805 0.13825324 0.07119723 0.41187954 0.25852826 -0.16130231 -0.54904115 0.480174 -0.6632759 0.15681522 0.0063905395 -0.35699642
5222 -0.5314145 -0.18658555 -0.349508 0.09159937 0.011209015 -0.043196294 -0.04540612 0.12744558 0.2245169 0.12141732 -0.3080047 -0.22650072 0.045998137 -0.3739033 0.28961882 0.3758474 -0.24112238 0.29872942 -0.062140264 -0.25989977 0.403976 -0.17200457 -0.18203162 -0.20049597 -0.37222862 0.42318565 -0.10569279 -0.7057897 0.24294865 -0.025619192 -0.47812858 -0.06486524 0.5114898 0.0746548 0.18542278 -0.0137465475 0.34013125 0.5006723 0.33964643 -0.10278977 -0.7579971 0.62241244 0.19042073 -0.28724965 -0.3956338 0.44262725 -0.009720307 -0.31469828 -0.6320023 0.051178947 -0.6296784 0.060629763 -0.066770405 -0.047219284 0.49197713 -0.5349537 -0.42558986 0.36338612 -0.23891255 0.41114455 0.060980644 -0.012065232 -0.08079491 0.5274661 -0.09093955 -0.50240046 0.027358541 -0.3812062 -0.2703014 -0.22218221 -0.1134382 0.5274034 -0.047625523 0.13082364 0.13079566 0.27220607 0.19697803 0.25679997 0.088957176 -0.6328662 0.030878488 -0.1551512 -0.004396905 0.02815019 0.78797 0.545457 -0.25882453 -0.17982353 0.056261368 0.1322407 0.6041933 -0.038397487 0.675153 0.45976254 -0.5104234 -0.09255506 0.17421928 -0.026336199 0.010416893 0.115580134 -0.030204223 0.3645234 0.152101 -0.41863006 0.289071 -0.015124761 0.2811544 0.2560305 -0.25327072 -0.15223895 -0.0756246 0.24041212 0.15961802 0.6351774 0.58293724 -0.21212141 -0.15247667 0.15167247 0.6260944 0.09538406 0.18492243 -0.54819524 -0.031932227 -0.08617105 0.019488601 -0.05327307 0.37291503 -0.04585018
3028 0.10043471 -0.22839236 -0.639487 0.007943556 0.07067924 0.065103784 0.025178382 -0.016104113 0.048421096 0.20299123 -0.022424322 -0.29932868 0.6336106 -0.5203731 0.14167209 0.22676007 -0.33168814 0.263409 0.099766426 0.18578634 0.13232186 -0.0898596 -0.5631452 -0.37687343 -0.50504625 -0.028590778 0.14407606 -0.760855 0.68498766 -0.32467332 -0.1383034 0.12754396 0.4629886 0.49118996 0.32520878 -0.0004379779 -0.7214083 -0.34126627 0.3290094 -0.068653524 -0.27084044 -0.11279171 -0.23001924 0.32386464 -0.22243726 0.27618176 -0.07958127 0.34425756 0.33543792 0.10908053 -0.16041398 -0.30207905 0.18143576 -0.28174102 0.070626296 -0.4723702 -0.30970097 0.23039345 0.24289007 0.44397092 0.68894476 -0.2848991 0.7628587 -0.60645014 -0.17970306 0.5086948 -0.30539033 0.15539993 0.62620896 -0.24090466 0.36220837 0.65270144 -0.06557586 -0.4732087 0.3898662 -0.07312107 -0.03649692 0.7756585 0.28531927 0.028760517 -0.73005277 -0.47548804 -0.43753326 0.36856672 -0.065147065 -0.053624563 -0.16165878 -0.48622823 -0.55366045 0.20758322 0.46179724 -0.26442128 0.38888824 -0.014430416 -0.006075986 0.82466716 0.3425547 -0.134972 -0.16684037 0.32061464 -0.5735361 0.10981089 -0.28473362 -0.38841435 -0.40021825 0.5935682 0.9706012 0.4047463 -0.4373705 -0.25214598 -0.46328914 -0.120006666 -0.24045043 0.17116843 0.544219 -0.18127413 -0.057716455 0.58801615 -0.15859285 0.40917984 0.35578167 0.0030733428 0.46075237 -0.23502575 0.32198912 0.17888047 0.3117217 -0.08168669
9570 0.1989297 0.02826147 0.052048404 0.105931856 -0.6151197 -0.74330616 0.0184517 -0.22590972 0.11313571 -0.15139808 0.43897188 -0.42028025 -0.043921724 0.07313993 0.3458939 -0.16234438 -0.42946705 0.25567335 0.6568912 -0.0229207 0.05134785 -0.33843046 -0.32428724 -0.3510926 -0.16954786 1.0387362 0.020175017 -0.83030236 -0.37392962 0.52151024 0.1256578 0.654494 -0.24933317 -0.40354657 0.23652044 0.3824554 0.44257015 0.3188144 0.4819776 0.10862306 -0.084469646 0.7216043 0.1259627 0.0015226502 -0.5098841 0.7998107 -0.5789855 0.516865 0.51028115 0.15555514 -0.6153199 -0.10367702 0.30839428 -0.045455936 0.08240876 -0.4594407 -0.2453223 -0.4565883 0.5999035 0.6029914 -0.4551352 -0.24548195 0.040354323 0.3181852 -0.740506 0.54118955 -0.44548973 -0.119099736 -0.19810958 0.058497317 -0.1486895 0.4469684 0.39419425 0.29732093 -0.12750785 -0.48518026 0.56291586 0.0028944765 -0.093523465 -0.43073457 -0.4768298 0.73527664 -0.10988933 0.012154678 0.59851146 0.16016647 0.7029388 -0.025046676 0.59416604 -0.25129128 0.21343392 -0.5137959 -0.087598145 -0.3046311 -0.5996368 -0.15508169 0.037554286 -0.35015592 -0.3907103 -0.35826662 -0.045279544 0.19896919 -0.16747914 -0.7414412 -0.24725342 0.5349653 0.013347502 -0.18655217 0.13772789 0.09287829 -0.476149 -0.02530188 0.047500767 0.20326905 0.40871656 -0.072026834 -0.19537058 0.18355098 -0.41701758 0.13139541 0.05262992 -0.18272944 0.73445576 0.96351254 -0.4913293 -0.32133025 -0.1527602 0.05669441
8251 -0.27594733 0.41947833 1.0851687 -0.34359106 -0.17906354 -1.4170384 0.45353654 0.22191395 0.0027460756 0.640015 -0.19457443 -1.1503178 1.5379268 0.511045 0.2646162 -0.1379173 0.8959215 0.5512645 -0.3160651 0.40566248 -0.26082695 -0.09720819 -0.63454455 -0.80321443 -0.2877406 0.85367346 -0.5326453 0.15249579 -0.11698727 -0.35256612 0.16396394 -0.5214585 0.036866866 -0.5264694 -1.2261447 0.82131344 -0.6852435 0.5851666 -0.24884382 -0.49862006 -0.08688068 0.57682675 -0.40130475 -0.6306784 -1.1699424 0.69931364 0.79025346 0.11251965 0.10463429 0.51540107 -0.30934235 -0.9989272 0.24777675 0.9568222 -0.5639316 -0.36671218 -0.5231472 -1.1518356 -0.068592586 1.266636 -0.66117287 -1.8457673 0.86228395 0.06021301 -0.5248677 0.70343107 -0.15491347 -0.9829052 -0.45341155 0.46022692 0.02792491 -0.5387366 0.23014256 0.41465098 -0.49563146 0.7900264 -0.3599618 0.076124735 -0.5491655 0.84888136 -1.526295 -0.370421 -0.77461034 -0.67387027 1.19201 -0.40007517 -0.030595312 -0.3969828 0.40410727 0.052387916 0.219933 -1.0606385 0.9023076 0.4519574 -1.0700005 0.6941379 1.0404117 0.17094353 -0.61813885 0.15024774 -0.0626384 1.4638402 -0.62721926 -0.15376183 -1.1868149 -0.2191762 0.17502119 0.10938538 0.4518422 0.14085166 -0.7170138 0.359462 -0.05340539 -0.13557218 -0.5779392 -0.78114 -0.7170577 1.4517134 -0.7394055 0.47706378 -0.787811 -1.2492787 -0.26713225 1.1151309 -0.4598197 -0.15685168 -0.1784238 0.18399166
8237 -0.28603873 0.3887033 1.1056851 -0.41341034 -0.17340079 -1.4720049 0.44418952 0.15925916 0.02115432 0.6425283 -0.09973235 -1.218214 1.5480521 0.5053592 0.29558682 -0.1242194 0.9387574 0.56535876 -0.32916185 0.4782037 -0.33512217 -0.17614199 -0.7455141 -0.79380685 -0.351872 0.880662 -0.5177921 0.118776895 -0.14695856 -0.48229727 0.12992537 -0.6652281 0.09152755 -0.5386622 -1.2105075 0.84925777 -0.6654111 0.61218953 -0.22714196 -0.4290901 -0.21771035 0.6439817 -0.437753 -0.64898425 -1.1747497 0.8118801 0.92240316 0.09622276 0.007548978 0.5385353 -0.36102107 -1.0793631 0.18397284 1.0565357 -0.56108207 -0.31510657 -0.5276357 -1.1927341 0.036924265 1.3259485 -0.6824739 -1.9331137 1.0060347 0.039481897 -0.500061 0.7240172 -0.08979876 -0.8956822 -0.6551453 0.5406175 0.051597625 -0.5902592 0.23915178 0.38551205 -0.506861 0.80387634 -0.40112248 0.1117328 -0.61285454 0.81756085 -1.4530232 -0.3320342 -0.8420677 -0.70491475 1.2003403 -0.39879623 -0.0029053404 -0.3762638 0.4437933 0.005237609 0.29461274 -1.1332586 0.9201688 0.5170285 -1.0303406 0.6997854 1.1798592 0.23707263 -0.73881155 0.1743459 -0.1723825 1.539506 -0.75615776 -0.25285104 -1.1873362 -0.18518086 0.11305278 0.08250399 0.4797393 0.13598192 -0.7560207 0.37443548 -0.11116962 -0.110733815 -0.61109966 -0.8759536 -0.74638677 1.5755557 -0.69712 0.5179884 -0.85663897 -1.2508487 -0.2250799 1.109714 -0.461902 -0.14730765 -0.14101566 0.1643899
2390 -0.45126942 -0.21847682 -0.459085 -0.2175922 -0.118295364 0.24958803 0.25251144 0.18881918 0.058536243 0.4094557 0.0058503086 0.10536889 0.43571407 0.035823133 0.46805808 -0.3019689 0.025824135 -0.15112433 -0.012323954 0.20572004 0.1462713 -0.24309428 0.2889366 -0.30105436 -0.17971326 -0.25492826 0.25814036 -0.6384209 0.14750361 0.41767934 0.48765528 0.5871736 0.09997773 0.20655479 -0.3692531 -0.36855397 -0.08605782 0.54093015 0.074405454 -0.01632775 -0.52043885 0.7184613 -0.08440483 -0.40910828 -0.38950717 0.2529464 -0.19631812 -0.17192914 -0.0383785 -0.060159724 -0.15319741 -0.1030907 0.4650158 0.18378407 0.5513186 -0.64152455 -0.38533205 -0.014895747 -0.3746075 0.10553237 -0.124467015 -0.2731962 0.18639281 -0.1683858 0.19665636 0.57718146 0.020397449 -0.02168428 -0.3357008 -0.12221687 0.19143033 -0.03509752 -0.24924865 0.03704912 0.06689206 0.14743072 0.5552919 0.38816893 0.15963003 -0.2020476 -0.22658281 -0.32994503 -0.05738053 0.5423255 0.16286196 0.08944973 0.27403158 0.15196718 -0.47239786 -0.38569134 0.89052826 0.33256948 0.07769038 0.123159274 -0.0548155 0.31017482 -0.079852894 -0.04212475 -0.017854612 -0.22645102 0.12797926 0.7729788 -0.27741194 0.17803574 -0.0937511 0.5213808 -0.025904097 0.40961942 0.12628758 0.056741044 0.11514024 -0.071782544 0.42601034 0.06414625 -0.4120981 -0.19033901 -0.34277838 -0.095304795 -0.24201888 0.1298132 -0.06415864 -0.34068325 -0.39564034 -0.44524944 0.77647716 -0.7070263 0.060277995 -0.058713462
2537 -0.63933825 -0.21477385 0.019785903 0.42425832 -0.42075986 0.102263235 0.5368965 0.47121492 -0.019070001 -0.2423968 -0.23750518 -0.050014306 0.006242039 0.5501372 -0.13348745 0.19275059 -0.55569756 0.25257888 0.072137445 0.26043165 -0.15329379 -0.32712567 -0.18607993 -0.5495572 -0.3255698 0.35158676 -0.11862439 -0.5855362 0.30761296 -0.20682976 0.10596646 0.0947769 0.26361194 0.18192476 0.15251969 0.22242802 -0.10302995 0.8124829 0.10805819 -0.22696172 -0.11773085 -0.31678963 -0.12423858 0.24077916 -0.43537685 0.60336465 -0.061818637 0.3218131 0.1055005 0.027225835 0.10335282 -0.427214 0.50022644 0.71770936 0.113050215 -0.66684574 -0.33994722 0.08378786 0.2590197 0.045809586 -0.29864088 0.055230673 0.19696283 0.35905653 0.3424254 -0.11303759 0.479279 -0.014245763 -0.18017891 -0.1359002 0.4088111 0.22646926 0.2271439 0.49870875 -0.1926136 -0.3967622 0.029246684 0.16334611 -0.014081533 -0.05283253 -0.15763214 -0.1385408 0.2521135 0.20151983 -0.31278676 -0.29344842 0.00052000873 -0.14124613 -0.062120035 -0.8779847 0.6507686 -0.12029047 0.2523339 0.60410833 -0.5266974 -0.36278456 0.30994692 -0.19397539 0.37326342 -0.13536325 0.2481224 0.13432567 0.052787635 -0.5443332 0.34573013 0.2790887 -0.12510654 -0.014962669 -0.32521906 -0.18100156 0.022159463 -0.6241036 0.07769543 -0.12136891 -0.6885353 -0.032464743 -0.37631112 0.047476564 0.25023904 0.31771004 0.4047703 -0.46385208 0.16924599 -0.24648951 0.43188658 -0.4510577 0.038173337 -0.049478672
24755 -0.7706368 0.23833545 0.14714544 -0.031294588 -0.5619875 -0.46781453 -0.06826176 0.89025426 -0.043389127 0.11377774 0.3990534 -0.43046197 0.19112523 -0.56407046 0.09172017 -0.19650692 0.082072884 0.03273411 0.32795516 0.48193094 0.20824108 0.61728746 -0.10312235 0.1009958 -0.9856648 0.76173407 -0.33418027 -0.38424426 0.3375327 0.043876402 -0.08183854 0.13762163 0.12814422 -0.9582514 0.5907189 0.815661 0.7797096 0.15318324 -0.22497629 -0.49029082 -0.014832818 -0.031957638 0.299822 0.28237534 -0.00538765 0.2601957 0.046197955 -0.5573387 0.34905592 0.59201133 0.17192133 -0.09215775 0.59978586 -0.07257506 0.22839369 -0.10285446 -0.4733284 -0.31604466 0.0629127 -0.124180734 -0.25606698 0.3171849 0.44146875 0.06819669 -0.9138243 -0.11889866 0.33852136 -0.28520474 -0.13749883 0.11557759 -0.55469507 -0.16424148 0.28704092 0.052899763 0.4059195 -1.0440266 0.28977576 -0.05684784 -0.4134526 0.08344855 -0.36301988 -0.51113814 0.044626404 -0.056819573 0.19931357 0.027865065 0.334317 -0.4778876 -0.8011783 0.4206443 -0.008473283 0.4649475 -0.3544539 0.17491178 -0.66412973 1.07622 0.14217624 0.15768717 -0.067829385 0.1299285 -0.13213249 0.37345323 -0.23747538 0.39055115 -0.95611846 0.49291295 -0.31685647 -0.55675906 0.14725944 0.2504882 -0.38849768 0.4067539 -0.21142538 -0.1802283 -0.18028292 0.3141912 0.11580717 0.04936446 0.14068641 -0.13327725 -0.24631634 -1.1003097 -0.49128175 0.82702595 0.16117795 -0.43079895 0.12707333 -0.12090733
1888 -0.34476534 0.020629963 -0.12602253 0.49972302 0.19889776 0.295681 0.57493836 0.25012374 -0.08370686 0.33032012 0.04238115 -0.0919468 0.2925135 -0.19705088 0.2068417 -0.07752999 0.34842116 -0.1533762 0.0031197774 0.37077832 -0.2654555 -0.28133854 -0.28807455 -0.15179746 -0.5915342 0.36420977 -0.30128184 -0.6257329 0.15439688 0.055924665 -0.2645831 0.16426024 0.15713039 0.27510124 -0.3303126 0.06356604 -0.34028333 0.24093235 0.05293746 -0.12586981 -0.36668053 0.66291773 -0.106928684 -0.11198362 -0.51339614 0.41644505 0.292771 0.10690991 0.33237943 -0.7090433 -0.20668125 -0.65337855 0.18042806 -0.10334179 0.38104898 -0.60353696 -0.2992955 0.27375096 -0.03955159 0.22717354 -0.30366772 -0.01493953 0.43916366 0.17110875 -0.42694476 0.39101452 0.5414685 -0.23233464 0.034508392 -0.1641283 -0.0059657698 -0.017422903 -0.1307122 0.9925001 0.08647006 -0.12923002 -0.03595357 0.3843283 0.5351847 0.14550397 0.42066792 -0.29850355 0.17921588 0.31815395 -0.111936025 0.4213659 0.33568227 -0.09798306 -0.33006594 -0.23616275 0.034068953 0.5345034 -0.19227709 -0.016571373 -0.07734726 -0.2545028 -0.50327057 -0.24324532 0.19969752 -0.11726922 0.16521524 0.47849703 -0.20497112 -0.34533176 -0.12866287 0.06402089 0.49130455 0.1731866 -0.056755167 -0.4257735 -0.13958403 0.044060256 0.49296984 0.39970103 -0.49211672 0.18944578 0.010862982 0.008625843 -0.17710331 0.29801235 -0.1887879 -0.2679532 0.058150604 -0.08897524 0.25820357 -0.14825198 -0.08820206 -0.0057636155
4013 0.40217972 0.06218343 0.33484733 0.08222975 0.31232217 0.14845015 0.63804245 0.36570916 0.22969644 -0.08174669 -0.0117748985 0.18207729 0.58895344 0.08776031 0.14154778 0.2935484 -0.31117436 0.34935006 0.016065674 -0.020023974 -0.32236785 -0.16678269 0.25637653 0.3601396 -0.35364923 -0.011193717 -0.07816581 -0.6453979 0.044234436 -0.061204117 -0.47829866 0.4157559 0.2410543 -0.015581668 0.058039397 0.48497272 0.055751555 -0.3037264 0.6069317 -0.043167673 0.17291158 0.18863308 0.05713649 0.053222924 -0.54949844 0.33777624 0.26521525 0.250572 0.06668008 0.37527677 0.10712827 -0.3826255 0.23189874 -0.2660048 -0.3352225 -0.575509 -0.26210377 0.18766879 0.47611728 -0.35162804 -0.01685019 0.0032792336 0.21037778 0.0046977084 -0.2579929 -0.1239522 -0.25879708 -0.44320658 0.3571917 0.09404306 -0.752518 0.5255113 -0.20706278 -0.40053514 0.32757753 -0.32003874 0.15737268 0.27640793 0.386166 -0.54179466 -0.17432109 -0.33610135 -0.21082626 0.30012858 0.17478423 0.35207173 -0.3584964 0.20273806 -0.639924 -0.018575905 0.7717127 -0.339879 0.44200033 0.296088 0.0445683 0.33632398 0.018405575 0.1583972 -0.07432354 0.19717975 -0.59868324 0.38734454 -0.20891279 -0.057048652 -0.2913145 0.06879688 0.49566507 0.42838386 -0.025993515 -0.014450455 -0.013434809 -0.2799364 0.4503656 0.083843395 0.043872237 -0.6034218 0.20397983 0.6378726 -0.04610555 0.68100953 0.26200706 -0.2016926 0.20390005 -0.017541459 -0.05327772 0.20925432 0.19394395 -0.635836
27699 0.21026082 -0.36081287 0.108716145 -0.13783772 -0.2704306 0.475061 -0.26232573 0.22092175 0.4788686 0.093217134 -0.18134138 -0.60181934 0.35944688 -0.16782402 0.12953287 0.015543267 -0.731261 -0.032651927 -0.32417303 0.25382012 -0.022533609 -0.2525896 0.048180364 -0.1898908 -0.07947244 0.5310709 -0.38560238 -0.4546992 0.32824588 0.17442697 0.20806615 0.38172677 0.39254624 0.28476655 0.4436926 0.7946014 0.34272003 -0.19439693 0.5018868 0.5887376 0.021257052 0.08393705 -0.1307697 -0.12841691 0.10980739 0.32502893 0.2181216 0.26665452 0.34387866 0.4504818 -0.7003213 -0.4170831 -0.13365963 -0.203999 -0.22367299 -1.254291 -0.27189356 0.43754268 0.16403697 -0.17041615 -0.13791394 -0.12031145 -0.019973129 0.2084715 -0.24571632 0.48076773 -0.17239825 -0.089810565 0.46530297 0.22393514 -0.52023584 0.43841895 -0.45419675 0.13476469 0.80287457 0.25928226 0.07620151 0.14900152 0.16164856 -0.4727686 0.15528789 -0.895329 -0.43760142 0.38639167 -0.033109706 -0.24658579 -0.30027744 -0.15064153 -0.47709817 0.14262041 0.3292415 -0.3742829 0.83819985 0.6573975 0.16734828 -0.1043335 -0.21366858 -0.07205695 -0.3101203 -0.17404315 -0.04070311 0.18817736 -0.40720516 -0.08310658 -0.2000452 0.16704753 -0.11641749 0.8498704 0.25870422 -0.23170476 -0.19405198 0.20713948 0.059184447 0.047293805 0.31705517 -0.18612957 -0.007401887 0.04054793 -0.30134714 0.41366762 -0.116187446 -0.7430229 -0.19676496 -0.12746629 0.16836241 -0.04439268 -0.047544528 0.08962081
78805 -0.801537 0.18932052 0.20739661 -0.09961678 -0.82947695 -0.52049243 0.04002382 1.071641 -0.21425246 0.30426395 0.19068626 -0.32679805 0.15786296 -0.47354177 0.1759271 -0.08407496 0.122000456 -0.17739648 0.61184675 0.62662166 0.097430825 0.70168763 -0.10787284 0.14150983 -1.0133916 0.77959645 -0.3509365 -0.24533449 0.2929041 -0.026498469 -0.005058568 0.02220005 0.075831704 -1.0852097 0.8035719 0.68910754 1.0472437 0.02778039 -0.281486 -0.614801 0.14089265 0.037880786 0.25442946 0.2079019 -0.018496584 0.31195816 0.15643428 -0.70477414 0.525186 0.6438126 0.16067813 -0.1776173 0.5443346 -0.20458102 0.056331478 -0.09208021 -0.5526405 -0.41567558 0.08597723 -0.22045788 -0.30873653 0.30833507 0.5056441 0.16245437 -1.0283233 -0.13428363 0.40567774 -0.2511163 -0.24636431 0.12682888 -0.58243465 -0.1952929 0.32688323 0.06602716 0.4362338 -1.172041 0.42319834 -0.09187607 -0.23059185 0.066646546 -0.3096281 -0.4527704 0.13105199 -0.13833782 0.2073363 0.12787548 0.28806868 -0.36953118 -0.8424957 0.4113622 -0.026359348 0.42251185 -0.48603684 0.2520375 -0.6966096 1.0128618 0.08298311 0.1628596 -0.088122845 0.18234605 -0.022126969 0.4411063 -0.3613507 0.3965487 -1.0588564 0.6024235 -0.11247836 -0.53109837 0.037844494 -0.053858265 -0.5007324 0.35028428 -0.21722221 -0.28167325 -0.29664657 0.40192696 0.10952976 0.028218491 0.08230045 -0.29792 -0.11015161 -0.96452373 -0.5316541 1.0184952 0.17596136 -0.49466535 0.04006864 -0.1009714
124378 -0.39526358 -0.15235375 0.08745057 -0.1083155 -0.43863153 0.07570556 0.38872078 0.2872747 0.27265078 0.9139949 -0.02370701 0.036641307 0.5388565 -0.26262245 0.37837937 0.14716108 0.045181334 -0.36810365 0.024228029 0.23790427 0.18345971 -0.17773347 0.32400197 -0.65387785 -0.32977507 -0.3893941 0.093192935 -0.497782 0.11958101 0.47104284 0.15557693 0.59733796 -0.0029196744 0.6840778 -0.5964439 -0.40274402 0.0636414 0.44555277 -0.3492772 -0.059972357 -0.57029593 0.8654387 0.14512493 -0.761422 -0.50324774 0.29539227 -0.41161236 -0.11778198 -0.10053609 -0.3772082 -0.23664828 -0.53675354 0.8126271 0.2943536 0.25102717 -0.7499068 -0.41190204 0.31043008 -0.44261473 0.32379016 -0.40560225 -0.27647436 0.3323874 0.16954152 -0.24993531 0.5772843 0.07144407 0.032430515 0.044058047 -0.32287878 0.226901 0.22669986 -0.43591365 -0.32537726 0.00823869 0.042296678 0.8538157 0.6075655 0.12676689 0.3919108 -0.40585944 -0.2971132 0.06527711 0.47502255 0.1765807 0.15180881 0.3656525 0.32711303 -0.48115534 -0.45436653 0.99552 0.042052727 -0.09333873 0.5947084 -0.22372892 0.32751855 -0.2703 -0.42307958 0.1958377 -0.28185326 0.24033429 0.43047935 -0.5344321 0.19041835 0.18904589 0.50428927 0.3361776 0.32326064 -0.102862164 -0.043640796 0.17819248 -0.5121128 0.39949784 -0.175942 -0.17332305 -0.22539231 -0.030451722 0.29053608 0.055268 0.07955819 0.3123665 -0.35719293 -0.46915174 -0.6610373 0.9432659 -0.9753478 0.17821567 0.08509241
1047 -0.653118 -0.6448134 0.37056226 -0.087132275 -0.111561425 -0.021982057 0.13070251 0.07747871 0.67498475 -0.53023005 0.19057663 0.5952124 1.06224 -0.39268473 0.38045552 0.17907298 -0.60824054 -0.079803236 1.0273486 -0.81602055 0.037461694 -0.6449546 0.26342675 -0.5886695 -0.36486593 0.330279 -0.27260077 -0.053341486 -0.352293 0.41279176 -0.10122698 -0.03109944 0.49566358 0.38988096 -0.32535633 0.33047935 1.0423657 -0.33026475 0.047843043 0.25590542 0.15926695 0.27761713 0.6330797 -0.2698066 -0.4158125 0.23027724 0.0933271 -0.39459038 0.29063183 -0.14297034 -0.66869605 -0.45090866 0.29734778 -0.44519264 0.37483588 -1.3207453 -0.43308315 -0.36616528 0.42492062 -0.0010609232 -0.07810352 -0.19666573 0.5365856 -0.23520555 0.24429816 -0.13942686 0.4009117 0.07170363 0.39806363 -0.755121 0.32608032 0.39773318 0.34186068 -0.52123517 0.45641777 0.04176031 0.40073082 0.14831549 -0.44911337 -0.02470631 -0.19679515 -0.22754046 -0.25534055 0.28375638 0.6229931 0.015459981 0.92441756 0.0938194 -0.30527824 0.5552271 -0.37161964 0.13196741 0.45008594 0.22787692 -0.7262743 0.46156734 0.15127832 -0.5308961 0.3627032 0.483794 -0.18316315 0.12964809 -0.28301072 -1.4415141 -0.5589273 0.28945345 0.119258516 0.44606486 -0.17408085 -0.19131017 -0.28410068 -0.32962906 -0.23515108 0.09380312 0.6873446 0.88335913 -0.38293368 -0.061177198 -0.7313349 1.4019207 -0.21999787 0.37141442 0.13835809 0.09914336 -0.05594968 -0.33513525 -0.066695906 0.31318957
1553 0.10800454 -0.024314115 -0.5772005 -0.102365196 -0.24781527 0.36935216 0.2157629 -0.093955316 -0.37400272 -0.14183547 -0.37243298 -0.23873755 0.5944299 0.14714101 -0.008546752 -0.0595483 -0.35946092 -0.10629333 -0.050023742 -0.30734676 0.09581736 0.22676997 -0.8769051 -0.16845919 0.26325867 -0.10564747 0.18042879 -0.22756442 0.17214845 -0.1727599 -0.04654708 0.82018024 0.5504298 -0.068150476 -0.12951419 -0.45588574 0.38931644 0.12377633 0.03639078 -0.18641329 -0.2864367 0.8958073 -0.44738287 0.34702614 -0.5640282 0.3166738 -0.28212228 0.5542893 0.27881095 0.3952827 -0.16605766 -0.05698187 -0.5537738 -0.21206208 0.2684434 -1.0116729 -0.22546002 0.036097113 -0.26526013 0.32125366 -0.49759102 0.21305606 -0.3597559 0.11225306 -0.0657249 0.14055888 0.19876093 -0.23694544 0.032750554 -0.18566118 -0.3508028 0.20042284 -0.30380687 -0.06770553 0.109333254 -0.079974756 0.055895552 -0.057717454 -0.21571156 0.23726773 0.21897636 -0.062451053 -0.58256096 0.21686219 0.8420285 0.20144004 -0.37532502 -0.48801437 -0.7754184 0.05603844 0.2626437 -0.2412349 0.8398231 0.60893935 -0.53649735 -0.2167275 -0.5946789 -0.052319083 -0.11202576 0.12101836 0.17721538 0.11144835 -0.20349342 -0.16130725 -0.74051756 0.1969175 0.9164232 -0.13789663 0.013144805 -0.35469323 -0.18434419 0.12915309 -0.09600068 -0.18024942 0.3417008 0.18001853 0.013581692 -0.38106218 -0.07091404 0.99179333 0.23991603 -0.19833663 0.2884296 -0.3694435 0.34601614 0.21461675 -0.029339122 -0.0976257
29180 -0.38217577 -0.20193982 -1.1831276 -0.8314432 -1.0176352 0.7202592 -0.34845936 0.19529493 0.56536454 -0.06743704 0.4803352 -0.48229495 0.7081715 -0.05886431 0.021085743 0.21064016 0.30567288 0.2711609 -0.18651353 -0.07368251 -0.3963474 -1.2497902 -0.042340107 -0.59070116 0.105580434 0.15052569 -0.011051856 0.32689905 0.5408632 -0.5928358 0.38548756 0.36623135 0.65644103 0.11952333 -0.14121266 1.1828642 1.1772242 0.049471524 -0.33703583 0.048635643 0.15609282 0.37339947 0.2002944 -0.6503204 -0.48312613 -0.32120898 -0.083496094 0.21897256 0.130809 -0.4826272 0.5292459 -0.6588747 -0.22571518 -0.14695041 -0.20717111 -0.9435232 -0.179453 0.112744 0.67947596 0.1957987 -0.85898393 0.050144855 0.60549134 -0.31147984 -1.0014281 -0.23333669 0.9977972 -0.4006263 0.13944182 -0.7842058 0.0044850856 0.45068637 -0.30669084 -0.80974305 0.042848233 -0.6956618 -0.031495646 -0.3572308 0.4952355 -0.12926365 -0.63992786 0.26011026 -0.14361018 -0.115557864 -0.3299768 -0.0018873229 0.45638162 -0.19659726 -0.31126666 -0.6303991 0.041320395 -0.72767043 -1.2042533 -0.23025228 -1.1022277 0.8670761 0.6390327 0.5823672 0.2260488 0.3499882 -0.3021797 0.7516206 -0.07787373 -0.3459299 0.1356083 1.0917008 0.43326554 0.5249023 0.08101456 -0.8926373 0.30873728 0.022989878 0.4078882 -0.59003115 0.5155763 -1.0129662 0.13148417 -0.16388792 -0.42947254 0.08857254 -1.0752212 0.3186226 -0.48621765 0.32323235 -0.78193915 0.13083725 -0.20433766 -0.94067436
10177 -0.31487045 -0.50698113 -0.873703 -0.049513735 -0.87047035 -0.68133134 0.03208182 0.6565617 -0.5827 1.0360651 1.6260628 0.077955924 -0.5682177 -0.6603415 0.7684932 -0.3637596 -0.25519103 0.3903647 -0.6428031 0.9546597 -0.7872539 0.38684067 -0.100664176 -0.3144988 0.15347037 1.3726369 -0.7590414 -0.22648904 0.055007536 -1.0906636 0.5956144 -0.569043 0.22930846 0.15439229 -0.6783562 0.9911263 0.34375918 -0.054275375 -0.41398865 -0.01939882 -0.19446987 0.7550069 0.73323363 0.22427328 -0.37795472 0.51764935 -0.27995527 0.05740023 -0.074188575 0.12461262 0.42168522 0.15653202 -0.3907832 -0.541975 -0.05710818 -1.0474038 -0.113251045 -0.31468862 -0.6851849 0.037224934 -0.031798173 -0.45147362 0.1356355 0.23679197 -0.62102926 -0.6147367 0.78902465 0.4042067 0.23886266 -0.04695886 -0.0060167536 -0.38357803 0.36746457 -0.82779825 -0.6536901 -0.6339189 0.2820466 0.45986643 0.21748707 0.8407366 -0.3000905 -0.34160697 0.36263475 0.15301566 -0.3941269 -0.24943186 0.5060338 -0.28840086 -0.24812295 0.18687256 0.80262804 -0.2788966 0.05670375 -1.0552831 0.17134064 1.0113655 0.1526408 0.37039822 0.01847931 0.18422253 -0.20360719 -1.0593144 -0.7303656 -0.26316774 -0.9543348 0.9784305 -0.14600372 0.49206573 0.5640252 -0.2854739 0.083750874 0.36959913 -0.24401772 0.35131073 -0.13341458 -0.08576307 -0.33725724 0.37586865 -0.33112842 0.32402378 -0.4058772 -0.92861325 0.2704911 1.4441409 0.6695271 0.31069732 0.07290186 0.36362797
18130 -0.7248121 -0.40505993 0.05046545 -0.088207684 0.00012162563 -0.20220366 -0.103648506 -0.26894927 0.5745299 -0.7741211 -0.12684062 0.56076 1.1296386 -0.37335932 0.42510754 -0.3020123 -0.40918976 0.226932 0.85072505 -0.39594302 -0.21546984 -0.9763921 0.015943596 -0.18356237 -0.0061018197 0.32285368 -0.29612362 0.08283254 0.018401567 0.55282265 -0.14515615 -0.18426976 0.3202467 0.23609053 -0.31281406 0.22603644 0.8195107 0.0070581413 0.638485 0.34266606 -0.25529513 0.4346404 0.35011825 -0.5219863 -0.18080124 0.2950494 -0.1037566 -0.034920804 0.34391809 0.21279977 -0.30404064 -0.026221735 0.25006127 -0.68032163 0.7689831 -1.0448078 -0.51084906 -0.20071833 0.4383435 -0.06917553 0.14009504 -0.23320256 0.40325618 -0.3653756 0.4323205 -0.16778125 0.3926172 -0.17801665 0.45914263 -0.55062973 0.28021345 0.10117623 0.05275942 -0.1524514 0.46356073 -0.18553004 0.23206367 -0.063197404 -0.07885453 -0.4549757 -0.26614696 -0.21870892 -0.31908047 0.39549345 0.35141435 -0.09343383 0.92001134 -0.18530792 -0.25188184 0.46072313 -0.76238346 0.10211635 0.5293263 0.12325041 -0.31495982 0.6032072 0.1418926 0.070582174 0.3864999 0.52418184 -0.13349603 0.5638439 0.013382398 -0.8764349 -0.79966253 0.63377374 -0.17858309 0.09815665 0.021697938 -0.037322655 -0.045446437 -0.043291554 0.3177266 0.3541061 0.12795924 0.8388748 -0.43338266 -0.1641504 -0.4675138 1.23829 0.019273492 0.00833993 0.26873797 0.19523858 0.061989114 -0.39586377 -0.05487339 0.14165223
3465 -0.6548542 0.54607606 -0.050762784 -0.3857998 -0.7687897 0.7410423 -0.5043307 0.12946205 -0.2640188 0.5063574 0.7040493 -0.8219435 0.45629132 -0.016963921 -0.7048689 -0.067335635 -0.12433209 -0.5768645 0.7265842 -0.051053163 -0.13130201 -0.32086146 -0.41394684 0.0076951883 -0.5152336 0.64917934 -0.39286077 -0.95216876 0.91156673 -0.3837411 -1.0127591 -0.06078903 1.175343 -0.15603316 0.08204744 1.3623208 0.37630314 0.3281148 -0.06093643 0.3307486 0.85291433 0.5087033 0.46472642 0.20304585 -1.015273 0.3640594 0.40890536 0.19071853 0.72158504 0.21323049 -0.2836235 -0.17430691 -0.059466783 -0.39509895 -0.59808964 -0.49455303 -0.5094228 -1.0747404 -0.1723157 0.94453573 -0.09671026 0.2542574 0.08081855 0.16389827 -0.64597946 0.619041 -0.21383926 0.093719155 0.47869068 0.2600758 -0.0041957777 -0.2519743 0.017755099 -0.66189003 -1.0190504 -0.7178102 0.369622 0.009790213 0.14838724 -0.39370784 0.42364705 -0.11755036 -0.3087122 0.9806729 0.15159228 0.26400626 1.3232596 -0.97653604 0.7859966 -1.0161797 0.1603673 0.47667038 0.13135302 -0.27175513 0.020619364 1.1651174 0.12006476 -1.3396596 -0.44267872 0.8823879 -1.3981729 0.6535092 -1.0778224 0.90800613 -0.22908741 -0.36779067 -0.15867767 0.15619564 0.102200046 -0.88343143 0.045355666 0.111439645 -0.9770749 -0.7373922 -1.7868736 0.08781663 -1.1748573 0.7879451 -0.95421934 0.6295657 -0.63132745 0.3793466 0.44150305 -0.7704343 0.42697257 -0.9090614 0.56058645 1.3645846
6644 -0.51104224 0.26057878 -0.57585186 -0.4128884 -0.03134864 0.27686545 0.23192914 -0.2382055 -0.15735048 0.39469755 0.27747694 0.22101784 0.65810966 -0.0769576 0.46355763 0.28889027 -0.80671024 0.66251814 -0.4900075 -0.6528527 0.053477474 -0.5450629 -0.5504723 -0.2901843 -0.68426037 0.2502878 -0.37685862 -0.2882475 0.32184356 0.028474232 -0.5148349 -0.06500039 0.44579452 -0.3080427 -0.011171131 0.7249487 0.42919627 0.35959345 -0.1365422 -0.4685044 0.3410549 -0.2759172 0.0010232902 -0.44211876 -0.20982134 1.0062494 0.30663517 0.37467107 -0.22763248 0.48312542 -0.34242183 0.57969964 0.46589744 0.07201556 0.45496243 -0.84419537 -0.23835416 -0.9803671 0.12603593 -0.28738233 -0.85282147 -0.045940083 0.36792168 0.5130209 0.18962328 -0.68862015 0.48152387 -0.10698235 0.26317823 -0.33389056 0.2239438 -0.3203321 0.18891674 -0.42134476 0.09014636 0.21684453 0.03298183 0.026742002 0.09500547 0.5636496 -0.38555345 0.17087975 0.72362065 0.8384965 0.2454227 0.25121066 -0.3899952 -0.08329121 -0.8384862 -0.70312905 -0.17293988 -0.334837 -0.12563615 -0.026994739 0.35352102 1.0471781 -0.1652482 -0.8501208 -0.27727008 -0.34164393 0.062632374 -0.3555065 0.002396126 -0.63738483 -0.63009834 0.16508177 -0.29314536 -0.40362683 0.1583342 -0.8258048 -1.3283546 -0.028606022 0.09416265 -0.50487655 -0.31797278 -0.42925236 1.1698725 0.13772768 -0.3300333 -0.047275163 -0.38716745 -0.91955024 -0.1431626 0.3760735 -0.3666161 -0.53890383 -0.21888566 0.1618427
4468 -0.26734778 0.55844194 -0.21364227 0.35697952 -0.2599365 -0.344834 0.5024805 0.46693522 -0.43630707 -0.09509892 0.4222917 -0.32220748 0.9676115 -0.16327047 0.19281843 0.4303038 -0.0039642625 1.514768 0.6235175 -0.0049513592 -0.08033089 0.0072025685 0.1428943 -1.1298229 -0.3276571 -0.30688772 0.14253506 -0.7933741 0.4707844 -0.5605111 -0.12341906 0.60531974 0.18791088 0.2485167 -0.3246572 -0.5150763 0.012606562 0.84866923 0.07551551 -0.1285563 0.22775373 0.20274022 -0.031402286 -0.60910845 -0.64228547 -0.07043961 0.041584633 -0.7134211 -0.037728477 0.22704145 -0.61008745 -0.29751307 0.75176865 0.25983065 -0.20728475 -1.3378975 0.33965325 -0.3270984 0.109702796 0.7094376 -0.43238688 -0.49218428 -0.21854602 0.087526284 -0.49101162 0.13944826 0.7930801 0.3824086 -0.13311516 -0.13730645 0.3967874 0.32965147 -0.9403268 -0.013971893 0.28543267 0.013283358 -0.0969876 -0.16161191 0.5269416 -0.17428385 -0.17472953 -0.3735437 0.06082603 -0.51170754 0.17631477 -0.10929433 0.23858984 -0.12537076 0.44560564 0.016918076 -0.0392363 0.47214767 -0.87857604 0.83135664 -0.13460723 0.3559559 -0.5658034 -0.19992599 -0.3184931 -0.55102867 -0.22484289 0.07190929 -0.010296348 -0.47616914 0.27004448 -0.037087817 -0.2570854 0.13087673 0.7128275 -0.6760973 -0.13948604 0.22297928 -0.11135506 0.3608692 -0.31867287 0.33892798 0.33985144 -0.11146401 -0.06012307 0.4331592 0.79457325 0.18705203 0.11182685 0.020490557 -0.10058201 0.19663239 0.06750156 -0.20062023
9136 -0.38319343 0.27137667 0.16063254 0.13997345 0.027045814 0.25476545 0.52840793 0.32643053 -0.17176434 0.42007616 -0.040869337 0.1409824 0.33640087 -0.089915104 0.29706383 0.06207775 0.5578994 -0.16354877 0.11182652 0.39816058 -0.32108995 -0.38856828 -0.12512998 -0.2371136 -0.61606735 0.42174765 -0.32805228 -0.73025763 0.2867599 0.18583895 -0.23561177 0.031495433 0.2876662 0.08168506 -0.3864472 0.050831586 -0.32627118 0.27367 0.1779485 0.07371251 -0.09462693 0.29362002 -0.31480685 0.1255767 -0.5973649 -0.0053103073 0.18654136 -0.019225437 0.42827174 -0.4855192 -0.11784132 -0.34103432 0.24506907 -0.1047808 0.5248204 -0.6066519 -0.37596813 0.45693758 -0.16035612 0.42379382 -0.3614623 -0.0051099784 0.32865068 -0.024740502 -0.21829963 0.17685032 0.2426349 -0.40416 0.008292983 0.034797303 0.16946591 -0.09184913 0.003080959 0.6183078 0.092381425 -0.0034939933 -0.020248508 0.33019838 0.48826808 0.12633868 -0.09150587 -0.32119605 0.28376722 0.36261886 -0.2626883 0.428797 0.4335368 -0.124226205 -0.35073775 -0.57519275 0.016612502 0.65344316 -0.041443635 0.078074455 -0.3930553 -0.42696673 -0.3809313 -0.26833773 -0.032647002 -0.23058598 0.29230914 0.5350789 -0.13898195 -0.44014832 -0.04803763 0.374138 0.24588059 0.41004005 0.023317866 -0.6079617 -0.006530465 0.11318125 0.38150826 0.47713262 -0.4106136 0.20767173 -0.24663751 -0.011836434 -0.18351394 0.024279572 -0.23143579 -0.3214748 0.079256624 -0.029553968 0.070949264 -0.35742733 -0.30742267 0.0032930018
21033 -0.514189 0.44973248 -0.06277726 -0.28269947 -0.7441182 0.40761143 -0.18959917 -0.26782247 -0.23143911 0.3903116 0.23906097 -0.538917 0.255466 -0.115118146 -0.59451514 0.01811089 0.05768213 -0.5583277 0.5217862 0.16531537 0.1961979 -0.3108332 -0.2684646 0.13389419 -0.2101206 0.54812014 -0.60239345 -0.40261468 0.525201 -0.31469786 -0.5805601 -0.13503823 0.80428845 -0.29650483 0.2714771 1.2733834 0.5875273 0.02800215 -0.4538521 0.4126635 0.7091216 0.32578388 0.22903855 0.49693576 -0.98646456 0.17683712 0.45732683 -0.1887659 0.39416423 0.23119 -0.33777505 0.31908724 -0.021278009 -0.29114345 -0.34053457 -0.5211386 -0.47569588 -0.4724853 -0.19328634 0.55953723 -0.25623828 -0.05661508 0.3084037 0.23538482 -0.4354115 0.8190901 0.049882714 -0.09038559 0.21163277 -0.0013678884 0.182663 -0.56171644 0.119822554 -0.6819991 -0.5276861 -0.7268337 0.2962727 -0.26094794 0.31007308 -0.081194095 0.71066946 0.09027566 -0.64646375 0.43675146 0.1979381 0.2702155 1.1194769 -0.7287554 0.7720435 -0.7276444 -0.1248664 0.6792637 0.35414034 -0.18272936 -0.0003915046 0.9838013 -0.03531317 -0.7636991 -0.5993099 0.3252508 -1.1079448 0.6870449 -0.5549227 0.4607289 0.29397902 0.018785805 -0.1439963 -0.05591741 0.34115446 -1.2847607 -0.015766455 0.5297017 -0.60864735 -0.5199237 -1.6445379 -0.024681013 -0.8053376 0.5859125 -0.75998926 0.34213385 -0.47588873 0.12785067 0.7802238 -0.43214548 -0.13184138 -1.0242617 0.6852249 1.0100929
3563 -0.037736595 -0.15397546 0.6101863 0.0018009247 0.1289941 0.11491574 0.27193144 0.05120676 -0.09487854 -0.20462291 0.18906678 0.50053424 0.50093836 -0.3065182 -0.12537958 0.40141597 -0.11258578 0.29625955 -0.08154913 0.16556574 -0.2478875 -0.13093361 0.2494576 0.07769408 -0.41257372 0.09489217 -0.016823858 -0.755964 -0.05854922 0.08742842 -0.33644602 0.31454092 -0.04362124 0.12177534 0.26604438 0.65064096 -0.075209774 -0.30565822 0.0542126 -0.29073083 0.0014763656 0.08361406 -0.1324016 -0.10055792 -0.07834536 0.43571115 0.21557996 0.49914435 0.06883713 0.21999368 -0.20608547 -0.28918135 0.14502664 -0.3323404 -0.18272564 -0.6752694 0.1442182 0.31770617 0.31707618 -0.021637876 0.09640233 -0.20986462 0.29939368 -0.08726436 0.18208577 0.15184897 0.005127182 0.048716195 0.29210025 -0.052904617 -0.570874 0.47045818 0.16255225 -0.36690307 0.4678028 -0.52349997 -0.14982073 0.0483422 0.44880363 -0.41777256 -0.014003177 -0.36571157 -0.25998896 0.41241252 0.12072981 0.29426393 -0.14166307 0.17115156 -0.3918166 -0.09544653 0.6407907 -0.16590466 0.22491914 0.17548738 -0.31159404 0.36694384 0.18505728 0.026097879 -0.1537308 0.03455888 -0.41568547 0.44175872 -0.5653618 0.1475283 -0.3850523 0.39428085 0.41142184 0.36570722 0.15844716 -0.27507243 0.046921253 0.06808871 0.44556883 -0.07650466 0.44743276 -0.49227577 0.07144256 0.5686602 -0.012054574 0.4768442 0.3772837 -0.378501 0.17319852 -0.1938962 0.13135517 0.32690912 0.3350122 -0.55032676
248634 -0.34702253 -0.06450937 0.04612115 -0.024769582 -0.255389 0.2918043 0.16962223 0.09172386 0.18686683 0.692172 0.17041346 -0.021341965 0.7154753 -0.29731593 0.16518256 -0.009733804 -0.044792466 0.3080376 0.66489965 -0.49213094 -0.8571928 0.39205515 0.050295193 -0.513159 -0.2139755 0.57664955 -0.14376906 -0.6672243 0.019283747 -0.0046981415 0.1601716 0.3040028 0.37013426 -0.33080268 -0.42369848 0.1974517 0.2779157 0.23572528 0.022818722 -0.110779494 -0.29431933 0.18960445 -0.5897648 0.05721765 -0.705091 0.823251 0.06972983 0.47904217 -0.029838689 -0.72821516 -0.5783104 -0.038354777 0.312756 -0.1550225 0.20791893 -0.87372816 -0.19467771 0.26498598 0.047662668 -0.32716772 -0.13492605 -0.56409043 0.41829032 0.023917297 -0.41230497 0.43781194 1.100997 0.03822579 0.17156985 -0.26617628 0.11436297 -0.12399317 -0.10874439 0.2701857 -0.32242632 0.62354 -0.18123527 0.5549666 -0.06862026 -0.30802903 -0.14485621 -0.7389049 0.24705572 0.6876992 -0.0100881215 0.36607543 0.40125707 0.53363514 -0.92949617 -0.1784548 0.36874512 0.3807768 0.15956578 0.52490747 -0.19125602 -0.7880978 0.279126 -0.1468047 -0.24115859 -0.18133768 -0.28647307 0.4644692 0.29000416 -0.032080196 0.5044086 0.3904226 0.3299553 0.77081084 0.2648543 -0.16454127 -0.4513235 0.36268547 0.46072212 -0.15011765 -0.57686126 -0.32224208 -0.5143254 0.21747178 0.6575762 0.09060681 -0.18060051 -0.16699006 0.005629533 -0.46231472 0.5211432 -0.4349668 -0.1128175 0.15154575
1632 -0.48086125 -0.33269808 -0.0467121 -0.3103255 -0.33982834 0.2788437 0.22253953 0.08479414 0.22281387 0.62519765 -0.21286042 0.19296779 0.45386234 -0.034284826 0.40311426 -0.08388955 0.21533298 0.024418455 -0.104532465 0.056584004 -0.12582715 -0.09233287 0.07576704 -0.35535857 -0.23165773 -0.15590964 0.08957229 -0.54860646 0.31231102 0.66341144 0.10001933 0.29972392 -0.0077290153 -0.0036470739 -0.51108235 -0.31912547 0.0055631753 0.36189654 -0.22954276 0.021923915 -0.29041857 0.7301049 -0.005576923 -0.65542805 -0.24819723 0.38919252 -0.4673164 -0.33115304 -0.18021518 0.04206204 0.012242403 -0.15694398 0.40918654 0.313984 0.42467785 -0.5864534 -0.36378384 0.22277023 -0.2362779 0.18180484 -0.3668802 -0.2173599 0.05431763 -0.23977411 0.08097168 0.7495773 0.092553 0.00036296938 -0.013942108 -0.0022100385 0.19366774 0.14527003 -0.2896073 0.10587927 0.023130389 0.21945687 0.5545462 0.47471207 0.28428525 -0.41213992 -0.36090568 -0.7290949 -0.08148432 0.29301262 -0.07283352 -0.02778774 0.35301578 0.23789655 -0.41101372 -0.5890162 0.76038295 0.25483555 0.082398385 0.3271495 0.030004289 0.18817715 0.11796411 -0.2632433 0.074467964 -0.3347011 0.21641226 0.4714585 -0.41622066 0.12796973 -0.18788561 0.5286189 0.13962525 0.42285144 -0.12247507 -0.02031881 0.26004174 -0.21069218 0.3135689 -0.02898724 -0.28825644 -0.24224332 -0.33008045 0.029296132 -0.26970783 -0.012511492 0.29147074 -0.6372162 -0.32342687 -0.21261264 0.8125635 -0.7398685 0.0064661065 0.016416408
4792 -0.6113692 0.38278484 0.07506162 0.32454273 -0.7914791 -0.34114337 0.03472832 0.54701287 -0.04759978 0.26648468 0.19158736 -0.13967812 0.11348159 -0.34950402 -0.40095606 -0.03655671 0.2132446 0.08065123 0.19497564 0.094939105 0.41768104 0.12252402 -0.17117517 -0.056807365 -0.30958283 0.2770152 -0.53922415 -0.4083422 0.27644306 0.16803382 0.030984152 -0.22240175 0.17196977 -0.87950826 0.34384897 0.26162338 0.455519 -0.08521274 -0.3642947 0.023261696 -0.05096974 0.20438556 0.29575998 0.11637385 -0.18161544 0.4636877 0.19261783 -0.20345664 0.20833525 0.5573002 -0.16173142 -0.09788041 0.31822458 0.16844983 0.24328119 -0.46941978 0.08338673 -0.61119115 -0.078184776 -0.19768369 -0.12284795 0.32032713 0.3659256 -0.11627598 -0.7998091 -0.04935856 0.27721527 -0.174691 0.019763447 0.045964602 -0.11744827 -0.10924368 0.45154336 -0.04045565 -0.07722863 -1.2576689 0.34363574 0.09227286 -0.51491624 0.11037945 -0.35565245 -0.4068614 0.15914662 -0.0314554 0.10330461 0.045919806 0.11672541 -0.40540466 -0.7834512 0.41210368 -0.045535237 0.04729693 -0.65106434 0.13285106 -0.41115823 0.7644439 0.18869187 -0.034050405 -0.3547135 0.30051163 0.057779647 0.09587889 -0.048074216 0.31926295 -0.6006579 0.33266276 -0.0005713005 -0.28588507 0.2036184 0.7535327 -0.5465074 0.16188514 0.10051995 0.11582167 -0.3487592 0.15870628 0.22500074 0.41104984 0.08302855 0.14182547 -0.19102679 -0.79977345 -0.55423564 0.13359533 -0.0001440888 -0.44622856 0.06581463 -0.48128694
5395 -0.035318557 -0.29057303 -1.0370477 0.059986707 -0.15510419 -0.23529498 0.17275403 0.36380523 0.2127226 -0.33823496 -0.03655421 -0.6985872 0.4948641 -0.06356996 -0.5065546 -0.068874724 -0.38763794 0.11903417 -0.18636698 -0.18399063 0.1795591 0.19351757 -0.802628 -0.5541984 -0.1885164 0.21483172 0.21728809 -0.23621492 -0.28472173 0.058369298 -0.021340184 0.52275676 0.16825879 0.35351396 -0.18195565 -0.3291964 0.08810275 0.38099846 0.33152497 0.23283628 0.109741 0.09806944 -0.44459182 -0.12459371 -0.59019315 0.19452067 0.04041025 0.5457947 0.45398834 -0.046182245 -0.294009 -0.054880638 0.41553077 -0.00067174534 -0.090999566 -0.9315883 -0.20608911 0.1295106 -0.044015564 0.15281701 -0.4142916 0.01165662 -0.17673896 0.13697366 0.02380333 -0.4435368 -0.28681678 -0.36635312 -0.16778547 -1.0782522 -0.33877718 -0.12787454 -0.035514526 -0.34014225 0.5304439 -0.47038785 -0.16363429 0.19532636 -0.05762829 0.20563696 -0.24741659 -0.056750152 -0.6284673 0.20588139 1.1024671 0.19521618 -0.38770738 -0.34681436 -0.38926855 0.17557786 0.5516431 0.30784968 0.76154876 0.04455193 -0.11445005 -0.045472566 -0.57218164 -0.50470287 -0.24748705 0.18658343 -0.5026943 0.5441462 -0.29116926 -0.04096657 -0.060231037 0.25895056 0.6474606 0.11344994 -0.13325429 -0.61859596 -0.22898963 -0.072502755 0.2357516 0.1510746 0.7626781 0.24166135 -0.1183091 -0.553199 -0.31299615 0.57818687 -0.019534854 -0.26007012 -0.14353567 0.10074846 0.38236848 0.2455285 0.54003227 0.35844955
1331 -0.48319837 0.10843033 -0.03739174 0.6775406 -0.23952639 0.41547808 0.44843557 1.0085261 -0.14280252 -0.5998304 -0.60300773 0.20094912 -0.32318023 0.09558435 -0.042149 -0.01680854 -0.5843002 0.021848373 0.43482688 0.076395616 -0.13854136 -0.18836658 -0.44360518 -0.41758463 -0.20149004 0.2737082 0.090037055 -0.4628027 0.49967456 -0.28252575 -0.14636092 0.24286912 0.2562823 0.13402246 0.10286032 0.24247867 0.27862215 0.77901536 -0.046677917 -0.4136203 0.18042034 0.07344182 0.013195173 0.11424791 -0.47906592 0.489398 -0.1340301 0.3569725 0.019074164 0.089961775 0.21778606 -0.63563 0.48991966 0.84121794 -0.20498064 -0.25696716 -0.64839953 -0.057538457 -0.050390255 -0.20093301 -0.34297538 0.050176557 0.53360665 0.43309698 0.050538857 -0.10938175 0.53917956 0.27608705 -0.2915907 -0.47246727 0.6114942 0.4877142 0.15917744 0.19555077 0.15745308 -0.35188648 -0.033249076 -0.16595834 0.22026394 -0.20358025 0.041524462 -0.11511446 0.002050125 0.25388175 -0.32726496 -0.17827982 0.058797248 0.054719698 -0.044854973 -0.73452544 0.36818215 -0.27677852 0.5415399 0.34278706 -0.5035825 -0.16255221 0.40350953 -0.21735732 -0.055962935 0.051997833 0.36908948 0.43836853 0.38471112 -0.625693 -0.14863352 0.46533108 -0.16954999 0.19358334 -0.07397344 -0.35638934 -0.07925729 -0.5964026 0.14722764 0.030743623 -0.9580374 -0.39986727 -0.14065813 -0.29644656 0.3040313 0.1988198 0.45621133 -0.46340135 0.6753757 0.041845594 0.51911 -0.6096534 0.090925895 0.28083736
17532 -0.93911326 -0.18396804 0.29384324 -0.26874366 -0.40656668 -0.14241163 0.89179 0.6016328 0.0035527023 0.27952415 0.4004135 -0.017984862 0.42623287 -0.6963004 -0.15724501 0.27427477 -1.047068 0.34973606 0.5819768 0.07567073 -0.6474952 -0.51076174 -0.12906073 -0.4891001 0.20442067 0.096716985 0.20084482 -0.43841055 0.24129072 -0.43486968 0.48727098 0.02240907 -0.4536444 -1.1337827 -0.3702232 0.0051027653 -0.28584638 0.72479194 0.9005656 0.1137008 -0.40401164 0.7215529 0.07034774 0.12280752 -0.7312175 0.1470363 0.3195043 -0.12022632 0.12767595 0.16502218 -0.32921115 -0.30389434 0.61252373 0.63274056 0.21987988 -0.32334474 0.16880447 0.4139181 0.70002973 0.17149745 -0.8018053 -0.08238184 0.6841862 0.14484176 -0.6931927 -0.83805424 0.941583 0.095662 -0.38925698 -0.3809097 1.0548853 -0.13559374 -0.21190976 0.66343915 0.12939931 -0.3202053 -0.07627953 0.5534331 -0.13454229 -0.17075135 -0.37449807 -0.35443223 0.18859431 0.1556018 -0.25914967 0.20032457 0.28202975 -0.06852865 0.57573026 -0.32571328 0.40981025 -0.5001028 0.8674846 0.59059525 0.38849455 0.04957974 0.07179499 -0.31243268 -0.01500633 0.46742636 0.04303248 0.22044286 -0.54891515 -0.5269278 0.10076275 0.9462783 -0.048488505 0.95061517 -0.1302968 -0.3690411 0.14053732 -0.41248783 0.38144767 0.26834163 -0.6642952 -0.40578455 0.02689224 0.08925541 0.23126921 0.42776525 0.19925997 -0.60100466 -0.42098683 -0.6546946 -0.09438457 -0.50560486 0.7327782 0.28406012
13382 -0.013421081 -0.058052972 0.14060372 1.1046028 0.0029511054 0.07369099 0.6223774 0.6332814 -0.028464943 0.1673274 0.6163704 -0.30067796 0.23012933 -0.5588034 0.19903947 -0.04803361 0.23586215 0.69945186 -0.056921914 -0.18012574 -0.17015526 -0.25110927 -0.5134526 -0.5455155 -0.74341077 0.7127856 -0.018913612 -0.3744222 -0.18273203 0.44820902 -0.65168244 0.39108855 0.69256955 0.11491612 -0.3212034 -0.43328145 -0.49242762 0.19837655 -0.055995055 -0.3215509 -0.29475632 0.6055755 -0.2932335 -0.6031167 -0.78230506 0.31358305 0.19354163 0.17056546 0.12543006 -0.48650193 -0.18980823 -0.7466157 0.18863483 -0.1305767 0.46516123 -0.9499057 -0.3302661 0.52977026 0.19449778 0.088354774 0.2334571 0.22693008 0.8745368 1.1185653 -0.7797181 0.4621885 0.75114334 0.529217 0.07013899 -0.23370147 0.27612472 0.087879375 -0.007533574 0.98236173 0.5491389 0.28429443 -0.03891311 0.22742234 0.19340609 -0.078147255 0.10460575 -0.30966777 0.07718484 0.45965704 -0.37168843 0.21860616 0.33419028 -0.54273176 -0.0839543 -0.33477542 -0.22789465 0.3333538 -0.07029636 -0.5616007 -0.94252163 -0.26369092 -0.58721894 0.10146628 0.11834094 -0.041615464 -0.053298824 0.70155084 -0.49471062 -0.44931838 -0.058266915 -0.6285411 0.2605447 0.6351683 0.28500888 -0.89248943 -0.20730846 -0.056966737 0.21082033 0.2598951 -0.23971717 -0.058070313 -0.44409233 0.06538434 -0.51279163 0.3456821 -0.15120257 -0.40059054 -0.139894 -0.13889898 0.36971036 0.41996884 0.734079 -0.061086286
15360 0.12781955 -0.17066441 0.5843197 -0.11046071 0.28539088 -0.051133726 0.48505592 0.030073866 -0.02072363 -0.1350705 0.113417916 0.32081476 0.57062954 0.012840939 0.27511674 0.064676955 -0.24143848 0.16693178 -0.00511246 0.20714195 -0.20849574 -0.32765925 -0.3350828 0.26409096 -0.3343993 -0.20543899 -0.015055845 -0.4401561 -0.13985567 0.12990654 -0.48545557 0.048239455 0.24372877 0.07011755 0.33154353 0.531654 0.038543973 -0.29679123 0.33662418 -0.21955486 -0.034791537 0.18481565 0.12740926 0.33698806 -0.3788778 0.19238 0.21738812 0.63735414 0.11948888 0.23565781 -0.08226967 0.005361869 0.2654021 -0.1608636 -0.24940372 -0.97021306 0.17690988 0.26928207 0.60849005 -0.52173084 -0.23447965 -0.15376794 0.04210576 0.018415693 -0.121440046 -0.05355114 -0.14150678 -0.15141477 0.57336843 0.084601685 -0.716029 0.66706944 -0.021319889 -0.09627878 0.4306673 -0.25066274 -0.028097542 0.12348909 0.5389839 -0.5150592 0.110531665 -0.47300932 -0.35954618 0.5291411 0.10206843 0.41341537 -0.22460061 0.057579473 -0.5442285 -0.20851247 0.56493163 0.048028287 0.6170867 0.59568685 -0.2089694 0.49527654 0.24961528 0.19783531 -0.47928745 0.056508582 -0.5238559 0.38474062 -0.5018606 -0.041012157 -0.4731848 0.05396525 0.4289218 0.6657414 0.08478399 -0.13559096 0.2007602 -0.003943196 0.42544186 0.076679155 0.10701573 -0.27623588 -0.09744849 0.6124596 -0.19579163 0.52088106 0.37487912 -0.57667714 0.4305241 -0.31901908 0.08750977 0.33777446 0.30090922 -0.7707835
5291 -0.8424845 -0.27263603 -0.082705185 -0.43882427 -0.22497995 -0.061210416 0.95138115 0.5489163 0.02221979 0.21687184 0.21532367 0.16979203 0.4331132 -0.58580655 -0.55209035 0.33304226 -0.84656084 0.037813094 0.49652454 -0.01005945 -0.48207837 -0.09494654 0.19361104 -0.46516103 -0.05502329 0.33758783 0.19254617 -0.5086736 0.035874788 -0.2772623 0.5208861 0.037385806 -0.3441999 -0.6359882 -0.012236234 -0.0061849565 0.16480651 0.22762816 0.67226774 -0.09636993 -0.23686168 0.8473211 -0.026585178 -0.05364575 -0.6193836 0.20812505 0.30117437 0.39149204 0.18790632 0.057526916 -0.26854163 -0.6428029 0.20829105 0.7167044 0.48440722 -0.42735323 -0.08175984 0.18424195 0.36938718 0.24557123 -0.58285326 -0.35424337 0.38713533 0.13886139 -0.4476761 -0.56333655 0.35942608 -0.12891968 -0.5998776 -0.2467343 0.8431622 -0.06599728 -0.038855053 0.426399 -0.33712685 -0.5370307 0.054680984 0.34361407 -0.27349994 0.18082225 -0.098097965 -0.43549392 0.49848703 0.33933985 -0.15198128 -0.0150683345 0.14867097 0.04928647 0.12455376 0.008349807 0.58723944 -0.39372712 0.7532179 0.15266913 0.044918824 0.009831647 -0.1403002 -0.03596917 0.24689807 -0.008953873 0.29340044 -0.07034582 -0.6632926 -0.5316573 0.2922257 0.7505605 0.10120204 0.86979717 -0.23003003 -0.2560529 0.35202628 -0.06730913 0.12419809 0.45591038 -0.719962 -0.24161418 0.18764049 0.2849448 0.6151402 0.021124 -6.343575e-05 -0.94444627 -0.06139922 -0.36800736 -0.10754074 -0.33939388 0.49057555 0.08742848
18957 -0.5898801 -0.13689323 -0.17350161 -0.2728134 -0.31310257 0.33829543 0.18644057 0.2717945 0.26661903 0.5945568 -0.10458412 0.19557437 0.43839723 -0.015381765 0.50656676 -0.062140916 0.22668466 0.10686633 -0.14979002 0.2975547 -0.17334114 -0.026598116 0.115637675 -0.41094235 -0.42651233 -0.13971612 0.16147459 -0.5516631 0.010713031 0.580279 0.10772556 0.44968814 0.14396381 0.04152732 -0.42824116 -0.2307409 0.23166777 0.59129214 -0.24913792 -0.057844646 -0.5444261 0.6889634 -0.09107136 -0.70098734 -0.14540528 0.1618075 -0.6408446 -0.22571793 -0.12508178 0.029910173 -0.10473832 -0.16457225 0.5945576 0.37083218 0.3231773 -0.4711594 -0.37597385 -0.021578422 -0.23870689 0.31148505 -0.26991573 -0.35981724 -0.04037015 -0.28607994 0.07009076 0.6317467 0.11080449 0.14860614 0.031267017 -0.025187377 0.19334683 0.25282812 -0.31948733 0.1847556 0.101736955 0.1342745 0.7294648 0.45058542 0.36800447 -0.28423184 -0.2765596 -0.7277881 -0.07542696 0.43873927 -0.15236832 0.21393807 0.27475238 0.15532166 -0.23740825 -0.48857516 0.6310314 0.18411086 0.036742385 0.19730175 0.054409586 0.10711108 -0.073553674 -0.13364266 0.093403585 -0.22622105 0.1471889 0.7179873 -0.60840106 0.25741526 -0.07728246 0.45926416 0.17951304 0.47109383 -0.10120756 -0.032785997 0.27821147 -0.37738156 0.5105305 -0.01520895 -0.28253207 -0.03377424 -0.28969917 0.026574023 -0.17997673 -0.05569957 0.0055639884 -0.7413571 -0.13414977 -0.29823348 0.71683055 -0.85734826 -0.03962588 -0.02075571
6841 -0.9896772 -0.6788455 0.023003932 0.5817421 -0.18571217 0.24166799 0.3044977 0.04980355 -0.9312137 1.392283 -0.37686077 0.20304543 1.1381916 -0.89236754 0.3650448 -0.037554786 0.93267715 0.38626564 0.6715842 -0.49636522 0.54384285 0.1972634 -1.0340619 -1.2409959 0.10574553 -0.2077065 -0.32229513 -0.120435424 0.8438813 0.44607168 0.84577465 -1.1608473 0.54692006 -0.24779841 0.6799284 1.3236591 0.06187297 1.1497835 0.43716812 0.8042424 -0.34916696 1.1436117 0.6515825 0.043245863 0.79905903 1.1729618 0.67961115 1.19678 0.066856764 0.104623705 0.19545446 -0.02954562 -0.37948096 -0.5465861 0.023557927 -2.2264488 0.044923697 0.11453719 1.4028876 1.3301617 -0.18876992 0.62359965 0.878383 0.39027992 -0.123630635 0.5316319 -0.543841 -0.1843698 -0.4075383 -0.6040526 -0.28483206 0.048569832 -0.3830266 -0.004396046 0.5210064 -1.1536806 1.641376 0.8311807 0.43677714 0.06741637 -0.52627444 -0.86119103 -0.741827 0.0009725509 -0.13738313 -0.20334448 -0.40014887 0.058986165 -0.2976063 0.50263846 -0.120652236 -0.9915233 0.30881095 -1.1217022 -0.033447642 1.1386964 -0.048189826 0.5881117 -0.2702419 0.03188265 -1.2694592 0.5319383 -0.74186534 -0.10894126 -0.73561615 0.17764854 0.5655279 0.3947732 -1.03924 -0.9521615 0.21982406 0.44341788 0.22996797 -0.48520544 -1.3501178 -1.3851486 1.6925539 0.35850382 0.01589664 0.28411674 -0.39244488 -0.44932777 -1.0330355 0.25002182 0.101417705 -1.0215291 -1.032551 0.6775914
6151 -0.77353835 -0.05414968 -0.28793037 -0.037516594 0.10653448 -0.3101119 0.0423891 1.0357671 -0.08861134 0.03971773 0.05041635 0.34178266 -0.07748633 0.18678509 0.51758367 -0.18064082 0.25230116 -0.27998146 -0.26850346 -0.22067575 -0.091321096 -0.48365122 -0.22280239 -1.0873111 0.1617795 0.349207 -0.13748275 -0.1028258 -0.02955826 -0.16846631 -0.71129256 -0.49971116 0.1307656 -0.0059864116 0.13592261 -0.055640854 0.20401824 0.014135252 -0.10575513 0.107380584 -0.036900867 0.2551901 0.06646793 -0.016536012 0.0046726465 0.7288668 -0.19543427 -0.3453912 0.6791825 -0.40622282 -0.12270521 0.25125983 -0.15370597 -0.5604006 -0.39796427 -0.6598393 -0.19210641 -0.7135304 0.043715734 0.20445421 0.028615972 -0.3653487 0.11044163 0.33332977 -0.2896874 0.22512566 0.4983363 -0.30093592 0.6820216 -0.09959411 -0.092799716 0.06397299 0.06491851 -0.19155507 -0.030874917 -0.31826857 -0.5148824 0.19598025 -0.2616036 0.34890258 -0.6470717 0.36245522 -0.2315246 0.06127999 0.1247876 -0.28795627 0.08816948 -0.65693486 -0.28812712 0.21445037 0.37241408 -0.33614418 -0.14655694 -0.4994967 0.3004965 -0.1861043 0.051249903 0.86910206 -0.39544946 0.1188082 -0.99474514 0.11348944 -0.540709 -0.24860124 -0.69490916 0.74511606 -0.42334798 0.33901328 0.5074229 0.123230875 -0.033392034 -0.008614518 -0.33063355 -0.683308 -0.12702271 -0.4642769 0.044014193 0.23314303 0.27927053 0.4363232 0.27922127 -0.2778944 -0.5230485 0.5989627 -0.6087811 -0.17682533 0.07280561 -0.087550126
1016 -0.5474945 -0.30900255 0.18648283 -0.17046228 -0.09567242 0.18719567 0.057075612 0.040694296 0.16301297 0.0912535 -0.3280915 -0.4503184 0.027929911 0.06538241 0.6493457 0.18085164 -0.2444038 0.3456451 0.25429448 -0.12774782 0.24111025 0.029554171 -0.44782645 -0.012827262 -0.3987272 0.24499078 -0.22640754 -0.96015817 0.38548192 0.0310734 -0.7653911 0.1658563 -0.087542765 -0.32460946 0.24017324 -0.36183724 -0.058399104 0.34054255 0.5764189 0.029542161 -0.9255335 0.37696484 0.42883253 -0.104269125 -0.24984688 0.5737156 -0.21917352 -0.1698975 -0.53077537 -0.6966327 -0.78508806 -0.461288 -0.16475287 0.320541 0.30838332 -0.72551495 -0.22778118 0.0978745 -0.37251174 0.06646881 -0.22080223 0.10061503 0.5391592 0.38923976 0.06829851 -0.5243923 -0.15028094 -0.5714941 -0.11614104 -0.02788667 -0.014487873 0.51697755 0.029265154 -0.44389084 0.17870724 0.23477934 0.21718745 -0.18853301 -0.28478897 -0.314705 -0.4728561 0.1677716 0.02130892 -0.42106706 0.40446097 0.70193815 -0.24316548 -0.43175825 0.106533974 0.14057803 0.37742192 0.25644708 0.37740734 0.4153537 -0.29985365 -0.20645882 -0.0340467 0.07376674 0.24885905 0.114007555 0.08486209 0.41707018 -0.10122541 0.072583914 0.07180556 -0.037447434 -0.13842858 0.57844543 0.24389082 -0.16504614 -0.038178 0.27507097 0.16879404 0.51949066 0.49160013 -0.24332742 -0.13065192 0.19562572 0.7109701 0.4765921 0.033589322 -0.83607763 0.5872832 -0.04196029 0.2846048 0.01386509 0.25839156 0.14345992
11255 -0.9682758 -0.7405594 0.041562125 0.52158886 -0.13405208 0.19365498 0.3203978 0.057726536 -1.0245215 1.3859581 -0.5303212 0.12591428 1.1963283 -0.8178217 0.35048848 -0.17704467 0.9251885 0.46091953 0.6567197 -0.55722445 0.48094594 0.12218591 -1.0232543 -1.278529 0.06570104 -0.19838154 -0.3993034 -0.10165778 0.8821808 0.45025307 0.924909 -1.2482885 0.5571086 -0.22765833 0.6506028 1.3145733 0.0777015 1.1590947 0.40235007 0.8101638 -0.33346918 1.1962405 0.7153975 0.09093015 0.7772082 1.2294612 0.684501 1.2165537 0.022458935 0.060634658 0.18063857 -0.05959901 -0.36043242 -0.5199138 0.041686166 -2.2925324 -0.03126127 0.02411459 1.5146562 1.3644158 -0.2711327 0.6824329 0.9199105 0.34215495 -0.11606304 0.60454977 -0.44433677 -0.19112237 -0.4078656 -0.7055389 -0.3660077 0.0769309 -0.2579436 -0.013924797 0.5223691 -1.2671903 1.6823603 0.8749032 0.37577477 0.11846099 -0.45307872 -0.84622115 -0.76934785 0.01033978 -0.15521258 -0.23554154 -0.3292755 0.012681479 -0.31317988 0.41280103 -0.049793575 -1.0156307 0.3444589 -1.0762624 0.02702651 1.1289395 -0.041636955 0.6906741 -0.29768443 -0.019623008 -1.2744876 0.50088865 -0.67599404 -0.063698724 -0.80155855 0.21733047 0.64113605 0.32020155 -1.0648042 -0.98979807 0.19370708 0.41105673 0.33876657 -0.59176487 -1.3315332 -1.4636054 1.7516437 0.36840314 0.07345536 0.34135374 -0.44889826 -0.4550802 -1.0751007 0.23555163 0.07072739 -1.1269683 -1.086711 0.7060807
25296 -0.056948192 -0.22792666 0.22447798 0.36644557 0.18769504 0.3156497 0.2932452 -0.49425304 0.15382092 0.15575805 0.2567871 -0.4579342 0.74851644 -0.46502012 -0.15004335 0.22611028 -0.17448427 0.53450114 -0.24581552 0.037918657 0.003841728 -0.3407941 0.2628637 -0.32885084 -0.16584593 -0.1937618 -0.27556792 -0.9363214 0.4295088 -0.3120475 -0.09855815 -0.07037455 0.3562622 0.5169008 0.46345028 0.36704364 -0.58442813 -0.13015182 0.23371279 0.09534218 0.038508072 -0.10577445 0.09904479 -0.08995612 -0.10089974 0.6152247 0.25117832 0.23896888 0.3798542 -0.056616407 -0.061854262 -0.29959124 -0.015633125 0.20891711 -0.36476567 -0.32288477 -0.18163228 -0.04857218 0.31385547 0.08978174 0.4885007 -0.37428936 1.3755275 -0.32118148 -0.45697397 0.29360986 -0.31240827 -0.013955195 0.3690086 -0.14074439 0.0937079 0.6200622 0.23985046 -0.79321426 0.3368119 -0.33412528 -0.47437435 0.32078832 0.29384685 -1.0572219 -0.24175128 -0.039880536 -0.28613588 0.372574 0.1428274 0.3438188 0.44626573 -0.08589747 -0.37117893 -0.15146743 0.7179321 0.10852726 0.29014236 0.22497363 -0.14365697 1.0680676 0.45606261 -0.18255207 -0.583702 0.2790489 -0.23299897 0.6829547 -0.27089065 0.005910919 -0.5608318 1.0868818 0.52007383 0.37851343 0.3343389 0.10194449 -0.2450623 -0.15977569 0.14758158 -0.11743567 0.2804319 -0.7681772 -0.09316936 0.5504092 0.3016971 1.2034692 0.17412333 -0.07101068 0.335923 -0.11643019 0.34387487 0.44825992 0.5064215 -0.37912473
22563 -0.76338637 -0.23385456 0.0009054237 0.073590405 -0.16284303 -0.3707552 -0.48763725 -0.042498525 0.23581405 0.6924249 0.36475223 -0.10240708 -0.17461118 -0.3966206 0.46838108 -0.35912842 -0.13172846 -0.22471124 -0.7708208 0.71501577 -0.5459766 0.2119846 -0.21666288 -0.6711826 0.27711213 -0.15668651 -1.2521765 0.4019033 -0.016855607 -0.98001343 -0.14926296 0.016051263 0.59759057 0.2820793 -1.0566283 0.926886 0.14461105 0.26484567 0.1901415 -0.77154213 0.40092987 0.65249884 0.17343262 -0.1202529 -0.2338012 0.05978196 -0.43000016 0.2655989 0.33735394 0.24262668 0.025163604 -0.3159914 -0.031235537 -0.29545128 0.52967805 -0.92882216 -1.118226 -0.41722068 -0.48640242 -0.0038443967 0.044100363 -0.2650402 0.085212074 0.3880202 -0.34252098 0.283275 0.08394469 -1.0127642 -0.1364398 0.25166184 0.4730708 0.29710272 0.30547348 -0.28039765 -0.411435 0.38540205 0.6488709 0.013431419 -0.42558533 0.5347992 -0.35097313 -0.00017949272 -0.54201376 0.031717826 -0.040424228 0.5650065 0.23890442 0.16485168 0.32788536 -0.1813832 0.25293523 0.25894803 -0.06200074 -0.9336032 -0.15800673 0.119143724 -0.37892443 -0.06942218 0.005778756 0.115373135 -0.93178415 0.03421452 -0.21167286 0.12369006 -0.6125541 0.17968953 -0.048304334 -0.41873246 -0.64581513 -0.5030628 -0.4998391 0.65719515 -0.19866498 -0.35075498 -0.76838446 -0.3511217 0.11376368 0.7447694 -0.027634671 0.44980636 0.6985038 -0.11775953 -0.5663829 0.23076741 0.1814123 -0.12999958 -0.31690168 -0.17359264
14277 -0.4628865 0.062057428 0.38440853 0.0031054812 -0.38909492 0.118739136 -0.16539402 0.5599479 0.42828894 -0.19044474 0.89841306 -0.43547583 0.1628733 -0.44646472 0.4058934 -0.08985682 0.15127425 -0.0026631246 0.53566706 0.5422045 0.03732783 0.36992517 -0.39768374 -0.0025083462 -0.37741795 0.5583903 0.0144884605 -0.52862424 0.5884933 0.49363258 0.50512344 -0.15561312 0.36609238 -0.32171908 0.1870694 0.26542932 0.1701395 0.38257548 -0.41744152 -0.24046856 -0.06424429 -0.1543293 0.30487257 -0.12381958 -0.44885775 0.2580587 0.13924456 0.0993716 0.48487943 0.7445484 -0.41858634 -0.29195234 0.14424403 -0.058756333 0.3079105 -0.21016587 -0.1687162 -0.15497728 -0.48894745 -0.27332768 -0.09767754 0.6941953 0.67052764 0.42605102 -0.35810083 -0.1814653 0.10228142 -0.31760615 -0.033798132 -0.1641935 -0.49503976 -0.2090103 0.5228097 -0.01465055 0.30895957 -1.0850352 0.15276726 -0.0050476184 -0.5894448 0.39564538 0.087239206 -0.08996687 0.17442134 -0.2287508 -0.50301176 -0.5000763 -0.15391831 -0.4042586 -0.853869 0.40067306 -0.08204165 0.36322033 -0.4237923 0.16292027 -0.19346032 0.5745636 -0.1143919 0.12921026 -0.4645081 0.40234113 0.2012948 -0.089422956 0.1468613 0.3039837 -0.7466399 0.4687327 0.19146523 -0.43573216 0.061142504 0.28490603 -0.34680614 0.20047335 -0.37359458 -0.06356459 -0.20448256 -0.5971274 0.1061255 0.35381588 0.1889248 0.35240018 -0.16399868 -0.42806417 -0.30051473 0.5562397 0.008896751 -0.21943058 -0.37603164 -0.21228476
2911 -0.4203052 0.025741294 0.041323993 -0.16214594 -0.10677058 0.2558227 0.00900926 0.1501696 -0.03616282 0.39252943 -0.05452818 0.18630444 0.1132318 -0.29749632 0.3071934 0.020574922 0.045630664 0.19487298 0.27189443 0.07452349 -0.33021423 0.31062275 -0.2588862 -0.53052574 0.1077157 0.34240216 -0.013940186 -0.5226433 -0.0015286595 0.3305323 0.36123323 0.35104513 0.14867084 -0.29182696 -0.2290746 -0.32404312 0.090258144 0.010922454 0.1465586 0.05784648 -0.26397178 0.37070918 0.14408284 -0.4680508 -0.70153844 0.29414132 -0.054650854 -0.016219417 -0.3209621 -0.34064284 0.120999075 -0.21952677 0.53730154 0.3098012 0.46533585 -0.2934826 0.0029950251 0.22852258 0.052100398 0.19530684 -0.26016217 -0.34498224 0.067141265 -0.0069284057 -0.044426095 0.72757906 0.11565814 0.0828882 -0.103396215 -0.1861807 -0.0152087845 0.06339238 0.13470551 0.39733693 -0.159848 0.16057308 0.050839663 -0.21390891 0.05317261 -0.6238216 -0.42648482 -0.5014728 0.02922535 0.17022295 -0.040739436 -0.18210995 0.20521162 0.24295639 -0.57342714 -0.42019913 0.6660307 0.34816536 0.059306186 0.19330813 -0.06316001 -0.67021775 0.48059985 -0.44019026 -0.3572958 -0.17439765 -0.0977493 0.24372879 -0.058904685 -0.17901902 0.12292166 0.50178355 0.028082551 0.22392638 -0.031985953 -0.239832 0.15778941 -0.0018151577 -0.018819228 0.111445814 0.08205365 -0.23409128 0.15976223 0.3170304 -0.25057146 0.32332838 0.22372931 -0.31136 -0.15254045 -0.29333735 0.37693286 -0.74103826 0.1353086 0.22782098
5111 0.19912165 -0.027425967 0.32488257 0.16757143 -0.85123307 -0.36597925 0.15674731 0.18272288 0.16032973 -0.008342658 0.61674404 -0.35192263 0.4399145 0.4495704 0.5568101 0.024948562 -0.24866973 0.33504283 0.6451082 -0.0005731904 0.39392477 -0.7147414 -0.15303303 -0.005494986 0.22502552 0.608717 0.101523146 -0.59593236 -0.6975715 0.45320582 0.17634653 1.0111232 -0.21197072 -0.5159298 -0.61122334 0.24576874 0.6018644 0.850195 0.8600722 0.24622154 0.3035979 0.0835085 0.22084063 0.25480667 -1.4202474 0.5242913 -0.52129984 0.69889015 -0.25304657 0.19088659 0.06926568 0.15109834 0.37778994 -0.3299172 0.5095566 -0.48592153 0.25785396 -0.3645847 0.87449884 -0.009062906 -0.34557936 -0.19193038 0.700191 0.5998275 -0.62954515 0.3242997 -0.12911935 -0.27267766 -0.040492967 -0.10176229 -0.040219944 0.77728164 -0.10444149 0.21691728 0.06434581 -0.58465046 0.45801556 0.56546277 0.32600406 0.07269487 -0.42863682 -0.27296194 0.31645516 0.66607887 0.33001247 -0.36199176 0.34279454 -0.0970442 0.76156545 -0.20631036 -0.25289705 -0.5545527 -0.3459058 0.09213428 -0.8226572 -0.0007536427 -0.20587546 -0.03108496 -0.46041623 -0.5149302 -0.3640641 0.033527043 -0.2977805 -0.89438903 -0.37290376 0.41700527 0.38528392 0.27819338 0.21080741 0.07064634 -0.2603923 -0.6429534 0.2164912 0.0755476 0.5661603 0.49135268 0.08093745 0.035469934 -0.5221927 -0.28253052 0.5245765 -0.11403904 -0.10935431 1.5103674 -0.20484494 -0.45153233 -0.10599878 -0.25853136
2289 -0.4289072 0.03281326 0.48210827 0.53047806 -0.6403091 -0.0063366555 -0.5717543 0.5036239 0.3750183 0.22190532 0.7779357 -0.13985726 0.20750284 -0.4533006 0.04148554 -0.01413346 0.096918054 0.14137886 0.19979003 0.14085092 0.030784387 0.33901045 -0.28603706 -0.2677142 -0.39126042 0.29415017 0.06823996 -0.4457946 0.5172123 0.07891639 0.47381243 -0.34733424 0.71108735 -0.3421129 0.17667681 0.40940985 0.03735667 0.086942494 -0.42975363 -0.360948 -0.29261395 0.0016110109 0.24191307 -0.2477326 -0.5716046 -0.20932406 0.16092585 0.06296619 0.21110187 1.0256912 -0.22051626 -0.1963606 0.28585964 -0.038759064 0.23552427 -0.16888049 -0.014150485 -0.3262423 -0.16966477 0.15201525 -0.074181296 0.8583569 0.16061823 0.45955122 -0.77138674 0.099720664 0.15726438 -0.22016943 -0.2311972 0.011924833 -0.29537442 -0.34629005 0.73653364 0.17212613 0.26126054 -0.87794614 0.2572015 0.08857118 -0.27574933 0.15654448 -0.061336163 -0.15144162 0.25225264 0.106698304 -0.11233775 -0.18264343 -0.07979326 -0.45626238 -0.87052965 0.26482594 -0.04614162 0.26254842 -0.3610908 0.24841367 -0.29040197 0.460267 0.19492736 0.45019302 0.030085849 0.31562868 -0.060909297 -0.10868114 -0.05279069 0.41833127 -0.8074238 0.6535239 0.13955545 -0.34809607 -0.29734993 0.041567262 -0.5176243 0.2417392 0.075926624 -0.3682157 0.3430989 -0.32201964 0.40410826 0.19025317 0.12747444 -0.32134396 0.06172623 -0.426761 -0.66181785 0.42320657 -0.12553671 -0.29549992 -0.122683816 -0.21136014
73879 -0.81807584 -0.12695193 0.2581504 0.6901318 0.56117094 0.14145325 0.5805636 -0.2793824 -0.20156018 0.30752465 0.4950863 -0.37657264 -0.031408776 0.03764961 -0.13503356 -0.43882024 0.24488796 -0.09005226 0.59205484 -0.00017639007 -0.45808858 0.3376307 -0.5807532 0.0048568887 -0.7588267 1.1101975 -0.09668871 0.01598487 0.4430172 -0.029341456 -0.7203769 -0.18564373 0.2271362 -0.2573026 -0.11924986 0.31319666 -0.023727322 0.9466372 -0.43559203 0.18578865 -0.62211114 0.0017601202 0.47875422 -0.91173923 -0.33230883 0.47778103 0.27145776 -0.15342502 -0.42154714 0.3521114 0.27553487 0.050811134 -0.34382913 0.10419631 -0.2880843 -0.61079264 -0.055647325 -0.54842067 -0.38530618 -0.27973086 -0.7507067 -0.30879855 0.1436055 0.13925768 -0.77526367 0.14870733 0.20332597 -0.6263729 -0.42633778 -0.08192315 0.04781353 0.13069992 0.5870084 -0.32080373 -0.3093932 -0.39910287 0.76246095 0.5929829 -1.1215104 -0.19358394 -0.47841743 -0.3406195 -0.9983603 -0.25549096 0.2378959 1.1305645 0.29828086 -0.38383356 -0.75047535 0.081131145 0.56597 -0.30859852 0.5855046 0.45079458 -0.2434089 0.21976629 0.006756021 0.62847054 -0.26051852 -0.18900754 -1.2395064 -0.109180234 -1.0777329 -0.5166469 -0.3612608 0.32258067 -0.4291675 0.7075102 0.18495454 -0.36996692 0.045479096 -0.022676105 -0.04321302 0.5145917 0.639197 -0.20354657 0.20439519 0.23889853 -0.69268095 0.49880317 0.5600225 -0.04095966 -0.071042836 -0.078468174 0.06815655 -0.32001114 -0.23109947 -0.07919128
