2182 128
2462 -0.25533494 0.190448 0.4838633 0.13980846 -0.063044064 -0.20623706 -0.48158905 -0.086121954 0.25213784 0.09357387 0.27390382 -0.18412574 0.3886611 0.67071646 -0.1719487 0.23159932 0.07514968 0.006212047 -0.51681423 -0.33568695 -0.7374227 -0.15702905 0.029945321 -0.33956447 -0.03602162 -0.07067989 0.12623909 0.1805674 -0.008142575 0.34998012 -0.23874262 -0.2496073 0.043957524 -0.37576985 -0.44702104 -0.6255231 -0.24205965 0.054953218 0.047598373 0.49007392 0.28479823 -0.032409616 -0.32678014 -0.094851695 0.02561332 0.11774726 -0.3990778 0.4417034 0.2437417 0.4037272 0.13038647 -0.58053327 0.08655606 -0.037459653 -0.011217249 0.33393908 0.14861889 0.30492207 0.45193943 0.5768359 0.4579686 -0.070161775 0.016789265 0.052296408 0.14937922 0.14133337 0.49032056 -0.17347178 0.20472519 0.08847309 -0.2993263 -0.27762613 0.2641891 -0.14492469 -0.41972926 0.30545378 0.22977163 0.73294556 -0.058883607 -0.28377372 -0.14841269 -0.27992672 0.2970017 -0.06965099 0.03385915 -0.008508011 0.26479897 -0.25042135 0.30357918 -0.51614344 -0.30135265 0.3607497 -0.32012442 -0.34508488 -0.704292 0.033843774 0.013412544 0.37821117 -0.47985524 0.09917427 0.23074146 -0.14467473 0.20229505 -0.41966605 0.33316335 -0.110317424 0.45788503 -0.6858362 -0.027006956 -0.14268847 0.048592556 -0.2794656 -0.056694444 0.16465299 -0.053462163 0.23625696 -0.48280403 -0.29048333 0.60688365 0.31027254 -0.05411627 -0.20533174 -0.29577652 -0.0031493031 -0.24800937 0.06567755 0.30779156 0.26276937
35 -0.24789642 -0.3642423 0.22075102 0.9468106 0.3469125 -0.09452056 0.016227264 0.5589326 0.013223398 0.05554443 0.25193805 0.13239431 0.46014413 0.4113924 0.48588705 -0.17817737 0.1522703 -1.1516293 0.16586119 0.20447777 0.07301669 -0.110849135 -0.62307215 0.37314782 0.03282293 -0.03560214 0.2806522 0.284535 -0.47751537 -0.21708146 -0.26481166 0.121206656 0.5359117 0.012872322 0.07529169 -0.08593379 0.7746707 0.541146 0.2949547 -0.4608039 -0.3642086 -0.5899399 -0.15127307 0.3726864 0.0942454 0.14035723 0.20652345 -0.8238612 -0.10340909 -0.71446013 -0.5038782 -0.21191731 -0.24379666 -0.153492 -0.17484836 0.47318357 0.046364773 -0.19792616 0.034432363 0.45169267 0.21255097 0.99723864 -0.055647563 0.5201471 -0.10478129 0.22955061 -0.07313665 -0.22188881 0.6736769 -0.48157656 -0.4177227 -0.39817414 -0.33979374 0.4675199 0.021909604 0.4381279 -0.34193406 0.024009736 -0.38740343 0.18084452 0.28255612 -0.2340041 0.18242835 0.5844792 0.6924036 -0.27248985 0.32922956 -0.50566506 0.1801848 0.07879712 -0.24785429 -0.42309457 -0.026440531 -0.05161045 -0.64017123 0.26169932 -0.47767773 -0.08919585 -0.06366499 0.079147875 0.25970367 0.019233344 0.4062433 0.5409157 0.055395085 -0.021491142 0.018837536 -0.41805458 -0.3493009 -0.30975232 -0.45879185 -0.8202589 -0.32807165 -0.3404925 0.09247304 -0.18251678 -0.6183705 -0.7175173 0.35717216 -0.86540085 -0.030430738 -0.43843088 0.19362785 -0.44795063 -0.2571457 -0.0825624 0.16525927 -0.030193452
452 0.35525087 -0.3123912 0.13076839 0.53817147 -0.122958 -0.5004555 -0.3487679 -0.17960513 0.2753733 0.04228043 0.028856639 0.61759937 0.56753093 0.077988505 -0.18349773 0.14208229 -0.05600398 0.1180713 -0.00086947787 -0.2549308 -0.7973747 -0.136335 -0.17931628 -0.16227466 0.35261908 0.3946314 0.3802689 -0.30512083 0.0017280538 0.28732267 -0.3695617 0.06086088 -0.22269616 -0.13292412 -0.14249246 -0.77359635 0.20809741 0.088143274 0.48386884 0.9363636 0.76474637 -0.040808864 -0.6787145 0.32561558 0.020343307 -0.21895458 0.5383296 -0.07662598 0.4514765 -0.53237146 -0.5292985 -0.114684634 0.11413969 -0.24784984 -0.26214877 0.3731838 -0.29233357 0.24486406 0.30632496 -0.16354673 -0.6275445 -0.17787944 0.06030558 -0.23140651 0.5261314 -0.27897552 0.032234997 0.25299978 0.10624017 -0.4952187 0.29644254 -0.09519648 -0.47273093 -0.18308277 -0.5742404 0.28137532 0.4762988 -0.11064883 0.11135224 -0.027682241 0.35378855 0.17680922 0.043878235 -0.3248679 0.052116904 -0.4191395 0.13393608 -0.20323658 0.11282274 -0.6247598 0.18395287 -0.29662812 -0.23451132 -0.7796499 -0.94021785 0.18677962 0.1173353 -0.12613523 -0.10851366 0.37034333 0.34887925 -0.5246737 0.1746803 -0.15206786 0.3414301 -0.560745 -0.47428358 0.03547512 0.35170838 -0.005388743 0.17194086 0.29487792 0.5196135 -0.064270675 -0.047027323 0.107687704 0.3314104 -0.057510544 -0.25012255 0.6074945 0.60750645 0.39712346 -0.05379731 0.36186472 -0.35852084 0.07737939 0.24225236 0.35272685
724 -0.16891712 0.34010422 0.11916201 0.3437909 0.08572577 -0.026706465 -0.30735046 0.25828618 -0.1085527 0.17172375 0.11112028 0.017131444 0.14362854 0.12437073 -0.5867539 0.24718383 -0.098688245 -0.41369432 0.06880886 -0.07473507 -0.6831125 0.5318319 0.12862623 0.08347675 0.36571896 -0.26317176 -0.008436052 -0.5148462 -0.27630454 -0.44432008 -0.044083584 0.038250137 0.31522244 -0.20241584 -0.26442584 -0.35037103 0.29599947 -0.20225649 0.041398462 0.109336995 -0.13607423 0.17485 0.07845021 -0.40890485 -0.3013711 0.058121875 -0.07766386 0.0011252643 -0.111993134 0.25600895 -0.24815528 -0.036080725 0.013255763 0.010647612 -0.4871389 -0.20550747 0.009156031 -0.43969205 0.3296869 0.35220948 0.2416221 0.0831426 0.07485799 0.24595827 0.16130225 0.12850544 0.43078655 0.16658457 0.052055694 -0.039427295 0.068707205 -0.3009034 0.35621667 -0.23859565 -0.51392555 0.058825176 0.5971615 0.10085707 0.2401063 -0.54705673 0.02573565 -0.04224078 0.2992552 0.15629077 -0.024052719 -0.26594478 -0.25349724 -0.30225775 -0.1225326 -0.23369983 -0.20215549 0.29877856 -0.23549187 0.22437383 -0.57285327 -0.043324906 -0.091562085 0.114991404 -0.23020913 0.48215836 0.5070966 0.11208342 -0.02813399 0.019556329 -0.23604782 0.11235291 0.22731407 0.13940626 -0.052730933 0.0041253013 -0.3037087 -0.16149805 -0.07254554 -0.28468835 -0.15904987 0.4016892 -0.11605409 -0.0065655373 0.5697325 0.10641323 -0.25694463 0.054014992 -0.032930043 0.5943206 0.13976033 -0.08419211 0.0711998 -0.16138524
5731 -0.17098781 0.28753653 0.29301357 0.1164703 -0.050388068 -0.1651232 -0.50460225 0.01760782 0.33611974 0.0938935 0.14192173 0.077304006 0.5403402 0.70251477 -0.061120294 0.38468525 0.21015237 -0.0927495 -0.12845464 -0.219893 -0.38474476 -0.49002257 -0.30338392 -0.36359388 -0.17141517 -0.08861912 0.078058444 0.08656909 -0.12370409 0.23419657 -0.5269897 -0.41592693 0.1544073 -0.674749 -0.31568182 -0.67352873 -0.12305774 -0.22644493 0.059933748 0.66730905 0.48770767 0.029277189 -0.09719466 -0.21587275 0.20996164 0.17390683 -0.6874251 0.66183937 0.19725356 0.1257997 -0.33499584 -0.5845585 -0.06606171 0.011321086 0.17103714 0.2924931 0.28390843 0.07490282 0.38082033 0.35080662 0.27103674 -0.1423406 0.3452585 0.011085452 0.3808989 0.32743785 0.51157594 0.21517073 0.30624434 -0.11493918 -0.21123299 -0.4108262 0.051522817 -0.09483672 -0.62671673 0.33850974 0.14959697 0.73171246 -0.08211247 0.08836423 -0.059537034 -0.035204176 0.36563712 -0.22502118 0.27170026 -0.294625 0.12718087 -0.3909026 0.02886779 -0.63164914 -0.38812646 0.51886797 -0.20028798 -0.34285173 -0.78465426 -0.10440994 0.040036358 0.2633586 -0.0435122 0.4061892 0.301609 -0.23060635 0.2513102 -0.5340601 0.028470244 -0.23708767 0.30114105 -0.65279275 0.007194724 -0.2057439 -0.041625988 -0.17671923 0.07760867 0.021627462 -0.041930385 0.25079468 -0.22934861 -0.5470655 0.5651212 0.2891748 -0.11052786 0.16125718 -0.33935472 0.027788626 -0.34475514 0.3143738 0.031275034 0.49144778
2 0.4269667 0.36047277 0.07903134 0.3646286 0.46807835 0.4564733 -0.17954732 -0.628741 -0.5377148 0.072632685 0.059310008 -0.078498594 -0.2612879 -0.82011664 0.20870036 0.47164974 -0.81641483 -0.14039436 0.12990929 0.68243074 -0.0036481202 -0.63004225 0.31014675 0.23729101 -0.13624702 -0.40272003 -0.06356591 -0.25831538 -0.32575864 0.60442907 -0.8602261 0.19118941 0.014211355 -0.25620952 -0.026773628 0.6734733 0.6273679 0.5307155 0.51434374 0.25015485 -0.1878175 -0.12340273 -0.44163662 -0.37711096 -0.16845375 -0.07518761 0.1447749 -0.04228682 -0.15033148 0.20451924 0.09068877 0.2449065 0.013409208 -0.23993966 -0.33064115 0.29275566 -0.28449774 -0.69536346 0.4971783 0.058619805 0.40600744 -0.18620095 -0.5021619 0.6765684 0.038890414 0.25595596 0.94701594 -0.61806 0.27903885 -0.6348702 -0.19007134 0.4889974 -0.17716047 -0.47415566 0.16535605 0.588479 0.82677466 -0.682028 0.2917733 0.24518183 0.102798566 0.3262732 -0.3364829 -0.15059926 0.56537837 -0.6049963 -0.26505116 0.074017465 0.044490937 0.6314555 0.13015756 0.63495815 -0.62758213 0.11415557 -0.43176255 0.35728306 -0.08646748 0.167381 0.11679843 0.11857817 0.014282844 0.30729595 -0.8072837 0.02633278 0.4312256 -0.03040135 -0.3780034 0.05690074 -0.24151656 0.06032663 -0.070225015 0.06887126 -0.75341016 -0.2622875 0.33070037 0.14577006 -0.451347 -0.7942832 -0.25346276 -0.00016246102 0.3478679 0.30479464 -0.23709051 -0.227353 -0.61537313 -0.21263236 0.045660786 0.070423335
1465 0.022548812 0.40776506 -0.10451388 -0.06961016 0.30624202 0.19928065 0.02004299 0.28907427 -0.22512163 0.41555253 0.15658084 0.023325006 0.012796692 0.20907131 0.28783932 0.13077934 -0.7520993 -0.3057074 -0.37267813 -0.19819932 0.15870333 -0.031510003 0.09548797 0.21979666 -0.3650053 0.16105793 0.2130218 -0.08112956 0.057969656 -0.056539737 -0.10463611 -0.027562073 -0.123019725 -0.16820575 0.0784416 0.70690805 0.74549377 -0.01389833 -0.01871727 0.28072706 0.011518859 0.03260404 -0.34353495 0.5017551 -0.33265197 -0.30719733 0.33380285 0.49951774 0.13585085 0.3483643 -0.31489527 0.26868677 0.10995778 -0.07584908 0.05104079 0.12634578 -0.7235297 -0.46517798 -0.20222448 0.3924722 -0.00304294 0.22196257 0.11482045 0.6485984 0.8203255 -0.0050746757 0.70096797 -0.0056955717 0.19689581 -0.4420508 0.19840199 -0.14272794 -0.36215732 -0.028344246 -0.6229204 1.0505756 0.68486565 -0.119250104 0.15125798 0.1346104 -0.14176126 -0.021486407 0.27922875 0.24002188 -0.08614528 -0.11904082 0.13587219 -0.45014724 0.22211537 0.35142002 -0.18874359 -0.112212904 0.087636456 -0.14697267 0.034159128 0.118922986 -0.044964436 0.38103038 0.42989168 -0.75039256 -0.41679448 -0.14830907 0.16126435 0.13158128 0.07028038 -0.2093159 0.13299733 -0.33273456 -0.50862676 0.3426414 -0.15687664 -0.36481097 -0.17027824 -0.42333868 -0.090441264 -0.16628344 -0.24600586 -0.17549692 0.23216268 -0.4738127 0.4024949 0.2336438 -0.2657419 -0.17857441 -0.29114494 0.3100143 0.22170609 -0.118589625
8349 0.27016118 -0.49754876 0.043009493 0.08250691 0.01104768 -0.50931036 -0.46096987 -0.3445602 0.28022757 -0.39002067 -0.11158975 0.29136896 0.20558679 0.261708 0.1829923 0.23499084 0.46916652 0.09239437 0.26943973 -0.08572244 -0.33478174 -0.45213386 -0.17423765 -0.27054265 0.3730001 0.42152423 -0.05709617 -0.13527237 0.3998119 -0.05950606 -0.5904524 0.011608433 0.56653935 -0.42561448 -0.026024997 -0.36018217 -0.17663346 0.17753689 0.097580746 0.3059222 0.55277205 -0.003999452 -0.3135124 -0.16494715 0.1698992 -0.02921476 0.2840244 0.4680402 0.3211475 0.28758776 -0.5992461 -0.24908064 0.2079737 0.5141837 -0.2932533 0.41251794 0.05948993 -0.09242181 0.6036705 0.3160565 -0.43119827 0.13774438 0.09493232 0.24348663 0.25869074 0.012634583 -0.03564499 0.04181943 0.14472036 -0.30999374 -0.3233546 -0.3755319 -0.354546 -0.36142498 -0.71349066 0.4202779 0.7430177 0.8168428 0.24524523 0.2849438 0.10987049 0.03309609 0.059515227 0.08905797 -0.3646652 -0.46805048 0.04825666 -0.67007667 -0.20150994 -0.67434376 0.105277985 -0.07351539 -0.6537736 -0.5740992 -1.0570518 0.34853506 0.29912385 0.46906278 0.15653464 0.46113452 0.3284923 -0.21909574 0.13040525 0.006935944 -0.22031567 -0.34681857 -0.33780822 -0.50825876 0.010075603 -0.29673943 0.3378383 -0.07220867 -0.44984686 0.21430823 -0.021807544 0.38195384 0.49247974 0.29157382 0.22837466 0.42730883 0.26284614 0.3861834 -0.0031825183 -0.03282659 -0.35814416 0.33283052 0.35868528 0.7745297
491 -0.26520756 -0.10721707 -0.0038310736 0.50068194 0.19541375 -0.09687152 -0.5613931 -0.025574205 0.31831938 -0.29496142 0.104125835 0.08892285 0.42369094 0.6689382 -0.35681987 -0.0070530735 0.27583852 0.1172351 0.06418944 0.25628945 -0.61752576 -0.35598758 0.0036587398 -0.88723046 -0.094483115 -0.22049572 -0.083802275 0.14242452 -0.12387171 0.23944889 -0.36049983 -0.20944048 0.25273404 -0.039969526 -0.3039566 -0.4147012 -0.15180935 -0.025749031 0.25667205 0.10881955 0.3714869 0.2139921 -0.56234276 0.34666 -0.51604337 -0.019688757 -0.674744 0.3818095 0.19745356 0.38648406 -0.26392558 -0.22327255 -0.43089512 0.47357336 0.11392207 0.19709338 -0.05115824 0.18855625 0.6971457 0.287327 0.43876925 -0.39649084 -0.0018316874 0.38567817 -0.104995884 -0.1581331 0.21467048 -0.05321107 0.23231018 -0.076435335 -0.019761859 -0.20281346 0.29781768 -0.08403012 -0.64077264 0.28789416 0.540243 0.5164459 -0.032737214 0.04757583 -0.130649 -0.39244577 -0.011036954 -0.05866199 -0.04938656 -0.40104854 0.60313064 -0.4534913 0.26585573 -0.45796865 -0.08786441 0.37668735 -0.44956523 -0.4511918 -0.69235027 -0.11132967 0.083593264 0.31794247 -0.022813534 0.16932862 0.6045101 -0.20185043 0.336877 -0.31630772 0.2881328 -0.4579418 0.3871121 -0.5800365 -0.2999984 0.1201327 -0.058393452 0.15012279 0.1514049 0.0063487873 -0.0026781969 0.010558871 -0.16571206 -0.45910004 0.39938086 0.33540612 -0.39305237 0.29817176 -0.7973356 0.325327 -0.06489896 0.050553344 0.19903275 0.49969956
1565 -0.04245671 0.29475257 0.024948286 -0.116632216 0.19844793 0.28229937 -0.04802485 0.37924585 -0.67276174 0.23176222 0.5865846 0.23565482 -0.019590542 0.38657105 0.0100291995 0.27074793 -0.7440776 -0.28192976 -0.30697718 -0.1923383 0.56293046 -0.05974615 0.26759905 0.52639276 -0.53137654 -0.2470411 0.21508066 -0.13872392 0.12191558 0.21362096 -0.1884213 0.15485755 0.005648816 -0.34698522 0.26295078 0.66857034 1.1230431 0.04912728 0.06792144 0.43354204 0.029916244 0.16671531 -0.36180136 0.39855608 -0.4831737 -0.13428125 0.5123584 0.51214427 0.18429686 0.4606518 -0.40128317 0.28469256 0.061020367 -0.17861408 0.1149667 -0.14572546 -0.31704298 -0.31442076 -0.14483361 0.6440848 -0.15570381 0.22763886 0.11715755 0.80054563 0.64091814 -0.06730554 0.9782076 -0.04154125 0.15236913 -0.3233585 0.33442762 0.12938596 -0.27273968 0.20502336 -0.90795845 1.159653 0.48233354 -0.06567748 0.38317227 -0.03613603 0.056115605 -0.27374193 0.7053876 0.27585593 0.13636474 -0.24930662 0.22565848 -1.0307273 0.15329106 0.15874419 0.07519456 -0.34246546 -0.007169049 -0.058807407 0.08930651 0.117907256 -0.10663352 0.26381066 -0.029870475 -0.64526874 -0.722026 -0.2817406 0.3896007 0.11614674 -0.004882275 -0.4758974 0.0002864041 -0.49869564 -0.55228573 0.55779773 -0.1960718 -0.30347073 -0.34643573 -0.37659606 -0.051870335 -0.2933248 -0.03352951 -0.3133288 0.22240293 -0.2969472 0.49937317 0.50642776 -0.30023962 -0.42468444 -0.5614981 0.21489659 0.1857809 -0.16524425
1788 0.04171449 0.082292065 1.0377156 0.631227 -0.45250177 0.7154081 -0.16316862 0.056306735 -1.4677563 0.37196988 0.5956623 -0.08043763 0.08141078 0.60269433 0.7749525 1.3982137 -1.2935857 -0.1945944 0.2821299 0.61413753 -0.08114875 0.43586215 -0.30305722 0.15562466 0.40152723 -0.41453975 0.927474 0.008657529 0.041446965 -0.13625784 -0.7738669 -0.7201979 0.07072583 -0.47007468 -0.05290412 1.2105922 0.51890886 -0.12638101 -0.36137083 0.2385055 -0.121504076 -0.5620814 -0.4269151 0.60210234 -0.32237613 0.94764864 -0.16636933 -0.45514667 -0.66583127 0.25400326 -1.227253 0.31542394 0.5928814 0.31540748 -0.79838836 -0.79258186 -0.33229354 0.5019269 0.39895883 0.5327033 0.26769435 -1.1096902 1.1682376 0.08591966 -0.43381235 -0.53489757 -0.98197883 0.79481477 1.5394148 -0.30055574 0.13000265 -0.08070277 -0.11772746 0.4518699 -0.52542955 0.99446046 0.21832368 0.5084253 1.0909361 -0.68636346 1.0491529 -0.88935864 -0.00964521 0.26615724 -0.29653442 0.004422153 0.35904562 -0.123285346 -0.4998113 -0.7358988 0.71665645 -0.16717853 -0.37185442 -0.3615702 -0.42383596 0.56317145 0.74870163 1.1813055 -0.5744876 -0.4638648 -0.7082862 0.2285761 0.62296075 0.95260036 0.480144 -0.11539433 0.10845517 -1.0683265 -0.12647454 -0.16730228 -0.588076 -0.22533868 -0.09769962 -0.6498105 -0.2572259 0.16851567 0.28714597 -0.19544286 0.4788122 0.7704398 -0.12403321 0.38025504 0.30529806 -0.38746837 -1.068317 -0.85653067 -0.7963411 -0.28397602
4473 0.39894077 -0.054144982 0.08909891 0.22565018 -0.7840587 -0.19396597 -0.15158634 -0.22984275 0.44916642 -0.077183574 -0.32473594 0.22836111 0.047289357 0.36268407 -0.57871586 0.132288 -0.04046538 -0.45244202 0.036340445 -0.18545641 -0.39555678 0.5160268 0.18789902 0.2001733 -0.19191979 -0.157864 0.28617314 -0.3627931 0.121702604 -0.4050655 -0.3753352 -0.29109436 0.23613486 -0.2672282 0.22064814 0.14495836 0.090512104 0.10831873 -0.052605893 0.5867387 0.024954734 0.0062185046 -0.37301174 0.308792 0.069517024 0.061617166 -0.02996052 -0.3990847 -0.036735173 0.3440865 -0.020598536 -0.18967912 0.39322892 0.05312047 -0.3635615 0.25877568 -0.032926947 -0.13023257 0.7059186 0.021900926 0.22155964 0.4356258 0.44149283 -0.121900246 0.1486703 -0.03395836 0.07344324 -0.40007624 0.42152935 -0.40311006 0.17967835 0.11092162 0.20594667 0.31911454 -0.46041664 0.69039124 0.19351085 0.3623067 -0.08340383 -0.077925116 0.18511574 -0.2987914 -0.024914851 0.05950197 -0.38660252 -0.20465927 -0.22477588 0.15441169 -0.46196693 0.498747 0.15199785 0.37744898 -0.41860536 -0.20422293 -0.38207075 0.03750248 -0.44941843 0.13065435 0.31929326 0.2019079 0.21893229 -0.11678912 0.51251274 0.47892952 0.18176416 0.19312745 -0.38592407 -0.2353962 -0.12614772 -0.31059653 -0.1234269 -0.24877968 -0.34602073 -0.3442541 -0.10888578 0.36271504 -0.027502762 0.09392402 -0.054643884 0.83854485 0.3747187 0.7807948 0.33474103 -0.19723667 0.29626882 0.055234082 0.12275632 0.3193922
1897 -0.045508094 0.28308886 0.15479368 -0.12499372 0.25483686 0.33186865 0.15635376 0.3203453 -0.5008153 0.25758007 0.5362567 0.17458494 -0.0010678112 0.29806352 0.12855414 0.2973036 -0.89132124 -0.42077145 -0.45851916 -0.16436891 0.67761815 -0.28729177 0.18646677 0.52609897 -0.5292896 -0.2339668 0.084383644 -0.33715528 0.12291619 0.11411103 -0.17096548 0.17498793 -0.22045189 -0.43344864 0.25576204 0.8291148 1.2169598 0.15926342 -0.06634425 0.45344454 -0.024098001 0.15535168 -0.5758563 0.3534113 -0.477615 -0.07716148 0.41782174 0.6240501 0.25055143 0.36205494 -0.36588007 0.22763649 -0.0117062535 -0.30737522 0.042062372 -0.12081481 -0.39695323 -0.3346571 -0.17866321 0.6982804 -0.081184015 0.09600347 0.2196906 0.77160436 0.60410607 0.04425405 0.92572695 -0.1554539 0.22927102 -0.37800515 0.22133438 0.117852 -0.15183446 0.00834597 -0.94471675 1.024202 0.53884476 -0.061861414 0.5069504 -0.009187618 -0.04081269 -0.27428707 0.63221335 0.22473142 0.12330088 -0.32063127 0.28536266 -1.0744157 0.110022135 0.19839862 0.010111232 -0.39125752 -0.16996937 -0.072219804 0.22293629 0.17356925 -0.28562546 0.09077963 -0.13930885 -0.63738656 -0.8944638 -0.35748005 0.393486 0.22711247 -0.038710292 -0.37001592 0.13687369 -0.48580414 -0.6848714 0.53688544 -0.28506705 -0.39657748 -0.22869451 -0.6645325 -0.1624293 -0.39174554 -0.08825185 -0.3054117 0.19505075 -0.45515248 0.63694155 0.4367988 -0.29687133 -0.5288654 -0.6484839 0.392659 0.22071439 -0.10095548
50114 -0.010448441 0.03209534 1.0397787 0.6300794 -0.4873592 0.6299131 -0.2542269 0.052823484 -1.474703 0.38964745 0.5563091 -0.06863614 0.13571344 0.69659007 0.8845184 1.4600003 -1.4214677 -0.22559255 0.2666315 0.72144467 -0.05547193 0.39309937 -0.35399216 0.20505206 0.40082672 -0.48694927 0.92730767 -0.05468969 0.0917035 -0.16629785 -0.7391021 -0.724495 0.087445244 -0.37775633 -0.082224816 1.2892531 0.41523403 -0.23241691 -0.29023042 0.14494853 -0.09624886 -0.5438253 -0.3829912 0.5944355 -0.31849903 0.9260192 -0.07208735 -0.46365842 -0.7404486 0.24907179 -1.2210855 0.32422096 0.574235 0.3388321 -0.9038831 -0.79769874 -0.36516055 0.48511392 0.53383076 0.5387254 0.23136032 -1.0504456 1.1482246 0.030747008 -0.4363727 -0.49576715 -0.92730564 0.78725433 1.5598472 -0.3185531 0.110977605 -0.12026235 -0.094787255 0.4616005 -0.55492383 0.9280025 0.29117098 0.45498344 1.1276869 -0.7092686 1.1503909 -0.8233567 -0.03286135 0.2071227 -0.38079867 -0.016394671 0.4356396 -0.1661539 -0.4834734 -0.8363517 0.7726179 -0.22504352 -0.45555297 -0.51084185 -0.45141545 0.55817497 0.7768027 1.207158 -0.65320444 -0.5557039 -0.71797466 0.25114152 0.57917666 1.0242981 0.50349945 -0.10047449 0.07830508 -1.1321594 -0.13879187 -0.21959998 -0.5562568 -0.20436372 0.06424312 -0.6797938 -0.330558 0.07005677 0.31132197 -0.24567135 0.5370451 0.8324863 -0.013751435 0.44364923 0.2203076 -0.37365696 -1.1156161 -0.90338993 -0.75503623 -0.33707574
1615 0.37808636 0.108586125 0.16893865 0.0059225755 -0.3193865 -0.07446925 -0.03139222 -0.0069390284 0.26517013 -0.6375238 -0.31691086 0.41907227 0.30159205 0.04746538 -0.7635745 -0.14019513 0.0046181595 -0.477638 -0.293282 -0.2651407 -0.89327633 0.2462739 -0.20038977 0.14003073 -0.47803998 -0.019170444 0.21044222 0.15125799 0.3203079 -0.1971335 -0.0015523417 -0.23602709 0.10635564 -0.3623075 0.28006843 -0.22778039 -0.011387012 -0.28276548 -0.013886315 0.7528522 -0.2569981 -0.5016071 -0.20256348 0.46155688 0.016132722 0.15454677 0.009083939 -0.19681084 0.27278173 -0.044561353 -0.29169548 -0.16077949 0.53730416 -0.11923991 -0.22896415 0.03379163 -0.54818916 -0.020362543 0.41046378 0.40717742 -0.13540748 0.5731507 0.3162229 -0.27752134 0.45478404 0.18062106 0.19797137 -0.47067645 0.034407027 -0.22484082 0.49801743 -0.06426079 0.21869071 0.5271689 -0.69009227 0.63366055 0.34665275 0.43676567 -0.21674088 0.15090194 0.086328015 -0.5374489 0.15265143 0.14335003 -0.21507151 -0.44277894 -0.31393948 -0.22062582 -0.6298622 -0.30912203 -0.31167042 0.7004935 -0.46703428 -0.2748688 -0.228771 0.34171933 -0.24593158 0.39333472 0.4580926 0.47693834 0.4144518 -0.17562893 0.54923487 0.18794772 0.17282037 0.387691 -0.28770566 -0.2159226 -0.5935101 -0.05364592 -0.3309677 -0.4062888 -0.5889767 0.02543801 0.009138308 0.8351148 0.120712176 0.2079727 -0.070431195 0.80822736 0.31198794 0.46865338 0.8228981 -0.27142644 -0.0070583 -0.07301582 0.08631317 0.1234383
3153 0.047760993 0.11275498 -0.11987471 0.3145744 0.021102894 -0.14866163 -0.84860367 -0.43802407 -0.03676116 0.34020987 -0.069983624 -0.01683194 0.25518164 0.7170271 -0.11666337 0.31866956 0.27314755 -0.074769214 -0.52197754 -0.28261206 -0.2445029 0.43317133 0.26559904 0.2339053 -0.35630393 -0.10239168 0.32098818 0.10618545 -0.5500285 0.49063906 -0.29105777 -0.42411298 0.044510018 -0.2816004 0.022497483 -0.22631767 -0.24046318 -0.11561683 0.025939262 0.39540336 -0.18041365 0.13790342 -0.3826736 0.0978056 -0.17421064 -0.46487528 -0.3650931 0.6040786 -0.0512896 0.29685518 0.3181997 -0.3576211 0.1851507 -0.16219719 -0.36306563 0.075752735 0.21446992 -0.39466608 0.3665616 0.55109376 -0.10714424 -0.20385619 0.07683174 0.36730185 -0.09783332 0.23395571 0.17762418 0.22261427 0.5149635 -0.08015855 -0.29434508 -0.44228217 -0.098209105 0.2033834 -0.5599692 0.16615723 0.07240348 0.6093911 -0.24805075 -0.48512286 0.01218617 -0.61375916 0.24290523 -0.21167944 0.091757216 -0.25175965 -0.045932233 -0.2045526 -0.3011542 -0.1729452 0.15374409 0.2513531 0.099913284 -0.37008968 -0.5539606 0.054393884 0.028396513 -0.4607747 -0.1840085 -0.0073494166 0.47152907 0.06747972 0.15001728 0.00069235807 -0.32695234 -0.16143815 0.033348877 0.23883252 -0.086553045 -0.06284354 -0.45686898 -0.043016754 0.5437775 -0.21777536 -0.2469723 0.2159033 -0.16980636 -0.16762386 0.30132458 -0.015245913 0.30535737 -0.09267361 -0.14128333 -0.12960918 -0.19891323 -0.23520008 -0.21094112 0.2374182
13620 -0.17496729 -0.057414122 -0.07525054 0.58857197 -0.4330096 0.3580581 -0.08837623 -0.16129526 0.10230272 0.21526015 -1.1112789 -0.6082547 0.29618275 -0.4335165 -0.55147237 -0.42371026 -0.12570535 -0.16093682 0.10280156 0.24553147 -0.76257807 -0.34548587 0.51086396 -0.41838127 -0.3646085 0.045368932 0.6559432 0.18280108 0.29822773 -0.029426837 -0.1925809 0.66756386 0.094874874 -0.2697638 0.12950249 -0.3121452 0.18474911 -0.21650155 -0.072884515 0.6198407 0.53516304 -0.08385592 -0.5096266 0.8257664 0.19416837 0.0217249 -0.21805574 -0.27555418 -0.088636816 0.22893889 -0.5026468 0.020286286 0.04333532 -0.22153193 0.27592987 0.019321207 -0.46283054 0.1531333 -0.0327764 0.39770186 -0.250158 -0.115996815 0.3445292 0.003611726 0.1372922 -0.66312796 -0.035573628 0.54335314 0.47408167 -0.054136664 0.35767478 0.44920877 0.13258593 -0.3251713 -0.6052467 0.017218558 0.2561986 0.52548885 0.055475943 -0.5441997 -0.22743118 -0.5594105 0.37431613 0.13001576 -0.39190996 -0.94953257 -0.26215222 -0.61337507 -0.38530353 0.09687457 -0.03854936 -0.6165152 0.34046403 0.11239289 -1.3926501 0.12423308 -0.42234382 -0.27536523 0.033318456 0.45773223 0.17681628 -0.3858399 0.470974 0.4242502 0.32716686 0.3165004 -0.35651687 -0.21833852 -0.4482462 -0.421611 -0.62205124 0.060586255 -0.13631953 0.09451381 0.09562056 -0.063733175 -0.14835805 0.32685715 0.29679167 -0.016868819 0.1798354 0.3205989 0.14930864 0.7530667 -0.104384854 0.16970141 -0.1612389 0.24597435
82920 -0.26671308 -0.30222127 0.33380994 1.0985106 0.5156227 0.14416426 -0.039861698 0.6374926 -0.013752846 -0.023896884 0.27740976 0.09656519 0.6372364 0.29807705 0.69215924 -0.303719 0.14756414 -1.1803168 0.0575523 0.18289225 -0.042987976 -0.16055731 -0.7474672 0.420762 -0.090048455 0.14109544 0.12032606 0.35394078 -0.6742686 -0.2534921 -0.28698897 -0.24961257 0.488663 0.103134 0.09364856 -0.17928983 0.6140897 0.5741452 0.074443765 -0.49349138 -0.220192 -0.8562848 -0.35679755 0.5898508 -0.1011978 -0.06743762 0.33355787 -0.7020506 -0.106775366 -0.5384299 -0.5422157 0.069818184 -0.1228516 0.042538535 -0.15602559 0.6977692 -0.11869278 -0.44203207 0.18723835 0.5073535 0.42709842 1.0546757 0.10576485 0.4480941 -0.2892384 0.33929712 0.035553277 -0.25424302 0.8582814 -0.24998686 -0.38644016 -0.31982675 -0.61377245 0.682661 -0.07572331 0.5505812 -0.52319044 -0.027660068 -0.5693261 0.24462402 0.37889463 -0.20759672 0.26765272 0.6943026 0.90586686 -0.4640372 0.38487718 -0.49411908 -0.017503511 0.17456642 -0.33456308 -0.2609682 -0.043422587 0.20829716 -0.7101554 0.30320582 -0.2876371 -0.14854367 0.23842408 0.01725386 0.1682474 -0.024116004 0.36774394 0.26639107 0.20655099 -0.14764722 0.016217684 -0.71529186 -0.22860017 -0.32641718 -0.52582276 -0.9568115 -0.47168595 -0.34783664 0.045780666 0.017702391 -0.5646905 -0.9058581 0.5617196 -0.66896915 -0.18808572 -0.59749556 0.31997433 -0.48320797 -0.023053532 -0.2850472 -0.012597316 -0.21080603
210872 -0.27333567 -0.30783364 0.29070625 0.93528485 0.39701587 0.032899626 -0.05314893 0.65304863 0.08219286 -0.074836 0.22728951 -0.022338498 0.51427144 0.47047448 0.4262231 -0.21155342 0.24174845 -1.1396694 0.19448704 0.2021012 0.1357832 -0.095594026 -0.6194559 0.30423155 -0.11758644 -0.04966111 0.28591537 0.39623716 -0.59975374 -0.33101425 -0.45964685 -0.019640839 0.54426694 -0.12135455 0.076420635 -0.09929106 0.6872939 0.45802695 0.11629038 -0.2960759 -0.3101517 -0.38595182 -0.2997049 0.46369785 0.12903513 0.02535913 0.3094268 -0.79717135 -0.16313064 -0.6499308 -0.57645077 -0.32676053 -0.30409905 -0.15479021 -0.150073 0.53815675 0.040714715 -0.3826091 0.09941566 0.34498027 0.15068161 1.0859444 -0.20691352 0.52273893 -0.025009818 0.3223647 0.017707884 -0.118670985 0.93873715 -0.46012 -0.41528985 -0.4960429 -0.313813 0.5946145 0.052877747 0.45932454 -0.35312945 0.016674796 -0.46415496 0.23747739 0.29054883 -0.311463 0.08003109 0.5779685 0.74298567 -0.37868014 0.37079963 -0.5304741 0.12784295 0.10732397 -0.30549386 -0.34194094 -0.093853645 -0.005210322 -0.4806467 0.23819609 -0.46103373 -0.16844656 0.02356384 0.13537525 0.06612936 0.12653433 0.52168155 0.44325754 0.1740658 -0.0007517789 0.054537877 -0.48148346 -0.34540367 -0.4749502 -0.5732477 -0.7212315 -0.35063863 -0.37242097 0.1764904 -0.23350294 -0.6528924 -0.95772976 0.48991966 -0.8233495 -0.21181317 -0.4317999 0.24252646 -0.40976617 -0.19049715 -0.12445081 0.15588586 -0.043224595
887 -0.32816046 -0.38329127 0.12824583 0.91931546 0.33062324 -0.2238296 0.13605408 0.4473529 0.11476263 -0.16720845 0.20255981 0.047390297 0.3181342 0.32532677 0.6840515 -0.18383668 0.2222199 -1.1183686 0.13012956 0.042614266 0.27313426 -0.24432498 -0.49343362 0.27500093 -0.1779902 -0.0885852 0.06213156 0.28173095 -0.00373025 -0.1061808 -0.4429126 0.11178902 0.51804 -0.05898369 -0.23827736 0.0033641502 0.8997599 0.0754853 0.22342336 -0.19825181 -0.2728302 -0.42321435 -0.15473336 0.10080559 -0.3810501 -0.0435422 0.31938 -0.7799304 -0.06977592 -0.968373 -0.15388177 -0.3053921 -0.18151765 -0.23585138 -0.32169074 0.39594457 0.10317052 -0.13097474 0.29160807 0.3910208 0.26797846 0.72921646 0.0805493 0.4779532 -0.09515628 0.29606062 -0.20443885 -0.08950929 0.7148046 -0.60273874 -0.21857513 -0.20248765 -0.22924608 0.3162247 -0.2492497 0.3407084 -0.15987298 0.088719375 -0.5246696 0.34891775 0.18823138 -0.25405595 0.31203505 0.6523891 0.69698375 -0.11941397 0.47543818 -0.37983558 -0.024998749 0.10249335 -0.13623564 0.11711125 -0.08933325 -0.0706376 -0.31957695 0.12978324 -0.3503936 -0.043042257 0.11431942 0.13949059 0.17738871 -0.14184752 0.51297975 0.41484693 -0.037879832 0.300346 -0.0070949593 -0.28942746 -0.5006173 -0.16279721 -0.39865685 -0.84152514 -0.104131155 -0.18874082 0.11574619 -0.2788067 -0.75406003 -0.547572 0.26790476 -0.59852916 -0.17826556 -0.32480058 -0.16130058 -0.3146821 -0.030899879 -0.087532796 -0.016743463 0.09882481
4584 -0.22705719 -0.30496743 -0.30882442 0.75391525 -0.3733599 -0.45762098 0.0063032648 0.2798417 -0.07352865 0.29072073 -0.27640548 0.06746571 0.29340968 -0.6665329 0.8583076 -0.25719434 0.15391392 -1.1828243 -0.121513285 -0.14436851 0.06376818 -0.971352 -0.13943033 0.092138804 -0.35604674 -0.057644878 0.3090664 -0.052024987 0.14385718 -0.069999315 -0.075841315 -0.16309194 -0.05563457 -0.40666512 -0.19121303 0.6482953 1.0601637 -0.040765677 0.15999804 -0.15698123 0.36282685 -0.81984466 0.29944488 -0.12650691 -0.37181517 -0.3267106 0.4614656 -0.8114204 0.03535261 -0.7633624 -0.22046827 0.07699131 -0.03111009 0.14222036 -0.2165597 0.419708 0.5857552 -0.44399196 -0.09596724 0.3439954 0.12845515 0.5653206 -0.04457643 0.99321085 -0.7593461 0.27468237 -0.4608445 0.25771776 0.5547932 -0.44675884 0.38804343 -0.21887158 -0.5892888 0.025313033 -0.5693072 0.74668133 -0.05847959 -0.22096679 -0.084181026 -0.036286786 0.27087495 -0.44530112 0.46769878 0.53407186 0.6842782 -0.096431226 0.38525522 -0.3220688 -0.21998388 0.027827667 -0.23976775 -0.22750995 -0.18617763 -0.14450552 -0.45465994 0.8249496 -0.05560021 -0.34331173 -0.4423216 -0.33076683 0.28447452 -0.25528884 0.7033227 0.41765207 0.03625307 0.052445386 -0.30115613 -0.5475747 -0.2670193 -0.43316564 -0.3824325 -1.1631299 -0.39122906 -0.20728855 -0.020358702 -0.20088883 -0.8155593 -0.1386291 -0.16604324 -0.038746096 -0.032302953 -0.16093609 -0.38046443 -0.23306799 0.09124347 -0.912366 0.27119106 -0.44095498
8327 0.26662934 -0.21686569 -0.3449996 0.5637807 0.28241894 -0.03295667 -1.0022355 -0.67916805 0.24895355 0.50637764 -0.13346751 0.21610914 0.020532819 0.77635914 0.19446242 0.62153155 0.13844128 -0.14642936 -0.3005419 -0.38992125 -0.53976977 0.15249608 0.31006268 -0.15648231 -0.8685812 -0.50141186 0.17259252 -0.08962491 -0.64733183 0.67115575 -0.18590096 -0.5692486 -0.28945363 -0.2781122 -0.3448873 -0.23154671 -0.09798302 -0.1454749 0.2280333 0.2971991 -0.2377586 -0.2909364 -0.4537467 -0.21658343 0.14663644 -0.15692793 -0.71624625 0.27344376 0.1037779 0.46545357 0.53273576 -0.4823614 -0.21240674 0.1195387 -0.43559235 0.5294952 -0.13446383 0.1686697 0.23633401 0.41019037 0.2985343 -0.45787278 -0.029857827 0.52329904 -0.22053768 -0.03314108 0.49202645 -0.4506756 0.6692785 -0.17317143 0.09575469 -0.43959945 0.07659621 0.05130601 -0.8102607 0.12079085 0.62944144 0.68422896 -0.382566 -0.284316 0.13427992 -0.9289819 0.14721133 -0.15415983 -0.40786666 -0.116337806 -0.20440935 -0.18700588 -0.32042873 -0.8026544 0.18487936 0.14333291 0.011022169 -0.28747633 -0.42295823 -0.20488326 -0.41766706 -0.04246418 -0.17403385 -0.232937 0.75570583 0.1665485 0.3103236 -0.09604384 -0.16064228 -0.23949704 0.3076563 -0.32644078 -0.52790195 -0.083432235 -0.26250973 0.120150775 0.29224005 -0.18988025 -0.29180944 0.018965676 0.1988927 0.17515437 0.6724667 0.14699627 -0.18567908 -0.10097553 -0.14738694 0.111467384 -0.3296493 -0.06603742 0.27658075 0.40319246
6213 -0.1387414 -0.37468255 -0.21930526 0.47370505 -0.3723844 -0.12337339 0.0034941775 0.546013 -0.2418353 0.45921004 -0.3537124 0.15864299 0.3702061 0.01459922 0.49340686 -0.16469514 0.25680733 -1.0469263 -0.34554797 -0.058979772 0.17861313 -0.2084518 -0.4725404 0.0673558 -0.46326375 -0.090421036 0.1361644 0.11365818 -0.08531274 -0.23892117 -0.26264298 -0.28655347 0.26406237 -0.3897327 -0.3276146 0.25864238 1.2054058 0.10459709 0.07354273 -0.07199652 -0.12760344 -0.2429215 0.16198984 -0.055990938 -0.06342114 -0.059656493 0.5019672 -0.6512674 -0.11160935 -0.7461206 0.011535777 -0.41910127 -0.31209534 0.029794518 -0.33632907 0.31473622 0.28014702 -0.5833895 -0.46130106 0.4345109 0.13344082 0.7404619 -0.19964215 0.65380365 -0.15428883 0.21775958 -0.43075734 0.064044006 0.6135591 -0.384336 0.21707267 -0.14613605 -0.3943167 0.09950412 -0.022729201 0.53267217 -0.021054203 -0.1455683 -0.44978818 0.19723077 0.0036235244 -0.5511477 0.48823637 0.49167913 0.43053052 -0.14385547 0.59905034 -0.18351364 -0.040844228 -0.41885933 -0.33335993 -0.056678712 -0.18289462 -0.17904992 -0.34792104 0.35138762 0.024365567 0.090610355 -0.030837156 0.2738617 0.37022057 -0.10687042 0.36062872 0.44474643 0.058571443 -0.073128864 -0.36325076 -0.17322916 -0.49385324 -0.27102295 0.11102664 -0.8511394 -0.1777354 0.2065366 -0.21266712 -0.24583775 -0.69767797 -0.36508405 0.20248583 -0.21385348 0.31277856 -0.08864044 0.16074707 -0.035239182 -0.19233166 -0.43742165 0.35513118 -0.37114835
5222 -0.038279653 0.5245689 0.23561192 -0.02669157 -0.2078102 -0.090300575 -0.14133587 0.13834052 -0.24792798 0.10135797 -0.037101705 -0.06659624 -0.3595722 0.7286164 -0.16609828 -0.15552281 -0.017550496 -0.7958613 -0.14498752 0.29541728 -0.5883931 0.603032 0.24454057 -0.52955014 0.45491597 0.27617076 -0.013138122 -0.6441448 0.21384224 -0.015349585 -0.048144873 -0.22051567 0.35680443 -0.34528008 -0.2623105 -0.20713381 0.067755334 -0.23331308 0.11346085 0.2919317 -0.08576217 0.057039656 -0.055039886 0.11985972 -0.017908897 -0.23944004 -0.39791054 -0.20052978 0.3385309 0.55651635 -0.3577925 -0.28175095 -0.02004435 0.2692287 -0.30566227 0.024684573 -0.30706468 0.0016355611 0.2326104 0.18963209 0.09201237 0.39811176 -0.07113096 0.16944936 0.4064971 -0.43000442 -0.059827127 0.1448768 0.04592515 0.07939082 0.003043553 0.039736558 0.9617521 -0.12557676 -0.47191238 0.19966225 0.41293436 0.26136598 0.27484968 -0.4803503 0.39241904 -0.2847021 0.104115635 -0.28247783 -0.1358886 -0.5275336 -0.4883521 -0.7154235 -0.31566727 -0.5151932 -0.023260238 0.40635633 0.05356541 -0.055071495 -0.58855593 -0.083326206 -0.33816555 -0.11214233 0.32507956 0.11843509 0.023186557 -0.20618334 -0.483308 0.12266971 -0.4073945 0.10830399 -0.70717716 0.05084423 -0.046749584 -0.46449056 -0.29013407 -0.40097898 -0.23875351 0.24351035 -0.7443403 0.35219073 -0.4737191 -0.469405 0.53140366 0.09501535 0.062545404 -0.32540786 0.06368085 0.3296634 -0.22472797 0.31876275 0.16147107 0.18583812
3028 -0.21262111 -0.35276377 -0.35980237 0.40971288 0.12399624 0.08656055 -0.9565187 0.014932523 0.02335936 0.18225472 -0.48509103 0.056875296 0.07156868 0.7953565 -0.26308885 -0.022421446 0.2800692 -0.0359034 -0.25540715 -0.3300155 -0.93849826 -0.0734693 0.14750396 -0.5463402 -0.6463757 -0.10807666 0.009450875 -0.29011002 -0.71478343 0.11112238 0.031264663 -0.37809914 0.16384497 -0.36824372 -0.62337744 0.68794614 -0.0038810633 0.032029226 0.44246492 0.35629025 -0.18723662 -0.38981086 0.04570129 0.3653338 0.4506725 0.20452997 -0.43177792 0.35260755 0.35429403 0.6520385 0.38355684 -0.41203412 0.17598037 -0.04470647 -0.66556895 0.14154653 0.3547484 0.039409943 0.62303096 0.2501554 0.2578607 -0.31870884 -0.14419858 0.6836646 0.18666956 0.14230716 0.6682238 -0.28814146 -0.2865412 -0.5540037 0.21075802 -0.044257615 0.1930967 -0.340449 -0.35184637 0.4998711 0.54530317 0.43167213 -0.10283119 -0.4058268 -0.4756169 -0.011601344 0.5567594 -0.26713318 0.5979047 -0.12583396 0.10905794 -0.1137407 -0.46958774 0.32112834 0.2091452 0.50214505 0.42825878 -0.25223693 -0.5759775 0.08993107 -0.040286273 0.046849966 -0.4105059 0.44499677 0.6682538 0.06421688 0.775906 0.20914328 -0.55563676 -0.059382226 0.21712969 -0.06664464 0.008552248 0.091578685 0.012754104 -0.27607206 0.17278226 -0.311691 -0.3290799 -0.20281188 -0.6873438 -0.20320982 0.22996667 0.34530702 -0.7078707 0.14998345 -0.122730404 0.35062164 0.297881 0.2705584 0.0676963 -0.06722889
9570 -0.0929048 0.288744 -0.15638725 -0.18828008 -0.37088186 -0.6262198 -0.16474566 -0.31932437 -0.5924732 -0.08810554 -0.13613428 0.32889894 0.19219641 0.3229459 -0.3615079 0.40029085 0.022403926 -0.48838755 -0.55091184 -0.22048914 -0.6472575 0.021830542 0.0126566095 -0.63604146 -0.2696419 0.52944195 0.2898049 -0.6678037 -0.37556505 -0.45859283 0.09714943 0.7805756 -0.68523717 0.51149905 -0.6234833 0.55970836 0.15878801 -0.9371066 -0.08156643 0.23062928 0.13408475 0.046224505 -0.86532986 -0.0991743 0.028470308 -0.43289164 -0.07533912 -0.18231732 0.09036015 -0.020651346 -0.18242398 -0.49393615 -0.120357834 0.23832712 -0.5239952 -0.48093674 0.010887426 0.1678538 0.20781626 0.5316526 -0.22734568 0.6369093 -0.035791244 0.40737712 -0.45646146 0.8867706 0.21485731 0.23199417 0.62681776 -0.5721733 -0.06689427 0.43374458 0.04179119 0.046131924 -0.10703567 0.29295278 0.18030295 -0.016727455 0.4472107 -0.15869752 -0.19646695 0.16289774 0.3178118 0.14838111 -0.26597652 -0.5251113 0.08573596 -0.20094572 0.38833702 -0.30449146 -0.08592603 -0.26049826 -0.29696667 -0.21501388 -0.4579131 0.3153135 -0.90380365 -0.021418817 -0.03341033 0.5674532 -0.16942658 0.033776235 -0.14599366 0.29882857 0.30949837 -0.26686853 0.5536102 -0.6905478 -0.44854042 0.21558893 -0.2341559 -0.1104542 0.286348 -0.22834341 -0.41108343 0.3734387 -0.0668272 -1.0746319 0.5773221 -0.20278427 -0.5169859 0.534316 0.42629 -0.4455418 0.1643758 0.044247452 -0.49754223 0.18680531
8251 -0.6920482 1.0073758 0.2443419 0.053416666 -0.17231509 -0.45757172 -1.2856625 0.36816698 -1.1910028 0.3658976 0.19030683 0.629911 2.0005255 -0.4360964 -0.49662516 -0.09434375 -0.17182907 -0.87115866 0.4151275 0.14691807 -0.7258482 0.46359113 -0.34024274 0.1786064 -0.95025694 -0.26190752 1.0097787 -0.14771259 -0.2684101 0.6172873 -0.4487442 -0.22393978 -0.02826963 0.309715 -0.5792006 1.5420063 0.92528456 -0.37773573 -0.65168315 0.43933037 -0.034049734 0.48764226 -0.5471371 0.81412476 0.2929221 -0.5332849 -0.27907518 -0.38219532 -0.42386442 -0.53954107 0.16835283 -0.82693964 -0.06015604 0.41941068 -0.31710705 0.32630366 -0.24286735 0.83713275 0.8777885 0.86575836 -0.36217344 0.6962743 -0.65202636 -0.118132055 -0.4643604 0.40766737 0.052623264 0.21421304 -0.002203288 -1.196807 -0.04036518 0.83435243 -1.9406034 0.7292423 -0.5654429 0.5286013 0.5825594 -0.22103158 0.32690525 -1.3932135 -0.4053326 -0.77712476 -0.87433666 0.24134971 -0.49966556 -0.7796778 -0.64674056 -0.05359185 0.56845003 -1.2441928 0.07655684 -0.56007034 -0.011688117 -1.2878784 -0.53924966 0.94116396 -0.21767555 0.7239143 0.004897369 0.41602686 -0.27427158 -0.4285077 0.15599321 -1.3126923 -0.3342123 -0.25724 0.9148292 0.6475483 -0.038757272 -1.2969466 -0.44526342 -1.4657525 -1.063481 -0.9815473 -1.1791623 -0.24689375 0.37530026 -0.11352899 0.10006126 -0.2660741 -0.35087636 -0.35940483 -1.1813278 -1.0697258 -1.4212719 0.47898215 -0.7441955 0.6664059
8237 -0.7192441 0.9715905 0.26476187 0.1329098 -0.124148354 -0.4529996 -1.3078636 0.36699662 -1.1415511 0.35233417 0.1551026 0.69097656 2.0253425 -0.46226496 -0.47220346 -0.05555988 -0.21721637 -0.9725024 0.32204616 0.14667241 -0.7583839 0.5293652 -0.28114206 0.14839952 -0.99004376 -0.2084326 1.0310823 -0.22469063 -0.2183865 0.6188002 -0.4895029 -0.30438298 -0.0067909197 0.30233926 -0.6353548 1.6125017 0.99222744 -0.31631902 -0.6926932 0.36295298 -0.05064741 0.47389936 -0.54305476 0.82975775 0.26107267 -0.5218559 -0.48040354 -0.43218225 -0.42915374 -0.6151736 0.22247307 -0.7773717 -0.091639504 0.4536101 -0.2623088 0.34507874 -0.27603158 0.9065077 0.9539316 0.8603776 -0.26110035 0.7028847 -0.7546545 -0.09312038 -0.47138035 0.39493924 0.17948426 0.2757562 0.023654623 -1.2520217 -0.06545904 0.9961349 -2.1357646 0.7261726 -0.6054844 0.54793876 0.61162686 -0.2647234 0.32874504 -1.4504235 -0.49076605 -0.75974494 -0.8710357 0.2790913 -0.5401294 -0.76742935 -0.7049234 -0.03160176 0.58510965 -1.3546934 0.14504044 -0.6123597 -0.051381912 -1.3241932 -0.61079615 0.97017825 -0.2545451 0.59462494 0.008920968 0.42632085 -0.23666748 -0.4578835 0.2748114 -1.3930621 -0.3227203 -0.27762508 0.91002035 0.5548647 0.11767544 -1.3884125 -0.5475668 -1.7344986 -1.1543822 -1.1326221 -1.297269 -0.23455139 0.31169534 -0.24899863 0.06114289 -0.28690943 -0.3803332 -0.33801633 -1.2658674 -1.1181954 -1.4492334 0.44842747 -0.8105887 0.76052487
2537 -0.28060883 -0.08693897 0.051566664 0.21912356 -0.28434396 0.015367456 -0.12465821 -0.06045193 -0.14771347 -0.0054498645 -0.09348983 -0.13743624 -0.09802428 -0.19552225 -0.16207753 -0.53546196 -0.6392441 -0.3101187 -0.07136886 0.42222187 -0.4886593 0.36154214 -0.3846847 -0.06475532 -0.1113272 0.13966128 0.73756474 -0.49115607 0.4977648 -0.18943362 -0.029355418 0.29347715 0.052796703 0.055693872 0.07137204 -0.30896577 -0.10869606 -0.39086947 -0.123218715 0.46400648 0.27903908 0.045023255 -0.10915066 0.30733386 0.2573801 -0.5945553 0.077548005 0.084620975 -0.0292701 -0.44216964 -0.1958119 -0.72744745 0.17221187 -0.12798743 -0.26793748 0.2692174 -0.4273977 0.12569058 0.1895842 0.33603525 -0.09210588 0.14678581 0.32248777 -0.20899011 -0.1766412 -0.23124132 0.024779918 -0.41005808 0.67263967 -0.29753083 0.022938848 0.123527154 -0.05917931 -0.2342023 -0.36549926 0.46839878 0.6206055 0.14362493 -0.17049901 -0.2902347 -0.13308164 -0.5006039 0.23191682 0.24776669 0.26243737 -0.27631173 0.5794331 -0.18454307 -0.19546461 0.321638 0.3193415 0.0867285 0.19568966 0.23445559 -0.41062036 0.36128336 -0.6886876 -0.21278183 0.14656611 -0.18382101 0.061140805 -0.03162445 0.75641435 0.23376876 -0.03707133 0.08862232 0.28833032 -0.34488094 0.16608976 -0.34804925 0.11279606 0.062115204 -0.36480862 -0.014197225 -0.3074387 0.27355352 0.5556811 -0.19094388 -0.0867513 0.37201464 0.48669738 -0.13565513 0.5122856 0.62593776 -0.34949362 0.571179 -0.1763977 0.20527914
24755 -0.08240842 0.44966054 0.06394444 -0.12892999 0.17229827 0.20809911 -0.012479318 0.32778668 -0.6411816 0.359781 0.5034343 0.28078344 -0.079057835 0.41906086 0.17802687 0.23736756 -0.8462402 -0.49587977 -0.4437428 -0.23999055 0.58483964 -0.27697405 0.22482206 0.5460718 -0.47887826 -0.06880683 0.16077818 -0.27854463 0.16218932 0.19655603 -0.124569386 0.096035175 -0.014452218 -0.41746742 0.3050726 0.81036556 1.2826508 0.20347546 -0.06258747 0.5412253 -0.06419445 0.12407262 -0.45263544 0.27958104 -0.53025615 -0.017978804 0.5153579 0.69781464 0.23520148 0.39097488 -0.42012373 0.21426314 -0.14421341 -0.0800785 -0.07269688 -0.055629916 -0.45212054 -0.24582906 -0.27253222 0.8278907 -0.040979043 0.22037119 0.2035867 0.77058375 0.71067196 -0.016895268 0.87722147 -0.07604357 0.22793779 -0.33582953 0.24649408 0.032702386 -0.22276048 0.1184983 -0.968936 1.1087593 0.45245275 -0.12528545 0.56743324 0.08885691 0.05190722 -0.2871138 0.67893165 0.22027187 0.08741073 -0.25281844 0.33777526 -1.0042496 0.024383772 0.09871687 -0.04624565 -0.53493565 -0.10165785 -0.06717016 0.3477901 0.06493693 -0.25907513 0.28372452 -0.021926256 -0.7467083 -0.9282166 -0.28328377 0.31096113 0.20367524 -0.012392841 -0.40957984 0.14316657 -0.55599266 -0.75688213 0.48794618 -0.3394829 -0.34276587 -0.29175344 -0.5962836 -0.14338028 -0.39267874 -0.0073151067 -0.3449788 0.35960576 -0.37152594 0.6306326 0.47168887 -0.38431272 -0.48068583 -0.64744294 0.493895 0.048694924 -0.21090898
2390 0.050366312 0.08571883 0.19588494 -0.026023196 -0.16396046 0.27225128 -0.07894269 -0.25761926 -0.03141517 0.11952395 -0.5523617 -0.026417788 -0.14309302 -0.27092972 -0.09134987 -0.25194436 0.4595379 -0.26050553 -0.06387589 -0.028063316 -0.4068327 0.36549747 0.26571822 -0.3619432 -0.2192996 -0.2393994 0.23620577 -0.13203037 -0.08342226 -0.09303415 0.035458278 0.24152836 0.14443205 -0.53435916 0.45030865 -0.4939348 0.51919043 -0.016584797 -0.15040936 0.50651056 0.15173855 -0.17330214 0.18817972 0.31447592 0.12257526 0.47452825 -0.19086862 -0.15263817 0.01585885 0.15244599 0.2255021 -0.41566637 0.19332503 -0.23387524 -0.14920391 -0.11988487 -0.58680916 -0.37360042 0.29613072 0.23543973 0.008703692 -0.29376847 -0.13774043 0.0978234 0.6552361 -0.16667593 -0.19015914 0.17213467 0.12495526 0.0946955 0.36350355 0.3033784 0.45233136 -0.06297627 -0.6222089 0.050076216 0.24684334 0.35044053 -0.17862408 -0.22876377 -0.10498448 -0.052343752 0.3834919 0.037814043 -0.7057739 -0.8692817 -0.1068213 -0.5716869 -0.58517045 0.17416647 0.0020943433 -0.3634293 -0.37840796 -0.45480683 -0.96398824 0.20858723 -0.79367536 0.04485992 0.09255764 0.1842263 0.28786123 -0.33401832 0.7136448 0.47815797 0.25907114 0.24065976 0.12587757 -0.33837786 -0.28148195 -0.33378443 -0.48594335 -0.5207027 -0.6033713 0.20991445 0.29174113 0.28951907 -0.028440524 0.27187303 -0.1191606 -0.044641 -0.051124383 -0.033785596 0.18509996 -0.15527631 0.11202878 0.17493792 -0.1733191 -0.2851906
27699 -0.22040546 0.32037634 0.32234782 0.12749304 -0.32783803 -0.40641636 -0.48605213 -0.039249353 0.24342962 0.41952732 0.051631767 -0.046925955 0.40955433 0.5553914 0.057042837 0.4844446 0.21294636 0.22466736 -0.20392922 -0.32571337 -0.34768423 -0.38872918 -0.17957006 -0.41624704 -0.10897619 -0.11803814 -0.1455926 0.22998545 0.024547068 0.17858003 -0.36265963 -0.62648565 0.2774238 -0.6203657 -0.29433352 -0.73664826 -0.02857286 -0.006400602 -0.048387434 0.4970844 0.31599683 0.009732832 0.013707636 -0.3882745 0.304029 0.06768691 -0.6510452 0.6438613 0.45126697 0.04316101 -0.4060703 -0.62560076 0.074825965 0.02544141 0.015939087 0.28889245 0.13991193 0.16495278 0.3729469 0.49105966 -0.14339209 -0.006640657 0.27875376 0.030473735 0.3254427 0.44750732 0.45454398 0.1765545 0.31882456 -0.3182773 -0.18937238 -0.5502828 -0.10070947 -0.21646297 -0.64141506 0.48807746 0.23546502 0.7955855 0.030599033 0.0023399373 0.09629011 0.15405522 0.33437732 -0.18528746 0.2788874 -0.41325128 0.041564047 -0.5672505 0.07213082 -0.56591284 -0.4330905 0.47263584 -0.31315798 -0.47278392 -0.8529643 -0.05562709 -0.012818032 0.41012597 0.10734431 0.28415635 0.31280336 -0.2833585 0.52143705 -0.6549906 -0.039234042 -0.20200616 0.35020617 -0.49250123 -0.080887884 -0.12858479 0.078507036 -0.33965614 0.010380169 0.14449985 -0.17177469 0.3372869 -0.23888896 -0.5337379 0.51409835 0.3021062 0.101594314 0.011754423 -0.4280708 -0.094437286 -0.112234354 0.32665896 0.023809897 0.77307177
1888 0.0075832885 0.089647464 0.053046703 0.020892931 -0.33754528 0.06452664 -0.37864748 -0.023797018 0.35656664 -0.2128174 -0.45652947 0.2986222 -0.0170058 -0.032225378 -0.45202193 0.016507898 -0.24755676 -0.7323323 -0.0445242 0.12738936 -0.27473605 0.5787554 0.62322545 0.050235685 0.040378492 -0.121375315 0.15265924 -0.238316 -0.060898487 0.1512811 0.24657468 -0.10599454 0.34825963 -0.15672518 0.31964788 0.37339202 -0.013747673 0.08899529 -0.025767893 0.40961754 -0.0023973954 -0.1606188 -0.2787595 0.068773456 0.57144463 0.41081232 0.21633044 0.09262889 -0.2373172 0.051188335 0.1843149 0.26098424 -0.101643056 -0.23893909 -0.29480863 -0.08330546 -0.036555048 0.32169157 0.82827765 0.08685563 0.28295875 0.41802064 0.2972415 0.21820444 0.12836866 0.02316553 -0.111694425 -0.1464837 0.4000944 -0.12002172 0.21554916 0.15840894 0.3023464 0.20388135 -0.64191246 0.14772882 0.06480516 0.7430057 -0.22513875 -0.16000433 0.40704995 0.018497318 -0.12408955 -0.023229647 0.051569033 -0.2914719 0.052511 0.039091907 -0.3262518 0.14899975 -0.1663672 -0.051563554 -0.62381566 0.4286502 -0.9492615 0.32354778 -0.48187077 0.26708198 0.1792748 0.011797791 0.18092366 -0.32791954 1.1274556 0.08498929 0.04286485 -0.016961744 -0.2690972 -0.30753234 -0.18058366 -0.40462056 -0.330612 -0.26731852 -0.24963008 -0.30438733 -0.18621208 -0.09757653 -0.15002127 0.08431469 0.20278092 0.4955265 0.15466133 0.032657232 0.38130122 -0.09488798 -0.08257553 -0.090139434 -0.41865435 0.387555
4013 0.33213228 0.32726902 -0.13228957 0.52521247 0.12067205 -0.0777768 -0.6511949 -0.28267676 -0.17452031 0.2413514 0.10716062 0.13813207 0.13336211 0.75220925 -0.14227585 0.20775455 -0.027780052 -0.13030678 -0.5220707 -0.17118546 -0.23536229 0.47501764 0.44957983 -0.042912118 -0.7508129 -0.12669691 0.03663696 0.28843424 -0.80992097 0.44857076 -0.360404 -0.14785989 -0.31678385 -0.20466056 -0.24211514 -0.3460676 -0.09740021 -0.22091761 0.21785307 0.39652985 -0.23081392 0.31287867 -0.521425 0.0021905599 0.2467678 -0.28830892 -0.60301805 0.29874092 0.42162865 0.23717181 0.010847207 -0.27904108 0.039249852 -0.039914172 -0.35676804 0.031187309 -0.18090509 -0.34441808 0.459891 0.1812703 0.03601845 -0.30509207 -0.014840768 0.17599235 -0.35273066 0.3037527 0.30936927 -0.06882331 0.66695714 -0.007775816 -0.16938116 -0.38663432 -0.16473487 0.21516041 -0.6700962 0.48731577 0.06899778 1.0260445 -0.14913653 -0.20671989 -0.046022877 -0.6699109 0.15662935 -0.08118188 0.07588327 -0.0680398 -0.1093174 -0.2372356 -0.4944964 -0.29869854 0.17554937 0.24262549 -0.08698414 -0.26767126 -0.5926967 -0.34655452 0.30900902 -0.17480798 -0.22422872 0.065778375 0.68783057 0.21893941 0.005409087 -0.113986194 -0.43015558 -0.2898773 0.23502293 0.20363843 -0.3601309 -0.09111153 -0.39671853 0.097496316 -0.054755107 0.0054419097 -0.33451518 0.28377825 -0.15693532 -0.21286668 0.28232384 -0.22940426 0.29272497 -0.47883758 -0.09372886 0.16238277 -0.25725067 -0.015201267 -0.25701007 0.14151435
78805 0.06815231 0.2729842 0.24901445 -0.14089313 0.27890894 0.2249184 0.16763408 0.3898234 -0.63753206 0.19697091 0.6199306 0.3014432 -0.13788411 0.5282131 0.24379133 0.34211877 -1.0916622 -0.42478085 -0.56729555 -0.100025006 0.74542356 -0.25407186 0.27989987 0.5701893 -0.49496818 -0.22526298 0.26664907 -0.47736937 0.061973196 0.27150387 -0.20251727 0.22866438 -0.12354343 -0.5649843 0.391539 0.9532332 1.408446 0.20965973 0.16332154 0.5386607 -0.20192333 0.2146125 -0.5109905 0.31206787 -0.57095194 -0.061542995 0.3683468 0.5579583 0.29075846 0.2376095 -0.41288668 0.25555268 -0.026700433 -0.30595803 -0.039491598 -0.27079213 -0.35991982 -0.2790973 -0.24704304 0.8660698 -0.038676616 0.009546261 0.16460995 0.759527 0.67454726 -0.14594492 0.9638339 -0.07236736 0.14524037 -0.36383224 0.2714318 -0.033703167 -0.14122193 0.12716356 -0.90166086 1.1668628 0.645135 -0.059256494 0.55506563 0.0632258 0.045111027 -0.34821442 0.6412143 0.26212618 0.043528013 -0.34584966 0.39619377 -1.1729603 0.06933146 0.25645792 0.07596633 -0.5056118 0.024865925 -0.12488665 0.19978832 0.11046531 -0.41071138 0.31771854 -0.04023495 -0.70589596 -0.9503748 -0.5137969 0.32213277 0.28997558 -0.067128286 -0.41188613 0.14258032 -0.57308203 -0.9178124 0.6378658 -0.21298924 -0.46088472 -0.46438104 -0.60344297 -0.31506434 -0.30652213 -0.012521226 -0.31052697 0.22807345 -0.57058054 0.5644321 0.42926624 -0.30446476 -0.68235314 -0.85154516 0.5151809 0.08497828 0.06955687
1047 -0.1582597 0.16699369 0.14660251 1.0197002 -0.21877587 0.32616335 -0.50978374 -0.3006568 0.38204268 0.42065042 0.41237956 -0.5599199 -0.92341065 0.09742204 -0.33019018 1.2123533 -0.633781 0.47053546 0.14587322 0.19609696 -0.44810048 0.55982137 -0.4287679 0.05603951 0.3422752 0.08540679 0.29993403 -0.59877247 -0.18576677 0.029972536 -0.08153048 -0.04037816 -0.62693775 0.2336376 -0.19153222 0.02645932 -0.26319236 -0.7311223 0.1907705 0.74013513 0.04549446 -0.69548804 -0.10324176 -0.06983531 -0.69917065 0.16695398 -0.6716778 0.30728036 0.36043748 -0.2382578 -0.14586769 -0.041718565 -0.29833838 0.70585716 -0.28535888 1.2887961 0.024072587 -0.65710014 0.19792224 0.40235314 0.34409302 0.4041741 -0.074476436 0.87643707 0.20475172 0.21878007 -0.029207833 -0.53653294 0.047865428 -0.7707434 0.6271311 0.6347088 0.16042084 0.6395772 -0.087229386 -0.16417049 0.2504342 0.47428912 0.2712075 -1.0087957 -0.2805607 0.044966668 0.267943 0.4451693 0.16509178 -0.66811347 -0.18264231 -0.24689445 0.2055898 -0.24672262 -0.91387016 0.10996412 -0.47525686 -1.3954659 -0.9755708 0.35712072 0.11561355 -0.20337465 0.28803167 0.5504781 0.79144573 -0.67216986 0.22098237 0.3942925 -0.1782696 -0.09932422 0.18230847 -0.48456454 -1.0709761 0.15351409 -0.34493712 -0.17571954 0.35959706 -0.4480173 -0.24263127 -0.09764725 -0.14159492 -0.23640458 0.46181908 0.5250048 0.20640856 -0.07617324 0.21712424 -0.30548242 0.099561684 0.12881495 -0.13979149 -0.24786529
124378 -0.17584762 0.062462177 0.54967463 0.13495328 -0.18185459 0.43238303 -0.15294327 -0.05271432 -0.56043893 -0.02743614 -0.56627274 0.0892428 0.036584947 -0.37262192 -0.19502333 -0.08976028 0.32603717 -0.3830897 0.34482464 0.008885464 -0.4003111 0.5097923 -0.13839504 -0.702726 -0.12787443 -0.23326677 0.44148365 -0.35943142 0.117237546 -0.049962897 -0.2036571 0.3049407 0.20607246 -0.7241591 0.60367686 -0.050115444 0.44712368 0.09980747 0.17878631 0.4535711 0.17804812 -0.35898143 -0.1992445 0.7130021 0.32359168 0.68203145 -0.12721817 0.11250822 -0.27610263 0.059468366 0.04884132 -0.5549907 0.15180108 -0.19628212 -0.17070588 -0.089631006 -0.8955373 -0.36295927 0.26417005 0.33183137 0.14764658 -0.2552794 -0.082019635 -0.10278717 0.51443434 0.0077967895 -0.25831538 0.23484355 -0.022093225 0.02473764 0.44585314 -0.1768926 0.7186565 -0.1841586 -0.63812846 -0.013053389 0.04290658 0.8747874 -0.24460909 -0.41009858 -0.11054164 0.27131316 0.53076583 0.11729914 -0.9419402 -0.6533861 -0.22263065 -0.6901311 -0.49631724 0.053416483 0.173086 -0.17678465 -0.15509668 -0.4650863 -1.3455727 0.035402704 -0.7374582 -0.2707167 0.38188094 0.35014832 0.57164496 -0.5317858 0.7025398 0.12848648 0.06391052 0.525275 0.01611827 -0.40848088 -0.7763948 -0.27777937 -0.87049824 -0.2599924 -0.51373225 0.10194598 0.118988454 0.06800237 0.00016912798 0.17395519 -0.23536377 -0.31869936 -0.038304135 0.42057908 0.379291 0.23172157 0.065206066 0.33930054 -0.083726175 0.1963239
10177 0.2966639 0.41990507 -0.7367354 0.020109776 0.8578857 -0.7676611 0.17027159 -0.026304346 -0.22885187 1.2846589 -0.005780133 0.609964 -0.41413957 0.2657113 -0.5808592 0.497212 -1.1774085 -0.43591365 -0.86184126 0.17004512 0.0374331 -0.1884175 0.3239729 0.4258686 -1.1479492 -0.89875394 0.57399726 -0.3535843 0.5169624 0.39282215 -0.092728645 -0.30168048 -0.21764357 -0.054905117 0.31119478 0.45898056 0.5074594 1.0361456 -0.17385662 0.15822901 -0.4797723 -0.16664483 0.56587 0.6692823 -0.7043987 0.62479645 0.6262627 -0.20399007 -0.8423526 -0.15793994 -0.0013266368 -0.4719305 -0.1812273 0.19442329 -0.54045546 -0.13151102 -0.55765116 0.138813 0.2556498 0.830241 0.5730447 1.1829762 0.5361916 0.1875096 0.20646237 0.35505715 -0.13412814 0.19076972 0.33270845 -0.33863845 -1.1451042 0.5338049 -0.48593777 0.105829574 -0.108000696 0.6040287 0.07383362 -0.7330996 -0.07099774 0.30240545 -0.116596214 0.37420344 0.2773134 -0.2532592 0.81041515 -1.2774287 0.44826335 -0.10105878 -0.3548749 -0.46465635 0.35864827 0.18179396 -0.9311752 -0.4514033 -1.1344646 1.0998805 0.12512544 -0.6073522 0.17186177 -0.73009336 0.26296595 -0.2587319 -0.10582498 0.37198436 -0.43086728 -0.101615876 1.1730151 -0.5353039 -0.48113713 -0.13341469 -0.2724016 0.25189564 -0.2611385 0.17712305 -0.827407 -0.23797974 -0.5473901 -1.0385351 -0.4740365 0.017197762 0.35917687 -1.1857464 -0.13885295 -0.51097447 -0.16786537 -0.112349525 0.9272751 0.0998634
1553 -0.82269984 0.26830894 0.36590758 0.75534517 0.0066319252 -0.097979434 -0.20068222 -0.39182994 0.011556387 0.12964517 0.39063358 -0.24029133 -0.12159333 0.166759 -0.34082288 0.35705358 -0.18230638 -0.52380705 0.36492038 -0.14068896 -0.5872338 0.5229509 0.32689673 -0.51011616 -0.5007049 0.25011265 0.18267258 -0.48209876 -0.51219916 0.42791924 -0.11823008 0.076698385 0.6128329 -0.7899543 0.112852804 -0.6847687 0.79937124 0.27873215 -0.66496384 0.19973506 -0.14590745 0.21342999 -0.23104443 -0.15153304 0.014564505 -0.22426212 -0.21555431 0.13654943 -0.37379366 -0.045181002 -0.23527515 -0.06314188 0.026716752 0.30765003 -0.2161435 -0.37780413 0.0065980167 0.24029687 0.14107548 0.3272748 -0.2706238 -0.33894935 -0.027155822 0.10656987 0.20395693 -0.28766733 0.38305992 0.34803125 0.23587157 0.027710015 0.12952271 -0.030823637 0.37032384 0.23640901 0.07151047 0.26642826 0.7028915 0.72410727 0.1668385 0.01126793 -0.1701021 -0.33849686 0.45688748 0.6972243 0.12056887 -0.37610278 -0.21475917 -0.05298933 -0.07111148 0.040468637 -0.41546774 0.5080244 -0.35991088 -0.029838748 -0.31070727 -0.1495807 -0.03313582 0.04670195 -0.26826292 0.22679643 0.42226171 0.30791 -0.069857486 -0.20822027 0.7094434 -0.25510702 0.4281037 -0.025823291 0.17262952 0.25370985 -0.44534072 -0.58908427 -0.28567034 0.121431924 0.16597317 0.5536775 -0.92686236 -0.24488586 0.63841945 0.6675175 -0.35423523 -0.14497964 0.031372886 0.095837094 0.33859026 0.7264869 0.13209349 0.18038079
18130 -0.08559244 0.6207445 0.23031661 0.81500727 -0.065051064 0.3633001 -0.46536684 -0.18310127 0.7364737 0.35912758 0.062844835 -0.4503159 -0.72022724 0.37688372 -0.29526094 0.8478915 -0.45857766 0.36262214 0.40188828 0.18141112 -0.35072398 0.21550125 -0.5709136 0.03761214 -0.07035929 -0.009335129 0.05328855 -0.6061829 -0.22644192 -0.17874023 -0.11540519 0.32606587 -0.61829054 0.037974417 -0.29435652 -0.14376663 0.11416359 -0.65687954 -0.19231269 0.47929132 0.11191394 -0.6268775 -0.1889239 -0.48301354 -0.3016288 0.15280566 -0.3217022 0.10520565 0.19708072 -0.20502804 0.22640026 0.015644738 0.024209173 0.42919487 0.17010342 0.6178663 0.4753544 -0.35754007 0.052334588 0.14376098 -0.007144955 0.20776784 -0.057313085 0.9096857 0.12937576 0.041094776 0.1524027 -0.19560716 0.28102008 -0.86565363 0.15980302 0.53243935 -0.0032397856 0.46959478 -0.07548392 -0.25981247 0.11014425 0.7860226 0.44116184 -0.9790316 -0.54733104 -0.09705087 0.47162348 0.43531448 0.12817395 -0.71844536 -0.3385191 -0.16535015 -0.10761651 -0.23788208 -0.7731161 0.51794225 -0.46901566 -1.3135265 -0.750788 0.296398 -0.055314723 -0.27428052 -0.13685408 -0.14544322 0.4526518 -0.5902716 0.39015204 0.40012366 -0.23712124 -0.547013 0.11752669 -0.15164012 -0.44239444 -0.087334506 -0.63169223 -0.09265797 0.08440872 -0.21614555 -0.16154097 -0.07009362 -0.26199958 -0.18975814 0.6939551 0.3294966 0.6466639 -0.09162325 0.25060666 -0.4948216 -0.054095883 0.00972225 -0.04028833 -0.08268941
29180 0.61594653 -0.28450996 0.34862837 -0.1555945 0.4676156 -0.777827 -0.45081523 -0.41099414 -0.3179499 -0.27052352 -0.26482904 -0.46426973 0.053649478 0.617893 -0.06883752 -0.00755886 -0.27876484 -0.49068856 -0.1997732 0.33883363 -0.34119287 -0.10726297 0.25478688 -0.105279595 -0.3524574 0.051856924 0.14073177 -0.51306444 -0.4134065 0.25916845 -0.39004138 -1.1610173 0.025040744 0.3821067 0.46865758 -0.025433742 0.7010609 0.56856686 -0.2694089 0.74820644 1.134763 -0.36258668 -0.26367685 0.63242406 -1.2974645 -0.0175501 -0.42076388 -0.130761 -0.050947588 -0.32887572 0.068981744 -0.29157978 -0.38327205 0.99008954 0.40168166 -0.37460446 -0.035171345 0.7777646 1.2216634 0.0012685705 -0.6786117 -0.32309195 0.7838584 0.4588183 -0.72949654 0.35695842 1.4167179 0.7509478 0.69034606 -0.55014884 0.4668703 0.21410531 -0.15766579 -1.1245023 0.40242326 0.79695934 -0.24717076 -0.28041947 0.10087956 -0.17441487 -0.8625592 -0.6617104 0.09813218 -0.03930895 0.028189482 0.45456043 0.6731359 -0.6245903 -0.44800034 -0.63960016 -0.45072907 0.16688249 0.81176394 -0.67734146 -0.41725075 -0.376315 -0.21595849 0.4836534 0.79450405 0.3316064 0.7094067 -0.11373466 1.2379091 0.4495717 -0.24264061 -0.42876184 0.596093 -0.5939255 -0.7660841 -0.7095405 0.05560812 0.4010495 -0.28948864 -0.6410954 0.27721 0.3568351 -0.7608029 -0.1442661 0.0328197 -0.5552476 0.54196066 -0.5586705 0.881351 -0.57797384 -0.1363536 -0.80045295 0.22771598 -0.31028986
3465 0.87390727 0.25867906 0.5395889 -0.23344208 -0.571357 0.6384452 -0.3106314 -0.13033853 -0.32122925 0.08601829 0.4635763 -0.22164191 -0.79290676 -0.56400484 -0.544648 -0.52999663 -0.058726735 -0.58177996 -0.18232496 -1.1088958 0.17221892 0.2786538 -0.42977476 0.64287955 -0.27535555 -0.24315801 1.2380201 0.32729468 -0.9357496 -0.29553908 -0.6007337 0.2611942 0.5918343 0.37215587 -0.24472255 0.97688395 0.9455689 1.253593 -1.1787772 0.6967257 0.24519593 -0.34848845 -1.046916 0.67313164 -0.40214452 0.11369959 -0.37016496 -0.09638272 -0.5402099 0.0046212436 -0.4313339 -0.4505752 -0.38503653 0.8274812 0.39434767 0.5540526 -1.0509095 0.84128577 1.0201426 0.85783297 -0.17956156 -1.1590279 0.44779262 0.26659834 -0.5459751 0.51283497 -0.34727418 0.93010205 1.2889286 -1.4376273 0.4999182 -0.08528944 0.14519008 -0.13620685 -0.6073456 0.25671676 0.73421854 -0.6118348 -0.16787979 -0.037480265 -0.012876236 -0.7946536 1.3801903 -0.58768785 0.94422877 -0.26376703 -0.16092832 -0.1398338 0.38013235 -1.0466338 -0.5876806 0.28732076 0.689603 0.20537351 -0.6938052 -0.9666107 -0.60543835 -0.3315427 0.10392761 0.43597156 -0.5265378 0.850494 0.39196795 0.40436566 -0.44460234 -0.31687123 -0.33608732 0.051790558 -0.046203624 0.9666606 0.45921558 -0.56092566 -1.3960271 0.3466523 -0.15319318 -0.00972664 0.4158585 -0.39782175 1.8288475 0.39736152 -0.6643008 -0.7386012 -1.0510051 -0.90628266 -0.110147186 -0.9799545 -0.2129944 -0.26276392
3563 0.31144378 0.16054052 0.1751763 0.31305096 0.26169473 -0.17551719 -0.6100213 -0.37937108 -0.27090752 0.17185159 -0.11725373 0.10378177 0.2593871 0.81220084 -0.0433741 0.17729838 0.15554133 -0.015461732 -0.3025736 -0.1426304 -0.37663633 0.076886736 0.24269228 0.1349708 -0.6099399 -0.27875668 0.5779367 -0.014994167 -0.37833634 0.29492393 -0.316054 -0.25677618 -0.087644555 -0.30757004 -0.15187664 -0.23080829 -0.3317337 -0.09749695 0.06533237 0.3565072 0.017280933 0.15450987 -0.52447885 0.18168026 0.11155722 -0.27164558 -0.2867148 0.68994874 0.41573694 0.41351444 0.24124789 -0.3842009 0.09295014 -0.05206647 -0.32745796 0.020018294 0.17133786 -0.3482719 0.21116754 0.3345437 -0.13759884 -0.23192638 0.23153454 0.37290546 -0.17278378 0.2001414 0.036980838 0.14516933 0.5185789 -0.39908856 -0.2626617 -0.48352748 -0.3059073 -0.039289955 -0.5148818 0.28046203 0.28151476 0.7221905 -0.16322319 -0.36527964 0.13566916 -0.4247408 0.2315423 -0.06765012 -0.16899899 -0.07123683 -0.092186406 -0.33872136 -0.5060799 -0.22993167 0.1931838 0.50334954 -0.12600753 -0.06855386 -0.5820409 -0.094600484 0.059552312 -0.26701736 -0.38806772 0.15112658 0.26085827 0.266753 0.18409248 0.20208965 -0.66726524 -0.22767358 -0.12571199 0.0024701857 -0.18724002 -0.07713849 -0.47795305 -0.062041484 0.55963033 -0.24169661 -0.086563624 -0.019144466 -0.31019387 -0.10993514 0.50836617 -0.1068541 0.13631447 -0.4919153 -0.05797011 -0.18054718 -0.047196828 -0.1963829 -0.34799388 0.2807128
6644 -0.2516669 -0.2612667 0.16044202 0.73895913 0.2658226 -0.7670558 0.05604576 0.71188295 0.5253408 0.34081414 0.44877663 0.51988167 0.29290488 -0.3514057 0.36624724 0.26962 -0.45330688 -0.6204073 -0.7020535 0.2624217 0.35558057 -0.010411999 -0.3257938 -0.4568535 -0.24601215 -0.2779256 0.6776954 0.30794224 0.23559614 -0.50630903 -0.055019826 -0.55302894 0.047682695 -0.23407881 0.3916913 0.24043635 0.66470575 0.5949791 -0.6211213 0.5544252 -0.43209612 -0.64773077 -0.6506752 0.18166831 0.4215796 -0.09689672 -0.6450201 -0.6732477 -0.019145185 0.69301075 0.056269765 -0.48635492 -0.05267908 0.2429208 -0.9644916 -0.080706835 -0.21280463 0.060894016 0.42066532 0.55874443 -0.007566023 -0.62697786 -0.029560534 0.44462565 0.74811476 -0.4825499 0.17960052 0.33244428 1.2198085 -0.13437918 0.67783886 -0.0048622466 -0.44257134 0.047735784 -0.9504911 0.38719147 -0.10820972 -0.048215687 0.4385152 -0.52959734 -0.55088 0.16355258 -0.3706397 0.56594616 -0.2439396 0.092243314 1.0075572 -0.16440755 -0.37253737 -0.22269951 0.5503291 -0.1476709 0.8238801 -0.33579856 -0.4785423 0.59684545 -0.74972224 0.16458808 0.4676864 0.25458103 0.5727505 -0.598633 -0.21596584 -0.23250109 -0.58612424 -0.85361767 0.19378796 -0.28103667 -0.6784446 0.46109465 0.46741438 0.01984273 -0.080885224 0.14068095 0.58932513 0.11806844 -0.42652556 -0.24672714 -0.11446004 -0.11281548 0.49105844 -0.18600702 0.014635117 -0.6014816 -0.4564954 -0.32012048 -0.1538042 -0.5999224
4468 0.6065178 -0.404429 -0.100156724 0.3346448 -0.5165435 -0.13557951 -0.71521467 0.30654168 0.3349612 -1.0093175 -0.43119657 -0.26851448 -0.28088778 -0.33919072 -0.4049167 0.21336322 -0.5015511 0.09929281 -0.42218044 0.55594116 -0.17176777 0.46551296 -0.07640346 -0.11363954 0.40784127 0.033559978 0.13064837 -0.38603982 0.055239134 0.08729173 -0.0969347 0.02304261 -0.3983057 -0.2237062 0.21177045 1.0033007 -0.015260449 0.37971836 0.0190368 0.7487632 -0.48656583 0.49979624 -0.55519444 0.35392094 -0.1672267 0.45620126 -0.06244698 -0.22094505 0.3250628 -0.025792507 -0.28237545 -0.3119822 0.5063204 -0.1382364 -0.3865629 0.548966 -0.035842724 0.5748311 0.65765905 0.6749311 -0.34167212 0.03423059 -0.6011353 0.64953035 0.398224 -0.48125932 -0.19119936 0.2276335 0.20777324 -0.94052315 -0.15298364 -0.43506533 -0.4099152 -0.12942742 0.31227174 -0.5621433 -0.062412087 0.24728593 0.27770302 -0.11632411 -0.3463686 -0.91063815 -0.47630087 0.42242485 -0.23263274 -0.99782676 -0.46041277 -0.33300632 -0.5343167 0.29174978 -0.6092366 -0.074641116 -0.6739908 0.7271661 -0.67550856 0.035690386 -0.6341561 0.22873805 0.31771794 -0.17538746 0.25707462 -0.66044515 0.16016775 0.56686985 0.07993011 -0.16782714 0.5941376 0.20448983 -0.12409914 -0.56377095 -0.56798524 -0.70959944 -0.0026608643 0.14562553 0.02032201 0.68415976 0.01148923 -0.17529823 -0.077926114 0.49725795 -0.15813889 0.8914106 -0.08804075 0.59588975 -0.194074 0.6637293 -0.054056603 -0.06401867
21033 0.50841075 0.28902802 0.41694707 -0.43863314 -0.04481415 0.40968516 -0.033350114 -0.22631113 -0.32182756 0.32334018 -0.08308186 0.059476092 -0.72324294 -0.67253715 -0.38454866 -0.33331576 0.44220474 -0.3638107 -0.2536683 -1.0637186 0.055207476 0.000773976 -0.44709337 0.6280511 -0.18590549 -0.25656298 0.95901126 0.3912608 -0.6044836 -0.20548125 -0.18516944 0.13563065 0.067922354 0.53298366 -0.22987708 0.86364746 0.48590538 0.7002083 -0.62753344 0.40085188 -0.10715821 0.011483976 -0.8103115 0.5345057 -0.17585844 -0.065481365 -0.0192295 -0.075307526 0.042509165 0.22420368 -0.71329105 -0.36561123 -0.25553435 0.95990413 0.0072188587 0.4731418 -0.73952645 0.8255872 1.0502857 0.7483139 -0.38829464 -0.81848854 0.26107448 0.42882183 -0.70938694 0.67552567 -0.08699301 0.78958946 0.9829273 -0.8576915 0.52352613 0.18384376 0.25718382 -0.09886694 -0.42236108 0.26889002 0.6477587 -0.38311085 -0.3159334 0.1268571 0.37282887 -0.29013506 0.43129337 -0.13899818 0.7107065 -0.18278065 0.026513748 -0.314768 0.40082338 -0.65989196 -0.7094322 0.15174976 0.39982378 -0.30050385 -0.320352 -0.43528253 -0.33978447 -0.54135454 0.15250528 -0.044678766 -0.2702077 0.7622158 0.48264703 0.10689875 -0.3999169 -0.17284808 -0.08398246 -0.10542857 -0.19171113 0.41775778 0.47213492 -0.37501758 -1.2226233 -0.14913929 -0.12926136 0.050642144 0.047813214 -0.6283263 1.2440724 0.4263458 -0.42866507 -0.63619095 -0.76904595 -0.8199512 -0.22538751 -0.76091653 -0.27909672 -0.5611329
248634 0.17276722 -0.38620043 0.35756448 0.022989318 -0.36872146 -0.08266462 -0.30088747 -0.15552457 0.37279147 -0.71401507 -0.575867 0.062153745 0.019678071 0.11873493 -0.26502252 0.0006590965 0.19975784 -0.5890597 0.070331454 -0.62401783 -0.3553774 0.2755822 -0.27261496 -0.0093812775 -0.4760535 -0.04604838 0.1505836 -0.14460184 0.39914176 -0.011229665 -0.37214994 -0.16496763 0.76764053 -0.5008845 0.28421843 -0.13324521 -0.150948 -0.03288879 0.03377542 0.52647084 0.15929896 -0.26430193 -0.6312403 0.28746715 0.39766526 0.024666563 0.15186007 -0.043516666 0.2806635 0.2066487 0.025825063 -0.66902405 0.73257667 0.35229513 -0.94084394 0.07689338 -0.6365566 -0.30403772 0.43367395 0.24869815 -0.21819207 0.49914527 0.2084854 0.06773704 0.11923707 -0.3249773 -0.02103089 -0.35613322 0.32450995 -0.34852624 0.46029162 0.16535714 0.04095053 0.31934324 -0.72798276 0.7245917 0.38197678 0.7880997 -0.13346076 -0.07316841 -0.22027367 -0.2918642 -0.19852227 0.36900222 -0.3163422 -0.7010933 -0.061905414 -0.14786568 -0.41086006 -0.35364786 -0.083433144 0.7523532 -0.6065874 -0.15086052 -0.32927284 0.41928962 -0.30859166 0.53778744 0.8461472 0.44431683 0.25939947 -0.025048513 0.8463977 0.17204148 0.23789611 0.17856961 -0.28806767 -0.58635706 -0.74468637 -0.16135028 -0.3732438 0.11783896 -0.685112 0.05908158 -0.22095673 0.8106971 0.3585606 0.64577377 0.17367145 0.40822202 0.0031106668 0.15159835 0.8240373 -0.25188667 -0.06710813 0.13885672 0.51338303 0.44434837
9136 0.07651511 0.0083694495 0.008430193 -0.0198579 -0.24698284 -0.03603536 -0.1835288 -0.08217382 0.46447396 -0.12871386 -0.49826103 0.50353456 -0.076049805 0.025087602 -0.1413187 -0.06316382 -0.029933412 -0.64661264 0.04802501 0.095987305 -0.42884248 0.49129003 0.39612564 0.04783237 -0.21093123 -0.31001154 0.052290186 -0.302266 0.1852318 0.17690329 0.17303531 -0.027378606 0.11308932 -0.1541027 0.2666888 0.23675802 -0.014331559 0.22664143 -0.15880214 0.5702796 -0.26485166 -0.19328776 -0.61684614 -0.10063571 0.21309032 0.28961554 0.30011413 -0.24947183 -0.31135955 0.014222017 -0.09690936 0.20614518 -0.14456409 0.0986329 -0.16508622 -0.039402846 -0.24784584 0.12467839 0.79873705 -0.03443727 -0.012616249 0.3870787 0.53342676 0.3353904 0.36824268 0.074803665 0.06011749 -0.1852925 0.47628626 -0.25102648 0.21236423 0.09142753 0.35677686 0.20087615 -0.5782471 0.5515258 -0.14361231 0.55784607 -0.3460972 -0.37782013 0.22127193 -0.11320539 -0.4135208 -0.32255217 -0.018440846 -0.4384591 0.10968943 -0.0033480485 -0.25568235 0.32187617 -0.061503924 0.24961467 -0.79590786 0.31775936 -0.67326194 0.14499603 -0.25499517 3.9651117e-05 -0.032569632 -0.013699544 -0.075546525 -0.14763927 0.94236726 0.17771526 0.13724102 0.16795465 -0.12131137 -0.56556374 -0.19240065 -0.5903633 -0.2785452 -0.45449606 -0.16475327 -0.3757093 -0.24606109 0.19010878 0.12849495 0.23154658 0.1845827 0.69253623 0.39228532 0.2723678 0.58758354 -0.14817576 0.16503876 -0.022751467 -0.4585109 0.44531804
1632 -0.21206884 -0.031493418 0.3198159 -0.021776227 -0.29145664 0.2705401 0.06334872 -0.16208945 -0.39100885 -0.065074466 -0.6602014 0.15069593 -0.0531223 -0.047668878 -0.19155811 -0.0476721 0.25218812 -0.3714755 0.005525839 -0.13483948 -0.6365855 0.017756442 0.23649839 -0.5143113 0.01228921 -0.33342475 0.16612178 0.07544846 -0.2541421 -0.13962074 -0.39464408 0.109354235 0.19657432 -0.16378193 0.4468536 -0.29307148 0.5390763 0.24577273 -0.15558189 0.60795957 0.022421887 -0.077142864 0.031280853 0.37167174 -0.019072393 0.34134373 -0.1638243 -0.2284778 -0.11424849 0.06053343 0.06816355 -0.28535894 0.04338833 -0.25544843 -0.14633355 0.03912104 -0.77282244 -0.49646702 0.36670944 0.2900969 0.12064188 -0.06506126 0.14056063 -0.17389135 0.541897 -0.2982167 -0.04659862 0.17383683 0.08274154 0.22160092 0.61291665 0.20058103 0.34340367 -0.073445246 -0.49330708 -0.01906862 0.24120174 0.66566855 -0.21753938 -0.3717998 -0.39329258 0.07621792 0.31755316 0.20252365 -0.5983407 -0.6268765 -0.16930941 -0.67335117 -0.6239969 0.16148053 0.22982043 -0.0418372 -0.18205953 -0.23149106 -0.972686 0.2768539 -0.88928354 -0.39255893 0.12999216 0.11553851 0.026397003 -0.2839678 0.7458832 0.21089356 0.2250396 0.15174869 0.10785291 -0.22242613 -0.39503887 -0.5282077 -0.46527973 -0.27632067 -0.40495768 0.35334706 0.1973837 -0.16103671 0.035791934 0.38647926 0.14301611 -0.048530262 0.2815781 0.03990538 0.2107297 -0.05243553 0.10103033 0.1923074 -0.07668205 0.030553307
5395 -0.7252752 0.24270432 0.03369269 0.7938966 -0.10088061 -0.2383768 -0.6213883 -0.3718336 0.19896623 0.311072 -0.16675775 -0.18940982 0.0863905 0.056278884 -0.61173856 0.53796744 0.19402203 -0.6660882 -0.113514334 -0.22301169 -0.22303608 0.40625763 0.2831262 -0.26873818 0.07123921 -0.021995336 0.12394521 -0.42059433 -0.29527402 -0.16412553 0.07252025 0.17156371 -0.047749415 -1.0037878 -0.611636 -0.5395954 0.20732383 0.049433935 -0.15802151 -0.24383615 -0.1442914 -0.4073381 -0.03830967 0.40883353 -0.31158984 -0.29753911 -0.048664033 0.7918754 -0.17004484 0.076439865 -0.16237126 -0.6800832 -0.6058248 0.4135296 -0.4835191 -0.04012124 -0.10988431 0.25301298 0.5842168 0.20823185 0.018798813 -0.21001427 0.2554348 0.08260714 0.18767354 -0.57317495 0.67204887 0.1649258 -0.038927026 -0.062566996 -0.19511575 0.24335207 0.5921468 0.083328106 -0.46329167 0.16441363 0.5268389 -0.22257102 -0.06309844 -0.4185486 0.04788578 -0.4769172 0.21060984 -0.09576235 -0.23177339 -0.22582695 -0.16319704 0.22533408 0.21075557 -0.39763108 -0.41775256 0.32151723 -0.59046555 -0.17392273 -0.23585415 0.40627858 -0.22584261 0.14463088 -0.3154688 0.21436754 0.7465185 -0.015720554 0.28098342 -0.007880984 0.13694504 -0.3427569 0.55983216 -0.38298213 0.14473404 -0.048324775 -0.55227196 -0.56753564 -0.15719435 -0.166493 0.37064254 0.52127606 -0.6041058 0.10768925 0.4069637 0.37252775 -0.27737275 0.025643077 -0.46735412 0.048064943 -0.2806005 0.96675944 0.51336235 0.41370368
4792 0.11430279 0.38625374 -0.22498956 0.03636597 -0.08061375 -0.00013418718 0.050414048 0.4464529 -0.17494245 0.38394812 0.45538464 0.15412234 -0.16929445 0.07940377 0.093893416 0.28974056 -0.7081747 -0.48521268 -0.28034356 -0.23246558 0.09436496 -0.08364352 0.3419987 0.16382362 -0.3493444 0.0972615 0.30755457 0.041993786 -0.13838919 -0.08732931 -0.08567623 -0.37549847 -0.21744038 -0.114866614 0.039501976 0.6036449 0.78129166 -0.17966135 0.09996255 0.440065 0.14209458 0.19970052 -0.39593244 0.608133 -0.31172225 -0.33247516 0.36652687 0.5646472 -0.19044691 0.074543014 -0.31989408 0.16052718 0.20876163 -0.117628075 0.29857868 -0.11936394 -0.6317618 -0.3299539 0.06041009 0.43077216 0.1413086 0.36463216 0.20108363 0.5972066 0.70486337 -0.22971834 0.5869576 -0.14691155 0.18968783 -0.6398598 0.12344255 -0.14449877 -0.69408613 -0.16202213 -0.5963074 0.9629462 0.8717661 -0.19068897 0.46135047 0.06859979 -0.18581507 0.04690282 0.75889134 -0.076545894 0.07484482 0.08013247 0.098110504 -0.37271973 0.47566253 0.53152883 -0.22030452 -0.13087194 0.28723907 -0.106118135 0.12347386 0.16128744 0.013135499 0.33733398 0.4656874 -0.667534 -0.3341681 -0.20312636 -0.22491945 0.210454 -0.015551464 -0.4482196 0.25436068 -0.4250123 -0.602907 0.15116787 0.003136731 -0.5631297 -0.278923 -0.4740435 0.28063425 -0.33022454 -0.2553104 0.019005442 0.10355111 -0.25302082 0.38134205 0.24699675 -0.2552923 -0.35124415 -0.20693669 0.06419308 -0.07554496 0.0044286135
1331 -0.47817543 0.37905306 -0.07931948 0.2950315 -0.51612407 0.31347796 0.049534414 -0.4868493 -0.35003927 0.2602933 0.017935598 -0.4326016 0.107468404 0.04178514 -0.55054957 -0.3625363 -0.31055337 -0.26461416 -0.17603414 0.82258594 -0.054151002 0.57224846 -0.5052463 0.043708738 -0.24229705 0.2136604 0.50244623 -0.27918893 0.55197203 -0.041418888 0.14080547 -0.07119963 -0.043462813 -0.09792121 0.13704298 -0.056622673 0.036577865 -0.20800823 -0.49946633 0.20790218 0.6865648 -0.008052267 -0.18951565 0.55967766 0.47079143 -0.48006725 -0.19705507 -0.2447987 0.3239542 -0.40560967 -0.6114778 -0.36211756 0.078718774 -0.15770718 -0.4477117 0.105182335 -0.13014248 0.15213183 0.41441903 0.7717769 -0.03295715 -0.017755957 0.10492898 -0.08311577 -0.31162328 -0.6172532 0.1804619 -0.22372526 0.6975931 -0.5218984 0.015547947 0.15687442 -0.20897819 -0.14543173 -0.70685554 0.50488347 0.813759 -0.17936899 -0.23024173 -0.29869515 -0.47776997 -0.44212863 0.19650128 0.24657728 0.28965613 -0.22793908 0.6277846 -0.32587004 -0.03593845 0.24304038 0.06782225 0.032056317 0.054206777 0.18253864 -0.58426946 0.030684145 -0.6212574 -0.47055504 -0.009821771 0.17757502 -0.052567307 0.26540667 0.6233617 0.29230398 0.37253836 0.24122111 0.16869092 0.019162372 -0.25349233 -0.4102477 0.15133464 0.2822546 -0.0049229413 0.03930858 -0.38435835 -0.1431926 0.56132084 -0.06971254 -0.3509634 0.54251057 0.40794805 0.049717125 0.3815554 0.5008579 -0.5845 0.3353209 -0.07667302 -0.002871463
5291 0.7072051 0.20939504 0.61172515 0.3360803 0.21744086 0.19507729 0.09922919 0.12846366 -0.34162822 -0.025386889 0.15471984 -0.078635074 -0.6913065 0.09372556 0.19655205 0.38518003 -0.23394497 -0.2266063 -0.2629877 0.47592145 -0.84720093 -0.015912617 -0.5287339 -0.35912022 -0.47962582 -0.32030132 0.4950919 -0.64871776 -0.007587887 0.11549302 0.19686522 0.102837734 0.1323984 -0.06893713 0.13823348 0.070136055 0.13642742 0.027640106 -0.1421627 0.75402206 0.60557914 -0.299292 -0.0022982543 0.8423609 0.39737502 0.2706398 0.032498017 0.28307396 0.1870598 0.113845445 -0.17624153 -0.8228495 0.38260484 -0.697402 0.029802939 -0.028273003 -0.6545559 -0.37600997 0.5072083 0.8616995 0.22146906 0.24799922 0.81299716 0.22366272 0.16432275 -0.53861576 -0.28996876 -0.11190295 0.8253769 -0.03500159 0.21655095 -0.15747325 0.94984776 0.17282061 -0.041482024 0.3087964 0.5390651 0.23857422 0.06550288 0.2313225 0.23003589 -0.63892996 -0.5926143 0.41106245 0.023866186 -0.7804823 0.015921125 -0.27361977 -0.46324348 0.41289628 -0.12079695 -0.39905012 -0.20624161 -0.6898091 -0.7738815 -0.0064562247 -0.90929615 0.007453469 0.824458 0.33849007 0.12923732 -0.21357647 0.3228377 0.32229823 -0.1047798 -0.047892164 0.5267101 0.576546 0.15635338 -0.19606394 -0.036705542 -0.16263358 -0.55478734 0.26423103 0.02803137 0.43839565 0.33979657 -0.019164372 0.1998901 0.22970918 0.29998657 0.2510156 0.55749136 0.6252962 0.17407022 -0.5578851 -0.08705016 0.56032884
13382 0.29533616 -0.46827993 0.28507164 -0.13078013 0.39901212 0.09862556 -1.0793899 -0.10017425 0.13294317 -0.30578792 -0.16291834 0.114761315 -0.26392198 -0.008585657 -0.46083206 0.10949465 -0.9067993 -1.0821253 0.57981324 -0.20956345 -0.44918427 0.6858764 0.5548257 -0.3616396 -0.050646607 -0.0898616 -0.43173328 -0.09522421 0.66350067 0.30761546 0.6992403 -0.5527444 0.012145389 -0.49656585 0.0684594 0.30241516 -0.9002103 -0.018190566 -0.20354855 0.6060182 0.19914146 0.046017677 -0.30941963 0.32111746 0.43701583 0.29701272 0.2620055 -0.007949693 -0.30562606 -0.1902298 0.39796814 -0.006675491 -0.40706626 -0.25210923 -0.04373685 -0.17060308 -0.3857846 0.07731323 1.1413486 -0.03220887 -0.20754497 0.6885708 -0.3323609 0.13044153 0.09318297 0.5327754 0.124274425 -0.46255893 0.7791722 -0.42751846 0.106405534 -0.37507543 -0.0021738424 -0.020548029 -0.7514161 -0.13201177 0.24233069 0.24039768 0.4701141 -0.11724496 0.18225576 -0.29461297 -0.08374472 0.3387127 -0.115737215 -0.83487904 0.060204796 0.2868635 -0.031115996 0.071167536 -0.3693568 0.22689348 -0.42196018 0.43666354 -1.3942183 0.0014038724 -0.6319582 -0.12158962 0.080664165 -0.07718775 0.076264754 -0.11532456 1.1264902 -0.07728049 0.39563003 -0.11845029 -0.27612847 -0.3287562 -0.28961733 0.05868413 -1.3738217 -0.80581814 -0.25496387 -0.047876205 0.27926198 -0.27373195 -0.50071985 0.056086425 0.34063607 0.8129939 -0.34328 0.4602326 0.54895175 0.18816923 -0.6813751 0.006822158 -0.42496946 0.39628473
18957 -0.25148666 0.011617053 0.38871655 -0.0035904278 -0.14428057 0.37935495 -0.03657315 -0.20764509 -0.3612324 0.056659013 -0.58391905 0.017543873 -0.21501769 -0.20147862 -0.26429534 -0.09993026 0.3173266 -0.37881246 0.09921286 -0.0149010215 -0.5305995 0.18094108 0.2732911 -0.56614226 -0.090724096 -0.21259008 0.07224286 0.12050619 -0.1272461 -0.04913973 -0.42097676 0.24698149 0.002098726 -0.42673925 0.5451726 -0.43593132 0.4251887 0.20658179 0.0095258355 0.50496715 0.115037434 -0.25880316 -0.083601296 0.49689817 -0.0103738215 0.6306014 -0.009231433 -0.36295483 -0.261426 0.22766429 0.05704459 -0.28433877 0.038746607 -0.38077992 -0.07269472 -0.08885766 -0.88088423 -0.46812072 0.43080795 0.28139776 -0.019908661 -0.39761534 0.0955103 0.07800358 0.5800601 -0.12283798 0.04244758 0.2110352 0.0914299 0.01635245 0.6138995 0.08425047 0.35715544 0.014959365 -0.71594226 0.0011866766 0.11944765 0.7487317 -0.25576568 -0.5265269 -0.26867303 0.03260448 0.4184558 0.28759077 -0.5272612 -0.5530249 -0.26053885 -0.60797906 -0.7398364 0.04985605 0.18648162 -0.08433232 0.061191786 -0.4323429 -0.912285 0.42629376 -0.9327285 -0.39819628 0.13811514 0.069394454 0.13079749 -0.39603356 0.8036883 0.20587157 0.37639824 0.29925627 -0.052966442 -0.282207 -0.40964586 -0.35870972 -0.5572444 -0.27027148 -0.39884576 0.102380976 0.16360235 -0.05974437 0.1040442 0.29559952 0.12510517 0.073054306 0.058420263 0.1826529 0.1680255 0.046192847 0.18770519 0.29984975 -0.10454508 -0.0114609795
17532 0.8757905 -0.16838826 0.38469023 0.2840388 -0.18089896 -0.12086747 -0.17831364 -0.111620635 -0.109978594 0.19974218 0.06379404 -0.5045994 -0.5991074 -0.060581755 0.26468232 -0.1487459 -0.28706804 -0.09295945 0.28715947 0.36778715 -1.0170145 -0.20898378 -0.43336987 -0.110210784 -0.45729664 -0.25209782 0.90716374 -0.1286068 0.22002967 0.48203018 0.36675078 0.071671456 0.22877114 0.15313765 -0.044761974 -0.4103786 0.17235556 -0.2931507 -0.17203417 0.79239076 0.6120904 -0.28268966 -0.85531956 1.0176672 0.74421567 0.48928759 0.37786794 0.114955656 0.4686157 0.29561418 -0.71466136 -0.7080399 0.44354677 -0.7661162 0.17163832 0.13338 -0.672194 -0.34315974 0.88354576 1.0548066 -0.04319589 0.22021194 1.0898138 0.24460118 -0.11102775 -0.44507793 -0.21102174 -0.34567648 1.1285318 -0.039487597 0.47062787 0.22489442 0.5382024 -0.14409526 -0.08366997 0.61105657 0.94169605 0.030891031 0.30264995 0.15811437 -0.15550683 -0.7205807 -0.53166616 0.583482 -0.17799166 -0.72038937 -0.20843136 -0.05467878 -0.5107492 0.11978504 -0.3215537 -0.4863415 -0.08137646 -0.4469471 -0.92934006 -0.010920134 -0.72871375 0.0592509 0.5610608 0.6872483 0.15290025 0.11527347 0.28160077 0.34748912 0.018072369 -0.113335505 0.56342477 0.22268215 -0.15430488 -0.36079258 -0.075639784 0.27712843 -0.31493193 -0.08461137 0.31145218 0.5919237 0.43435013 0.069789 0.28302312 -0.036512557 0.32571128 0.012867209 0.32784545 0.8893529 0.19158973 -0.3101566 0.18667252 0.57056123
6841 -0.64007765 0.6596835 0.7398004 1.1172723 0.85269684 0.102716714 1.2126466 -0.31938362 -0.041241243 -0.7222759 -0.42855015 0.85482323 0.5221815 0.022299882 0.82141435 1.0108559 0.17072703 -1.6352576 -0.96749604 -0.33860016 0.050410528 0.6149146 -0.922177 -0.18676768 -0.32950276 -0.14855176 0.1288044 -0.38610455 -1.0739582 -0.71347415 -0.22909473 0.06413724 1.5798775 -0.42808777 -0.47554228 0.1704709 1.7411852 0.6927323 -0.9811882 0.34570703 0.036596242 -0.30596238 0.050250616 2.146945 -0.17548127 -0.06967258 0.67379236 0.8267199 0.037590846 -0.57735896 -0.8333999 -1.0810788 -0.16043615 0.3193586 -1.9673713 -0.23786677 0.83982825 -0.7663923 -0.1930591 -0.0009815261 0.27206677 0.46914026 -0.38642126 0.68901426 0.45305336 0.88646424 1.1147726 -0.69946146 1.224017 -1.429622 -0.07071824 -0.27730447 0.6398197 0.041221835 0.30915493 0.823176 0.71425587 0.34497494 0.28407213 -1.160482 -0.7197342 -1.9348601 -0.17467742 0.03109171 -0.5830293 -0.15106955 0.3589612 -0.6276926 0.13709696 0.33136016 -0.29716867 -0.7948163 0.64121646 -0.11125839 -1.8898579 -0.014681085 -0.12285609 -0.5783183 0.4551285 -0.38730407 1.2502794 -0.7711777 -0.046646554 0.6864089 -0.3962407 0.12718928 0.37802708 -0.37757432 -0.4069623 0.45603594 -0.17629994 0.40708438 -0.12243792 0.4159121 -0.97539765 -0.5016623 0.16539736 -0.5255512 -0.61622465 0.25210106 -0.2567891 -1.4358572 -1.0516049 0.03460338 -0.91465145 -0.7872142 -0.33365273 0.21506491
1016 -0.019370912 0.5341473 -0.25744796 0.01936737 -0.029978674 -0.38278186 -0.28528097 0.29680282 -0.47019222 0.25766814 0.43938994 0.16425501 -0.4833439 0.40852913 -0.124817595 -0.1656221 0.6042747 -0.63731444 -0.16775218 0.34354588 -0.83088875 0.89643776 0.2429616 -0.29017523 0.4486993 -0.04866899 0.11267597 -0.5172476 -0.02628863 0.012908737 -0.35561195 -0.21206684 0.22778058 0.0047462443 -0.454062 0.20401935 -0.019827316 -0.35275474 -0.39680845 0.1105492 0.17753853 0.081736736 -0.21062604 0.4063922 0.47303018 0.1270012 -0.08545627 -0.20161533 0.23891795 -0.023102786 0.10813755 -0.0839579 0.30333862 0.4798891 0.048340593 0.27007797 -0.4905319 -0.30824646 0.23319484 0.46391302 -0.46532893 0.400749 0.20604442 0.48548043 0.54843104 -0.27160865 0.031544123 -0.38685137 0.15273824 -0.007257239 -0.0928261 0.045913547 0.94548965 -0.36586064 -0.72730404 0.26067454 0.5631726 0.4999244 0.34489986 -0.17781682 0.43157065 -0.07509929 0.32093036 -0.3377345 0.07878382 -0.47913182 -0.5843216 -0.5889171 -0.218358 -0.46467397 -0.15259835 0.8132124 0.2841834 0.12984665 -0.3813202 0.032897398 -0.26744285 0.23113579 0.044204876 0.2038252 0.071604006 -0.114772536 -0.31488308 0.19225954 0.1611224 0.33045238 -0.5034571 -0.34284166 0.6253474 -0.32648152 -0.6694093 -0.20991318 0.2508213 -0.036981713 -0.38934967 0.3201258 -0.5714538 -0.13390487 0.31756985 0.1302694 -0.12186408 -0.3515727 0.013762163 0.6602414 -0.34871033 0.34046745 0.09775811 -0.22640078
11255 -0.6112788 0.6788715 0.81614 1.1672359 0.90136576 0.028515937 1.2186525 -0.34930435 0.07604404 -0.6545321 -0.39302063 0.8165461 0.5714271 -0.0545949 0.9204027 1.0603102 0.14249326 -1.786551 -0.94899 -0.3176558 0.008477944 0.6481619 -0.90523875 -0.24018255 -0.3200927 -0.16253681 0.11175699 -0.39098507 -1.1673683 -0.81045187 -0.24804398 0.020827558 1.683628 -0.40967998 -0.44924262 0.18714042 1.8493164 0.74591863 -1.0145831 0.2897039 0.012109627 -0.31260288 0.11072743 2.1790702 -0.1153978 -0.07401508 0.7418233 0.81618506 -0.038380932 -0.55107373 -0.919971 -1.0263923 -0.17327982 0.37301478 -1.9142945 -0.25447094 0.8956871 -0.74601924 -0.1523685 0.013196149 0.3118106 0.5442938 -0.42397222 0.6264606 0.4309995 0.86882216 1.1613748 -0.63825727 1.2571716 -1.3916682 -0.17618157 -0.22183052 0.6086269 -0.010755284 0.311583 0.89214087 0.7468272 0.2892276 0.27618548 -1.3001232 -0.72861594 -1.980665 -0.2453552 0.06461683 -0.5515441 -0.14776969 0.40926382 -0.70806134 0.11385782 0.3046641 -0.28905982 -0.81662506 0.6033645 -0.09559645 -1.934417 0.0071266415 -0.17492783 -0.6234909 0.4588488 -0.429423 1.2721058 -0.8422817 -0.030171113 0.65293103 -0.4367782 0.12216382 0.40383133 -0.4470105 -0.3328606 0.4476775 -0.2355911 0.31121337 -0.082265556 0.2823973 -1.0128268 -0.53770113 0.20740528 -0.52799517 -0.60444754 0.3328104 -0.24825196 -1.4835223 -1.1209109 0.054724146 -0.93514425 -0.88926506 -0.41418016 0.28212118
19720 0.26061606 0.21013233 -0.30785987 0.15816815 0.37742347 0.5610924 -0.77614105 0.37622377 0.31480318 0.6447338 -0.5169016 -0.43706444 -0.054514606 -0.20372908 0.80107534 0.38119128 -0.52920234 -0.2497684 0.06818153 -0.06279926 -0.055638853 -0.029205987 -0.7765028 -0.40033555 -0.69770515 0.6527843 -0.0764964 0.5681823 0.5490261 -0.88927686 -1.1944364 -0.1436571 0.383208 0.12896515 -0.1787994 0.71393794 1.1298074 0.278805 -0.90538996 1.0671898 -0.5396231 0.5462597 -0.47646752 0.92137235 -0.053346198 -0.4378968 -0.28105766 0.43128648 0.31480226 1.1236609 -0.09288219 0.11007815 0.055571828 -0.13425879 0.25716844 -0.19582702 -0.32151562 -0.3837257 0.051098228 0.47575992 -0.5868683 0.15890665 0.5187763 0.1926284 0.7452728 0.22927915 0.8638587 0.15137133 0.028665153 -0.53393716 0.44197354 -0.56532377 -0.73012096 -0.023170449 -0.4938246 0.8445352 0.2309588 0.11421731 -0.2947887 -0.76373744 0.0920631 0.1948938 -0.07263225 -0.18612367 -0.18520662 -0.15110685 0.14180239 -0.43227893 0.38420337 0.09807309 0.17899202 -0.22823344 0.04056015 -0.9151391 -0.28752264 -0.08219049 -0.5233778 0.5072327 0.025941297 -0.55963933 -0.5633491 0.15367335 -0.19396451 -0.12635325 0.5395427 0.3728315 -0.16894177 -0.3312757 -0.8673309 0.58976513 -0.4370893 -0.1543297 0.33638722 0.19986752 0.54443485 -0.23417658 0.15064235 -0.25642917 0.44706663 -0.77331203 1.1920936 0.232748 -0.5766005 -0.15663862 -0.24869917 -0.010131101 0.12010978 -0.10076125
14277 0.028658433 0.46376446 -0.23891938 -0.18742849 0.5770974 0.3244092 -0.15599133 0.13024643 -0.33429644 0.2912157 0.139547 0.05170313 0.025380282 -0.019547611 0.07013313 0.22732624 -1.2027723 -0.5895298 -0.07934201 -0.08026053 -0.22399822 0.10729954 -0.29407272 0.4082006 -0.10037206 0.25303435 -0.31683394 -0.11080361 0.33165064 -0.2662672 -0.02574821 0.5752796 -0.003013623 0.26097804 -0.048110187 0.3585873 0.9255066 0.11587819 0.07990552 0.40799916 0.10652486 -0.0058487393 -0.20264076 0.40890917 -0.40654486 -0.05670021 -0.009812939 0.6274006 -0.11863429 0.49399713 -0.53239304 0.15983243 0.13380556 0.0100035155 -0.11697638 0.36562592 -0.40737185 -0.29263124 -0.059987314 0.38882357 0.11056512 0.13264085 0.31159145 0.29744813 0.79830855 0.29643184 0.17842735 0.25401145 -0.01463317 -0.42663237 0.085143015 -0.047979333 -0.6534212 0.08814979 -0.458724 1.2731724 0.5552639 0.001025116 -0.05405887 0.40947083 -0.010925951 0.0747077 -0.020769678 0.3540822 -0.21774729 -0.1522984 0.06798005 -0.55683494 -0.045882683 0.52087814 -0.30854616 -0.18544829 0.35177714 -0.19228804 -0.13498448 0.08886412 -0.22219668 0.42059657 0.47620794 -0.50077444 -0.38479355 0.09746015 -0.011139699 -0.32044095 -0.08045122 -0.43519613 0.18277071 -0.34999767 -0.49834207 0.62830436 -0.47564262 -0.37186986 0.41471604 0.2196446 -0.2331671 -0.5061501 -0.52363783 0.0038422917 0.115680486 -0.4015532 0.71684736 -0.113872305 -0.47731048 -0.4249533 -0.45646274 0.3316652 0.40301174 -0.2917352
15360 0.014528602 -0.15561244 0.03620035 0.42136484 0.20017996 -0.21048824 -0.47606054 -0.70329577 -0.19784121 0.2626844 0.13245153 -0.28047433 0.24233946 0.486737 0.019867659 0.20853747 0.07308148 -0.07805107 -0.6536768 -0.29865345 -0.19249687 0.5097014 0.49878043 -0.22063382 -0.66433775 -0.53147244 0.27560678 0.10031727 -0.49858502 0.8050552 -0.365729 -0.20546156 0.011604732 -0.36651373 -0.21755579 -0.22995819 -0.2106301 -0.29865903 0.025024705 0.6072915 -0.2518917 0.43670702 -0.69681287 0.07093334 0.05292406 -0.2552991 -0.5087358 0.6095616 -0.061388895 0.15884088 0.115729325 -0.22127439 -0.0046201036 -0.18023005 -0.43358225 -0.1463714 0.10532361 -0.5505244 0.27774736 0.60826 -0.021872438 -0.25080174 -0.2917413 -0.018621322 -0.057185713 0.2813419 0.23280774 -0.1445813 0.6563958 -0.611531 -0.11556363 -0.637142 -0.048229057 0.31744602 -0.57411927 0.40015778 -0.032665364 0.8111354 -0.3636251 -0.1347034 0.08154065 -0.64056784 -0.009886288 0.20161845 -0.071108155 0.17308961 -0.52626204 -0.31945625 -0.2836691 -0.5362336 0.2816563 0.29125816 0.06920519 -0.21652572 -0.736745 -0.19932574 0.15397254 -0.1659219 -0.3265836 0.27857247 0.42252028 0.32891682 0.06804183 -0.0629457 -0.18422535 -0.4751131 0.35505852 0.08322484 -0.43856525 -0.24176073 -0.69529307 -0.02993176 0.5644889 -0.07887136 -0.39853284 0.08200108 -0.28650475 -0.31560114 0.6955693 0.08450175 0.48463127 -0.47593388 -0.10084535 -0.13393031 -0.043028336 -0.15806076 -0.3382332 0.035794307
25296 -0.10011708 -0.16829078 -0.06303725 -0.022463877 0.20484903 -0.11318551 -1.0239003 -0.6791036 -0.15733534 -0.100714594 -0.5258987 -0.11099786 0.2968729 0.87345785 0.041722856 0.89589274 0.42772514 0.09741658 0.07878617 0.30295736 -0.29252926 -0.20426157 0.50859886 0.1956725 -1.0708275 0.040537335 0.2216177 -0.653296 -0.72655946 -0.100351125 -0.056641854 -0.6532688 -0.23301864 -0.28331333 -0.5141975 0.115744054 -0.3133915 -0.10114512 0.52151865 0.07805123 -0.096728094 -0.29300627 -0.25869665 0.68860453 0.24882329 0.20154412 -0.5614694 0.17542419 0.55879194 0.6376884 -0.068708844 -0.37126076 0.08695282 -0.12939477 -1.0264232 0.24427703 -0.3747248 -0.11010311 0.21751794 0.5345269 -0.051904548 -0.24235101 -0.003989549 0.2548167 0.04334518 0.3434285 -0.20958897 -0.62870616 0.3092863 -0.95701844 -0.092757985 -0.75000066 -0.31703395 -0.071766526 -0.061546862 0.37720448 1.0138246 0.5825707 -0.38224947 -0.27708215 -0.034189835 -0.3853106 0.50847816 -0.2500697 -0.121836364 0.008247564 -0.0030694199 -0.48642534 -0.7954178 0.030669726 0.18379396 -0.021572895 0.17544018 0.37679636 0.0043641576 0.004592727 -0.46235976 -0.141729 -0.14283381 0.4554624 0.58799744 -0.19341157 0.672088 -0.054326534 -0.9712468 -0.5899933 0.46774444 0.0371258 0.083734855 0.20760193 -0.038304172 -0.554822 0.62834734 -0.49728468 -0.11379018 0.0038337628 -0.3080144 -0.11995011 0.12115604 0.038099047 -0.24399044 -0.18612713 0.025431061 -0.4200425 -0.5538885 0.030536985 -0.23936388 0.088759884
2289 -0.059776522 0.11205261 -0.46106187 -0.1515084 0.5601373 0.4364307 -0.44007248 0.0059087784 -0.14405316 0.23612262 0.05518724 0.15105274 0.12817483 0.12239255 -0.109484434 0.09647929 -1.0522213 -0.2561998 -0.24638431 -0.19817534 -0.20155734 0.061622635 -0.31532818 0.08406654 -0.03730485 0.48259962 -0.0663886 0.024904683 0.15629433 -0.036238357 -0.1571067 0.29841605 0.055081896 0.21153592 -0.04068265 0.7080423 0.98109883 0.05596755 0.2777997 0.48398054 -0.24344681 0.031936582 -0.36006752 0.36380395 -0.5222664 -0.095934816 0.022234831 0.62807375 -0.07797149 0.22898318 -0.16625649 0.2300096 0.1204679 -0.11641863 -0.11382276 0.45032918 -0.33732042 -0.49813816 0.007443047 0.4226866 0.27700248 0.084324345 0.45340613 0.5838172 0.86746985 0.11828969 0.66738194 -0.008453903 -0.1857672 -0.26159024 0.027857061 -0.014251429 -0.41093788 0.4359158 -0.69302136 0.89139825 0.5198616 -0.064293884 -0.002007924 0.23404384 -0.07027116 0.06693826 0.14926183 -0.04853736 -0.25565782 -0.1380126 0.42659092 -0.20525442 -0.020621924 0.49434695 -0.18351233 -0.2021164 0.29794425 -0.47868752 0.115445316 0.286078 -0.3973759 0.3503539 0.4086942 -0.76491195 -0.21512452 -0.15179719 0.34779766 -0.1963529 -0.28190917 0.11568632 -0.008000708 -0.5550588 -0.4440116 0.58739156 -0.40548176 -0.09668088 0.06438247 0.015053829 -0.30394757 -0.4996146 -0.23243092 -0.17043082 -0.09116574 -0.47133315 0.3571831 -0.018328765 -0.3534643 -0.284878 -0.53781646 0.20756076 0.2800288 -0.21323715
2911 -0.2154041 -0.06606044 0.18826522 0.07949749 -0.04383799 0.17968327 0.25080577 0.30408016 -0.31980464 -0.2193024 -0.70596355 0.26940155 -0.27298284 0.19114397 -0.17404595 -0.022888808 0.33613104 -0.5659536 -0.10219974 -0.20583487 -0.4604977 0.12526575 -0.07519694 0.24312843 0.24182174 -0.18419628 0.25615558 -0.26452595 0.056422018 0.1218298 -0.43518537 0.15136555 -0.13440724 -0.07157915 0.14435416 -0.3851258 -0.08473359 -0.046924274 -0.0766592 0.96326256 -0.16982417 0.27394363 -0.25471607 0.20007354 -0.21597923 0.061979786 -0.15989578 -0.21679509 0.1637617 0.21226795 -0.13153711 0.012944879 0.37363285 -0.23054416 -0.12695646 -0.14936297 -0.4828978 -0.29730913 0.48399234 0.23840465 -0.002407993 0.5060166 0.36414963 -0.28820753 0.2565862 0.28122866 0.10579862 0.021735962 0.2795513 0.024485182 0.27781072 0.27940547 -0.02465084 0.121721245 -0.4498442 0.26748234 0.2459895 -0.04992575 -0.17171094 -0.15260439 -0.17010106 -0.062776364 -0.030455407 0.16404814 -0.13776202 -0.59443754 -0.15631714 -0.34566694 -0.23704907 0.2045606 0.39635107 0.22611839 -0.37733284 -0.2802481 -0.5220834 0.38094407 -0.81578916 0.021817913 0.46520376 0.34150058 0.33237144 -0.09101031 0.77194875 0.08183227 -0.031390462 0.004430952 0.0776776 -0.126749 0.010723711 -0.4100109 -0.21993437 0.018473743 -0.21527517 0.15334617 -0.26104736 0.30674472 -0.17525202 0.2749625 0.06557057 0.5512628 0.20266558 0.15531467 -0.00063442596 0.22228822 0.3146444 0.23419435 0.23387596 0.11544491
27972 0.4266475 0.9895737 0.80007017 0.5313186 -0.066491984 0.7804943 -0.48238686 0.060688317 0.09592631 0.05113152 -0.30206335 -0.6337236 -0.09053874 0.7884449 0.28238964 -0.71848786 0.2920507 -1.1779525 0.15439868 0.16836414 -0.5608444 -0.45338246 0.49232706 -0.045343444 0.15447779 -0.6610991 0.9207742 -0.082893655 0.562656 -0.63846385 -1.317726 0.28986186 0.46581626 -1.216199 -0.39653447 0.75915307 1.1544853 0.8214348 -0.103140295 1.5735807 -0.49971524 -0.073239155 0.25977117 0.35820156 -0.70434994 0.108514346 0.26555425 -1.0084094 0.9986506 0.7862471 -0.6809554 -0.99538374 -0.15176299 -0.8591362 -1.4299439 0.46374345 -0.010880863 -0.47170424 -0.9356103 0.3632991 -0.44751844 -1.0176836 0.9880524 2.1754048 0.17090377 -0.023156684 0.7742662 -0.06628228 0.47240007 -0.079403095 -0.5607386 -0.105089284 -0.47219628 -0.15054418 -1.0597401 1.2583972 0.037896894 0.30991906 0.52050465 0.56054634 0.47193313 0.53092635 -0.14933541 0.267832 0.33411142 0.11041051 -0.12133393 -0.37355953 1.5508735 -0.14409085 0.8871169 -0.6291057 0.5416767 -0.30442026 -0.9897115 -0.17196903 -0.90160245 -0.77848804 -0.2707287 -0.6224939 1.3720418 0.38962656 -0.0862759 -0.5029014 0.22382769 0.059364356 0.6618293 -0.42801633 -0.930434 -0.25364208 0.019428566 -1.0031561 0.80316806 1.1365094 -0.49233946 -0.72359467 -0.44325784 -0.42990613 0.86307395 -0.2216928 0.6601667 -0.7252997 0.61315066 -0.08312599 -1.7321614 0.005252707 -1.7375647 -0.26854837
22563 0.105241254 0.7550046 0.1451032 0.077068366 0.2722716 -0.44907147 0.0054626935 0.15698554 -0.12562293 0.5227346 -0.01156711 -0.12261511 0.14049459 0.28308424 -0.46844032 -0.3784449 -0.12764332 -1.0846035 0.4506427 -0.3278223 -0.21401568 0.34879264 0.01863691 0.29435807 -0.28426108 -0.5407595 1.1395179 0.33114213 -0.15171771 -0.013152704 -0.4343041 -0.94405174 -0.67437136 -0.21940781 0.3100387 0.26879588 0.92779493 0.7046932 0.24536303 0.53520006 -0.09873625 -0.7311825 0.33501825 0.2247148 -1.3082316 0.32989633 0.25077125 -0.2576303 -0.5864665 -0.43627703 -0.40894124 0.029618548 -0.40697268 0.0071519557 -0.5535039 0.06456453 -0.57096094 0.68831336 -0.1349245 0.67326 -0.049134526 0.5881672 0.21419686 0.9577428 -0.26219428 0.591343 -0.5441123 -0.5027056 0.24582854 -0.77237564 -0.29477105 -0.38099495 0.17323512 0.2763495 -0.049221136 -0.00084096333 -0.1372808 0.018859195 -0.43784285 -0.036547456 -0.19068885 -0.19010155 0.10805418 0.3236357 0.16569345 -0.42012042 0.5977786 -0.2535355 -0.52454776 -0.31181106 0.09510489 0.18582126 0.65824974 0.41661012 -1.0116653 0.7596578 -0.08138275 -0.051003914 -0.8233537 -0.47101107 -0.120389104 0.13182367 -0.25877902 0.26011863 -0.18186165 0.31984714 -0.03570438 -0.36692238 0.04729075 0.44299287 0.17234457 0.22655872 -0.08339473 0.45402858 -0.20051108 -0.030526703 -0.12600261 -0.22945951 0.014409234 0.11980779 -0.06201029 -0.25387144 -0.43180114 -0.07166781 -0.8318369 0.18821724 0.33367717 0.028328212
6151 -0.2871829 -0.32885543 -0.22870114 0.5775216 -0.10706916 -0.29156 -0.025593339 0.73523 -0.2064252 0.37380064 -0.42232683 0.015277161 0.5499581 -0.21383569 0.30517122 -0.06655565 0.40896532 -1.1767329 -0.19870119 -0.011848263 0.26029956 -0.45798522 -0.49987644 0.02685702 -0.4867818 -0.06143674 0.043785617 -0.058786243 -0.14236015 -0.14017993 -0.303475 -0.26454443 0.028847434 -0.4039826 -0.3776513 0.34297708 1.1679446 -0.0038627428 0.28291997 -0.11598329 0.16439188 -0.44058508 0.08886094 0.07878131 -0.06382049 0.13464017 0.5039057 -0.78442603 -0.16597095 -0.8781446 -0.044521615 -0.09449326 -0.13144676 -0.18326646 -0.322046 0.33849993 0.20691903 -0.7661389 -0.2963106 0.5367922 0.20871866 0.72389144 0.04664957 0.7290912 -0.31850737 0.29441214 -0.40144512 -0.11941111 0.73553836 -0.352754 0.12133515 -0.13741636 -0.3251242 0.20751598 -0.10326433 0.70312524 0.20237546 -0.35548013 -0.5041445 0.11032436 -0.09511817 -0.7881414 0.5068585 0.5688888 0.3394166 0.0022383714 0.7540188 -0.18828565 0.20254721 -0.41609734 -0.43137455 0.106327884 -0.06290254 -0.18590464 -0.3697279 0.35429636 -0.010996173 0.05419255 0.020387968 0.2177051 0.39541885 -0.15128423 0.47932914 0.38959846 -0.12345802 -0.036435626 -0.42460725 -0.19396903 -0.37886065 -0.24065924 -0.16416353 -0.80165875 -0.18958084 0.107944936 -0.074409895 -0.15301013 -0.6672472 -0.35694605 0.25003123 -0.33159417 0.229905 -0.083862044 0.09456009 -0.05538216 -0.27809325 -0.39783943 0.64811283 -0.39322987
