2182 128
35 -0.3811642 0.24917139 0.00046221213 -0.12399295 -0.8930437 0.20058952 0.3802848 0.39559102 0.31011924 -0.6288483 -0.5611994 0.5425536 0.21565036 0.1523245 -0.04622893 -0.42108223 0.58127517 -0.18424386 0.47320417 -0.008547766 -0.19019906 0.4083743 0.43354186 0.30763784 0.6704447 -0.8128563 0.43386754 0.553573 -0.13144203 0.36854777 -0.34621343 0.21326628 0.42974696 -0.51709014 -0.59342766 0.0098865265 0.21959934 0.19807674 0.3235677 -0.44448015 -0.18595561 0.35983625 0.081920855 0.6781347 0.7191832 0.68330824 -0.06542652 0.2067417 -0.0135555295 -0.68516177 -0.23408285 0.31124347 0.48400357 0.046938073 0.086263634 -0.87721926 0.08959442 0.29425037 0.48740646 -0.057406683 0.19032267 0.39444068 -0.10290698 0.2207883 0.08397757 -0.49260718 -0.26708943 -0.5139361 0.5579231 0.013307955 0.1315838 -0.4941891 0.88130176 0.2148552 -0.10637358 0.32717964 -0.12882712 -0.35754588 -0.2506786 -1.0299323 -0.031537414 0.4909285 0.14652638 0.65572244 -0.26696354 -0.6866501 0.061608534 -0.6266603 0.26812094 0.06740942 0.32758856 0.32714036 0.12454793 -0.14160708 0.7313644 -0.09568132 -0.11100602 0.43550467 0.027707592 -0.46317953 0.3022009 -0.3051093 0.14800888 0.24116954 -0.4436742 -0.56538403 0.050682012 -0.49669072 0.56878805 -0.23482257 -0.38666263 0.16911706 -0.19350134 0.37487945 -0.022844946 -0.23039407 0.24773742 -0.052698325 -0.056542344 0.17576474 0.19782469 -0.10839638 -0.7089541 0.6672513 0.3355359 0.18383153 -0.29290736 -0.32494885
724 0.04851466 0.14083543 0.1523974 0.045221675 -0.024544187 -0.0066219354 0.34401435 0.060473412 0.2304837 0.32178554 -0.18979101 -0.08576172 0.5823772 0.3943947 0.21721506 -0.10999212 0.55826545 0.030177075 0.34435073 0.1635352 -0.29180172 0.25466153 0.031863194 0.6774034 -0.120783865 0.28382462 -0.51158327 -0.23877378 -0.32173344 -0.026076866 -0.0011375818 -0.10397431 -0.10202282 -0.28404158 0.009731544 0.57650054 -0.047626413 0.31737378 0.23085523 0.2786182 0.04247544 0.05747073 0.18782422 -0.20383134 0.32218772 0.3404878 -0.36278823 0.42370608 0.03263951 -0.09787399 -0.06608258 -0.10647578 -0.26977718 0.27634376 0.37884653 0.06462073 -0.06626269 0.60211176 -0.18889844 -0.034124997 -0.55876106 0.257046 -0.33786288 -0.13164125 0.32631493 0.11535665 -0.20440821 -0.24213548 0.09525007 -0.19872224 0.15898591 0.13496971 0.004913648 -0.096737586 0.40180343 -0.18927786 0.048063274 -0.0579999 -0.025782118 -0.08223108 -0.16234283 0.113743454 0.11089314 -0.030655738 -0.08427733 0.20286052 0.3692631 -0.45830286 -0.88830936 0.28737232 0.088967755 0.11529995 0.42254123 0.31450805 0.28103638 -6.2621286e-05 0.17534995 -0.020461814 -0.31791687 -0.09047345 0.22550477 0.20846139 0.050713815 0.26334792 0.10453969 -0.20399214 0.426413 0.26515758 -0.023530146 -0.33092 -0.19858266 -0.31539476 -0.23961654 0.038807567 0.08883854 -0.14908278 0.34626013 -0.03887217 -0.15938005 -0.14525984 0.15491979 -0.12401342 0.090194434 0.00956497 0.2470474 -0.021796368 0.3947366 0.12964809
2462 -0.5738632 0.0650613 0.39330468 0.47508892 -0.30098352 -0.21698903 0.24498127 0.06169606 0.23859629 0.099907674 0.22650161 0.32133448 0.065764606 0.046692733 -0.05495353 0.5979257 0.15195648 -0.19993015 0.23220822 0.16082948 -0.054301143 -0.405988 -0.056945108 0.5690117 -0.22548616 -0.36129135 0.048493348 -0.48068914 0.12222422 0.75754005 0.3367552 0.019717576 -0.018594412 0.20210703 -0.08663761 0.41625637 0.06460111 0.18249846 -0.75242615 -0.05474764 -0.167559 -0.26908863 0.47425073 -0.32257915 -0.000404534 0.49219114 -0.07922952 0.22572085 -0.07092221 -0.056192543 -0.019189293 0.17211075 0.2561948 -0.033540245 0.26493326 0.14386953 0.009796114 0.3252808 -0.3319932 -0.54424196 -0.074081786 -0.13005541 -0.4823772 -0.08841715 0.4802437 0.07585633 0.093993485 -0.27856657 -0.087735765 -0.19666629 0.18356735 -0.25209767 -0.24609047 0.099661246 0.42252424 -0.13569568 -0.2412055 0.07204302 -0.5999323 -0.21959208 -0.49228752 0.35561004 0.4751573 -0.17639132 0.316501 0.1307698 0.23646256 0.04241736 -0.5629481 0.29106057 0.55362356 -0.13471724 0.346244 -0.26265407 0.47044948 -0.1314372 0.14207356 0.0072606825 0.1723944 -0.3755407 -0.024591062 0.6175617 0.22212422 0.27827913 -0.33829886 0.033160158 0.7894199 0.5416131 -0.09652767 0.020771073 -0.50258815 -0.2806921 -0.28689697 0.22713079 -0.1553686 0.13058425 0.07148826 0.039112814 -0.5117152 0.2513852 0.05567986 -0.2734491 -0.052309867 0.19268455 -0.41534197 -0.093933344 0.32800302 0.33007243
452 0.50496584 0.37858284 -0.2018192 -0.22389565 -0.42360187 0.5742994 -0.34218386 0.4129389 0.27260566 0.66647446 0.07474037 -0.2323489 -0.7675891 -0.19988862 0.40611517 -0.14723013 0.14282528 -0.31113708 -0.0343817 0.038077597 -0.063924916 -0.18600504 0.1282537 0.38873172 0.16400844 -0.8046475 0.6861195 -0.43462935 0.14586616 0.29471698 0.20413916 0.28219894 -0.20889968 0.12454934 0.81571627 0.7359898 -0.6167351 -0.2025389 -0.7795591 0.041720822 -0.094107665 0.2774247 0.36005363 -0.4768942 0.01684177 0.41379252 0.19138142 -0.024663579 0.07014822 0.37502894 0.59627897 0.49390823 0.35156098 0.35454935 0.14308426 -0.27771583 0.13638262 -0.0141816465 -0.04340507 -0.65301263 -0.19084412 0.0012988499 -0.257673 0.20573953 0.41048655 0.00889151 0.41178825 -0.31544796 -0.37938327 -0.048560448 0.3373784 -0.29110193 -0.27332175 -0.3596944 0.36283386 0.12326545 0.5459699 0.1996341 -0.03518528 -0.096450195 -0.09061741 -0.3272975 0.042656504 -0.7869851 -0.4493584 -0.22786368 0.36360586 -0.3196542 0.15857252 0.22146705 -0.022127023 0.5557937 0.05464538 -0.29213545 0.49890164 0.75956213 -0.22404294 0.43517783 -0.073373936 -0.20678325 -0.004784024 0.12035065 0.38384232 -0.19630106 -0.24981184 0.046240933 -0.055330165 -0.26594794 -0.17296146 -0.65538603 -0.5858559 -0.55657935 -0.1397469 0.18891644 -0.01253199 -0.23046142 0.11469377 -0.22055586 -0.32038188 0.23856527 0.5307443 -0.25203624 0.284871 0.19499654 -0.26269808 0.2799692 0.06518526 0.25186315
2 0.11752291 0.34267884 -0.042494997 -0.113068156 -0.27667987 0.32977703 0.15345876 -0.8980733 0.6278482 -0.7975128 -0.30093545 -0.114164166 0.56298333 -0.33969155 0.09898179 0.2004421 0.59705 0.28391528 -0.3856493 0.6888255 0.04846088 0.08469014 0.38712934 0.68582755 0.23396717 0.14274076 0.27375135 0.48030713 -0.21013165 -0.15451322 -0.11402468 -0.0010863458 0.18972276 0.30722576 -0.36298814 0.13932312 -0.4409402 -0.2063303 -0.35699517 0.1443635 -0.21236265 0.32874843 0.9581469 0.10238972 0.46161753 0.031546567 -0.6927479 0.4252707 0.109965555 -0.12763228 0.5187618 0.14566483 0.41293705 0.9298709 0.2690767 -0.05177919 -0.66461235 -0.53397346 0.2856856 0.05164578 -0.68875253 -0.14176777 -0.09114434 0.10118932 -0.278649 -0.2302871 -0.30848083 0.9536748 -0.0007986312 -0.8289765 -0.11037484 -0.1695505 -0.14242521 0.4939528 0.19106229 -0.27282965 -0.09782143 0.44040453 0.50968146 0.35086372 0.1015104 0.2586407 0.39577892 -0.8064402 -0.29849938 -0.65694135 0.86904204 -0.27996376 -0.108183876 0.23730417 0.34911457 -0.15374091 0.21137676 0.18594451 0.21522176 -0.7736318 -0.11304749 -0.26159704 -0.39191434 -0.31861225 -0.2063812 0.32239714 0.23611253 -0.30677146 -0.16086167 0.017073527 -0.2615093 0.17934398 0.5264121 0.3691143 -0.45018896 0.93437904 0.69108313 0.2357241 0.7523473 -0.2423239 -0.6205066 -0.36007595 0.03400197 -0.036073156 0.21292454 -0.13683842 -0.28492525 0.064730346 0.23319921 0.16049752 -0.16298246 -0.123372056
5731 -0.52311534 -0.14171313 0.64644855 0.33327836 -0.1775696 0.06597812 0.08588284 -0.11622233 0.4236121 0.3576639 0.20567891 0.28732526 -0.3223071 -0.08484549 0.1553318 0.35479808 0.062342305 -0.21048634 0.3131695 0.34258482 0.10762767 -0.51428545 -0.2562774 0.654165 -0.3473589 -0.5314408 0.1772604 -0.64574176 -0.14222826 0.6581132 0.7500037 0.14941329 -0.04725632 -0.008662134 -0.08183889 0.47514167 0.021763727 0.13241419 -0.6750455 -0.2034469 -0.28022945 -0.050354507 0.3994521 -0.19131169 0.20905231 0.4786545 -0.11080635 0.16297735 -0.040991884 -0.12092655 0.08964179 0.19661115 0.17694499 0.028823724 0.15396807 0.06666724 0.30575284 0.44498128 -0.5490178 -0.55186373 -0.020422813 -0.16098715 -0.41456342 -0.04116725 0.51438135 0.12988698 0.029293232 -0.2905181 0.0560016 -0.13014497 0.12221033 0.020779727 -0.13696854 0.024484413 0.46120334 -0.096357144 -0.40186676 -0.07955462 -0.59786034 -0.30053508 -0.67140293 0.29386964 0.45779228 -0.22852805 0.016266603 0.27561185 0.22177497 0.3621624 -0.4783075 0.6443527 0.6126713 -0.18696044 0.55835325 -0.5129936 0.4085083 -0.09730982 0.1582424 0.073111445 0.011824847 -0.48925778 0.023534972 0.49688813 0.0941744 0.24305847 -0.5152443 -0.15361303 0.67018336 0.18510965 -0.01206765 -0.071498886 -0.6683614 -0.10193817 -0.03674461 0.040207025 -0.07324615 0.3485757 0.12391328 0.3312703 -0.41901398 0.35852227 -0.00090880285 -0.22180308 -0.13862713 0.15903598 -0.34589902 -0.13270353 0.40117532 0.14111212
1465 -0.060242735 0.067105 0.1876702 0.19917996 0.04869083 -0.2195813 0.14965571 -0.3064109 -0.048376083 -0.6429999 -0.25124744 -0.1290608 -0.006265063 -0.54585785 -0.103241354 0.11827589 0.5377526 -0.12123031 0.0016842933 -0.18756479 0.4903884 -0.21324436 0.36524427 0.178843 0.4208559 -0.4559691 0.15656766 0.3763134 -0.35571277 -0.10964097 0.488622 0.19688281 0.10447684 -0.05240561 0.32849553 0.089422815 -0.47483608 1.1916605 -0.019534461 0.07394881 0.042381287 -0.09824082 0.36228663 0.49664274 0.32118988 -0.21326292 0.23757464 0.22219834 0.22579719 -0.122669645 -0.059427332 0.11730907 0.11126163 0.15602241 0.115567796 -0.29741418 -0.06339004 -0.39750645 -0.7474876 -0.14836185 0.025703479 0.238172 0.5091649 -0.09956608 -0.22913328 -0.47482145 -0.15759158 0.16315103 0.0700395 -0.24493696 0.08622555 -0.23034507 0.31062222 0.39226085 0.30089897 -0.36894774 -0.44837433 0.05401303 0.28148934 -0.3163808 0.29121858 0.46130165 0.3767717 -0.107948564 0.034826063 -0.06923983 0.50059867 -0.3397414 -0.08237786 0.33774066 0.46275914 0.41491857 0.26126358 0.26008812 -0.062762365 0.44654253 0.21814853 0.12275977 -0.09042452 -0.36583412 0.40503132 0.5308558 0.2470978 0.5245333 0.03760727 0.2624391 -0.25906992 -0.06756988 0.33691826 -0.10561849 -0.4545929 0.2875301 0.27846062 -0.5158846 0.09072671 -0.41555393 -0.27960184 -0.32492396 0.2196967 -0.37790048 0.3192474 -0.23615696 -0.38161746 0.29825416 0.21807066 0.22906195 -0.17121087 0.13528994
8349 0.23206872 -0.071540326 0.79940426 0.12004288 -0.1418966 0.27265182 -0.34658876 -0.11797975 0.080426194 0.47777596 -0.31934616 -0.19094335 -0.6666155 0.53672564 0.5648259 -0.025494525 0.23131567 -0.48595944 -0.03557381 -0.13312913 -0.17495723 -0.2922154 -0.5133019 0.87572384 0.19385424 -0.56005096 0.5224806 -0.62821245 -0.17165256 0.8069097 0.88177675 0.4123232 -0.016889464 -0.0706441 0.5982346 0.3916511 -0.29931426 -0.33074686 -0.43169913 -0.34431177 -0.4449451 0.38000315 0.37074968 -0.045221344 0.18606907 0.41748473 -0.042296704 0.04936186 0.19125426 0.3435715 0.235644 0.33748457 0.7818327 0.07739436 0.3191663 0.14315791 0.28312567 0.04989131 -0.13005926 -0.41120654 -0.053806454 -0.064880975 -0.379301 -0.3078604 0.7163832 0.061591256 -0.20028234 -0.6556633 -0.24924085 0.20316176 0.39573365 0.00319912 -0.21393315 -0.07249958 0.4091625 0.0677167 -0.23756766 0.14061412 -0.055524945 -0.12319022 -0.26804656 0.014465572 -0.35662404 -0.6671459 0.14028427 0.09706178 0.31861353 -0.07414826 -0.030082602 0.4859965 0.4008272 0.29265144 0.3203234 -0.5355695 0.106684975 0.356871 -0.15537797 0.4439021 0.03316397 0.026850982 -0.16283682 0.35945085 0.028698059 0.23478363 -0.5805183 0.051064137 0.25616986 -0.35113713 -0.21360613 -0.49135816 0.13844906 -0.019277904 0.07893449 -0.19905037 0.049609672 -0.0611566 0.12694831 -0.18443237 -0.36250907 0.3645273 0.6387674 -0.09566458 0.2938517 0.12730251 0.05808273 0.123699166 0.6346116 0.018741664
491 -0.2884691 -0.17062671 0.42500257 0.41331688 -0.26673606 -0.085309595 0.7900778 0.027438847 -0.20885998 0.29441878 -0.44780183 -0.24439673 -0.05604859 0.21017364 -0.0039587403 0.2591444 -0.4653104 -0.32186717 0.1500612 0.35373688 -0.21293499 -0.299575 0.1003644 0.9194344 -0.6563853 -0.2149923 0.20822959 -0.6471739 0.01848093 0.7895959 0.1427826 0.07602313 0.17568998 0.10462788 0.45354012 0.37477124 -0.0070351027 -0.012692221 -0.40910396 -0.42690238 0.02003927 -0.11561491 0.5324758 -0.24722232 0.27999488 0.34380168 0.06739062 -0.21045236 -0.019937547 0.12057662 0.029948309 0.06914071 0.13770337 0.10592762 0.07274518 0.21852344 0.11571319 0.29685014 -0.22216457 -0.7329519 -0.20716482 -0.07000389 -0.24753205 0.01806903 0.545337 -0.031153178 -0.18969113 -0.06183141 -0.083815776 -0.18627048 0.17717557 0.0023389424 -0.39772382 0.043871235 0.37067842 -0.05920963 -0.22218461 0.14648849 -0.18036813 -0.30975047 -0.15191591 -0.09807042 0.48785368 -0.15678072 0.4225243 0.17984842 0.32998356 0.32428575 -0.503274 0.55397445 0.78507835 -0.006747807 0.865984 -0.12991025 0.3838246 0.122286774 0.13902111 0.44553345 0.26214084 -0.38010427 0.023822566 0.56166404 0.42448497 0.082624115 -0.54219705 0.0975772 0.4417249 0.34780493 -0.17650366 -0.10451305 -0.24509484 -0.5631305 0.22935715 0.5220258 -0.26932994 -0.29894125 0.13898367 0.0058374624 -0.810578 0.3215224 -0.16360849 -0.020295177 -0.2596014 0.48987854 -0.43177515 0.1276227 0.21722025 0.39611134
1565 -0.031819697 0.36924323 0.25991133 0.52552766 0.24378596 -0.6046292 0.24667726 -0.37876493 0.15108888 -0.52331984 0.09867295 -0.018788854 -0.17174487 -0.8200722 0.25358224 0.44035125 0.96015465 0.24858901 -0.20694482 -0.17637682 0.16104169 -0.11011076 0.7710865 0.2632605 0.6711926 -0.71385884 0.5736225 0.2726696 -0.452921 -0.11232254 0.72310954 0.2872293 0.087991305 -0.04947896 0.48559123 0.2229833 -0.7222605 1.1619864 -0.28353417 -0.17549051 0.23956926 -0.15945669 0.42234853 0.53383553 0.28839126 -0.17942159 0.31485105 0.23174056 0.113045245 -0.15664603 0.026151353 -0.05877695 0.027756952 0.07737971 0.10927019 -0.8236421 -0.2167984 -0.14705148 -0.6288905 0.24230558 0.21462443 0.25114855 0.5673046 0.22136228 -0.41191795 -0.60024875 0.020730453 0.17040518 0.06344102 0.06603387 0.37348664 -0.26778874 0.09494323 0.6119653 0.46444327 -0.4629421 -0.4630196 0.084879875 0.3878988 -0.19565277 0.17441173 0.6273048 0.40849525 -0.27141413 -0.09597255 0.1489147 0.6337534 -0.22757232 0.00966421 0.2625379 0.4724845 0.3757609 0.52322495 0.30830538 0.20556578 0.33412287 0.00020715593 0.0012251555 -0.0079495 -0.5092313 0.833263 0.5960521 0.24334423 0.6735507 -0.1432828 -0.012092358 -0.31244582 -0.2035053 -0.024326548 -0.29325965 -0.4549437 0.2921795 0.32352364 -0.81463975 0.11877895 -0.26906186 -0.22805543 -0.21570435 0.18314555 -0.29748234 0.17673402 -0.06671536 -0.4386974 0.23775344 0.2780824 0.0810061 -0.25105977 0.19319396
1788 0.040041238 -0.005030542 0.37135822 0.30985454 -0.76203376 -0.24755497 0.6892321 0.30270523 -1.1834705 -0.5935104 -0.058453303 0.34806502 -0.29847974 -0.28889263 -0.05121799 -0.042991564 -0.32803684 0.37729567 0.0613681 -0.19701354 -0.95840794 -0.88546526 1.0650415 0.59949076 0.2245632 -0.716059 0.53087366 0.025027474 -0.57752764 -0.04932386 1.146815 0.56293863 0.3796359 0.004676161 0.24942042 -0.7633977 1.0163667 0.8795264 -0.5565345 0.30450696 -0.4334917 0.2733917 1.1413338 0.8145236 1.446452 -0.26454192 0.36717236 1.5670505 0.24966511 0.1928542 0.09938833 -0.71417385 0.028906813 -1.2660089 0.73949903 0.73831314 -0.04837511 0.26236984 -0.31992632 -0.38590527 0.12847412 -0.021650203 -0.31759492 0.24764277 -0.2798195 0.09982942 -0.43166754 0.33352304 -0.0024994696 0.52564895 1.1072385 -0.7945892 -0.15149765 -0.7966084 0.12596247 -0.20549415 -0.50123423 0.42593223 -0.27692133 0.11195363 -0.0038518722 -0.32640794 1.1140918 -1.0181905 0.6811734 -0.5736726 0.19654074 -0.5930413 -0.6753167 0.05294407 0.3691267 1.2659605 -0.22302598 0.41066825 0.6265553 -0.2610984 -0.0033182425 -0.5085125 0.27795208 -0.42135495 -0.014167983 -0.38238183 -0.9147342 -0.19611093 -0.22075813 -0.5813872 0.3326417 -0.37258193 0.89861864 -0.57146686 -0.67791593 -0.081544854 0.34039375 0.3256126 1.2314531 0.60707814 0.13273601 -0.3249574 1.5307579 0.9566319 0.18341039 -0.04000652 0.7428847 0.9267688 0.5371347 0.4063204 0.07002355 0.0906935
50114 0.024848506 -0.099879265 0.2250813 0.25426716 -0.7058971 -0.2719255 0.67206395 0.33400822 -1.2254215 -0.6529016 -0.07662194 0.43630975 -0.22997954 -0.36749342 -0.057729293 0.0054718195 -0.3544606 0.41065496 0.13138215 -0.28265134 -0.9731799 -0.8911879 1.1482211 0.7413086 0.18357666 -0.7996391 0.48062086 -0.033521015 -0.5338322 -0.059920307 1.2103113 0.5507567 0.3102406 -0.029520648 0.29613543 -0.81693196 0.94621974 0.8242808 -0.60223323 0.3025789 -0.41376707 0.27314875 1.1804626 0.8842871 1.4946635 -0.30734307 0.3736919 1.6402707 0.23366266 0.18541156 0.063588314 -0.6009713 0.06872592 -1.2932314 0.8259 0.77006537 -0.028999286 0.27733472 -0.38867164 -0.3691963 0.12814043 0.012612523 -0.29408708 0.26328677 -0.3049625 0.00532477 -0.45912194 0.32008344 -0.012542836 0.482606 1.0705494 -0.8650826 -0.016503911 -0.76013523 0.09386564 -0.2096133 -0.53722304 0.46219248 -0.28236035 0.036105786 0.052500736 -0.32506192 1.0877934 -1.1325058 0.67443943 -0.5852458 0.12798929 -0.6294713 -0.6705851 0.08202667 0.31984377 1.2796582 -0.22504893 0.397811 0.6267519 -0.32978502 0.037281327 -0.59390104 0.27362418 -0.4245154 -0.074233726 -0.42826283 -0.92949903 -0.25219065 -0.20498595 -0.6224832 0.2844519 -0.3742434 0.9180588 -0.5118795 -0.6788352 -0.13968825 0.30782875 0.3783101 1.3182228 0.6626851 0.14905004 -0.3819376 1.5885102 0.8839743 0.1776523 0.00746914 0.74973154 1.0142969 0.4926892 0.42536893 0.09058817 0.051097505
4473 -0.16581433 0.10154797 -0.20719047 0.10089135 -0.3011076 0.271867 -0.2934642 -0.101097874 -0.27795097 0.057812616 -0.27277058 0.17927685 0.26967406 -0.0636112 0.73931754 -0.22049397 0.56544584 -0.2754825 0.056810018 -0.10153019 -0.62323326 -0.2390893 0.41444016 0.9233057 0.006919344 -0.2566 0.3113775 -0.61004084 0.16376491 0.57294965 0.65672505 0.4246142 0.25414482 -0.12973875 0.7229364 0.18069072 -0.09064902 0.23934677 -0.24943432 0.06893896 0.010015908 0.12570761 -0.47802612 -0.342826 0.3972169 0.49465927 -0.49621204 0.025232961 -0.41088116 0.30055794 -0.11032889 0.0027939589 0.10991907 0.5681415 0.19538312 -0.2054382 -0.33385083 0.019090185 -0.10076447 -0.18603428 -0.0032209605 0.12205516 -0.48427692 -0.16633631 0.015817765 -0.30372655 0.18672255 -0.43925577 0.22977738 0.36568487 0.16451575 -0.4475991 0.068123445 0.19537292 -0.3144772 0.24707976 0.03619579 0.15518446 0.3854309 0.36438397 -0.04875617 0.08626368 0.29644555 0.15865348 -0.082570225 0.4959093 0.39654592 -0.012012436 -0.42711946 0.20202178 -0.005904196 0.36472583 -0.16476707 0.13228452 0.66580087 -0.06589909 0.33126298 0.15385218 -0.05757533 -0.19240364 0.11553079 0.13263318 0.035241365 -0.11493603 0.3308288 0.09585925 0.55724347 -0.12925066 -0.1136243 -0.30440488 0.025360636 -0.14670227 0.18552071 -0.3784041 0.26137736 0.36012152 -0.3010924 -0.59885734 0.01100973 -0.03600957 0.16661884 0.19644341 -0.017513156 -0.11798456 0.030421287 -0.10948991 -0.006710573 -0.4493708
3153 -0.044515695 -0.26332256 0.027319873 0.3727044 -0.22442602 -0.1192881 0.20876557 -0.21961403 0.13352251 0.91474724 -0.10537676 0.020297887 -0.15040933 -0.415867 -0.09597649 -0.008710764 0.024791392 0.16736914 0.45168045 0.024837507 -0.027389688 0.12167554 0.14784136 0.7205798 0.4723863 -0.15720074 -0.30016926 -0.3612913 -0.49274734 0.39431572 -0.19708794 -0.13970998 -0.1987798 -0.16936907 0.10570677 -0.10713607 -0.09482046 0.31371084 -0.52710867 0.27707207 0.023893025 0.17280301 -0.13955982 -0.21553177 0.48447135 0.3375206 -0.19282752 0.70740056 0.3802977 -0.18676718 -0.24772869 -0.059999093 0.0040370235 0.3176975 0.34326267 -0.0054552644 0.2239151 0.5148192 -0.1032917 -0.8867787 0.1840535 0.46599793 -0.13092421 -0.03814091 0.021857493 -0.04155636 0.27946234 0.3167061 -0.29969668 0.2460148 0.010212257 -0.21026772 0.30894396 0.13032268 0.09727867 -0.42237967 -0.26992285 0.02213323 -0.13502836 -0.070778355 -0.4419112 0.23962568 0.20476247 -0.45534518 0.14052418 0.08407126 0.3304599 0.19078273 -0.26527447 0.18358473 0.45052546 -0.034883123 0.09106343 -0.22640163 -0.020573251 0.018817741 0.13411246 -0.4292492 0.33186412 -0.44790915 -0.06370295 -0.09102013 0.06434774 0.055730354 -0.28493744 0.21035221 0.806116 0.091705546 0.03217117 -0.31931558 -0.34248322 0.535059 -0.013838197 -0.04102189 -0.21252204 -0.01932324 0.011354667 -0.0024874548 -0.52751786 -0.16899544 0.29386207 -0.11622169 0.0026465247 0.5210736 -0.29460818 0.09702098 -0.002874737 0.50743794
1897 0.033348683 0.38374498 0.39051136 0.4270201 0.24289083 -0.583557 0.4493066 -0.3181612 0.054435782 -0.594133 -0.004167403 -0.03091652 -0.20628086 -0.9064061 0.15550481 0.39691523 1.0450562 0.05727041 -0.0778985 -0.14149944 0.20985977 -0.16556272 0.5973778 0.2870181 0.6686557 -0.54740757 0.62721914 0.39751086 -0.4122277 0.020474628 0.56837595 0.40314716 0.012915426 -0.055583045 0.36052766 0.12352225 -0.7417207 1.0423608 -0.22288142 -0.17871241 0.05445165 -0.28085315 0.3792437 0.6650945 0.23323132 -0.21192025 0.17642792 0.30018628 0.13715038 -0.29835373 0.08425614 0.08610281 0.046795983 -0.123399064 0.11903273 -0.63983315 -0.063354656 -0.28426883 -0.7575169 0.2123481 0.18831904 0.049082667 0.67011607 0.1719942 -0.2782115 -0.47288436 -0.049292684 0.2514689 0.17957798 -0.12299626 0.36032176 -0.18844832 0.1915654 0.7057497 0.5589398 -0.36291862 -0.52577364 0.17018157 0.24074395 -0.30740303 0.07906139 0.89810646 0.62196445 -0.17213437 -0.24569958 0.1167341 0.82692885 -0.28882858 -0.00051787286 0.26869357 0.623785 0.57155937 0.5326161 0.32318094 0.23051113 0.44071287 0.17753793 -0.010955364 0.02133229 -0.61196196 0.79752445 0.54060113 0.32282203 0.5802319 -0.08768997 -0.080121145 -0.39411452 -0.32360837 0.020769484 -0.290474 -0.5430721 0.31725875 0.33748838 -0.72753847 0.014280652 -0.17346594 -0.1464182 -0.28540447 0.14558184 -0.516192 -0.0333233 -0.061365023 -0.4928401 0.06185115 0.07970349 0.13899462 -0.2830445 0.0076442994
1615 -0.31644267 -0.0013066714 0.13166362 0.41826546 -0.3728779 0.04814866 0.041454237 0.18050933 0.069457486 -0.11026523 -0.5426874 0.044752225 -0.1244856 -0.2675141 0.43562996 -0.36312094 0.9632295 -0.83311087 -0.074911915 -0.47420037 -0.74278957 -0.47065368 -0.10384321 0.844018 0.18300475 -0.4291443 0.21140157 -0.722732 0.04288223 0.37801588 0.9164639 0.375242 0.35958955 -0.1745532 0.908156 0.22363093 -0.18324272 0.2814339 -0.28885943 0.113735735 -0.06507028 -0.059043176 -0.44265422 -0.8001014 0.5549233 -0.025759414 -0.71140486 0.069150954 0.25637767 0.4591189 0.32047874 0.52306664 0.08263666 0.90069973 0.046192635 0.2677447 -0.012496808 0.045380637 -0.46997273 -0.29682696 -0.028321642 0.5311526 -0.46704406 -0.23515591 0.5058498 0.014127021 0.021683082 -0.11547649 0.6649491 0.19941157 0.274733 -0.07802276 -0.00059764826 0.27781188 -0.019184284 0.29097193 0.06613122 -0.28651613 -0.28438964 -0.119915225 -0.046705376 -0.080432124 0.05706013 -0.10408932 -0.4915052 0.19401799 0.28088948 -0.25808275 0.14610946 0.22886574 0.060372848 0.44471636 -0.37884396 0.0016032304 0.60846204 0.164784 0.53244203 -0.05561435 -0.10319788 -0.2678916 -0.07715815 -0.16355865 -0.014109216 -0.09386231 0.5483293 -0.066995405 0.74240774 -0.060544316 0.05622326 -0.35986462 -0.39150986 0.18654329 0.19874913 -0.17940798 -0.17457958 0.3778988 -0.16264386 -0.75490254 0.080525346 0.043280106 -0.5450383 0.06351726 0.33494535 -0.33647034 0.16281994 -0.04587648 0.2456492 -0.4864341
13620 0.39626795 0.2906481 -0.15915126 0.31196436 -0.30662507 -0.25525892 0.5335093 0.34184468 -0.37240544 0.3982099 0.08235737 0.6625769 0.2950149 -0.39809665 0.016692644 -0.62553746 0.14215982 -0.23281217 -0.00076065963 -0.637415 -0.009423382 0.050302323 -0.47570798 0.39372474 -0.3556912 -1.034382 0.042563494 -0.722594 -0.19981842 0.7609229 -0.10540649 0.24535455 -0.14554293 0.10885904 -0.071635805 0.11490798 -0.28567925 0.31668672 -0.027022189 -0.15200222 0.009810988 0.4810573 0.031785805 -0.13319324 0.39956468 -0.031236464 -1.2390636 0.43416446 -0.036787704 0.62583697 0.5126702 0.86968815 0.29741505 0.12144103 0.9507798 -0.55617684 0.038307067 -0.62647617 -0.4998296 -0.5975438 -0.14418942 -0.10311456 -0.55024207 0.541072 0.31033194 0.32516044 0.38412473 -0.06237495 -0.25579196 0.23239678 1.0426064 0.11873651 -0.07812034 -0.31536296 0.17406777 -0.13253076 0.12843041 0.10005135 0.16601159 -0.3917354 0.39591128 0.30570635 0.16934964 -0.5407517 -0.4669433 0.115571044 0.62645745 0.16600163 -0.2956889 0.3802223 -0.49441957 0.65519583 0.18215044 0.4360044 0.62425935 0.60467476 0.55064243 0.19678503 -0.121582344 -0.396606 -0.38680735 -0.023865605 -0.2906068 -0.16748244 0.06578962 -0.40678 -0.3987961 0.07498318 0.06516627 -0.25565565 0.2577289 -0.37532908 -0.14066595 -0.012122014 0.072214045 -0.07726527 0.16309127 -0.56613857 -0.42719755 -0.16697384 0.23145981 -0.017173095 -0.15336868 -0.34457764 -0.005733387 -0.5360636 -0.43089223 -0.14592096
82920 -0.44649845 0.31024033 0.08387252 0.0034365745 -1.1889948 0.38500592 0.36616796 0.52724355 0.37960887 -0.9834503 -0.48598537 0.8358224 0.39853144 0.29261014 0.11904552 -0.61551356 0.6020195 -0.21250318 0.2233498 -0.25751495 0.06319423 0.60813874 0.4603956 0.28563565 0.5758579 -0.83011055 0.32226238 0.6155842 -0.1845498 0.3551497 -0.38995883 0.07519496 0.312608 -0.25778577 -0.51081675 0.07201501 0.43951052 0.15978993 0.3245206 -0.6040144 -0.028817946 0.34459788 -0.138436 1.1281859 0.7344765 0.83810604 -0.15441972 0.30886132 0.08557723 -1.0153607 -0.28414607 0.45319614 0.53893495 -0.1985721 -0.04517534 -0.77557886 0.21099891 0.2624342 0.3491516 -0.06922009 -0.10042856 0.26355496 -0.087822974 0.5661556 -0.09134327 -0.40323532 -0.31241474 -0.74750775 0.7448816 -0.2627131 0.15458243 -0.51496613 1.1012197 0.51580757 -0.33202717 0.4091206 -0.4660437 -0.35905296 -0.3900125 -0.98391324 -0.040909708 0.34535417 0.25240335 0.5029146 -0.22711442 -0.5209036 0.38274136 -0.38200602 0.25773647 0.23660064 0.32927874 0.4999885 -0.0019307273 -0.13363893 0.86154926 -0.32576385 -0.18513016 0.08834337 0.08670526 -0.6274128 0.40149722 -0.20901804 0.40365595 0.27149668 -0.3007948 -0.26501513 -0.10709604 -0.5476488 0.62889606 -0.31321365 -0.46388802 0.17037998 -0.20094983 0.32366857 -0.14674406 -0.120475926 0.52053165 -0.19543558 0.15007374 0.18213056 0.3101456 -0.2051688 -0.6878853 0.84694064 0.7118093 0.3363667 -0.2912846 -0.17460746
210872 -0.26621374 0.30657834 -0.01735214 0.05584499 -0.980822 0.24959205 0.2961162 0.6198522 0.34502578 -0.761858 -0.644376 0.52049345 0.20910813 0.101207465 -0.018074343 -0.37493217 0.5415966 -0.12038841 0.36972976 -0.13378614 0.0135581 0.41022253 0.3695337 0.38502234 0.7147042 -0.8845252 0.38893762 0.5842773 -0.11646516 0.48950493 -0.45886925 0.20600146 0.46080256 -0.43288282 -0.49581835 0.1673848 0.38467735 0.17858523 0.21155228 -0.4327931 -0.18771854 0.22917765 0.06568935 0.7826029 0.7944163 0.6887274 -0.09789914 0.19800407 -0.09785393 -0.76280254 -0.26735544 0.3488555 0.45574915 -0.012512154 0.115439355 -0.844366 0.045452114 0.22854775 0.530216 -0.023359653 0.17648801 0.42899325 -0.15720735 0.21110259 0.11892049 -0.4801353 -0.3044536 -0.6136283 0.6039112 0.18984936 0.16618635 -0.38521484 0.86175185 0.37137136 -0.13397509 0.3913472 -0.20241125 -0.27417457 -0.055500522 -1.0035113 -0.07564656 0.39743903 0.09190103 0.6343684 -0.20025285 -0.49726483 0.050600592 -0.52970654 0.2531365 0.03224198 0.31108326 0.32564336 0.14491378 -0.20603165 0.6969178 -0.083708756 -0.14585201 0.30457643 -0.004387517 -0.47882187 0.3316285 -0.24981333 0.07197807 0.35989395 -0.56375706 -0.60759884 0.09560792 -0.3088849 0.62668455 -0.31189305 -0.24039645 0.17528392 -0.27745646 0.29003444 -0.0539531 -0.2889262 0.09596297 -0.20029984 -0.0052080415 0.23982313 0.12759355 -0.19986147 -0.74882597 0.7678764 0.41520557 0.2517251 -0.24871722 -0.10815396
887 -0.29915157 0.21781693 0.2586166 0.049758606 -0.7765568 0.06437121 0.16964936 0.2817782 0.40098608 -0.60708916 -0.72739965 0.43909746 0.5094198 -0.010755602 0.0952347 -0.32262957 0.63842165 -0.40129897 0.35914242 0.027542783 0.08963435 0.3857472 0.47826102 0.1484353 0.3093194 -0.8633067 0.29054356 0.5131678 0.083249316 0.2844257 -0.14653301 0.4126228 0.40332758 -0.58929896 -0.65857273 0.16555448 0.21239018 -0.062047925 0.2984262 -0.4307634 -0.0046379524 0.11733124 0.11170696 0.855502 0.70110947 0.23211396 -0.17086478 0.2760341 0.082609944 -0.5826126 -0.21375164 0.49134588 0.5262422 0.22884806 0.10567684 -0.46943372 0.28942257 0.38904846 0.774421 -0.18303972 0.23420277 0.3318583 0.15779431 0.14417347 0.13630164 -0.56263787 -0.25819877 -0.07187857 0.6786705 0.26575792 0.10398659 -0.113105066 0.69058007 0.20910381 -0.16409667 0.43127376 -0.1549077 -0.5534723 -0.19043277 -0.6757928 0.090827376 0.34651592 0.4796801 0.5782635 -0.10024506 -0.3659019 0.25914747 -0.48218492 0.2908178 0.20814237 0.30618292 0.25214958 0.18322921 -0.25189897 0.77000356 0.0036939143 0.121727064 0.25856295 0.00018028019 -0.38576236 -0.0002818331 -0.40918866 -0.05069524 0.09299016 -0.10327869 -0.42828056 -0.024864731 -0.55833554 0.57166475 -0.2544081 -0.09814136 0.06828998 -0.06351372 0.022658266 -0.05936637 -0.27894115 -0.0037767575 -0.012320438 0.0687563 0.1572213 0.040515862 0.27750245 -0.30570084 0.9304168 0.19787407 0.27204677 -0.17307255 -0.19956718
4584 -0.41938654 -0.18211718 0.7717761 -0.412227 -0.46397054 -0.3720924 -0.35065904 0.06355115 0.80297196 -0.85169387 -0.32724032 1.021264 0.28219593 0.21573097 0.3143958 -0.40150732 0.2970255 -0.75942487 -0.09966062 -0.087340064 -0.33422154 0.67014325 0.31200972 0.31605935 -0.24457362 -0.96515834 0.19225217 0.66739386 0.09741605 0.38376665 -0.023244647 -0.14579678 0.6767474 -0.34780338 -0.53860617 -0.003564925 -0.18819518 0.2774723 0.1892854 -0.6347388 0.18287612 0.49324095 0.2057243 1.2071003 0.3693167 -0.0681699 0.16790345 0.24986273 0.057960197 -0.51325065 -0.8386397 -0.0321657 0.040118657 0.24001692 0.5004949 0.12359883 -0.19732285 0.5968206 0.67458 -0.33474198 -0.097746685 0.42491248 0.3287802 -0.36025167 0.16655247 -0.45423907 0.025819045 -0.26759842 0.7073113 -0.39277634 0.30947417 -0.20526563 0.9003157 0.22007756 -0.16429341 0.85651594 -0.28701064 -0.58283675 -0.17270133 -0.41437793 0.13097107 0.30937594 0.4643167 -0.0815484 0.118129395 -0.11548061 0.35101497 -0.31397754 0.09671129 0.03189436 0.46374908 0.26968545 0.21639436 -0.44756794 0.7011046 -0.12933402 0.23920445 0.6037903 0.25151172 -0.8468838 0.012709732 0.07152603 0.030268611 -0.3069966 0.4090697 -0.18781373 0.21595094 -0.6034277 -0.14270411 -0.20453045 -0.0032500438 -0.17048968 0.43334043 -0.20171583 -0.38759446 -0.23294367 0.09777355 0.06043649 0.3341246 -0.039303377 0.39461142 0.38776138 0.023476245 0.4134871 0.7351722 0.13348246 -0.42512155 -0.2675754
6213 -0.22686034 -0.4472455 0.30358863 -0.25871 -0.39808694 0.08572195 -0.11391673 0.15295589 0.57970417 -0.58562297 -0.561926 0.61582804 0.37447858 -0.008814449 -0.17889135 -0.52890956 0.30752483 -0.4501841 0.38340852 -0.12029011 -0.02761474 0.2330742 -0.28270864 0.32452944 0.12867044 -0.9142204 0.29673237 0.47919512 -0.05252015 0.02624552 -0.15364146 -0.032252446 0.4818904 -0.3403169 -0.39632154 0.013186692 0.12655835 0.43082103 0.14407507 -0.37944824 0.22812119 0.07586907 0.23980246 0.6886119 0.49204627 -0.0678861 -0.15731011 0.22640535 0.053764995 -0.56846875 -0.7980057 0.33151338 -0.093408726 0.2541838 0.29253516 -0.26758048 0.027020203 0.3737215 0.93383515 -0.2924543 0.08619354 0.4958673 0.13461742 -0.3666298 0.16942404 -0.6599864 0.015902031 -0.08526856 0.041971818 -0.5809067 0.22927614 -0.043631036 0.8504829 -0.06254344 -0.16604471 0.72984093 -0.30705115 -0.42991096 -0.19277112 -0.7444476 -0.02826739 0.28240302 0.4589898 0.42006862 0.037755918 0.08081494 0.19728526 -0.6535812 0.12671387 0.12227764 0.3192088 0.05148259 0.06694902 0.013680707 0.59637725 0.10116357 0.26411256 0.50149435 0.14310825 -0.38190076 0.04193178 0.19627742 -0.07316179 0.14018206 -0.23897448 -0.38723606 -0.08611061 -0.427855 -0.11033298 -0.28643242 -0.22050361 0.096099004 0.009935074 0.07078804 -0.25603437 -0.21506613 -0.033184938 0.17501138 0.36338013 0.13655922 0.2899925 -0.03416174 0.006749704 0.5658071 0.68773764 0.39899784 -0.40777752 -0.251261
5222 0.08408112 -0.049360976 0.3305434 -0.11330449 0.080070384 -0.2530025 0.47980052 0.5486394 0.4385107 0.3862661 0.018243162 -0.2756154 0.32940382 0.17823762 0.112282775 -0.2884444 0.5144353 0.04773572 0.34186152 0.17991109 0.1293015 0.53829426 0.20542575 0.82250005 -0.23835729 -0.2020728 0.21031766 -0.67328644 -0.24262452 0.23277915 0.26652172 -0.110045604 0.0049924324 -0.37241822 -0.045210544 0.28874126 0.21969785 0.6407799 -0.24758 -0.16377237 0.030292865 -0.025608221 -0.01740786 -0.5354084 0.21341155 -0.018854981 -0.7362564 0.23139003 0.49922866 0.4877959 -0.53460187 0.18454492 -0.30609503 0.05482915 0.23283081 0.2171081 0.01954623 0.0044933935 -0.39082167 -0.2726286 -0.6572115 0.12612066 -0.16814832 -0.2936017 0.071929686 -0.41538966 -0.043600615 -0.3825951 -0.11996818 0.3278549 -0.19952145 -0.061123956 -0.25525823 -0.05164936 0.33390245 -0.43028483 -0.20616363 -0.2792009 0.30143502 0.34233823 0.08451526 0.029281516 0.23426418 0.019655991 -0.62418747 -0.19109993 0.1206558 -0.558243 -0.84453887 0.2978007 0.17586477 0.2854154 -0.016636884 -0.29476762 0.42778963 0.19658586 -0.23176807 0.035786577 -0.10737071 -0.25947094 0.03746364 0.10274769 -0.4872804 0.4131787 0.40193835 -0.23316844 0.72340363 0.3746766 -0.3625577 -0.7239982 0.20328158 -0.5280001 -0.46799132 0.0005091142 0.10080808 -0.06761209 -0.40882638 0.023728322 -0.3223931 0.14212729 0.35961503 -0.10389287 -0.2518307 -0.2641853 0.56965864 -0.26248613 0.33205467 0.10763624
8327 -0.15360512 -0.7163386 0.08369345 0.3160761 -0.51822835 -0.36120316 0.28776944 -0.12599672 0.13320513 0.7912744 -0.46868753 0.1903466 -0.12715514 -0.84620696 0.21611935 0.29402855 0.17771468 0.022238387 0.4875956 -0.21547139 -0.01645352 0.16830882 0.25965083 0.68428373 0.23068948 -0.7244552 -0.11733153 -0.4968127 -0.57937765 0.653566 0.035654355 0.18046366 0.4359506 0.0053632595 0.14140776 0.18334742 0.09389011 0.30755058 -0.64740914 0.46989614 -0.21915421 0.23752524 0.20987776 -0.039379343 0.5228859 0.11955699 -0.45963064 0.5340205 0.04454709 -0.07201579 -0.12534869 -0.5167388 0.4076565 0.44913262 0.137884 0.3561369 0.3112923 0.62313515 -0.4648324 -0.72856194 0.26746252 -0.10808876 -0.022919744 0.10094942 -0.13088146 -0.19612877 0.14733899 -0.24753492 -0.3272947 0.15295316 -0.19306384 -0.020449303 -0.5026345 0.01335864 -0.22475941 -0.2534874 -0.13062187 0.11230401 -0.099361986 -0.21582061 -0.16414244 0.07625476 0.35709822 -0.66766584 0.26022425 -0.17965162 0.560563 0.42826506 -0.5103597 -0.3450476 0.38068157 -0.17867613 0.08805905 -0.2165981 0.13205533 0.25865573 0.39695233 -0.106724076 0.5262981 -0.31576058 0.036724802 0.4520146 0.2092309 -0.0847094 -0.46989337 -0.01059793 1.2797636 0.5221712 0.24407831 -0.3564206 -0.040586356 -0.12290789 0.059678834 0.335427 -0.3689299 0.0044435393 0.20345901 -0.17402996 -0.5669619 -0.14600411 0.57060695 -0.19539076 -0.12062744 0.34954223 -0.30520365 0.26722163 -0.035810415 0.76734114
3028 -0.6729113 -0.19248872 -0.36302546 0.54351264 -0.29827136 -0.365747 0.35043576 0.36530268 0.4989528 0.84088826 -0.5735915 0.1552306 -0.4800084 -0.7313377 0.13249288 0.48610124 0.49103975 -0.1302987 0.31850463 0.111121655 -0.20027012 0.61604345 0.43761095 0.7924296 -0.20600568 -0.23653615 -0.2500385 -1.0515059 0.02838823 0.21322776 0.3293985 -0.344675 -0.089597255 0.20626841 -0.105622046 0.24189006 -0.019826995 0.3236869 -0.20882212 0.65835416 0.55828124 0.22536983 0.44252202 -0.03010201 0.60797274 0.7793582 -0.027854959 0.3871235 0.34619915 -0.14409459 -0.043581847 0.26740384 -0.25700736 -0.21542102 0.14829089 0.096760154 0.24444035 0.21998894 -0.3227306 -0.055832036 0.05789464 0.06787343 0.0800824 -0.7322797 -0.12099141 0.07806653 -0.44020596 -0.46303725 -0.084106 0.0147726415 0.492225 0.12456205 -0.42061475 -0.27123222 -0.26627502 0.14851391 -0.053056367 0.017389733 0.17829295 0.17307271 -0.1857454 0.39693332 0.4121788 -0.15597196 0.34482068 -0.4098704 1.1063943 0.275432 -0.25908646 0.16492401 0.14666064 0.061408002 0.5659264 0.4196387 0.7442969 -0.46651337 -0.003791964 -0.002264169 0.41472915 -0.33824453 -0.22725503 0.16752656 0.5413238 0.31380293 -0.13635693 -0.105362095 0.6209009 0.588581 0.40939584 0.22145942 -0.20166065 0.21398434 0.1678096 0.41175497 -0.48861435 -0.04658454 0.71469426 0.24304338 -0.4645795 -0.06952706 0.60313064 -0.21984033 0.25194973 0.45995918 0.09640021 -0.05641073 0.16423194 0.3830558
9570 0.05497101 0.6781636 -0.05407711 -0.20443161 0.6001501 -0.22108555 0.19776036 0.15339857 -0.13506685 0.26097918 -0.14605811 0.24598017 0.44547984 -0.4375346 0.23737954 -0.16856697 -0.025772436 0.14960419 0.8709805 0.2784713 -0.27047732 -0.15707526 0.5296973 0.35927367 -0.30389172 -0.25217807 0.6113481 -0.24523664 0.13707319 0.49380213 -0.17251647 -0.26010463 -0.3819687 0.20969121 -0.16856512 0.6687466 -0.48746994 -0.5575032 -0.09493369 0.046269346 0.30164903 -0.23805816 -0.37839612 0.082115985 0.98720205 0.9622372 -0.049291383 -0.013457389 -0.182262 -0.38534382 -0.10145617 -0.35309693 0.041203234 0.588582 0.2553312 0.61596894 -0.34500998 0.36075568 -0.6094291 -0.36692792 -0.18491472 0.94316405 0.34961334 -0.25163743 0.68525827 0.27399477 0.5075774 0.39439073 -0.31425497 -0.074898936 -0.2808162 -0.2955408 0.0861543 0.55285466 0.5070355 0.39237928 -0.030749522 -0.21455133 0.14835511 -0.47406933 0.11825566 -0.16514336 0.2922422 -0.13377427 -0.3397487 -0.1448854 0.9981463 -0.25204957 -0.30537596 0.5584091 0.6156022 0.12649223 -0.18437016 -0.0031562853 0.2552974 0.4665843 0.5003588 -0.41776016 0.19893838 -0.6452263 0.79165703 0.29129514 -0.4728367 0.122565165 -0.0051470743 -0.4788282 -0.17437802 0.012930282 -0.15978244 -0.114818886 0.8625327 0.32046992 0.09768242 -0.037164435 -0.47462282 0.53622854 0.012703309 0.109688796 0.12041375 -0.09732902 0.2918654 -0.8977838 -0.10554756 0.033646937 0.11636632 0.15907897 -0.2503372 -0.3971643
8251 0.01971614 0.7890252 0.09357579 -0.1592662 -0.34134316 -0.0054630428 0.09809069 -0.0037485512 -0.19437726 -0.52699655 -0.49504974 1.5426157 -0.3907858 -0.36386836 0.37996575 1.0802087 -0.42587015 0.05425693 0.5803361 -1.2455676 0.45620567 -0.92367435 0.5563188 0.85859877 -0.36002064 -0.23964676 0.20227984 -1.0817164 -0.59017456 -0.71881783 0.4316839 -0.7996184 0.821818 0.63549906 -0.22470401 0.23681016 -1.0964204 0.015267624 0.15267184 -1.5987295 0.076239124 0.28458378 0.7115089 -0.16190225 1.0398147 0.55169755 -0.19078162 -0.114236765 0.7927059 -0.15535614 0.06864459 -0.43562502 0.26438183 -0.06994705 0.27237552 0.8503429 0.25180095 0.43091044 -0.97507244 -0.2567195 1.1724386 1.0955884 -0.91103303 0.42163768 -0.04970053 -0.5345371 0.43269965 -1.003996 -0.063332625 0.68308914 -0.8873017 -0.084845506 0.3635446 0.20093508 0.7282747 0.639444 -0.28570175 -0.44815722 0.52076405 1.1536764 -0.004318686 0.32659578 0.33537805 -0.84842765 1.0976301 -0.07400935 0.61869496 -1.5490705 -1.0483551 0.24820822 1.7647134 0.17940842 0.21407798 0.094018504 1.3058465 0.684237 0.077037506 -1.3433595 -0.45046768 -0.8284511 0.36320952 -0.52372986 -0.30997196 0.16011822 -0.01745702 -0.49481857 -0.5741879 0.74074614 0.025001217 -1.0969313 -0.77363175 0.79228914 0.7209835 0.31227195 -0.26483172 -0.15021175 -0.61586905 -0.09563098 -0.3985446 -1.1465968 0.2747267 -1.2262115 0.09620875 0.64312994 -0.09158889 0.34792212 -0.70619047 -0.43110695
8237 0.043491453 0.87902385 0.06616913 -0.1311939 -0.26024958 0.009885411 0.13583025 0.07877236 -0.24519043 -0.4984785 -0.5511096 1.6237267 -0.46735805 -0.2773049 0.3758753 1.1746597 -0.43972063 0.043758165 0.6575069 -1.2499561 0.51087177 -0.99097717 0.6006347 0.8904269 -0.4326536 -0.3287769 0.25848603 -1.1833217 -0.61639667 -0.8055528 0.47482654 -0.8351568 0.851777 0.67360216 -0.244557 0.27168202 -1.0936127 0.13525167 0.21317081 -1.6858531 0.12359134 0.27327296 0.70748633 -0.06639186 1.1533084 0.5270786 -0.26513982 -0.0072391075 0.79878557 -0.14416915 0.09882881 -0.44235423 0.30546612 -0.13608614 0.22648525 0.8593659 0.24858268 0.43353346 -1.0165256 -0.26535338 1.2048082 1.0849332 -0.90414524 0.47561508 -0.053190604 -0.5941298 0.53638184 -1.0747962 -0.035806652 0.76386255 -0.96615845 -0.0854359 0.49904975 0.22799598 0.67441034 0.7872283 -0.23222831 -0.43358344 0.5257007 1.119168 -0.08487788 0.38204136 0.3758757 -0.91664016 1.1470191 -0.10475887 0.6830217 -1.5904074 -1.0728635 0.24679786 1.9129806 0.1862777 0.30927595 0.12707505 1.3777075 0.7498299 0.20520498 -1.4135662 -0.49921492 -0.837524 0.315486 -0.53126544 -0.25982988 0.16658187 0.020326152 -0.5400974 -0.5347554 0.71220464 -0.0272099 -1.1591967 -0.8546639 0.85870934 0.7926931 0.308662 -0.19504085 -0.12607136 -0.56980634 -0.11809683 -0.47341534 -1.371677 0.2894155 -1.3507212 0.029559046 0.5653935 -0.15708584 0.3710696 -0.7933972 -0.4368874
24755 0.08034577 0.41912055 0.3008628 0.49446204 0.32777038 -0.52055293 0.19953218 -0.22230877 0.026903516 -0.7237481 0.18972656 -0.100722305 -0.40233326 -0.834932 0.2134131 0.41222826 0.9943317 0.18068352 0.017711515 -0.24615939 0.2924383 -0.12623046 0.6679227 0.35041097 0.54521334 -0.62222797 0.4888404 0.40262318 -0.49779874 -0.09005928 0.69821954 0.34866306 0.05764716 -0.15232179 0.45860016 0.2596529 -0.7999048 1.1744488 -0.19150984 -0.080700405 0.16447674 -0.18744911 0.34971863 0.58916104 0.33751217 -0.30469453 0.13515115 0.25069886 0.074021526 -0.26780903 -0.036937203 -0.1308188 0.109045796 -0.10695098 0.12634163 -0.6702333 0.0022861455 -0.34269086 -0.74917346 0.12169107 0.26477906 0.12795305 0.5620443 0.09761002 -0.4703374 -0.3902983 0.0014662795 0.31714895 0.16922063 -0.06846659 0.34344348 -0.23554206 0.16335842 0.6750665 0.49085993 -0.46152493 -0.5980775 0.052236486 0.33927613 -0.2443409 0.080148496 0.77201843 0.5235486 -0.18666422 -0.12597421 0.052601907 0.8430438 -0.30397364 0.01632955 0.41098642 0.60808784 0.548111 0.43789873 0.29205012 0.27102625 0.46327487 0.0048575327 0.1034353 -0.09407479 -0.46501282 0.8464112 0.60203326 0.3641189 0.6595845 -0.10311341 0.0032107614 -0.40041786 -0.41622978 -0.037409022 -0.3860896 -0.58759683 0.20196263 0.44098288 -0.8312754 -2.900566e-05 -0.30019975 -0.12957938 -0.17026924 0.11640119 -0.473091 0.12819788 0.047219753 -0.6682101 0.1278046 0.28323212 0.05651764 -0.38612172 0.03878798
1888 -0.32191426 0.016409732 -0.34284934 0.4062559 -0.67202866 -0.35112754 -0.17986663 0.009958844 0.2605759 0.20933877 0.042921 0.19980761 0.25777656 0.03823975 0.39197338 -0.38277277 0.32926264 0.12644063 -0.13112454 -0.39441186 -0.16010973 -0.61861074 0.144806 0.9456733 -0.25524652 -0.26839218 -0.19357418 -0.4889493 0.17430592 0.17527194 -0.009740782 0.21626642 -0.08673031 -0.091319434 0.53874546 -0.22622934 -0.16766098 0.34508386 0.1580975 0.31433892 -0.04715096 0.015451212 -0.18272364 -0.17756428 0.6491156 -0.09588277 -0.51517904 0.10165177 -0.4127558 0.11290043 -0.042226404 0.10590669 0.13054404 0.53378576 0.44191217 0.030912243 -0.19090204 -0.07674989 -0.4522785 -0.07974921 -0.11832816 0.32499552 -0.2006203 -0.030084312 0.37895307 -0.029017773 0.11745958 -0.49578932 -0.24147937 0.52791035 -0.35727102 -0.40756512 -0.10281229 -0.0385239 -0.32196796 0.113912895 -0.08419903 -0.2731443 0.60704094 0.12994714 -0.20372024 0.07831178 -0.013349474 0.20249623 -0.07076231 0.22008812 0.36176684 0.15069005 -0.34417772 0.44930828 0.41772845 0.43473187 -0.45218062 0.06896372 0.92677176 0.26989323 0.7070799 0.50216085 -0.064308606 -0.04642381 0.20211102 0.25135803 0.1919345 -0.33962357 -0.46237892 0.21560551 0.20897818 0.21301861 0.04165573 0.025989952 0.021346657 0.020578993 0.0313067 -0.077304535 0.08108745 0.109615915 0.19948325 -0.64332443 -0.16636218 -0.17347287 -0.005624752 0.37288162 0.094184525 0.099016204 0.2909091 0.21060382 0.36509544 -0.2333032
2390 -0.21839647 -0.5969575 -0.036044516 0.3540175 -0.25810596 -0.22897516 0.5377954 0.017399358 -0.5762059 -0.033498365 -0.16772273 0.24825303 0.25354812 -0.098557025 0.4376535 -0.46592614 -0.10754036 -0.30340248 0.10125986 0.073457316 -0.24619488 -0.25241515 -0.3562978 0.91135186 -0.19629985 -0.72779924 0.36899167 -0.38423127 -0.27039707 0.3907249 0.35082048 -0.19844213 0.1602116 -0.47968683 -0.1123914 0.021336278 -0.4114383 -0.0549293 0.2750575 -0.071210906 -0.33405504 0.3087896 -0.15923527 -0.17878576 0.6280009 0.2764196 -0.87777567 0.4349853 0.20136867 0.10892851 0.39931223 0.31824112 0.22940554 0.14370951 0.2929673 -0.57590485 0.084678665 0.01938374 -0.49754128 -0.12283482 -0.27557382 -0.1916151 -0.30207047 -0.26907158 0.5004885 -0.095778085 0.5603303 -0.18395457 0.081760414 0.32470107 0.6452415 0.07411134 -0.3611912 0.10205639 0.1168276 0.31053704 0.17575116 -0.12583767 -0.026840419 0.03628607 0.09737484 0.32681498 -0.25826734 -0.121054195 -0.44577155 -0.23760386 0.6539034 0.3182809 -0.5314582 0.097293586 0.0003383685 0.517578 -0.23798808 0.43086338 0.31283262 0.42863488 0.3441303 0.19856499 0.07426657 -0.4214317 -0.22853832 0.20140785 -0.12235628 -0.47832215 -0.06864787 -0.090692915 0.019102415 0.07384405 -0.081107296 0.04361759 -0.28092715 -0.18062733 0.12841293 -0.31558207 -0.19320159 -0.046614677 0.10258833 -0.33487806 0.22406475 -0.6885146 0.03706608 0.1959767 0.018841978 -0.5091216 -0.11255646 -0.28274098 0.20245849 0.08089551
2537 -0.45499048 0.21213794 -0.40947914 0.10562018 0.16460758 -0.2190403 0.3069764 -0.05726258 0.021936653 0.28349313 -0.201971 0.3862626 -0.21565777 -0.018336501 -0.0025115425 -0.08160972 -0.121695556 -0.5296169 0.059228744 -0.45035654 0.36138514 -0.3137952 0.49902123 0.47320792 -0.13803358 -0.46314162 0.048153337 0.04276068 0.54999256 0.81133723 0.14695677 -0.11422834 0.15865932 0.32494456 0.6634733 0.4592355 -0.19047615 0.06311125 0.008123604 0.26701015 -0.29044652 0.3673763 -0.26915577 -0.08011884 0.23035286 -0.21215004 -0.34938022 0.21635439 0.029467471 -0.21023239 -0.10122876 0.4678763 0.20308469 0.028420782 1.1516402 -0.15679713 -0.6940501 -0.31427738 -0.11029052 -0.3370527 -0.71543914 0.12791984 -0.5924495 0.073722094 -0.050954405 -0.49873698 0.10907331 -0.062467042 -0.18242061 0.13101204 0.26602548 -0.33901772 0.10422859 0.17304572 0.06779481 0.12431911 0.4399947 -0.0067863837 -0.14880617 -0.23703489 -0.42999348 0.14427522 0.19390939 -0.3299778 -0.16350876 -0.44998878 0.13868695 -0.004318331 -0.109154716 0.30492634 0.06781188 0.3229353 0.183874 0.46373907 0.88841367 0.4709907 0.18873116 -0.06202633 -0.47596568 0.31657937 -0.1220555 0.26513404 -0.7589935 -0.41470343 -0.1707397 -0.02583202 0.10697828 0.112201855 0.2260482 -0.80508536 0.32928944 -0.0066450345 0.15367633 -0.5465477 -0.0049854545 -0.26524335 -0.07591917 0.06873168 -0.15876664 -0.13255583 0.0355637 0.3965193 -0.13568887 -0.16574489 0.5609944 0.01675885 -0.2867888 -0.26589173
1047 -0.2802412 0.028468661 0.04674453 0.20535564 -0.6758439 0.082087345 0.52965707 -0.2935921 -0.15521753 0.37813315 -0.2485971 0.3254284 0.78270197 -0.49290067 0.16135576 0.20201114 0.5181643 0.4047598 0.086633846 0.058923498 -0.75651455 -0.69469464 0.19328488 0.84450823 -0.26233894 0.14786689 -0.5517496 0.5187414 -0.5026583 0.3857296 0.89779574 0.50514925 -0.5648848 -0.4683466 0.46469885 0.29973644 0.49047497 -0.50495845 -0.22225529 -0.05593895 0.3661012 0.08437627 0.1328509 -0.02142004 0.5948348 0.605238 -0.3813968 0.78704184 0.06693735 -0.10042741 -0.26575398 -0.18992011 -0.20887218 -0.09818811 -0.09618781 0.105268665 0.42400232 0.33063534 -1.185601 -1.3313507 -0.2522051 -0.34542155 0.0013344581 -0.47814697 -0.16395657 -0.49095172 -0.6611102 0.8303721 0.07024036 0.018714258 0.10237581 0.5150677 -0.14788255 -0.023982 -0.33078623 0.6765441 0.18941091 -0.24741557 0.29954207 -0.3067098 -0.21363944 -0.2817411 0.5044184 0.1785204 -0.33083606 -0.8804086 0.25134012 0.53654367 -0.40097007 0.14384343 0.28351223 1.1162472 0.14357264 -0.31903246 0.27696162 1.1638374 0.47354612 -0.0011347407 -0.007572185 -0.9780751 0.46273607 0.13798071 -0.54037905 0.14475806 -0.18042679 -0.29941973 -0.2671729 0.11482227 -0.5032694 0.23282805 -0.24327703 -0.3529136 -0.22960302 0.32103568 -0.64823604 0.8327403 -0.1792334 -0.54375684 -0.32072303 0.19129546 0.94885296 -0.44644412 0.09930024 0.4125131 0.05386484 -0.105062865 -0.49866498 0.13546827
4013 -0.3565071 -0.4475807 0.19769421 0.1976579 -0.18925989 -0.14128602 0.20650746 -0.21965994 0.5486595 0.8318325 -0.3204267 -0.059861854 0.1219462 -0.4807373 -0.07391968 0.12576413 0.13398269 0.08427208 0.45560902 -0.0287306 -0.061899588 0.02914931 -0.06799111 0.6098406 0.1517548 -0.3665072 -0.1546015 -0.5789999 -0.57899475 0.42040506 -0.05012699 -0.10540769 0.37345418 0.037816666 -0.15685248 -0.3321302 -0.13259576 0.599081 -0.80133003 0.46355677 0.005037055 0.18094113 -0.24131052 -0.08155228 0.64303386 0.21609244 -0.1433153 0.7100401 0.1262514 0.09752626 -0.17011657 -0.5110189 0.3243971 0.19982089 0.37139454 -0.2778136 0.15860473 0.6123735 0.07266171 -0.9789202 0.120177776 0.134732 -0.3336659 0.004272579 0.03389558 0.012560731 0.10481497 0.10824615 -0.04689311 0.126932 0.028982207 -0.34835356 -0.0960848 0.22377886 0.30744812 -0.53276175 -0.09923877 0.035171755 -0.3647113 -0.15947741 -0.35774222 -0.021241013 0.48939714 -0.21734667 0.35526216 0.22317882 0.55431455 0.26865488 -0.109001115 -0.1269573 0.5720727 0.10390725 0.18183464 -0.47753754 -0.025263114 0.2535597 0.044610035 -0.6163925 -0.037883572 -0.38126448 -0.0071832025 0.2812437 0.324788 0.14237447 -0.2895414 0.3519875 0.78456825 0.15538612 -0.035316218 -0.22343163 0.04524908 0.11268573 0.008659305 -0.079379536 -0.4279246 0.07239926 -0.17695002 -0.33108708 -0.6356507 -0.35337594 0.29523566 -0.27964926 -0.29677725 0.17937493 -0.16309118 0.13550256 -0.06435918 0.28848654
27699 -0.3868638 -0.14482604 0.67607045 0.30493486 -0.13663898 0.30510345 0.04686819 -0.20034981 0.41725573 0.31427345 0.14692584 0.1966333 -0.47997895 -0.2105887 -0.02575356 0.37413546 0.20733812 -0.3873397 0.3020308 0.30175978 0.30688196 -0.5717409 -0.392335 0.43311042 -0.38004938 -0.6209308 0.21469168 -0.7261976 -0.44051895 0.75676507 0.8125567 -0.057214566 -0.06115384 0.13246286 -0.06458329 0.43985206 0.02374545 0.13061364 -0.6942315 -0.18029194 -0.50501925 0.06038889 0.5962815 -0.36181602 0.27608153 0.56804657 -0.0074698683 0.33392972 -0.17345883 -0.027976245 -0.1367696 0.36507288 0.24690057 -0.09388828 0.12140229 -0.07044506 0.28981352 0.7026507 -0.60552144 -0.43410715 -0.13760638 0.0075767664 -0.50727284 0.010104348 0.7133877 0.045783665 0.02956201 -0.47289538 -0.27621698 -0.30764967 0.08068308 0.09451991 0.06732603 -0.0006895418 0.593599 0.0157891 -0.53422713 -0.21436228 -0.49836856 -0.32707494 -0.7884286 0.3157621 0.4884324 -0.29819223 -0.14019607 0.20040248 0.2395091 0.2847894 -0.4255543 0.6259368 0.36922428 -0.23031062 0.3665033 -0.5875302 0.4373305 -0.053533275 0.10133768 0.119119965 -0.0479567 -0.4837542 -0.050349504 0.60382223 0.21535593 0.21771212 -0.5784089 -0.27152157 0.50788903 0.16183388 0.021337325 -0.0055398867 -0.5795848 -0.008296006 -0.11640021 0.019347316 -0.122014016 0.2810106 0.0503745 0.21974573 -0.30350387 0.5119382 0.31358308 -0.34426555 -0.28187525 0.14945433 -0.317615 -0.36444986 0.5359405 -0.10044497
78805 -0.17487438 0.3832592 0.41821498 0.45887694 0.3648249 -0.64572984 0.5419231 -0.36980247 -0.053048976 -0.67853445 0.0043364754 -0.13981634 -0.2688973 -0.9285361 0.21924913 0.47220454 1.1260718 0.24462862 0.0039030227 0.019491654 0.27339956 -0.30563542 0.88005465 0.32320803 0.71485496 -0.6039874 0.7832484 0.41287452 -0.6101046 -0.015812483 0.7226044 0.38607544 0.054457113 -0.18746999 0.57404274 0.07467673 -0.81034946 1.3229854 -0.10224853 -0.22464944 0.06769849 -0.16419755 0.42551038 0.5756399 0.45506868 -0.30492207 0.20416823 0.38896063 0.18210733 -0.2862222 -0.07655487 0.08240422 0.06006755 -0.20405062 0.032268774 -0.82543254 -0.103070766 -0.29680642 -0.6995083 0.219318 0.1678052 0.02494441 0.71803206 0.15423343 -0.44069067 -0.5027833 0.0504702 0.29230547 0.16920274 0.113139756 0.25936076 -0.16468427 0.16149549 0.86634254 0.62929666 -0.4362161 -0.6916153 0.22315384 0.31208408 -0.21158838 -0.03906392 0.9138131 0.6052317 -0.16852266 -0.17800981 -0.05114127 0.90312225 -0.3946475 0.057463262 0.3840351 0.63904005 0.40693578 0.74369067 0.42189658 0.35350594 0.60286397 0.18644655 0.12332366 -0.13227877 -0.5002583 0.91671675 0.6366169 0.39636493 0.70749825 -0.018320814 -0.07138718 -0.3705869 -0.3125112 -0.053427327 -0.40187904 -0.6105849 0.339532 0.31714344 -0.85656595 0.12147505 -0.15435743 -0.385312 -0.2526872 0.030951984 -0.4699046 0.049574405 -0.09985535 -0.67073584 0.3457853 0.16788985 0.07814737 -0.64441854 -0.06484327
124378 -0.36521655 -0.7771111 -0.026539564 0.36654848 -0.03450602 -0.46869108 0.75972044 0.05032511 -0.8460625 0.07061691 -0.74688745 0.50486195 0.37619978 -0.3178248 0.3693059 -0.7051112 0.22019105 -0.5313263 0.46512535 0.22666366 -0.15693998 -0.382093 -0.2560224 0.8407985 -0.14519954 -0.18508264 0.6612432 -0.68086994 -0.3557733 0.21381117 0.6817369 -0.022949805 0.11775767 -0.44699913 0.08575736 -0.39177063 -0.48928836 -0.002198179 0.15069127 -0.20281428 -0.27270773 0.23240834 -0.26119414 -0.33747834 0.29755512 0.20592166 -1.166527 0.6826605 0.017294742 0.37280855 -0.20280506 0.28386933 0.2841228 0.23402002 0.16360797 -0.59309995 0.10083186 -0.085319944 -0.72208536 0.23919931 -0.3428146 -0.014926122 -0.11868619 -0.2902908 0.6877354 0.13626152 0.60260844 -0.5174357 -0.046931818 0.353222 0.8253827 0.037896655 0.042082142 -0.10389521 0.20121573 0.054352473 0.1548014 -0.23704134 0.03585025 -0.02794565 0.24949574 0.6952869 -0.35209408 -0.3661471 -0.44225422 -0.27095675 0.6512197 0.49979648 -0.22820379 0.010825753 0.2750461 0.63837963 0.051498987 0.5211977 0.7294285 0.8643345 0.43674538 0.22437137 -0.051870894 -0.25241962 -0.37468323 0.16089122 -0.45522276 -0.4371943 -0.28399694 0.16558418 0.06309925 0.2595901 0.06123995 0.14432782 -0.51182395 -0.06341532 0.26243547 0.10033929 0.09416014 -0.33168724 -0.16174732 -0.29897636 -0.15386087 -0.3111441 0.16489683 0.018290693 0.5973741 -0.15190773 0.24825925 -0.77643865 0.12877941 -0.30657202
29180 0.10816856 -0.0306392 -0.28160125 -0.07854633 0.5232694 -0.092021815 0.6288866 0.46427768 -0.38353288 0.4037615 0.44709328 -0.3374407 -0.65180427 0.23760426 1.381946 -0.088579796 -0.66180986 -0.23956898 0.9131301 -0.23742117 0.37479267 0.18056622 -0.22945952 0.38708138 -0.15439588 -0.83803964 -0.2884423 -0.31767634 -0.0051467596 0.22074607 0.08729534 -0.43164453 0.49956208 0.7538535 0.15736443 -0.34893832 -0.470391 1.1361641 -0.042832956 -0.94155294 -0.65102917 -0.4570584 0.23978046 -0.06234776 0.5159717 -0.30786854 -0.36308613 1.1450739 -0.5696209 -0.010739306 -0.86641777 -0.84285367 0.8688345 0.3461893 0.46851623 0.093799 0.47369894 0.35650885 -0.4682832 0.07330031 -0.18501379 0.16299842 0.93461293 1.068618 0.25103396 -0.9282908 -0.18762848 0.13803335 0.27720982 0.42127767 -0.09186242 -1.0890969 0.076984584 0.12537414 -0.4351049 0.7577409 0.07785424 0.30614546 0.26491347 -0.87218595 -0.5043338 0.25467068 0.70464015 -0.08467836 0.3181475 -0.48072875 1.0065364 -0.32848054 -0.536069 0.09881414 0.1924377 1.0849813 0.8161431 -0.39978608 0.14471783 -0.2336343 0.6630781 -0.5010087 0.109710105 -0.9595941 0.47434846 -0.15576836 0.14652163 0.6064773 -0.5482966 -0.60275394 -0.46642932 -0.1153949 -0.5581146 0.43603656 -0.5974389 0.46383107 0.6549848 1.2042747 0.7293291 0.22282784 0.9357614 0.18608905 0.31900865 0.3985208 0.6208939 0.5139195 0.1554011 0.52818334 0.38643613 0.53777766 -0.009273434 -0.8001992
1553 -0.4888088 -0.09328323 -0.09430826 0.5578906 -0.23393564 0.40650958 0.4434807 -0.04049022 0.08966921 -0.051877346 -0.83022505 0.28588152 0.24203037 0.43296018 -0.024217436 0.038689915 0.12975821 -0.17982984 0.31530106 0.1308273 -0.004502916 -0.26441154 0.24483962 0.6589975 -0.45454556 0.13744318 -0.069136485 -0.44826713 -0.03618111 0.47362563 -0.0879465 0.19834131 -0.07041412 -0.090234086 -0.16737248 0.00017103169 0.6826557 0.40732232 0.245067 0.5308933 0.048410855 -0.19367184 0.34262264 0.1895505 -0.24472773 0.5918175 -0.1750006 0.03843912 0.13102143 0.19594118 -0.20233725 0.054896776 -0.6459398 0.7339369 0.7363985 -0.49476993 0.08387688 0.5809694 -0.2717746 -0.93161464 -0.25646162 0.26591468 -0.12988761 0.020166451 0.61525345 -0.14205612 -0.30621213 -0.2975645 -0.116928175 -0.05031037 0.08209305 -0.13332942 -0.48618856 0.06099052 0.39112055 0.31154987 -0.49903166 -0.03330765 -0.5750488 0.003910238 -0.36850134 0.08472134 0.30490938 -0.31695375 -0.55479306 0.29248005 0.55813307 -0.16869968 -0.747455 0.08087762 0.39343345 -0.13464156 -0.013755868 0.5437145 -0.3396866 -0.21578665 0.21439448 -0.25388637 -0.41829112 -0.4096883 0.034331534 -0.00830334 -0.062176004 0.6648154 0.16567293 -0.7492358 0.118846625 0.4079914 -0.057694502 -0.07733885 -0.577812 -0.6704269 0.22152066 -0.21779993 0.104919456 -0.16772357 0.2507859 -0.105924204 -0.63927126 0.094449565 0.28588432 -0.11484143 0.3497732 0.029246187 -0.123649165 -0.25906327 0.44429287 -0.513328
10177 -0.32553166 -0.105366185 0.34221146 -0.016660405 -0.24429259 0.02678621 -0.23237042 0.71658266 0.14461732 -0.8621663 0.5452411 -0.6716614 0.13475408 -0.21789403 -0.31773007 0.40495047 0.35852394 -0.81732064 0.12629065 0.6451027 0.52493614 -0.35826036 0.74746144 1.1317339 -0.0008623637 -1.6670101 -0.007223212 0.44102117 -0.02179926 -0.112081185 0.41025236 -0.34607443 0.54461867 -0.12127853 -0.29370546 0.21678112 -0.24992476 0.4774283 -0.38525978 -1.0543008 -0.79676604 0.8330723 -0.2620308 0.8745458 0.4576422 0.07508344 -1.1117574 0.9429486 -0.09298071 -0.25385758 -0.45254692 -0.014624793 -0.14906955 0.4296353 1.0707024 0.40653664 -0.9607377 0.085221164 -0.21211384 0.12019563 -0.16357158 0.32283276 0.328634 0.06877346 -0.36049548 -0.76588035 0.12481938 0.064416185 -0.67580247 -0.86508036 -0.78150374 0.599913 0.8697612 1.0838047 0.042722616 -0.3677686 -0.5675501 -0.4728866 0.009980556 0.41011158 -0.098798335 0.905246 0.8898085 -0.37387425 0.3076021 -0.14001033 0.008037732 -0.34573472 0.79079616 -0.56529176 1.1854231 0.63445204 0.2623805 0.481001 -0.07900321 -0.38861609 0.59555554 0.46823487 0.6541136 0.059368495 1.0261974 0.20932308 0.022908013 0.59006286 -0.26478472 -0.9936097 -0.96933854 -0.20810752 0.21434435 -0.46540326 0.09416602 0.4503676 0.24537203 0.29870027 -0.53770995 0.26036245 0.1130109 0.694286 -0.64225596 -0.5613402 0.5505423 -0.13138373 0.047268096 0.5870191 0.19849321 0.35045382 0.40476176 0.01164404
3465 1.4229562 -0.0055015003 0.19632064 0.35319352 -1.4271668 -0.29305804 0.69727254 0.35956794 0.46357653 -0.21339308 -0.5115771 0.26331815 0.29846328 -0.63276666 0.86932796 0.3196826 0.37474972 0.33512646 -0.6067936 0.061932724 -0.18236655 -0.64889103 0.32226083 -0.24919531 -0.18846858 -0.4808314 -0.12990738 -0.7488729 -0.6090233 0.20004234 0.2953553 0.39967054 0.21978614 -0.30180803 0.24007115 -0.32076007 -0.2038366 0.5063941 1.6644768 -0.18821684 -0.1617861 -0.30870217 0.6784406 0.7603306 0.81001675 -0.18910302 -0.044333965 0.83326006 -0.14869934 0.2778763 -0.9084953 0.29954955 -0.066191174 0.11600921 -0.2170419 -0.4939122 -0.5289045 0.30406132 0.30153504 0.13727582 1.3646677 0.15605785 -0.7626 -0.8081487 0.88928074 -1.4325069 0.8232641 -0.5000597 -0.20240672 -0.16313268 1.103913 -0.5377822 0.6244841 1.392464 1.2412521 -0.86538106 -0.09740311 -0.31750947 -0.2662323 -0.50600415 -0.6632915 -0.14924689 0.97494555 -1.2054397 0.532828 -1.1968957 0.7163311 0.9795745 -0.39007404 -0.1608003 0.84473586 1.0156851 -0.27836818 0.98769486 -0.17899899 -0.06912769 0.34096718 -0.89673007 -0.13467124 -0.74074703 0.2054094 -1.1151569 -0.95825917 -0.35727 -0.1817818 0.0040142834 0.6286894 -0.37703875 -0.2639011 -0.47629827 -0.36442518 -0.06422609 0.68602604 1.0334234 0.2800653 -0.3491419 -0.20848018 0.8067767 -0.15451255 -0.17256969 0.2126163 -0.3247172 -0.33754888 -0.09094018 0.78643274 -0.42217952 0.35059485 -0.32833397
4468 -0.50549793 -0.27875102 -0.67769724 -0.26312813 -0.019065348 0.353638 -0.49199152 -0.85600644 0.30631116 -0.30719867 -0.50317806 -0.13265017 -0.18321498 -0.24214931 -0.36533552 0.25210315 -0.06005925 -0.08910038 0.07769596 -0.21144359 -0.2655177 0.32515666 0.09849207 0.2504969 -0.07359854 -0.15713705 0.21750715 -0.9551207 -0.6483174 0.45687005 0.17832309 0.3799601 -0.48397636 -0.501569 0.9753217 0.22675878 0.108393535 -0.3975568 -0.50876254 -0.2048712 0.3569493 0.14563446 0.03997722 -0.6227965 1.4827453 0.1301897 -0.5457443 0.1661312 -0.48857284 0.526168 -0.92376024 0.38257807 0.28300744 0.23239343 0.6497371 -0.21769832 -0.11055463 -0.5295478 -0.3076612 -0.28946635 0.6621527 0.98683804 -0.013987295 0.24596345 -0.013164071 -0.39842093 0.0811366 0.29724747 0.25255355 -0.45271945 0.35869533 0.18163078 -0.39014518 0.36769867 -0.23274706 -0.3077399 0.07644522 0.41678804 -0.3321227 -0.1880799 0.725382 0.03562985 0.040904626 -0.28730407 -0.52226996 -0.3991954 0.5202559 -0.4266416 -0.6383332 0.614399 0.11042922 0.45301127 -0.34422645 0.5769874 0.9361714 -0.1285387 0.3768876 -0.3072853 -0.50182265 -0.3073642 -0.0010638592 0.30490664 -0.1605683 -0.5904597 0.02926202 0.25978822 -0.4832093 -0.048798546 0.58600014 -0.36100686 0.120784976 -0.5358936 0.29848707 0.9848365 0.1524604 0.07786522 -0.13175282 -0.4167493 0.4123473 -0.019296015 0.15519199 -0.049515598 0.5573159 -0.022950813 0.2343601 -0.3686915 0.5570371 -0.17409165
18130 -0.16852185 0.31133848 0.12605639 0.67715895 -0.043828238 0.1299296 0.5261266 -0.10279797 0.032429773 0.023797438 -0.031230329 0.26121765 0.34897342 -0.40556958 0.14255673 0.29192123 0.5657297 -0.043614756 -0.008017488 -0.0027519045 -0.3162493 -0.7003031 0.29836354 0.64976484 -0.2919671 -0.095729776 -0.31049976 0.24760976 -0.73110545 0.4730632 0.5888159 0.43136677 -0.3195 -0.7170647 0.21165694 -0.10297331 0.50583893 -0.119638644 -0.30260125 0.026788067 0.15776153 -0.19832942 0.24902566 -0.035374865 0.5609125 0.6570569 -0.4305209 0.8912182 -0.08373798 0.0474039 -0.020741045 -0.2711698 -0.1834589 0.09051155 0.16995695 -0.20181121 0.50449127 0.42768925 -1.2741152 -0.90014714 -0.30849305 -0.44522882 -0.12814431 -0.2380005 -0.01670254 0.15034766 -0.081165925 0.7527956 0.049163163 0.15860283 -0.32562107 0.5816216 0.0101345 -0.12682784 -0.4124536 0.54871935 0.33673882 0.045986027 0.2804868 -0.70960623 -0.28601715 -0.21798934 0.30851486 0.29101261 -0.45551538 -0.89775044 0.52481914 0.27278414 -0.011242837 0.06295871 0.31468096 0.9947399 0.44390306 -0.13863167 0.12582123 1.0057746 0.8039929 0.17419265 -0.10306558 -0.66895753 0.79795516 0.20468342 -0.31545362 -0.027851418 0.096120015 -0.22382233 0.039965026 0.08012684 -0.66154677 0.31812638 0.06450954 -0.5365751 0.012056159 -0.022753265 -0.5861901 0.6301394 -0.46095058 0.3186562 -0.3934455 0.5950786 0.81226057 -0.14538689 0.1981241 0.2630549 -0.07364252 -0.1382063 -0.29520506 0.17622049
6644 -0.33009347 0.21434171 0.053812753 0.09827358 -0.43962488 0.5506224 0.00579283 0.48823872 -0.5975258 -0.27459726 -0.7116419 -0.1281864 0.3623703 -0.61466783 0.26581568 -0.42970985 0.021743951 0.20134343 -0.23471448 0.55489767 -0.2196499 0.028643513 0.70620537 0.26747957 1.1240938 -0.832884 -0.19271444 -0.40726706 -0.21454087 0.48999807 1.186898 0.15350993 0.73081744 0.41375503 -0.22907716 -0.13653101 0.3136923 0.3667951 -0.083261326 -0.5798284 0.34655216 -0.07969117 0.093900226 -0.00021938581 0.23135078 0.552411 -0.40709376 0.16909856 0.17493674 0.33171552 -0.81166345 -0.06009336 -0.39692864 0.13980074 0.8111897 -0.29766032 -0.5516832 0.2652031 -0.33141088 -0.6563307 -0.22648586 0.30089793 0.07166971 -0.24096718 -0.5909435 0.07062418 0.15821971 0.021856198 -0.031029586 0.5084794 -0.28399333 -0.010210029 0.5741185 0.016039042 0.41731837 -0.20760754 -0.19104964 0.8336278 -0.91567284 -0.21915315 0.40475574 -0.35418615 0.81289 -0.9202318 0.4393966 -0.4978184 1.2927848 -0.71257067 0.49188778 0.19942634 0.5037358 0.1329526 -0.5139941 0.08600786 0.08321013 0.623978 -0.7405183 0.53373563 0.08424112 0.23902363 0.71255517 0.03564342 -0.36958888 0.5344006 -0.6432914 -0.08780175 0.30322298 0.004591599 -0.25951374 0.33477563 -0.6879169 0.4970836 -0.25966918 0.2506575 -0.24862325 -0.19761167 0.3179557 -0.2005322 0.9640297 -0.04810581 0.34206045 0.72003275 -0.4381846 0.5769096 0.30707872 -0.12175039 0.273521 -0.49519378
3563 -0.21402855 -0.2445707 0.15303127 0.44544637 -0.1698196 -0.04097807 -0.036424033 -0.23390907 -0.09058633 0.82528174 0.10197304 0.08033562 -0.14589895 -0.4338083 0.11568121 0.10691864 -0.064940386 0.22115943 0.20018575 0.021061463 0.14706932 0.297905 0.108713396 0.7111855 0.13491854 0.0018083216 -0.14257 -0.37697974 -0.46838963 0.41742042 -0.02108656 -0.14460427 0.1750312 -0.17018399 -0.0063388185 0.16658027 -0.12569652 0.40704703 -0.7567133 0.4063527 -0.051900353 -0.010058793 -0.2513579 -0.3322618 0.5480351 0.18348806 -0.019985141 0.47233355 0.6105254 0.098054096 -0.11103598 -0.22608571 0.35434762 0.26287955 0.36265668 -0.121557705 0.21597719 0.6293261 -0.15284532 -0.76450914 0.4184892 0.18925172 0.097028874 -0.20130773 0.033503722 0.20663694 0.29241854 0.19092156 -0.35043302 0.47197276 0.002841653 -0.19453517 0.091626145 0.11836486 -0.03142485 -0.29673505 -0.2718298 0.013008948 -0.23589681 -0.16029754 -0.45447165 0.35524157 0.5074504 -0.16500425 0.23729198 0.10686957 0.55229944 0.096274056 -0.017143924 0.0834494 0.3628448 0.04237295 0.52939737 -0.3737208 0.24387829 0.16074863 0.14097215 -0.18156946 0.060540427 -0.4679299 0.14333533 -0.2209755 0.29292268 0.011959559 -0.55235654 -0.04166476 0.7419148 0.15806139 0.10937369 -0.41220248 -0.081534564 0.49575174 0.088787936 -0.082406595 -0.29467484 -0.107973136 0.0662992 -0.114797875 -0.5166492 -0.2054371 0.6166008 -0.17085916 -0.045873124 0.33339778 -0.14297482 0.09159862 0.12491885 0.43221968
21033 1.1219063 0.13080254 0.24439445 0.5428725 -1.1246382 -0.02498874 0.43768814 0.59802526 0.012679713 -0.11299272 -0.53488815 0.07577033 -0.2553077 -0.7294324 0.8499764 -0.0748802 0.41164392 0.05056258 -0.37978867 -0.29333138 0.025274806 -0.6984367 0.52584326 -0.5353445 -0.016320417 -0.36760002 -0.0657673 -0.1162718 -0.79496455 0.24888602 0.092167035 0.72035855 0.28742242 -0.3608306 0.31438407 0.2472768 -0.43248788 0.13022824 1.333477 -0.094405256 -0.17647232 -0.31211174 0.68077993 -0.04389012 0.8965406 -0.32956016 0.021567382 0.50515157 0.010871707 0.22126798 -0.8800359 0.14191107 0.11236568 -0.008946421 -0.11763155 -0.3987741 -0.21793622 -0.26709098 0.006187594 0.2471216 0.9516669 -0.41020668 -0.38568395 -0.44868374 0.46014366 -0.71609867 0.068984255 -0.34719184 -0.02569294 -0.043756094 0.5781569 -0.16024673 0.4321693 1.0903459 0.9578641 -0.39865884 -0.15652126 -0.26184666 -0.14407125 -0.5188242 -0.3488549 0.14409852 1.3823209 -1.1069078 0.3011543 -0.54015106 0.5168391 0.5100979 -0.23580724 -0.26622316 0.9836218 0.6140665 -0.02606672 0.5481488 -0.16855414 -0.2723283 0.5470346 -0.37028968 -0.09833245 -0.48503163 0.50669324 -0.9698777 -0.41037226 -0.18141958 -0.15323137 -0.30611613 0.6330542 -0.4572833 -0.24610244 -0.70152736 -0.2279209 -0.086594254 0.32525423 0.6899569 0.33138344 0.3906001 0.057809528 1.0446483 -0.5958833 0.1805929 0.16571473 -0.39863595 -0.24107356 -0.364958 0.634568 -0.4509601 0.12523976 -0.4301389
5395 -0.31802547 -0.04060432 0.11425045 0.15459959 -0.7019756 0.14361428 0.6918037 0.20750275 -0.09238549 0.1101873 -0.2284318 0.093183964 0.64088035 0.24396285 -0.08584699 0.29242587 0.32081357 0.30923232 0.042843305 -0.20754957 -0.634621 0.03226227 0.15518273 0.7031535 -0.3125642 -0.63795483 -0.6840326 -0.60165745 -0.11829357 0.59926414 -0.06254063 0.26598686 -0.08193817 -0.06689164 0.3167482 0.5634182 0.100575514 -0.082850434 -0.09946171 -0.017255576 0.26179433 -0.51375085 0.4199012 0.08343475 0.113954306 0.7258016 -0.3909471 -0.0974577 -0.030972637 -0.1524348 -0.39156055 -0.014837138 -0.35833025 0.546239 0.6216051 0.15768588 0.26154673 0.3969024 -0.2474541 -0.20388637 -0.4291322 0.2119226 0.11554956 -0.13037735 0.52024233 -0.008212189 -0.20984247 -0.1910608 0.12072342 0.20108776 -0.11800918 0.3715125 -0.2777088 -0.10593822 0.2948204 0.036608987 -0.27660316 -0.18584934 -0.33665544 0.18622303 -0.35451663 0.23711649 0.14073941 -0.4086719 -0.27271742 -0.18002187 0.78320456 -0.1358256 -0.36217967 -0.25798914 0.14581595 -0.23133406 0.38539913 0.27980497 -0.36206907 0.06442809 0.41222277 0.23260897 -0.19637117 -0.6257068 -0.40062436 0.2821659 0.34447965 0.071776874 -0.34953943 -0.5952646 0.6128996 0.59891576 0.14134024 -0.41047713 -0.16972111 -0.9869426 0.22600177 0.03522639 0.81459486 0.21445656 0.07422072 -0.42449236 -0.52106035 0.3016126 0.26567596 -0.4887826 -0.05091038 0.5722807 -0.17695402 -0.03822431 0.08021886 -0.12323018
9136 -0.12254309 -0.062103596 -0.13826324 0.19782855 -0.52102935 -0.11774998 -0.052160785 0.27762857 0.21822618 -0.28615436 -0.023484634 0.014284632 -0.017699046 0.09945001 0.32942614 -0.50096303 0.49043778 -0.092136 0.069265604 -0.43230397 -0.20288101 -0.7873775 0.15669295 0.825473 -0.29514655 -0.34140596 -0.1709084 -0.62561053 0.049057446 0.023032622 0.19303708 0.266854 0.011979326 -0.022731101 0.7386622 -0.23946804 -0.12979539 0.26272434 0.038492884 0.04890175 -0.013294264 -0.22050539 -0.1877074 -0.25692052 0.78076756 0.07964362 -0.2712005 0.12888128 -0.4438857 -0.10115694 0.24496958 -0.0013515897 0.044929132 0.5522622 0.56231016 -0.102200314 -0.24592158 -0.18637286 -0.18637964 0.017670529 -0.1791415 0.3463233 -0.4024051 -0.058929116 0.24553469 -0.006368955 0.31408253 -0.16192998 -0.036768194 0.8400333 -0.12439629 -0.32697126 0.016612066 0.007504272 -0.2644466 0.38213626 0.1167282 0.18437968 0.52160496 -0.004034941 -0.17070188 0.23017295 0.0718578 0.1874121 -0.4181975 0.23297366 0.4212256 0.33691946 -0.36112055 0.0791674 0.06372927 0.22850427 -0.24008453 0.19230838 0.87907207 0.14817172 0.5907315 0.5956895 -0.0740901 -0.21916674 0.22947349 0.2131094 0.1265216 -0.21456324 -0.5086111 0.38988698 0.35191458 -0.0036321022 -0.071930915 -0.32803607 0.005148947 -0.03346849 0.14953257 -0.17250581 0.05240996 0.22629894 0.030520706 -0.58959955 -0.035314087 -0.27412212 0.05533758 0.22590259 -0.13125154 -0.17377573 0.20655267 0.045159698 0.5896361 -0.18927757
4792 -0.20211914 0.31287405 0.063925795 -0.039629325 0.04160793 -0.5428621 0.13943586 -0.50230944 -0.18985645 -0.7501213 -0.06642421 -0.03170818 -0.20446299 -0.5527704 -0.026822077 0.021775572 0.6888804 0.1269596 0.05229531 -0.3835113 0.50706285 -0.21009505 0.30096164 0.23554632 0.32260013 -0.4229667 -0.052804343 0.27018014 -0.30303138 -0.118216485 0.46588156 -0.0069885226 0.4266788 -0.043926187 0.39468792 0.123211555 -0.3729733 0.9838266 -0.020188255 -0.00027531534 -0.08918867 -0.2638566 0.5579765 0.3249789 0.17220677 -0.18846579 0.5400312 0.3360983 0.013006717 -0.112146765 -0.16722786 0.20805117 0.19577071 0.43724433 0.21949428 -0.25291765 -0.10761094 -0.42203975 -0.5978459 -0.4784499 0.11347446 0.31059247 0.57896155 -0.33524254 -0.28366873 -0.5647704 -0.19314465 0.053251855 0.056055263 -0.15564606 0.26571265 -0.2514554 0.46163183 0.43937352 0.44779056 -0.21298568 -0.4199885 0.086107425 0.3461387 -0.37502363 0.5343784 0.33344078 0.47312096 0.098454684 0.08536586 -0.037917856 0.8500526 -0.50819653 -0.21055122 0.4608225 0.34177667 0.8096024 -0.11861542 0.13551906 -0.25164226 0.31910768 0.33855674 0.22598709 -0.24584717 -0.11962352 0.18152857 0.24048293 0.3195908 0.4993343 -0.2903353 0.3555968 -0.47874188 0.19281042 0.2038003 -0.0021277007 -0.33734894 0.34909073 0.3548913 -0.6429026 0.054201428 -0.5982851 -0.21471268 -0.16515556 0.25417405 -0.3682921 0.2945684 -0.14226659 -0.40446246 0.17069781 0.16450164 0.3458598 -0.20872642 0.10527378
1632 -0.22707969 -0.29354465 0.22529736 0.33913657 -0.15969543 -0.20177323 0.72314286 0.13797843 -0.9880282 0.011330643 -0.283476 0.3212213 0.17444745 0.062890105 0.35660133 -0.3909487 0.20283207 0.011491886 0.14288948 -0.052398782 0.31750283 -0.27535775 -0.2912524 0.93201756 -0.21580791 -0.61205745 0.39612076 -0.56826997 -0.116419405 0.20619294 0.3543907 0.028957574 0.10657786 -0.43537813 -0.20184048 -0.11560445 -0.36745423 0.039414622 -0.0016449679 -0.027100464 -0.19125849 0.28339002 -0.33342436 -0.22509964 0.4454543 0.08355877 -0.94383776 0.18757023 0.23964821 0.22311492 0.23754753 0.25790054 0.12732993 0.3204831 0.02612794 -0.7003535 -0.2911713 -0.08779997 -0.5789654 -0.030525194 -0.20441908 -0.006189151 -0.48230642 -0.56361806 0.27119613 -0.01704023 0.8357832 -0.2038251 0.17413971 0.47561142 0.83957005 0.16961974 -0.09673355 0.008509778 0.094066374 0.19977367 0.19538541 -0.29688662 -0.2277273 -0.11768799 -0.06509532 0.33584583 -0.041772693 -0.17937951 -0.39307806 -0.09689699 0.6048731 0.2671956 -0.4389004 0.049730025 0.16923466 0.4472874 -0.04416733 0.23673859 0.39267236 0.40948802 0.53582686 0.2498163 0.06512397 -0.3434811 -0.16648586 0.35559726 0.11889987 -0.29919797 0.038647927 -0.12526421 -0.042675238 -0.07898637 -0.025963407 -0.053388987 -0.34543172 0.00034047323 0.20285173 -0.05816568 -0.120523974 -0.11186292 0.0028485933 -0.3917596 0.19457702 -0.4486064 0.22886313 0.16566013 0.36895525 -0.42494106 0.0024200235 -0.42911994 -0.059961125 -0.09057167
248634 -0.5568366 -0.22823109 0.6225832 0.49441886 -0.28075323 0.41244242 0.020224487 0.14894031 -0.43346128 -0.074794605 -0.6643915 0.23374404 -0.052039158 -0.0054039597 0.22367339 -0.2685491 0.7204096 -0.673913 -0.09404873 -0.69807434 -0.6156685 -0.34817913 0.21369356 1.1777205 -0.03841628 -0.29042467 0.41337997 -0.777074 -0.14412172 0.33384755 1.2066855 0.4647758 0.4919024 -0.09885698 0.7991461 0.36073703 -0.20663218 -0.3809824 -0.12720154 -0.073666416 0.11115633 0.35428 -0.5798338 -0.43840322 0.2155443 -0.017131293 -0.6494302 0.010972977 0.14899026 0.4219277 0.23461854 0.1744923 0.6101359 0.6135185 0.27700388 -0.09138477 0.22497606 0.14956862 -0.21712564 -0.3262445 0.25041386 0.27681866 -0.802925 -0.2060007 0.15285055 0.27135396 0.2829824 -0.7826926 0.49596137 0.4486431 0.31850505 -0.26256755 0.08735347 0.19351701 -0.04005782 0.23488945 -0.20723224 0.0371095 0.07223067 -0.077768564 -0.020812564 0.095260456 0.318601 0.13808818 -0.17887233 0.17206524 0.6029543 -0.17508782 0.06905327 0.43372485 0.49183747 0.8104953 -0.15261999 -0.15702166 0.24478076 0.28719592 0.3462773 0.11695046 -0.46060532 -0.09710293 -0.024092296 0.15912877 -0.037516475 0.15794282 0.07357909 -0.08690394 0.5503909 -0.11239813 -0.08949594 -0.32056162 0.264903 0.19734037 0.18442138 -0.24266382 -0.16329207 0.023337418 -0.23680177 -0.7425827 -0.32591224 0.10621475 -0.12055494 0.6600823 0.09053126 -0.10176683 0.39980623 -0.41833657 0.5670827 -0.13411802
13382 -0.51503146 0.088393725 -0.4326479 0.41096833 -0.9229816 -0.6229506 0.028923752 0.08397493 1.0360053 0.42453647 -0.017741103 -0.025697658 -0.0113545 0.11346621 0.15324868 -0.21987543 0.6046875 -0.09777948 -0.031943634 -0.39487076 0.32456937 0.014664904 -0.12033705 1.1946117 -0.30755255 -0.35553175 0.621083 -0.405822 -0.16318288 0.65742064 0.022324815 0.18696262 -0.037574545 -0.3479293 0.5876071 -0.43508455 0.03725077 0.1286997 0.28521755 0.28509253 -0.36211976 -0.2309572 -0.34824282 -0.6155651 0.9267263 0.21387558 -0.7718541 0.486936 -1.0375772 0.474944 -0.16871466 -0.17830157 0.061357364 0.36541224 0.47229403 0.2467157 -0.18813194 -0.5354606 -1.2012094 -0.21489525 0.07646299 0.1899202 -0.036891602 -0.03524214 0.15134387 -0.42267773 -0.09308528 -0.41749278 -0.33134353 0.1441615 -0.80392164 -0.3465349 -0.23510672 -0.011361075 -0.32959765 0.3222191 0.1632596 0.06272234 0.15636726 -0.24450913 0.10020204 -0.19517922 0.05124877 -0.054970052 0.047264386 0.20861003 0.5207442 -0.2774729 -0.61506474 0.56420946 0.08479063 0.42847008 0.021944202 0.2725002 0.70265365 0.11890527 0.4984327 0.513279 0.18767916 -0.7292426 0.3055768 0.34637126 -0.17308061 -0.6193628 -0.66744924 0.27266595 0.3393029 0.0052670427 0.75130457 0.16425465 0.12092174 0.42781702 0.44647142 0.09785545 0.44870138 0.22818717 -0.032298133 -0.59236026 -0.74108523 -0.0927025 -0.66327834 -0.28460625 0.38275683 -0.3879354 0.39598295 0.3960154 0.6434669 -0.50588036
17532 0.0697954 -0.3564762 -0.6994977 -0.0023833187 -0.38056397 -0.11245794 0.3158239 -0.14117019 -0.45508423 1.1158613 -0.042600658 0.21655813 0.6540308 -0.8255851 -0.38948673 -0.025150968 0.60226583 -0.48684144 0.2527943 -0.6633471 0.061013855 -0.23684187 0.18360355 0.64613444 -0.10446593 -1.1389498 0.20197116 -0.3576151 0.46361953 0.66766864 0.73619866 -0.6966393 -0.10924205 0.6501457 0.2881499 0.55246454 0.17772403 -0.0740731 0.45827848 -0.5371317 -0.8918102 0.84811914 -0.14472812 -0.2126937 0.8503955 0.22827041 -0.7435038 0.23845632 -0.031481788 0.067482315 0.365979 0.8685743 1.1789244 0.8474932 0.81523037 -0.30389303 -0.0924338 -0.41825637 -0.16139753 0.051973473 -0.30536658 0.6108101 -0.12538727 0.05181841 0.055677213 -0.003833706 -0.11930672 -0.54881245 -0.22602813 0.032109533 0.7198165 -0.01849491 0.34291816 -0.9496897 0.020805748 0.106165536 -0.1958591 -0.034789942 -0.16286476 -0.6692519 0.51014936 0.14588615 0.37067813 -0.15985647 -0.3133882 -1.1633071 0.23771702 -0.040670678 -0.12645684 -0.5109528 0.19492923 0.5926033 0.28606138 -0.16246998 0.66260016 0.48045576 -0.048969205 -0.19798596 -0.34859222 0.06252089 -0.17385738 0.20944357 -0.46146387 0.40255722 0.3991368 0.18473673 -0.14276282 -0.21772565 -0.14736563 -0.2361656 -0.36764538 -0.5802792 -0.53934824 0.027051251 0.60133666 -0.5360933 -0.022054236 -0.21551734 -0.08265017 -0.26003507 -0.07367832 0.22183865 0.37478366 -0.3180019 -0.06327454 0.64383715 -0.16507903 -0.12207816
18957 -0.14191858 -0.17258243 0.19632103 0.44343457 -0.120997444 -0.3664294 0.72696805 0.026296472 -0.9172421 -0.10741842 -0.28845665 0.45881683 0.4901203 -0.09809676 0.40037036 -0.37874654 0.05607352 -0.36116698 -0.047995612 0.004639262 0.382053 -0.32516322 -0.45383155 0.9367465 -0.33038715 -0.40866643 0.47358444 -0.5466141 -0.25116566 0.31471846 0.3063035 0.13117222 -0.08615793 -0.3024612 -0.031663608 -0.22575137 -0.38926843 -0.05913156 -0.20337124 -0.27271354 -0.40455 0.12804727 -0.43454683 -0.105674155 0.27369204 0.124599904 -1.0966393 0.34544298 0.15857597 0.3945948 0.25852492 0.29481664 0.11051051 0.18214065 0.07873607 -0.618854 -0.065127335 -0.07384249 -0.5437052 -0.18268946 -0.2607903 -0.10878495 -0.4177795 -0.30388507 0.43525082 -0.07990758 0.68020266 -0.3175122 0.23981355 0.46875796 0.786476 -0.000868599 -0.057979282 -0.043054014 -0.0058403835 0.18320416 0.19229019 -0.4383761 -0.12301357 0.07015897 -0.14210837 0.27124014 -0.122295655 -0.31165758 -0.4472943 -0.2228406 0.77459276 0.35950753 -0.5181966 0.057343632 0.20373859 0.6425799 -0.23051953 0.34032395 0.40152648 0.41969305 0.46625558 0.1847576 0.16209012 -0.28253978 -0.0402518 0.29130238 -0.111748025 -0.3849183 -0.1480386 -0.040600214 -0.032519523 -0.023598617 -0.069901146 -0.22557713 -0.5978406 0.0074234684 0.102236934 -0.1483597 -0.16890039 -0.06171823 0.13593063 -0.3662028 0.36460343 -0.5874934 0.06560661 0.14423408 0.34806147 -0.5109846 0.101174936 -0.505888 -0.15476526 -0.051213305
5291 0.19544072 -0.45885888 -0.37820593 0.3054945 -0.101339296 0.3689213 -0.029616838 -0.67767054 -0.62819475 0.6500093 -0.0011730246 0.2898852 0.5411209 -0.8026762 -0.29664788 -0.20992714 0.39420912 -0.23970439 0.21489406 -0.6686298 0.36135256 -0.38214168 0.1405913 0.9080346 -0.42232832 -0.8749559 0.5283292 -0.43597537 0.3050361 0.4725923 0.88277465 -0.7397892 -0.24564806 0.27437386 0.2665203 0.38676876 0.26201543 0.031697586 -0.040097218 -0.12912403 -0.7217295 0.543856 -0.23369983 -0.2663426 0.8369748 0.21562089 -0.5935577 0.15139851 0.17984696 0.09234984 0.16818191 0.22577481 0.7022879 0.58480036 0.8320177 -0.3462235 -0.38484186 -0.037530065 0.063079 0.03250203 -0.4131119 0.43897054 -0.30310503 -0.3101139 -0.2670295 -0.22388431 0.011241953 -0.4600796 0.054661933 0.28298655 0.23166914 -0.22070372 0.6965015 -0.61891884 -0.3366867 0.16373625 0.03395782 -0.01601626 0.12460311 -0.27295825 0.24908517 0.14569399 0.47764143 -0.1745131 -0.08268553 -0.9154671 0.1802899 -0.07659534 -0.28875813 -0.096463874 0.45151114 0.49901205 0.04037558 -0.25542444 0.6628555 0.18649241 -0.037789788 -0.2891014 -0.8224668 0.13474 0.06395853 0.18180831 -0.38668928 0.42718953 0.013755066 0.10160481 -0.15892388 0.1507612 0.08841807 -0.30491662 0.030524738 -0.379093 -0.1924396 0.28217736 0.61966884 -0.5662375 -0.18410812 -0.1636253 0.3365647 0.042221203 -0.090793036 0.33276284 0.30861792 -0.184367 0.1703137 0.3511706 -0.16393314 0.0741652
1331 -0.5578001 0.6249621 -0.23137084 0.016974816 -0.10644327 0.12297426 0.7099215 -0.016961185 0.18821318 0.38159344 -0.08645271 0.298321 0.17714204 -0.060699884 0.13841566 -0.16203164 -0.014096139 -0.093264915 -0.07681218 -0.5721286 0.47861567 -0.35192588 0.5070938 0.22530697 0.023013683 -0.5182831 0.5911555 -0.12271755 0.7194237 0.4575108 0.19711156 0.11005132 0.10598828 0.17262074 0.37729222 0.77932954 0.050868224 0.35306898 -0.10523552 0.040858913 -0.30357924 0.3779129 -0.30570114 0.11243607 0.23689887 0.0060071126 -0.21950091 0.30010015 0.16355507 -0.15796633 -0.011800321 0.8061779 0.116532676 0.19026172 1.332403 -0.03378894 -0.329333 -0.70881325 -0.5715313 -0.106072016 -0.3518482 -0.005666482 -0.24884829 0.43608662 -0.14231026 -0.3003772 0.3374715 0.08808234 0.05945257 0.21356718 0.42422202 -0.37034586 0.24803711 -0.1032765 0.011772885 0.085413925 -0.1299476 0.12243453 -0.5798191 -0.16837583 -0.46373826 -0.1823785 0.5280917 -0.3099041 0.13590728 -0.409382 -0.07529305 0.16116998 -0.13275446 -0.0017781411 0.051523063 0.22143137 0.7255065 0.37336567 0.7458659 0.43462327 0.27427053 -0.23937148 -0.43052563 0.069576494 -0.05834964 0.17837372 -0.90162784 -0.5915187 -0.030302886 -0.0065841344 0.27601317 -0.13345325 -0.049004827 -0.821534 0.4075574 0.33196822 0.0809068 -0.43463546 -0.08477498 -0.05576019 0.19338638 0.009738819 -0.15518269 -0.106420085 0.22292411 0.57643 0.15825415 -0.2131174 0.58325326 0.06841736 -0.3456378 -0.43044862
1016 -0.05763042 0.16159107 0.21291015 0.009316714 -0.27785283 -0.5615649 0.5808419 0.2064353 0.37728247 0.04164856 0.03846445 -0.04423009 0.03342437 -0.13031869 -0.14077158 -0.24160887 0.39027542 0.017677113 0.15273824 -0.381135 0.45065448 -0.13619253 0.2859374 0.43954659 -0.10540997 -0.24016069 -0.030738672 -0.8603785 -0.4683794 -0.0744633 0.33843598 -0.31118932 -0.16890448 -0.22082084 0.067733936 0.41202712 0.2991701 -0.05637415 -0.6760754 -0.07114903 0.09438781 -0.039314415 -0.13802549 -0.7472297 0.50974804 0.33984488 -0.3557549 0.32143134 0.80765337 0.17148532 -0.55290943 0.15770136 -0.33425474 0.41503856 0.14964479 -0.013943814 -0.45509037 0.5041275 -0.24764732 -0.004973909 -1.2639202 -0.31405064 0.07600544 0.28740245 0.011079842 -0.14339112 0.2501629 -0.45844573 0.36006552 -0.2093667 -0.1429897 -0.4186144 -0.3009714 0.2217274 0.30385557 -0.23951596 0.1182519 -0.13956004 0.17856303 0.4087336 0.40757924 0.06870954 0.2403582 0.10365291 -0.4248488 0.42914838 0.44266507 -0.29607955 -0.8471377 0.25274882 0.24060684 0.34456256 0.26437002 -0.17454985 0.34664944 0.1494072 -0.16153292 0.2821197 -0.020614373 -0.2185859 0.14568126 -0.4257608 -0.9146036 0.43311304 0.20598798 -0.38188598 0.81118274 -0.031155415 -0.45508862 -0.34155616 0.32298592 -0.5700162 -0.348925 -0.122802675 0.014274837 -0.064142644 -0.029047225 0.07073689 -0.32638413 -0.10889143 0.38310632 0.20136021 0.35022718 0.039877813 0.42608073 0.11030052 0.40539077 0.121730946
15360 -0.39080444 -0.19965021 -0.1333056 0.00545529 -0.0810373 -0.48656934 0.069929905 -0.21676898 -0.09595958 0.8237226 -0.2881569 0.36381415 -0.06540865 -0.27157184 -0.17699617 0.39196655 0.1503386 0.1911348 0.7830597 0.1670998 -0.19633034 0.11731968 -0.037321344 0.7933644 0.19895506 -0.19039391 -0.12531987 -0.43466514 -0.6135334 0.6306662 -0.104800954 0.17803514 0.3346135 -0.238195 0.06449506 -0.15098467 -0.47003737 0.6425969 -0.7202788 0.29023072 -0.35189494 0.2042523 -0.29184014 -0.0070810076 0.4563322 0.5246222 -0.18394715 0.64328575 0.3574235 0.27886894 -0.43465796 -0.3532883 -0.010361329 0.18061963 0.1906646 -0.40954253 0.05164457 0.8086329 -0.03637967 -0.82915634 0.19646843 0.15842728 -0.18004148 0.2652478 -0.038803346 0.09806823 0.38516304 0.20279025 -0.22653899 0.15663016 0.10858641 -0.23873836 0.02862547 0.07472394 0.21755862 -0.42234436 -0.15053874 -0.097347304 -0.19625492 0.034879085 -0.4759816 0.03176189 0.5618904 -0.5049993 0.15319338 0.15450041 0.41951466 0.16351475 -0.0067687845 0.10978848 0.5425646 -0.16353542 0.27315855 -0.376697 0.13060051 -0.11047601 0.28435433 -0.21098927 -0.106629655 -0.24865714 0.22623964 -0.005167837 0.06264369 0.33411238 -0.5927487 -0.20422536 0.905658 0.27545708 -0.082053475 -0.33105153 -0.103136696 0.19335958 0.09960488 -0.14422874 -0.30757856 0.18259995 -0.11753618 -0.23892127 -0.5603177 -0.19464558 0.59083515 -0.082873344 -0.08998254 0.20448354 -0.4366544 0.16684254 0.2215394 0.60429496
5111 0.0633906 0.4188014 0.33995664 -0.14790727 0.24298507 -0.64407635 0.2852882 0.011483746 -0.13389692 0.53196573 -0.83198714 0.25003362 0.20874962 0.24091856 -0.14001498 -0.33981192 -0.004684336 -0.19930176 0.71257275 -0.010013535 -0.22586675 -0.31310835 0.76319146 0.07317121 -0.2535066 -0.53456455 0.5834684 -0.72945523 -0.05523279 0.33998433 0.41760212 -0.4787349 0.08017077 0.7573653 -0.1295758 0.2689202 -0.19938129 -0.14957993 0.10985405 -0.22598071 -0.012429243 -0.15943234 0.0216786 -0.26053002 1.1132755 1.2429714 -0.08142585 -0.15030695 -0.25235504 -0.09856079 0.14222024 -0.2093643 -0.2830857 0.8275009 0.51532716 0.31654096 -0.055935312 0.29346287 -0.28564498 0.08826074 -0.30460688 0.33764642 0.23252967 -0.6038383 0.26869994 0.48590004 0.14963295 0.34965318 -1.1523225 -0.19435067 -0.06349344 -0.3041985 -0.13512242 0.2455878 0.40998673 0.2580403 0.05330083 0.17872675 0.25717223 -0.6975851 0.56576866 -0.2812101 -0.04029844 -0.11645717 -0.5183515 -0.3833339 1.0662596 -0.038158167 0.307757 0.7266734 0.43009356 0.784624 0.13142815 -0.31210646 -0.09418461 0.5361414 0.3648665 -0.327398 -0.14346974 -0.6197947 1.0435055 0.21444611 -0.5897924 0.3500122 -0.718829 -0.40724158 -0.46624672 -0.16577817 0.03439276 -0.3977942 0.8516904 0.098234594 -0.0043733628 0.46633196 -0.79704094 1.1583776 0.33525354 -0.24082315 -0.15077424 -0.034837496 0.107650936 -0.54680234 0.1012272 0.28251252 -0.3511531 0.18919535 -0.65704536 -0.37776318
14277 0.15654059 0.54559267 0.03193222 0.22396941 0.106450126 -0.4722219 -0.10352227 -0.3963613 -0.15547812 -0.35749483 -0.08537911 0.08119632 0.3547228 -0.47808805 -0.18190958 -0.09163686 0.18449834 -0.12698331 0.016858697 -0.12674996 0.38742167 0.0047678053 0.04910383 0.1872013 0.63404304 -0.6052273 0.32024565 0.51140875 -0.1457063 0.015745409 0.72811 -0.070100166 0.3406534 -0.22142787 0.40758288 0.27571407 -0.6387305 1.3864036 -0.23869486 -0.0780047 0.054682497 -0.41496646 0.38106692 0.7347992 0.3284224 -0.061778214 0.091798835 0.28078413 0.23188913 -0.1903582 -0.035699576 0.52617425 -0.06584281 0.06023419 -0.19241397 -0.3261122 -0.048953637 -0.60063404 -0.68473965 -0.030515017 -0.07887134 0.017056733 -0.25755432 -0.0063913236 -0.0051457146 -0.8372379 -0.016292956 0.05218974 0.38835725 -0.2750138 -0.30340347 0.13885956 0.288773 0.5973883 0.29924515 -0.45936924 -0.07204808 0.01176964 0.09681069 -0.2465726 0.28940654 0.24633819 0.44868302 -0.06252224 0.4696901 0.15261495 0.57133293 -0.48770756 0.33033463 0.055027977 0.2561968 0.60335743 0.56489486 0.12854634 0.0035670765 0.14298818 0.22021142 0.10129688 -0.13772467 -0.6574722 0.2671921 0.4617252 -0.19342485 0.63394666 0.0057588676 0.16398254 -0.17821127 -0.20946203 0.28242108 0.1905407 -0.77451175 0.05093589 0.48195386 0.11228202 -0.14095773 -0.21868709 -0.5122295 -0.23625249 0.3007494 -0.86544275 0.77722764 -0.37760714 -0.27234972 0.42944768 -0.14840433 0.026287042 0.38006845 -0.0032641056
25296 -0.124101624 -0.5048125 0.13801144 0.36930826 -0.2214375 -0.8620824 0.0012770239 0.42642516 0.18751386 0.86425626 -0.09235391 0.065900505 -0.21165419 -0.9876081 0.34780726 0.12267176 -0.05247467 0.7443648 0.121772304 -0.35685447 0.43809482 1.2722988 0.46541366 0.9016811 0.033510767 -0.4050056 -0.11896244 -0.51985 -0.13051662 0.080873564 -0.06071248 -0.063723974 0.46664777 0.3050278 0.24658445 0.44619778 0.12596466 0.5497155 -0.76288986 0.16017957 -0.041037396 -0.0948233 -0.3762436 0.13246089 1.3110218 0.44846222 0.20132488 0.38067904 0.29234907 -0.25422046 -0.06183598 0.2973329 0.25797167 0.096446104 0.40912583 0.36299902 0.2408372 0.38161066 -0.87875295 -0.53011006 0.70361155 0.40926307 0.1314833 -0.4091311 -0.03449244 0.41900918 -0.14013118 -0.62379694 0.11789839 -0.17206827 0.33234355 0.11441344 -0.28607365 0.33703405 0.086930215 -0.16241664 -0.14750053 0.080542445 -0.3632059 0.1962551 -0.59146184 0.078319654 0.16631833 0.006526284 0.27658135 -0.3078987 0.600419 0.45283288 -0.05893618 -0.0648627 0.182519 0.5099235 0.4242584 -0.41889828 0.44417337 0.09256174 0.32202154 -0.39798632 -0.09301345 0.029195623 -0.23249766 -0.44715992 0.3767978 0.45993483 -0.7954203 -0.17214358 0.5309377 0.41132593 -0.12771109 -0.18614912 -0.2910505 0.23253803 0.4729722 0.22469087 -0.9221094 -0.6150794 0.21603686 -0.14004274 -0.31288272 -0.14015117 0.6876501 -0.17989184 0.05361367 0.26720715 -0.2268679 0.24157764 0.1329163 0.1601421
2911 -0.1950797 0.22318059 0.16507266 0.29981378 0.07976351 0.12433816 0.3613006 0.40974003 -0.38034716 -0.12930511 -0.39255637 0.2665529 0.07517447 0.01772048 0.26177827 -0.28577828 0.41342103 0.07563775 -0.22556075 -0.048373364 -0.16206385 -0.010593616 0.20326053 0.56096965 0.072579555 -0.36603656 0.43051168 -0.4755644 0.1162598 0.14299172 0.43849388 0.11383559 0.27280283 -0.016957719 0.9704442 0.11534579 -0.12636606 0.08151487 -0.4610634 -0.0149655845 -0.08895685 0.33856037 -0.23533748 -0.2442033 0.37650302 0.0842726 -0.607398 0.0052412665 0.4070787 0.28224108 0.15181018 0.33972973 0.716943 0.27853203 0.27844265 -0.4585847 -0.25550172 0.1938414 -0.39240867 0.0062690685 -0.3077036 0.11950553 -0.5784106 -0.6579355 0.40973747 0.017783917 0.46996582 -0.075183295 -0.03738515 0.11298429 0.2786673 0.025145555 -0.029557347 -0.13220863 0.010413627 0.4395471 0.28873268 -0.37219375 0.08338597 -0.14930542 -0.13030443 0.23298943 0.31102422 -0.122816466 -0.5686039 0.096002065 0.0040999306 0.035333477 -0.38124436 0.04897682 0.24531846 0.28546628 -0.18756728 0.043050207 0.61557066 0.071176134 0.6392368 -0.13443242 0.14754361 -0.45051903 -0.23058984 -0.20258327 -0.103496164 -0.089749135 0.20445469 -0.15108983 0.36410663 0.08482998 -0.024144696 0.1746709 0.36773843 0.28375053 -0.22700633 0.089814216 0.37694034 -0.097026676 -0.08454605 -0.3338664 0.33794785 -0.34890532 0.33781767 0.09430611 0.08794484 -0.29231277 -0.22406611 -0.14786224 0.30107197 0.059093416
6151 -0.23461086 -0.31348798 0.41848624 -0.4101919 -0.49487114 -0.08861128 -0.068332195 0.17405528 0.77912605 -0.4824056 -0.62345666 0.7088469 0.33670864 -0.09176353 -0.19786176 -0.4916847 0.70142984 -0.60932225 0.38035482 -0.0221651 -0.15712175 0.23276931 -0.18069606 0.28724283 0.035618775 -0.84902376 0.34314066 0.698422 -0.22724098 0.11604932 -0.2788243 0.17592175 0.6226008 -0.18321523 -0.4046676 0.039421845 0.1605328 0.24049814 0.23064585 -0.61417574 -0.03383959 -0.015096471 0.610916 0.8517724 0.431162 -0.124505505 -0.16668092 0.30371946 0.12915702 -0.48604637 -0.7011673 0.34437537 -0.15638722 0.39447543 0.46041495 -0.27370417 0.12518914 0.6332551 0.960898 -0.31172404 0.005066245 0.58240217 0.017020617 -0.20672943 0.16518655 -0.62414545 -0.014790356 0.074362494 0.09269038 -0.3286024 0.27455068 -0.11572074 0.68872535 -0.18098316 -0.22139265 0.57579505 -0.19478032 -0.50085425 -0.17260006 -0.73859555 0.121662274 0.3033887 0.28620955 0.18364882 0.22792101 0.16340221 0.155006 -0.7086427 0.09837361 0.09542641 0.40242255 0.09166071 0.056420505 0.0056795003 0.82946754 -0.060728397 0.47791994 0.4978136 0.3095286 -0.6990238 0.1471696 -0.008968384 -0.043748576 0.16199684 -0.20520271 -0.5117241 -0.30289978 -0.44324514 -0.20556517 -0.27626845 -0.06810014 -0.10976333 0.13485228 -0.11951723 -0.4839274 -0.2577945 -0.057912998 0.16202869 0.3859437 0.022023367 0.29074737 -0.044292416 -0.14777753 0.43300667 0.7257875 0.38207543 -0.32171386 -0.28268063
2289 0.043071866 0.7157626 0.29977524 0.3221642 -0.04431301 -0.32319915 0.103735045 -0.030239187 0.2589534 -0.329521 0.051068302 0.008927013 0.19931047 -0.44638777 -0.30764776 0.09812599 0.1628445 -0.36263144 -0.06701241 0.2036103 0.31595725 -0.301499 -0.011866681 0.21461657 0.6137742 -0.34744188 0.34543002 0.44142196 -0.27870294 -0.040143542 0.6598143 -0.19180825 -0.005830253 -0.09783462 0.32984886 0.14064911 -0.35158774 1.3068402 -0.37488416 -0.06408 -0.04510271 -0.46790326 0.3834138 0.57246876 0.411039 0.08008861 0.11196459 0.08128974 0.31274274 -0.083997495 -0.027112324 0.25786415 -0.07741062 0.17199919 -0.15275455 -0.38052356 -0.017197484 -0.5786113 -0.5619479 0.19196588 0.0044384925 -0.09538576 -0.0010811692 -0.2125381 0.04963638 -0.59146804 -0.06860262 0.29583925 0.31391454 -0.1378237 -0.25681996 -0.12750946 0.2186055 0.347394 0.06127772 -0.5033266 -0.12371727 -0.04341628 0.25594908 0.02049123 0.5719061 0.4033807 0.74950624 0.20466672 0.65163785 -0.010028635 0.6671375 -0.20153342 0.3437612 0.19741684 0.55634665 0.782961 0.36442256 0.39021492 -0.00700207 0.44086912 0.30921158 -0.03035811 -0.11954191 -0.48481062 0.47883147 0.48821935 -0.43070045 0.5882758 0.0688189 0.2579165 -0.2461749 -0.16807705 0.3087492 0.22489098 -0.5955474 0.12428953 0.29951176 -0.007792461 -0.12816752 -0.57275397 -0.05283125 -0.12825699 0.23607287 -0.5774912 0.33568695 -0.33192024 -0.63030535 0.54577076 -0.002445414 0.22527 0.06112682 0.17833988
48692 -0.3335079 0.24608994 0.06496503 0.0826001 -0.45757043 0.5140274 -0.061176676 0.45839253 -0.55789584 -0.35664308 -0.87404007 -0.22565927 0.3900875 -0.77839404 0.25575626 -0.3155389 0.10739771 0.3386169 -0.413543 0.6341712 -0.31157434 0.004451508 0.7846098 0.44760743 1.2971022 -0.8455772 -0.19404721 -0.38418785 -0.28053737 0.5414772 1.1940409 0.21858256 0.74216974 0.48664472 -0.11797038 -0.21019429 0.4393106 0.47723284 -0.13323793 -0.5894817 0.3020098 0.018899366 0.0736944 0.09175824 0.29493248 0.5541018 -0.3557926 0.24974711 0.10101318 0.28010258 -0.6930094 -0.10546859 -0.42056265 0.07704179 0.8772765 -0.35499626 -0.56988686 0.30845484 -0.34425217 -0.7790965 -0.378703 0.2530657 0.08846721 -0.17576322 -0.6097432 0.060835578 0.2833851 0.00019614307 0.18376864 0.53441435 -0.3030764 0.031988584 0.7188043 -0.06589877 0.33749974 -0.20457028 -0.17421961 0.82115066 -0.7557109 -0.22852683 0.54679674 -0.50073814 0.8055858 -1.0181929 0.53387964 -0.42607552 1.2373793 -0.6058864 0.4043146 0.16331942 0.58459324 0.15637997 -0.6414363 0.1501907 0.1370291 0.76572555 -0.6523713 0.6348253 0.019227562 0.10511586 0.7548928 0.021649165 -0.40218532 0.6941049 -0.64817643 -0.073874325 0.30333713 -0.07616416 -0.41246495 0.3482674 -0.88442063 0.5208841 -0.35158506 0.19604358 -0.3415614 -0.11028429 0.45293298 -0.3061119 0.9434495 -0.04170607 0.39279678 0.6651683 -0.39340758 0.5773259 0.39329383 -0.18402678 0.33356312 -0.5376055
19720 0.16376771 0.080328874 0.36581916 -0.106172584 0.044912774 0.18328941 -0.027415624 -0.07888437 -0.4260189 -0.044169698 -0.24234802 0.3768534 -0.12707126 -0.38209897 0.119007766 0.028667275 0.6805375 -0.6846916 -0.3733985 -0.205514 0.06823591 -0.05040876 -0.62536377 -0.18493932 1.3860422 -0.5580433 0.24364135 0.021081455 -0.3567039 0.20412917 0.857356 -0.1770275 -0.5985615 0.32594547 -0.062555 0.22519512 -0.10589302 0.9203131 -0.2173527 -0.29042503 -0.104755044 -0.6775161 0.34361225 0.72038615 0.59173876 0.21005614 0.028369317 -0.2800971 -0.70971173 -0.5208196 0.38159123 -0.15816852 -0.07155514 -0.23541358 0.6820734 -0.0026833338 0.21229881 -0.79397565 -0.8564983 -0.4566364 -0.13650823 0.49560896 -0.38301224 -0.53096765 0.27299726 -1.1541138 0.47172695 0.42190546 0.24667758 0.06346751 -0.034535415 -0.11142236 -0.2807353 -0.14720124 0.6846258 -0.6409168 -0.40269482 -0.2660166 0.27684256 -0.34366044 0.36789864 0.20400414 0.88849574 -0.2755417 0.4270129 -0.27985665 0.35091636 -0.8006997 0.43596756 0.30641708 0.6910365 1.1443405 -0.20067044 0.29754484 0.2558263 -0.23657165 -0.09341679 0.9714861 -0.13771838 -0.744859 0.37770194 0.9587437 -0.15916887 0.06048054 -0.41779667 0.09784615 0.7959405 -0.44480368 0.9159739 0.2957647 -0.7083581 0.38712278 0.46803546 -0.119356595 -0.22313707 -0.49293923 -0.2890819 -0.00020848657 0.19532564 -1.0204331 0.8955333 0.17392687 -0.28015444 0.42101502 -0.096679576 0.520962 -0.28755432 0.5502006
6841 0.015607201 -0.78914875 -0.75226915 -0.29459974 -0.35392922 0.24414451 0.15064074 0.5565841 -1.0733849 0.06400838 -0.04800644 -0.765264 0.41239068 -0.27158415 -1.0447896 -0.021607751 1.1853456 -0.12684065 0.036437996 -0.060314037 1.0428404 -0.21149027 0.65534925 0.12912996 1.2147397 -1.0605903 -0.5197406 -0.5479874 -0.56481224 -1.0116354 0.053179175 -0.6622126 1.8194286 0.1445029 -0.054893576 0.951167 -0.11449656 -0.22787191 0.6363312 -0.9810165 -0.024943696 1.2090116 1.6529973 0.37484825 0.6012661 1.7501367 -0.30525678 0.60121864 0.093021534 -0.4082842 -0.6969368 0.7091513 0.063907206 1.2316334 1.1970216 -0.7306799 0.400708 0.24863589 -0.30861565 -0.6736184 0.5634064 0.59369993 -0.40695053 -0.15853113 2.2616737 -1.5374476 -0.34450534 -0.2933842 0.7159095 0.6297176 -0.18596652 -0.5769361 0.7660799 0.06564488 -0.3253027 0.025620952 -0.03509282 0.6165207 -0.9756788 0.46412182 -0.019117003 -0.3291231 1.6413242 -0.66122806 0.30097988 -0.47217333 0.23469724 -0.59181625 -0.1654124 1.0442102 1.0450182 1.6974378 0.6830762 0.1258413 0.51032287 0.91323596 0.27245143 0.5379024 0.069733396 -0.1756337 0.55242896 0.67898697 1.1648971 0.5245348 -0.051161394 -0.2279427 0.005369443 1.2045382 0.5094563 -0.3280574 -1.0236346 1.2550137 -0.23473093 -0.29324403 0.11929494 -0.20627733 -0.047025565 0.57154346 -0.06831735 -0.23236382 -0.015177896 -1.0505977 -0.26238248 0.57025766 1.325023 0.07057726 -0.35173473 -0.09126648
4131 -0.059007544 0.28144705 0.0702064 0.06293249 0.13792248 -0.39354998 0.22341652 -0.5699046 -0.1551228 -0.6568202 -0.35319892 -0.0042275884 -0.19713803 -0.6909828 -0.023160366 -0.014675031 0.6795595 0.16413978 -0.053393006 -0.43249065 0.28187126 -0.40656024 0.5160012 0.26478052 0.2925422 -0.27264485 0.18350267 0.27100822 -0.31837818 -0.14652461 0.5300722 0.15930627 0.35567966 0.1307663 0.49219203 0.075941116 -0.23660608 1.0739868 -0.041177336 -0.06991933 -0.14850454 -0.13648845 0.52689725 0.48666528 0.063208684 -0.28275874 0.5820383 0.41636908 0.01757726 -0.30356887 -0.14218833 0.32911047 0.07142293 0.4753028 0.18482806 -0.22821967 -0.030142091 -0.39207834 -0.64765406 -0.54959977 0.03477111 0.4602135 0.82149214 -0.23519857 -0.23831162 -0.46334526 -0.12331405 -0.03764409 0.096147336 -0.16765052 0.23391284 -0.14292122 0.34024066 0.35342908 0.49433208 -0.2416706 -0.4366389 0.14572066 0.2669806 -0.3790783 0.38863575 0.2569498 0.4022323 -0.035464033 0.054860845 -0.048137695 0.8568546 -0.44479856 -0.29526898 0.5979017 0.4218664 0.521786 -0.2686467 0.13146795 -0.13051333 0.24310926 0.29013416 0.15986608 0.071177445 -0.17365369 0.21108906 0.14803158 0.20925729 0.30419582 -0.11707187 0.378059 -0.46672112 0.121596925 0.13084018 0.06636286 -0.35543993 0.3024907 0.22701253 -0.627415 0.322361 -0.5912223 -0.056301557 -0.18930903 0.075747475 -0.413353 0.2208753 -0.2637635 -0.25320235 0.3024033 0.20475759 0.374319 -0.20646954 0.09605531
