2182 128
452 0.16913974 0.24652591 -0.014137724 0.027235715 0.15829012 0.20048632 -0.09537211 -0.8565089 -0.13406451 -0.0078025544 -0.008874324 -0.41754803 0.05952714 -0.1545661 -0.46359283 0.20389532 0.48911634 0.15793024 -0.3149757 -0.12781765 0.23023134 0.0074596195 0.4807493 0.095334485 -0.19747745 0.5150413 0.94048434 0.071803585 0.23811355 -0.21235764 0.10694163 -0.34302452 0.32571128 -0.08697893 -0.30536553 0.07159239 -0.45931128 -0.77503014 0.04021057 0.36242765 0.22052655 -0.015988017 0.12833524 -0.0671468 -0.5555553 -0.2772927 0.236227 0.83289146 -0.3739128 0.7857031 -0.095229916 -0.03138195 0.12785144 -0.38590384 0.09148542 -0.64285266 -0.5895991 0.41134223 -0.14054 -0.046327554 -0.44026908 0.31560862 -0.45791164 -0.40296185 0.14871939 -0.2575826 0.1973622 -0.37678084 0.08999115 0.38026148 0.42112374 -0.31019065 0.34728932 0.2724423 -0.12805001 -0.17603265 -0.39621618 -0.44379064 -0.1399929 0.6958068 0.58655226 0.05654953 -0.3172049 -0.87647 -0.32940346 0.29374793 0.012718156 0.01705238 -0.56501704 0.6857347 -0.24178474 -0.5129532 -0.006221003 0.38490105 -0.041886523 0.6072317 -0.20955247 0.55425954 0.104812995 0.040726062 0.31692648 -0.28705686 0.27302626 0.40563342 0.41942164 0.12626667 0.059998967 0.06638534 -0.08357835 0.06297362 0.35387754 0.1804872 0.10718271 -0.18807125 -0.15501031 0.5663415 0.16177042 -0.031517897 -0.1507857 0.28121144 0.13218908 0.08356199 -0.42593372 0.3249345 -0.26457587 0.21046603 0.011641446 -0.14663824
2462 0.05412502 0.076632656 -0.0978704 -0.054874733 -0.3217004 0.2087471 -0.6603464 -0.37112474 -0.2863437 -0.256333 -0.3557427 -0.46971476 -0.019358434 0.27306 -0.22953117 -0.2408484 0.032189965 -0.1520962 -0.20258948 0.1709277 -0.26007336 -0.040014993 -0.1378463 0.055680618 0.36265352 0.40338784 -0.028886694 0.67049867 0.05691671 -0.30930263 0.39924958 -0.5960303 0.2817966 -0.10466363 -0.30991188 0.23248315 0.06973265 0.18180157 -0.29013303 -0.24352597 0.15591864 -0.06580963 0.8911201 -0.22785456 -0.28416434 0.09003961 0.22019869 -0.043103058 -0.08907322 -0.06145311 0.30502418 -0.27990046 0.29720488 -0.60068715 0.36893713 -0.2819987 0.003238685 0.52325004 -0.4673934 0.17292945 -0.30827633 -0.05667487 0.012780726 0.22801682 -0.37554702 -0.28860998 0.3632181 0.41078678 -0.29792178 -0.06677204 0.31536746 0.46060774 -0.00455091 0.10716389 0.03589651 -0.35746023 -0.6978797 -0.40935984 -0.0021383008 0.29618698 0.006055208 0.33236519 -0.6910876 -0.7910759 -0.20194148 0.1726138 0.15416147 0.32568285 -0.36179736 -0.01540133 -0.110328026 -0.03880525 -0.45712462 0.005823892 0.031191034 0.31036085 -0.080853425 0.38046774 0.18702607 -0.08604798 0.23157325 0.24947174 0.8919679 0.19708486 0.35359108 -0.1048827 -0.11624938 0.17352772 0.055462826 -0.5889664 0.5372686 -0.40529674 0.267399 0.054134708 -0.14592713 -0.051117722 -0.16938305 -0.093409926 -0.24391851 0.3573324 0.24601495 -0.0025412922 0.06478205 0.01980529 0.13092194 -0.17563051 -0.13642485 -0.07608115
724 -0.0676333 -0.056028467 0.06425455 0.064758345 0.1470792 0.115028135 -0.19785719 0.22507463 -0.17302024 -0.31680703 0.029903255 -0.109135695 0.027327107 -0.0037347819 0.13335156 0.07039817 -0.34457618 -0.71873546 0.018027453 0.16794443 -0.15125619 -0.48050326 -0.42021903 -0.44138706 0.1888817 0.08943839 0.6058035 0.3845836 -0.11431877 0.36654803 -0.19564359 -0.30835593 0.28893253 0.59389704 -0.13893613 0.12709221 0.048691638 0.36177582 -0.4291778 -0.11553602 0.1866091 0.024865676 0.2343223 -0.13514988 -0.2902112 -0.37184855 -0.25458995 -0.11537696 -0.083989255 -0.18317445 0.03135629 -0.36301622 -0.16175155 0.056544285 0.016180594 -0.085862465 -0.14409107 0.25342798 -0.26421687 -0.10069255 -0.09798759 0.093547694 -0.32713658 0.11144505 -0.22197795 0.35836235 -0.057492465 -0.013734509 -0.36318147 -0.016475907 0.4441511 0.27541423 0.074598014 0.008101854 -0.028820904 -0.07056792 -0.18383293 -0.10690134 -0.237408 0.13230102 0.25926325 0.17346948 0.12179517 -0.35455653 0.15774737 0.32867846 -0.49084908 -0.01557635 0.10318206 0.0034377868 0.26474392 -0.19692537 -0.2528116 -0.040663462 0.11423659 0.23353504 -0.2737089 0.3543336 0.09649619 -0.014250045 0.3029532 0.13474509 0.3818355 0.33852467 0.3331697 -0.17644683 0.6569273 0.523264 0.10502966 -0.57420164 -0.27587682 -0.24219146 0.76947284 -0.12419093 -0.34006575 -0.07149662 -0.3879929 -0.089075364 0.07460873 0.26785794 -0.05178393 0.19946678 0.03161793 0.083016835 -0.44520324 -0.08704074 0.01305276 0.15460074
35 -0.6029463 -0.5208919 -0.09667075 -0.02503647 0.14369442 0.077451415 -0.056051437 0.22176905 -0.45902377 0.11265383 0.53746474 -0.22590642 0.4349716 -0.6070961 0.13257794 -0.28840658 -0.714235 -0.27848077 0.49333322 0.025916997 -0.19236243 -0.24912177 0.34473115 -0.23379523 0.11331941 -0.55076176 0.29916373 0.30505216 -0.9569182 -0.14255324 0.35671327 -0.4215195 0.554963 0.16498545 -0.3565888 0.706855 -0.5515559 -0.17414363 -0.04318195 0.14294474 -0.0909473 0.045590375 0.5768989 -0.40293974 -0.07461004 -0.1484749 0.5862843 0.39639124 0.08273566 -0.30402982 -0.6016228 -0.546498 -0.15486747 0.6192553 -0.4459294 0.6555428 -0.015761444 0.014298911 -0.1686883 0.23387453 -0.0054795835 -0.24999492 0.5024211 -0.15280247 0.50891685 0.057634883 0.51819336 0.018547462 0.059628602 -0.102414176 -0.39677036 -0.40731585 0.024848204 0.06694042 -0.067588486 -0.19739892 0.8322449 -0.12900805 -0.12269556 0.35311887 0.47593895 0.42303532 -0.24087144 -0.21887626 -0.30661288 -1.189789 0.010636142 0.26203728 -0.45148012 -0.24318388 -0.57802963 0.15401158 0.3666479 0.8701912 -0.40907553 0.58196753 0.22309248 -0.7456646 0.6709357 0.50430936 -0.04630151 0.36903694 0.29858947 -0.33466774 0.22427931 0.16063713 -0.5657335 0.8686607 0.22149475 -0.47935256 -0.18214993 -0.1531241 -0.029805962 0.35617322 0.3130208 -0.09092807 -0.16467069 0.32563433 -0.19339195 0.3047764 -0.22193877 0.54581016 -0.039468113 0.64919937 -0.34559336 -0.5359015 0.061535504 -0.6780616
2 -0.54385656 -0.3034094 0.05090309 -0.10858741 -0.1976218 0.9732859 0.3650685 0.5223437 -0.6955852 -0.06424689 0.16464959 -0.25492534 0.07111841 -0.006969772 -0.4157102 -0.13188757 -0.48224643 -0.8466227 -0.7635126 -0.36950216 -0.57242864 -0.32169086 0.048914455 0.76560736 -0.051233202 -0.26693898 0.1864069 0.09921476 -0.0019308183 -0.9083851 0.17515944 0.22771326 0.0034955447 -0.022852765 0.13341822 0.16880552 -0.60140836 0.23374791 -0.6104592 -0.06922525 -0.14403446 0.49083793 0.015801279 0.9072775 0.253016 0.695793 0.22849755 0.7561739 -0.2203061 0.06990293 -0.009198244 0.52799356 -0.8732904 0.5096954 0.09565497 0.48611265 0.18556671 -0.57742053 -0.39100698 0.09453696 -0.07502139 0.23322557 0.32653794 -0.22955589 0.06703694 0.4095621 0.12848338 -0.20591153 -0.21850593 0.3247984 0.74830514 0.5234437 -0.14818092 0.24014288 -0.091165066 -0.2739549 -0.01556879 0.057814147 0.20809098 0.47628427 0.10151998 0.36073557 0.50500154 0.77428573 0.10873361 0.5041045 0.07061421 0.16579641 -0.1448318 0.46025327 -0.18410102 0.13715354 0.10276295 0.006346686 -0.3957238 0.32551733 -0.7107754 -0.5046582 0.18049923 0.02314132 0.2640836 0.033099454 -0.22950397 0.1988358 0.3877107 0.75660926 -0.247248 0.37501007 -0.28655493 -0.07170194 0.15234253 -0.31564873 0.14933257 0.15526612 -0.26159152 0.24583662 -0.24365409 -0.32139015 -0.2594167 0.70287585 0.70604 0.65721685 0.35217267 -0.15517154 -0.036415916 -0.55987793 -0.2065348 0.037986223
5731 0.076386794 0.20304246 -0.13277802 -0.05938004 -0.3460185 0.41767296 -0.6004929 -0.3402686 -0.13141127 -0.17904028 -0.5554894 -0.3006311 0.033236805 0.46673378 -0.4261756 -0.059871264 0.027996758 -0.13755779 0.0029182718 0.24465027 -0.29312232 -0.14278485 -0.042346083 0.10059683 0.37314352 0.49452588 0.062121816 0.40518 -0.15578851 -0.35880616 0.3167081 -0.66301614 0.22974901 -0.046760686 -0.50178665 0.34917247 -0.081703536 0.14678775 -0.24837545 0.048493825 0.24384092 -0.40641615 0.76554275 -0.28673536 -0.55283266 0.08697465 0.231626 0.054778416 -0.20616665 -0.35755116 0.50433177 -0.113505445 0.20811428 -0.90566075 0.16393963 -0.23904343 -0.19805185 0.55613905 -0.16664094 0.030881386 -0.15320879 0.1673275 0.16148336 -0.14832844 -0.44152132 -0.14889699 0.36766762 0.21227305 -0.03926244 -0.035582785 0.41021302 0.0689831 0.3196803 -0.0746613 -0.098195516 -0.43636072 -0.59905803 -0.5856773 -0.2833917 0.3042858 0.12364363 0.20153014 -0.6525269 -0.71213394 -0.3548201 0.066202335 -0.00495423 0.25674716 -0.2929943 -0.21861246 -0.052222863 -0.007719545 -0.86677885 -0.04500309 -0.0709414 0.056677565 -0.41738886 0.23203434 0.41328296 -0.015365531 0.23555826 0.1733441 0.9839272 0.17017058 0.34652218 -0.04131318 -0.022068333 0.17774203 0.11780891 -0.42083082 0.4306974 -0.30217558 0.4308225 -0.013583944 -0.036458824 -0.15767586 0.041830752 -0.0989839 0.0026436942 0.50134355 0.25868854 0.18066931 0.22085789 -0.060642347 0.072798654 -0.5055635 -0.18658857 0.011813685
1465 0.035483114 -0.04791866 -0.20098941 0.2388416 -0.07933405 0.29388103 -0.16680947 -0.39898083 -0.19375277 -0.47860146 0.0719666 -0.3643205 -0.054904602 0.32172436 -0.037870824 0.09659895 -0.77469724 -0.38886783 -0.35633868 0.11577831 -0.18444246 -0.49137154 0.1042274 -0.50195533 -0.3337282 -0.22929567 0.10234784 0.2635945 0.09654157 -0.222993 0.0049025766 -0.17377979 0.2347624 -0.053374995 -0.23546158 -0.4579672 -0.14937288 -0.11971973 -0.5053563 -0.206619 -0.014564635 -0.36571765 -0.10386455 -0.26136917 -0.1122281 -0.029788649 0.3230872 -0.18175273 -0.2268105 0.14676152 -0.4072832 0.15995337 -0.21560045 0.34471577 0.174157 0.19363214 0.091833904 0.24542156 -0.27241048 0.2946183 0.42498866 0.41077673 0.52626556 -0.778717 0.01462659 -0.16185795 -0.25180772 -0.21335784 0.53524 0.33163697 0.5685479 0.25243992 -0.07439922 0.035597455 0.11214986 -0.54323107 0.03517874 -0.21895476 0.60451704 -0.43934673 0.21144097 0.17232022 0.18978052 0.76418924 0.33879566 -0.061196376 0.42038244 0.24167632 -0.25882393 0.15532881 -0.40710095 -0.084571436 0.19398512 0.14424574 0.12769718 0.022964425 -0.2975808 -0.4335521 0.24155025 0.014940535 0.6694185 -0.5646301 0.28442752 0.31444517 0.4242238 -0.24832731 -0.5213194 0.935389 0.22458403 -0.3175136 -0.025872767 0.5662219 0.071675375 0.04731943 0.4418538 0.16699393 -0.29312763 -0.06662004 -0.27352592 0.29004446 0.32336545 0.595367 0.20439062 -0.37675667 -0.031731635 -0.19089127 -0.29500574 -0.29073387
8349 0.60365504 0.13497618 -0.16775993 -0.60907286 -0.06323739 0.16780977 -0.20316969 -0.73362845 -0.6534148 0.35945073 -0.17706038 -0.1861277 0.08764902 0.13393767 -0.03482055 -0.21497343 0.27530548 0.19761507 -0.44087693 0.67593336 -0.42097083 -0.25018293 0.09766746 0.060456846 0.14956278 0.92638797 0.38490403 0.19754665 0.24167822 -0.02535216 0.2760663 -0.30001527 0.63337237 0.03549313 -0.47828454 0.04654359 -0.20170696 -0.19651814 -0.3142687 0.19962467 -0.015164074 -0.23488973 0.122183725 -0.32290095 -0.57747495 -0.36828393 0.23632555 0.5915702 -0.32025635 0.2517527 0.2369963 -0.52488357 -0.5574675 -0.6008277 -0.12266556 -0.34462517 -0.3887916 0.88463014 0.2583135 0.1719188 -0.20547861 0.018591503 -0.48103467 -0.46355417 0.081321195 -0.57930857 0.31728965 -0.49596304 -0.092324436 -0.08915996 0.468579 -0.24029545 -0.2533806 0.14257799 -0.04393996 -0.10073741 -0.2490168 -0.8798105 -0.17579742 0.3772183 0.08922978 0.15212105 -0.5867796 -0.32244456 -0.885925 0.09369346 -0.47684032 0.48263964 -0.380365 0.42942032 0.02309046 0.26870593 -0.36745057 -0.017540919 0.08270646 0.20636593 -0.3221001 0.10206831 0.24040526 0.3357971 0.22367716 -0.37715712 0.6654601 0.45268235 0.44054046 0.12961008 -0.23916352 -0.38656268 0.13492146 -0.5127338 0.23966448 0.15197602 0.029041655 -0.34591177 -0.14596061 0.182663 0.31385472 0.23133625 -0.1065154 0.17956196 0.27089354 0.015744405 -0.17203751 0.11516672 -0.019278413 -0.15969433 -0.013852212 -0.022397332
491 -0.20387986 0.09331939 -0.08570216 0.25706184 -0.12339124 -0.19336024 -0.7822734 -0.30599353 -0.33171004 -0.13120532 -0.04089369 -0.90410775 0.03845357 0.43832073 -0.3007247 -0.3923471 0.08710266 0.0055260756 -0.28840375 0.22063121 -0.45235896 -0.11149823 -0.17649709 0.101243645 -0.0855564 0.7826237 0.42747802 0.40729573 -0.015789267 -0.61869663 0.13733663 -0.55570334 0.17392997 0.0035150987 -0.30995804 0.3878933 -0.053979523 0.44039848 -0.3367042 -0.11282 -0.05119731 -0.19781558 0.5389207 -0.4176474 -0.5435331 0.026235359 0.12569185 0.11681415 0.11057845 -0.0930259 0.2721144 -0.3740498 0.094063446 -0.47144294 0.80988884 -0.18455143 0.027808912 0.32365084 -0.25741637 -0.09792636 -0.27787352 -0.0145601565 -0.63315666 -0.25708354 -0.6369199 -0.27011558 0.27341312 0.14817889 0.31636456 0.0080693355 0.41533235 0.085897915 0.5721929 0.23323569 0.20097898 -0.22815204 -0.25252166 -0.41551217 -0.04609925 0.3820186 0.112025574 0.51133513 -0.4456309 -0.6562301 -0.2734485 0.03871062 0.025912585 0.15019898 -0.41442934 -0.025978448 -0.25452915 0.23579802 -0.24956225 0.3104288 0.24769036 0.32051736 -0.023489233 0.34201968 0.5128449 0.06279818 0.14085744 -0.18391933 0.90727323 0.35495475 -0.0638428 0.19186385 0.17634705 -0.17459133 -0.06337814 -0.5242874 0.12235944 -0.10865425 0.42859364 -0.33955908 0.016789487 0.026506199 -0.14734378 -0.14581533 0.61170584 -0.021113189 0.46843353 -0.09266629 0.5253064 -0.13851151 -0.18525796 -0.22610644 0.18716498 0.33752346
1565 -0.09630184 -0.1284248 -0.46564698 0.32017457 -0.299102 0.41648096 0.24345994 -0.4904713 -0.11659377 -0.8673161 0.27726477 -0.09867902 -0.12749098 0.18180779 -0.19506018 -0.03343226 -0.815319 -0.39323416 -0.35310715 0.4394924 0.010524912 -0.64604026 0.20724963 -0.23021348 -0.50642735 -0.5402739 0.3232892 0.13329145 -0.21983573 -0.05018645 -0.5796864 -0.21309105 0.10131748 0.1518368 -0.341442 -0.3284855 -0.34731936 0.05914949 -0.39417976 -0.29201847 0.0041962173 -0.19590998 0.17835589 -0.040485933 0.06765412 -0.22359751 0.61095214 -0.07568548 -0.40257657 0.17156379 -0.24965842 -0.014822064 -0.0058072354 0.4514098 -0.18861873 0.26772964 -0.008096976 0.175124 -0.6734526 -0.18597344 0.49299246 0.26451117 0.75510144 -1.0451455 -0.044766452 -0.21621436 -0.13348176 -0.27282947 0.64468926 0.06911691 0.46154767 0.15285467 -0.12369799 -0.31794798 -0.13143344 -0.4545773 -0.45355174 -0.41889396 0.8341827 -0.6114647 0.5056017 0.19095226 0.37997705 0.7223285 0.04394553 -0.33396202 0.6243566 0.09587203 -0.6512613 0.13809775 -0.5544173 0.12885065 0.10870695 0.22347982 0.032134827 -0.10056315 -0.3265603 -0.5305974 0.20573293 0.043232735 0.61626613 -0.6492903 0.27226734 0.40230435 0.3215356 -0.45290828 -0.40726295 0.7382839 0.41616708 -0.32287169 0.015521516 0.5357662 -0.17173062 0.12589714 0.21632692 0.27698195 -0.22921212 -0.039720688 -0.3768114 0.36753073 0.33845147 0.3364468 0.55154335 -0.53529084 0.08793882 -0.11568658 -0.17507744 -0.07438115
1788 0.039805416 -0.38104257 0.0022396164 0.7397238 -0.74296385 0.31796223 -0.3769575 0.60047954 0.09171215 -0.26387447 0.10797722 0.1858992 -0.048818465 0.10432931 -0.63532525 -0.59492964 0.72237456 0.032611288 0.26447988 -0.55190694 -0.10223775 -0.69228446 -0.3196404 0.4543764 -0.034189608 -0.11053842 0.8679004 -1.0664995 0.3995867 0.09129765 1.2775841 0.3164312 1.2256653 -1.1745064 -0.48139894 -0.44272378 0.68643713 0.6177208 -0.5228018 0.2747653 0.07373236 0.25990322 0.75444716 -0.29748532 0.23473918 -0.08714405 0.45407483 0.24043778 -0.900465 0.08943176 0.4319779 0.4981595 0.043616604 0.4202979 -1.4470464 -0.5373925 0.35117158 0.4212147 0.40875918 -0.20565076 -0.35197297 0.6638764 0.24859926 0.058343638 -0.53251565 1.264416 0.41855702 -0.7523661 0.6821952 -0.11956952 0.22974645 0.45374116 -0.7927221 0.74761146 0.12700787 0.2119957 -0.6900112 -0.5432847 0.48481604 0.060174026 1.1080983 0.17621052 -0.11067187 -0.012090789 -0.5342437 -0.15932071 0.95025694 0.973557 0.29644516 -0.5102147 0.00069952523 0.7864393 0.07234617 0.9017218 0.56021386 1.1443918 0.3538218 -0.21040983 0.40889457 0.012690156 1.3124918 0.18939799 0.26166272 0.15194122 0.2704259 -0.5255003 -0.04856506 1.6672881 1.160165 -1.3810048 -0.34751973 0.16033514 -0.02313197 -0.5800724 0.13602811 0.2734892 -0.9532025 -0.658236 -0.04634472 0.17843236 -0.009844283 0.28851753 0.1114595 0.81737185 -0.7461374 0.39071074 -0.0009135877 0.7576853
50114 0.0067819585 -0.38095477 0.027481657 0.74125934 -0.7460948 0.37261724 -0.35848188 0.61903733 0.13364987 -0.29670462 0.04090177 0.18636216 -0.022051223 0.077836946 -0.61462325 -0.5500297 0.7210322 0.106014684 0.30060515 -0.5462834 -0.09379487 -0.6971125 -0.4270958 0.5297607 -0.00034267502 -0.14443679 0.8218993 -1.025337 0.41321218 -0.0029933944 1.2396798 0.37205923 1.2796314 -1.2110137 -0.41913486 -0.42812255 0.69227386 0.6038257 -0.4862408 0.30887917 0.02114758 0.17304136 0.7090642 -0.27425963 0.2816154 -0.14117268 0.5529138 0.29028824 -0.9111787 0.12358581 0.45723876 0.522011 0.07086499 0.48531708 -1.478399 -0.54396415 0.43608144 0.44331798 0.42308864 -0.18846071 -0.48879376 0.61932826 0.27392483 0.15951549 -0.5263562 1.3209643 0.43528807 -0.7219304 0.66717017 -0.13900617 0.26888412 0.49483493 -0.86870843 0.768785 0.08852077 0.27297094 -0.76683617 -0.575225 0.44235098 0.0851596 1.1760118 0.26012924 -0.042303428 -0.05327042 -0.5601229 -0.17693163 1.037066 0.98877376 0.23782292 -0.4577453 0.0786576 0.74726295 0.012421338 0.99613947 0.64755017 1.1832683 0.4066874 -0.20093574 0.5301719 0.027803157 1.3498751 0.2588036 0.3222033 0.14252341 0.36803332 -0.5011663 -0.07656456 1.746125 1.1287178 -1.375692 -0.38777184 0.1349191 -0.049004376 -0.6047791 0.20038778 0.28003561 -0.888548 -0.68345964 0.032448456 0.17471163 0.040645324 0.26878053 0.12600428 0.7785616 -0.7788789 0.24905498 0.0019223818 0.774543
4473 0.28309107 -0.32739842 -0.3474924 -0.6407421 0.18172903 -0.12928647 -0.024700139 -0.028324567 0.15223052 -0.2924422 0.16292275 0.07169358 0.10776041 -0.05370101 -0.48467505 0.080504715 0.099119246 0.12767489 0.105287984 0.559316 0.26958704 0.20391124 0.084696576 0.09710751 -0.12570648 0.06846808 0.011769419 0.24035966 0.21154812 0.096489 0.13760379 -0.6062515 0.66655606 0.15918304 0.17442305 -0.10714175 -0.1675535 0.067375064 -0.6041642 -0.031609785 -0.20815831 0.076385364 0.15809405 0.043340314 0.24903902 0.13015729 0.04503227 0.23319325 -0.23731324 0.15423729 -0.11321499 -0.3027541 -0.049537245 -0.06764065 -0.5648021 -0.096138686 0.10785122 0.5484977 -0.090698 0.4493119 -0.7386822 0.3903784 0.21007758 -0.39347497 0.050992172 0.022444326 0.025963137 -0.096135296 0.057553552 0.27855572 0.1353561 -0.13869528 -0.1441224 0.02151372 -0.65168774 0.0051087537 0.32942483 0.038771603 0.020668058 0.015919399 0.032807685 0.2504501 0.0694204 -0.24526137 -0.040371433 0.3770052 -0.36898598 0.3192479 -0.21797602 0.3234912 -0.06860921 0.28162822 -0.5834252 0.53226215 0.58328754 0.47615647 0.08143387 0.34085572 0.6121463 0.20281157 0.6007324 0.06370252 0.14292818 0.68659836 0.39731494 0.10515658 0.1292071 -0.025552122 0.6799646 -0.19193272 -0.06923346 -0.3391651 0.4145737 -0.6439268 -0.2524741 0.341451 -0.3348615 -0.14907096 -0.15195325 0.39147708 0.040852368 0.3929616 0.4829917 0.058820035 0.42219043 0.6494133 -0.03322108 -0.073002085
1615 -0.09697567 -0.47357652 -0.56761163 -0.4151359 -0.37527856 0.0962958 0.30644974 -0.07934022 -0.10961425 -0.11848068 0.15827718 -0.010188289 0.23073177 0.06389407 -0.6519745 0.36088404 -0.022238575 0.27173185 -0.11050432 0.09621377 0.09685664 0.11509986 0.29331964 -0.18763575 0.12556808 0.5777418 0.047975622 0.13136704 0.121841565 0.32190496 -0.33753946 -0.58680034 0.41075823 0.0835304 0.063984826 0.11682364 0.04831583 0.26467448 -0.6030892 0.2381047 0.23923315 0.08860303 0.040689006 -0.077455565 -0.15775804 -0.0080594085 -0.19965467 0.70799327 -0.3622535 -0.16702987 -0.033676166 -0.4016793 -0.039766777 -0.20191516 -0.9175837 -0.048120353 -0.16504864 0.6977891 0.096839085 0.24491392 -0.32771966 0.6752644 0.43851522 -0.45107913 -0.03149599 -0.08651952 -0.48289004 0.23079874 -0.37337178 0.1989629 0.02355051 -0.119488776 -0.117986046 -0.22993436 -0.5110083 0.24034502 0.48868033 -0.2901928 0.2844122 -0.14129968 -0.020172229 0.17347725 -0.5481519 -0.64179945 -0.7161131 0.6956992 -0.13122703 0.30563316 0.38652924 0.4109209 0.08034151 -0.45402768 -0.34717998 0.32239258 0.40768567 0.54221386 0.064769305 0.32155132 0.913544 0.42705297 0.46804497 -0.11200045 0.06644699 0.6878463 0.5762878 0.08191914 -0.0111376345 0.06247897 0.7924839 -0.26361692 -0.026837492 -0.36459008 0.5301834 -0.33354527 -0.28187558 0.5903907 -0.6091828 0.23357916 -0.14811173 0.08631424 0.21696746 0.14146708 0.6494268 0.124464385 0.19124925 0.56263304 0.1805574 0.01867664
3153 -0.15444945 -0.26753592 -0.50962275 -0.045022435 0.099046975 0.4096091 -0.6690174 -0.5242021 -0.15173921 -0.014969167 0.27195147 -0.13614136 0.22965063 0.12215563 -0.31781763 0.23651673 -0.18078153 -0.17081198 -0.3632203 0.22595838 -0.14744192 -0.11432467 -0.1204049 -0.154961 0.31836483 0.1386912 -0.12709399 0.45342624 -0.32338485 -0.1631594 -0.021731747 -0.37202284 0.21122642 0.53452754 -0.14976886 0.11623762 0.60302913 0.18615752 -0.0940404 0.104290456 -0.60848886 -0.08873609 0.7556034 -0.2575019 -0.08823064 0.18696888 -0.34955782 0.17830391 0.27080727 -0.07998536 0.12535058 -0.043188 0.23607528 -0.07609797 -0.14223413 -0.86700785 0.086454555 -0.38371202 -0.12978444 0.3007091 -0.024379566 0.48981136 -0.10273543 0.2960138 -0.0074986015 -0.23535208 0.14567678 -0.09332724 -0.17719449 -0.3764949 0.6139416 -0.021197299 -0.13799937 0.21381226 -0.277269 0.2608151 -0.40440628 -0.36394027 0.018395904 0.31672633 0.6737041 -0.17025416 -0.29865545 -0.8284147 0.14624012 -0.0038443569 0.1275312 0.37327522 -0.095894806 -0.005864619 0.2427547 0.0045762598 -0.13786712 0.05519747 -0.28727856 0.2269549 0.036517385 -0.16791598 0.46207297 -0.047666036 0.09941825 0.015352574 0.62254024 -0.016870018 0.2813261 -0.05974362 0.12965222 0.4716054 0.08039995 -0.4517574 0.116048045 0.17145944 0.27523467 -0.022947015 -0.2964979 0.12163537 -0.553864 0.29145578 -0.22697383 0.27271038 0.17737406 0.06422969 0.69433653 -0.22172792 -0.10815003 0.18069506 -0.37357214 0.39605403
1897 0.042904753 -0.12661459 -0.64517486 0.39906785 -0.31248137 0.43245634 0.24156353 -0.565767 -0.18226786 -0.8708545 0.2440975 -0.2359128 -0.04915447 0.13777107 0.11980397 -0.02353926 -0.8446596 -0.34545445 -0.40922287 0.38135546 0.006178853 -0.70591867 0.15380953 -0.4202603 -0.7335256 -0.45324007 0.35356995 0.1969419 -0.29237235 -0.12731622 -0.5061932 -0.08732333 -0.049011298 0.03243557 -0.31327295 -0.32432404 -0.27058637 0.11179685 -0.4095167 -0.3370291 0.043954004 -0.37048933 0.017764451 -0.23111676 0.081968404 -0.21011741 0.73644084 -0.063550174 -0.3344841 0.105185255 -0.42905656 0.08704156 -0.05758965 0.56389576 -0.17087698 0.14219075 0.11041349 0.46816555 -0.5826927 -0.25847518 0.5869938 0.22922224 0.772051 -0.85824084 -0.005161583 -0.20077139 -0.1794726 -0.36581546 0.6304483 0.13055587 0.60696375 0.18396236 -0.15196918 -0.21893135 -0.32004827 -0.5047098 -0.42857638 -0.37970555 0.78168607 -0.7826966 0.43325147 0.051990993 0.24905181 0.8346484 0.046343055 -0.28386256 0.7577221 0.18117212 -0.79620224 0.16246621 -0.5796373 0.0142754605 0.10790964 0.36052698 0.11401151 0.09682674 -0.1878264 -0.5829412 0.2837808 0.18131283 0.40559545 -0.6432982 0.34714276 0.36948487 0.5125053 -0.33039305 -0.53874665 0.70273334 0.56304747 -0.36808538 0.34559065 0.66160434 -0.021775894 -0.006553188 0.35491237 0.52996486 -0.25503266 -0.07006051 -0.5245774 0.42567596 0.2789269 0.48679653 0.45024657 -0.6283682 -0.07532414 -0.05339703 -0.28588173 -0.18177694
13620 0.37345925 -0.7063906 -0.5185667 -0.32556793 -0.16687474 0.006103013 0.121052094 0.1423397 0.11425656 0.0053324867 0.504873 0.4341003 0.24834673 -0.124351 -0.023773268 -0.29814395 -0.011959289 0.44038993 -0.30051845 0.2854869 0.2672772 0.5826937 0.024221485 -0.08718059 -0.40806237 0.12936245 0.34077486 0.011750107 0.4237707 -0.19376186 0.109874405 -0.52034473 0.39622167 -0.19372271 -0.05076935 0.28737843 -0.118639566 0.3531653 -0.01426652 -0.07104334 -0.2613919 0.47503003 0.11029913 0.2709243 -0.6838911 0.33199862 -0.00968248 0.9958448 -0.5813231 0.17143022 0.04156426 0.09198619 -0.16377561 0.29853833 0.027784389 -0.28323612 -0.24910417 1.0293255 -0.22513531 -0.44061577 -0.5775419 0.6133717 0.17681317 0.2595128 -0.18588597 -0.08933357 -0.2689038 0.43220726 0.26099148 0.3020111 0.39793214 0.35438594 0.52946657 0.3573353 -0.6234319 -0.27772257 -0.18196368 -0.33393702 -0.13550994 -0.16452542 0.96945834 -0.06497966 0.36765927 -0.31564063 -0.64909273 0.37945294 -0.49332184 -0.8008613 -0.3268255 -0.21287052 -0.18669592 0.03309657 0.18010391 0.70392025 0.122947395 0.6017535 -0.26521483 -0.10762908 0.19877815 0.34698704 0.2801441 -0.15749235 0.36977068 0.042724658 0.7049552 -0.4697646 0.1998421 -0.15277761 0.11506679 -0.18867804 0.425576 -0.002729137 0.0022933397 -0.4464785 -0.5062156 -0.40632784 -0.22277929 0.31331316 -0.45777163 -0.23756136 0.31667632 0.3086707 0.46981063 0.6199106 -0.9710536 0.01865286 0.44872352 -0.010133959
82920 -0.69003093 -0.5354219 -0.16681772 0.30650032 0.23191106 0.08693731 -0.06574809 0.030099982 -0.39006877 0.016653677 0.6472183 -0.31174254 0.65923077 -0.84757984 -0.1440653 -0.047070056 -0.82207346 -0.72327936 0.46390015 0.090711705 -0.28717184 -0.43991655 0.3971793 -0.20414788 0.05023529 -0.38565654 0.4929348 0.3923368 -0.72295856 -0.06400689 0.60567045 -0.4127963 0.64781463 -0.086060084 -0.30956084 0.88732374 -0.29530102 -0.007580407 -0.010678816 -0.034088533 -0.22511616 0.05127026 0.5822651 -0.4510076 -0.09813725 -0.22598468 0.7653276 0.49510002 0.1421203 -0.15657666 -0.69114274 -0.63169247 0.07820549 0.9278785 -0.18456124 0.70593154 -0.07762389 -0.14817911 0.016986506 -0.2868446 0.11059356 -0.40422678 0.7330362 -0.29163373 0.3569254 0.22133942 0.4804702 0.0072622485 0.03375462 -0.30641547 -0.31584108 -0.42276078 -0.10733451 0.28867054 -0.27189103 -0.17172146 1.0106338 -0.19969614 -0.007186281 0.14287421 0.45811337 0.44684196 -0.24663138 -0.20117351 -0.29793227 -1.0079687 0.008905796 0.40429148 -0.60237366 -0.3784655 -0.7465702 0.3153041 0.44448137 1.2233922 -0.5548753 0.6717672 0.20665336 -0.5899394 0.7602213 0.37851828 -0.21592985 0.12975867 0.37184677 -0.56549853 0.003939541 0.048738007 -0.45913967 0.63150686 0.18569969 -0.64953196 -0.108267 -0.33874148 0.091315106 0.46770912 0.25907275 0.008758269 -0.22607073 0.45642567 -0.19804616 0.19742568 -0.16678911 0.4473332 -0.013072488 0.7096952 0.111377425 -0.513629 0.22670092 -1.0832742
210872 -0.45685443 -0.5670929 -0.07434059 -0.04261259 0.13025697 0.12606628 0.05707603 0.08529572 -0.4994327 -0.00034529943 0.53810805 -0.25477925 0.48312724 -0.80749816 0.26717025 -0.14777982 -0.6766064 -0.3942523 0.5546681 0.033099573 -0.26221186 -0.3333132 0.32405582 -0.10827089 0.15107195 -0.536126 0.3229382 0.24389753 -0.97087264 -0.12640323 0.48988813 -0.47105038 0.43044943 0.12536071 -0.43010187 0.74360114 -0.5005229 -0.15639539 0.08387173 0.02238097 -0.25766924 -0.0036994389 0.5987276 -0.32610816 -0.24054098 -0.16660915 0.6040879 0.36718085 0.13760413 -0.2850957 -0.5175868 -0.51309067 -0.13068357 0.87051314 -0.5668877 0.485825 -0.12106944 -0.007217336 -0.16904001 0.089142956 0.112812765 -0.3549044 0.53605694 0.02011284 0.602049 0.035843607 0.59242785 -0.020540364 0.09827281 -0.22406222 -0.36362675 -0.31375867 0.13554533 0.06074783 -0.24956797 -0.24615408 0.69606125 -0.13017502 0.0028331252 0.27556217 0.59678817 0.55058134 -0.28994823 -0.32359964 -0.1123117 -1.0941123 0.06747848 0.3735661 -0.4653085 -0.2829121 -0.6693887 0.14823838 0.32245305 0.88444275 -0.39907783 0.6045506 0.15580678 -0.5622778 0.7846582 0.5907019 -0.14358039 0.33764288 0.36552113 -0.26782483 0.19852851 0.05704252 -0.5505546 0.87126726 0.24058647 -0.34594566 -0.2165831 -0.13495786 0.13820064 0.38046172 0.36604664 -0.112117715 -0.24932477 0.3515168 -0.1420736 0.2920284 -0.24170342 0.5470828 0.03400603 0.7359599 -0.34965172 -0.5148465 0.055440634 -0.79040486
4584 -0.81380635 0.10475908 -0.09980581 -0.12570785 0.07047573 0.3401159 0.38146457 0.7362132 -0.42790797 -0.18524587 0.9703017 -0.16114964 0.8668206 -0.21915841 -0.5639171 -0.22800913 -0.55669904 -0.23998466 0.30812863 -0.0045280694 0.08900336 -0.3560819 0.6804367 -0.3932075 0.1912445 -0.26217568 0.4659694 0.3246104 -0.4288312 -0.6234914 0.21141109 0.19069342 0.36330274 0.09182658 -0.2341107 0.18787937 -0.27289677 0.45461804 -0.43344125 -0.18646477 0.36074153 -0.019363346 0.28301162 -0.12247418 -0.051627588 -0.15890725 0.4120586 0.49219897 -0.41789746 -0.28025833 -0.89363444 -0.57496405 0.30146167 0.24937294 -0.3238854 0.4280462 -0.10756848 -0.2682134 0.23653781 -0.009652686 -0.17483895 -0.6356667 0.9565671 -0.82264394 -0.024521343 -0.0036720256 0.3357932 -0.8202242 0.052494626 0.002508226 0.10609816 0.39474007 -0.42672518 0.25641263 0.0019443539 -0.5541322 0.19265369 0.42993608 0.2720449 -0.11820531 0.56595105 0.3492699 0.4894946 -0.37730333 -0.75825906 -0.56192183 -0.16805056 0.24037087 -0.14755383 -0.08061904 -0.7837246 -0.26509684 0.47288784 0.665415 -0.2117538 0.057816174 0.26758114 -0.62607914 0.21760389 0.06501086 0.28451148 0.47900555 0.25184682 -0.76549554 -0.02172224 -0.2939077 0.1843473 0.34543875 0.62863344 -0.96433794 -0.47970846 0.093972646 0.24435306 0.18917091 0.27871898 -0.20086755 -0.37601143 1.1513797 -0.3312454 -0.10687758 0.15933394 0.37706164 -0.39823171 0.71679044 -0.09636083 0.26917177 -0.015515328 -0.55718285
887 -0.4430966 -0.08698517 0.081887916 -0.12123003 -0.2250789 0.28173986 0.06412585 0.10676863 -0.51835823 0.019620145 0.45461336 -0.15419227 0.5278118 -0.5295696 0.11249301 -0.22035523 -0.5120441 -0.24714637 0.17744131 0.088394515 -0.20919907 -0.38178322 0.38430274 0.19959472 -0.061083272 -0.38898632 0.25439394 0.07196541 -0.8260888 -0.2122552 0.12727797 -0.2831021 0.2920775 0.27119353 -0.3806834 0.44962442 -0.24504974 -0.0050552026 -0.45384693 -0.070119135 0.22446449 0.095818505 0.52819276 -0.28761923 -0.33558935 -0.2905988 0.26652968 0.24547465 0.21701619 -0.43723533 -0.4708255 -0.52126116 -0.21254201 0.77759016 -0.42917258 0.57553923 -0.25441435 -0.10524827 -0.09886111 0.092828564 0.32684398 -0.1910437 0.74365205 -0.13340051 0.19447808 -0.13227874 0.4692709 -0.35496807 0.081677556 0.11261147 -0.20195039 -0.30606055 -0.16375235 0.18232962 -0.08664412 -0.30721352 0.92103857 0.064756915 0.013464229 0.43232763 0.569583 0.44639462 -0.18816565 -0.20197323 -0.47133702 -1.0336106 0.0048302063 0.2929164 -0.2868148 -0.4404666 -0.56405383 0.05697366 0.48566407 0.6882225 -0.34479555 0.24244161 0.2678517 -0.51886106 0.51363134 0.37572592 -0.10986878 0.49740735 0.3462183 -0.32629815 0.11774219 -0.08759103 -0.23261262 0.6522277 0.546883 -0.25794786 -0.3078813 -0.03347876 0.05576589 0.42361793 0.23812547 -0.12690212 -0.07967581 0.4315388 -0.11932496 0.31444427 -0.2894326 0.34077734 -0.089871176 0.72710156 -0.32584924 -0.24487624 -0.0884545 -0.5655417
8327 -0.3247617 0.3494056 -0.15144157 -0.23029387 -0.23484385 0.30582154 -0.7489925 -0.4417342 -0.0648809 0.19684172 0.19227445 -0.009470709 0.30375427 0.5088985 0.04204823 -0.3280731 -0.5996322 -0.14384209 -0.53134 0.07478473 0.17862166 0.089562744 -0.4620117 0.40606415 0.23721948 -0.044959173 -0.25672734 0.83297783 -0.20510818 -0.70300555 0.09641598 -0.17158695 0.1584571 -0.27240783 0.006855489 0.08999687 0.3517846 0.3252355 -0.30832067 -0.18965156 -0.5266454 -0.33724457 0.93855655 -0.3777727 -0.24076183 -0.07991623 -0.6742549 0.11163656 -0.03207915 -0.06860112 0.15156995 -0.21699093 0.47011983 -0.5355474 0.13107681 -0.6560433 0.04832609 -0.238726 -0.16146767 -0.2490466 -0.34218577 0.3209991 -0.08223934 0.6968694 -0.0557584 -0.22399142 0.55748713 -0.37528878 -0.35074005 -0.251084 0.66191375 -0.48285642 0.3312908 0.24998814 -0.09267039 0.013482801 -0.41575474 -0.26852283 0.20915546 0.60305035 0.62448806 0.3087677 -0.24534881 -0.8087624 0.12580664 0.5378403 -0.11525243 0.3460577 -0.3519854 0.46308538 -0.2757067 0.3199402 -0.19149414 0.14244385 -0.22100031 0.33800864 0.21903172 -0.10747464 0.47177178 0.23958969 0.23022605 -0.21102738 1.0280508 0.030322492 0.43021426 -0.40626803 0.02922896 0.3115297 0.23461726 -1.0486863 -0.00727531 0.013487854 0.15427442 -0.22717123 -0.15701413 0.29385462 -0.7679291 0.32929915 -0.045188025 0.116115466 -0.07437847 0.11719807 0.83334893 -0.15134878 -0.053772327 0.20644015 -0.033299718 0.05386072
5222 -0.08541103 -0.12780729 0.0676411 -0.17185836 -0.117944315 -0.08787083 0.07197407 0.021230897 -0.019519337 0.041528955 -0.057346914 0.20093769 0.38910055 0.2809493 0.12572375 0.12380305 -0.2734023 0.17789868 -0.4544181 0.40330973 0.037597254 -0.3862075 -0.058477927 0.2900418 0.47967753 0.13718857 0.7535123 0.005767391 -0.0015557973 0.12953505 -0.2835972 -0.9511971 0.417024 0.3073402 0.051071618 -0.23407055 0.057639737 0.34174377 -0.18805964 -0.6146699 -0.07906524 -0.30217335 -0.1088334 -0.12290128 -0.7033391 -0.019481758 -0.3722908 0.062704846 0.17043266 -0.19237119 -0.23766279 -0.66197366 0.37077302 0.05822775 0.019607618 -0.35778958 -0.3389079 0.6448762 -0.115241654 0.036092974 -0.0046127 -0.60548365 -0.08935183 0.054421674 -0.43545806 0.071916334 0.04158618 -0.22793207 0.27203164 0.07349301 0.40115157 0.06842583 -0.029793896 0.39998177 -0.056716945 -0.54332596 0.01633073 -0.50891584 0.4235153 0.38553634 0.037019257 0.16715118 -0.33414987 -0.43275267 -0.09237723 0.6052128 -0.6662636 -0.22770418 0.03446351 -0.2882101 0.46160007 0.0012758411 -0.3007201 -0.084433295 0.31411535 -0.17465216 -0.20140152 0.541603 -0.3286676 0.43487763 0.40429002 0.26791102 0.074178964 0.7288576 0.27502507 -0.20214543 0.34755993 0.3531035 0.19111651 -0.4088864 0.17308654 -0.116409235 0.56512207 0.24565834 0.16154248 -0.54247457 -0.6385644 0.16497988 -0.14487274 0.69481236 -0.071970776 0.29449934 0.61675394 0.45821828 -0.34117305 0.29289916 0.11509129 -0.24555552
3028 -0.26601183 -0.27361575 0.08255333 0.047999788 -0.7328608 0.24026135 -0.57202405 0.17810841 0.3413289 0.13318166 -0.38742834 -0.40680525 -0.27080423 0.07432985 0.13791016 0.074810304 0.07257093 -0.947984 -0.5836174 0.31362832 -0.6443694 0.12361857 -0.3013291 -0.0012733085 -0.033531394 0.18831436 0.32926622 0.8603812 0.21090567 0.26333317 -0.29152247 -0.6834753 0.12081676 0.009573298 -0.28361234 0.30504698 -0.08550971 0.47668895 -0.42647007 -0.88643074 -0.2653969 -0.2428313 0.30066955 -0.93069994 -0.4218904 -0.16802341 -0.43973112 0.3748099 -0.27069765 -0.08779793 -0.10249327 -0.45143992 0.23946759 -0.4053673 0.41180256 0.0387967 0.62700486 -0.5573868 0.051348004 -0.49253565 -0.3938902 0.63586277 0.43495262 0.12851937 0.19515342 0.037614115 0.95953804 -0.18438178 -0.30347425 -0.13843676 0.15859893 -0.4617241 -0.06521376 0.33247837 -0.33922392 0.13741781 -0.46644083 -0.18033877 -0.13179274 0.4549725 0.33431834 0.12041514 -0.282019 -0.37942782 -0.006063117 -0.074002944 -0.4763881 0.21522991 0.1550883 0.27872697 0.118804984 -0.14232811 -0.23075771 0.10116792 0.017646821 0.32705662 0.04131917 -0.10353556 0.44317678 0.039557725 0.04605026 -0.24968357 0.56439525 0.4557285 0.5429486 -0.34335104 0.1331211 0.77123153 -0.07455462 -0.25974867 -0.29350513 -0.52810955 0.29552788 -0.28696144 -0.21166179 -0.5069017 -0.69630766 0.15104742 -0.4439302 0.46952242 -0.37797534 -0.29435796 0.29321748 -0.16056739 -0.4847503 0.39235032 -0.16429803 0.40811256
9570 0.1995005 0.27031296 -0.2225142 -0.10227906 -0.15177369 0.54022837 0.13602033 -0.039424114 -0.1439749 0.2815906 0.4535884 -0.0920518 0.5599804 -0.47493064 0.035321977 -0.101792865 -0.5407491 0.48211092 -0.15783128 0.72799164 -0.33718753 -0.5663614 -0.008425409 -1.1205157 0.4957167 0.20284456 0.011334207 0.20496923 -0.5229629 0.073632024 -0.15600474 -0.4638883 0.07344582 0.087604426 -0.70987225 -0.12466297 -0.23277518 -0.023079101 -0.3936846 0.053587426 -0.300682 0.14636686 1.148049 -0.3543621 -0.5273902 -0.3724314 0.6297342 0.22795095 0.41463646 -0.05365712 0.34972125 0.05409701 0.58714205 0.042303894 -0.09352254 0.0008404689 -0.10408267 0.0814671 -0.31914958 0.21149777 -0.3026412 0.35879198 0.20890267 0.6082394 -0.0922596 -0.013262647 -0.22918132 -0.15851156 1.0972624 0.402458 0.37836486 -0.7039215 -0.086048804 0.4027207 0.12895246 -0.06633874 -0.5774282 0.35666308 0.693482 -0.18861274 0.2048911 0.26119205 0.089923665 0.32586846 -0.36174056 0.7826176 -0.21070366 -0.4904728 0.21199062 0.1623041 -0.37929693 0.24412201 0.19440456 0.33213046 -0.024053432 0.30667707 -0.10856605 0.10300909 0.57010746 -0.68153495 0.7473171 0.31920117 -0.096527666 -0.30303895 0.033636432 0.086285666 0.6137152 0.71559626 0.4858876 -0.10745455 0.24972847 -0.40829948 -0.2036452 -0.24822855 -0.39922664 0.13079812 -0.9616915 -0.2746406 0.56409764 0.98855793 0.13269989 -0.44749853 -0.059900697 -0.17030744 -0.57856303 -0.6984952 0.25613725 -0.21329986
6213 -0.48545167 -0.3209627 0.017205967 -0.2884576 0.119089976 0.32556644 0.17298694 0.47923687 -0.105658494 0.09172231 0.66338444 -0.55525196 0.50000757 -0.31779844 0.123320684 -0.42356655 -0.36628675 0.28448632 0.3445367 -0.07571234 -0.018311843 -0.45382622 0.44232613 -0.03234457 0.13326766 -0.36324257 0.08935948 0.24791855 -0.575009 -0.62184995 0.22351195 -0.01888572 0.14549023 0.08742491 -0.2503812 0.11962404 -0.16828872 0.07582981 -0.46567693 -0.18806411 0.14007273 -0.3734229 0.22958508 -0.4233726 -0.3064731 -0.28506666 0.19203275 0.3510911 -0.16192092 -0.19295958 -0.8273726 -0.44963598 0.21581383 0.5887783 -0.43420503 0.45646065 -0.2720579 -0.24390551 0.3966485 0.06841917 -0.099918865 -0.44907784 0.38829726 -0.36072108 0.3730092 -0.32494995 0.07762561 -0.30512077 0.021400385 -0.01871756 0.06756882 -0.02945519 -0.3260529 0.087032035 -0.08685862 -0.6806807 0.10849011 -0.21919557 -0.10662062 0.009168376 0.5121084 0.32681295 0.21686804 -0.28829953 -0.4474396 -0.9402651 -0.014076271 0.07916681 -0.28479737 0.031953853 -0.806332 0.035731845 0.29198337 0.39676556 0.07152608 0.09747377 0.31717408 -0.5040172 0.45741543 0.013574775 0.2722946 0.08868022 0.43530053 -0.308533 0.043615624 0.059319437 0.12834527 0.45909667 0.7239766 -0.3931542 -0.8920338 0.21328919 0.34785953 0.4771905 0.26851165 0.48523328 -0.29087955 0.59496325 -0.030828215 0.15475246 -0.56875205 0.53603745 -0.41245243 0.68972456 -0.2820005 -0.04296561 -0.13728313 -0.40742022
8251 0.011061326 0.84922385 -0.56339043 -0.26560336 0.44854406 -0.51178735 0.63375896 0.04360764 -1.1068457 -0.2963452 0.067317285 0.17198907 0.5114412 -1.2545424 -0.80686677 0.02412724 -0.30333626 -0.42034462 -0.34197423 0.5651986 -0.27808803 -0.59798026 -0.5553569 -0.29857472 -0.06213282 0.7728834 1.0914911 0.5854369 -0.18511485 -0.4371543 0.24002498 -1.5172358 -0.2461078 -0.4726309 -0.032919012 0.71371394 0.030778721 0.36216158 1.1539632 -1.3901334 -0.14876951 -1.085571 1.5835088 -0.49523506 0.18440254 0.29392532 0.13441157 0.8120545 -0.58864164 -0.38201967 0.34716374 0.4943205 0.26903492 1.1267117 -0.20432277 0.82554704 0.4195126 1.1236875 -0.36413708 0.38946572 -0.732371 0.13603891 0.7684216 0.12333681 1.084477 -0.6389731 -0.6733925 0.098703295 -0.49880153 0.11575363 0.74851114 -0.87132955 0.46832433 0.37367243 -0.72672534 -0.29690516 -0.8895028 -0.6662226 0.43033856 -1.3031697 0.36998358 1.347749 -0.26912716 -0.35602573 0.28053772 0.47367963 0.52563524 -0.33892485 0.10676232 -0.23380388 -0.61733216 0.42911825 0.6185835 0.2531029 -0.81014967 0.48816317 0.7339283 -0.78766066 0.8946905 0.72389525 0.6289545 -0.29243252 -0.27391154 0.91331255 -0.67536 0.39608464 0.4554763 0.83440435 1.1494136 -0.94787836 -0.0007105629 0.902201 -0.061049834 -0.5924452 0.64448553 -0.22257036 -0.6683033 -1.5762584 -0.221449 0.40716475 0.5370589 -0.20511056 -0.5863945 0.51168543 -0.9760457 0.003253739 0.24621797 0.100822195
2390 0.10428143 -0.65645623 -0.03749035 -0.23727441 -0.7531084 0.013719113 0.06593384 -0.5503176 0.21452765 -0.23787068 0.3204825 0.1611219 0.5286325 -0.1373129 -0.15384889 -0.51830494 -0.0011915244 0.28444946 -0.08886417 -0.04525487 0.038662918 0.21593153 -0.095542096 -0.080570064 -0.23645444 0.26168588 -0.15851578 0.54259425 0.21625863 0.089800626 0.064279474 -0.3344251 0.77306426 0.18689406 -0.35236156 0.24843991 0.2205969 -0.008987258 -0.027604647 -0.28283802 -0.10921251 0.10699582 0.023387918 0.5467684 -0.83724785 -0.24143669 -0.3406776 0.6106439 -0.48217705 -0.22693606 -0.34246388 -0.20320486 0.006519091 -0.35302478 -0.20237038 0.022743821 -0.039626695 0.727457 -0.054614305 0.05043714 -0.38849914 0.41873127 0.3490861 0.24186972 -0.27186063 -0.5255981 -0.25511754 0.1292341 -0.4293656 -0.3702822 0.5360808 -0.069179334 -0.3499851 0.39718908 -0.40169817 -0.10587361 0.3043019 -0.014882399 -0.24439865 -0.22076117 0.40136886 0.13401803 0.35560867 0.15915428 -0.46426323 0.14573234 -0.24156433 -0.20287628 -0.006684808 -0.13949192 -0.25897944 -0.03537066 -0.055729937 -0.010990389 -0.06498421 0.5030953 0.049911372 -0.036398247 0.10078677 0.3526885 0.1547041 -0.16576289 -0.028144877 0.60599244 0.5668755 -0.20448874 0.33820462 0.2572555 0.5425331 -0.21731669 0.074858904 -0.058315106 0.47668034 -0.21618442 -0.49446383 -0.13869789 -0.19968739 -0.25656623 -0.0021359432 0.0944212 0.3072822 0.17342336 0.69520277 0.49133164 -0.28775722 -0.10392449 0.0973713 0.16501911
8237 -0.13274838 0.8434088 -0.5690824 -0.3007454 0.5588597 -0.45371336 0.6366289 -0.054230575 -1.06061 -0.2883059 0.10495218 0.16543545 0.51925987 -1.2804527 -0.8853738 0.17112632 -0.26739326 -0.33659494 -0.39846003 0.61972576 -0.3607063 -0.5271006 -0.65873086 -0.31111085 -0.017878555 0.8473394 1.1387377 0.6170636 -0.20689264 -0.32429156 0.18003646 -1.5269916 -0.16797817 -0.5833469 -0.13175005 0.8999288 -0.0057425243 0.3252863 1.1579416 -1.388818 -0.28681836 -1.0603976 1.5388224 -0.49237737 0.12979154 0.25892827 0.006723897 0.97843194 -0.6220508 -0.32130688 0.4453243 0.47668648 0.32655418 1.1903195 -0.19908969 0.90545946 0.46103832 1.1710863 -0.41585398 0.43054625 -0.7753377 0.05622112 0.8079021 0.12642917 1.1206005 -0.67542 -0.71871513 0.11098556 -0.598374 0.17413937 0.75701994 -0.95236754 0.3889629 0.3548236 -0.67786723 -0.42425337 -0.9766715 -0.58383477 0.47054037 -1.3722552 0.3187589 1.423443 -0.20444316 -0.360542 0.38723823 0.420136 0.6511927 -0.21423389 0.12742087 -0.23896702 -0.58402276 0.4105758 0.6011975 0.31092507 -0.8740414 0.5353017 0.7377306 -0.78792405 0.8854889 0.6533678 0.59172285 -0.23418628 -0.14469287 1.020923 -0.7236135 0.43720594 0.3999825 0.9731429 1.1979156 -0.9788158 -0.087461725 0.8638207 -0.11120656 -0.5850851 0.6490484 -0.23576896 -0.74489844 -1.5827476 -0.26684058 0.35674953 0.61818796 -0.26285955 -0.64789456 0.61729884 -0.96651405 -0.046438105 0.22716734 0.20587651
27699 0.22678211 0.14567505 -0.02548835 -0.22220533 -0.20871022 0.27499902 -0.5370848 -0.34360483 -0.30695346 -0.1779896 -0.66111284 -0.19585374 -0.029726282 0.49030915 -0.7290737 0.11598678 0.18786305 0.13914649 -0.047335386 0.50345993 -0.4019419 -0.37274453 0.15638053 0.265392 0.15725443 0.32220295 -0.015373713 0.44641492 -0.27489257 -0.2138205 0.4224118 -0.63781244 0.4153809 -0.18626061 -0.5332977 0.44264463 -0.09812164 0.13427706 -0.37756455 0.057724923 0.22432561 -0.2469021 0.7673962 -0.30017143 -0.6079833 0.009481892 0.28161812 0.050510004 -0.11446102 -0.34107286 0.5102427 -0.17094131 -0.057944678 -0.9737896 0.18321103 -0.22406936 -0.20768183 0.7248671 -0.09052397 0.18661402 -0.13516235 0.12188011 0.14589934 -0.13312596 -0.4952488 -0.21051957 0.34856603 0.2245676 -0.27760276 0.03116283 0.41561925 0.18772826 0.3389925 -0.029916182 -0.088990696 -0.4575717 -0.7000113 -0.7971942 -0.32030326 0.0668817 0.34911293 0.26208463 -0.66876477 -0.8309461 -0.19895013 0.096633255 -0.018031623 0.2537608 -0.39116064 -0.0033847063 -0.28783888 -0.24611063 -0.8578576 -0.2018587 -0.11326115 0.142573 -0.5385923 0.29597127 0.5620302 0.127089 0.36368245 0.16330633 1.0173315 0.16389105 0.33246458 -0.067785196 -0.03772418 0.29262817 -0.09782601 -0.37208933 0.25179228 -0.1522037 0.3447819 0.01854128 -0.14781421 0.050611865 0.082257405 0.033274148 0.039340254 0.6415244 0.16029546 0.20594276 0.06689662 0.20588109 0.15260111 -0.52227604 -0.19365795 0.17375642
2537 -0.12291583 -0.052401528 0.39207372 -0.23712999 0.027461732 -0.46639532 0.41497454 -0.2148459 0.048665643 0.24189928 -0.34747326 -0.33217198 0.29733643 -0.22045931 -0.35353118 -0.2709867 -0.045993645 0.04185715 0.2845119 0.48329812 -0.037084054 0.37252438 -0.13167495 -0.31319353 -0.4024822 -0.21792331 0.5197241 0.076621786 -0.6666735 -0.11271317 0.21269874 -0.46314406 0.16757521 0.27281418 -0.18540224 -0.12294668 -0.16565928 0.31468838 -0.49434227 -0.0055209575 -0.15839933 0.068955794 -0.1952196 0.17979497 -0.05925594 0.4333201 0.007828396 0.2296 -0.35318384 0.22195916 -0.10064814 0.29455736 -0.09039219 0.11283111 -0.6575472 -0.0958423 -0.3025164 0.43631613 0.06643082 -0.22485106 -0.7615471 0.46878695 -0.08214953 -0.1713229 -0.29471382 -0.6071542 0.03445812 0.40130547 0.17251794 0.5413179 -0.14458512 -0.14149992 0.23695596 0.30602667 -0.568907 -0.35495168 0.03731622 -0.40444905 0.1946293 0.18152063 0.056813978 0.12567888 0.516408 -0.3114176 -0.0028030137 0.102993 0.03119871 -0.23340876 -0.39427233 0.06678169 -0.12575628 -0.21341689 0.115163505 0.14781465 -0.0035858299 0.32420143 -0.45825842 -0.08998663 0.56833565 0.047709223 0.5986696 0.1202519 0.25488994 0.6499208 0.42461035 -0.4969221 0.43618166 0.19332187 0.8590012 -0.024753818 0.5392632 -0.19247837 0.050267104 0.15932585 0.03995187 -0.41755888 0.20031016 0.30943152 -0.5904845 0.52352405 -0.16863498 -0.14046077 0.3527269 -0.100082494 -0.39202747 0.30626956 0.53211427 -0.0002954777
24755 -0.03794127 -0.13576461 -0.54578966 0.3937724 -0.3767296 0.4436897 0.20528506 -0.47850034 -0.09199407 -0.9352941 0.13455763 -0.21373859 -0.12953416 0.24376567 -0.12322404 -0.020486932 -0.95197225 -0.2664701 -0.39724335 0.41984284 0.09003603 -0.69244266 0.19482033 -0.34075058 -0.58572334 -0.36965567 0.2721341 0.121867895 -0.2936403 -0.05345347 -0.48276955 -0.12307995 0.09906728 0.036619086 -0.31385514 -0.2279732 -0.24544658 0.08261127 -0.52152944 -0.3163941 0.06146998 -0.26639193 -0.23205453 -0.1286126 0.044772882 -0.15886684 0.61281794 -0.17507634 -0.29900035 0.15730354 -0.44049022 0.09489072 0.013412317 0.50934005 -0.1539612 0.19754094 0.07927386 0.45501816 -0.6093845 -0.152407 0.5054616 0.18570298 0.9054706 -0.7907963 -0.21828414 -0.35494858 -0.17917867 -0.45332408 0.7200053 0.17110176 0.5906574 0.11582099 -0.27910975 -0.3080615 -0.28663382 -0.5313762 -0.41774988 -0.49359527 0.69056493 -0.66985154 0.40291646 0.18304446 0.36420292 0.85418195 0.12921736 -0.33489832 0.7443374 0.37766832 -0.8619662 0.19654752 -0.62393916 0.008981445 0.082882196 0.48360658 0.06181266 -0.05820861 -0.28351614 -0.6048589 0.19878516 0.19046117 0.36945453 -0.6776553 0.3232352 0.3596002 0.3897186 -0.35296226 -0.46678466 0.82191676 0.4735685 -0.38752097 0.17444588 0.6257262 0.06888152 0.051782366 0.38417363 0.42701155 -0.37361023 -0.06613879 -0.4932927 0.48531595 0.33092022 0.26700532 0.5647856 -0.7298551 -0.014433018 0.056427885 -0.18021874 -0.16771403
1888 -0.050381467 -0.5597682 -0.37597597 -0.13549115 0.34634116 -0.1748371 -0.27227476 -0.30022964 0.22027941 -0.34783158 0.26289696 -0.29978627 0.055732142 -0.25568685 -0.019120742 -0.012443748 0.19693594 0.3298062 -0.02967353 0.29089046 0.06618292 0.12208522 0.23666379 -0.40214488 -0.14016636 0.11505243 0.11063566 -0.08046794 -0.008155646 0.07103013 -0.45592514 -0.34154594 1.1978828 -0.16010347 0.22425528 -0.2104091 -0.2104055 0.47653773 -0.24212535 -0.2026623 -0.1587565 0.010212668 0.48602557 0.2819317 -0.13070045 0.022010397 -0.106064476 0.20260763 -0.5460756 0.1253564 -0.34075403 -0.1987806 -0.3992706 0.042026974 -0.3286492 0.036668193 -0.3820311 0.38838577 -0.006365005 -0.23675618 -0.18517835 0.26566786 0.26655713 -0.31871176 -0.08933115 -0.07768267 -0.21332796 0.013904134 0.017103527 0.113726385 0.1287198 -0.65652007 -0.14576785 -0.1773684 -0.67635113 -0.32428166 0.095287666 -0.30849403 -0.2192709 0.030848872 0.12542579 0.19432355 -0.03891284 -0.14344144 0.02903257 0.319362 -0.40880695 -0.08122938 -0.3399403 0.09750895 -0.046265177 0.225327 -0.13045073 0.118262224 0.19854018 0.23763506 0.34416968 0.25874466 0.44421813 0.089640185 -0.015502404 -0.17435417 0.3830582 0.612635 0.521996 -0.06623267 0.7786265 0.24732311 0.20515916 -0.39240304 0.10163997 -0.41684738 0.44663104 -0.49994886 -0.045348004 0.2695978 -0.11367772 -0.029560944 -0.0831169 0.30988115 0.5937528 -0.24028318 0.7224885 -0.029199297 0.48300058 0.46690908 -0.27903265 -0.11172721
1047 -0.1701905 0.6608436 -0.69993186 0.39285597 -0.40116715 -0.17304939 -0.35820842 -0.3830189 -0.3602348 -0.47944757 -0.45655477 -0.34965587 0.12918566 0.08825302 -0.057478122 0.43946603 0.2994332 -0.9466759 -0.5523179 0.056230687 -0.21149431 -0.5426172 0.4645029 -0.33466086 -0.122125305 0.6164344 0.5281277 0.4514756 -0.021761043 -0.07013099 -0.040196776 0.19328365 0.18237989 -0.47034383 -0.11580306 0.04405333 0.15481463 0.2961022 -0.8276556 0.021741778 -0.3319175 0.3160582 0.38717738 -0.5080948 0.36688453 -0.42531303 -0.14058174 0.9127667 0.5329332 -0.22555347 0.25621372 0.1641527 -0.52319366 -0.91150135 0.08327905 -0.18452016 -0.15101774 -0.16693652 -0.0694455 0.3055611 -1.1469295 0.046624202 0.32473361 0.7977876 -0.06252109 -0.29023218 0.7938822 0.4173605 0.09938275 0.578564 0.36682257 -0.4069871 0.34025794 -0.6472503 -0.52958494 -1.041627 0.29993954 0.0017316692 0.31609935 -0.33390114 0.62993 0.61693484 0.28916565 -0.29959175 -0.79167104 0.18033883 -0.3596681 -0.66292524 -0.27325058 -0.009382699 0.2278481 0.0123301875 0.047793243 0.7096873 0.28692695 0.76097924 0.25269663 0.70209605 0.13883992 -0.018854517 0.57368815 0.23014168 -0.073184155 0.13701172 0.80857265 0.22268824 0.1521556 0.83691174 0.018649524 -0.63990116 0.25482118 -0.52001935 0.037622225 0.27083382 -0.095992014 1.0840003 0.0029688824 -0.25457135 0.2239353 0.69505924 -0.47628817 1.4209231 0.6322836 -0.18302983 -1.153213 0.36568543 -0.21845374 0.34367618
124378 0.14645351 -0.646987 -0.20448972 -0.36349577 -0.5456108 0.19321354 0.050909583 -0.38369876 -0.074120745 0.056356348 0.080781996 -0.20758829 0.49059784 -0.47913367 0.12581237 -0.6864844 0.031046534 0.08956522 -0.0019681975 -0.07694706 -0.049811102 0.15279007 0.010225989 0.24074623 -0.46305537 0.15138993 0.28940594 0.74376446 0.3058711 0.029515708 0.12219185 -0.61189365 0.7069445 0.19823936 -0.41965583 0.18603033 -0.106576815 -0.09045942 -0.02752539 0.006778346 -0.0012934573 0.25283536 0.30068812 0.35981008 -0.89783233 0.0930081 -0.60410255 0.7237252 -0.4764559 -0.11503786 -0.14814559 -0.25549254 -0.188572 -0.48617843 -0.25314096 -0.47158593 -0.11688541 0.70185333 -0.15282534 0.2984336 -0.23908257 0.31896257 0.39531702 0.27339223 -0.6314588 -0.63108283 -0.09792601 0.38518935 -0.49461287 -0.03963876 0.7516957 -0.10237291 -0.19056152 0.55424356 -0.43825588 -0.022107152 0.60856944 0.3107514 -0.2696953 -0.17325577 0.27423668 0.21704607 0.42845333 -0.00057466736 -0.45931435 0.18262018 -0.27460343 -0.28045064 0.3800848 -0.33532792 -0.45997173 0.052910782 -0.21759973 -0.3260689 0.23941503 0.33027792 -0.14928247 -0.3012655 0.04889357 0.6729939 0.44000983 -0.41060114 -0.148948 1.0084816 0.7470931 -0.67470837 0.08489265 0.22242802 0.6721501 -0.005864428 0.056440853 -0.014811668 0.017019968 -0.2897966 -0.27074048 0.0011880981 -0.2906055 -0.18054332 0.10039934 0.14583902 0.777731 0.16909496 1.1291672 0.6091545 -0.45847243 0.09968209 -0.03159671 0.021966249
4013 -0.20235777 0.020194871 -0.22729006 -0.034645855 0.062424824 0.48897147 -0.7447196 -0.52064246 0.29744405 0.20029321 0.123788476 -0.32128757 0.3007396 0.45493737 -0.2539572 0.039048385 -0.4435065 0.0016277937 -0.21953605 0.14913753 0.018514723 0.16144177 -0.20318596 0.46897835 0.4298449 0.09291657 -0.15016323 0.76454127 -0.6072063 -0.3358116 -0.21741135 -0.3203125 0.06492504 -0.03309894 -0.2343583 0.55989796 0.67494404 0.14304145 -0.33035997 0.036379766 -0.5536254 -0.19530861 0.8960847 -0.50362474 -0.040708147 0.025869898 -0.12620439 0.22360836 0.067289405 -0.04593205 0.33202258 -0.09441885 0.25584114 -0.24422546 -0.077033296 -0.8569458 -0.054788664 -0.31177592 -0.25824872 0.2629882 -0.3158167 0.16417786 0.2617154 0.2433403 -0.53633213 -0.3382417 0.13179705 -0.17271781 0.030256938 0.044885617 0.79128486 0.03448893 0.0040042535 0.04259677 -0.13182083 0.3303499 -0.15692066 -0.5266382 0.21636818 0.31857476 0.32629037 -0.2108757 -0.1391466 -0.7585418 0.2749647 0.10585566 -0.41374806 0.34898916 -0.54339117 -0.12960202 -0.027995924 0.25813138 -0.005081499 -0.060266796 -0.048793588 -0.04235967 0.23058988 0.047959823 0.407563 0.27162644 0.24809763 0.1938372 0.8292212 -0.07379274 0.4471873 -0.25463083 0.23920862 0.3509113 0.06825788 -0.6171327 -0.03815398 0.028734624 0.051834125 0.19426891 -0.24739145 0.19872689 -0.6772121 0.13249585 -0.30597976 0.030182142 0.2742769 -0.14532447 0.6608222 -0.31327134 -0.2060589 0.050610967 -0.31125474 -0.09353715
78805 0.14451368 -0.27518883 -0.58542794 0.45448178 -0.45571294 0.5464119 0.23030229 -0.52360785 -0.06874919 -0.95103616 0.11505835 -0.31089208 -0.11503227 0.2689489 -0.013771571 0.029770104 -0.9185983 -0.37521708 -0.41933155 0.42846143 0.054205474 -0.7205593 0.31357366 -0.27584153 -0.8759084 -0.35283428 0.5538622 0.12556699 -0.39548334 -0.14560963 -0.5141226 -0.3595869 -0.06918517 0.13276769 -0.38361385 -0.32421395 -0.23673336 0.03643302 -0.42349374 -0.3616544 0.11420947 -0.31785762 -0.037719212 -0.073895514 0.07648191 -0.1991962 0.69682956 -0.05353979 -0.29063028 -0.0032507146 -0.42368293 -0.08697586 -0.08509463 0.54805636 -0.2567494 0.014785724 -0.11758396 0.28874654 -0.68092763 -0.22886625 0.68173736 0.13499548 0.84397596 -1.0295982 0.07239496 -0.33505747 -0.23865677 -0.5539574 0.8070285 0.26155984 0.7892573 0.12758562 -0.09777725 -0.38202786 -0.3937394 -0.61965823 -0.45015028 -0.49724784 0.85832644 -0.9118606 0.5342343 0.12849778 0.34165528 0.948784 0.15684763 -0.39844027 0.6429953 0.21436428 -0.93686277 0.04270971 -0.8790319 0.088550426 -0.016350228 0.3892743 0.051881738 0.1759029 -0.49304765 -0.7350658 0.20771633 0.06559945 0.4191466 -0.60928684 0.4907873 0.48439452 0.48267823 -0.41700822 -0.5848804 0.9457423 0.5936168 -0.299077 0.22367296 0.45221528 -0.16812241 0.116021946 0.46727246 0.5728081 -0.13971898 -0.16026591 -0.596464 0.47648224 0.33824298 0.5083908 0.4541193 -0.76123774 -0.0034031742 0.05139108 -0.13482808 -0.23114114
3465 0.35216057 0.54642016 -0.2544009 -0.1518629 -0.9632631 -0.54298574 0.3839031 -0.30627605 -0.52892447 0.3020231 0.7498352 -0.6929473 -0.26846606 -0.124958 0.098183595 -0.58238393 -1.1454887 0.43259585 0.26205564 0.007900529 -0.8166089 -0.3680029 -0.38846558 0.17604898 0.441119 -0.1846546 0.8629451 0.6128265 -0.76547354 0.9109728 1.2865976 -0.5474686 -0.7291952 -0.35068396 0.045112815 -0.64059055 -0.1429602 -0.2925992 -1.1744573 -0.94697464 -0.68932533 -0.7943479 0.56285954 -0.6493649 0.3665073 -0.016578587 0.92759436 0.03027877 -0.757872 -1.012113 0.39950022 -0.6896025 -0.33644438 -0.6816139 -1.4689106 0.56211114 0.31620976 0.52838415 -0.6974128 -0.1516799 0.87336427 0.42040235 -0.4143628 -0.07456768 -0.4610773 1.3576524 -0.041748267 -0.764016 0.033810582 0.18882224 0.79506737 0.10924518 -0.44603592 0.71111757 -1.5613757 0.08482125 0.26336268 0.806191 -0.46587506 -0.29098973 1.50956 0.18772109 0.45639524 -0.29543683 0.5744353 0.72102785 0.6805498 0.14687973 -0.4633262 -0.08508158 0.75168705 -0.39129636 0.9912991 0.2061895 -0.44182357 0.5275578 0.9298558 -0.5444205 -0.37656263 1.0810597 0.86434376 0.40261582 -0.1193546 0.31155553 -0.20610711 0.101945214 -0.8372961 0.94148105 0.95744294 -0.7870596 -0.15857448 -0.41442528 -0.27630374 0.28194886 0.41035256 0.5640043 0.48900175 -0.5926695 -0.28427204 -0.101772 0.27784586 0.011081911 0.6074258 -1.1296892 -0.57607317 0.24595481 -0.7655372 0.28526807
29180 -0.9365935 0.06156634 -0.30731955 -0.043941285 -0.29661623 0.3228149 0.17368542 -0.39754343 -0.45492682 -0.134841 -0.492685 0.2517651 -0.09670719 -0.40792733 0.14471835 0.008862849 -0.69541717 1.0163497 0.44042522 -0.2900261 -0.52136153 -0.42221808 -0.00034207595 -0.15971862 0.35564747 0.22632481 0.6973914 -0.079828605 0.20034014 -0.99098474 0.43692935 -0.5930775 -0.7574453 0.11694339 -0.5520572 0.42708665 0.3503441 0.475575 -0.7602574 0.03102158 -0.48399526 -1.0855823 0.9712277 -0.076833904 0.918532 0.22915246 0.11365258 0.32740033 -0.98098135 -0.5353651 -0.5431988 -0.8434826 -0.6541248 -0.5128194 0.38922596 0.25454357 0.083411746 0.40696156 -0.15787114 1.1493738 -0.09346287 0.6174864 -0.07095153 0.0034433962 -0.933729 -0.6168151 0.5178727 -0.6956587 1.2232567 -1.0770268 -0.22368912 -0.82772213 0.16494948 -0.18984485 0.26213682 -0.49082088 -0.5518429 -0.21414733 0.5198933 -0.83344954 0.4385373 -0.052784495 -0.17850786 -0.0076787085 1.0647318 -0.05998635 0.38974562 0.547722 -0.4006061 -0.22082517 -0.49355885 -0.11284981 0.3698771 1.6251379 0.853436 0.95000213 -0.4362063 0.09151615 -0.23167044 0.3966948 -0.074638456 -0.4082383 0.3034021 0.48794973 0.09145172 -0.4864086 -0.0007098114 0.39577353 0.22435167 -0.509157 0.10293399 0.29470053 0.0050979247 -0.6321874 -0.37661824 0.37451988 0.42106497 0.039779063 -0.5004971 -0.00077023724 0.3656035 -0.19267869 0.44204703 0.8264098 -0.29330176 -0.07252013 0.22419095 0.4684122
1553 0.19718306 -0.5127011 0.25232413 -0.077721596 -0.2144606 0.9279902 -0.70693225 -0.022920502 -0.40764603 -0.6069013 0.18876825 0.059888877 0.24552299 0.46998402 -0.18903387 0.18113619 0.34815368 -0.53707725 0.15857749 0.41983953 -0.29734808 -0.3089425 0.20626967 -0.08802997 -0.2748243 0.07039317 0.920094 0.52981156 0.1430957 0.41327712 -0.021919588 -0.32092404 0.17062922 0.25352606 -0.292973 0.034971356 0.2876743 0.48032793 0.016717656 -0.6754388 0.18884505 -0.30321705 0.7569201 -0.29895073 0.21571188 0.21025842 0.04974539 0.112955205 0.025298784 -0.1112044 -0.0857299 -0.2705723 -0.22769336 -0.7141596 -0.18300924 0.22701472 -0.30693457 0.22509788 -0.34782985 0.035899166 -0.4725807 -0.07581931 -0.026623908 -0.12892568 -0.7304886 -0.17990988 -0.13719568 0.16039917 0.33084664 0.11138076 -0.14578573 0.6118791 0.062935404 0.07937157 -0.34737733 -0.3618039 0.17532727 0.057361122 -0.08425611 0.4992582 -0.1530275 0.5314679 -0.11532923 -0.4147123 0.031957563 -0.055534504 -0.08342793 0.18888244 0.3532378 0.09909148 0.37293226 0.33894065 0.17104223 -0.48099372 -0.4395777 0.25939623 -0.43872845 0.27255198 0.032991532 0.289404 0.75102085 0.24416403 0.90590745 0.30627623 -0.20900884 -0.91989446 0.28000307 0.108739905 -0.0038850287 -0.5808619 0.018314071 -1.1386386 0.40637702 -0.12076898 -0.05396775 0.41944492 -0.49314025 -0.19623151 -0.19368806 0.035507374 0.11666171 -0.06332601 0.46575302 0.26423505 -0.574375 -0.5481988 0.1397324 -0.107581906
10177 -0.2480826 0.83280975 -0.6348755 -0.9870883 -0.21183449 0.79004836 0.39045006 -0.40590036 -0.77896464 0.2507839 0.023928724 -0.8151001 -0.21685527 -0.18000564 -1.0159595 0.022213383 -0.695581 0.025386415 -0.3222343 0.72754043 0.2525628 -0.95216185 -0.06322253 -0.10016479 -0.39180428 -0.11952011 0.8159219 0.044650555 -0.3599925 -0.56700003 -0.34803075 0.97779304 1.0911318 -0.0017617714 0.13970476 -0.045974158 0.4884618 -0.63685435 -0.80365497 -0.25961873 0.67074007 -0.81371665 0.2812614 -0.028100476 -1.4303848 0.8259567 0.4436287 -0.74385965 -0.64453447 -0.6770246 0.5708507 -0.55452824 0.30378863 0.17598386 0.25332123 0.38779247 0.27040085 -0.79317874 0.31767735 0.70426303 -1.0880706 0.112313725 0.44149053 -0.7185526 0.48285624 0.17537652 -0.3427135 -0.307072 0.032636326 -0.092533834 0.80070007 0.6221329 -0.28889093 0.2618208 -0.7954936 -0.07060202 -0.6167915 -0.12618306 0.5858403 0.17727442 -0.1730042 0.08813784 1.0480859 -0.20305903 0.5653352 0.32001948 0.1761571 -0.40549958 0.1315784 0.90552336 0.13092622 0.44577485 -0.35032678 1.7332337 -0.24100952 0.1311198 -0.1308568 -1.3285244 0.6441409 0.4814368 -0.067928836 0.5456794 0.12245802 -0.7716228 0.38733938 0.20954663 -0.24486414 0.9057312 0.37792358 -0.27846104 -0.20757036 0.10677389 0.4792958 1.0660386 -0.032275088 0.9439395 0.27823064 0.5712211 -0.7681227 0.2570945 -0.64246994 0.41967112 0.66307 0.061404575 -0.35240525 -0.22543463 -0.2688091 -0.23512904
4468 -0.41785857 -0.17810433 -0.45301053 0.03295491 -0.12531802 0.28114024 0.17744888 -0.18982573 0.39106962 -0.3379547 0.14570494 0.5183535 -0.028813781 -0.24302508 -0.097453386 0.3312519 -0.17246751 0.6403779 -0.27730754 0.56252104 -0.48493406 0.2137746 -0.24420778 0.24065045 0.09567333 -0.2769219 0.38718924 -0.27748898 0.24172339 -0.6769286 0.06883109 -0.38194624 0.6999344 -0.5940445 -0.07922752 -0.14918515 -0.46604994 0.7434389 -0.22717565 -0.25454742 -0.25571087 0.23742108 0.8122423 -0.41392723 -0.22046205 -0.09138528 0.10829454 1.1283531 0.1980376 0.5159024 -0.045613706 -0.120453075 -0.31448126 0.36257404 0.012613077 -0.17539404 0.24271089 0.5536495 -0.44742778 0.27724233 -0.75195944 -0.2896857 -0.018884778 -0.23712552 -0.5400104 -0.49609515 0.528713 0.414846 -0.49550614 0.84413797 -0.021846691 0.014618643 -0.51470083 -0.2559329 -0.20252354 0.49327824 0.28723624 -0.33052453 0.0476744 0.32723066 0.52394354 -0.054426424 0.49929154 0.11667748 0.24193418 0.8976908 0.16426156 -0.01703433 0.3106545 0.26276532 0.07126262 0.36917484 -0.029883152 0.2288276 -0.053254843 0.45380226 0.7432803 -0.44229537 0.26436692 1.1481708 0.011769971 -0.6284724 0.6219871 0.3696369 0.20860074 0.44829732 0.60376936 0.59764165 0.20650074 -0.59074396 -0.3849074 -0.08612049 -0.22820312 -0.8589628 -0.78095603 0.21957724 0.30456972 0.15210137 0.2988609 0.96613204 0.4621133 0.18612519 -0.24181165 -0.043850344 -0.041797582 0.75353426 1.31334 -0.53031456
18130 -0.20511016 0.5240594 -0.23153555 0.36292157 -0.58226335 0.008588782 -0.47525597 -0.38523498 -0.0862662 -0.07204862 -0.17159726 0.26584026 0.08658674 0.13816589 0.28854522 0.06449059 0.49654648 -0.8806096 -0.7328493 0.07416918 -0.17193647 -0.29960835 0.07255118 -0.44003657 -0.19472004 0.21414325 0.2837417 0.36764768 0.20096265 0.02381712 -0.1663471 -0.16167708 0.5666557 -0.20075548 -0.2957327 0.10121264 0.16075657 0.44308478 -0.41139448 0.2822776 -0.0806412 0.55151355 0.5102534 -0.12830347 0.46080944 -0.34089664 0.39390105 0.74947226 0.49916917 -0.33431992 0.38440666 -0.1519859 -0.20340379 -0.82775074 0.24472381 -0.13265477 -0.02240388 0.25430736 0.1502593 0.34440443 -1.1311257 0.24535756 -0.10753231 0.27596796 0.017001003 -0.25958082 0.7215742 0.178071 0.03517217 0.04120201 0.3775221 -0.19385535 -0.2295112 -0.61992586 -0.4557757 -0.88886195 0.2187872 -0.10651739 0.19060686 -0.32997864 0.5095487 0.6101118 0.2934295 -0.1393853 -0.53397036 0.15692407 -0.3491677 -0.843881 -0.30617988 -0.10496761 -0.09489541 0.28122932 -0.09435961 0.681429 0.18129247 -0.07049847 0.37649754 0.32939294 0.25760898 0.023187846 0.66651386 0.48332572 -0.1348513 0.10495363 0.034305133 -0.09266369 0.1979155 0.7644045 0.114573374 -0.47840154 0.3163519 -0.5375776 0.0022573797 0.18291456 -0.035748616 0.8637289 -0.01221418 -0.17806046 -0.0035993152 0.5739841 -0.5107173 1.0696267 0.4787109 -0.46138006 -1.0381746 0.23117739 -0.20080899 0.05752384
21033 0.22710574 0.743615 0.083199926 0.21873726 -0.9248737 -0.12119976 0.27238598 -0.33994278 -0.24347815 0.15131027 0.6131746 -0.21522644 -0.35027936 -0.016691202 0.06307746 -0.60261774 -0.5822472 0.29553792 0.09993581 0.30401358 -0.75745803 0.19950655 -0.39886895 0.6643444 -0.0915792 -0.1924078 0.41576767 0.4874077 -0.64426494 0.4729668 0.79455847 -0.577806 -0.21396442 -0.25661784 -0.13329443 -0.3556149 -0.16899846 -0.15566257 -0.78503567 -0.5798012 -0.67514914 -0.49559557 0.5499417 -0.364622 0.2833841 0.09335569 1.2765099 0.4364935 -0.8294321 -0.6602263 0.1098831 -0.74034566 -0.16492347 -0.39570847 -0.9475128 0.1781979 0.37694618 0.8775008 -0.58266896 -0.07388285 0.78132206 0.2866175 -0.726661 -0.016774235 -0.33627102 1.234475 -0.13932283 -0.4410017 -0.085787326 -0.2781415 0.6248026 0.10264373 -0.69932514 0.47055206 -1.3239608 0.32852504 -0.08088138 0.4844459 -0.035280544 0.022278411 1.1691691 0.17947888 0.19030352 -0.3375052 0.26191172 0.45059547 0.68751043 -0.050897263 -0.591781 -0.14164162 0.49571308 -0.102012426 0.57202077 0.24180256 -0.48813447 0.33351868 0.64348847 -0.50380784 0.013956751 0.76631546 0.70153654 0.21730988 -0.4084237 -0.18044941 -0.58369946 -0.013594872 -0.5746399 1.1437418 0.8407361 -0.27959338 -0.10405728 -0.48329845 -0.459278 0.36871746 0.22935295 0.052379627 0.18138057 -0.30360726 0.03790326 0.087890215 0.32495818 0.066519596 0.4740372 -1.0559374 -0.84247565 0.43707126 -0.5908825 -0.060066137
6644 -0.30565166 -0.110079825 0.22179994 0.3197522 -0.71313727 -0.28813827 0.0079443995 -0.12779716 0.087309666 -0.64710236 -0.15105994 -0.2546473 0.5870457 -0.09335104 -0.049386077 0.21972941 0.48778215 -0.4017116 -0.15272582 0.3868827 -0.022994865 -0.43621847 0.58167785 0.4804798 0.004134604 -0.4539389 0.5992708 0.4487037 0.22552401 -0.7039848 0.5078833 -0.09329058 0.29142863 0.120828 -0.6257217 -0.05907651 0.25749972 -0.092087515 -0.16435242 0.7480344 -0.6665133 -0.17585687 0.18455039 -0.38132975 -0.35565895 -0.5375092 0.4004468 -0.0054156072 -0.40371037 0.116701394 -0.35620472 -0.43764588 0.48784506 0.46612462 -0.33216935 0.24164349 0.17184827 -0.17194325 -0.4106594 0.6792334 0.12000896 0.9044374 -0.2678365 0.42317498 -0.013321975 0.19764738 -0.18487285 -0.34410495 1.1938096 -0.57607126 -0.36247733 -0.4381241 -0.39565805 -0.10227844 -0.49996817 0.031051619 -0.078192174 -1.4555777 -0.20878111 -0.2101195 0.29333156 -0.14123371 -0.043591306 -0.243604 0.008755624 0.748339 0.81413704 -0.25147682 -0.5652072 -0.16167557 -1.0274662 0.2442077 0.4070361 0.019565541 0.26180187 0.41429454 -0.030537259 -0.6995147 -0.55233616 0.41511115 0.27623805 0.30255494 0.31485718 0.21697529 0.960163 0.13065349 -0.95825547 0.26795733 0.1993597 -1.0584501 -1.0145267 -0.025758771 0.17533919 -0.08318977 -0.3400051 -0.46880051 -0.3656589 0.74058837 0.5761151 0.66852283 0.1541765 0.65114915 0.51811135 0.41870418 -0.8006563 0.037858583 -0.78762513 -0.06642208
3563 -0.024072366 -0.19891176 -0.43539837 -0.1733914 0.0046012313 0.4660352 -0.46358827 -0.41498592 0.014967192 0.3576689 0.12699468 -0.16218127 0.4145718 0.25978976 -0.20492007 -0.050238755 -0.21347304 -0.1642185 -0.5827277 0.18083727 -0.17710628 0.09270018 -0.08377257 -0.018758206 0.1852297 0.27063474 0.004935677 0.4549958 -0.34028128 -0.09680628 -0.022179672 -0.21157205 0.3511392 0.45509946 -0.29676953 0.21509896 0.5632724 0.039757706 -0.04882711 0.2322701 -0.6173489 -0.13736895 0.82609254 -0.45075938 0.046753593 -0.013643455 -0.5329666 0.31081426 -0.07665654 -0.055727016 0.3848332 -0.13434102 0.29585585 0.09984804 -0.03595563 -0.49731034 0.039844856 -0.26449928 -0.3905837 0.06831364 -0.3121046 0.5328122 -0.055919673 0.27132314 0.07604873 -0.24748905 0.145129 -0.31947136 0.046859596 -0.20212275 0.8104408 -0.2956969 -0.097082846 0.0319414 -0.33183822 -0.13327923 -0.24250485 -0.43553764 0.10201877 0.44048703 0.58084345 -0.13128777 -0.44719806 -0.7124486 -0.0075707342 0.028326385 -0.18941651 0.34805784 -0.3441056 -0.011295506 0.1035126 0.1463318 -0.38560966 0.079949796 -0.06277802 -0.06895745 -0.18569633 -0.066604346 0.30653992 -0.115654685 -0.15616994 0.06101579 0.77852815 0.08014701 0.38641834 -0.29088783 0.16764395 0.3363083 0.14921379 -0.5343885 0.15499046 0.256766 0.013568526 0.36636814 -0.2895341 0.10257146 -0.67171353 0.30975473 -0.2938784 0.16861388 0.23051652 -0.07490208 0.34673703 -0.43572867 -0.25205603 0.190179 -0.27408516 0.2771745
248634 0.23149945 -0.17077994 -0.67517775 -0.5418167 -0.856785 -0.07096865 0.12656236 -0.19914293 -0.3247302 0.13984054 -0.08497974 0.11418652 0.3743331 0.016019555 -0.7497125 0.10809151 0.19113606 0.09411325 -0.2357549 0.43786004 0.18280809 0.44426346 0.44781744 0.058016364 0.109575965 0.22469887 0.5258364 0.29611325 -0.25876552 0.28182817 0.054955557 -0.6829454 0.4734948 0.412572 -0.01891678 -0.046366964 0.0037648815 0.44846925 -0.3045226 -0.106581606 -0.23854376 0.18931106 0.16377306 -0.19339105 -0.04818154 -0.45027128 -0.4090714 0.5059248 -0.46426293 -0.16806489 0.25129074 -0.71408325 -0.26433042 -0.24217656 -0.9181393 -0.04318785 -0.23091859 0.55845225 0.1998513 0.14077784 -0.16165072 0.37127972 0.3465101 -0.24978802 0.070805915 -0.30354112 -0.23382191 0.2021446 -0.002076845 0.28654864 0.08765859 0.01744952 -0.23276003 -0.14147831 -0.3991049 0.10164681 0.4795569 -0.5243137 -0.041759886 -0.20158228 -0.086015925 0.3915974 -0.1992073 0.13692597 -0.7390176 0.6069558 -0.5612184 0.18406564 0.098931074 0.42491952 0.07813492 -0.20202088 -0.35259792 0.3965445 0.50484866 0.66493183 -0.17234363 0.302191 0.73297346 0.26932278 0.38345096 -0.13469622 0.47353968 0.87110597 0.89631295 -0.08116908 -0.0908445 -0.19787309 0.843859 -0.22505832 -0.37377718 -0.17966369 0.5126058 -0.34981564 -0.50961155 0.41925198 -0.2775378 0.31140733 -0.5980825 0.45401064 0.78065014 0.07297154 -0.09628238 0.38006 0.4879371 0.46361506 -0.019392563 0.13424408
1632 0.33891064 -0.6370988 -0.029799845 -0.34807923 -0.43479678 0.029086418 0.121471904 -0.46941411 0.35219458 -0.28256184 -0.07015139 -0.1420976 0.4662203 -0.6878565 -0.2339998 -0.64619696 0.16565846 0.06240577 -0.3969762 -0.27735424 0.13126972 0.35159385 -0.16940784 -0.025571467 -0.29571548 0.36756214 -0.04447673 0.5057616 0.0011298432 0.040321745 0.044335473 -0.7510875 0.69966596 0.024934623 -0.40087757 0.17297417 -0.051025026 0.116178505 0.14395277 -0.25283688 -0.07928395 0.21640748 0.09216581 0.38423735 -0.5636583 -0.13738391 -0.38717228 0.6176911 -0.5118268 -0.11955975 -0.18583857 -0.46922475 -0.038056094 -0.4024051 -0.43554625 -0.26400614 0.05330906 0.4577482 -0.16504042 0.23323363 -0.2409948 0.5233921 0.36114845 0.17234194 -0.6285893 -0.2986043 -0.36993363 0.1764857 -0.1757605 -0.29079846 0.53804857 0.06908811 -0.16173527 0.5319232 -0.412648 -0.15656595 0.420651 0.07547726 -0.18470354 -0.17963208 0.47077855 0.1353488 0.30720985 -0.0065393047 -0.33168748 0.24172145 -0.34857693 -0.39131644 -0.0867375 -0.1004044 -0.4456818 -0.21705556 0.22306079 0.09696973 0.44348207 0.06307955 -0.031252995 -0.25789422 0.16969973 0.34568214 0.27900097 -0.04413898 0.055443518 0.62598425 0.5082294 -0.27157182 -0.008316867 0.099500015 0.42773834 -0.08065726 0.10649501 0.28086457 0.516346 -0.1687801 -0.4977068 0.13869603 -0.2469053 -0.37467512 -0.14759703 0.22628003 0.21786153 0.35693628 0.47585392 0.6809512 -0.30222905 -0.17749153 0.31296366 0.4034343
9136 0.17138724 -0.3683207 -0.3539335 -0.36963183 0.2930844 -0.289704 -0.05246238 -0.32587227 0.17903617 -0.23574719 0.09031296 -0.08145307 0.2888916 0.20173392 -0.09417107 -0.15666775 0.17328428 0.25542656 0.14885537 -0.13067447 0.4457864 0.068764955 0.21870756 -0.3078359 0.10902506 0.22082569 -0.008881091 0.09893383 0.05205759 0.1035119 -0.059516452 -0.13589098 1.0404162 0.05596579 0.49555615 -0.27563083 -0.39629737 0.4484291 -0.29331368 -0.089733 0.17198187 -0.042624347 0.50711733 0.27159292 0.19544621 -0.160888 0.22507237 0.19183986 -0.5814199 0.12339257 -0.28010958 -0.1699034 -0.26603398 -0.049100745 -0.6027361 -0.021671634 -0.3625969 0.26030585 0.08346653 0.01310356 -0.38856077 0.54686934 0.36526203 -0.31466177 -0.11987168 -0.12443579 0.015845358 -0.17045356 -0.090692446 0.10902426 0.20951815 -0.6695753 -0.12756327 -0.034234956 -0.5024613 -0.06966361 0.19414525 -0.107376374 -0.17490233 -0.12787953 0.3223937 -0.0076044877 0.082642615 0.0030494893 0.03740817 0.55289435 -0.29261345 -0.21757478 -0.25734633 0.20080775 -0.3046775 0.21589905 -0.15082243 0.2570893 0.33671698 0.35764283 0.29724824 0.18630192 0.59233 0.1378525 0.07675949 0.08717721 0.50802827 0.7125962 0.3364723 -0.04133543 0.81463003 -0.04956404 0.1965728 -0.48314226 0.16697332 -0.20997593 0.46051207 -0.43857518 -0.07107467 -0.041312493 -0.11625708 -0.2107585 -0.22727545 0.7827103 0.43224743 0.101100005 0.78330237 -0.07012742 0.4639557 0.39906457 -0.0078002033 -0.072583124
4792 -0.24188834 0.0055554057 -0.24248241 0.54719394 -0.22095817 0.214903 0.11098379 -0.3672638 0.09030055 -0.34111005 0.19922766 -0.48202345 -0.03842703 0.27700526 -0.073489614 0.040602986 -0.64650804 -0.51238114 -0.2662105 0.472112 -0.21079853 -0.24899244 0.18335517 -0.23926762 -0.2177888 -0.32672113 0.010060571 0.39609873 0.20811655 0.016522728 -0.093640424 -0.26616928 -0.05940396 -0.028916307 -0.46421608 -0.58697265 -0.072344035 -0.14511992 -0.26894274 -0.29708967 -0.2786603 -0.438884 0.07543681 -0.2718931 -0.009600413 -0.25972003 0.2926797 -0.10664489 -0.48143584 0.090920106 -0.33225578 0.25606906 -0.14513247 0.31270656 -0.09532934 0.18705583 0.07407107 0.34351268 -0.405698 0.38433877 0.34430456 0.4112737 0.2993529 -0.876736 -0.13165298 -0.1380167 -0.2546274 -0.302324 0.58018506 0.4324668 0.59314525 0.3481199 -0.21916594 0.32510212 0.2655461 -0.47615752 -0.14036793 -0.34222296 0.4922306 -0.46014443 0.20911308 0.06453022 0.49661916 0.88839024 0.2987859 -0.30641314 0.6567487 0.16520256 -0.18563718 0.22800434 -0.4432982 -0.19688107 0.042976756 0.2964517 0.10184509 -0.053819038 -0.30805573 -0.42209134 0.28112406 -0.02192256 0.6393378 -0.5959071 0.3402236 0.36437818 0.5623442 -0.16067842 -0.24245518 1.0170734 -0.027474888 -0.44115314 -0.23581508 0.24842575 -0.20218654 0.18536614 0.44178325 0.20529437 -0.6004469 -0.25402293 -0.41122985 0.4082724 0.30352694 0.6609352 0.07886133 -0.3377691 -0.021349492 -0.07867705 -0.055170327 -0.29296392
5395 -0.1861532 0.02842759 0.14876394 0.07598534 -0.013053501 0.3199374 -0.056849666 0.1058134 -0.488676 -0.651466 0.27739745 -0.25813228 -0.04283018 -0.0561909 -0.066925995 0.1440713 -0.26308608 -0.6255123 -0.098254755 0.28095907 0.10777701 -0.31312585 0.23146312 -0.32193032 -0.3055829 -0.16100675 0.09756745 0.8227059 -0.18200515 -0.38451263 -0.43485755 -0.37458223 0.44308707 -0.14404248 0.35991418 -0.19392517 -0.2619677 0.37730667 -0.43091032 -0.43875563 0.522338 0.08780704 0.78954273 -0.48893264 -0.1625595 0.033326026 -0.44800824 0.5008953 -0.012563664 -0.18310054 0.20287919 -0.6054106 -0.08156854 -0.5795205 0.014363961 -0.3880631 -0.40949348 0.7053552 0.23261455 -0.031085413 -0.49080595 0.09707409 -0.39763448 0.025683729 -0.43774426 -0.51571095 -0.08882918 0.60714495 0.15467837 -0.16191648 0.10638338 0.3239526 -0.27981877 0.2957042 0.026295258 -0.35530847 -0.29466274 -0.20542276 0.34943146 0.38428548 0.04381682 0.5271896 -0.17601286 -0.6543514 -0.014007623 0.52479047 -0.086934075 0.07018154 0.079753175 0.0143651515 0.26115933 0.4618235 -0.66533417 0.07100136 -0.2958662 0.98201174 0.22798665 0.06655958 -0.047938075 0.014959996 0.4700764 0.20699553 0.62530214 0.36678234 0.14497189 -0.7407599 -0.07913439 -0.3321624 -0.511075 -1.026392 0.035898488 -0.8346233 0.4847798 -0.29094452 0.14910553 -0.28914905 -0.2775556 -0.00030491472 -0.12393354 -0.21872641 0.44868416 0.25728524 0.14165317 -0.21017867 -1.0524201 -0.47388843 0.0612704 0.60354906
17532 -0.85316175 -0.8051533 -0.3283601 -0.3868462 0.16176872 -0.39622486 0.65235865 0.5262484 0.09098154 0.67590624 -0.5781495 0.37128535 -0.15155979 -0.016264336 -0.38017446 -0.3388464 -0.32709897 0.4054169 -0.711006 0.6969857 -0.43985283 0.76812994 0.0028666179 -0.026900975 -0.30537736 0.44741333 0.6160606 -0.40599555 -0.20251119 -1.1875099 -0.5358853 -0.18641406 0.44543833 0.7214647 -0.74875665 0.27971718 0.28847024 -0.33616877 -0.7618204 0.03648845 -0.038465198 -0.1558409 0.4690307 -0.28115433 -0.26982796 0.5857428 -0.06832136 0.3944438 -0.7474069 0.53405136 -0.108380355 -0.33837083 -0.1305674 0.097756855 -0.47067997 -0.37404874 0.1760952 0.52307487 -0.11675884 -0.8167103 -0.53105706 0.16567287 -0.0912737 -0.5236669 0.16272664 -0.41206607 -0.08842239 0.052643698 0.21734196 0.2944802 0.29804152 0.6307399 -0.14633812 0.7342139 -0.103966676 -0.6066967 0.28667453 -0.21366656 -0.37256047 0.04692956 0.6989628 -0.2526417 -0.10979822 0.063873574 -0.15419775 -0.040527552 -0.43359628 -0.19291131 -0.22029695 0.23422837 0.057174228 -0.12050035 -0.029167289 0.37599242 0.28660765 1.2419764 0.06627064 -0.14164256 0.242179 0.20549913 0.4219687 0.67088026 0.061549578 1.2416627 0.56760377 0.3898608 0.79357153 0.58593106 0.86132026 0.08462369 0.32221416 -0.1640167 -0.8543628 -0.11941555 0.27915424 0.35119292 0.01651359 0.4628471 -0.26442826 0.24885257 0.011374828 0.4025023 0.96547747 0.1353208 -0.6382144 -0.24610895 0.84679526 0.31319568
13382 -0.3447067 -0.67079663 -0.63174427 -0.17112622 0.8224891 0.23726591 -0.3557543 -0.43115023 -0.2936328 -0.15898246 0.11474362 -0.21057051 -0.26207966 -0.1957485 0.24408016 -0.14745726 -0.28036633 0.8382652 -0.06726868 0.5068802 -0.64352965 0.57894945 0.14586909 0.19970918 0.0024460345 0.72454953 -0.12769902 0.005883152 0.30676353 -0.5171153 -0.5577697 -0.5223795 0.4731596 0.2782348 0.07706062 -0.98740804 -0.44618863 1.056208 -0.21259364 -0.19714952 -0.14153276 -0.10395649 0.050795767 0.05070886 -0.18790805 0.09639684 -0.256108 0.55641025 -0.028623192 -0.12307426 -0.27527115 -0.5024866 -0.49716824 0.37371957 -0.23097901 0.62076294 -0.37644884 0.79150534 0.04785957 -0.45129287 -0.37460992 0.36263853 0.23051462 -0.52270764 0.014843377 0.08737749 0.56837857 0.36472356 0.08055382 -0.00073758024 0.32426375 -0.8951549 -0.21313043 0.30743277 -1.1115385 -0.39359942 0.06739503 -0.21482372 -0.13745241 0.21171354 0.38464168 0.5947419 -0.02733204 -0.4190366 -0.22634587 0.49097127 0.027764533 -0.4431476 0.34574863 0.63437605 -0.41898635 0.38372833 0.1355239 -0.17669399 -0.3875071 0.43618315 0.54062563 0.83435893 0.6821508 0.42527848 0.22411045 -0.13797024 0.19368929 0.7722762 0.6896175 -0.053798918 0.9470322 0.6114334 0.14006825 -0.29638234 0.1333341 -0.40423188 -0.2186826 -0.18167177 -0.3406068 0.31041652 -0.41605923 0.19115749 0.30016416 0.35900837 0.9466134 0.25125274 0.71061826 -0.28379926 -0.10184454 0.32847917 -0.61572045 0.03428264
18957 0.37863 -0.80802345 -0.022010107 -0.45507213 -0.41369152 0.04440207 0.07114178 -0.5415199 0.3641555 -0.14642394 -0.055033803 0.031411227 0.48680076 -0.5915585 -0.22256202 -0.8055602 0.119216435 0.19067772 -0.2773191 -0.22767958 0.1309217 0.23970145 -0.12193694 0.03001118 -0.29364568 0.3269286 -0.09079631 0.4646571 0.17772911 0.1019542 -0.09047147 -0.66422504 0.81168467 -0.1655279 -0.43875813 0.17652333 0.06949404 0.19199452 0.14347859 -0.18508087 -0.0046082977 0.15966775 0.030096475 0.47310463 -0.60985434 -0.02845853 -0.41735825 0.46480623 -0.64717776 -0.13021204 -0.2843407 -0.32359543 0.064867444 -0.44602317 -0.282681 -0.10083176 0.10507708 0.7144459 -0.26651973 0.1482963 -0.30194947 0.5410349 0.49348935 0.18178855 -0.5953297 -0.34852076 -0.22725402 0.079436086 -0.21617042 -0.31554174 0.4825111 -0.052341487 -0.1261024 0.6140433 -0.366033 -0.1607359 0.40016732 0.08106304 -0.17591976 -0.005506956 0.40880173 0.29174447 0.31034812 0.029353485 -0.45463386 0.200037 -0.25482762 -0.40932766 0.02321478 -0.17391862 -0.37144828 -0.17118457 -0.04314775 0.087866545 0.2807061 0.39641842 -0.054483633 -0.41089663 -0.06709666 0.42293674 0.34725916 -0.22707662 -0.1913959 0.69944316 0.43837753 -0.24441247 -0.041471303 -0.0045806593 0.51736575 -0.3026241 0.15158045 0.29233184 0.42980424 -0.2893878 -0.59112924 0.07452677 -0.3294743 -0.40609026 0.06960579 0.2882329 0.42033106 0.38002938 0.6350496 0.43229237 -0.49844489 0.09616626 0.10871103 0.375432
6841 -0.40325832 -1.8978493 -0.08290605 -0.2790567 0.06409322 0.58348626 0.5899259 0.16397855 -1.6512283 0.14919585 -0.24066006 0.0066693765 0.6954029 0.04997929 0.2332094 -0.21352926 -0.00011841918 -1.7554278 -0.79054815 -0.30183333 -1.6034263 0.3917048 0.12647142 -0.53179485 0.84737647 -0.18466717 0.18356682 0.77706707 -0.6871613 -0.13693546 0.12028027 -1.1214784 0.36907053 -0.2083462 0.18268569 0.46666387 0.2673222 -2.1940143 -1.059762 -0.85291106 -0.107197426 0.23068808 -0.048926122 -0.24758047 -0.31043386 -1.448201 -0.053535283 0.024083177 -1.5170925 -1.3297142 -0.1463828 -1.1299225 1.330255 0.25879773 -1.0992149 0.13204806 -0.08566436 -0.42756194 0.96700907 1.4371377 0.8361421 -0.8379201 -0.14348382 0.41356415 -0.88940537 -0.6284964 0.16762409 -0.46072862 0.5478042 -0.37524047 1.6851914 -0.19318914 0.2976905 -0.12343336 -1.7919096 -0.5847332 0.169099 -0.51501983 0.19296211 0.024000635 1.0317314 0.42099273 0.31113186 0.327865 -0.38721177 -0.45644054 0.8805444 -0.47137332 -0.5248091 0.51295 -0.9352957 0.0007132985 -0.013619338 0.2214361 -0.79550225 1.2353458 -0.47360715 -0.8037247 0.13304183 1.4533836 0.9586335 1.3091401 2.086747 -0.39330563 1.0891762 -0.0056568994 0.05410108 0.876008 0.18117107 -0.31034222 -0.28303912 -0.031362496 -0.06858388 -0.26369715 0.5469017 -0.008061328 -0.020164268 -0.17337391 0.43693218 1.2167553 0.30422446 -0.35205162 0.6273113 0.37751463 -0.1408381 0.5877357 -0.78143024 0.1340332
1331 -0.42997247 -0.057120107 0.19996385 -0.23872401 0.2842321 -0.20593187 0.14375049 0.06798386 0.08849574 0.5819483 -0.26118588 -0.45843685 0.3441683 -0.12743922 -0.14069031 0.12857702 -0.08152458 0.51796496 0.1807135 0.45467702 -0.04083411 0.28164655 -0.17931096 -0.44695464 -0.18722948 -0.36885327 0.6654858 -0.20737714 -0.26293358 -0.009523035 0.37175924 -0.23498094 0.027241515 0.024155868 -0.36812747 0.093650036 -0.3342919 0.25894293 -0.23280653 -0.055311825 -0.09046004 0.4646504 -0.47835073 0.15634432 -0.023227355 0.36461556 -0.07977374 0.22921576 -0.8124122 -0.15880993 0.18003006 0.104409866 0.112358846 0.27596274 -0.8589292 -0.37194344 -0.035875123 0.28148848 -0.23113059 -0.12674256 -0.7625634 0.51817876 0.26660913 -0.39819753 -0.13952957 -0.17869002 -0.37193635 0.1927204 0.36335364 0.5992854 0.32722613 -0.10034157 0.44214463 0.41774544 -0.5373931 -0.5177716 -0.11570018 -0.42920446 0.03440172 0.25311497 0.21881133 0.16210908 -0.09682762 -0.37256226 -0.14634463 0.27911144 0.50011647 -0.11417284 -0.58930415 -0.27027944 -0.46601802 -0.029433735 0.42079398 0.3623682 -0.22937371 0.21821462 -0.37526762 -0.40296197 0.6840595 0.17747954 0.5587393 0.10348971 -0.35752225 0.6877203 0.5211529 -0.25349912 0.43330222 -0.009329323 0.6847397 -0.20626824 0.3864652 -0.1500002 0.1980441 0.06105445 -0.07393667 -0.5985806 0.00091701903 0.044661842 -0.69971955 0.18195781 -0.16446799 -0.008517213 0.61576766 -0.45349327 -0.6559654 0.5053045 0.6765392 -0.031700395
11255 -0.444892 -1.8807102 -0.08151767 -0.32815006 0.087161765 0.6467854 0.61871016 0.1514639 -1.5979338 0.2285676 -0.19855174 0.05930907 0.6681995 0.0493217 0.12991217 -0.1434774 -0.02628604 -1.7181659 -0.7846699 -0.25919962 -1.6178906 0.38885415 0.12097347 -0.4470622 0.7956876 -0.1640919 0.08597777 0.8506248 -0.5912557 -0.12275492 0.15327889 -1.1216506 0.36109522 -0.17008226 0.1986131 0.5079448 0.2812549 -2.1663728 -1.0287863 -0.8955018 -0.11353452 0.2482813 -0.05069687 -0.27293366 -0.35320738 -1.4080254 -0.08506574 0.036549263 -1.5024099 -1.3931661 -0.08143315 -1.2093662 1.3587506 0.26823616 -1.1732718 0.16390727 -0.07431562 -0.3039302 0.9710183 1.3834275 0.8531166 -0.87882483 -0.04319098 0.4495585 -0.9179172 -0.5946694 0.15278171 -0.34664792 0.64150965 -0.3810788 1.7698305 -0.1492758 0.29348648 -0.13849142 -1.8367071 -0.5425643 0.1105725 -0.5981793 0.14497901 -0.047104914 1.0178708 0.34206122 0.40420794 0.33289173 -0.4220181 -0.46333534 0.8978456 -0.40866855 -0.42078632 0.5408567 -0.89890873 -0.02591709 -0.043551385 0.23951094 -0.8441022 1.2353026 -0.47530022 -0.7772051 0.10408732 1.4329535 1.0003086 1.2288909 2.0472684 -0.45036697 1.1858963 -0.025196364 0.08338716 0.82891613 0.17412679 -0.21781087 -0.3381787 -0.12376639 -0.15939425 -0.26168886 0.50263065 -0.06925785 -0.06507983 -0.15707284 0.4527814 1.2141116 0.3174829 -0.3689093 0.68325907 0.38757384 -0.11068471 0.5720405 -0.6779298 0.22073087
1016 0.25150415 -0.19230935 -0.08415178 -0.014323416 0.22139366 -0.30380994 0.00964106 -0.036982816 0.21976489 0.15602823 -0.007773371 0.30379105 0.7735005 0.047300197 0.17073834 0.37931323 -0.24595654 -0.27078718 -0.17134105 0.830482 0.04138591 -0.15353604 -0.007200594 0.01758888 0.453274 0.16236739 1.199853 -0.1369838 0.0017098731 0.20788077 0.10227202 -0.5262995 0.38608375 -0.010330291 -0.3053217 -0.13385138 0.46419436 0.00027518583 -0.15368691 -0.50335145 0.12088125 -0.14349641 0.06413609 -0.13583422 -0.7217576 -0.017711438 -0.29228783 -0.14185187 -0.06631128 -0.2756652 0.066099815 -0.62483954 -0.043369688 0.10051064 0.27679652 -0.29372054 -0.18657795 0.37625498 0.43081254 -0.3070397 -0.11142634 0.058401205 0.009226029 -0.24200644 -0.8826139 -0.26676553 0.43713525 -0.006230845 -0.036555637 0.30322143 1.106051 0.36207336 -0.14380388 0.03643703 -0.041104667 -0.5147911 -0.090883315 -0.4210694 0.57278496 0.30250475 -0.14512351 0.26656404 0.020225912 -0.16905545 0.23397101 0.6644255 -0.32120064 -0.09400389 0.2338481 0.10364813 0.02298268 0.018989831 0.17611833 0.25503445 0.27105102 -0.21547902 0.06350105 0.5522026 0.24849111 -0.24970746 0.11711314 0.12841615 -0.09648197 0.7462058 -0.006764308 -0.07839681 0.20683202 -0.043834854 0.07838329 -0.7366922 0.14238413 -0.37306908 0.60006636 0.26987693 -0.005444259 -0.50511026 -0.6463407 0.15016307 0.08343358 0.5141506 0.21397455 0.33043864 0.1289279 0.6714457 -0.23287682 0.46126932 -0.32566243 -0.54242533
5291 -0.40159068 -0.65529704 -0.020222059 -0.6545442 0.04280688 -0.4661925 0.58302605 0.40932995 0.1636428 0.41313848 -0.4675575 0.54004264 -0.19877268 -0.24024424 -0.3252005 -0.08261592 -0.5887795 0.04511063 -0.2956226 0.4351174 -0.1989969 0.6194063 0.20795028 -0.04836921 -0.25320247 0.24466631 0.3338314 0.098932855 -0.32330853 -1.0219225 0.03310274 -0.18078962 0.5181098 0.44693583 -0.42850405 0.2311445 -0.071195096 -0.66673994 -0.6060055 -0.24412532 -0.0022174737 0.25666416 0.43549517 -0.3837371 -0.38445872 0.38206297 0.072084874 0.39923355 -0.7786579 0.07790223 0.15473273 -0.14825273 0.24231002 -0.26104668 -0.5076391 -0.3108553 -0.15004386 0.30879167 0.11850017 -0.68225193 -0.4234183 0.1540015 -0.20913047 -0.4820124 0.08665988 -0.8460206 -0.1710814 0.11815035 0.1682729 -0.2730163 -0.12026513 0.5684756 -0.29806858 0.1925041 -0.006025181 -0.22163899 0.18828984 -0.23557156 -0.04332244 0.03824275 0.18846954 0.2470559 0.27924842 0.11366361 -0.046910454 0.08195439 -0.4869036 -0.26044533 -0.09148502 0.090694495 -0.18976633 -0.013086535 -0.04100765 0.6447973 0.24531266 0.65718037 0.015068535 0.19531408 0.40927413 0.35944968 0.49069571 0.380994 0.25760767 1.6391648 0.3767108 0.29512325 0.67086804 0.85024136 1.0711206 -0.09205715 -0.22588465 -0.2480359 -0.24569213 0.01278055 -0.03326332 0.53062457 -0.018389037 0.08496635 -0.16378753 0.50240195 0.06393083 -0.012256227 0.84155494 -0.037319187 -0.37962413 -0.24004237 0.5068343 0.22289047
14277 -0.090389624 -0.2769132 -0.3977304 0.24983129 0.40457323 0.36325207 -0.20488381 -0.9666329 -0.48263416 -0.3077846 -0.06696605 -0.22533554 -0.027082574 0.6100305 -0.25328112 0.25615963 -0.377672 -0.26746926 -0.79070926 0.47343335 0.040151898 -0.22153307 -0.13378571 -0.8229583 -0.13868125 -0.1111298 -0.13408451 0.26560333 0.017276196 -0.07850604 -0.110675156 0.06362038 0.23700134 0.38354725 0.13708434 -0.11796545 -0.2878645 0.2860152 -0.37304968 -0.45584542 0.10094582 -0.10980625 0.033097573 -0.2401437 -0.39278683 0.05738026 0.59040546 -0.24206807 -0.29889822 0.21510968 -0.23105921 0.2231284 0.057907667 0.4075213 -0.1291446 0.20007461 0.042590883 -0.074321516 -0.1375118 0.5310231 -0.08953757 0.6685257 0.3174967 -0.3075341 0.13178436 -0.24737124 0.09891251 -0.13349193 0.49452257 -0.118514 0.2597509 0.3133733 0.18230794 0.022063356 0.32962957 -0.33037278 0.5120696 -0.05374559 0.94579744 -0.29160297 0.3506325 0.29100707 0.14496844 0.73040736 0.18179739 0.22112049 0.42617625 0.14487086 -0.3630279 0.34831476 -0.09471216 0.12848803 0.13332745 0.09786379 -0.27577692 0.008138135 -0.72404057 -0.33684793 -0.05992614 0.2805533 0.8386836 -0.74660856 0.27814552 0.13834582 0.17394848 -0.23967004 -0.9815072 0.7210098 0.14175078 -0.2798447 -0.16303237 0.6602022 0.35368893 -0.11791501 0.65665764 0.36934656 -0.014241174 0.014218994 -0.12011573 0.40267432 0.4279277 0.621498 0.2645624 -0.27825275 -0.1391256 -0.13303396 -0.05337196 -0.44920325
5111 -0.0055581112 0.45553103 -0.25414398 -0.16585991 -0.17587397 -0.22161937 -0.039058212 -0.17483728 -0.40415227 0.38456482 0.11398397 -0.018047048 0.72319955 -0.43557984 0.3321356 -0.59909034 0.094117105 0.2155682 -0.08987149 0.64458185 -0.77267855 -0.63728976 -0.12017118 -1.2435446 0.050945017 0.29526073 -0.13753268 0.6040412 -0.5647345 -0.15906164 -0.24539602 -0.28686187 0.078590974 -0.25669187 -0.71307504 -0.20318508 0.15563163 0.07197011 -0.038612332 0.33076876 -0.3010721 -0.013256623 0.6201594 -0.64153147 -0.86090004 -0.00548959 0.8694712 0.49786305 0.020780733 0.022225376 0.42125502 0.13733046 0.24050578 0.10203473 -0.68318343 -0.16455731 0.71231633 0.1985407 -0.18200877 0.40154475 0.013331703 -0.08981165 -0.09370312 0.3184335 0.11558081 -0.16042669 0.3022169 0.33963585 0.9816835 0.55399406 0.38521057 -0.8815814 -0.015217705 0.69891655 0.121303305 -0.5249348 -0.064460315 0.2710238 0.6979049 0.14954598 0.050837643 0.46563813 0.19968545 0.14890209 0.21038654 0.29768756 -0.06472595 -0.16317818 0.09931434 0.69628596 -0.17813578 0.32478237 0.3058572 0.23128451 0.7771016 0.95655227 0.06485046 -0.2745645 0.18898776 -0.28240377 1.1111004 0.033265427 -0.12213298 -0.34143743 0.38765723 0.24896286 0.43353173 0.48599082 -0.27020934 0.11104499 0.3625064 -0.657121 -0.3048453 -0.694025 -0.38705036 0.4894344 -1.1432859 -0.1611705 0.4177229 0.7306568 0.14954118 -0.6574177 0.42137718 -0.27986518 -1.1633304 -0.41664007 -0.054945152 -0.6281274
2911 0.1303893 -0.33840138 -0.1652011 -0.24681248 -0.24676384 -0.17908475 0.357041 -0.13819006 0.14905104 -0.20141862 0.0029476385 -0.18954247 0.38210747 -0.05275678 -0.050367538 -0.16276056 -0.07668109 -0.15892398 -0.12297102 0.109860875 -0.020214722 -0.033828225 -0.120636456 0.056161087 -0.03149271 0.42155322 0.14303581 0.0783466 -0.21960293 0.1600593 -0.011884668 -0.6433899 0.3900378 -0.11324669 0.013129971 -0.023132287 -0.102976255 -0.17108902 -0.10857096 0.06798513 -0.3289031 0.023019463 0.0804849 0.27218282 -0.5114625 -0.0040415274 -0.3725043 0.3672433 -0.12758707 0.30051875 0.009538763 -0.467777 0.19513914 -0.3079049 -0.6585808 0.008093988 0.15768647 -0.029032197 0.0042534443 0.15980421 -0.25189888 0.43101352 0.46502316 -0.06476029 -0.1840586 -0.18653077 -0.2829987 0.10693688 0.3099521 0.1574394 0.07216799 0.32125863 -0.19448362 0.799162 -0.54671603 -0.27885193 0.36770713 0.015226211 0.086377434 -0.12223584 0.13441941 0.13811061 0.12860885 -0.45877948 -0.21265933 0.33810464 -0.11324224 -0.06476042 -0.06669947 0.3292398 -0.01276271 -0.3029076 -0.01736766 0.19996162 0.28347525 0.3006209 0.22215371 0.42103273 0.34781387 0.3160388 0.15939632 -0.22156297 0.19933155 0.5759621 0.5362069 0.1378808 0.2817356 -0.079868995 0.7517667 -0.15785542 0.3031715 0.24206525 0.6170406 -0.46371046 -0.8013014 0.24220857 0.27625683 -0.3736201 -0.34983802 0.2288465 0.037776347 0.57801473 0.19556922 0.31783712 0.186086 -0.108041905 0.3420841 -0.0006858781
25296 -0.5169871 0.16896464 -0.29491305 -0.11013683 -0.23104379 0.21548411 -0.108369514 -0.18724464 -0.16529532 0.7930415 -0.16895156 -0.01064401 0.34787422 -0.074135885 0.3183374 0.3666221 -0.27996153 -0.87364674 -0.38543698 0.37128243 -1.0054455 0.7451899 0.12574872 0.35766882 0.3099397 -0.11964958 -0.11967142 0.6909494 0.049718536 -0.069284946 0.0054610115 -0.033913217 -0.19766006 0.2673266 -0.5761193 0.1572705 0.64823097 -0.07792929 0.011435112 -0.59159976 -0.50158614 -0.13056614 0.6730618 -0.554357 -0.3376286 -0.38008246 -1.125705 0.2335586 -0.36542264 0.44285196 -0.23212138 -0.36926916 0.15651615 -0.3054491 0.2230149 -0.48969942 0.33195102 -0.59028214 0.13249226 -0.2741226 -0.27327868 0.61865765 0.57851106 -0.21984917 0.35725158 -0.056274313 0.5493883 -0.5319671 0.22327317 0.5719468 0.6748754 -0.112274736 0.42008707 -0.06571963 -0.4514754 -0.22239086 -0.48798752 -0.093761876 0.18476954 0.23318139 0.843417 -0.22029904 -0.82290626 -0.8308389 -0.0380595 0.076787986 -0.34647557 0.007952503 0.16034563 -0.001615457 -0.3002143 0.06325006 -0.15787373 0.4904624 -0.07727449 0.1820193 0.391997 -0.14365473 0.42474014 0.14852044 0.20981127 -0.077300735 0.7775982 0.13323848 0.09456627 -0.13890214 0.20679002 0.5206331 0.3070232 -0.6363463 -0.0048680063 -0.038640767 -0.21654382 -0.45078567 -0.06370479 -0.46837348 -0.7751275 0.79974145 -0.089232475 0.34191826 0.32185566 -0.14864516 0.7626289 -0.48164248 -0.29270592 0.041091632 -0.27828935 0.20944044
15360 0.21877298 -0.12655835 -0.7883284 -0.10360219 0.09016621 0.66671014 -0.65631646 -0.60529935 0.23684712 0.021216596 0.21477203 -0.2823888 0.21784198 0.4780251 -0.2580916 -0.02662625 -0.102846645 -0.45890462 -0.17620394 0.035630316 -0.2301198 -0.2859337 -0.041649368 0.33028618 0.55696535 -0.22137806 0.07411092 0.5421893 -0.58510184 -0.32942575 -0.059270285 -0.42858624 -0.054344688 0.3112166 -0.24019478 0.19093281 0.36621073 0.016991312 -0.094642885 -4.8579324e-05 -0.5765571 -0.28512016 0.8656018 -0.5001489 0.102959745 0.16605331 -0.34129462 0.4935019 -0.29496485 -0.15290892 0.32516417 -0.17091809 0.49321765 -0.3062393 0.1385823 -0.74387556 0.43867552 -0.27371916 -0.3630821 -0.034046385 -0.172717 0.3390961 0.06421515 0.16719961 0.19533502 -0.29340595 0.06357094 -0.11361041 -0.15791726 -0.10326237 0.5765506 0.11693817 0.022521013 0.3674128 -0.23548885 0.04089085 -0.2662639 -0.65434784 0.13005438 0.41143388 0.73794377 -0.15000771 -0.45004094 -0.6108276 0.015548858 0.088657506 -0.057095002 0.09507458 -0.3708609 -0.010633509 0.090857156 0.29653788 -0.3884137 0.008259312 -0.08839964 -0.15144908 -0.06434092 -0.13087891 0.4669953 0.0055880854 -0.20238982 0.42054796 0.6580046 0.065814994 0.5135311 -0.16823237 0.41046432 0.17735843 0.15464644 -0.5117647 0.06421273 -0.013456861 0.2163861 0.08076688 -0.5194285 0.20808624 -0.84903264 0.29446283 -0.2579416 0.1813572 0.28506345 -0.184084 0.8918871 -0.15632978 0.047425672 0.16713306 -0.49578723 0.037678268
2289 0.4069233 -0.16437359 -0.524068 -0.042349726 -0.12616779 0.33398128 0.034880925 -0.65284747 0.09277975 -0.52261055 -0.27046394 -0.55339974 -0.25077912 0.8160736 0.17890617 0.16306002 -0.36404812 -0.44939786 -0.5745259 0.32501176 -0.32022098 -0.1910407 -0.08622762 -0.8910208 -0.4030557 -0.43252176 0.15362003 0.33429754 0.16218536 0.08834568 0.087207176 -0.03764854 0.06661306 0.050741535 0.02867916 0.088891216 -0.2565716 0.17267711 -0.67139155 -0.6292622 0.14726649 -0.16003795 -0.16838932 -0.5379194 -0.1326242 -0.0090681715 0.41006756 -0.2449482 -0.46022618 0.07671146 -0.010300563 -0.025962036 0.16700783 0.47864056 -0.04518789 0.20864218 0.07630061 0.2917431 -0.39902264 0.20971027 -0.060637172 0.5829032 0.43288004 -0.29486343 0.63998103 -0.19411267 -0.0014005955 -0.105400115 0.47166806 -0.25636518 0.27248567 0.44117445 -0.358551 0.036555693 0.20802353 -0.6525779 0.57963324 -0.18266691 0.91451824 -0.2329328 0.36466435 -0.00054698123 0.097865745 0.66959804 0.35842928 0.04881273 0.3222266 0.057551604 -0.055207003 0.4122986 -0.3297303 0.092077866 0.058632676 0.18839824 -0.038717072 -0.228625 -0.4525616 -0.64978594 0.10591889 0.20815393 0.7844494 -0.424164 0.11536605 0.30586955 0.10034449 -0.09522317 -0.44042033 0.7956268 0.14257753 -0.23869643 -0.01843897 0.518585 0.46833837 0.20694576 0.5465861 0.0713309 -0.032736372 0.30417767 -0.07462447 0.3391127 0.57974285 0.24042235 0.1775825 -0.19069867 -0.1513392 -0.41301864 -0.38578093 -0.32826623
6151 -0.68086284 -0.23200871 -0.101216875 -0.20111735 0.22051401 0.44924456 0.35238156 0.4180221 -0.0705325 -0.019000806 0.5186514 -0.6443491 0.5303769 -0.20933178 0.17956057 -0.43309036 -0.6222898 -0.037891604 0.4680939 0.009932286 -0.11871788 -0.50253266 0.51449305 -0.03361793 0.19328348 -0.41765815 -0.014919141 0.14552201 -0.6344648 -0.3798834 0.103154026 0.07155825 0.09101663 0.1017209 -0.29452115 -0.10711905 -0.12722681 0.19937174 -0.44499648 -0.16561154 -0.020945903 -0.3602146 0.5730075 -0.42710495 -0.27293187 -0.25425294 0.12175072 0.6089726 -0.1986231 -0.21074097 -0.61732113 -0.40797406 0.25748673 0.48856378 -0.4101101 0.6298009 -0.3115655 -0.14880125 0.4935792 0.24876173 -0.17161097 -0.4027568 0.71889764 -0.3753586 0.19424167 -0.12946843 0.062631324 -0.5578024 -0.0037052394 -0.02740467 0.20462711 0.053145397 -0.11832751 0.117992386 -0.20450766 -0.59692216 0.122875035 -0.030899096 0.0031126323 0.020396214 0.48667338 0.3621217 0.069698095 -0.2580358 -0.4727763 -0.98273754 -0.03499668 0.07460909 -0.1550669 -0.060439106 -0.9625386 -0.0919961 0.4350747 0.3939401 0.24963172 0.09389041 0.41706607 -0.60834974 0.6159644 0.051594272 0.041927904 0.46757936 0.39080444 -0.40486515 -0.12942964 -0.17933747 0.0020959768 0.47067353 0.8140371 -0.4555667 -0.8402464 0.06804851 0.37840316 0.23968177 0.3041247 0.37414503 -0.12342017 0.77941567 0.1490538 0.26504126 -0.50659436 0.5275562 -0.2792224 0.56600744 -0.26305154 -0.065676905 -0.05424526 -0.40033174
449 0.5071175 0.31450245 0.39194578 0.5640744 -0.6545769 0.029491475 0.5899273 -0.6582994 0.08268078 -0.027449084 -0.29052114 0.73372084 0.20443453 -0.48569414 -0.36772937 0.64489377 0.53369546 -0.017578498 0.4385637 -0.5802232 0.46637607 0.14428593 0.49452683 -0.2950462 0.11139456 -0.19827603 0.5645861 0.33397356 0.09228294 -0.3771162 -0.43079096 -0.4570368 0.29988974 -0.15965155 -0.4091081 0.27380055 0.37991136 0.14616142 -0.36058843 -0.050917845 -0.072758906 0.0193267 0.6607868 0.094814375 -0.3420906 -0.052094832 -0.124488406 1.7337159 -0.057621162 -0.70298374 0.05210262 -0.3003188 0.43989128 0.08161891 -0.16629592 -0.32532543 0.32226562 0.7370118 -0.22284478 -0.29066122 -0.1214319 0.5193156 0.4102642 -0.47853783 0.11343917 -0.2841077 1.0013826 -0.636558 0.33066005 0.8213518 -0.24110508 -0.5580955 -0.040172607 0.92174685 -0.34146124 -0.2866682 0.04883962 -0.038971588 -0.9082188 0.37181425 0.65758634 0.48354322 0.83345926 -0.44312832 0.8120488 0.8008111 0.09559136 -0.23871899 -0.813675 -0.18702939 0.4976194 -0.40091747 0.08137571 0.7374675 -0.2803622 0.26026684 -0.5220452 -0.52000827 -0.020290593 0.009411102 0.4578821 0.011801254 0.6372015 1.0943489 0.47972822 -0.0024261572 -0.035686288 0.7667105 0.8423385 0.76557887 0.55958635 -0.23958181 0.026184304 0.23088272 -0.121070474 1.2855711 -0.19215798 0.94295996 0.5023525 0.57941306 0.806784 -0.071937084 -0.14122307 -0.10963246 -0.25159863 0.2841367 0.12925854 -0.4272774
48692 -0.15942073 -0.13016774 0.2361975 0.52380925 -0.94306195 -0.44547233 0.021646008 -0.024085745 0.01079591 -0.7122715 -0.16446249 -0.14932215 0.64415836 -0.09366588 0.04772857 0.16663931 0.4333991 -0.36371946 -0.08900595 0.5055771 0.045228325 -0.5173708 0.6860839 0.43968415 0.12903203 -0.519508 0.6938694 0.39081362 0.11347098 -0.8016494 0.6832492 -0.018751863 0.34190887 -0.0434952 -0.73747516 -0.0989471 0.3285435 -0.08202143 -0.11969404 0.75266856 -0.7112424 -0.34898603 0.18442902 -0.28758013 -0.30572549 -0.6316725 0.32090628 0.16700436 -0.5534815 0.10048527 -0.27722588 -0.51329106 0.57252955 0.44453833 -0.28817147 0.21895982 0.26525548 -0.14061905 -0.5211363 0.5188504 0.12571442 0.92431366 -0.18550815 0.4155492 -0.029194696 0.16419867 -0.20919776 -0.1946036 1.3710403 -0.52359533 -0.27285132 -0.4882161 -0.5385343 -0.14309536 -0.44230735 0.36680478 -0.09022023 -1.629592 -0.14823516 -0.20048994 0.3197193 -0.024470793 -0.09049663 -0.117662616 -0.025319107 0.6797234 0.7835668 -0.24907064 -0.73134947 -0.2151436 -1.083555 0.16712713 0.5107647 0.13027455 0.18906355 0.48118278 -0.0056574107 -0.7874994 -0.51345915 0.39459738 0.3177309 0.3376885 0.40573272 0.2266165 0.9277421 0.05801819 -0.93753666 0.29677948 0.25323832 -1.2424693 -1.2380089 -0.0651195 0.20547834 -0.0888872 -0.3047584 -0.5685715 -0.5385382 0.6258176 0.6211367 0.6174462 0.22455554 0.81430495 0.658172 0.36976898 -0.7857295 0.09517074 -0.7876133 -0.18421653
