2182 128
452 0.03316049 -0.17448299 0.18189946 -0.031944484 -0.45423844 -0.06329701 -0.44071373 -0.16904187 0.13158143 0.62361276 -0.16383578 0.29134962 0.7215909 -0.10581017 0.01373797 -0.09400021 -0.38042712 0.16410917 -0.23667973 0.40217748 0.13089035 -0.50561833 -0.31539136 0.3240354 -0.12721907 -0.12700479 0.039177403 -0.69834745 0.3174679 0.051050093 -0.37201282 0.6447923 0.21527807 -0.57447857 0.11941722 -0.43777758 -0.022235136 0.11661284 -0.56094384 0.5952011 -0.15667458 0.34841716 0.41386092 0.15710972 0.35244432 0.33040097 -0.027554346 -0.3996515 -0.3341974 -0.103823885 -0.3687537 -0.039467942 -0.4838177 0.112605505 -0.43370858 0.16447075 0.035180237 0.32013217 0.39279854 -0.062261634 0.15748909 0.48794326 -0.23997617 -0.44327325 0.36769548 0.6370752 -0.66538084 -0.2511419 0.1369585 0.025694955 -0.07686811 0.33529383 -0.3701708 0.5985091 0.21911038 0.5861817 0.5154284 -0.1847373 0.1533712 -0.2126802 -0.24577442 0.65016824 0.035057932 0.062126566 -0.39877358 -0.24847387 -0.62994784 -0.34900495 -0.49771094 -0.28484884 0.5184763 -0.36256272 0.3032487 -0.31349036 0.2958658 -0.08425458 -0.022839474 0.27180225 -0.30656555 0.7044684 -0.7944089 0.49220774 -0.08632291 -0.22464228 -0.4525422 0.28036803 -0.15169546 0.06810974 0.5205591 -0.07609129 0.41366106 -0.2367826 0.11095996 -0.36445966 -0.43527642 -0.44426695 -0.22741534 -0.08788133 -0.17301014 0.23133916 0.15388966 0.21733968 0.43134958 0.32588065 -0.6617231 0.033316135 -0.008075591 -0.04054372
2462 0.08532382 -0.31614304 0.24155131 -0.1284936 0.30576664 -0.3132808 -0.2894009 -0.35768077 0.36674574 0.38787186 -0.8319129 0.38971424 -0.26452982 -0.2980273 0.4595272 0.50004256 -0.60475427 -0.26800978 -0.04336234 0.10113705 0.05251303 -0.34389818 -0.0858951 0.033094943 -0.05801267 -0.18232214 -0.43232477 -0.24918894 -0.30050153 -0.20714535 -0.4040935 0.59589535 -0.37203136 -0.27447358 -0.11949315 0.0589602 0.1115176 -0.5753915 -0.03424705 0.014673561 -0.16661586 -0.10580953 0.2833346 0.16761418 0.3988199 0.044297315 -0.58929586 0.13598847 0.08233042 -0.2737443 -0.08752139 -0.559488 -0.17482075 0.5642844 0.051925205 -0.017294839 -0.07776417 0.294276 -0.19312553 0.27357116 0.37106213 0.13643526 -0.023398023 -0.13382281 0.14380834 0.41928262 -0.08016148 0.11324416 0.33600745 0.041559152 0.0047529773 0.19225356 -0.007619271 0.17173429 -0.22060119 -0.02790922 0.5611544 -0.089918144 0.20888674 -0.09488619 0.10554142 0.45252505 0.100759074 -0.06646294 -0.4453659 0.12658185 -0.15255053 -0.06298424 0.0062421616 0.15603603 0.3349451 0.1719163 0.37812173 -0.79459494 0.33989802 0.26555964 -0.21296132 -0.10945845 0.3971723 -0.11283813 0.10509527 0.15089408 -0.37786928 0.0634252 0.5076222 0.19675514 0.2532786 0.07597288 0.52181494 -0.13856657 -0.32950056 -0.07705743 -0.36346447 0.15308969 -0.29362398 0.18136524 -0.03587653 0.13147883 -0.44453707 0.29678136 0.2825823 0.76100755 0.12602104 0.53538394 -0.3921776 -0.31309292 -0.091091886 0.52963936
35 0.23692986 0.8671655 0.6368826 0.3425105 0.8472318 0.2264279 -0.6903018 -0.39819524 -0.10225582 -0.5353148 -0.4935743 0.42145607 -0.65894586 -0.45025814 0.38325772 0.5226206 -0.107986584 0.14414825 0.19276826 -0.27069244 0.291446 0.07887674 0.094815746 0.60114384 -0.005593793 0.55678624 -0.37079152 0.118177794 0.42518353 0.044335466 -0.68107975 0.47623765 -0.159289 0.37380725 0.053213168 -0.105559185 -0.39403194 0.14979167 -0.15821275 -0.23233283 0.17235485 0.4135892 0.15046927 -0.27421963 -0.19129114 0.29987878 0.3182032 -0.15655038 -0.4888184 -0.5097944 -0.17639625 -0.7102689 0.16641395 -0.47447982 0.16349159 0.2270614 0.08706703 0.3489117 0.17022525 0.40168825 0.66877997 -0.36581928 0.000495826 -0.43426403 0.13606286 -0.20760943 0.028726155 0.40563875 -0.022674002 0.8443742 -0.40815437 -0.59170973 -0.7872085 -0.1135963 -0.18236206 0.3142888 0.32674384 -0.0033522714 -0.098072246 0.35993207 -0.06775056 -0.011441559 0.008659196 0.33544457 0.12471043 0.05614468 -0.31699952 0.24565014 0.26661754 0.5309299 -0.48590633 -0.56481844 -0.09838493 -0.9347192 -0.8083381 -0.7510998 -0.37021127 -0.26098067 -0.53472066 -0.6961195 -0.7155131 0.037083838 -0.025277311 0.34300613 -0.24473529 0.06333645 -0.41357434 -0.06454964 -0.27853262 0.92775655 0.6853965 0.66714364 0.051040154 -0.21320823 0.2966138 -0.5170559 -0.14696005 -0.20432754 0.2835646 0.07238115 0.24412738 0.10091026 -0.29233244 0.007784511 0.11996887 0.350322 -0.08824727 0.27616578
724 -0.21624564 0.035877448 0.45062622 -0.08996454 0.40795377 0.035773497 0.17009242 -0.5941438 0.4815243 -0.09037754 -0.7698695 -0.0929925 0.21624616 0.2783617 0.33213598 0.53823334 -0.50635755 0.0057406877 -0.05873041 -0.19409877 0.15939501 -0.19235124 -0.18821508 0.2119928 0.10730108 0.13799776 -0.25706732 -0.4892307 -0.42629153 0.020401137 0.17935812 0.38501596 -0.15131429 0.24607526 0.16673769 -0.438168 -0.13831547 -0.22205564 -0.37745354 0.011631042 -0.31753373 -0.0062028817 -0.58267474 -0.0373482 -0.1469177 0.18351802 -0.6728264 0.015380327 0.11944504 -0.14859955 -0.14010073 0.03496244 0.08985156 0.44564483 0.30614176 0.40246183 0.18192902 0.20290594 -0.0796441 -0.25656494 0.12543723 0.037626766 -0.036702868 -0.18454434 -0.25752506 -0.14130439 0.12196667 -0.2550249 0.35700217 0.31845427 -0.03300404 -0.00023954434 -0.044192515 -0.17706339 -0.2505386 0.17546134 0.1693726 0.3716442 0.37764847 0.056658704 0.25221214 -0.21485518 0.34358203 -0.11034405 -0.15717262 0.05315124 -0.33955595 -0.34171727 0.14194663 0.15624419 0.0462858 0.11022087 -0.049879692 -0.014538731 0.27107078 -0.19172741 -0.24797752 -0.1799354 -0.112313904 -0.109247014 -0.31992024 -0.1760138 0.15250844 0.31929687 0.4387479 -0.26615396 -0.056097433 -0.04718129 0.47191942 -0.04448588 -0.028997345 -0.06895497 -0.042065468 0.2992364 -0.20820446 -0.35101226 0.22812031 0.33181906 -0.35519183 0.012671819 0.30745125 -0.14301991 0.12390653 0.15422419 -0.41229677 0.036381092 -0.08068628 0.0741492
2 0.1838877 0.16624665 0.690277 -0.7645456 0.12308811 0.36584297 -0.08226871 0.09175024 -0.31926352 -0.58550876 -0.34871668 0.5051381 0.18481222 -0.42711556 0.23752825 0.068286866 0.05411802 0.23021588 -0.20465325 -1.006228 0.027742371 0.48636538 0.52155614 -0.53485525 -0.25050905 0.49051255 0.028140388 -0.13873294 0.09181521 0.26979646 -0.13793895 -0.43188137 0.22442514 0.4702143 -0.26043347 0.049199697 -0.23687463 0.29864743 -0.3083748 0.049272254 0.41450667 -0.39004752 -0.4986639 -0.24794768 0.14840496 -0.18941408 -1.1327407 -0.4334091 0.21755315 0.16119882 -0.116473235 -0.22988941 -0.47420064 -0.9105974 -0.19030742 -0.7479174 -0.38040045 0.16778193 0.6438935 0.23867315 -0.59987783 0.13086174 0.31206754 -0.012024333 0.13491066 0.5966006 0.17927004 0.10383784 0.49647632 0.19812699 0.023989206 0.19490877 0.7035872 0.36305773 0.18592189 -0.20766331 0.26725996 -0.20673996 -0.41994435 0.12983394 -0.5391623 -0.1428476 0.00038648502 0.0961032 0.06798905 0.7019273 -0.026080318 -0.90251577 -0.007836696 0.45141897 -0.4741151 -0.6117471 -0.027129475 -0.048298974 0.087937064 0.019907674 -0.20365545 -0.5524934 -0.48219797 -0.34539485 -0.91114366 -0.21667571 0.479235 -0.09418457 -0.08545365 0.34753034 0.19861992 0.10837171 0.10438715 0.14875115 0.4040126 0.35588285 -0.25709525 -0.4003322 -0.19688767 -0.09778299 0.60618776 -0.44629553 -1.1044545 0.22618826 0.44671127 0.3864675 0.4809631 -0.046887472 -0.7863775 -0.29786623 0.18592057 -0.08414376
5731 0.08015625 -0.38158548 0.48052108 -0.076686144 0.36658078 -0.04403102 -0.26100188 -0.25305617 0.18160433 0.35746717 -0.6718026 0.34217244 -0.26643056 -0.43883082 0.5773529 0.47245044 -0.5647355 -0.35791793 -0.1316368 0.04179499 0.1285437 -0.41797754 -0.2867334 -0.22558375 -0.10100663 -0.11110902 -0.19453569 -0.2996254 -0.3056598 -0.21968502 -0.5529466 0.6996959 -0.2815575 -0.28664303 0.07825091 0.0521048 0.039356843 -0.8762457 -0.008515986 0.12875906 -0.367002 -0.11612107 0.46313292 0.06009732 0.4578057 -0.046410747 -0.5883546 -0.025782468 -0.06001752 0.13404496 0.0029021841 -0.5371076 -0.10260982 0.49803433 -0.15884165 0.30443025 -0.41566268 0.08191357 -0.0012246887 0.14857382 0.34492087 0.26223364 0.019360295 -0.20106418 0.15887599 0.12817764 -0.12652557 0.33069772 0.22956495 0.0032016924 0.13189052 0.15094276 -0.18137456 0.34675145 -0.37299854 -0.16586432 0.8839089 -0.32584637 0.1960231 0.12856358 0.2445348 0.46415362 -0.04352579 0.055524588 -0.39931318 -0.12464965 -0.28927252 -0.38397244 -0.20613138 0.2681389 0.30985114 0.018867016 0.24185319 -0.82617694 0.26594296 0.3344555 -0.4854668 -0.17845802 0.14786126 0.122505456 0.31452352 0.43754196 -0.22153898 -0.04427382 0.58752275 0.117576145 -0.002072251 -0.062528096 0.36252528 -0.2226962 0.038253706 -0.21919183 -0.33894905 0.35709122 -0.284143 0.41858605 -0.27870104 -0.0499594 -0.24551824 0.37253037 0.18110833 0.58889794 0.10458937 0.7390076 -0.55058444 -0.14582609 0.12864938 0.73060423
1465 -0.22007515 0.053762745 0.20172001 0.03126508 0.60260504 0.42862672 0.05054778 0.021544294 -0.04655369 -0.5375247 -0.14147487 0.492457 -0.39246035 0.023293445 0.29129496 -0.47845128 -0.24986568 0.53546923 -0.36684883 -0.06638356 0.16583195 0.020726345 0.33443338 0.0010832803 0.069106735 0.22185472 0.42735764 0.17069556 0.117010646 -0.13692717 -0.3199661 0.15923978 -0.08055213 -0.23220164 -0.15577658 0.10923263 -0.36319545 0.33981457 -0.56416076 0.016197642 0.38828972 -0.12397728 -0.16165948 -0.06917109 -0.5406091 -0.24223056 -0.08900592 -0.56336755 -0.0007204215 0.42227045 -0.3606368 -0.36085784 -0.7935715 0.005710997 0.42966792 0.058280334 0.28703758 0.2102051 0.08546584 0.33143815 -0.1280076 -0.0158996 0.49087027 -0.6678574 -0.026526766 0.020171713 -0.20176029 0.067782 0.109003 0.46268353 0.12101448 -0.4570512 0.37704077 -0.2645065 -0.2515297 0.025892705 -0.15708631 -0.0723596 -0.03140583 -0.14727756 -0.028383346 0.03480318 0.70575416 0.50197226 0.32812202 0.3187647 -0.22186466 0.23105732 0.1814059 -0.21244016 0.13708712 -1.0295446 0.01623652 -0.3095479 -0.35924095 0.64810014 -0.94962996 -0.03984248 0.17307425 0.30612475 -0.2804936 0.2550589 0.2035028 -0.090404116 0.1402391 0.13242659 0.27013698 0.2696326 0.060047198 -0.060122512 0.21819934 0.27530098 -0.10227241 -0.28023326 -0.04128253 -0.04761094 0.23228423 -0.31194842 -0.008355379 0.55929273 0.107001044 0.3666317 -0.10107871 -0.028363138 -0.044600032 -0.30552334 0.7204327 -0.008412324
8349 0.21069546 -0.4570122 0.69187456 -0.539853 -0.67627424 -0.040212005 -0.033843823 -0.37121236 -0.13137528 0.34152716 -0.40920135 0.7189283 0.32765314 0.38440743 0.39870432 0.19593921 -0.2986658 -0.4234568 0.30730134 0.08953434 0.6042865 -0.41326034 -0.36309826 -0.14645521 0.4438963 -0.22875859 0.25120345 -0.86598957 0.15818582 -0.059161745 -0.46356323 0.7291631 0.11634765 -0.051041886 0.31951472 -0.522604 -0.42505586 -0.45298707 -0.2436511 0.12039007 -0.17450064 0.13528262 0.49418566 0.103337154 0.7617462 -0.15157613 0.02645364 0.07140184 -0.6093717 0.11788275 -0.25531787 -0.04763844 -0.37277287 -0.13248286 -0.007473798 0.46876204 0.4436662 0.55278194 0.39604643 -0.28222153 0.24830739 0.22633716 -0.12787482 -0.35912102 -0.011015533 0.57131296 -0.26953834 0.09640897 0.2309229 0.072389 0.11661562 -0.34496823 -0.3402899 0.57236487 -0.31582466 0.026874235 0.5916934 0.13937163 0.14019942 -0.3745835 -0.18122225 0.72609305 0.11778101 -0.065914184 0.10514483 -0.5036599 -0.41198447 -0.59874123 -0.103936404 -0.53711385 -0.000106492174 -0.43358532 -0.0936326 -0.66091293 -0.1627367 0.45906278 -0.008239152 0.19857901 0.1577545 0.68285257 0.021548007 -0.026535911 0.039360043 0.074829176 0.3823471 0.16876681 -0.15882061 -0.18966809 0.22112805 0.22658715 0.20313771 -0.18509924 0.10379009 -0.03863455 -0.23914817 0.28247875 -0.21611837 0.16933891 -0.27269587 -0.038853902 0.018639196 0.49395257 0.20082828 0.547917 -0.4415011 0.18874083 0.28552824 0.371936
491 0.07295105 -0.41406122 0.33967108 -0.06569075 0.14983247 -0.17501515 -0.36021855 -0.7054245 0.39050093 0.33246973 -0.42663896 0.33665758 -0.28064227 -0.27888975 0.5201417 0.4325924 0.0011009225 -0.29699934 0.018627726 0.061020236 0.14372781 -0.28430137 0.14579205 -0.04158583 -0.08934125 -0.046159077 -0.012456623 -0.22642662 0.066678986 0.004969205 -0.6021555 0.38584244 0.0070801754 -0.22631346 -0.25713986 -0.49835107 -0.39945534 -0.49466753 0.027367907 0.3080481 -0.28108412 0.40694317 -0.015398288 0.3597877 0.02056631 -0.782495 -0.776731 0.035719555 0.33203846 -0.3184059 -0.32352543 -0.109420955 0.01128759 0.30113995 0.06090703 0.1272466 0.01709847 0.3612604 -0.0597529 -0.037818052 0.20863324 0.33473486 -0.14044051 -0.29477027 0.3138644 0.20216888 -0.14111555 0.33253264 0.45869875 0.29057673 0.39958292 0.25306654 -0.0565488 0.52252877 -0.4692765 -0.10741671 0.768966 0.00071910693 -0.19090468 0.36192313 -0.1535008 0.38964987 0.31564304 -0.32069013 -0.4377106 -0.3122174 -0.47451147 -0.39268318 -0.42922708 0.46178728 0.36524296 -0.12484717 0.4271437 -0.5007551 0.372438 0.2696144 -0.28528714 0.2010229 0.38085252 -0.1024149 0.32413673 0.36632526 -0.20484233 0.03478618 0.50339067 0.038365204 -0.074904434 -0.2030153 0.71444345 -0.14378054 -0.19745724 -0.035376955 -0.62509745 0.07087238 -0.4349915 0.084541276 -0.0072918134 0.23403528 0.012896978 0.20517786 0.17488262 0.63008225 -0.24072596 0.46228418 -0.22654304 0.0942384 -0.37046838 0.51275927
1565 -0.33449724 -0.11186627 -0.12250533 0.019558664 0.77260727 0.39201054 -0.100483574 -0.050069325 0.15860412 -0.63503146 -0.21266259 0.3061535 -0.14792983 -0.4294105 0.66479343 -0.31761628 -0.30038017 0.3731134 -0.71921146 -0.065379545 0.46414143 0.08230834 0.1395125 -0.39469203 0.49082708 0.39132398 0.5403196 0.43100625 0.16964248 -0.32070014 -0.5248649 0.29020062 -0.14661737 -0.24195635 -0.0143027995 0.3322901 -0.42397642 0.15067229 -0.66949296 0.192787 0.38274026 0.09202843 -0.028666377 -0.015058869 -0.5935824 -0.14750803 -0.14213508 -0.53744394 0.06004709 -0.0010384972 -0.46049207 -0.21420199 -0.527185 0.0858035 0.11121317 -0.060096018 0.42343917 0.011057436 -0.003032428 0.68274957 -0.1495202 -0.470586 0.3772964 -0.8423397 0.30589968 -0.07179402 -0.004614526 0.10675305 0.25593793 0.60619015 -0.18932126 -0.31008816 0.35151958 -0.3127422 -0.46980467 -0.09844376 -0.02047576 0.034999263 0.10018225 -0.06381417 -0.07533929 0.09817544 0.5543371 0.472227 0.37446007 0.15051985 -0.41183877 0.20806693 0.5177697 -0.41433176 0.04491341 -1.4595753 -0.18652771 -0.36127412 -0.46073964 0.8203253 -0.79475546 0.12869 0.25111547 0.27763057 -0.31097156 0.12891008 0.27499586 -0.2530844 0.29557264 0.13228609 0.26653156 0.57575727 0.16546156 0.15393332 0.0346922 0.2000048 -0.22734009 -0.404134 -0.22265501 -0.24199107 0.3266697 -0.5979277 -0.044542834 0.6869046 0.41687578 0.26409218 -0.091117926 -0.20721526 -0.35970968 -0.39692473 0.7034711 -0.11684921
1788 0.045645244 0.8377937 0.83786494 -0.41586518 0.5587858 0.39109686 0.40127295 1.3496991 0.31501168 0.70165384 -0.5713771 0.076867595 0.6868511 0.23850381 1.0878557 0.5128122 -1.4136077 1.0449587 0.102975406 -0.45077813 -0.003616619 -0.34459552 0.16306072 0.87119305 1.0064663 -0.32059208 0.674655 0.19763406 0.9677809 -0.40492865 -0.9618055 0.07824406 -1.1803634 0.3418541 -0.10374401 0.054039776 -0.9647385 0.7065092 -0.20757462 -0.15987435 0.051470224 0.3365056 0.2057952 0.23115402 -0.42244813 0.3630685 -1.5237968 0.161759 1.2218186 -0.39273787 1.0430169 -0.4167085 0.008472603 0.26609063 0.026261369 -0.15025163 0.9969248 0.6323089 0.31218296 -0.49919817 0.43920025 0.56658673 0.3261785 -0.15455104 0.2914777 -0.38476557 -0.4986416 0.58446425 0.24507464 0.04801512 0.44196332 -0.009542741 -0.98592293 0.18040082 -0.13401343 0.9644661 0.3579233 -0.11817185 -0.63544285 0.484515 -0.1605127 0.1302227 0.37806228 -0.18057331 0.09503288 0.100601725 -1.0336329 0.49557835 1.4440101 0.446483 0.478854 -0.43171573 0.25545582 0.103280246 -0.4804769 0.23769096 0.17027777 -0.5215968 -0.038358286 0.44208914 -0.44149637 0.42503247 -0.18696906 -0.5568024 0.40652728 0.19140522 -0.31590277 -0.45529857 0.76989526 0.14442924 0.086870305 0.068625785 -0.6492081 -1.0291587 -0.4823252 -0.11913429 -0.22929487 -0.09736783 0.7082494 0.19181266 -0.056856353 -1.4532856 0.29408345 0.064607605 -0.59624046 -0.17195214 1.6959612 -0.4137859
4473 0.23089035 -0.06134887 0.55882317 0.2842159 0.17375135 -0.30803674 -0.30899525 -0.1538087 0.44870117 0.21291488 -0.3225736 -0.08408052 -0.00014857017 -0.21306613 -0.21932384 -0.10036366 -0.13784492 -0.10693256 0.064635046 0.07513623 0.65174216 -0.20154226 0.10916333 -0.1594967 0.8313204 -0.021287687 -0.23676226 -0.69126105 0.082021005 -0.2222642 -0.2590823 0.5502633 0.06647186 0.43809655 0.31804755 -0.29494116 0.4886936 -0.21693286 -0.039508186 0.0017842815 -0.17983575 0.40870136 0.1672901 0.08265518 -0.16785517 0.04679757 -0.21807128 -0.06863804 0.21633281 0.1498846 -0.020162089 -0.247448 -0.047319386 0.19623952 0.24510163 0.37268263 0.6302867 0.20234177 -0.12017014 0.2018343 0.024033107 0.24550246 0.41623178 -0.055387136 -0.16183476 0.082609825 -0.1941856 -0.24558522 0.10138602 0.5426577 0.59790516 -0.06461554 -0.2963287 0.71390617 0.17267913 0.44047958 0.40954763 0.26683253 0.3148094 0.08424413 -0.39459383 0.23527724 -0.18013358 0.18763341 0.048963763 0.04550091 0.03425619 -0.39432392 -0.10494071 0.05026168 0.08295032 -0.51877403 0.31489313 0.15313719 -0.15263212 0.27253887 -0.015169138 -0.17242582 -0.20745544 0.26608384 -0.71492946 -0.34421283 0.25521627 0.117694415 0.29366428 0.06259279 -0.15506482 0.15080181 -0.05578398 0.071641944 0.018724287 -0.11444012 -0.20957363 0.061095443 0.13237765 0.73495746 -0.45583832 0.7320548 -0.34142056 0.47242385 0.45759788 -0.06548368 0.49608463 0.10716511 0.008872872 -0.49406964 0.064601175 -0.4440703
50114 0.11568323 0.8063726 0.8981595 -0.48567322 0.54768944 0.32564297 0.40184972 1.3624127 0.299923 0.71108145 -0.67406267 0.104483545 0.67816484 0.21868022 1.0979545 0.5129842 -1.4286977 1.0211705 0.08261749 -0.40885875 -0.06409574 -0.28727576 0.22735679 0.9088674 1.041473 -0.3374187 0.78858423 0.26216537 0.9363372 -0.3881494 -0.8700671 0.11713206 -1.2649913 0.2921324 -0.10165778 0.11593689 -0.9668889 0.7852273 -0.24328957 -0.16042446 0.032986652 0.40795943 0.20140865 0.23219542 -0.41771537 0.37040395 -1.5999327 0.20041412 1.1945666 -0.56145036 1.1063838 -0.47468472 -0.008508693 0.30931517 -0.007118986 -0.13342148 0.9714095 0.63835055 0.3741409 -0.50566965 0.40550652 0.5734398 0.35098723 -0.22666149 0.40266204 -0.35477275 -0.4115001 0.5557779 0.29202852 -0.043841183 0.42574906 -0.026029054 -1.0256883 0.18124507 -0.0917328 0.9148826 0.37308818 -0.16085419 -0.65133345 0.41937932 -0.13206482 0.08656039 0.34303805 -0.21987107 0.17206201 0.12307919 -1.0816259 0.46835053 1.486236 0.43465406 0.5334347 -0.44741243 0.3203959 0.020915419 -0.52366173 0.2050204 0.1993962 -0.6240371 -0.04165788 0.42202112 -0.39936656 0.5475066 -0.2112787 -0.59501135 0.4632443 0.1420663 -0.34985033 -0.5127972 0.8134417 0.15380219 0.13868405 0.047193132 -0.5812841 -0.9953885 -0.43876162 -0.08158016 -0.28989363 -0.17721705 0.7670556 0.21299958 0.009221553 -1.5159882 0.29371658 0.13270403 -0.5502326 -0.21017633 1.7421563 -0.40543935
1897 -0.31578735 -0.10237666 -0.0031502284 -0.19259875 0.8859169 0.5025944 -0.2015181 0.074552 0.2120388 -0.7362701 -0.27010995 0.37680197 -0.2456852 -0.47254583 0.6070909 -0.47218522 -0.25916472 0.38352376 -0.5238792 0.06796532 0.40001398 0.1288467 0.18762177 -0.3594169 0.25876355 0.38632566 0.30402634 0.39856073 0.21481532 -0.29363033 -0.4238993 0.35553464 -0.0025260262 -0.2189693 -0.056255396 0.2809804 -0.36484814 0.2964845 -0.80908614 0.016501281 0.47381812 0.052439008 -0.057975505 -0.122435436 -0.68376815 -0.30310863 -0.08882526 -0.38807788 -0.0082108425 0.07997888 -0.4892587 -0.2113816 -0.61304224 0.045792088 0.2310795 0.016987544 0.36656657 -0.04641115 0.06584746 0.57700723 -0.025131207 -0.39631915 0.45633835 -1.0232738 0.4144707 -0.2703686 -0.025508985 -0.17079559 0.12654036 0.5822083 -0.06733634 -0.3498952 0.3796496 -0.31168535 -0.4414706 -0.14798804 0.07798358 0.047906414 -0.04239061 -0.14542666 -0.0021912304 0.07588411 0.73541236 0.5862767 0.4509961 0.033880524 -0.42563456 0.23200892 0.49552688 -0.36522648 -0.009437953 -1.5722815 -0.2162538 -0.23689768 -0.48512843 0.8769965 -0.82309073 -0.038042095 0.2489214 0.2848374 -0.24242385 0.16969976 0.29865623 -0.49430192 0.20149012 0.036309216 0.16286147 0.41783017 0.14140205 -0.043561347 0.16731419 0.36223927 -0.26366588 -0.4260808 -0.14211772 -0.19733065 0.3142316 -0.5119084 -0.00826839 0.78530145 0.49908236 0.30368924 -0.24827611 -0.1163551 -0.25035977 -0.44426355 0.8770567 -0.042752475
1615 0.65015674 -0.21574117 0.6319929 0.2921932 -0.059458096 -0.31262302 -0.088970214 -0.07710095 0.5305708 -0.029604077 -0.48313323 -0.4176264 0.17309569 -0.027580714 -0.14481844 0.3307337 -0.1730487 0.07724423 0.013722743 0.2406595 0.43885475 -0.23607995 0.04891952 -0.19841987 0.3843527 -0.16592914 -0.0076017785 -0.67114955 0.13858883 -0.70734435 -0.54089385 0.41458237 -0.090862766 0.5093425 -0.039780106 -0.15462455 0.09167132 -0.57846826 -0.23409382 0.27085638 -0.58964175 0.16664945 0.1538419 0.10053243 -0.052409727 -0.43072256 0.31833845 -0.5296694 -0.038520537 0.32246304 -0.17673413 -0.3603168 -0.29973602 0.02306637 0.4765046 0.27370855 0.6264821 -0.2144366 0.46916392 0.26773843 0.33705735 -0.14434834 0.4931207 0.08211742 -0.10782859 0.32354966 -0.320178 -0.3179304 0.20474347 0.165414 0.6441201 0.053943977 -0.48403665 0.79986626 0.27200007 0.20324083 0.41659626 0.29003567 0.6651526 -0.3928726 -0.25059777 0.23476437 -0.59314674 0.23248076 0.31724373 0.023766316 -0.11745083 -0.32921106 0.22587043 -0.39838594 0.3655297 -0.38769743 -0.1508269 0.046144616 -0.06456337 0.21326722 -0.098510616 -0.2484537 -0.4478758 0.2895678 -1.2847974 0.042889014 0.19100878 -0.2313449 0.7035369 -0.23029238 -0.13954045 0.29394323 0.41769168 -0.0066667604 0.05052713 -0.08057375 -0.3913082 0.28080788 0.33522317 0.12867236 -0.46084112 0.6944594 -0.082532264 0.28921688 0.7191839 -0.2695749 0.1404301 0.041396867 -0.19718224 -0.45434496 0.0022399623 -0.2937793
3153 -0.4234666 -0.15743235 0.12703478 -0.25369483 0.33774942 -0.20129324 -0.35790107 0.060439266 0.27089313 0.235763 -0.32879627 -0.07221547 -0.61336184 -0.23965722 -0.08759209 0.48808593 -0.46659726 -0.08147558 -0.28325993 0.0018058154 0.03234382 0.064027205 0.13118233 0.34867722 0.013037711 -0.13243477 0.18958388 -0.6285366 -0.3719826 -0.29060698 -0.4922507 0.20847969 -0.7521808 -0.40450487 -0.23849773 -0.081764705 0.18419418 -0.44225466 -0.21219264 -0.42235398 0.20996803 0.17421918 0.7465972 0.058018185 0.4693784 0.19889845 -0.4563329 -0.038403988 -0.04498749 -0.26359206 0.060740054 -0.21598856 -0.1652148 0.008675526 0.07984141 0.28279105 0.15487704 -0.21006942 0.102350354 0.22607599 0.06038794 -0.090744555 -0.04584885 -0.13317707 -0.09916369 -0.21288316 -0.15935954 0.34620708 0.21677479 0.084524624 -0.09966904 0.021859935 -0.10934351 0.017181138 -0.3460333 -0.020518921 0.34261397 0.2942592 0.5790779 0.46286407 -0.22009295 0.22105399 0.24106057 -0.54263514 -0.0772583 0.31622073 -0.3638945 -0.9458698 -0.060967032 0.0071803103 0.42854673 -0.058045924 0.2989009 -0.4351722 0.21401775 0.409244 -0.16874404 -0.06349894 0.05338472 0.10857051 -0.11006791 -0.11488893 0.01761885 0.153092 0.61260176 0.08776758 -0.1468092 -0.58934915 -0.013764867 -0.18985227 0.46476388 -0.5121096 -0.1175348 -0.07821592 0.021604717 -0.2543146 0.20303358 0.2963384 0.065197036 0.33525023 0.5214256 0.18982318 -0.107036255 0.59335333 -0.07756432 -0.1860911 -0.2929233 0.0054649506
13620 0.42055634 -0.088872455 -0.06371608 0.53103226 -0.08258483 0.020260295 -0.5108137 0.28913593 0.70902103 -0.12393967 -0.27028707 -0.659785 -0.085649796 -0.23373887 -0.42314047 -0.44218305 -0.60208225 -0.03446917 0.04003528 0.92769814 -0.21959984 -0.52729434 0.4223897 0.4227845 0.45454946 -0.15927815 0.25120488 -0.39589468 0.55565375 0.6658769 -0.13676018 0.09776874 -0.65322906 0.30446276 0.36892185 -0.13593338 0.0814791 -0.042465005 0.21082558 0.24831639 -0.14775519 -0.1830337 -0.5525076 0.07410115 0.25536487 -0.104467265 -0.12141205 -0.26227912 -0.6178622 -0.1358556 -0.41600958 -0.14921074 -0.5847991 0.28748843 0.24549595 -0.029719917 0.77545637 0.08359573 0.2810021 -0.4000708 0.3686785 0.1214072 -0.06756 -0.48700345 0.4133415 -0.28393057 -0.6550713 -0.5655275 0.05027664 0.4066926 -0.28230098 -0.36216486 0.17112175 0.47736946 -0.68618345 -0.083835095 0.42699096 0.4704052 0.33407313 -0.37283742 0.035432126 0.09110843 -0.36449304 0.19715294 0.09492964 0.48370814 -1.1284996 -0.54018736 -0.3160136 0.5691187 -0.06616194 -0.08001098 -0.19867784 -0.3154783 0.22061673 -0.6053892 0.06813919 -0.20196399 -0.45253327 0.37760496 -0.54468423 -0.028665127 -0.013089699 0.47043452 0.6723802 0.27824455 -0.79925936 0.24464697 -0.12732679 -0.135007 -0.030756949 -0.31400615 -0.17450291 -0.1400852 -0.03756101 -0.03132521 -0.15651478 -0.16426212 -0.40984336 0.57645667 0.6005707 0.26213774 0.66199607 0.078967616 -0.8379208 -0.35029835 0.30217966 0.10821616
82920 0.19779511 0.8810292 1.0686293 0.52682287 0.7507602 0.4070998 -0.79181534 -0.3031511 -0.2884691 -0.7893784 -0.33505023 0.31498703 -0.7132369 -0.35733894 0.2165538 0.42771775 -0.2944523 0.3244154 0.26136702 -0.41644797 0.13365626 0.40180257 0.32293218 0.4890215 0.047748365 0.5910593 -0.72774285 0.085684486 0.63524014 -0.019647669 -0.51866364 0.5358628 -0.12153354 0.4300627 0.43545863 0.104582384 -0.31264955 -0.12853555 -0.44222474 -0.18470985 0.102640405 0.27233112 0.19434331 -0.16275103 -0.30117458 0.4085082 0.19826515 -0.22496332 -0.56217283 -0.5747864 0.18001027 -0.7417637 0.42744875 -0.4216696 -0.00032275653 0.06684581 -0.11429763 0.022331504 0.059891302 0.42456612 0.5683667 -0.22674665 0.34141687 -0.58114445 0.0906875 -0.29330048 -0.1003294 0.3886546 -0.060197458 0.9543386 -0.43709064 -0.7512269 -0.7108242 -0.36202103 -0.093208 0.42409638 0.34414732 -0.124672174 -0.3700783 0.5968474 0.10610538 -0.0996932 0.13569258 0.56778175 0.082526244 0.15087119 -0.38241896 -0.00019694379 0.61863065 0.45523033 -0.3634581 -0.72221154 -0.114152476 -1.0715114 -0.6548345 -0.5659178 -0.3954643 -0.26552364 -0.61254114 -0.61660224 -0.9682687 -0.0594729 -0.23070277 0.2721897 -0.1656034 -0.13572179 -0.5630779 -0.04626114 -0.4033976 1.1902094 0.67955136 0.97793853 -0.23646341 -0.07247784 0.21858741 -0.54001176 -0.35997492 -0.29242566 0.2994587 0.0823776 0.20709789 -0.11498329 0.024544891 -0.029816613 0.19050628 0.2949799 -0.19257863 0.41471183
210872 0.19061543 0.9946455 0.68163526 0.3518366 0.8163487 0.16397984 -0.6523327 -0.24030557 0.02126071 -0.55860823 -0.59917784 0.43535823 -0.6209571 -0.51304126 0.34900928 0.38184708 -0.16591768 0.1831484 0.21739407 -0.37707114 0.1646155 0.051644173 0.11423459 0.46173716 0.028179727 0.69895667 -0.4468446 0.10731069 0.30411962 -0.0111992955 -0.66022635 0.4107187 -0.22475052 0.27071542 0.25514573 -0.12100529 -0.36551908 0.1343645 -0.18520509 -0.34374815 0.10834839 0.4669365 0.18275325 -0.06798843 -0.13980953 0.32160318 0.4479864 -0.14609644 -0.61300814 -0.54098165 -0.10154464 -0.61232054 0.28795382 -0.40226752 0.22830318 0.21468128 0.14105305 0.28863513 0.10073823 0.33427635 0.58149874 -0.3705976 0.12519671 -0.4919651 0.16224752 -0.2589927 0.035284597 0.45446876 -0.007868778 0.8791115 -0.39410558 -0.4754094 -0.8853117 -0.18981782 -0.23031056 0.26182792 0.44418788 0.003878168 -0.28384912 0.56270784 0.0070926803 0.036225677 0.019520132 0.34210175 0.121789865 0.042934276 -0.34007326 0.07902095 0.42224377 0.47928596 -0.52480674 -0.71857494 -0.08513976 -0.98912907 -0.86099815 -0.9122274 -0.43261355 -0.44435537 -0.57055694 -0.74731773 -0.82768804 0.018033968 -0.13534036 0.22911976 -0.109574 -0.054825656 -0.32935938 0.12351149 -0.29397696 0.9632762 0.71123976 0.7818974 0.09918795 -0.02747685 0.29056764 -0.46580365 -0.19018541 -0.19580577 0.4007136 0.08787353 0.2434054 0.06763734 -0.25750706 -0.05139715 0.20415257 0.2769644 0.03910447 0.31159937
887 -0.083206825 0.8285639 0.51260036 0.41985396 0.5671479 0.44126 -0.5696308 -0.43309286 -0.13424698 -0.4759726 -0.17924416 0.38926274 -0.6827006 -0.25253525 0.5075355 0.39724162 0.09868593 -0.118708424 5.8104466e-05 0.08683671 0.53542656 0.11126784 -0.124272235 0.57811046 0.22960742 0.70955765 -0.4173199 0.06628453 0.06957568 -0.01710332 -0.56567234 0.4178692 -0.15002891 0.2108236 -0.049324367 -0.009889629 -0.52321666 -0.2144426 -0.2122527 0.021402404 0.2046107 0.18022256 0.20664479 -0.100044146 -0.05949648 0.3825954 0.22889127 -0.1198962 -0.47395426 -0.34934133 -0.07064712 -0.553052 0.28663692 -0.5064745 0.17831735 0.09966831 0.14616396 0.50137484 0.428246 0.18922397 0.7247173 -0.21211389 -0.027452108 -0.4306583 0.25145853 -0.20711938 -0.17894408 0.26499987 -0.131426 0.6913246 -0.27380642 -0.30485582 -0.5762275 -0.19079603 -0.07712547 0.16961871 0.36265874 -0.07492494 -0.08367579 0.52418375 -0.05003191 0.042837013 -0.15672033 0.42874134 0.3532447 0.18573274 -0.30284834 0.039352003 0.296103 0.66099024 -0.3364736 -0.62677926 -0.023394197 -0.81824595 -0.35036892 -0.94906336 -0.17895153 -0.28004 -0.31144652 -0.40203232 -0.40169635 0.15378197 0.25692236 0.24548547 -0.28552458 -0.03554438 -0.3015766 0.05612139 -0.38203725 0.60333955 0.30527216 0.90949035 0.2051833 -0.38849238 0.100353405 -0.23913658 -0.2636657 -0.23054442 0.51597923 -0.012525466 0.2798873 0.17946133 -0.14119247 0.08610387 0.054388024 0.011068874 -0.06539515 0.34801856
4584 -0.2976751 0.4215174 0.53730613 0.21194936 0.078166574 0.60434026 0.05015727 -0.24546537 0.14162521 -0.675432 -0.17314485 0.8627706 -0.9058341 -0.2296402 0.21920821 0.28755137 0.3697192 0.3989471 -0.11792023 -0.14975964 0.30123177 0.52390254 -0.114331424 0.43600622 0.15573192 0.19205774 -1.1890602 0.0019131143 0.16481908 -0.21926914 -0.10593559 0.88301 0.03600376 -0.097469956 0.25056124 0.08690675 -0.32929587 -0.14874265 -1.1483791 0.1360978 0.5547846 0.3483625 0.7828715 -0.17984304 -0.60181767 0.50926685 -0.26315033 -0.45921928 0.07276218 -0.53984326 -0.33308822 -0.32627428 0.4415121 -0.6019278 0.2660825 -0.4537914 0.38546568 0.79515946 0.4342255 0.001313965 1.1192007 -0.09967565 -0.28623793 -0.038639296 0.45546004 -0.05845499 -0.3679121 -0.008922368 -0.34345272 0.18778746 -0.052471597 -0.8152361 -0.45261317 -0.17168857 -0.0040184204 0.22667474 -0.20148227 -0.15044326 -0.06868424 0.27647302 -0.5435548 -0.13788064 -0.02516435 1.3966101 0.0255458 0.017629314 -0.49550015 -0.09892094 0.15550555 0.38802373 -0.17688383 -0.6187057 -0.22130315 -0.5291342 -0.2822229 -0.347922 -0.03285736 0.22320525 -0.22106168 -0.6908989 -0.46574807 0.054966647 0.18061058 -0.03994654 -0.03840171 -0.6017618 -0.44724044 -0.061689857 -0.24480984 0.38506028 0.27257282 0.6363011 -0.22039403 -0.67410296 0.13115874 -0.39127257 -0.08468903 0.43009058 -0.24289356 -0.14670424 0.6372752 0.2974874 -0.043796644 0.40971798 0.46247643 0.043332767 -0.13551836 0.18933485
5222 0.29277703 0.6516795 0.64295375 -0.20799212 0.68536997 -0.37739712 0.4024982 -0.58946794 0.3571691 0.3273217 -0.77135724 -0.29651734 0.1295899 0.27733785 -0.24262753 0.2358518 -0.36751023 -0.32581893 -0.11641356 -0.33099937 0.2874201 -0.29427886 -0.3931361 -0.08671391 0.20166029 -0.47573245 -0.19461133 -0.04969163 -0.59808254 -0.056128886 -0.35627887 0.46698925 0.023041258 0.10682727 0.24954714 -0.5985089 -0.17895174 -0.52120346 -0.7595651 -0.3146619 -0.6231207 0.3805117 -0.22133122 0.19049698 -0.3232324 0.1888271 0.18013813 -0.504616 0.19123653 0.013318236 -0.24902198 0.035550397 -0.10324643 0.177317 0.4194827 0.114633754 0.65724087 0.21180053 0.1133736 -0.19041504 0.42862958 -0.03490366 0.021976875 -0.60090154 -0.33679008 0.027936121 0.09080925 -0.3224767 0.0015231387 -0.29769942 -0.49665657 -0.48022336 0.14230369 0.21369474 -0.24481627 0.0071924566 0.37885445 0.023774693 0.17794254 0.23219782 0.3969947 -0.058555078 0.12739858 -0.17386632 -0.16087303 -0.11740425 -0.36395934 -0.5227766 -0.24268521 0.28221247 0.422223 -0.14036724 0.39878118 -0.092218116 -0.0036312887 -0.22391333 0.045174137 -0.35695118 -0.119788945 0.3101848 -0.24488887 0.23365341 0.20378923 0.7193447 0.2503045 0.24486388 0.5267371 -0.09722468 0.4576364 0.31413412 -0.2125421 -0.16214535 -0.51235336 0.43991995 0.18964684 0.21756245 0.4274244 -0.1334032 -0.24036965 0.13898495 0.20811065 -0.1440282 0.12791255 0.17980647 -0.32723206 -0.3794751 0.07295055 0.2671964
8327 0.114585176 -0.107871346 0.4050075 -0.48443064 0.36587623 -0.5850362 -0.35038695 -0.017700702 0.31671658 0.5326291 -0.25426412 -0.08262527 -0.25297755 -0.24652337 0.67924136 0.8690998 -0.58191204 -0.10255657 -0.6143516 0.3351737 0.041362572 -0.09411181 0.22805452 0.10729312 0.14646617 -0.011471381 -0.12019441 -0.5389807 -0.036395416 0.26512215 -0.64463913 0.2142051 -0.66539425 -0.9212207 -0.22481196 0.02764216 -0.107943155 -0.43349668 -0.016554303 -0.44249624 0.5017671 0.1487293 0.21427745 0.03873302 0.3591373 -0.085075974 -0.7810491 0.027243076 -0.014260958 -0.26453936 -0.12042749 -0.49188504 -0.11416531 -0.59772027 -0.27426782 0.6368017 0.3924348 0.42023492 0.18630014 0.6633454 -0.04375935 -0.10854963 -0.33748528 -0.33220914 0.2886937 -0.017757574 -0.2444135 0.49298027 0.084078655 0.2892141 -0.43444476 -0.3077327 -0.4678846 0.14930555 -0.2504915 0.024166977 0.54630035 0.7066438 0.4276362 0.3535944 -0.019382618 0.43902296 0.39165103 -0.4114979 -0.07607184 -0.26762095 -0.22605363 -0.47508228 -0.7982556 -0.021677852 0.13784386 0.3027359 0.34950402 -0.7275038 -0.02098456 0.21813388 -0.09494127 0.2923695 0.20037796 0.050606173 0.19050086 0.08893025 -0.09866675 0.32422024 1.2205017 0.15493053 -0.06918832 -0.3094772 0.5600279 -0.19865687 0.4972924 -0.5479269 -0.70385206 -0.050648708 0.2719446 -0.23327897 0.34655157 0.44242725 0.07768208 0.17557184 0.5409255 -0.09459523 0.10769561 0.50846595 -0.17368874 -0.4811279 -0.16886997 0.13536668
6213 -0.2503699 0.8647569 0.5948261 0.38488048 0.27963984 0.43928587 0.11210539 -0.015203585 -0.07855546 -0.4866619 -0.34104386 0.87331676 -0.4882573 -0.4823177 0.037420955 0.2701937 0.1511946 0.36307526 -0.17736359 -0.2196179 0.35735238 0.44474953 0.06440048 0.50314015 0.10041548 0.47874343 -0.6987354 -0.089309424 -0.2306333 0.008568537 -0.44380617 0.31965595 0.07869948 -0.20746306 -0.24223085 -0.44553292 -0.5534446 -0.38339165 -0.60382634 0.1074814 0.39753637 0.059249833 0.52879804 -0.05735098 -0.15738848 0.12816389 0.29903817 -0.09210681 -0.16357215 -0.5374812 -0.3423842 -0.08441189 0.26214305 -0.47807524 0.19433747 -0.036987767 0.29300633 0.24485956 0.4289721 0.009013399 0.69742745 -0.12375606 -0.3364439 -0.020098358 0.23548052 -0.108942024 -0.39426014 0.22006424 -0.1586004 0.50453013 -0.27687213 -0.7676386 -0.68858314 -0.075235344 -0.13780573 0.046858456 -0.045962185 0.0565953 0.008181668 0.3661286 -0.22930875 0.094166495 0.10416477 0.77646923 0.37413338 0.14932008 -0.24709688 0.030102171 0.3362488 0.39787543 -0.25201443 -0.7307999 -0.07038935 -0.57550883 -0.16020331 -0.6127155 -0.20316453 0.14107259 -0.4138173 -0.42001268 -0.5202495 0.07782558 -0.056513615 0.07765316 0.26985553 -0.453915 -0.044802394 0.091725826 -0.06560206 0.4621632 0.486408 0.54368454 -0.17845815 -0.3862984 0.18666299 -0.3571539 -0.6144993 0.42722872 0.30305538 -0.22416611 0.29266265 0.07912939 -0.36379293 0.07763058 0.39909536 -0.11928554 0.38014796 0.073778816
3028 0.12869604 0.15896556 0.26105756 -0.37076125 0.57413787 0.16600004 -0.15821163 -0.2747418 0.18246143 0.15162447 -0.53823286 0.3390369 -0.43010262 0.060714614 0.03692953 0.5534345 -0.559651 -0.17064475 -0.012570669 -0.18302995 -0.28539968 0.12668858 0.092477046 0.887963 -0.14630175 -0.21905625 -0.70372945 -0.32589883 0.36275095 -0.08741998 -0.49957868 -0.09414638 -0.33718398 -0.42436448 -0.08291716 0.14240173 0.42516622 -0.7659483 -0.7943542 -0.16439877 -0.23339355 0.008340188 -0.21580859 -0.26064444 0.9428927 0.048917335 -0.7942936 -0.33084083 0.49151438 -0.021522779 -0.515849 -0.19802108 0.48983294 -0.23172916 0.24156901 0.36859724 0.55645555 0.3723906 0.08673403 0.32726336 0.17069468 0.033616643 -0.12314028 -0.4620997 0.11869515 -0.6902793 -0.34191364 0.36260077 0.22954822 0.6361043 0.18071441 0.45152223 -0.06941887 0.07600558 -0.12653695 -0.1629074 0.07601357 0.4618013 0.005445114 -0.056528233 0.019126154 0.17795175 0.31450704 0.050028123 -0.23078239 -0.26483238 -0.21253851 -0.07608142 -0.061826102 -0.414508 0.44441178 0.2743344 0.042231947 -0.62107885 0.352336 0.40372714 -0.5565351 -0.6942571 0.52858496 0.32626906 -0.33885494 -0.510773 -0.45150924 0.24982838 0.9340541 -0.07194514 0.089389816 -0.116573475 0.74697524 -0.22942561 -0.07401076 -0.36662737 -0.40277502 0.2544121 0.088807 0.16713002 0.39997205 0.31904477 0.09798228 -0.20344442 0.41568357 0.26077595 0.43307018 -0.44525713 -0.4798725 -0.32739884 -0.23294601 -0.12609789
9570 -0.22011025 0.23531042 0.034553234 -0.0066699344 0.36334532 -0.31193608 0.17088705 -0.16600955 0.86901766 -0.14236207 -0.759673 0.17822427 -0.11340642 -0.6028627 0.2789686 0.14731511 -0.89146715 -0.5115114 0.005611737 0.4488474 0.07155536 0.55462927 -0.006408087 -0.057223655 0.4239186 0.43829218 0.05943256 -0.11715253 -0.058148384 0.14083685 -0.117991835 0.5870879 -0.1804589 0.46234524 -0.59256846 -0.350831 0.56520504 -0.09168759 -0.32502237 -0.027549163 0.76435345 0.6840858 -0.5337605 0.5437856 -0.22497183 -0.16670692 -0.083604895 0.1005999 0.20776577 0.26276216 0.5577972 0.14695576 -0.48652112 0.74390554 0.77064943 0.31595755 0.4063316 0.514586 0.111791365 0.48866206 0.021837005 0.19629395 -0.2075447 -0.015697887 0.21476147 -0.6947013 -1.3202524 0.27904394 -0.15974867 -0.2801068 -0.37608853 0.16030943 -0.18139485 -0.25384617 0.08186893 -0.10839133 0.17298546 -0.4480275 -0.3606818 0.34657547 -0.13877387 0.47696537 0.21055454 0.1726289 -0.7818329 0.14223173 -0.30381447 -0.4819862 0.6236267 -0.5213928 -0.005160266 -0.030927943 -0.17483151 -0.019240431 0.33545387 0.013078495 -0.591358 0.030457664 -0.14424266 0.42620283 -1.2865126 0.55275524 0.50881344 0.42331797 0.53591716 -0.17489356 -0.65391606 0.13368373 0.29125515 0.15635471 0.52594584 0.27353618 -0.26481822 0.1510288 0.43573365 0.2292535 0.19057296 -0.6524197 -0.39691734 -0.037182827 -0.16402157 0.3292282 -0.4023842 0.5321854 0.053133916 0.15261382 -0.14510989 -0.11210524
8251 0.35010517 -1.1645652 0.20368198 -0.7465675 0.9309943 0.11708268 -0.33014643 0.02420981 0.59090334 0.21149509 -0.9516498 -0.14966497 -1.6100955 0.2011879 0.8047564 -0.5563381 -0.1478625 -0.69009894 -1.4594834 -0.15059017 -0.021214431 -0.9603904 0.7075833 -0.1852516 0.8216688 -0.5386118 0.4944566 0.46652594 -1.1567752 0.60071015 -0.47198793 0.438761 -0.44320676 -0.36618513 -1.7362218 -0.9093599 0.14731452 -0.311402 -1.4175191 -0.36785236 0.2859043 -0.20833771 -0.035415504 -0.06408453 0.28147572 -0.5559384 -0.024987554 -0.2895461 -0.900961 -0.9633117 0.5216629 -1.06212 -1.1131314 0.06715815 1.1715701 0.20444553 0.1761504 0.3748971 0.063112035 0.93812555 -0.16992 -0.19240627 0.8701062 -0.67754614 -0.10046128 -0.53521276 -1.1653637 0.86530024 -0.17215239 0.024267556 -0.074952446 0.46171683 -1.8169502 -0.24426937 -0.57105285 -0.57014585 -0.100863665 0.67458236 -0.56253695 1.1660963 0.0054515614 -1.1480136 0.48653916 0.6556069 0.119682334 -0.040976543 -0.5013518 -0.16557455 1.1403029 -0.75660384 -0.14781423 -0.4327246 0.5173731 0.8949863 -0.5700978 0.085723124 0.34626234 -0.40386873 0.49330923 -0.7729539 -1.2982411 0.8306391 -0.37467387 0.56238306 -0.10275739 -0.6092835 -0.46072593 0.66239244 0.33217168 1.1343994 0.5659828 0.10793745 0.15441133 -0.4473875 -0.5449296 -0.7395506 -0.30396643 -0.94625676 -0.48692274 -0.36353058 0.40119582 0.6345627 0.05619544 0.58397275 -0.7060112 0.71059847 0.005300731 0.6935402
8237 0.38550115 -1.1720623 0.23611598 -0.6760208 1.0787855 0.12882449 -0.30999696 0.106215954 0.52645206 0.11739313 -0.956847 -0.1699293 -1.7090312 0.28422484 0.85259813 -0.5683823 -0.17813826 -0.761 -1.48621 -0.15559281 -0.047975507 -1.0224649 0.7462489 -0.19085377 1.0097946 -0.6189726 0.54916435 0.55500466 -1.2242599 0.68632585 -0.58548456 0.509708 -0.45406595 -0.42920673 -1.7877543 -0.9061864 0.087694325 -0.40632752 -1.4933271 -0.29137382 0.28995934 -0.15901457 0.017443884 -0.046628956 0.26154888 -0.525123 -0.034253582 -0.29356807 -0.9117926 -0.9611994 0.5589299 -1.1260363 -1.1342252 0.020118246 1.1711758 0.1536362 0.1619013 0.40297997 -0.030288544 0.9232221 -0.19405025 -0.21348383 0.89131206 -0.7124831 -0.13203108 -0.6375146 -1.1618148 0.89262116 -0.17784002 0.026765196 -0.1446876 0.4780954 -1.8461766 -0.21955113 -0.58641595 -0.5998283 -0.050944343 0.72053033 -0.4799006 1.2371197 0.0034819483 -1.1596755 0.47897246 0.6330438 0.15714401 -0.0064194934 -0.53519106 -0.23293525 1.1569009 -0.8102749 -0.15053351 -0.5167568 0.5319942 0.9267838 -0.5433856 0.08776814 0.34100235 -0.49555048 0.52646106 -0.8206537 -1.3945227 0.86959904 -0.358841 0.6106588 -0.092488244 -0.6268604 -0.39798465 0.69659203 0.28165925 1.1663643 0.48388937 0.124067664 0.14992969 -0.5264163 -0.56113833 -0.72231054 -0.34724063 -0.94518703 -0.4730331 -0.5089067 0.3632068 0.6987944 0.091929525 0.5997282 -0.7722241 0.6918886 -0.004553493 0.74631464
2537 0.4868993 0.14955351 0.2808316 0.65253854 0.34333733 -0.21699746 -0.22309887 -0.15528321 0.6405847 -0.03558177 -0.27241156 -0.34537992 -0.06567883 0.12643215 -0.18132336 -0.19292118 -0.48466054 -0.18025109 0.2932614 0.14605252 -0.1363518 -0.32196584 0.20035249 0.16412693 0.47557363 0.06492911 -0.6426864 0.12102423 -0.26450288 -0.18687396 -0.16115436 0.5082277 -0.425809 -0.23174103 -0.364703 -0.025411256 0.12063171 0.06428214 -0.08142737 0.020838732 -0.27902249 0.030378528 0.04200288 -0.28409413 0.38585064 0.11895886 -0.14803173 -0.42510924 0.22890247 0.29769015 -0.8918821 0.13587151 -0.39560592 0.43783265 0.5318673 -0.5217285 0.5503658 0.5668225 -0.038655818 0.10979286 -0.077218056 0.8427302 -0.097600475 0.054039728 0.10316097 0.23251022 -0.06124763 -0.60443 -0.39235342 0.41941896 0.51331353 -0.09147498 -0.39643446 0.5518515 -0.06854772 -0.012690317 -0.37175494 0.32102236 -0.15555042 -0.29933342 -0.35042933 -0.14009865 -0.31392375 0.27036646 -0.27017546 -0.00233389 -0.4309103 -0.3062229 -0.15542446 -0.3688072 -0.39384532 -0.38443586 0.061113346 -0.054817125 -0.132748 -0.08566636 0.039880484 0.20521758 -0.1965445 0.2783546 -0.23067605 0.38745427 0.2511839 -0.023578573 0.33347407 0.59389126 -0.31573388 -0.3318123 0.1890661 0.16535103 0.4687066 0.08094959 -0.012382023 0.07290091 0.36292613 -0.14343111 -0.2706249 -0.26859996 0.17344293 0.6684951 0.076515585 -0.058327608 0.3378794 0.16134195 -0.6895862 -0.15151471 0.39179024 -0.40286857
2390 0.1929115 -0.5988832 0.12525436 0.32811686 -0.042457335 0.048537154 -0.16870704 0.4582911 0.22769825 0.020307446 -0.11168931 -0.13120125 -0.24743064 -0.12757893 -0.17831038 0.12273791 -0.03250948 -0.22688182 0.018459115 0.27724886 0.18368356 -0.14214072 0.010449266 -0.07943322 0.41424593 -0.18125232 -0.07330757 -0.43465587 0.14522967 -0.047569674 -0.34420538 0.14303914 -0.19951418 -0.02411732 0.05651749 -0.08198783 -0.18433489 -0.36454242 0.41519278 0.038192313 -0.5104132 0.038036644 -0.5679034 0.37196824 0.37430727 0.228961 -0.17407668 0.11015656 -0.0017461333 -0.22369614 -0.34338123 -0.7176069 -0.21390793 0.28329194 0.54366404 0.16967374 0.08054269 0.44959897 0.46142685 -0.37289992 0.4041456 -0.2511619 -0.40079919 -0.65403503 -0.43448344 -0.036495894 -0.37194994 -0.15912552 -0.17690228 0.7083031 0.011355806 -0.5506812 0.11541222 0.70943344 0.07615968 0.009653183 0.317643 0.24747217 0.11472858 -0.32856846 0.23874901 0.17579427 0.06840114 0.3795403 0.2941025 0.21484335 -0.8953219 -0.34620026 -0.18648504 0.28714883 -0.054524302 -0.06134732 0.12705396 0.085214116 0.15698147 -0.13754399 -0.3925837 -0.4087755 -0.5888767 0.1819213 -0.8631387 0.052974567 0.012656681 0.17072299 0.76399225 0.058695275 -0.49361762 -0.026177896 0.13202117 -0.27288964 -0.2977505 -0.1718828 -0.3312656 0.3865743 -0.0501891 -0.13303147 0.036633514 0.07623577 -0.54387736 0.80858475 0.34265995 0.3516928 0.3870165 -0.128825 -0.25873277 -0.081696935 0.22296193 -0.19929345
1888 0.68293625 -0.36499023 0.29741406 0.41134948 0.2838952 -0.28424746 -0.065195315 0.14494076 -0.051526368 0.22333117 -0.5865825 0.21512143 -0.0074610943 0.2962591 -0.056856237 0.16304491 -0.07597021 -0.41844243 0.054309998 -0.31028274 0.28892478 -0.63007766 0.24603717 -0.24992551 0.6565184 0.26950774 -0.25397736 -0.66823334 0.32985935 0.49626172 -0.21314919 0.30603695 -0.016224843 0.21282507 0.060827944 -0.19064558 0.3594495 -0.21980874 0.027514966 0.29002145 -0.061844483 0.5947109 -0.2290765 0.013721043 0.0051980903 0.13660719 -0.44842649 -0.02839742 0.042562664 -0.19056043 -0.2692868 -0.08685648 -0.3264738 0.27898127 0.080404095 0.46579486 0.307264 -0.3680391 0.122609384 0.21553954 -0.09713456 0.057694804 0.03273819 -0.45078933 -0.056028005 0.32046732 0.045048404 -0.18067828 -0.07165963 0.49028185 0.059310976 -0.1834779 0.0057367343 0.72166926 -0.09439651 0.3717621 -0.2646248 0.50778246 0.20064238 0.048331622 0.07783089 0.4446633 -0.2694676 -0.01087475 0.097504705 0.46637854 -0.08566644 -0.43690038 -0.00011690581 -0.0017693862 -0.08593774 -0.48307678 0.4462175 0.120031975 0.19228685 0.12094821 0.15924041 -0.6930828 0.061741088 -0.09498081 -0.67630917 -0.033110593 0.0102796145 -0.14452602 0.6169439 0.1727009 -0.35550335 0.052803162 0.08811207 0.011975406 0.18910505 0.5010063 -0.7077571 0.22181143 -0.19302505 0.1967114 0.03338912 0.64801705 0.42301196 0.1806265 0.5757907 0.16043936 -0.13102107 -0.015275703 -0.16173646 -0.25387788 0.0693574 -0.46250904
24755 -0.29327214 -0.029170403 0.00205612 0.0021240076 0.90046775 0.40709645 -0.28418097 0.16399437 0.015711518 -0.7820729 -0.32127765 0.34513688 -0.2347029 -0.46017128 0.6338865 -0.5720559 -0.16742282 0.5345851 -0.78302866 0.00984232 0.34402078 0.16372992 0.19642855 -0.37932247 0.36969838 0.44692597 0.44742084 0.47164914 0.07999147 -0.3519148 -0.51746005 0.38146073 -0.05920796 -0.2923463 0.13637365 0.34469232 -0.40684968 0.21709652 -0.8177461 0.18047969 0.4992092 0.10094952 0.055878673 -0.044031274 -0.5288792 -0.23527043 -0.09404474 -0.50283396 0.11810726 0.1726717 -0.46426895 -0.23343652 -0.6259487 0.18601494 0.3354799 -0.009995358 0.38110486 -0.12981132 0.04742734 0.7525941 0.024167472 -0.4379987 0.4665973 -1.0744251 0.35640818 -0.18364961 -0.003962941 0.03299377 0.20773491 0.63845843 -0.0050686644 -0.4335608 0.3934107 -0.26932162 -0.40636432 0.0022077675 0.13553457 0.06585435 -0.028353414 -0.2661266 -0.07795124 -0.047859937 0.58549494 0.48023772 0.45964354 0.13187651 -0.42285806 0.2056717 0.35641363 -0.40472123 -0.036894623 -1.5332493 -0.123601764 -0.26780525 -0.46076518 0.8230561 -1.0017784 0.10165189 0.2731995 0.25068533 -0.39962274 0.10255227 0.32960132 -0.32579124 0.18992922 0.13627887 0.32034948 0.5913542 0.12232715 0.011574004 0.043493524 0.28937894 -0.39121473 -0.44770834 -0.116257094 -0.30098104 0.24730615 -0.68381053 0.0020636166 0.73278934 0.43067446 0.24267152 -0.07584307 -0.3156877 -0.3996275 -0.5714738 0.90157187 -0.045052785
78805 -0.27401376 -0.020435393 -0.2666101 -0.058097366 0.95726925 0.49654067 -0.2913798 0.13941266 0.15440212 -0.71667284 -0.29004455 0.30355126 -0.2895199 -0.53842443 0.6143347 -0.55711603 -0.15951549 0.36796644 -0.6948816 0.0077452953 0.4160632 0.24376598 0.09662458 -0.28229776 0.30899087 0.61777174 0.4383039 0.564053 0.27749643 -0.36788583 -0.5463034 0.449204 -0.1230539 -0.2295711 0.06603884 0.4050338 -0.3642662 0.22904924 -0.9140139 0.31040326 0.4172805 0.14127791 -0.005442199 0.031771634 -0.856621 -0.3259188 -0.11743557 -0.56825006 -0.059472177 0.03721785 -0.61032903 -0.36093292 -0.6675922 0.071105294 0.19234598 -0.036216002 0.39260158 0.05884804 -0.038921706 0.7033109 -0.03638148 -0.48211104 0.44885966 -1.0748223 0.3423716 -0.32806677 -0.113684684 -0.01758692 0.24697968 0.4964507 0.013908639 -0.44626856 0.37433544 -0.23558421 -0.4273176 -0.20258087 0.2581889 0.17936116 -0.10252309 -0.14462358 0.074835055 0.18729994 0.8243917 0.69714487 0.4955543 0.13383527 -0.5150008 0.24965787 0.51377624 -0.46990648 -0.026439952 -1.6938423 -0.22114101 -0.32723507 -0.44842595 0.86235154 -1.0045261 -0.07264313 0.374494 0.28276122 -0.3348138 -0.039068196 0.23146346 -0.5476267 0.2843323 0.12267423 0.3011182 0.4684843 0.15243238 0.040925037 0.06059127 0.4743466 -0.49881575 -0.3838755 -0.06909352 -0.21996057 0.28945225 -0.60413057 -0.089111134 0.8653341 0.5236651 0.5112802 -0.14636111 -0.2975231 -0.3787294 -0.568514 1.126314 -0.03755092
1047 -0.9532158 0.022517035 0.6192898 0.42975497 0.48027533 -0.12721252 -0.23371136 -0.06852045 0.47564855 0.17110866 -1.0957198 -0.24898708 -0.40918726 0.43313658 -0.02658069 -0.09724853 -0.25262657 -0.8061252 -0.16023107 -0.18808523 0.17636803 0.06917537 0.41970232 0.11964505 -0.18663587 0.42141676 -1.2725719 -0.72258323 -0.07863862 0.32617223 -0.5613288 -0.008355538 -0.37120935 0.017203266 -0.3055909 -0.6013858 0.18277474 -0.66133505 -0.2333873 -0.48555577 -0.124317676 0.414937 -0.009048277 0.24039777 -0.5354845 -0.29032105 -0.6690398 0.8520392 0.24738266 0.2544939 -0.049564183 -0.10806604 0.006547265 0.59816545 0.18828933 -0.51562196 0.6384544 0.4419371 0.392248 0.14140825 0.28328767 0.5274674 0.71936256 -0.9944414 0.4731944 -0.4323745 0.0056877783 0.426092 0.08197123 -0.23267268 -0.62864125 0.5229629 -0.7047671 0.31537437 0.47875625 0.31253296 0.31893858 -0.52870446 0.001858 -0.78254485 -0.29459593 0.7230187 0.13778028 -0.0910472 0.25650996 -0.072478995 -0.36798608 -0.18126023 -0.5114247 -0.026813775 -0.23883061 0.3224376 0.054664917 0.21685337 -0.06743912 0.1362892 -0.6909938 1.0552224 0.58684176 0.75982887 -0.36979702 -0.06161252 0.022679893 0.14484876 0.57696295 -0.116909996 -0.6475736 0.5739772 0.40409115 -0.53889215 0.13181585 0.4229798 -1.1244994 -0.638856 0.00010928591 -0.3121501 0.6096581 0.0784903 -0.3042986 0.43596023 0.7432834 -0.19129477 0.49204063 0.33386534 0.1699234 0.14764796 0.27711502 -0.05537372
27699 0.16363133 -0.2979155 0.54240316 -0.13187228 0.37171397 -0.005415674 -0.3518289 -0.56904733 0.23816141 0.37109464 -0.7447869 0.4752805 -0.2925517 -0.36342704 0.35098082 0.49717772 -0.65977186 -0.32617763 -0.05397809 -0.18694997 0.20439148 -0.37041417 -0.20038041 -0.25895917 -0.32765973 -0.0034376783 -0.088400185 -0.5205113 -0.27281922 -0.18438262 -0.5640084 0.9248656 -0.40191633 -0.24962075 0.15755382 0.006170002 -0.08485102 -1.0258907 -0.15823795 0.07433035 -0.23130906 -0.023078177 0.49723345 0.04106778 0.52880055 0.13123822 -0.5721926 0.0010830679 -0.12543274 0.14865999 0.011074004 -0.42059544 -0.15098953 0.30180478 -0.031750746 0.32900912 -0.37374812 0.048087824 -0.031533044 0.062074367 0.1428318 0.29037842 0.09883354 0.02699775 0.2677492 0.03323382 -0.232003 0.27353185 0.04795298 -0.19827797 0.042650875 0.020854883 -0.29939508 0.3944574 -0.2367723 -0.28535756 0.9435282 -0.26049432 0.2832979 -0.2251092 0.4029152 0.6463465 0.037915133 -0.015564935 -0.2745401 -0.02836867 -0.2668293 -0.41709396 -0.15719333 0.17923883 0.37801912 -0.19719636 0.18227272 -0.86704314 0.16851397 0.44811627 -0.47438878 -0.13199566 0.2112775 0.1420912 0.33000422 0.48075265 -0.50198835 -0.07018372 0.5685726 -0.08348696 0.09937972 -0.06322632 0.3187141 -0.1988176 0.18893833 -0.14195028 -0.38743228 0.3674592 -0.36214814 0.44238615 -0.41016507 0.051871356 -0.4309292 0.43652079 0.07344582 0.7318617 0.35759667 0.52460206 -0.8452112 -0.12844718 0.09383916 0.72711635
124378 0.09194606 -0.40816307 0.27100873 0.33563548 0.023275437 -0.078270055 -0.20786604 0.35911852 0.6777112 0.05104984 -0.24609306 -0.244386 -0.053696994 0.03438803 0.2247739 -0.1757626 -0.17298497 -0.48207963 -0.14095588 0.1795553 0.14269373 0.023756564 0.36238658 0.12777227 0.27176732 -0.0671268 -0.045754015 -0.5104502 0.6446856 -0.061740033 -0.6527347 -0.14369696 -0.24249557 0.30979902 -0.10401073 -0.17933683 -0.19209218 -0.4205051 0.555825 -0.013473824 -0.6935621 0.4205984 -0.38936535 -0.12716478 0.3338072 -0.12533762 0.111566976 -0.21283676 -0.16633481 -0.13742165 -0.75794023 -0.26879126 0.08774453 0.33213398 0.9166395 0.21145219 0.39596018 0.50280505 0.39778808 -0.2665953 0.47814703 -0.02488586 -0.63576645 -0.5277414 -0.22200413 -0.29694104 -0.1856423 0.20883061 -0.1244804 0.61819077 -0.008164651 -0.5630069 0.3183533 0.8288549 0.25982475 -0.15921076 0.12131498 0.56812716 0.13815592 -0.63102037 -0.10213706 0.36009887 0.08743001 -0.07168569 0.568067 0.46468392 -1.1168975 -0.26688164 -0.17998798 0.11170721 0.2221447 -0.49334466 -0.001046819 -0.011358968 0.100497216 -0.1487925 -0.26776475 -0.5050289 -0.6589063 -0.37065533 -0.6129933 -0.061538864 -0.26352224 0.6546582 0.9710874 -0.08873758 -0.27102837 0.03923741 0.2597667 -0.033117533 -0.5461724 0.02081732 -0.5900644 0.3246017 0.015152993 0.084960975 -0.032571882 0.3145592 -0.35781845 0.8391527 0.5832551 0.46847188 0.71288776 -0.06450185 -0.5468942 0.13263181 0.69830364 -0.5223452
1553 -0.4019281 -0.23220712 0.0025944689 0.33691233 0.2944098 -0.38764253 -0.01670079 -0.8339908 0.06823783 -0.17736425 -1.308064 0.1646399 0.031647302 -0.044529315 0.10784914 0.3394574 -0.96606416 0.07875901 0.12127106 0.28012043 -0.57152635 -0.26345932 0.21597636 0.65251505 0.7316587 -0.04333405 -0.0690556 -0.36806327 -0.17602986 -0.3948083 -0.68891174 0.22860771 -0.1103303 0.23443122 -0.036773186 0.14012794 -0.20698734 -0.6298817 0.098925 0.09566962 -0.37054098 -0.14428347 -0.21612187 0.21517214 0.074666865 0.009611479 -1.013712 -0.06088554 -0.46786997 0.04362651 -0.47824705 -0.35024783 0.26739854 0.42982072 -0.14072311 0.29404014 -0.1139154 0.36085585 0.28218842 -0.2801081 0.24582537 -0.2624666 -0.12668721 -0.17819788 -0.30647808 -0.14999907 0.057570357 -0.09503348 0.36460498 -0.2305223 0.18814635 0.62741905 -0.17278314 -0.028747072 -0.13115661 -0.07786853 0.14573069 -0.2869312 0.27525872 0.4905382 0.32021567 -0.41880327 0.23552029 -0.62130564 -0.19370753 0.26586795 -0.58008385 -0.088961154 0.22535293 0.5241954 -0.17864561 -0.3603733 -0.21506944 -0.16708285 0.3088591 -0.27173567 -0.032891557 -0.1271516 0.21251173 0.19825207 -0.13333005 0.16753262 -0.022032728 0.16533028 0.29026547 -0.28062642 0.1032472 -0.18630385 0.8617977 0.37222102 -0.008529428 0.7473107 -0.45657882 0.4563098 -0.56122935 0.6291605 0.21721359 0.5402708 -0.18063895 0.4377516 -0.04277288 0.25455466 0.57463664 -0.10023866 -0.11859671 -0.5507138 0.35913953 -0.1854309
4013 -0.1698303 -0.29984018 0.29792196 -0.08862027 0.22774646 -0.09038731 -0.32169214 -0.29552928 0.3672149 0.6088673 -0.48570096 0.10733992 -0.6337253 -0.08363661 0.14274497 0.48729274 -0.6464274 0.20477207 -0.32739946 0.3488548 -0.05129629 -0.034960505 0.40098172 0.12002585 0.08649529 -0.23462524 -0.1925868 -0.41284868 -0.2905412 -0.21719669 -0.46717405 0.22415793 -0.5278126 -0.49996483 -0.1781841 -0.14288506 0.10293083 -0.29487154 -0.23025022 -0.53101486 0.0066882325 -0.27706054 0.77011156 -0.23019627 0.287808 -0.08407826 -0.38364246 -0.44656348 -0.09902409 -0.39158654 0.28826046 -0.20439987 -0.19988595 -0.06555798 -0.057802647 0.3618248 0.34937784 -0.21404064 0.38427943 0.5598563 -0.035815727 -0.101218864 -0.025831515 -0.22925511 0.19112498 0.09787438 -0.34226948 0.14776069 0.07273584 0.30373928 -0.26596037 0.06840104 -0.34118563 -0.022007875 -0.12867291 0.07452434 0.27343178 0.023329638 0.44462076 0.6382613 0.37265292 0.28498548 0.18984486 -0.63082314 -0.025508609 0.39000607 -0.4227055 -0.93003637 -0.29467875 0.24576452 0.49889493 0.16028862 0.11415299 -0.42178598 0.0753005 0.35130888 -0.029775474 -0.31866115 0.07613383 0.09313179 0.019897526 -0.32344028 0.073213436 0.52625895 1.1343086 0.27952412 -0.17039324 -0.42382073 0.35805166 -0.098358504 0.276613 -0.26950315 -0.35192895 -0.1719557 -0.02322212 0.022351997 0.049177796 -0.048917983 0.11641705 0.045477506 0.27921954 0.3895953 -0.02092068 0.49188283 -8.3902465e-05 -0.44094515 -0.25127232 0.12373595
18130 -0.89083815 -0.38414967 0.31689295 0.8446697 0.48391622 0.4352054 -0.37210917 0.210032 0.1732665 0.40504578 -1.0513831 -0.15308666 -0.35352555 0.166184 -0.13070841 -0.0011969083 -0.47166055 -0.72159845 0.0707539 -0.018153781 -0.022799864 -0.2205491 0.22655982 -0.0014867544 -0.12971789 0.4404736 -1.078571 -0.4962811 -0.16973254 0.29176205 -0.6092934 -0.24021964 -0.20506959 0.3435059 0.16418782 -0.33566907 0.08670396 -0.50634706 -0.12780702 -0.4912989 -0.18624152 0.3088532 -0.12728152 0.50254166 -0.33100793 -0.050215002 -0.35101983 0.4488007 0.07274933 0.17451034 0.36425692 -0.32226706 0.0019645016 0.8266463 0.18952069 -0.51793426 0.89081067 0.41520965 0.2707017 0.15230696 0.3772055 0.40215084 0.35651463 -0.9933556 0.27063143 -0.32879782 -0.11457188 0.33439448 0.2722179 -0.11197893 -0.6904976 0.8077065 -0.3903691 0.24315557 0.27743953 0.28761047 0.44757068 -0.30433515 0.111156456 -0.25113603 -0.29197305 0.44595578 0.054898232 -0.12022787 0.5359808 -0.42501128 -0.2841067 -0.047411013 -0.43583092 0.20102783 -0.08431788 0.35214004 -0.016891573 0.0089850705 0.29248333 0.15699624 -0.6736098 0.5983416 0.046975605 0.74451256 -0.3371407 0.44111288 0.5119921 -0.1088988 0.46521342 -0.12126759 -0.3830523 0.2762659 0.37740725 -0.5354391 0.16737881 0.04623838 -1.005598 -0.31852385 0.03452866 -0.42951941 0.6262505 -0.2289132 -0.2737325 0.273897 0.793782 0.06914068 0.49442327 0.44044814 0.1795015 0.40078646 0.32286632 0.3458574
3465 -0.23361643 -0.5004746 -0.21439233 -0.056584843 1.170093 -0.7179381 -1.0562315 -0.55981994 -0.321011 -1.3509864 -0.84054875 0.0869587 -0.5224804 0.2856465 -0.11085887 -0.15705484 -0.7696849 0.20112696 -1.0472485 -0.52652293 -0.7359087 0.3074149 -0.05585407 0.50150794 0.90177345 -0.8082991 0.7597601 -0.19078182 -0.063368335 0.17580985 0.011122944 0.92654204 -0.48219663 -0.14252247 0.07980719 0.32924983 -0.6395009 -1.1615174 0.023917379 0.6579144 0.8456515 0.5684624 0.44713494 0.4286855 -0.064500615 -0.06515239 -0.04315856 -0.51070094 0.19242221 -0.41863254 0.4864545 0.50621253 0.008700168 -0.35131195 -0.11520936 -0.8613458 0.5397882 0.078889705 -0.20421995 1.2541537 0.93860364 0.0987392 0.36453375 -0.774464 -0.008830277 -0.154009 -1.2904147 -0.39099398 0.24707647 0.90558004 0.1390471 1.1165876 -0.7036368 -0.70604074 0.6563639 0.49268657 0.1676928 0.46131286 0.21396731 0.32847705 0.062977396 0.24725193 0.7564681 2.2543275 -0.014772822 0.26050925 -0.96525425 -0.5270216 0.7376109 -0.33698767 0.4446307 0.3266085 0.19251305 -0.41694647 0.34068018 0.12759224 0.01232492 -1.2568775 -1.3642294 -0.10187027 -0.33829123 0.14726277 0.24645518 -1.7397647 1.1385863 -0.35329422 0.7802595 -0.46792185 0.7095559 0.28074306 -0.19080737 -0.22220112 -0.22297183 -1.0514989 -0.36735457 0.14470543 0.21553299 0.032291617 -0.13072547 -0.4235558 -0.14580277 0.3939552 0.80318713 0.19351429 -0.33573994 0.9770465 0.7176097 -0.069645405
4468 0.48030943 0.051955238 0.13153312 -0.20562018 0.43659675 -0.42193022 -0.09545799 0.67449725 0.2691385 0.4970211 -0.5248362 0.19704485 0.63190216 0.4044031 -0.21504636 0.4682728 0.63442075 -0.25835514 0.089470915 0.3001028 0.7526245 -0.07857056 -0.33423525 0.11946903 0.6272788 -0.23798336 0.022975609 -0.5082198 0.7902985 0.3142898 0.3819938 -0.18366572 -0.75522214 0.45716852 -0.0023080646 -0.65362877 -0.04148704 -0.075235486 -0.6322441 0.1851531 0.51572055 0.10458033 -0.13000852 0.11087137 0.11689286 -0.85935163 -0.9674411 -0.4842757 0.24307734 0.2123432 -0.63010997 -0.4718419 -0.104655094 0.37245205 0.9428134 -0.4138431 0.36579743 -0.30778465 0.37725285 0.20498912 -0.035115905 0.21376269 0.017500155 -0.8230599 0.16251867 0.66163373 -0.27070513 -0.014607452 -0.47530198 0.054871514 -0.31593055 0.22952561 -0.6828007 0.41821322 0.22912389 -0.04592033 0.4038693 -0.098905005 -0.16049369 0.1587502 -0.8505719 0.3385608 -0.71039194 -0.051579975 -0.022446701 0.1541885 -0.33348036 -0.059515666 -0.0845434 0.19183323 -0.30165058 0.05413183 0.005163545 0.05554201 -0.3553617 0.26683843 -0.41774186 -0.029987872 0.07538414 0.47497734 -0.7429853 0.16662489 -0.22645374 -0.48603797 0.6537323 -0.86639607 -0.17781188 -0.3350507 -0.32895967 0.6775599 -0.24885036 -0.17718129 0.06919697 0.10593232 0.1135476 0.9343144 -0.29608288 -0.37809214 -0.6116084 0.2302503 0.84367865 0.22026773 0.24553244 -0.024639143 -0.811789 0.35697994 -0.0721842 -0.24973384
29180 -0.17666343 0.26747477 0.45473742 -0.4380019 -0.037785754 0.056333806 -0.016573226 0.34579176 1.00142 -0.3311847 -0.09823738 -0.21021323 -0.27701178 0.5628838 0.32054785 -0.6085443 -0.3154247 -0.5441234 -0.08089665 -0.21225163 0.44558522 0.605868 0.2925266 0.17776227 0.5375437 0.29852772 -0.6533716 0.6094137 0.41880435 -0.69367945 -0.86733013 0.9637098 -0.3851395 0.37791297 -0.16048084 0.7463826 -0.6478179 -0.5193416 0.097763464 0.15449016 0.65564656 0.22410308 0.0021371576 0.29018956 -0.7227479 -1.2414275 -0.19336304 -0.39457095 0.40485057 -0.82394296 0.6566554 -1.347002 -0.71530914 0.32095113 0.07336104 1.1710804 0.010463457 0.65911007 0.3917645 -0.4219967 -0.13184561 -0.3705874 0.5113992 0.057354312 -0.06025506 0.20311064 -0.8655309 -0.1928817 0.10921669 1.5188156 -0.5728187 0.100478336 -0.94791365 0.55771637 -0.14602354 -0.43033838 -0.26292622 0.24163389 -0.80852014 -0.2615183 -0.5334099 0.257189 -0.39640442 -0.089651726 0.44676632 0.126157 0.00066241226 -0.80371976 -0.011320751 0.40651402 1.1291766 -0.009157794 0.76319426 -0.8903128 0.14628816 0.34919813 -0.9344543 0.0029250304 -0.43262357 -0.19108088 0.24761267 0.018862708 0.69441926 -0.9098225 0.18930349 0.114493415 0.30671445 -0.8695114 0.39986283 -0.99718976 0.5636699 -0.14909054 -0.24231021 -0.38721383 -0.2833616 0.28633234 -0.19600618 -0.5652483 0.5585692 -0.025248935 0.5974881 -0.4092066 0.13983129 -0.42088494 -0.57077545 -0.13857187 0.24405755 0.5614349
10177 -0.4512648 0.89254844 0.17972584 -0.54905456 1.1408068 0.51477236 -0.45094573 -0.2856894 -0.13963252 -0.53161126 -0.71340585 0.58904785 -0.35387024 -0.40271127 0.9278368 0.33079824 0.23467362 0.84405303 -1.0365704 0.06552737 -0.47003075 1.0466413 1.1604713 0.94362956 -0.16996193 0.12892003 -0.72514814 0.3380174 -0.3583974 -0.036769364 -0.8239828 0.5291819 -0.17142045 -0.005620263 0.6326067 0.39265376 -0.49796906 -0.047016613 -0.2417632 0.7148763 0.486904 0.7123653 -0.4968111 -0.5052288 -0.15240169 -0.35003147 -0.5820281 -0.39699358 -0.8863749 0.16057187 0.10747236 -1.0305041 -0.99056476 -0.19224271 -0.042970702 -0.50045085 0.59214205 0.35562292 -0.26407883 -0.5319217 -0.8111746 -0.24294586 0.028581506 0.24750465 -0.27624086 0.4248035 -0.42158705 -0.857908 -0.10704615 0.8375421 -0.25225756 -0.5257231 -0.46231976 0.30620196 0.46835792 0.16010405 0.06469837 -0.65025735 0.1569246 -0.1856008 -0.8699172 -0.45763218 -0.34170356 1.0066668 0.84465843 -0.9919063 -0.3716284 -0.56958747 0.2693383 0.1981032 0.28191727 -0.46167144 -0.6032069 0.154662 -0.3092213 -0.023796976 -0.34614408 -0.2882775 0.28432852 -0.86428595 -0.91342896 0.1400743 0.22570218 -0.05776972 0.46776012 -0.38561222 0.5415923 -0.31820926 -0.44229406 0.016484186 -0.06018932 -0.045830894 -0.587051 0.5948163 -0.3881049 0.41441566 0.18233477 -0.19344735 -0.40030712 -0.8652293 1.0219333 0.57479393 -0.16745445 -0.0012572092 -0.7930884 0.43267345 0.5678156 0.8248586
6644 -0.14481261 0.15046915 0.6808767 0.08094999 -0.24474555 0.31026247 -0.106980994 0.45975763 0.28849837 0.0017106582 -1.0800354 0.14364298 -0.7342147 -0.66579646 -0.016730895 -0.15918042 -0.8170671 0.19821131 -0.76036465 -0.14903344 0.1908241 0.1926037 -0.55353105 -0.2679203 0.34755766 -0.11253182 0.52457553 0.17238438 0.20852919 1.0281395 -0.03214488 0.41264287 0.12374604 0.07083536 -0.19685468 0.47931665 -0.7156577 -0.17317306 -0.16957967 -0.24839084 -0.2986035 0.4836848 0.36884052 -0.43637636 -0.1427156 0.69707686 0.2505875 -0.22918783 -0.18950585 -0.15584745 -0.44859946 -0.9066056 -0.82504976 -0.8798452 0.4601047 0.89705765 0.3417349 -0.351149 -0.5881156 0.05100502 0.67082316 0.19695245 0.31348637 0.30509794 0.14931618 0.3613541 -0.58244497 0.27301773 -0.004512032 0.11931577 -0.31940114 -0.2555971 -0.8591456 0.17486168 -0.00037501883 0.90891767 0.46820372 0.5359446 -0.1448728 0.73022664 -0.66603756 -0.30599758 0.8424744 0.1959597 0.48526886 0.23890984 -0.03665323 -0.71052253 0.82011974 0.060086966 -0.07311822 0.10848474 0.29629394 0.7056229 -0.07455235 0.15866667 -0.6866583 0.37550348 0.6161933 0.11858659 -0.3136509 0.5913813 0.21773401 -0.66446394 0.904736 -0.0031403527 -0.5947003 -0.27357033 0.068269454 0.44890007 -0.1259257 0.538101 -0.4414716 -0.9786051 0.25506875 -0.166652 -0.66244364 -0.42929366 -0.005863088 0.80103767 0.23104787 -0.42004228 -0.21485291 0.21777733 -0.054207563 -0.20488358 0.29437184 0.19271126
21033 -0.22439793 0.12366816 -0.039161865 -0.41724536 1.2367122 -0.78525496 -1.066545 -0.7990053 -0.2511295 -1.013042 -0.5480777 0.114324644 -0.4371282 0.18563621 0.20622078 -0.3506866 -0.6910222 -0.10051243 -0.72882766 -0.2129814 -0.60477287 0.20803486 0.1963682 0.39869386 0.57819533 -0.38889155 0.98328537 -0.21317843 -0.16230577 0.24251509 -0.17381173 0.8700701 -0.3492435 -0.08442655 0.19832118 -0.130613 -0.2388246 -0.77407616 -0.101742536 -0.037860114 0.48859942 0.21391512 0.62588024 0.26956576 -0.11289176 -0.17547023 0.0066532446 -0.14916109 0.20774761 -0.26648405 0.3102297 0.36801022 0.34607825 -0.44415653 -0.40767774 -0.3210005 0.4453737 0.42967448 -0.09394134 1.1284142 1.0333339 -0.08557262 0.29754162 -0.47273216 -0.13968611 -0.09983964 -0.8596049 -0.7502713 -0.007174149 0.68968314 0.12990244 0.54345256 -0.58879745 -0.25067124 0.77441627 0.3410101 -0.16556981 0.20177825 0.47226197 0.15869099 0.099686086 0.41984907 0.23638503 2.1009963 -0.07429898 0.28986725 -0.8885254 -0.15139207 0.46200308 -0.17024514 -0.36724922 0.34558642 0.63212246 0.06629445 -0.29709244 0.3023439 -0.19206284 -0.62563485 -0.812652 0.06218639 -0.39424136 -0.060746353 -0.120818235 -1.1697502 0.6531433 -0.27371928 0.5020804 -0.16155003 0.74836963 -0.025487263 -0.08271598 -0.47325274 -0.15141767 -1.0606905 0.013156714 0.2064636 0.4182632 -0.22094108 -0.11429267 -0.10476971 -0.1375986 0.28387153 0.36757934 -0.19896753 -0.025233895 0.50879925 0.17939958 -0.17950696
3563 -0.12976003 -0.10036781 0.6344471 -0.48685476 0.19510765 -0.25778547 -0.21665291 -0.062939145 0.10799025 0.56250626 -0.105012275 0.041244917 -0.45898664 -0.24210894 0.06861083 0.23623584 -0.6432374 0.11445905 -0.29511973 0.026743522 -0.045679115 -0.06485569 0.15292554 0.26848897 -0.121185504 -0.023162095 -0.27503434 -0.38902408 -0.33064958 -0.12082602 -0.3661245 0.34800467 -0.7550523 -0.35796228 -0.29434058 0.046812046 0.1824018 -0.63904554 -0.23408003 -0.3462635 0.25433138 -0.11614974 0.47444794 0.10866194 0.61785823 0.044313964 -0.25624618 -0.10682803 -0.011217829 -0.17528693 -0.04291901 -0.2939233 -0.15522681 0.08005206 0.042219426 0.20233479 0.571624 0.05177261 -0.06243618 0.4087163 0.15805736 0.090423785 0.08063594 -0.31970048 0.15766586 -0.32485405 -0.328731 0.1793828 0.08095342 0.41477817 -0.10445282 0.042237084 0.014381968 -0.17680264 -0.25961828 0.028865127 0.41825095 0.27368158 0.52100414 0.32319745 0.0018888619 0.18399069 0.33462462 -0.7228644 0.069379084 0.20239553 -0.20575191 -0.950529 -0.15303105 -0.15262997 0.32103917 -0.11756039 0.061879076 -0.3448361 0.041525118 0.5587638 0.18925528 -0.1792026 0.055376243 0.049722258 -0.20393637 -0.113101326 -0.108624585 0.18791854 0.7035945 0.012853406 -0.21523851 -0.7443512 0.10362623 -0.37871414 0.42405796 -0.45967335 -0.13389336 -0.23084693 -0.007504464 -0.22744615 0.08459826 0.20496257 0.18380454 0.51472336 0.492804 0.25297558 -0.15186785 0.49811742 0.08811947 -0.023868792 -0.28863725 0.18079303
248634 0.41338894 -0.44838378 0.8044599 -0.33927533 -0.5380699 0.30122757 0.09168775 -0.29645625 0.42291963 0.2277001 -0.445146 0.02596616 -0.30808374 0.09376344 0.17793876 0.282912 -0.19416392 -0.02097362 0.13889073 0.4637591 0.6062375 -0.32029182 0.2878721 -0.28429216 0.23684615 -0.14458975 -0.1412225 -0.91088694 -0.2326508 -0.48989087 -0.24118556 0.35743955 -0.3060534 0.40567437 -0.049554333 0.10391746 0.20723069 -0.59378624 0.19818994 0.11382802 -0.53911936 0.26955116 0.110804975 0.14785284 0.19480863 -0.3323792 0.6178047 -0.2435335 -0.06247968 0.55902296 -0.41887322 -0.6461269 -0.41534132 -0.029763414 0.51633954 0.36206698 0.8829947 0.31747222 0.4684413 -0.06475125 0.37514645 0.24535583 0.30115676 -0.33866885 -0.3869911 0.5527843 0.081852615 -0.2970742 -0.12061442 0.48670256 0.5373272 -0.17967217 -0.86365575 0.8591093 0.114280574 0.31366426 0.62585413 0.23407097 0.14799142 -0.025663497 -0.26240233 0.21986663 -0.19125381 0.16680203 0.32457936 0.081889234 -0.072160214 -0.41432297 -0.32647333 -0.5369796 0.10060231 -0.942216 -0.3142459 0.0922037 -0.083698496 0.14985703 0.08851063 -0.28089938 -0.40027025 0.4061893 -0.68057513 -0.11487233 0.47064435 -0.21006109 0.8496263 -0.49681255 -0.006385155 0.15038332 0.33954835 0.31849137 0.23231626 -0.120902166 -0.46970177 0.11564738 0.43070418 0.540045 -0.60589796 0.6670111 -0.18407197 0.1965372 0.84149575 0.011337622 0.05368087 0.07236879 -0.27045602 -0.5335327 0.1116084 -0.3221841
9136 0.6271113 -0.24783956 0.33848637 0.28512806 0.33894902 -0.54732186 -0.09400441 0.28467402 0.19339865 0.21292076 -0.47165492 0.02070586 -0.105865255 0.17984213 0.21754207 0.020547416 -0.10995936 -0.54219824 0.015793027 -0.26532125 0.5183247 -0.5966442 0.19215146 -0.20806658 0.7685002 0.2857502 -0.22220415 -0.48652038 0.2744026 0.28349116 -0.1998754 0.3723215 0.06971071 0.16211583 0.33905333 -0.07160788 0.5058007 -0.23101342 0.1364222 0.23455416 -0.06989832 0.60006034 -0.15580222 -0.028490549 0.08169561 0.18396318 -0.31246835 -0.07552354 -0.040198162 -0.24593143 -0.20290327 -0.37684625 -0.010610359 0.2181429 0.14031063 0.14022593 0.49924815 -0.11287018 -0.06253823 0.12897271 -0.10958612 0.1117641 0.10920039 -0.3664873 -0.21724804 0.37494847 -0.18615243 -0.33403078 -0.24078006 0.4119628 0.30308422 -0.039027464 0.048718303 0.43727896 0.08690681 0.27423975 -0.08119902 0.5172357 0.17041214 -0.28406724 -0.15187731 0.6215837 -0.20286646 -0.07485407 0.0870573 0.15055923 -0.095256515 -0.69369596 0.17042743 0.19377226 -0.10540747 -0.798683 0.15628155 0.098244086 0.07068199 0.1503484 -0.11093409 -0.7404379 -0.060288817 0.024266893 -0.8130323 -0.019503456 0.21869324 -0.30228814 0.20666465 0.41835147 -0.22464631 0.03754141 0.13297918 0.1651102 -0.1477138 0.13257723 -0.322294 0.30168504 0.057099115 -0.012359341 -0.1161068 0.65703815 0.22294164 0.21066909 0.7268846 -0.024926564 -0.10020087 0.06315549 -0.010720542 -0.59704196 0.0627476 -0.6375144
5395 0.10014731 -0.28059688 0.08922329 -0.31615853 0.085781746 -0.8203418 -0.024290435 -0.21123986 0.44831824 -0.28996658 -1.4537493 -0.018518979 -0.16367365 -0.10299137 -0.34260854 0.6990303 -0.95000976 0.1688028 0.34273005 0.15298656 -0.037058808 -0.114775114 0.09963145 0.08498966 0.5875638 0.21187931 -0.2754359 -0.61818635 0.17326257 0.32248983 -0.7378255 0.48065886 0.18986022 -0.4278103 -0.47196433 -0.07631863 -0.39177647 -0.65706193 0.0853395 0.022192972 -0.22436112 0.008526969 -0.46592626 0.05884194 -0.25951442 0.043334603 -0.9499509 0.54760075 -0.106428914 -0.3088407 -0.5790923 -0.51617175 0.25060624 0.3062648 0.07034909 -0.094242506 0.12882078 0.20348102 0.52288836 -0.060728464 0.37476686 -0.07430423 0.09027612 -0.51385 0.094574444 -0.22046776 -0.20682889 -0.10301353 0.46408838 -0.12635407 -0.18750398 0.11980981 -0.16271377 0.21747991 -0.72561866 -0.07385944 0.40138534 -0.31078145 0.5465634 0.003470538 -0.004076821 -0.6063907 0.2609582 -0.16956133 -0.80364764 -0.18311079 -0.32406333 0.12824969 -0.7170603 -0.0764383 0.18505952 -0.46873033 -0.45579815 -0.42547283 0.48885623 0.0036413001 -0.24018991 0.13982584 0.078511536 0.08959838 -0.11310104 0.08408101 0.01599444 0.07793097 0.7286635 -0.2888911 0.012601396 0.28344613 0.56550944 0.06664425 -0.26640046 -0.36958134 -0.15651962 -0.118821904 -0.23919737 0.15771262 0.7440169 0.23529448 0.19534351 -0.11343333 0.26433933 0.01221692 -0.35378087 0.122059844 -0.09336029 -0.7444897 -0.15803283 -0.10960319
4792 -0.30656326 0.047559343 0.14380167 0.32653132 0.80294925 0.678279 0.33247346 0.19476819 -0.13329424 -0.48251855 -0.34554332 0.42741993 -0.18875898 -0.20415851 0.15706082 -0.2830256 -0.3120456 0.69777405 -0.5665607 -0.019348145 0.090881675 0.094029196 0.45345107 -0.04331105 0.10737882 0.20178838 0.4847036 0.37377456 0.078617215 -0.0044600535 -0.3955735 0.17433587 -0.18724246 -0.32977784 -0.3089977 0.13207531 -0.13587105 0.20079105 -0.5227644 0.064360514 0.2079841 -0.21043053 -0.2956979 -0.1162385 -0.6313611 -0.13245524 -0.20233372 -0.58914113 -0.11378585 0.5074117 -0.1801092 -0.5294334 -0.6906893 0.10563922 0.35984674 0.1084112 0.18175647 0.33882377 -0.0841342 0.407622 -0.06697279 -0.051651563 0.39783803 -0.66516715 0.02555198 0.22213145 -0.23393394 0.09368139 0.3077256 0.4386209 0.24245517 -0.39736265 0.32188338 -0.17541666 -0.32075962 0.3605591 -0.3063884 0.13175881 0.12255472 -0.058429506 -0.14821458 -0.15264153 0.68266463 0.33250225 0.17723404 0.49015528 -0.21654813 0.02950557 0.10048051 -0.5403863 -0.1077234 -0.86213595 0.20788583 -0.37040392 -0.42548022 0.5469619 -1.0539435 0.1263443 -0.034956194 0.116654925 -0.30129558 0.12230454 0.49983427 0.16747354 0.178753 -0.05853066 0.17988566 0.48803955 -0.07016446 0.11405991 -0.05417645 0.26727653 0.09298858 -0.38279182 -0.31717846 -0.025184229 0.3970746 -0.38779345 0.10593228 0.40616772 -0.048134252 0.18067278 -0.053181928 0.11856912 -0.26963818 -0.4312334 0.5860559 -0.2835727
1632 0.18266681 -0.2990566 0.33451867 0.44713393 -0.18476029 0.18893737 -0.33866975 0.43649676 0.27622166 0.32660425 -0.034929745 -0.35971588 -0.1648858 -0.30648574 0.0074373838 -0.23463212 -0.2434055 -0.45549875 -0.095800325 0.27565148 0.31902593 -0.024778383 0.100472376 0.12925196 0.3893586 -0.21882191 0.04526427 -0.17092013 0.21959984 0.3476402 -0.48956275 0.089811705 -0.08174971 0.26418892 0.034198686 -0.08980699 -0.08447899 -0.21319777 0.3091479 0.029126354 -0.40265432 0.1790854 -0.37740415 0.35754824 0.47917077 0.013725228 0.010559268 -0.4153851 -0.13901016 -0.08986782 -0.5703786 -0.6935045 0.11708431 0.462688 0.4871117 0.15392576 0.47059926 0.45521522 0.2559764 -0.3124396 0.3109935 -0.14834312 -0.38529515 -0.62965626 -0.41955158 -0.27098835 -0.54465413 -0.29611316 -0.35347828 0.50362843 -0.0250569 -0.31344286 0.37374178 0.5827799 0.31766745 -0.026683837 0.30448 0.068117686 0.25223517 -0.4091732 0.04271627 -0.013505887 -0.05208987 0.18857864 0.35841838 0.14793813 -0.54291767 -0.4868427 -0.23648949 0.32399133 -0.016929094 -0.4286892 -0.080652595 -0.21796614 0.14454873 -0.27536204 -0.62856185 -0.5165363 -0.8593587 0.18164149 -0.6166014 0.06090187 0.019086313 0.2844832 0.79094386 -0.014786487 -0.25392845 0.15570033 0.37898597 -0.24931097 -0.24493453 -0.2140031 -0.24601905 0.24040647 -0.28015223 0.012793365 -0.041864697 0.09535616 -0.39229128 0.7256522 0.29925847 0.30533916 0.20831801 -0.016388942 -0.23962285 -0.021293413 0.26147878 -0.19469148
5291 0.2639509 0.26105216 -0.2047993 0.375967 0.46455273 -0.18093716 -0.16168308 0.46350303 0.71723396 0.0711063 -0.37425807 0.08804659 0.15271378 -0.39754367 -0.595339 -0.34938973 -0.06756452 0.47858867 -0.1282128 -0.13745871 0.060810767 0.05970468 0.1426898 -0.20418131 0.5062831 -0.07911006 -0.58979 -0.44378516 0.34116453 0.1995846 -0.45807755 0.67056906 -0.3223997 0.36440668 -0.09168307 -0.16892411 -0.33827105 -0.23880689 0.24333122 0.20981494 -0.53616714 0.43768847 -0.7373324 -0.27612117 0.7663789 0.145547 0.11868985 -0.39086208 0.11930895 0.13078919 -0.44961923 0.020560814 -0.34605905 0.5443388 0.1958296 0.2075648 0.18125917 -0.0638635 0.37329918 -0.04517963 0.5482206 0.6555145 0.6704188 -0.8821387 0.35551795 0.6250319 -0.58020806 0.006392809 -0.67718714 0.16030131 0.63090974 -0.043213498 -0.70301276 0.52762973 0.48033294 -0.1954485 0.056489617 0.33796194 0.068891674 -0.03183309 -0.008634785 -0.57398504 0.5412415 -0.1516753 0.1303093 0.05909465 0.14687495 -0.180219 -0.052014757 0.14237069 -0.047019407 -0.59293485 0.6007314 -0.5357224 -0.32501194 -0.55494934 0.33123687 -0.28032258 0.00713412 0.2746346 -0.32147577 0.004608491 0.7100131 0.46555918 0.60291946 0.13394643 -0.57320493 -0.20819667 -0.1202863 -0.2347307 0.37263024 -0.20079869 -0.54865927 -0.022023994 0.16286497 -0.44054207 -0.47975397 0.19504648 -0.77061784 0.45905134 0.44251743 0.05420354 0.64559954 0.15845086 -0.8752233 0.081722565 0.47298646 -0.41411874
18957 0.090478994 -0.27938944 0.31206092 0.45121822 -0.12051858 -0.031473596 -0.2994276 0.5117677 0.2932282 0.10413301 -0.07301596 -0.24920566 -0.31192616 -0.40038702 0.07781778 -0.19919401 -0.058242343 -0.5729496 -0.12821752 0.37366304 0.3077566 -0.008359725 0.09740685 0.14769171 0.41739002 -0.188736 0.01564252 0.07996192 0.27463618 0.4625554 -0.4964283 0.07036286 -0.23497093 0.41115057 0.18996617 -0.13446264 -0.04710731 -0.16189699 0.48619738 -0.023392633 -0.66247654 0.1430427 -0.37082517 0.3652044 0.37549585 0.16599376 0.01464374 -0.20322143 -0.013028018 -0.18067558 -0.38088018 -0.6073909 0.089423314 0.26168084 0.38279033 0.17929743 0.67014337 0.4262404 0.37679356 -0.21448676 0.44093513 -0.22804448 -0.2663932 -0.5989187 -0.25625283 -0.11468847 -0.3185829 -0.091879636 -0.5804031 0.49441722 -0.070319325 -0.4683201 0.36925736 0.6593946 0.05439296 -0.1286515 0.28151372 0.2510685 0.067996874 -0.4185591 0.03201377 -0.09400011 -0.06292691 0.28081954 0.3390735 0.16229837 -0.86371106 -0.48371917 -0.11524058 0.29596135 -0.11041578 -0.2543918 -0.07359522 -0.29103422 0.1138911 -0.06291517 -0.6285114 -0.60484457 -0.670411 0.18679914 -0.68140244 0.0030983929 -0.12305975 0.28823128 0.9551361 0.09186543 -0.34244633 0.1633702 0.3119553 -0.28592408 -0.0985069 -0.17383067 -0.37083074 0.42129034 -0.20056273 0.112575665 0.07668105 0.094546065 -0.49190518 0.6701781 0.31708583 0.28561842 0.5019332 0.06400616 -0.6133571 -0.06334921 0.3879976 -0.4766144
13382 0.986985 0.18577375 0.19244727 -0.05452456 0.53647655 -0.37312606 -0.29888347 -0.5457549 0.38303244 0.75535446 -0.34576303 0.35443076 0.3119197 -0.08076509 -0.21939048 -0.026732907 -0.0025194606 -0.98608494 0.023874268 -0.25501898 0.13283545 -0.45341623 0.2776639 0.020622216 1.1801307 0.4039767 -0.13382839 -0.9515431 0.1382604 0.25020376 -0.15238018 0.67463756 -0.089233786 -0.1625236 -0.018435711 -0.18321636 0.52387595 0.040164515 0.1581681 -0.14728515 0.3435831 0.56823707 -0.28994763 0.20607524 -0.72519207 0.07006542 -0.46701506 0.13932014 -0.1626809 -0.18035628 -0.6068397 0.5513692 -0.12963744 0.132671 0.19016854 0.47504976 0.7040223 -0.0578424 0.121049345 0.40840483 -0.33163026 0.08993198 0.48773953 -0.4858461 0.2686343 0.23474087 0.47501644 0.2927724 -0.19612023 0.1202803 0.20007965 -0.3011983 -0.54936916 0.88522226 -0.45673946 0.524197 -0.06312225 0.58900154 0.5369746 0.16194725 0.46794862 0.3271647 -0.15343164 -0.07480742 0.5069015 -0.31969354 -0.8896637 -0.48668405 0.0148109505 0.33454183 -0.50405437 -0.7194937 0.5804298 0.13470325 0.25365266 0.15816145 0.09173685 -1.064018 0.17381899 0.07840751 -0.3103335 0.3743467 -0.04689338 -0.47356898 0.9720112 -0.168201 -0.5186391 0.3325437 0.280191 -0.14166711 -0.040768065 0.033522896 -0.5881163 -0.09643087 0.013041209 0.185726 0.14039314 0.07387942 0.6130873 0.112127915 0.8547918 0.89149815 0.36292103 0.07209745 -0.20580693 -0.10554274 -0.35873595 -0.26445252
17532 0.67343587 -0.25194198 -0.08308258 0.38129506 0.43462273 0.25242063 -0.3215912 -0.04709216 1.0667003 0.08836811 -0.2539223 0.3072101 0.20870426 -0.7222216 -0.5641665 -0.45436046 -0.0063377535 0.9058091 -0.0005182148 0.05766065 0.24369316 -0.16255973 0.0715084 0.17060599 0.7622706 -0.25916237 -0.31725258 -0.5038436 0.115175106 -0.10350024 -0.16107571 0.18203302 -0.24512607 0.23961622 0.089628845 -0.092510045 -0.3927658 -0.32141376 0.043248218 0.20817396 -0.507352 0.10976269 -0.6057146 -0.36363488 0.88544977 -0.038790945 -0.20532234 -0.24715143 -0.48264766 -0.28588137 -0.35001427 0.677213 -1.1550256 0.44529378 0.39047495 -0.10479315 0.39373878 -0.065895475 0.37297344 -0.14931223 0.6842693 0.8647941 0.6469186 -0.8355704 0.39816582 0.61069536 -0.5020563 -0.08486396 -0.61455375 0.41715592 0.96301615 0.08857862 -0.64054626 1.0285026 0.0537988 0.08607416 0.04968118 0.52047956 0.024022602 -0.082026266 -0.35683373 -0.16598693 0.29651293 -0.50526893 -0.003812804 0.015586659 -0.49226347 -0.54752856 -0.13357109 0.25965193 -0.07684729 -0.046319515 0.5466799 -0.8340668 -0.8604094 -0.3404277 0.22879636 -0.005971499 -0.29126716 0.15467177 -0.07622027 -0.13159302 0.8735766 0.17226797 0.58458436 -0.41617018 -0.8125775 0.2435468 0.27978745 -0.27152333 0.5038301 -0.22162768 -0.560331 -0.2586441 0.19979334 -0.3461194 -0.6411598 -0.15169106 -0.69507617 0.28275868 0.5983178 -0.25131804 0.69504774 0.10407132 -0.5822215 -0.23507537 0.7231348 -0.12561996
19720 0.10636601 0.22329035 -0.33786556 0.011446959 0.6297948 0.41134536 -0.30883113 -0.33922777 0.2784786 -0.87635696 -0.4702584 0.3704276 -1.042089 0.07517857 0.18197864 0.4192141 -0.7380417 0.34925982 -0.17680928 -0.51682293 -0.18059668 0.13726328 0.04358114 0.26821315 -0.43689033 0.9735865 0.26499364 0.33029148 0.8874435 0.124980435 -0.16491131 0.0731559 -0.20081325 -1.0810643 -0.2319506 0.296551 -0.3207902 0.5750114 -0.6081751 -0.7740152 0.34278426 0.881286 0.04943072 0.061502595 -0.6468397 -0.2834158 0.124386944 -0.67338145 -0.14170161 1.2729397 -0.52962327 -0.30473658 -0.27393252 -0.12498026 0.8888647 0.7871547 0.48860303 0.27510992 0.29062775 0.2962229 0.33050022 0.3239418 0.6194326 -0.9718011 -0.9315609 0.4739352 -0.25081998 0.2102185 0.14236245 0.8999356 -0.06639201 -0.14848006 0.52174896 -0.1459263 0.13605689 0.023250198 -0.09945897 0.16623338 0.36391327 -0.36477515 -0.21544728 0.43977273 0.34274265 0.4235355 0.63306546 0.46167937 -0.327118 -0.405656 -0.23557158 -0.22346143 0.44622782 -0.013085674 0.30725202 -0.49294385 -0.36318505 0.21926303 -0.72259957 -0.21894923 -0.09789463 0.045426283 0.18844494 0.50997514 0.04846658 -0.71142936 0.6427825 1.3105206 0.23303063 -0.29276374 -0.47473434 -0.47416434 0.17144924 0.42967916 0.49015757 -0.03866201 -0.46364337 -0.029344957 0.048009172 0.06124922 0.11099663 0.49767935 0.6120361 0.10288349 -0.24224429 0.8067384 0.13856497 -0.45754647 0.9435114 -0.28205365
6841 -1.8167318 -0.34931836 0.23084489 0.6510058 1.11535 0.5920728 -0.047241483 0.36461896 0.34067395 -0.038101602 -0.9063884 -0.3703177 -0.6837027 -1.1025904 0.3564747 0.39816272 -1.7882831 1.0415328 -0.15492934 -0.34173563 -0.048724633 -1.4744866 0.9606043 1.3383232 0.47027487 0.4946727 -0.3133438 0.023848364 -0.99042815 0.49317256 -0.7375649 0.9134343 0.12021095 0.24134728 -1.4242395 -1.5074141 -0.6724401 -1.1645846 0.31701058 -0.6566012 -0.06962269 0.8561403 -0.0051304195 -0.34936157 -0.3356599 0.24100694 -1.2888379 -0.3733788 -0.70246947 -0.539014 -0.8595845 -0.25236374 -0.3478623 -0.9443928 1.0121062 0.5493261 -0.62552387 0.22194439 -0.10711142 0.7396759 0.37663096 0.8664035 -0.7312107 0.2964682 -0.88400185 1.8596253 -0.0040755467 1.3060563 -0.31666085 0.67648506 -0.21578492 -0.0046829106 -0.28794155 -0.5382473 -0.56476456 0.017693495 -0.20122029 0.5644152 -0.87269664 -0.7216748 0.044382483 -0.71733123 1.1808623 0.2547129 0.8337373 0.25040472 -0.39330572 -0.3864097 -0.8650197 -0.19999999 0.44454953 -0.36517176 0.46514204 -0.6536635 -0.5297667 -0.3806468 -0.61916816 -1.0235262 -0.23469709 0.68196815 -0.77661175 -0.022024872 0.21740013 0.8834044 1.0713922 0.11043736 0.34731776 -0.7328914 -0.5674173 0.26625705 -0.16917747 0.8022721 0.4015954 -1.0816004 -0.5106584 -0.20209955 -0.17167541 -1.1449301 0.37251988 0.41848016 2.038609 -0.028013207 -0.4747038 0.21535948 -0.44096047 -0.14562008 0.29775247 0.052422296
15360 -0.28145736 -0.42585257 0.44257423 0.014074208 0.34495944 -0.18825404 -0.5508445 0.09073195 0.5538352 0.26376358 -0.47056437 -0.20665173 -0.08822961 -0.2899404 0.034397904 0.6114448 -0.8399251 0.15122956 -0.03753589 0.34457615 -0.12684539 -0.27102634 0.22837329 -0.021920929 -0.10924308 -0.18142502 -0.18628272 -0.436908 -0.4003899 -0.21445692 -0.57948476 0.22690265 -0.63741255 -0.24812484 -0.38970658 -0.0723493 0.016246388 -0.4190742 -0.36411315 -0.21988855 0.10073225 -0.52415997 0.6273449 -0.1991956 0.62287855 -0.23596223 -0.4683324 -0.11919489 -0.31901753 -0.42165688 -0.003061177 -0.4899283 -0.03776544 0.03836456 -0.25083244 0.13337442 0.037700716 -0.22487211 0.34819773 0.43067896 0.20991717 0.069396816 0.18195908 -0.1828515 0.2579592 -0.38688397 -0.42330688 0.44961646 0.27623355 0.16521889 -0.29946083 -0.047118656 0.047447234 -0.038335837 -0.11376399 0.027828332 0.3373782 0.36133236 0.6114017 0.6928176 0.21702467 0.74447864 0.4651515 -0.32334456 0.27005777 0.26034117 -0.24393111 -1.2779139 -0.05544708 0.04584838 0.5080233 -0.070317194 0.19778599 -0.2499036 0.10903207 0.5047204 -0.15422398 -0.12583631 0.03483492 -0.07643097 0.17130211 -0.08390887 -0.060023468 0.1454242 0.8134977 0.032312702 -0.15231982 -0.8378098 0.2897602 0.11281436 0.4697198 -0.37533227 -0.34090322 0.09852406 0.25699094 0.21561958 0.22610568 0.45102075 0.1309229 0.31036475 0.33410987 0.2612271 0.038104594 0.49108404 -0.0716696 -0.23250902 0.07038007 0.30472684
1016 -0.13396421 0.2094599 0.40131283 -0.025664294 0.47948325 -0.18463777 0.08243441 -0.60133284 0.41913515 0.12331552 -0.7274675 -0.36724043 0.79797125 0.21698447 -0.12891002 0.15740228 -0.38381022 -0.0003733528 -0.1678987 -0.08387446 0.30319124 -0.37191105 0.055627726 -0.15619245 -0.25886 -0.041812945 -0.2759824 0.2901227 -0.4515997 -0.023465298 -0.14934792 0.19760951 -0.41136777 0.27343404 0.05580356 -0.67016786 0.15398961 -0.6825667 -0.4228225 -0.34608427 -0.5126634 0.8577387 -0.3966156 0.113192216 -0.12447644 0.34198052 0.015006183 -0.5723375 0.112769336 0.15779625 -0.36794922 -0.3673069 -0.120106824 0.10944595 0.40726694 0.18959643 0.45187703 0.42831865 -0.054256584 -0.69356376 0.44676092 -0.3216178 0.18622075 -1.1290636 -0.08897896 0.13550106 0.11162006 -0.2664885 0.18367381 -0.24139446 -0.09090366 -0.21318777 -0.113561675 0.5981646 -0.19302824 -0.2195127 0.009956786 0.15375136 0.43110117 0.19246675 0.20880322 0.1719112 0.08794821 -0.12600845 -0.19296974 -0.25133544 -0.4195895 -0.9434666 0.10132267 0.052536115 0.43557706 -0.39279306 0.11123727 -0.20675437 -0.24894457 -0.019569192 0.23742852 -0.3303034 0.016898144 -0.5602199 -0.20105502 0.20272247 0.37653577 0.47617143 0.14899163 0.19443543 0.10244514 0.09219176 0.31093067 0.19158542 -0.02032723 -0.18739507 -0.49074048 0.3975235 0.049051963 0.5804263 0.5053879 -0.54710215 -0.2730915 -0.4059443 -0.02175896 -0.0087724095 0.31522998 0.8552166 -0.22410104 -0.35141015 -0.5043035 0.08941838
1331 0.45315123 0.28505668 0.2268837 0.77045935 0.7065897 -0.4928466 -0.3777708 -0.25982615 0.9194964 0.3963375 0.05893707 -0.2869513 -0.12770885 0.22282062 0.02536761 -0.485312 -0.881111 -0.14321016 -0.230881 0.120076776 -0.1406139 -0.16928346 0.5359836 0.33153504 0.43737516 0.13724877 -0.104893535 -0.11459169 -0.08703989 0.16920866 -0.13340563 0.33682647 -0.36698523 -0.42361847 0.16340381 -0.13989064 0.25589925 0.004132866 0.06598972 0.010162824 0.0790097 -0.056868788 -0.13315955 -0.5395655 0.5525172 0.12641957 0.044581685 -0.4225411 0.2816432 0.4886761 -0.6659785 0.17018005 -0.4511542 0.30320147 0.41314548 -0.611233 0.49725318 0.35311627 -0.06665841 -0.009938289 -0.14309716 0.41587862 -0.051788215 0.080572404 -0.4008235 0.2535017 -0.40279138 -0.6252521 -0.38144875 0.40027896 0.32700193 0.12953958 -0.09907236 1.071573 -0.3025037 -0.02424875 -0.24115881 0.4128157 -0.23568183 -0.06774526 -0.26043642 0.10505744 -0.25579402 0.9010238 -0.5481611 0.073939584 -0.78500915 -0.1749117 -0.1937446 -0.2014643 -0.33363625 -0.28452682 -0.056002088 -0.655328 -0.4026686 -0.15498103 0.12587856 -0.04554554 0.11579598 0.0372039 -0.16080858 0.30911544 0.3762836 0.067350045 0.71702737 0.21892487 -0.4327869 0.027368367 -0.007724006 0.72716594 0.70399565 -0.07243706 -0.41126776 -0.18424189 0.22055317 -0.13869376 -0.09038568 -0.24626578 0.15100789 0.5269645 0.47451645 -0.33935073 0.0942469 0.3665141 -0.3434499 -0.29327148 0.45420521 0.026804864
11255 -1.7872939 -0.4170292 0.25209013 0.64831555 1.1353712 0.6314119 -0.039787617 0.35603994 0.29971847 -0.031876255 -0.947534 -0.42702413 -0.75362355 -1.1681385 0.31042996 0.42411157 -1.8399037 1.1393459 -0.10594294 -0.301811 -0.009251737 -1.5632392 0.93504095 1.2990587 0.45649973 0.4801228 -0.23741367 -0.010648358 -1.027604 0.5464819 -0.70748246 0.9132252 0.12150398 0.23114844 -1.471841 -1.4548212 -0.6990485 -1.1467698 0.23079905 -0.7151751 -0.0506404 0.8543795 0.060474172 -0.32925957 -0.38029516 0.27369094 -1.2713802 -0.37552714 -0.73647034 -0.55825096 -0.87179005 -0.18755284 -0.41171703 -1.0029851 1.0524844 0.4874574 -0.5359194 0.25594175 -0.1179042 0.7519935 0.36733174 0.9282177 -0.7791791 0.3425202 -0.9017292 1.9458895 -0.03238455 1.3166009 -0.37364843 0.6532897 -0.11387981 -0.034065973 -0.36152402 -0.5340046 -0.5748776 0.043068074 -0.14381608 0.5792175 -0.7563308 -0.8225808 0.13642439 -0.7984136 1.149486 0.28079867 0.8586817 0.27499387 -0.45121574 -0.45222375 -0.94614077 -0.16985494 0.44417462 -0.28783965 0.50269383 -0.7242946 -0.561399 -0.3801182 -0.5752332 -1.0460562 -0.30437708 0.66360617 -0.8083747 -0.023333382 0.21222182 0.88214785 1.0758182 0.034063537 0.32481664 -0.76319736 -0.5265299 0.21580707 -0.10032607 0.7920626 0.41402844 -1.1593072 -0.72623056 -0.2103124 -0.122821614 -1.0835785 0.30529886 0.39672586 2.0378387 -0.0033793163 -0.59317344 0.2168841 -0.5668183 -0.11204867 0.32440212 0.050080087
2911 0.35785943 0.04395956 0.3911222 0.2581486 -0.12621306 0.16731536 -0.08315288 0.14430813 0.44911242 0.105832495 -0.10528557 -0.3521804 -0.1782705 -0.2556847 -0.0561481 0.07474256 0.14750333 -0.093187325 -0.044687 0.06166089 0.58006203 0.11158984 -0.02074745 0.042436153 0.43108156 -0.5498548 0.09612187 -0.27382055 -0.07322539 -0.1286688 -0.22656891 0.3970574 -0.00799453 0.4676067 -0.12571025 -0.270517 0.17702019 0.06287837 0.03981981 0.43863478 0.1587252 0.5320667 0.23280223 0.3193513 0.17868756 0.23948844 -0.20178927 -0.31173375 0.04188083 0.19969474 -0.64538294 -0.2629638 -0.22008492 0.27626476 0.70418596 0.38967642 0.6981428 0.123467974 0.26014423 0.0041500432 0.0806517 -0.1310836 0.13571134 -0.20960623 -0.25218263 -0.077382766 -0.17686626 -0.61661583 0.06721866 0.28268987 0.10043458 0.0717792 -0.24588452 0.6923032 0.5272915 0.08350264 0.051708397 0.2538408 -0.08129839 -0.17118771 0.32094485 0.09942675 0.13806342 0.14384396 -0.09970913 -0.2183991 -0.11541401 -0.77442896 -0.39714047 -0.04127121 0.11407616 -0.41960144 -0.4838272 -0.1932698 0.30823183 -0.21691412 -0.28700683 -0.27657098 -0.45590824 0.14052631 -0.37058905 -0.14687584 0.12867713 -0.11150817 0.53786814 -0.03971244 -0.06507265 0.26844487 0.28574046 -0.2971324 -0.10495418 -0.0029201007 -0.39557448 0.54936856 0.23907824 -0.047989428 -0.35549405 0.22188744 -0.22940923 0.48167735 0.15164568 0.2367112 0.4531481 0.2631964 -0.11959567 -0.20819858 0.2169655 -0.021872427
25296 -0.24945982 0.08452294 0.5172918 -0.0026228596 0.5746506 -0.38832504 -0.030366283 -0.086004116 -0.46755585 0.062799916 -0.0776279 0.032474864 -0.16195981 0.05009564 0.26747626 0.21338159 -0.03477901 0.19111677 -0.15503713 0.17434992 -0.19918042 -0.16594341 0.3852549 0.53964585 -0.18849087 -0.007140956 -0.71650165 -0.12401156 0.8612542 -0.2877638 -1.015985 0.60947216 -0.34143 -1.0688677 -0.28454572 0.05520541 0.6383092 -0.29977274 -0.67574215 -0.51506704 0.5850303 0.19936232 0.3494694 -0.23501678 0.3919194 0.038077906 -0.36757997 -0.70108557 0.39491105 -0.2775256 0.18896388 -0.24263857 0.22975083 -0.1869175 0.17415902 0.25410956 0.34366605 0.6472239 -0.007625053 0.5175137 0.47747484 0.006925802 -0.062096853 -0.12797911 -0.0322831 -0.88185894 -0.6140372 0.3839609 -0.1286741 0.25150314 0.49582553 0.18728866 -0.6828156 0.4937573 -0.23910768 -0.19167365 0.16751434 0.5188273 0.27564225 0.049439855 -0.35280827 -0.18122406 0.012441491 -0.88092047 0.011036467 -0.102815896 -0.47134018 -0.46537882 0.054064855 -0.32766244 0.16070941 0.10272438 0.041993342 -0.4385489 0.09965187 0.5462525 -0.24892144 -0.13089935 0.12414905 -0.14610179 -0.287565 -0.41096324 -0.004049058 0.92666084 1.3570145 -0.4479759 0.08376217 -0.89812446 0.5682265 -0.2943744 0.07633134 -0.63217896 -0.2537894 0.061833147 0.6218677 0.2257028 0.67170453 0.34828883 0.1858318 0.42447 0.74189705 0.4590469 0.47901803 -0.002496395 -0.18698211 0.31562006 -0.009539315 0.13985355
14277 -0.40236485 -0.19341978 0.111097224 -0.11561886 0.51081985 0.4554014 -0.010982625 -0.41029316 0.05026093 -0.44667706 -0.021784566 0.24339353 0.15759857 0.53838426 0.4437513 -0.29412234 -0.36111712 0.43612766 -0.17201114 -0.111943364 -0.19846894 0.10126922 0.5843025 0.02656082 0.2163701 0.4215513 0.43848398 0.16548969 0.18959326 -0.022402002 -0.1737249 0.30721256 -0.26370043 -0.3544914 -0.3040771 -0.1439582 -0.17224869 0.5641961 -0.5566944 -0.089622684 0.39206997 0.1998996 0.050134283 -0.1926564 -0.5957928 -0.22452393 -0.1884954 -0.78040034 0.18148918 0.4801025 -0.47413495 -0.45249197 -1.0306923 -0.11922343 0.10836511 -0.27216047 0.24112256 -0.36298755 0.075503744 0.18045191 0.12746504 -0.13565682 0.8977893 -0.45664477 -0.03425241 -0.18660246 -0.30070403 0.44934213 -0.05587654 1.0202589 -0.16336618 -0.69096637 0.4340574 -0.22845381 -0.49688524 -0.046004154 -0.31051546 -0.25130326 0.033085443 -0.19052242 -0.21465233 0.1628817 1.0391935 0.3050743 0.5267747 0.19909239 -0.12055033 -0.03209315 0.1933454 -0.15671675 0.52472305 -0.83162856 0.21115202 -0.30690685 -0.4366857 0.0739954 -0.9690556 0.15112245 0.13708888 0.19318211 -0.15301691 0.3439418 0.12568247 -0.40708515 0.22363172 0.303767 0.14454742 0.18742768 0.13821892 -0.37293318 0.33131436 0.19696455 0.023034357 0.07789839 -0.118461944 0.3500792 -0.24875696 -0.08868749 -0.16334623 0.23856206 0.53682613 0.46251068 -0.022370815 -0.087137766 0.09157797 0.044121016 0.359372 0.39084056
22563 -0.42785484 0.27783653 0.9020827 -0.234024 0.71885395 -0.27208787 -0.1514528 0.06441804 -0.1704851 -0.8898052 -0.46496016 0.40717882 -1.0554104 -0.32573804 0.05001116 -0.34117952 0.34985375 0.63669133 -0.60973644 0.591964 0.5244959 0.75301516 0.15170395 0.6953786 -0.4489628 0.04512985 0.23648146 -0.28260386 -0.047736347 -0.70209605 -0.5308584 0.22608186 -0.024065644 0.7102927 -0.34230906 0.2252645 0.36259884 -0.60572344 -0.83455974 0.34791926 0.581045 0.70978445 0.28177443 -0.072336964 -0.4090931 0.76279986 -0.31359315 -0.20823483 -0.3290386 0.2241565 -0.29451695 -0.54022133 0.07470321 -0.3501279 0.22683868 0.22206092 0.64112896 -0.0072931526 0.099676184 0.02205927 -1.1744874 0.46546018 -0.22300488 -0.50380075 0.1494961 0.3847791 -0.0578759 0.5223396 0.0017979043 0.25164148 -0.23514584 0.003421057 -0.036444295 0.60316086 0.45054728 0.10825634 -0.60110813 0.24343236 0.5415328 -0.122796126 -0.4580061 -0.1250871 -0.20289105 0.6463647 0.32326418 -0.456695 -0.42407593 -0.5621027 -0.37700567 -0.40057868 -0.6276415 -0.08693267 0.0777566 -0.6580446 0.18439347 -0.8860876 -0.55488676 -0.05167192 -0.3575859 -0.66150874 -0.7299781 0.11959665 0.40298107 -0.07562949 0.67774236 0.53942215 0.09132965 -0.41612694 -0.08995239 0.48933724 -0.751504 -0.07019227 0.12845357 -0.2769853 -0.37394696 0.008247066 0.018636383 -0.03871072 0.60999775 0.20410982 -0.035976566 -0.1388714 -0.011444991 -0.21132697 0.19800146 0.7014234 0.29159954 1.0650704
5111 0.33342102 0.10764104 -0.42809823 -0.6586464 0.2655283 -0.092961915 0.0033849943 -0.36734068 1.0424505 0.0063505066 -0.81553113 0.4508146 0.2890341 -0.45320413 0.24613838 -0.0021098382 -0.7482673 -0.9242472 0.03371641 0.19460413 -0.39828786 0.57751137 0.41493496 0.28495795 0.56639135 0.10758829 -0.0229841 -0.042753033 0.0788603 -0.12052865 -0.3569162 0.35449827 -0.5548487 0.31436464 -0.35488793 -0.6259848 -0.048872765 0.044312958 0.25734076 -0.16470715 0.52108973 0.95363027 -0.5190318 0.7621244 -0.1292175 -0.3896514 -0.7873408 -0.2637866 0.07028399 0.34795314 0.53234166 0.21356626 -0.8718505 0.3817219 0.65489393 0.49130002 0.65480167 0.5275463 1.1204644 0.81041384 -0.3850969 0.16681544 -0.41163254 -0.17478287 0.8275418 -0.71166205 -0.63465613 0.30107763 -0.25400233 -0.12534517 -0.4729293 0.0051966836 0.012757644 -0.3198616 0.7023613 -0.26574185 0.4836599 -0.26437855 -0.3347766 -0.035396565 -0.2416293 0.94801295 0.86710703 -0.14506397 -0.08026908 -0.16982755 -0.43686372 0.09268741 0.07572288 -0.1613756 -0.14006853 0.13108 -0.0027054725 0.10741906 -0.19441356 -0.26521528 -0.56785274 -0.08866923 -0.07280186 -0.083529636 -0.9267127 0.66499853 0.3955589 0.24455856 0.8479288 -0.29306358 -0.65210915 -0.51369995 0.47904167 0.22133307 0.22280294 0.72236603 -0.7277554 0.0018178156 0.17207693 0.0619881 -0.25692648 -0.55805004 -0.3355259 0.4711871 -0.29580742 0.21968913 -0.58824 0.43305913 -0.032778576 0.16363065 0.27050874 -0.14736758
3259 -0.70677704 -0.31366038 0.5258332 -0.5202388 0.9797966 -0.08154529 -0.7203353 0.12650125 -0.40209225 -0.41047162 -0.56345373 -0.4588644 -0.6645748 -0.2585894 0.60831547 0.31120136 -0.296796 0.5200282 -0.5978185 -0.36492053 0.6238033 -0.20501605 0.12152156 0.5501918 0.3519115 0.8154076 -0.28316513 -0.7470864 0.1482106 -0.011497557 -0.3293992 0.584153 0.78145635 0.47405925 -0.23479426 -0.309158 -0.25873837 -0.45758122 -0.18490632 0.08820974 0.44714615 0.019866241 -0.2631778 0.18915226 0.031962655 0.08732515 -0.7178604 -0.06502135 0.2611135 -0.010745796 0.34231776 0.06493721 -0.3494888 0.3945998 0.8004289 0.21429604 -0.3184582 0.38931745 -0.34997877 0.62994534 0.43918473 0.21748029 0.38490212 0.27332667 0.08017607 0.52769244 -0.33429176 0.18378028 0.11294284 -0.11356731 -0.0005195522 -0.18539359 0.11332298 -0.072574995 0.31802717 0.28391358 -0.49242583 0.2159628 -0.195906 0.28954646 0.36246067 -0.25641784 0.38751373 -0.15437916 0.2830058 -0.48497272 -0.9233525 -0.052165635 -0.16506746 0.08954524 0.2070042 -0.49432474 -0.033898167 0.62471086 -0.30051196 -0.8683519 -0.33742946 -0.3554344 -0.25458333 0.1992472 -0.8062207 -0.19714291 -0.34054706 0.28037208 0.28424585 0.39336663 0.6942688 -0.64542305 0.31258333 0.014369491 0.62332326 0.06949891 0.41444212 -0.40334737 0.3074981 0.3691108 -0.27816147 -0.6593801 0.08391642 0.25047863 -0.19644584 -0.20805153 -0.16387351 0.43574643 -0.17603424 0.027649205 -0.28397766 0.2561836
6151 -0.16925938 0.9058061 0.5369607 0.49866414 0.4496492 0.42702308 0.14639534 0.04183656 0.11190131 -0.5347767 -0.3601088 0.8074418 -0.46476078 -0.44243664 0.22285095 0.31132644 0.28030694 0.25097147 -0.1881764 0.04601778 0.5165037 0.3174962 0.10580048 0.5604642 0.20803028 0.38115883 -1.0050973 -0.07635325 -0.20678546 -0.1352194 -0.4551562 0.2814892 0.16917783 -0.23259515 -0.2296351 -0.42458358 -0.4875162 -0.36780772 -0.3808577 0.024669165 0.28017133 0.114228755 0.48607576 -0.026657708 -0.38968503 0.041169982 0.25782552 -0.27233043 -0.087767504 -0.6144921 -0.5090658 -0.09260279 0.38393638 -0.6373825 0.35260046 -0.16012293 0.34309986 0.43547904 0.63172084 -0.003743731 0.5854591 -0.030205682 -0.30454546 0.16029106 0.59752357 -0.20352197 -0.37024 0.16619052 -0.19824904 0.5909556 -0.3060917 -0.69453186 -0.6637102 -0.3145052 -0.18239549 0.1375041 0.072425395 -0.099536344 0.27601177 0.4449055 -0.20291017 -0.1321867 0.11470844 0.90804154 0.19564435 0.020260334 -0.4370814 -0.14125958 0.50366676 0.29422653 -0.22525465 -0.91492707 -0.073877685 -0.24758314 -0.31676805 -0.6775542 -0.23724905 0.20344825 -0.20556314 -0.7098692 -0.36474723 -0.17219517 -0.015155566 0.053239807 0.38404393 -0.4277037 -0.1195616 -0.069169365 -0.28848484 0.4418953 0.47847703 0.5445969 -0.102020875 -0.5124964 0.2114485 -0.26535282 -0.546708 0.21830006 0.26152873 -0.101449236 0.3482219 0.098166816 -0.4183895 0.3030807 0.3626182 0.012237924 0.27369943 0.46687886
