2182 128
452 -0.17191556 -0.17761391 -0.3091768 -0.39811313 0.26964852 -0.24659923 0.73107827 -0.56599057 0.13156976 0.5682718 -0.7307715 -0.38202813 0.23320362 0.16883892 -0.16215912 -0.046499774 -0.40596864 0.31900916 0.07366457 0.029119452 0.6408819 0.25199363 1.119061 0.46962664 -0.36727056 -0.3525763 0.32426465 -0.04187981 0.043923125 0.55624074 0.055738516 0.4254565 0.12820154 0.27521253 -0.21911664 -0.13034798 -1.0643748 -0.32646203 -0.30078593 0.06351218 -0.24104646 0.34492585 -0.77125895 0.13784486 -0.4498158 -0.07754535 -0.28143272 0.62601674 0.5583479 -0.24862233 0.13739505 -0.20342961 0.45724937 -0.060004544 -0.42313746 -0.36656612 -0.392901 -0.6407822 0.024349473 -0.04551937 -0.204324 0.049572308 -0.049531873 -0.013627083 0.052265435 -0.32319006 -0.52775234 -0.39949796 0.080755934 0.16899551 -0.14266434 -0.10208814 -0.007354165 -0.07470102 0.14783618 0.11410531 0.033309534 0.2084207 -0.3648003 0.28167212 0.16783197 0.10846578 -0.16127634 0.029004896 0.3501313 0.011354128 0.24078462 -0.23572576 -0.51985985 -0.37924713 0.042556588 0.21739808 0.5911246 0.3022051 0.016464798 0.3278114 -0.24409266 0.30056697 -0.051689588 -0.26205254 -0.029991463 -0.28913662 8.5853026e-05 0.291445 0.021409784 -0.4677155 -0.2919105 -0.43812293 -0.19199213 0.42944896 0.16814718 -0.18494354 -0.4225057 -0.6230128 0.17629656 -0.21722761 -0.14554587 0.76319826 -0.41634473 0.05542875 0.18372026 -0.06981037 -0.21688333 -0.2779521 -0.10092653 -0.60560715 0.008270922 0.9066966
2462 -0.12276274 -0.016996475 0.3243655 -0.3541011 -0.0447958 0.06852396 -0.20253271 -0.4888587 -0.3790257 0.5811286 0.20959015 -0.29651907 0.4578835 -0.04883172 -0.31955692 -0.19757296 0.3209157 0.48358032 -0.17777339 -0.24429546 0.48980814 0.083639205 0.18434626 0.18249658 0.26719716 -0.122358516 0.053789377 -0.040753353 0.028160397 0.5646285 0.40678334 0.097534135 -0.39832142 0.3444299 0.025510093 0.18727419 -0.14476587 0.014760449 -0.14715159 0.049921393 0.10890795 -0.30823144 -0.33255187 -0.33356842 -0.06082313 0.24800609 -0.009984974 0.37206656 -0.2248953 -0.06575113 0.20281862 -0.13653025 0.19726767 -0.4008233 -0.55846304 -0.53748655 0.04115116 0.31348234 0.18206035 0.26059312 0.0726105 -0.32954797 0.09697505 -0.12841874 -0.08722074 -0.5633969 -0.7679075 0.09885268 -0.46766332 0.6990469 0.110814266 -0.29592735 0.06519956 -0.1866159 -0.457178 0.022751201 -0.19272351 -0.04128466 -0.31066355 0.39090803 -0.022442324 0.19475262 -0.037310243 0.5007581 0.012717825 -0.48379174 -0.03233199 -0.20159309 0.13674901 0.040322218 -0.20289734 -0.42213085 -0.1924592 0.009949984 -0.4146805 -0.09396756 -0.5728971 -0.18080333 -0.030619688 -0.14247766 -0.5282874 0.53283155 0.22457433 0.05030634 -0.20800224 -0.5314673 0.110216975 -0.35919476 -0.07098535 0.13679853 -0.026102882 0.10268638 -0.58167946 -0.55397934 -0.3057507 0.4511197 0.1295609 0.038183954 -1.0618279 -0.12443191 0.111391924 -0.07077427 0.06672075 -0.34745914 -0.14566843 -0.5201284 -0.042785782 -0.1031644
35 0.27005133 -0.11516923 0.37093353 -0.358315 -0.0025447507 -0.22008333 -0.32125562 0.69902015 -0.2592145 -0.30462974 -0.22915097 0.5401991 0.20938735 -0.33069715 -0.16774623 -0.34467512 0.23895271 0.71992254 -0.4717748 0.6281282 -0.18658029 0.48922732 -0.6653435 0.18378586 0.2625971 -0.31328726 0.25063127 0.33416823 0.34425834 0.40092576 -0.43981844 0.027321415 0.10101951 -0.057891868 0.28187805 0.5548314 -0.5866124 -0.09563658 0.27609557 -0.80968106 -0.20570739 0.096546896 0.06724347 0.061939143 -0.42513916 -0.15376693 0.8212988 0.66130453 -0.25182924 -0.0057665743 -0.10219562 -0.36354542 -0.12351633 -0.10257888 -0.69510543 0.5064216 -0.1471811 0.28305683 0.7920335 -0.82867384 0.2094115 -0.40424216 0.2402 -0.12878068 -0.40571883 0.5344783 -0.16357964 0.03108767 0.26023725 0.26598755 0.37768328 0.15441912 -0.07815652 -1.1191379 0.25937858 -0.0904192 0.3349796 -0.76479477 0.06022749 -0.113096975 0.8600441 -0.2541456 -0.6293919 0.5324477 -0.7692372 0.1155135 0.14116609 -0.104593344 -0.0064335316 -0.05491314 0.19592944 -0.66585636 0.78624517 0.07165463 0.0700703 0.45782095 -0.15111451 0.16209121 -0.2106751 0.11387767 -0.08248971 0.29375365 0.497658 0.47950992 0.25385243 0.5938334 0.085909225 -0.30608624 -0.5430589 0.23391427 0.10526164 -0.552322 0.324181 -0.119368404 -0.19320157 0.24324383 -0.6869498 1.1310192 -0.12616907 -0.08261793 -0.23453294 0.13975385 0.24947153 -0.6174743 -0.34855822 0.17739202 0.067105904 -0.22095028
724 0.36608598 -0.17067686 -0.1864963 -0.46963063 -0.10971726 0.2670731 0.046619084 -0.12521476 0.05675892 0.357494 -0.1989877 -0.09302174 0.067725286 -0.16103026 -0.21531428 -0.15205796 0.17381786 -0.06370027 -0.09478671 -0.071441 0.118655086 -0.21497242 -0.06673527 0.09545285 0.08110081 0.09672264 0.119026415 0.09640243 0.19896717 0.26650527 0.05247891 0.3213986 -0.26627135 0.6441005 -0.055025946 -0.0014149728 -0.23677824 -0.17305195 0.37635595 -0.37243655 0.352081 -0.13934104 0.35724986 0.050723676 0.13187677 0.19006212 0.11196923 -0.14282797 -0.12747778 -0.4680875 -0.0591214 -0.1511182 0.2401621 -0.13265541 -0.24063237 0.08768692 -0.3207269 0.03728392 0.029880326 -0.28548557 0.024476923 -0.5615532 0.10353452 -0.4548426 0.013257091 -0.6300398 -0.44450855 -0.28785327 -0.3880142 0.16593662 0.4321347 -0.20812547 0.0564828 -0.50312716 0.08519965 -0.41432777 -0.13388151 0.013155055 0.10225893 -0.14921331 -0.18778805 0.6342797 -0.15018478 0.22925201 0.22202168 -0.43106794 -0.08651381 0.04359057 -0.17471945 -0.03306106 0.20479505 -0.22012429 0.11636443 0.2725378 0.00920062 -0.23981644 -0.17872952 -0.27236217 -0.0028205188 0.043863006 -0.31635746 0.48201302 0.4858566 -0.26344275 0.2793811 -0.23943795 0.21943922 -0.06865136 -0.2946118 -0.16592595 0.17181431 0.32385424 -0.31815803 -0.10770762 0.38421217 0.031795032 -0.19287647 -0.11162999 -0.88745433 0.28353515 0.2879153 -0.33440745 -0.15448444 -0.32909834 0.1675266 0.16051023 -0.023077711 -0.5156188
2 0.03724612 -0.7587014 0.43069923 0.1353911 -0.4391029 0.3705553 0.6284136 0.30245444 -0.44000697 0.08919632 -0.3131581 0.73009795 -0.13575897 -0.16276053 -0.08590983 -0.15851729 0.33137578 -0.37511238 0.55622864 -0.25110203 -0.9595125 0.06503286 0.024370475 0.3144322 0.03981699 -0.030727718 0.38559476 -0.22183983 -0.5974102 -0.13151385 0.094219156 -0.3716812 0.11891783 1.3431895 -0.09303404 -0.1505657 0.06477216 -0.62856317 -0.12596624 0.16187686 -0.13453567 0.83697975 0.045547247 0.36404473 -0.24459845 -0.32344878 -0.46143177 0.1237199 0.14972824 -0.5180649 -0.2691955 -0.051733818 0.092239745 -0.051846936 1.1833769 0.5264021 -0.14087254 0.5793092 0.14713967 -0.34059083 0.31890616 -0.28913918 -0.25316092 0.4273628 0.5286743 0.27559534 -0.18858765 0.5729991 0.1144615 -0.5046188 0.4196349 -0.21483122 -0.20803863 -0.8044344 -0.55128145 -0.42624307 0.571144 0.29665846 0.0831653 0.029726984 -0.38315663 -0.29181358 -0.5420364 0.03441154 0.4372524 -0.007261679 0.64692575 0.4716498 -0.31404597 0.039034158 -0.3393441 0.1419208 -0.1186082 0.598831 0.073384516 0.10446278 0.11450481 0.027482336 0.038729303 -0.21799237 -0.5015424 -0.24669036 0.79679346 0.25849757 0.24528638 -0.4866824 -0.10728565 -0.02602897 -0.42781436 -0.049459975 0.32066655 -0.29345497 -0.21144564 -0.046947073 -0.05020976 -0.07836696 -1.2710373 0.21805187 -0.39984122 -0.2723686 0.02053343 0.12894924 0.18348241 -0.6028662 -0.077133544 -0.3779952 0.2385841 0.26933965
5731 -0.11092023 0.05697776 0.32058167 -0.27733082 0.17183734 0.040904157 -0.1384987 -0.35493594 -0.60919696 0.653177 0.10858376 -0.07317038 0.39578238 0.056976147 -0.26906982 0.030927274 0.18930586 0.50440073 -0.23125963 0.015522267 0.36725712 0.480922 0.524053 0.29830968 0.42098394 -0.030787058 -0.057428148 0.08962217 -0.13519593 0.7797322 0.32754794 0.13329783 -0.43979296 0.35701224 -0.060178068 -0.007828173 -0.46788073 -0.09170667 -0.1472732 -0.11620702 -0.15748866 -0.33519462 -0.52038074 0.033816375 -0.10013113 0.26496512 -0.24309468 0.5175253 -0.44754338 0.24808766 0.10261367 -0.29242486 0.38496312 -0.27715868 -0.6264742 -0.34506646 0.2219204 0.11615468 0.47154948 0.19642128 0.35240114 -0.6475622 0.02089046 -0.22787859 -0.09528671 -0.7710424 -0.77743185 0.2807318 -0.16728513 0.28906325 0.40843326 0.07894531 -0.25760865 -0.14361885 -0.54123753 0.31129253 -0.28761572 0.013434818 -0.49643505 0.25768542 -0.16153853 0.29452136 -0.1609207 0.50849587 0.11901896 -0.22049086 -0.027640779 0.13047092 0.21902014 -0.0827993 -0.37346426 -0.30527696 -0.2101588 0.09083039 -0.406493 -0.04994091 -0.24555588 -0.15028179 0.14965671 -0.11596763 -0.16222958 0.5058231 -0.03733476 0.036958024 -0.07370026 -0.28876507 0.16003864 -0.27797294 -0.12289562 0.017852828 -0.45664665 0.14071181 -0.64042264 -0.36876306 -0.40709192 0.34761092 0.18326274 0.21567586 -1.2800413 -0.03999362 0.15584782 -0.13144219 -0.013692372 -0.42084014 -0.42001033 -0.34778637 -0.10152742 -0.085585624
1465 0.0011967603 -0.29204628 0.6095514 -0.0722928 -0.49479547 -0.29099637 0.8079537 0.21754125 0.03161528 -0.2035024 0.101414695 0.43778074 -0.3227324 0.18589503 -0.49319685 0.19884267 -0.019765615 0.08837783 -0.17838868 0.05030189 -0.21468681 0.0045481343 0.09648893 0.47403264 -0.21984977 -0.5540133 0.29509532 0.2683473 0.28794914 -0.25710237 0.26355666 0.11213818 0.13545462 0.18259376 -0.059652038 0.26031676 -0.075556524 0.07896445 -0.38701272 0.13932312 0.4956563 0.049128722 0.5566043 0.7061665 -0.17129667 -0.12892935 -0.119895875 0.42221016 -0.015229984 -0.6505179 -0.2952764 -0.35050675 -0.4904809 -0.08846678 -0.07318803 0.1913488 -0.090220824 0.37055862 0.07100127 0.11873802 -0.03520753 -0.033065066 0.3126527 0.19473471 0.27435005 0.21763353 -0.67350155 0.47761193 -0.14748138 -0.48014024 0.02843895 -0.03683752 -0.17925426 -0.34491482 -0.0599268 0.052822277 0.5063891 -0.07469075 -0.5295977 0.08449505 0.44536945 0.14007047 0.20690721 0.053389467 0.1652706 -0.21654502 0.28450912 0.044255204 1.0977496 -0.04517356 -0.5422044 -0.7750911 0.38205758 0.17023933 -0.22959627 0.07189987 0.04879498 -0.3852887 -0.07665383 -0.418282 -0.03984478 0.045754924 0.019752866 -0.058566075 0.10895633 0.2021703 -0.061542768 0.07915119 -0.6267624 -0.43006912 0.2755719 -0.573509 0.07766931 -0.23592213 -0.20232771 -0.2498552 -0.49917498 0.18184355 -0.75259495 0.1595626 -0.016784858 0.022792928 0.20486888 -0.15071127 -0.4646704 -0.030590871 0.17958578 0.49733412
8349 0.22086757 -0.43209216 -0.006542336 -0.38107148 0.34930703 -0.15851851 0.12462317 -0.62814236 -0.20599233 0.89391357 -0.5954269 -0.49309066 0.14709601 0.047569167 0.37458527 -0.34927687 -0.14239322 -0.09093961 -0.43448174 0.37574893 0.09859891 0.32352856 0.6385765 0.5289233 -0.15329191 -0.4909632 0.25791496 0.4099153 0.053138345 0.95979387 0.19904491 0.19762222 -0.19037221 0.0804969 -0.4055836 -0.1244493 -0.54458064 -0.3538665 -0.3336473 -0.16962674 -0.1240464 0.032926697 -0.15630366 0.30805323 -0.29722795 0.22038434 -0.10570216 0.6672396 -0.56180334 -0.030852051 -0.060216915 -0.049155235 -0.23027778 -0.41067094 -0.14142689 -0.25634944 0.21528667 -0.64647585 0.076093316 0.11551028 -0.1775447 -0.30804485 0.03637299 -0.57820314 -0.00808712 -0.49386117 -1.1079242 -0.2561433 -0.30985352 0.420554 0.07889357 0.056083065 -0.5583303 -0.22764912 -0.043478828 0.35105675 -0.4100276 0.1559071 -0.20329407 0.21332395 -0.2529493 0.022008507 -0.118299745 0.04031971 0.23583364 -0.23190965 0.12682892 -0.22002968 0.038692173 -0.08393959 -0.24513969 -0.2790858 0.20180137 0.30789655 0.13339303 0.49704865 -0.44023106 -0.27060172 0.26680458 -0.44566876 -0.23205654 -0.2673034 -0.53364545 -0.081022084 -0.11464072 -0.601757 -0.17496999 0.03800504 -0.03806861 0.33697447 -0.0154067995 0.39389524 -0.18058853 0.03284361 -0.4955969 -0.30742434 0.106846236 0.74058264 -0.62021863 -0.11499912 0.25541598 -0.068282016 -0.28255862 -0.6703055 -0.060959123 -0.23984157 -0.3403172 0.488045
491 -0.22029334 0.025696542 -0.006706446 -0.510239 0.15155177 0.052208345 -0.009149437 -0.5219702 -0.35454065 0.9030398 0.29290304 -0.3741899 0.4243875 -0.097823724 0.1451635 0.0286777 0.31612742 0.13179591 0.18139598 -0.26038453 0.29028654 0.35298944 0.46096426 0.28587815 0.13099143 -0.010965608 -0.046640497 0.3117208 -0.058013245 0.75158197 0.10709836 0.3212516 -0.41368517 0.08763318 0.20595208 0.4418285 -0.61069566 -0.11259726 -0.122802064 0.11502855 0.0043176524 -0.052429803 -0.49646702 -0.09037377 -0.15781163 0.38940388 0.27674598 0.17244768 -0.5611584 -0.3349929 0.123442955 -0.46816045 0.3664353 0.030491184 -0.421593 -0.24397972 -0.15148915 0.14101338 0.34688893 0.33104616 0.24093895 0.06731035 0.10921028 -0.006477893 0.24169116 -0.7571461 -0.30033278 -0.32267007 -0.50555384 0.24982987 0.21501748 -0.6276409 0.18048969 -0.19165207 -0.51704216 0.1563902 0.2898121 0.025297228 -0.35732967 0.3951256 0.0535426 0.087786384 0.08272172 0.3577056 0.04128978 -0.0678644 -0.02153569 0.29129666 0.34343323 -0.46587834 -0.11491148 -0.28968516 0.16054963 0.07789868 -0.24734442 -0.048541147 -0.4909906 -0.080117516 -0.0029478883 -0.24772288 -0.785927 0.2784691 0.466232 -0.10034441 -0.1309509 -0.45543605 0.023750473 -0.42620686 0.03814801 0.37564042 -0.47117615 0.11955417 -0.4394002 -0.10991912 -0.6216491 0.26704 0.0817715 -0.13078712 -1.1340724 -0.12573186 -0.27760476 -0.10137935 -0.36075175 -0.3853243 -0.44838363 -0.37132344 -0.05206013 0.32578135
1565 -0.024011185 -0.12620041 0.6525014 -0.12543303 -0.1056062 -0.1888072 0.73353153 0.22426209 -0.2033596 -0.1944133 -0.016398432 0.4410434 -0.27331194 0.3890657 -0.567363 0.55957854 -0.34859335 0.19675191 -0.120134525 0.12977691 -0.42851853 0.042016268 0.2692833 0.7710696 -0.1470966 -0.25170955 0.23677708 0.036620427 0.45591953 -0.4838672 0.289943 0.19394757 0.2236235 0.08017514 0.083682954 0.17447543 0.20668481 0.0043980824 -0.49528697 0.41729414 0.19472118 0.1682833 0.38273174 0.72404826 0.06056892 -0.072669506 -0.38700217 0.5829808 -0.008246597 -0.81199414 -0.4464592 -0.50495887 -0.5505877 -0.05155163 0.29741025 0.18497574 -0.093408525 0.52786726 0.038242225 0.16413729 0.056057673 -0.25314856 0.44923916 0.17650229 0.26126269 -0.0836086 -0.73499376 0.5828085 -0.46204466 -0.38411778 0.06510959 0.058855847 -0.03523021 -0.572489 0.06336042 0.1862963 0.45254144 0.14350651 -0.5958218 -0.18190195 0.47206178 0.079344675 0.15791202 0.28438127 -0.35003045 -0.0874863 0.18207008 -0.10976488 1.1226485 -0.023704946 -0.23370796 -0.8165185 0.49230823 0.07977291 -0.4487662 0.5471987 -0.0005679926 -0.42889994 -0.22892278 -0.23157614 -0.46953166 -0.022571985 0.14487545 0.21547721 0.35113677 0.43094552 -0.12108342 0.055436887 -1.0403264 -0.21785644 0.04304814 -0.8251636 -0.0075514955 -0.015594744 -0.26704517 -0.22492184 -0.6000849 0.18311352 -0.9053271 -0.15278071 0.068830706 0.4524255 0.10727868 -0.050592035 -0.22895353 0.20224676 0.24339592 0.36267093
1788 -1.0666423 0.7479291 0.92471755 -0.6507759 -0.56182885 -0.45222712 0.13474081 -0.20554793 -0.2877711 0.3195748 0.62693506 0.31066394 0.51779485 0.6541579 -0.49428028 -0.6735622 -0.04631985 0.47134814 0.29424888 -0.7686915 0.25948223 0.5619222 0.68408656 0.49971703 0.53528714 0.21892492 0.16266109 0.64878476 0.38585326 -0.0024043096 -1.3562293 0.010004355 -1.1685407 0.7327754 -0.06017908 -0.26244485 0.2070932 -0.05549185 0.025388474 -0.9832934 -0.0825801 0.27159393 -0.30307803 0.7145235 -0.5632068 0.49577975 -0.1956159 0.44813085 1.0080522 0.8288982 0.16740786 -1.5872653 -0.7125735 0.48507753 -0.29128838 -0.12892829 0.23298557 1.0140398 0.5711593 -0.24556169 0.770943 0.21173906 -0.12730084 0.19140951 -0.5652087 -1.0482419 -1.008933 -0.2028322 0.17965393 1.174313 0.20443673 0.6617487 0.41482565 -0.94010675 -0.18172845 -0.39309245 0.47656703 0.63005656 -0.13686618 -0.55580133 0.6898015 0.4796606 -0.6693403 -0.08099707 0.4917469 -0.64431787 0.7826749 0.3211435 0.091784194 0.2324543 0.6973924 0.21610768 1.675813 -0.2286868 0.07741997 0.47203663 0.33861393 -1.2437383 0.059559666 -0.48737967 -0.08879273 0.7950437 0.96714944 -0.18172564 0.82227385 0.84476817 -0.56592965 0.17013705 0.026029807 -0.15642823 0.5476552 0.08235189 0.49492472 0.8151013 -0.7728686 -0.4271079 -0.19360304 0.05372201 0.7357662 -0.6533324 0.1821099 0.26997072 -0.47924107 -0.7010936 -0.62094945 0.8450586 -0.11954844 0.25009453
4473 0.19405027 0.22440459 -0.45315993 -0.5358476 0.38248792 0.56422937 -0.2625724 0.38264987 0.20524043 0.4291863 -1.0503831 -0.28623146 -0.0030254975 0.39514598 -0.07757622 0.01946652 0.1163626 0.18169685 -0.17293698 0.013020625 -0.06152741 0.118854664 0.12867941 -0.035168998 0.52298653 -0.061519485 -0.09428062 0.09819643 -0.23709312 0.06261775 -0.18145286 0.42393345 -0.12808749 0.09964674 -0.15433879 -0.12734918 -0.0687227 -0.12145102 -0.6207993 -0.20812252 0.09373396 -0.010141083 0.5138481 0.16037086 -0.3890546 0.104942955 0.19571985 -0.23162782 -0.25689995 -0.14861289 -0.08578078 -0.054136265 0.3158684 0.04222492 -0.61800224 -0.2511656 0.026126077 0.26798382 0.02447295 0.032698356 0.12473789 -0.03973421 -0.41702566 -0.29329082 0.06374262 -0.37785554 -1.1751645 -0.42952803 -0.07233697 0.31222516 -0.009075169 0.24756156 -0.23587124 -0.020551046 0.2599731 0.26340377 -0.081197694 0.19481362 -0.28309327 0.10298364 -0.2393007 0.6290763 0.061976716 -0.11187362 0.01933408 -0.15732159 0.010115726 0.03913114 0.3795558 0.23784536 -0.16195 -0.26643458 0.4001621 0.29811192 -0.03964322 0.0955656 0.07000278 0.13329011 0.012770141 -0.2205994 -0.0061462377 -0.07848442 0.5490932 0.213824 0.051003516 -0.06641504 -0.019010872 -0.3983216 0.06553345 -0.18881407 0.7850028 -0.018637145 -0.46005526 -0.22129688 -0.099928856 0.37743843 -0.4501783 0.4575211 0.038582854 -0.07688189 0.030582389 0.5443141 0.24307784 -0.4858287 0.6171763 -0.19129674 0.27813277 0.827347
50114 -1.0580579 0.71306545 0.938717 -0.64706993 -0.63208115 -0.46861756 0.20277911 -0.18446235 -0.3036128 0.33371824 0.54726624 0.36776114 0.45706242 0.6663777 -0.48882997 -0.64834756 -0.0125047555 0.59418 0.24845752 -0.70540345 0.31441316 0.38251734 0.73243314 0.55381906 0.40946653 0.24096166 0.12639284 0.666442 0.43203986 0.036445256 -1.3511914 0.09757815 -1.1169416 0.83113617 -0.12062763 -0.30274636 0.21144912 -0.05801419 -0.049658112 -0.9904649 -0.12140153 0.3152114 -0.3876857 0.7216884 -0.66344965 0.45800048 -0.18665506 0.4486243 1.0950562 0.78433454 0.19476125 -1.5322145 -0.68607897 0.47629467 -0.2598847 -0.1110496 0.17633605 0.9426809 0.5456568 -0.2766698 0.81205887 0.26783177 -0.15453723 0.12117902 -0.5591141 -1.1155277 -1.1187421 -0.14521272 0.18565352 1.2102591 0.2339519 0.590625 0.44440937 -0.9234001 -0.25987145 -0.5019817 0.46430233 0.68954664 -0.15894629 -0.64422226 0.7887345 0.4367322 -0.70262116 -0.10101898 0.49859986 -0.5838943 0.6857691 0.2587044 0.061974183 0.23879397 0.7169444 0.15450177 1.7590916 -0.28195846 0.14617269 0.55789363 0.2845387 -1.3018905 0.09457421 -0.5533208 0.030965267 0.8114867 1.0026326 -0.20951977 0.81898147 0.8284707 -0.6902083 0.2554262 -0.014027412 -0.1855125 0.6281574 0.052910894 0.5628648 0.7676956 -0.87205136 -0.32416785 -0.24508266 -0.013802081 0.78830546 -0.7796068 0.17106542 0.32548207 -0.36457887 -0.6997036 -0.6434064 0.8530067 -0.24190047 0.32051933
1897 0.03841943 -0.21283707 0.53879625 -0.18591863 -0.13528877 -0.25222206 0.6364014 0.2615834 -0.061932556 -0.2578099 -0.05833668 0.2832852 -0.33355486 0.25313956 -0.6476017 0.45593286 -0.26633403 0.2775249 -0.069282144 0.16913249 -0.32077238 0.08974788 0.22494967 0.646713 -0.15014383 -0.24309045 0.21578254 0.11214981 0.36683404 -0.4900062 0.4458096 0.18310608 0.15728381 0.04033218 0.25917134 0.073262915 0.26128536 0.055836584 -0.29745018 0.32291088 0.1947459 0.18966289 0.4932131 0.8362475 -0.03947126 -0.16635099 -0.3154181 0.5800867 0.0818635 -0.86844 -0.52390563 -0.6400917 -0.66327405 -0.13057648 0.24242619 0.23441197 -0.163504 0.59812164 -0.16999409 0.046921212 0.04408168 -0.19624777 0.46781465 0.14558178 0.32591376 0.084019646 -0.81517845 0.7777129 -0.3656041 -0.40024993 0.2792385 -0.07588394 -0.07948484 -0.5168862 -0.087256044 0.3024681 0.3683376 0.06797326 -0.6003354 -0.1494029 0.48072258 0.24531853 0.11431326 0.32200834 -0.16783363 -0.26032794 0.27646327 -0.101500146 1.093613 0.04398315 -0.26308283 -0.87751365 0.56231314 0.027995635 -0.3716244 0.5016955 0.021260092 -0.53243494 -0.19990522 -0.15366633 -0.46577936 0.16280513 0.038984578 0.056776725 0.39029077 0.6447457 -0.03263581 0.0046894765 -1.3073019 -0.25797397 0.15647922 -0.9381318 0.0500226 -0.0641471 -0.3984059 -0.43736252 -0.64448667 0.17341769 -0.95111567 -0.110169664 -0.06162437 0.33748794 0.09859514 -0.20690148 -0.305125 0.18530251 0.21406509 0.44818085
1615 0.33771724 0.028361887 -0.06647921 -0.35946593 0.42021716 0.27725405 -0.4911675 0.29711577 0.20523112 0.2896396 -0.99259025 0.081804685 0.054188177 -0.010765955 0.068427056 0.05167434 0.15235972 -0.123015806 -0.48466015 0.12869133 -0.11527073 0.32911715 0.10322131 0.07994175 0.35252905 -0.072660945 -0.07647023 0.11391806 -0.0143896295 0.22153307 0.21048759 0.63032144 -0.84633696 0.17193003 -0.8992632 0.13960782 -0.0027447534 -0.005818157 -0.8451319 -0.61639327 0.554092 0.28969422 0.17987587 -0.07096397 -0.40155485 -0.12432232 -0.23996384 -0.3884517 0.03777987 -0.0105534475 -0.23694591 -0.07679207 0.43721297 -0.09386646 -0.73370683 -0.36539608 0.36926052 0.21175633 0.036135204 -0.043416407 0.19668064 0.4103569 0.12364285 -0.0495265 -0.23968248 -0.6704937 -1.5232705 -0.038810946 0.2285155 -0.35175872 -0.11893361 0.17667113 -0.32180563 0.19694203 0.4496346 -0.1333149 -0.21433742 0.22527395 0.08892614 0.08202095 -0.5123355 0.4141923 -0.3386426 0.054024436 0.33045 0.10099131 0.1528203 0.29556563 0.46171543 0.25697243 -0.18931954 -0.021185601 0.41712722 0.09407324 0.03941604 0.44072488 -0.60993725 -0.06454002 -0.14603148 -0.06874161 0.26781544 0.06523563 0.4007215 0.3520168 0.008367653 0.010522392 0.10661348 -0.31039625 -0.19631962 0.0770816 0.7896998 0.09046644 -0.5526667 -0.23652767 -0.03442332 0.20802225 -0.40983877 0.39287883 -0.20995578 -0.23715316 0.30515558 0.30371687 -0.08880174 -0.9464144 0.38453716 -0.23714449 0.42605045 0.8578409
3153 0.1354806 0.20597734 -0.6313469 -0.18798263 -0.08581969 0.17931657 -0.12182839 -0.55993724 0.12915497 0.4585896 0.13835712 -0.067377895 0.3964245 0.09697144 -0.17864098 0.12603064 0.09832475 0.29301193 -0.21442197 -0.3492081 0.16274807 0.32549766 -0.17609037 -0.016535772 0.19564286 -0.40190944 0.043814354 -0.15803213 0.27491468 -0.02007897 -0.5666973 -0.33854184 -0.19508846 0.4489466 -0.016226677 0.34305316 -0.18538368 0.1191176 -0.19929829 -0.08088362 0.049146526 -0.17705153 -0.17382044 0.10199906 0.097720176 0.26763532 0.038673025 0.20975783 0.0032657885 -0.25218728 -0.10565611 -0.68373275 0.37929413 -0.5065854 -0.36087015 -0.31538022 0.38116974 0.068085626 -0.102902845 -0.09597252 0.33557132 -0.24436705 0.18625636 -0.16102591 0.22460692 -0.027378343 -0.7872903 -0.10740133 -0.17758326 -0.14519364 0.14366658 -0.24235548 -0.4286079 -0.30256724 -0.5059628 -0.39965412 -0.22360177 0.099309176 -0.41322905 0.04984713 0.051714573 0.46120045 -0.227847 0.4019399 0.018560449 -0.015221358 0.57524854 0.18469612 0.5858307 -0.009172819 -0.10962544 -0.24748278 0.16755347 -0.31209403 0.121985786 -0.55499434 -0.032953832 -0.06905376 0.38153887 0.21542543 -0.329352 0.65838605 -0.042677548 0.50562555 0.30522174 -0.49905872 0.16593938 -0.17538925 0.036929574 0.16057523 -0.22417355 -0.10178024 -0.08579437 -0.74717754 -0.46304914 -0.0012216766 -0.15020886 -0.23084652 -0.6462776 -0.42898002 0.47847697 0.43432984 -0.08677061 -0.16914651 0.2823199 -0.1005396 0.027666247 0.0014534805
13620 0.008380701 -0.73010916 0.4563825 -0.7866279 0.61557853 0.0038327638 0.007874039 -0.47284007 0.24390167 0.75872916 -0.6949041 -0.16667747 0.10368095 0.5440905 -0.05917329 -0.39766875 -0.056828465 0.06917309 -0.13865428 -0.86204016 0.3294585 -0.28602982 0.9452917 -0.2702452 0.49643484 -0.11348964 -0.44855133 -0.24023138 0.14907067 0.23176579 0.3285453 -0.0429272 -0.51341647 0.030204045 -0.2777436 0.14960657 -0.3953428 -0.43822408 -0.14060467 0.09985092 0.008774786 0.1970377 -0.26921394 -0.11065122 -0.16667506 -0.31640834 0.20313352 -0.54308486 0.028662018 -0.37310013 -0.404317 -0.5734409 0.5982823 0.61339647 -0.72497195 0.004799389 -0.045016076 0.12675864 -0.1414781 -0.1512651 0.12544134 0.1830202 -0.027515354 0.13327928 -0.68827254 -0.527775 -0.46352828 0.100135 -0.3972213 0.16109985 -0.62924826 -0.13374624 -0.17612608 0.032551482 -0.093286864 0.072890125 -0.2064062 -0.27039868 -0.50583583 -0.0940099 0.44911677 0.3221806 -0.81236756 0.02402785 0.57587224 -0.14725721 0.22614875 0.29881632 -0.09739837 -0.37151104 0.3728195 -0.143937 0.48422468 0.44943106 -0.05226942 -0.20285897 -0.71156096 0.4083858 -0.08121983 -0.14239196 0.1994175 0.05312304 0.3478044 -0.4207475 -0.20853078 0.0011864002 -0.12632068 0.39181396 -0.8340879 0.22006206 0.23388009 -0.26317796 -0.08209781 -0.28861162 -0.29528615 0.24659039 -1.199495 -0.06612412 0.08345913 -0.10314555 -0.085963845 0.53549796 0.08926858 -0.0863663 -0.0020606758 0.3288582 0.058784295 0.6713735
82920 0.16524288 -0.22093353 0.37038103 -0.21498725 -0.38005733 0.13156357 -0.50262564 0.85433024 -0.39257526 -0.35485274 -0.16856827 0.5444318 0.50722957 -0.53273875 -0.076955356 -0.55595136 0.12122645 0.62530005 -0.48989528 0.47224084 -0.05416574 0.39330935 -0.58781886 -0.0706733 -0.099620625 -0.47652313 0.25399637 0.7471906 0.24731918 0.21005419 -0.3899379 0.29060617 0.079070784 -0.12415686 0.22044553 0.5817779 -0.6569025 0.025526583 -0.09041198 -0.7123397 0.14415842 0.23770157 0.0934598 -0.15044634 -0.7816358 0.055846523 0.6763744 0.6071339 -0.03230069 -0.053993624 -0.28515217 -0.49038193 -0.06075991 -0.10192639 -0.47489655 0.39775673 -0.3430868 0.37889826 0.7426518 -0.9510071 0.09234913 -0.41289926 0.10146294 0.061058193 -0.39346477 0.34884927 -0.27646363 -0.11427047 0.52784485 -0.0020657275 0.2949836 0.027524626 0.1161785 -1.0311937 0.17126256 -0.49080527 0.22927728 -1.0580134 0.13974787 0.12964585 0.81367975 -0.5014965 -0.84711635 0.6076767 -1.0160333 -0.10938795 0.3427003 0.002018932 0.113003455 -0.060976103 0.21686992 -0.44818354 0.79886496 0.16865224 0.021315066 0.41435003 -0.26885656 0.35450932 0.020675208 0.1412219 -0.5158849 0.45598722 0.62385863 0.6350704 0.041456137 0.7188744 0.048538852 0.041693024 -0.74247587 0.07322419 0.19529364 -0.87705386 0.5425907 -0.08998042 -0.18035874 0.64126134 -0.8703552 0.9985099 0.116762936 -0.35154474 -0.3837383 0.058572754 0.726598 -0.67310375 -0.6818104 0.15838872 0.27479148 0.1744038
210872 0.12394643 -0.20132878 0.24497567 -0.35382956 -0.0787043 -0.18366319 -0.45274097 0.72507495 -0.25897285 -0.24201426 -0.1574123 0.4053459 0.31219375 -0.30834648 -0.1968047 -0.26739103 0.07242102 0.83871704 -0.5108686 0.65225536 -0.044512004 0.39081785 -0.6852361 0.0712714 0.18527104 -0.47239983 0.3687691 0.37989277 0.25377196 0.2205632 -0.3662333 0.16243465 0.012584908 -0.20515908 0.19770524 0.58816844 -0.49458274 -0.09025701 0.1576288 -0.8535458 -0.24725479 0.13013458 -0.02023456 -0.08541035 -0.489596 -0.040891413 0.70545036 0.5155945 -0.28001824 0.05574905 -0.14017546 -0.4044793 -0.1670648 0.046274647 -0.6512489 0.5178705 -0.13761914 0.33992627 0.82488894 -0.78252465 0.1875179 -0.49657986 0.36307243 -0.013293226 -0.44199428 0.35700122 -0.16349028 -0.0752885 0.35371587 0.11522243 0.29652974 0.20264252 0.004020425 -1.1108322 0.18959312 -0.11088012 0.18857342 -0.87839353 0.0923671 -0.1382149 0.8337516 -0.32052526 -0.6417302 0.49790353 -0.74078155 -0.018194843 0.24819444 -0.038785182 0.006214389 -0.10181816 0.22307113 -0.7709524 0.77649647 0.2215938 0.014203015 0.42081323 -0.22075674 0.14418574 -0.22970115 0.1642879 -0.2585115 0.36479995 0.5658962 0.48017654 0.25265786 0.53377974 -0.016325613 -0.2692107 -0.6893001 0.11356963 -0.012274452 -0.64275664 0.37859917 -0.09514788 -0.18667501 0.3680153 -0.84706277 0.99502707 -0.07593442 -0.2723777 -0.3816658 0.0936587 0.553292 -0.46290654 -0.5430366 0.15738423 0.13788944 -0.027851703
4584 0.011428759 -0.34035534 0.79134744 -0.2796995 0.49984443 0.00831734 -0.45710233 0.45367792 -0.13905182 -0.5972273 -0.11385813 0.81384134 0.09057522 -0.09883819 0.13565904 -0.37455276 0.53464067 -0.26200414 -0.13235956 0.29520938 -0.13458624 0.36699596 0.42788908 -0.5664135 0.522382 0.009813068 0.028115256 0.51078516 -0.23684971 0.07639388 -0.89041585 -0.427055 0.4970222 0.10634571 0.13122195 0.03086635 -0.43121123 0.1235338 0.3467495 -0.49485084 -0.16663991 0.15599298 0.060415793 0.016462749 -0.10834243 0.2521907 0.40474594 0.3216616 0.10273891 -0.38550106 0.34330508 -0.53318566 -0.19407451 -0.06309191 -0.20095314 0.006408078 -0.22060911 0.20502676 0.5431725 -1.2486252 0.021632379 -0.030615177 0.31136602 0.09580777 -0.5495635 0.28770804 -0.29326293 -0.042359415 0.14124846 0.12073927 0.84276414 0.1425021 -0.6270669 -1.0629061 0.39988178 0.2563779 0.4341704 -0.8121112 0.016583497 0.21328984 0.51543874 0.30433518 0.16783983 -0.042623036 -0.98888016 -0.56566256 -0.5986509 -0.1789472 1.0525337 0.5351458 0.27887252 -0.13758558 0.5928846 0.60383356 -0.17853601 0.43383396 -0.23122574 -0.10252876 0.23579194 -0.010299301 0.06810164 0.64986384 0.13828717 0.82822394 0.033301402 0.60192084 0.13573152 0.112602964 -0.4167784 0.19215553 0.35269332 -0.7157035 0.72858125 0.014760968 -0.051981647 0.25544584 -0.40665027 0.9042849 -0.2588205 0.3846579 0.38309562 -0.18506488 0.74014354 -0.53553265 -0.07962799 0.035466213 0.06935165 -0.053692717
887 0.18267193 -0.09941835 0.36658794 -0.044609822 0.20827477 -0.077632725 -0.37956637 0.46358266 -0.22378148 -0.23972529 -0.1381756 0.6058219 0.22209622 -0.25775963 -0.024404638 -0.04661552 0.06490839 0.40631807 -0.3046279 0.08134662 -0.14524612 0.63735944 -0.17569032 -0.024698723 0.025114134 -0.43395436 0.09952475 0.46506032 0.044666618 0.2844725 -0.5794143 0.305914 0.29297003 -0.19478987 0.052094407 0.42506635 -0.4846951 -0.29786384 0.14413732 -1.0895907 -0.00417808 0.18663001 0.062307097 -0.17354171 -0.23826332 0.0623412 0.45401755 0.48970994 -0.24596004 -0.10208654 -0.0672109 -0.48124433 -0.20857252 0.03516823 -0.8268976 0.27009618 -0.14120893 0.20633036 0.5666735 -0.76878226 0.08037382 -0.6063737 0.39971468 -0.0148117505 -0.21816748 0.3877781 0.14183253 -0.21876308 0.34965023 0.084018044 0.14385858 0.16960536 -0.18088678 -1.1181363 0.3487176 -0.0450867 0.34760177 -0.5498778 0.3086144 0.11535516 0.7894264 -0.23661411 -0.37198687 0.040674075 -0.81515104 0.06453399 0.11927435 0.007710812 0.5169574 0.060687162 0.31816024 -0.60799146 0.56717783 0.13327691 -0.09237231 0.45781386 -0.06768716 0.002374457 0.14217149 0.121989876 -0.14412965 0.37640885 0.4507464 0.64199966 0.33748493 0.5482975 -0.115862854 -0.23133613 -0.58692026 0.13578603 0.0179537 -0.43402007 0.1601308 -0.119550705 -0.030705228 0.23851629 -0.45988238 0.8351129 -0.14900865 0.12704307 -0.30418193 -0.05476592 0.49214232 -0.44261807 -0.35253623 0.113718845 0.06658053 0.011839811
8327 -0.06713729 0.16506524 -0.031734783 -0.5083361 0.22518657 0.24397254 0.09969213 -0.9538003 0.14620124 0.6246793 0.3225989 -0.008988696 0.042749163 0.10502108 0.026180612 -0.019862197 0.35640687 0.85009915 -0.18658869 -0.3128732 0.18229383 0.5363031 0.35547137 -0.37087917 0.45183554 -0.34587294 -0.08316221 -0.52362907 0.13218705 0.36430672 -0.70462257 0.116763145 -0.54878545 0.601339 0.099348694 0.4778746 -0.15449132 0.26734364 -0.17860097 -0.25435594 -0.042215202 -0.29862717 -0.052979305 0.34829518 0.60205543 0.42303556 -0.16360077 0.21951494 0.19482836 -0.3020264 -0.24000435 -0.90445536 -0.042605806 -0.5832009 -0.09918806 -0.51574266 0.21383269 -0.088258356 0.23901409 0.14360528 -0.076610506 -0.2665547 0.14235671 -0.11057702 0.5473455 -0.42583463 -0.9926838 -0.34027225 -0.36593345 0.15756285 0.41214815 -0.86018765 -0.40372828 -0.47560257 -0.8814509 -0.15732685 0.27087975 -0.15990955 -0.18838383 -0.12352383 -0.25601864 0.23108998 0.10423044 0.092315584 -0.0892632 -0.34310427 0.29492736 -0.17665195 0.7529215 -0.62187576 -0.030273119 -0.25390023 -0.02491667 0.29940668 0.13459326 -0.11532035 -0.2517558 -0.03504751 0.010000526 -0.04529278 -0.2913494 0.5222413 0.23227565 0.20176469 -0.28394142 -0.60426074 0.46949005 0.23265448 0.13721463 0.45779297 -0.61077243 0.04882499 0.09807558 -0.64919764 -0.63441825 0.32961965 -0.08322233 -0.17643486 -0.32440493 -0.4777817 0.4149397 0.27397594 0.37915093 -0.38426653 0.3221238 -0.16957515 0.29097325 0.069239505
6213 0.28194967 -0.35194105 0.48015383 -0.1189395 0.24353333 0.22876193 -0.02148967 0.3394315 -0.05538083 -0.19261709 0.041155953 0.4255522 0.28483492 -0.37603512 0.08359526 -0.17907219 0.18604192 -0.39303756 -0.124496 0.1348973 -0.25568953 0.20561397 -0.1683004 -0.5080572 0.5834686 -0.47829425 0.2661885 0.13734584 -0.23971952 -0.08841382 -0.7967828 -0.10976351 0.1687926 0.010756284 -0.14430046 0.1127077 -0.48860416 0.028207649 0.19866368 -0.5481069 -0.18880187 -0.06313749 0.15853651 -0.22050638 -0.11146473 0.39147672 0.12872338 0.83351177 -0.27874836 -0.048582267 -0.013161737 -0.18123475 -0.21506497 0.22069702 -0.5537787 0.14438194 -0.21003252 0.2809232 0.68866783 -0.7141613 0.19646582 -0.21299729 0.3992205 0.1567556 -0.47164685 0.17654125 -0.04904381 -0.39146572 0.111651145 -0.19250087 0.4936386 0.024928229 -0.5092212 -1.1398565 0.28391016 0.2506034 0.25609377 -0.5713909 0.103855714 0.35569587 0.7260617 0.13403833 -0.29580134 0.33261704 -0.39462078 -0.083383925 -0.16234605 -0.0602752 0.70279217 0.21025492 0.2586968 -0.37194923 0.6203099 0.6064781 -0.028547155 0.48833025 -0.15598236 -0.16200307 0.31646106 0.4247063 -0.037112605 0.3336971 0.09428456 0.4883526 0.26713425 0.5245204 -0.18788971 0.02783907 -0.25683358 -0.10558445 0.1491911 -0.505913 0.43575755 0.094405994 0.06167737 0.3898095 -0.6834258 0.77679956 -0.064590186 0.35742363 -0.14378406 -0.12801701 0.7272355 -0.46543598 0.0012942865 0.42935407 -1.7082726e-05 -0.30729613
3028 0.5601845 -0.054529894 -0.06655761 -0.816309 0.68293023 0.37567875 0.2099528 -0.21674418 0.16889726 0.9228016 -0.3013636 0.37854588 0.40525997 -0.67979777 -0.28596556 -0.23790416 0.21899764 0.15506177 0.2666718 -0.40868658 0.3846557 0.6114578 -0.4933567 -0.4067324 0.25064364 -0.079235844 0.006935775 -0.23159318 0.6391401 0.7089915 0.034302466 0.017147774 -0.39300504 0.5550872 0.0939016 0.7830279 -0.4027328 -0.007971914 0.14883211 0.09681468 0.71502537 0.09098471 -0.25620204 0.53325045 0.12875758 0.4248788 0.19260445 0.15452605 -0.58011943 -0.14342387 0.18296348 -0.42457846 -0.122440055 -0.61301684 0.36249456 0.22087023 0.08230039 0.3498293 0.29268843 0.2810674 -0.12021199 -0.2085581 -0.13135293 0.13400196 -0.050600573 -0.23949996 -0.86862284 -0.070693806 -0.27357098 0.107731074 0.44816032 -0.14997245 0.15008005 -0.6104623 -0.6024839 0.035430312 0.07396596 0.47004727 -0.11330432 0.048639175 -0.030939057 0.9905128 0.069599986 0.5608123 -0.29069054 -0.15780482 -0.14165898 -0.19453551 0.026778005 -0.32697028 -0.19686113 -0.32302663 -0.35230467 0.41220495 0.084910296 -0.2573417 -0.45651993 -0.18785486 -0.110486515 0.17688474 -0.36993846 0.6478947 0.5230766 0.43144837 -0.30341265 -0.52454585 -0.1158928 -0.17555639 0.42430642 0.37518966 -0.1821525 -0.22375737 0.30722743 -0.7062727 0.05573769 0.022585547 -0.023702547 -0.20585313 -0.16268745 -0.26880223 0.41568905 -0.18196581 -0.07337883 -0.39513287 0.008849021 0.035047177 0.6662189 -0.000565528
5222 0.39164826 -0.3245976 -0.3575248 -0.62802887 0.3347569 0.24511138 -0.25990257 -0.3127443 0.13489226 0.3203549 -0.4557616 0.14925693 0.212477 0.21104294 -0.90673625 0.46864444 -0.16338734 0.25330657 0.2243707 -0.3202708 0.4167303 0.28063005 -0.037232563 -0.14294939 -0.3316402 -0.04266842 0.24451974 -0.3693344 -0.3890555 -0.019664204 -0.018294241 0.29554927 -0.684063 -0.094221026 -0.5331435 -0.058193102 -0.022555793 -0.6446265 -0.09011025 -0.07167686 -0.013083184 -0.17113243 -0.21504994 0.24327646 -0.06791541 0.17664415 0.053303592 0.17607364 -0.14133103 -0.40634543 0.16382751 -0.03750877 -0.21135956 -0.08367259 -0.39665332 -0.15398155 -0.3641014 -0.5181217 0.12757775 0.22702934 0.48623666 -0.2147327 0.16662611 -0.4305222 -0.2860016 -0.5191316 -0.5040076 -0.002989944 -0.065146215 0.1980103 -0.07945851 -0.33658144 0.3320595 -0.6200455 -0.057862844 -0.23318549 -0.099939525 -0.17235409 0.23653096 -0.12867163 -0.14349529 0.56906074 -0.2964181 -0.1923402 -0.20100588 -0.61052054 0.16745374 -0.1946671 0.12328882 -0.19314657 0.20954522 -0.30642486 -0.27330133 -0.16438738 -0.14334542 -0.16949725 -0.17664815 -0.4662668 0.06953259 0.38882026 -0.40349197 0.22274555 0.032351464 -0.36681545 -0.29836342 -0.13666724 0.16587709 0.02236442 -0.31990004 0.02281523 0.74116725 0.620557 -0.18711163 -0.11474914 -0.10347533 0.04305971 -0.63932294 -0.03643875 -0.78548783 0.67304724 0.24483353 0.09743684 -0.55681413 -0.84279925 0.029779682 0.28322136 -0.321823 -0.09239108
9570 -0.06988709 -0.41426125 0.5124653 -0.6712722 0.16846544 0.17056383 0.7110366 0.18088284 0.5162428 0.19742729 0.1105704 -0.4619055 0.5047516 0.74784094 -0.36502713 -0.46273696 0.041756194 0.26744968 0.055883482 -0.72696036 0.19952664 0.36506736 0.048458863 -0.10381634 -0.3805314 0.43946603 0.557652 -0.23855272 -0.37311292 0.60479826 -0.042886354 -0.0960522 0.13922039 -0.4621857 -0.44819936 -0.0866742 -0.5986652 -0.35449067 0.06615464 -0.34057668 0.19192305 0.0061183483 0.05973309 -0.19581836 -0.014936641 0.6760091 0.10992928 -0.15218347 -0.41890305 0.3167025 -0.48555186 0.08516207 0.3912295 -0.17488891 -0.17952189 -0.31662256 0.3042849 -0.47020087 -0.6803423 -0.48323464 -0.2744257 0.001488244 0.031746626 0.24465832 0.21625195 -0.37440673 -0.2911378 -0.17465617 0.2439317 -0.32281154 0.6162606 0.09412437 -0.03772757 -0.39641353 -0.31805712 -0.59583366 0.14003225 -0.36014885 -0.63531345 -0.35864237 -0.4282098 0.1870361 0.56137437 0.17008428 0.63854456 0.44796488 0.37766424 -1.0184063 0.5581502 -0.2863244 -0.09598303 -0.71484375 0.57899064 -0.49265924 -0.5002542 -0.063361116 -0.3592907 0.13690855 0.09513942 0.11849683 -0.70597315 0.30570537 0.85360575 0.27075386 0.16545601 0.4895351 -0.086539455 0.07307173 -0.51298994 -0.56745803 -0.24260862 -0.20226322 0.0124703795 -0.046003647 0.19173329 -0.12118532 -1.0411879 0.36836442 -0.80616975 -0.002371332 0.5097237 0.28629616 -0.6322225 -0.18085779 0.10675732 0.23612235 0.40282196 -0.30969667
8251 0.5132976 -0.41015217 0.62636113 -0.031824265 0.29317886 -0.35867962 0.54928005 0.6500751 1.1199265 0.30841464 -0.5195758 -0.56975454 0.40753576 -0.053179014 -0.18165782 -0.5115705 1.3017788 0.7866547 0.21279539 1.6525269 0.25649273 -0.6011622 0.9738018 1.2551178 1.0703325 -0.67261064 0.50281703 -0.67134327 -1.011504 1.0006888 -0.66694695 -0.24210453 -0.40261248 0.58147967 -0.70006406 -0.70304704 -0.4724931 0.41250008 0.26941672 0.11753825 -0.053498287 0.72170275 -0.6750952 0.55739594 0.91010475 0.31960198 -0.2548427 -0.5825991 0.05262596 0.54156 -0.3353576 -0.2946541 0.24799639 -0.44224304 -0.8129044 -1.1518312 0.47202256 0.88804305 -0.032839272 -0.13751917 -0.5185052 -0.3194435 -0.3205354 0.253475 0.055892836 -0.26489377 -1.2658132 0.95175093 0.5096914 -0.040544745 -0.17962039 -0.19540337 -0.2027834 -1.4019989 0.9752136 -0.09656044 1.1274034 -0.071166165 0.21966137 -0.07164894 0.5606164 0.36796418 0.13184212 -0.029492619 0.29528117 0.44534948 0.13453296 -0.7214415 0.45506647 0.6953944 -0.214333 -0.20611663 0.7631197 -0.76217854 -0.6007033 -0.02501868 -0.35347587 -0.70456475 0.9503561 0.8971723 -1.9528284 0.9883992 0.6801069 -0.23359777 -0.45867297 1.124561 -0.34538853 0.25961024 -0.5845251 -0.4978563 -1.2387066 -0.9552753 -0.0004796034 0.27942342 0.124390826 0.2212008 -1.0153639 0.37471274 0.039467953 -0.68167543 0.37364122 0.014689721 -0.51862276 -0.89400333 -0.576134 1.1055834 0.048649266 0.7458137
8237 0.5687012 -0.46117532 0.72082245 -0.02586074 0.3647508 -0.32485008 0.6118175 0.7371114 1.2059678 0.28317106 -0.50130695 -0.69086015 0.4324213 0.014151059 -0.16878967 -0.5343507 1.4431897 0.8169574 0.32128647 1.7927272 0.292198 -0.67062074 0.90842974 1.3936756 1.1486855 -0.78190196 0.4714569 -0.5564373 -0.9561794 1.1644508 -0.70916325 -0.2698179 -0.379328 0.621618 -0.76166403 -0.86344343 -0.45911565 0.35799256 0.110073455 0.038056187 0.018622592 0.8403167 -0.7604103 0.56924415 0.85140157 0.43130225 -0.27528203 -0.547778 0.02824026 0.5116825 -0.2954185 -0.28481933 0.33403045 -0.4570862 -0.78068393 -1.2559663 0.5302228 0.8422883 0.04692585 -0.14439552 -0.5043934 -0.25854936 -0.35209885 0.3260334 0.10522282 -0.24871537 -1.3543499 0.98080117 0.47708383 -0.11578204 -0.28996968 -0.24723077 -0.33300138 -1.5012655 1.068406 -0.24373938 1.2216642 -0.052295547 0.13474894 -0.09875613 0.55616254 0.34342363 0.15974487 0.02701488 0.24945806 0.5024447 0.024464086 -0.70806193 0.46286786 0.64634085 -0.21594949 -0.23477988 0.7846519 -0.79220915 -0.6470041 -0.010202305 -0.43720633 -0.74474376 1.074808 0.8497497 -2.1107678 1.0490954 0.7285697 -0.3060547 -0.5906305 1.2798837 -0.42822057 0.20506522 -0.51221323 -0.45175782 -1.2950356 -0.85440046 0.06579727 0.14545666 0.14461012 0.18037245 -0.97122276 0.48829046 0.08444953 -0.6083055 0.42734382 0.067367926 -0.6021061 -0.8667138 -0.6114762 1.0773325 0.046568148 0.80476975
1888 0.04645314 0.12571499 -0.25239006 -0.76807594 0.4078444 -0.21828453 0.03568486 0.30172464 0.4178561 0.27881017 -0.649046 -0.20096625 -0.33992782 -0.040765177 -0.10674867 -0.09445969 0.21896516 -0.37752807 -0.3817266 -0.17409608 -0.28860962 -0.024680287 0.09096953 -0.107054606 0.03667741 -0.33030525 -0.49398795 -0.13104148 -0.4464746 0.11258619 -0.08700107 0.0756632 -0.5379131 0.47349507 0.11388353 0.82233644 0.038330775 -0.23780802 -0.5846921 -0.31876764 0.12153606 -0.06349494 0.11597649 -0.049195684 -0.26360595 0.6434657 0.08516976 -0.36773753 -0.18549475 0.07563125 -0.00804727 -0.10796234 0.5717553 -0.41739798 -0.21117328 -0.09780269 0.020510802 0.33134726 0.13351981 -0.15154833 -0.061205745 0.075741366 -0.020510796 -0.38240278 -0.015860911 -0.583166 -0.7691391 -0.51783353 -0.3221636 0.10423085 0.26823923 0.0139685925 -0.010883162 0.13486572 -0.0069169886 0.46636882 0.038619652 -0.32594106 -0.29109272 -0.15489043 0.12755911 0.259182 0.10175609 -0.18802088 -0.11726648 -0.14265338 0.21605034 -0.051050086 -0.007828562 0.0050027766 -0.20813198 -0.2411818 0.13975385 0.26599893 -0.17795782 -0.16712059 -0.075262316 -0.10747827 0.3173698 0.006333883 0.19318303 0.07940213 -0.049179394 -0.18136933 0.19680509 -0.01456781 0.09506644 -0.35417157 -0.31061515 0.13831605 0.40792337 -0.06716524 -0.63842493 0.22639683 0.07452087 0.53774875 -0.49177465 0.25221813 -0.2231605 -0.08303106 0.2491028 0.7710853 0.05955322 -0.51401097 0.41719663 0.10893816 0.6865101 0.6878451
2537 0.4330054 -0.5958758 -0.40327996 -0.34588832 0.40622625 0.048041344 0.38771898 0.32399225 0.085304216 0.27528664 -0.5466567 -0.16368794 -0.23835598 0.63698226 0.07723408 -0.20745379 -0.21014722 -0.1218243 0.3394929 -0.4086153 0.457151 0.0037184458 0.31564048 0.02393749 0.099335566 -0.36409548 -0.34646648 -0.09871819 -0.42989308 0.27318776 0.082688145 0.36096603 0.011593407 0.25215876 -0.79099625 0.3138814 -0.33846417 -0.16636606 -0.14384088 -0.2665014 0.029598264 0.51746434 0.03345864 0.26435554 -0.26389703 0.5972812 0.031317476 -0.4028489 0.21562943 0.038354278 -0.6636476 0.20094539 0.5848002 -0.29008132 -0.81064844 0.007999405 0.09311118 0.22220346 -0.15739812 0.05167507 0.24921866 0.22391544 -0.27645877 -0.27595618 -0.18920082 -0.281237 -0.15536192 0.7048429 0.007441445 0.29878944 -0.3237223 -0.3686938 0.034378078 -0.5739234 0.37260655 0.34637746 -0.13988268 -0.04806213 -0.21880798 -0.18390468 0.1836107 0.31368375 -0.4336636 -0.33853838 -0.16864388 0.025893236 -0.30580994 0.23171417 0.22499168 -0.17675288 0.7224408 -0.20171471 -0.1304845 0.21423684 0.14450262 0.29317293 -0.08435639 -0.12609349 -0.4515958 -0.5565465 0.13491863 0.3011226 0.023427282 0.015890297 -0.3962991 -0.010103932 -0.20596305 0.15198338 -0.15986224 0.028655218 0.21869744 -0.7218092 -0.31064677 -0.14926948 -0.14326878 0.09354268 -0.67505884 0.15508309 -0.3183698 -0.30336532 0.41344753 0.37716952 -0.1740871 -0.2117116 -0.3714041 -0.054539945 0.72471714 0.07776777
2390 0.12569042 -0.43540597 -0.06914536 -0.4418749 0.5445087 -0.18296798 -0.42434412 -0.18566838 0.2371422 0.33108953 -0.81853 -0.12403629 0.042280335 0.083190314 -0.027096914 0.16582632 -0.022164028 0.048031088 -0.3333079 -0.3733564 -0.41698992 0.05293188 0.2340607 -0.049986284 0.06406518 -0.44764993 0.10293354 -0.22423062 0.3705397 0.25488788 0.15893453 0.05216941 -0.7078506 0.39514187 -0.16124792 0.17937434 -0.14628668 -0.01484178 -0.26297155 0.033250798 -0.37657166 -0.4601277 0.23355122 -0.18142502 0.14461708 0.064044 0.13767123 -0.23201013 -0.5980873 0.1057945 -0.4105048 -0.30474693 0.39825693 0.6460269 -0.68090844 -0.016342625 0.14253615 0.04458887 0.18984248 -0.2828098 0.17811769 0.097051986 -0.07488542 -0.08538494 -0.27016845 -0.99834675 -0.5920787 -0.23575509 0.08760048 0.02817035 -0.3789987 0.30372396 -0.19470905 -0.27005213 -0.22572611 0.13402058 0.27151445 -0.018587397 -0.23313686 -0.00070463115 0.06760733 0.20508738 -0.54747677 -0.2868544 0.58647054 0.024734126 0.04975832 0.2131624 0.27359608 0.0055106715 -0.0053751394 0.012594555 -0.023022817 0.25574347 -0.10325098 -0.036374185 -0.36753035 0.06313295 0.26633692 -0.44938618 -0.10599793 -0.087694764 0.3216294 -0.13463768 -0.32982424 -0.15501115 -0.04829541 0.07576853 -0.5436248 -0.29491863 0.23165597 -0.57752734 0.10016482 -0.42807913 0.0392973 -0.07611824 -0.69403034 -0.34036183 0.04783436 0.15410885 0.024371803 0.5853153 -0.09495827 -0.9937202 0.076455496 -0.120307565 0.4373943 0.15323882
24755 -0.026664766 -0.09611792 0.74028736 -0.22827311 -0.08711637 -0.39995795 0.5886456 0.22339682 0.035608992 -0.22876443 -0.0036429858 0.24447304 -0.43565798 0.26767358 -0.6329036 0.4623018 -0.26296893 0.21926859 -0.13839684 0.0061065336 -0.38271886 0.14877862 0.25824893 0.77985156 -0.13030048 -0.2658654 0.27021712 0.07395753 0.48794177 -0.34059873 0.31902903 0.08387635 0.19335255 0.086723894 -0.12241706 0.11652291 0.46968082 -0.05982411 -0.36092666 0.39493287 0.17319603 0.16531593 0.44174966 0.9501567 0.060265977 -0.04227422 -0.46552858 0.58774763 -0.032696184 -0.8480891 -0.51730627 -0.63185406 -0.72326165 -0.06817181 0.18847817 0.14782348 -0.25376004 0.42540103 -0.07451232 0.17014351 0.08258466 -0.082817115 0.3663729 0.24493626 0.41661692 0.13200997 -0.7933422 0.74881834 -0.31822243 -0.32780194 0.037782423 0.07419541 -0.10177447 -0.47710648 -0.11459727 0.37883943 0.33846113 0.19801357 -0.6193094 -0.1374848 0.5501696 0.22765592 0.22930683 0.25094548 -0.25185338 -0.25160798 0.2214518 -0.083108954 1.2408104 0.09389806 -0.33510262 -0.9103008 0.34388852 0.2150393 -0.33024877 0.5524459 -0.05434666 -0.5449139 -0.20636587 -0.2592022 -0.53812015 0.073122516 0.061667077 0.20682603 0.26001117 0.55712533 -0.20856677 -0.10744995 -1.213909 -0.29531023 0.07237612 -0.8099604 0.09733676 -0.010364777 -0.343223 -0.3232355 -0.58475155 0.13399054 -0.9918905 -0.10655284 0.09521086 0.4245553 -0.012049868 -0.1279804 -0.4484324 0.08851514 0.37809905 0.49047297
27699 0.014703125 -0.038503826 0.38857105 -0.24255447 0.25506064 0.014778844 -0.06370859 -0.3791461 -0.6199891 0.7778114 0.18624507 -0.0654699 0.39697468 -0.013393261 -0.16654764 0.0013875493 0.0065760873 0.54085344 -0.34047312 -0.18593004 0.22465062 0.32939827 0.4200101 0.4105737 0.14462894 0.034201264 -0.17528577 0.286025 -0.32646188 0.8661396 0.2211859 0.1660254 -0.2798491 0.27011275 -0.1508154 -0.053047497 -0.37608635 -0.04681096 -0.39176163 -0.118519165 -0.19968647 -0.15223153 -0.51105285 0.1099209 -0.26537928 0.250666 -0.16852307 0.856801 -0.30254292 0.29568696 0.39085916 -0.11925575 0.4159457 -0.20661761 -0.5955137 -0.33308 0.13514128 -0.20826475 0.4542021 0.18684888 0.33574304 -0.7540593 0.0840991 -0.29760697 -0.20834266 -0.86366934 -0.83395654 0.29726186 -0.27824333 0.39141908 0.4104649 0.2866809 -0.33010438 -0.29749018 -0.42814326 0.15499257 -0.42810595 -0.035846077 -0.6170159 0.21799639 -0.16527256 0.41767788 -0.41062596 0.45157227 0.19685152 -0.21993145 -0.23896338 0.09487806 0.4451826 0.02829048 -0.350377 -0.21777761 -0.34700868 0.15914449 -0.39072645 -0.06796869 -0.26278976 -0.27401868 0.24175769 -0.055080686 -0.257466 0.5405266 -0.06791344 -0.030758614 -0.27194557 -0.38359317 0.12125596 -0.20506117 -0.23618986 -0.025427042 -0.4958807 0.04021391 -0.6379495 -0.44628227 -0.4461052 0.33133128 0.22857429 0.3934704 -1.0238005 -0.07431025 0.29239103 -0.09989073 0.0015372857 -0.23646624 -0.4193687 -0.39021572 -0.16428456 0.05684724
4013 0.25926727 0.24341998 -0.32542992 -0.3414759 0.2730911 0.16001616 0.27007824 -0.2195454 -0.121930905 0.66681874 0.2983722 -0.143994 0.20100468 0.30031648 -0.53686696 -0.020991344 -0.09001376 0.56238073 0.11236464 -0.2954662 0.35424638 0.2532417 -0.0907406 0.109440595 0.30674675 -0.32762143 0.19364266 -0.041097827 0.42921415 -0.026904115 -0.59482706 -0.34178656 -0.1961691 0.23982488 -0.14674301 0.60990185 -0.16079336 0.2515132 -0.13497218 -0.23560837 -0.2575142 -0.45347115 0.07208127 -0.02967516 -0.08261982 0.40707102 0.008749209 0.03356339 -0.16267951 -0.23569894 -0.5540871 -0.7100163 0.009601388 -0.4649662 -0.49244133 -0.66983 0.16292259 -0.48402348 0.2399855 0.11623087 0.16571817 -0.0065787802 0.24368115 0.02773401 0.02554855 -0.062035307 -0.71009284 0.24358179 -0.47016755 0.06686799 0.31078988 -0.16965878 -0.26419997 -0.39886177 -0.6280278 -0.014721289 -0.19659032 0.22555295 -0.2566236 0.30708787 -0.09493006 0.26966235 0.0020114742 0.1862736 -0.035584196 -0.20788363 0.21481852 0.23402373 0.5864262 -0.3357855 0.022378195 -0.25030875 0.105930515 -0.066512406 -0.057600003 -0.3639272 0.21882494 -0.06771403 0.5646615 0.2552418 -0.36889875 0.86984205 0.24066113 0.010821513 0.20727758 -0.6292172 0.52102554 -0.14686148 0.22858441 0.29896933 -0.34000546 0.26897258 0.024360923 -0.852239 -0.32481703 0.14314042 -0.104334444 -0.17159653 -0.5922803 -0.30826044 0.51572675 0.40192917 0.2484569 -0.23703659 0.068566486 -0.2739772 0.23598377 0.050583873
1047 0.30898452 0.06564852 0.42066258 -0.39218283 0.03811581 0.5970585 -0.41313004 0.37861633 -0.33563462 0.66188407 -0.6373429 -0.018736329 0.22900924 0.36557165 -0.26886326 -0.325745 0.13072947 0.41159758 0.33724487 -0.22222917 -0.8225314 0.30402938 -0.34918696 0.53689826 -0.34772587 0.1987902 0.1523184 -0.06596333 -0.07949716 0.3511713 -0.49620134 0.69021726 0.48313224 0.3560167 -0.20833465 -0.03876301 -0.054534115 0.5643937 0.6904381 -0.70261955 0.034046367 -0.08385172 -0.39112517 0.37083015 -0.46356624 0.5337468 -0.29672846 0.19096504 0.25742608 -0.38147447 -1.095885 -0.15068136 0.4478532 0.19117332 -0.10401003 -0.07995044 -0.6555118 -0.3172889 0.70448536 -0.00081326975 -0.18718621 0.48935696 0.3212954 -1.4260929 -0.14804776 -0.41960204 -0.793078 -0.37356657 -0.14807695 -0.046146423 0.71822435 -0.498892 0.45333293 -0.3490621 -0.62203264 -0.05283126 0.5390873 0.59565085 -0.5763479 0.6532711 -0.30856588 0.11149433 0.3841171 0.05286767 1.0806693 -0.500828 0.11373851 -0.08717213 0.09802161 -0.1211604 -0.020593097 -0.63177043 0.8532295 0.10674974 -0.9871848 -0.35968453 -0.016133472 -0.45034292 -0.078553714 -0.2363736 -0.15275985 1.1901726 -0.28598163 0.78017294 -0.08879396 0.3117784 -0.013495629 0.33969438 0.39396867 0.07482776 0.146802 0.49474084 -0.84422547 -0.6803109 -0.0981897 0.36402336 -0.6588714 -0.16919832 0.025524257 -0.33558515 0.55419326 0.7893932 -0.2523912 -0.17303841 0.02144596 0.19032009 0.6967108 -0.035710808
124378 0.24612746 -0.36223188 -0.0025235503 -0.5407443 0.5661025 -0.10580104 -0.7938523 0.2621651 0.09706171 0.39277446 -0.8786778 -0.38637334 0.15917748 0.539861 -0.03172718 0.3754202 0.06374514 0.102740794 -0.29191747 -0.3038302 -0.17495152 -0.09849461 0.8924699 0.15585962 0.28371587 -0.7435214 0.24736758 -0.36927718 0.69140494 0.5329041 0.27477732 -0.118652105 -0.4648194 0.6654847 -0.36137897 0.27810657 0.20773299 -0.2878149 0.036133837 -0.07704321 -0.34984148 -0.34981295 0.22423702 -0.14775 -0.048397202 0.2008358 0.2002465 -0.22725043 -0.6743838 0.038126376 -0.36087993 -0.22593774 0.4997139 0.605952 -1.0385592 0.25977948 -0.00018795356 0.00709975 0.5160179 -0.00019854053 0.10956639 -0.19211942 0.1618821 0.03028221 -0.5174132 -1.140508 -0.4916629 0.19310299 0.1678845 -0.111642376 -0.48831877 0.09306612 0.028221948 -0.39274648 -0.21420011 -0.0001846261 0.36652252 -0.04080568 -0.3588903 -0.09636439 -0.34686327 0.06105659 -0.20146002 -0.32266083 0.5636041 -0.23420265 0.29601315 0.61923563 0.2649752 -0.0075691342 -0.13200796 -0.36354652 0.12197468 0.3012205 -0.08732586 -0.26982325 -0.34972528 -0.2947074 0.032240145 -0.68250746 -0.28316998 0.15226477 0.1378783 -0.12528315 -0.40626454 -0.17406964 -0.11246923 -0.38968113 -0.47837114 -0.04059911 0.019795194 0.109557025 0.17746374 -0.7421252 0.29617307 -0.21882719 -1.1263553 -0.3223533 0.14760758 -0.22672471 0.14092049 0.73621213 0.15424491 -0.8423295 0.011507474 0.4776512 0.5833248 0.41298726
78805 -0.011955144 -0.2095946 0.5479724 -0.31335178 -0.14879255 -0.30904213 0.7666867 0.4752756 -0.1636856 -0.27029356 0.017244767 0.371669 -0.5011045 0.36658064 -0.63219285 0.5095042 -0.36306918 0.27020437 0.035720676 0.19994557 -0.35507396 0.078790456 0.27011877 0.6912097 -0.056075905 -0.34258208 0.19713034 0.00415035 0.44164234 -0.4190607 0.32657015 0.09662377 0.18269107 0.023828559 0.08450726 0.1165521 0.21974199 0.0778897 -0.4669919 0.30630922 0.076137 0.12936084 0.48203436 1.041833 -0.14417991 -0.19109641 -0.5503524 0.8041146 0.08617823 -0.95760447 -0.5557445 -0.65398407 -0.81826866 -0.14838982 0.36762518 0.20036437 -0.2610436 0.76409477 0.002897928 0.14937155 0.019353066 -0.25008273 0.54502267 0.26195925 0.28008464 0.18598245 -0.90092677 0.8680494 -0.36384818 -0.5279204 0.18744224 0.19395664 -0.28692627 -0.6851463 -0.17191009 0.369306 0.5012123 0.13413589 -0.6669931 -0.31757498 0.54379433 0.23353793 0.19237337 0.2240048 -0.4314033 -0.24108955 0.34660715 -0.2474691 1.3833941 -0.019813543 -0.26057857 -0.9972496 0.5607703 0.05375704 -0.3241478 0.53928506 -0.12156599 -0.54855657 -0.118541345 -0.25490168 -0.6261444 0.07634146 -0.10195621 0.10215032 0.20982446 0.59167475 -0.03035841 -0.016819121 -1.3755134 -0.33062214 0.0380035 -0.93743527 -0.0918055 0.061861493 -0.5359756 -0.46145958 -0.9845251 0.15669355 -1.0928255 -0.15885298 0.0052006617 0.5524453 0.27192217 -0.16809036 -0.40584263 -0.009934065 0.32595354 0.42302212
10177 0.32896826 -0.2959321 -0.028553095 -0.12202368 0.15005608 -0.8642174 0.21733691 -0.22931814 -0.9001941 0.6044666 -0.41195768 0.012763924 -0.3704124 -0.14945981 -0.862694 -0.76259965 1.3248676 1.3829757 0.028966388 0.088584766 -0.77065057 -0.015412085 -0.36952367 0.07186518 0.19595416 -0.545484 0.40864858 -0.19298117 -0.51212364 0.66517174 -0.11771309 -0.31020135 0.48238885 0.028738698 -0.54261714 0.39132684 0.6206 -0.16681728 -0.42236784 -0.349842 -0.3252862 0.31749076 0.648171 -0.01324495 -0.3519593 0.37821868 -0.82843983 0.5208552 0.49922884 0.039262634 -0.049650285 -0.51595986 -0.7688117 -0.5270847 -0.031071814 -0.30888155 -1.3354977 0.40872657 0.50129604 -0.619032 0.36211514 -0.47857097 0.14031059 -0.4565181 0.11088843 0.24502449 -0.77243173 0.4604408 -0.09334921 -1.6876085 0.6266085 -0.2202802 0.31087053 -1.0054935 1.092022 -0.21290605 0.7936656 -1.1130973 -0.022023253 1.0066923 0.76034755 -0.15397482 -0.927939 0.25892672 0.4655264 -0.10147391 0.23577265 -0.43509805 0.65148646 0.58148587 0.047666878 0.28889334 0.1270327 0.42390582 -0.014689614 0.08816056 -0.013265702 0.4057997 0.16590399 0.33804998 -0.18354243 0.095756866 -0.05796398 0.45520055 0.029733924 0.062592864 -0.5702893 -0.22391339 -0.87199557 -0.4085718 -0.38707033 -0.51748997 0.8645953 -0.32313588 0.032007154 -0.69734323 -0.28774953 0.24994375 -1.657631 -0.5240089 0.3102419 -0.262572 -0.329915 0.019256307 -0.43173802 0.096008554 -0.14862818 -0.16621181
3465 -0.9448978 0.53816956 0.29110605 0.8846802 0.47300854 -1.011166 1.095492 -0.47933882 0.4579394 1.0182197 -1.3005185 0.5566061 -0.45660824 0.90654844 0.30915344 -0.5371022 0.89987373 0.7093363 0.8843223 0.26837018 0.16567639 0.04300937 -0.035855323 1.0471098 -0.0022142967 -0.2332503 0.046916075 0.35661316 0.86773014 0.580002 -0.29101992 -0.37621185 0.81725925 1.2172099 -1.0865386 0.5466146 -0.1540008 -0.25708967 -0.58038807 0.16255583 0.7178474 0.9783519 -0.009911453 0.77294385 0.34083092 1.0180017 -0.2946725 -0.45800865 0.44805726 1.4195496 -0.2663634 -0.5555504 -1.036522 -0.20926179 -0.858983 1.0123717 -0.3458671 0.6146153 0.3959523 -1.0646601 0.32323948 -0.46919417 0.7423654 0.21066976 -0.44150507 0.122982144 -1.2048016 -0.5988807 0.12135243 0.6639759 0.13390568 0.0073946947 0.36654952 -0.52208245 0.6515792 0.77791977 0.3111399 -0.3986708 -0.32242733 -1.597559 0.2802654 0.69350725 -0.18399164 0.25672704 1.0701832 -0.4808848 0.41206878 0.47737256 0.6682413 0.17831697 0.097513564 0.60616404 0.32035443 -0.9000669 -1.2409514 0.5003255 -0.38036332 -0.13244915 0.94282174 0.4878091 -0.8980211 1.8463948 -0.01575185 0.40084952 0.23707426 0.21315652 0.22902484 0.00814894 0.24906139 0.011160228 0.13049076 -0.39481163 -0.35893056 -0.07516285 -0.435446 0.6123509 -0.23267807 0.035181426 -0.12699923 0.15090787 -0.773032 0.96455425 1.3752779 0.1408042 -0.4328909 -0.11086462 -0.263351 -0.027074603
29180 0.35453108 -0.3262813 0.24866757 0.017516226 0.6603257 -0.13828726 0.5061695 0.293478 0.34344885 0.40199438 -0.10955411 -0.28834775 0.92054355 -0.10258144 0.30415162 -0.10733647 0.056917172 -0.2807638 0.5322964 0.12895122 -0.25184 0.46322498 -0.2266254 0.7243167 0.31594136 0.43698972 0.3541911 0.45492506 0.4508057 -0.15660971 -0.37416965 0.3086571 -0.099491544 0.42586374 0.0047562504 0.57801276 -0.22067007 0.00515482 -0.7251686 -0.19992504 -0.19810325 -0.5081502 0.8363791 0.12818101 0.60016066 0.7730265 0.73107535 -0.04910171 0.9741072 0.88621694 0.69915354 0.19477387 -0.2840044 -0.51920563 -0.4268716 0.23327176 -0.65136474 0.10387197 1.470261 0.043622296 -0.27606022 0.6046374 0.055579986 -0.1613843 -0.7007084 -0.6458916 -1.0647509 -0.018382192 0.33142212 0.48284328 -0.35997707 -0.18671647 -0.25749096 -0.13571168 -0.8190325 0.9324317 0.42229494 0.04044294 -0.5722488 -0.054273095 0.72983545 -0.6787673 -0.5095627 1.1107019 -0.3944025 0.12018739 0.8207629 -0.0043640197 0.67990977 -0.14003082 0.0076956716 0.44287148 0.7468845 -0.36555308 -0.083845146 -0.33957168 -0.50989604 -0.10407287 -0.31956807 -0.70131415 -0.46650207 0.66455036 0.98136926 -0.04922619 0.83801174 0.63718104 0.45054334 0.66066206 0.2565418 -0.048666827 -0.015807513 -0.044529464 0.34719473 0.8197941 -0.8421073 -1.0010062 -0.8550879 -0.33804825 -0.9159377 -0.20255017 0.69088745 -0.061740905 -0.43732473 -0.12286251 -0.48479164 0.5223768 1.0296854 0.583858
1553 -0.19895461 -0.02457987 -0.19528767 -0.62131494 0.1326268 0.55743414 -0.22527364 -0.04720636 -0.7454156 0.4637669 -0.013677386 0.09032056 0.36946642 -0.2802678 -0.108662345 -0.44600424 0.18488275 0.36391416 -0.13447309 -0.19549513 0.05375279 -0.17295568 -0.20789452 -0.1596832 -0.041991092 -0.4555588 -0.02083816 0.09227955 -0.20465566 0.6807758 0.1574503 0.3300122 -0.6708983 0.25580755 -0.29739222 -0.043813795 -0.42550918 -0.055849414 -0.11732883 0.309178 0.37841803 0.04530128 0.5177509 0.24709596 -0.28079796 -0.1397659 -0.1859182 -0.45545846 -0.39267752 0.15581168 -0.11611911 -0.43732235 0.14904009 -0.06589338 -0.059500903 -0.4849862 -0.23569468 0.43054724 0.067747034 -0.4538085 -0.07415242 -0.2985148 0.1703741 -0.4144292 -0.26672363 -0.8695498 -0.5042568 -0.088437214 -0.545903 0.23002608 0.69600075 0.16583039 -0.7059605 -0.40165406 -0.25059414 -0.26701096 -0.055274166 -0.062062867 0.20674588 0.062873565 0.12912166 0.4373378 -0.2766558 0.22961387 -0.10862078 0.057368983 -0.34850317 0.33775046 0.23332131 -0.49339733 0.18541756 0.17563826 0.04811376 -0.09558648 -0.65514517 0.17441233 -0.030654715 -0.6329753 0.3423074 -0.25235125 -0.085920595 0.27885866 0.5576793 0.1336743 0.24014165 -0.1898181 -0.06428363 -0.69495535 -0.5065026 -0.05305556 0.29312724 0.9560035 -0.6257845 -0.20663692 -0.016975734 0.25262448 -0.52112794 -0.7693688 -0.6336033 0.3603475 0.24400531 -0.6739712 -0.07837489 -0.21426524 -0.5242018 -0.18922484 0.2512392 -0.55789155
4468 -0.33354717 -0.21052144 0.33514768 -0.9339416 0.16564505 0.8741534 0.14582495 0.2415148 0.766222 0.5766864 -0.3912408 0.34470892 0.53320414 -0.2979127 -0.39955354 0.00896532 0.9828802 0.07102748 -0.3825685 -0.004566229 -0.018567484 0.15344588 0.37789497 -0.5572633 0.34719247 0.1384918 0.074321225 0.23369364 -0.11268561 0.41154256 0.06474466 -0.49599624 0.026737494 0.9295896 -0.23026137 -0.1749565 0.35551584 0.015288512 -0.374031 -0.21671401 0.23225386 0.011610198 -0.4439577 0.36164477 -0.8846111 0.63159955 -0.18934564 -0.07452014 0.0020972274 0.5231426 -0.55169517 -0.14025421 -0.0014300228 -0.04111898 -0.733181 -0.5953139 -0.5443483 -0.21235245 -0.38887295 0.059647292 0.56273586 0.49230027 -0.5287041 -0.29873034 0.08369489 -0.25413635 -0.6385613 0.37331203 0.17264402 0.33272567 -0.4344616 -0.6518799 -0.45959204 -0.6729754 -0.15781416 -0.40796214 -0.023330484 -0.3746261 -0.854022 -0.128775 -0.18114194 0.8594071 0.54257137 -0.3499332 -0.26883614 -0.46965933 0.023289071 0.19861867 -0.59128 0.1073493 -0.1379803 -0.027444554 0.17192097 0.21768206 -0.28045276 0.017712047 0.5345612 -0.3864112 0.33252004 -0.61442035 0.24536571 0.066194214 0.48150337 -0.35014665 -0.30074936 -0.16254053 0.22834669 0.20752414 -0.5165371 0.05361326 -0.0617113 0.1023826 0.23383841 -0.24522342 -0.100638874 -0.8135977 -1.4049766 0.21203293 0.27636427 0.46959698 -0.35584533 0.57894874 -0.030177051 0.16635025 0.68547314 -0.051066477 0.21160439 1.0911925
3563 0.029281927 -0.018131638 -0.37581164 -0.28483874 0.07483582 0.3457074 0.27832818 -0.82669514 -0.09552174 0.69834036 0.096798375 -0.08763469 0.36947265 0.21928705 -0.35362577 0.032139294 -0.07173755 0.47142243 -0.3822071 -0.40213403 0.2689123 0.25653985 -0.04517274 -0.04523159 0.17846102 -0.40487748 0.15087901 -0.2878017 0.33859563 0.16140534 -0.42618212 -0.33217427 -0.33695808 0.23220155 0.0050157183 0.3618389 -0.17973486 -0.02676062 -0.37361318 -0.07581308 -0.17171264 -0.25809604 -0.12365487 0.22639008 0.43291932 0.45498425 0.21306734 0.13699616 -0.07824312 -0.12274132 -0.39274636 -0.5121424 0.20562014 -0.38098276 -0.20082377 -0.17630774 0.1311922 0.02629421 0.22027723 -0.0022348012 0.13293834 -0.07075496 0.13529713 0.0063117533 0.39935857 0.056722753 -0.66889316 -0.10211545 -0.34207448 -0.07986886 0.15567882 -0.22060049 -0.39710677 -0.3621413 -0.1299495 0.0015926645 -0.20633803 0.25012535 -0.3677035 0.1879098 -0.07317043 0.47178847 -0.04148152 0.37285632 -0.4534389 -0.039647635 0.43779066 -0.022794234 0.36178884 -0.26149666 -0.28037116 -0.079444215 0.16529411 -0.17134897 0.09651503 -0.38093254 -0.09818261 0.11319469 0.31101274 0.305245 -0.38634664 0.78010285 -0.09288292 0.15770431 0.100884184 -0.5976194 0.04328355 -0.31931397 -0.022820085 -0.05027588 -0.22960936 0.0017721175 -0.012410321 -0.5056331 -0.23002088 -0.0024987513 -0.12953544 -0.06765701 -0.628893 -0.55801445 0.5578826 0.69792765 0.010337833 -0.2918344 0.356404 -0.04533283 0.15204191 0.014793822
18130 -0.057938434 -0.054817613 0.5546537 -0.520474 0.30626312 0.5817681 -0.29017138 -0.21263649 -0.3309772 0.23987329 -0.56144565 0.38279402 0.059882578 0.10038736 -0.17694762 -0.18625332 -0.17102297 0.5034373 0.21030743 -0.6962026 -0.86225486 0.13249244 -0.23178658 0.5285103 -0.25643486 0.663419 0.028396113 -0.09600372 -0.09320586 0.545964 -0.1977033 0.60866266 0.13343452 0.17210002 -0.18595189 -0.33367744 0.050790947 0.14404592 0.3219015 -0.64933634 -0.16642448 -0.13918957 -0.32729125 0.25226364 0.12278311 0.6443119 -0.2500532 0.00048642117 0.30537716 -0.42462137 -1.031188 0.08800296 0.095266886 0.6760921 -0.1689407 -0.050119333 -0.65610343 0.10129723 0.6327992 -0.24140576 -0.28268647 0.24657221 0.0051479866 -1.2506984 -0.02316594 -0.33651644 -0.7319805 -0.6517173 -0.093141705 0.22386132 0.4825897 -0.32426476 0.40944588 -0.3844722 -0.45140886 -0.013438501 0.08550154 0.23809022 -0.7034734 0.7048767 -0.03418087 0.10297881 0.17045009 -0.04920609 0.6491518 -0.2549824 -0.15439765 -0.18833278 0.2578005 -0.4052248 -0.32562163 -0.30804974 0.57712775 -0.12332388 -0.461523 -0.36948556 -0.250261 -0.19068378 -0.3803917 -0.21009669 -0.25212482 1.1167468 0.06230929 0.66987866 -0.003223607 0.30501074 -0.24409023 0.19691257 0.033430096 -0.21608025 0.04450869 0.08487643 -0.9854404 -0.44797596 0.15080154 0.31050113 -0.41885608 -0.16717435 -0.14372014 -0.32568026 0.35963202 0.78781694 -0.45055905 -0.15637656 0.01031299 0.37451854 0.3449593 -0.119955204
21033 -0.6251956 0.5155652 0.37628382 0.73273104 0.57495445 -0.86876506 0.43509403 -0.8623449 0.37617993 0.70244527 -0.5947831 0.3455975 -0.54888594 0.5278978 0.26815888 -0.3084359 0.74293745 0.59469783 0.3328731 0.0753091 0.1912298 0.27908298 0.053392045 1.1540935 -0.21233079 0.0073674503 0.056718983 0.51709944 0.42096254 0.70965827 -0.5620014 -0.3147878 0.3110673 0.4173522 -0.5821791 0.10860745 0.11526364 -0.59821963 -0.4552743 0.031098625 0.24734476 0.68514866 -0.06111833 0.4139801 0.42800346 0.71074337 -0.18537797 -0.587091 0.6715335 0.8503615 -0.34826848 -0.17500445 -0.8464438 -0.19535314 -0.3792183 0.8978214 -0.85048556 0.44625115 0.3863364 -0.76616687 0.16062978 -0.53869855 0.43383875 0.28908464 0.012261402 0.23858091 -1.028471 -0.14735204 0.3009448 0.53015745 0.1520365 -0.049763307 0.7295955 -0.44420528 0.3655368 0.15744948 -0.43345323 -0.058865804 -0.25479963 -1.229452 0.2235679 0.8397908 -0.35847405 -0.13811459 0.99791586 -0.23078421 0.17936689 0.5243582 0.6164079 -0.07200505 -0.21069086 0.4472531 0.23532908 -0.8060833 -0.67161787 0.60754555 -0.093435384 -0.044465017 0.3140801 0.06658096 -1.0350524 1.3641341 0.18950187 0.09825971 0.2359241 0.34971598 -0.38071346 -0.0019328281 -0.2349906 -0.008290896 0.2828145 -0.39896682 -0.40727007 -0.16737875 -0.2441967 0.56815886 -0.0016546252 0.39651763 -0.21016803 0.49089128 -0.6239653 0.8228926 0.9238549 -0.029655179 0.0010935486 0.10185158 -0.21327637 -0.078609034
9136 -0.08779392 -0.08249892 -0.37822816 -0.41271418 0.2671193 -0.0047813486 -0.046708804 0.049112562 0.54913205 0.31541193 -0.6455574 -0.387247 -0.075140975 0.1530223 0.018336251 0.1912032 0.09690955 -0.5648157 -0.3428596 0.18491699 -0.26684088 0.2368653 -0.030932015 0.005972127 0.11454283 -0.081074424 -0.23843193 -0.15836693 -0.5205058 0.061502118 0.047710635 0.33745837 -0.38346148 0.2353001 -0.118199155 0.6851703 0.16891026 -0.13820681 -0.5846218 -0.39666137 -0.18227567 -0.067270674 0.21035057 0.025160713 -0.1360364 0.45029953 -0.04862954 -0.44909984 -0.20083103 0.046504837 0.13114825 -0.25557128 0.38393548 -0.21935478 -0.45105898 -0.11742628 -0.1937145 0.45858842 -0.085280105 -0.16993567 0.041773207 -0.0030184828 -0.06791447 -0.27926448 -0.22656915 -0.4524674 -1.1047174 -0.66670144 -0.007978546 0.30179772 0.17577088 0.2886727 0.08630246 0.0063406527 -0.039050125 0.6168677 0.07336001 -0.4075122 -0.13325119 -0.3531491 0.35362056 0.38012937 0.096245304 -0.22345427 0.03462442 -0.08591578 0.18871027 -0.20878361 0.08809488 0.14910991 -0.18901885 -0.37938684 -0.064246595 0.31402242 -0.11826277 0.04411445 0.076242596 -0.1217799 0.085337594 0.124066085 0.3553801 0.051469438 0.21358633 -0.18128757 0.20022127 -0.3260688 0.030291308 -0.4759781 -0.41160727 -0.09884762 0.10922821 -0.039105948 -0.64883804 0.018619018 0.15809691 0.44619942 -0.5321653 0.22056465 -0.014482512 -0.208267 0.39269426 0.82379144 -0.014495381 -0.6828246 0.24560814 -0.026485777 0.43255484 0.7275443
6644 0.34154806 -0.1645716 0.09563881 -0.16669959 -0.4045382 0.0885488 1.0257641 -0.55897135 0.14437622 -0.58330774 -0.66866326 -0.31147102 -0.28270215 0.44793 -0.35569116 -0.10380206 -0.39132363 0.14655448 -0.30125687 -0.17562428 -0.17328353 0.62966204 0.052965518 0.27310315 0.52819395 0.0838216 0.20892791 0.09062393 0.2672087 0.226653 -0.7402815 0.51848507 -0.86946535 0.03740447 0.61965126 0.4917577 0.57396287 -0.1250963 -0.34239188 -0.13184802 0.08558112 0.11375252 -0.2346736 0.4450922 -0.69632703 -0.08847742 -0.39518154 0.22745152 0.7852877 0.47336376 -0.35141966 0.054728687 -0.38297898 -0.5052779 -0.7007348 0.18739739 -0.88141763 0.3875781 0.6205583 -0.3284694 0.8175727 -0.047191195 0.39516374 -0.23126046 -0.11156253 -0.26393956 -0.47641253 -0.39207008 -0.36163238 -0.1966411 0.54148364 -0.22962137 -0.27217653 -0.17316368 0.21791318 0.39107502 -0.24094912 -0.39548203 -0.058982372 -0.32367453 0.6718972 -0.7851221 -0.34361306 -0.06387979 -0.007687128 -0.4302 0.07579092 0.18439959 0.5749736 0.03953304 -0.23358601 -0.6850631 1.2485676 0.7446363 -0.031588677 0.03253165 0.16475901 -0.37465176 0.35642314 -0.42464513 -0.56109387 0.15156913 0.6264125 -0.047277592 -0.58536 1.0298182 -1.4234641 -0.1987903 0.19977728 0.54346395 0.29638335 -0.94666696 0.00804046 -0.11877339 0.0018797723 -1.0256565 0.19583026 -0.092446595 -0.9361368 -0.46012384 0.829215 0.6951948 0.3690344 0.047370702 -0.3743227 -0.100841254 -0.10691208 -0.3343159
248634 0.45279002 0.03812329 -0.31739104 -0.5476406 0.5320224 0.0037972366 -0.107805006 0.21553546 -0.31874332 0.5418193 -0.8899267 -0.109969966 -0.14844118 0.11291653 0.23208386 -0.27451336 -0.037985623 0.118771665 -0.8396913 0.28828347 0.06951835 0.21123494 0.20835893 0.06451379 0.30296347 -0.11425173 0.022436485 -0.29503322 0.18005785 0.4589837 -0.14353067 0.25663218 -0.45007688 0.2001194 -0.6548562 0.09584663 -0.033623796 0.019813845 -0.5881607 -0.67417467 0.023037897 -0.037779972 0.45005137 -0.076834075 -0.5055842 0.0972439 0.005717299 -0.6848849 -0.14223963 -0.11440177 -0.63697875 -0.06957503 0.03314024 0.16135107 -0.72429556 -0.045196418 0.27636924 -0.18951051 0.326304 0.3774764 -0.14704324 0.2534328 0.26769605 -0.31379613 -0.1254355 -0.76745886 -1.4573293 -0.21868299 0.02302641 -0.2925271 -0.16199759 0.35023087 -0.49796042 -0.08274579 0.45015523 0.4053251 -0.13589287 0.3916029 0.15880227 -0.21091503 -0.45515183 0.662614 0.15228105 -0.058602452 0.053688478 -0.052123692 -0.14447616 0.06009767 0.62339926 0.22985765 -0.06528699 -0.31572637 0.38106024 0.1903594 0.61797696 0.40485275 -0.7242963 -0.19093095 0.5357378 -0.3264609 0.17943276 -0.23206244 0.2918589 0.18391468 -0.1634849 0.017976865 -0.17936158 -0.15598427 -0.10360157 -0.021415746 0.64287 0.62598044 -0.43324012 0.018570706 -0.12250804 0.12931886 -0.36864808 0.83943325 -0.5693319 -0.19159338 0.44360408 0.78378767 -0.42288196 -1.0536321 0.28261325 -0.47415087 0.34421387 0.85347676
5395 -0.1799817 0.19107158 -0.20935246 -0.3832931 0.51212907 0.039314944 -0.5881877 -0.5082562 -0.49038908 0.5557448 -0.19336447 -0.21431537 -0.32751283 -0.6147982 0.054069594 -0.33208704 0.48203516 0.22743708 -0.107478164 -0.057871178 -0.06603968 0.3018662 0.104934566 -0.07824193 -0.05736545 -0.29011163 -0.12847206 -0.20620209 -0.13533182 0.17306978 -0.32618564 0.32200664 -0.7698563 0.3372279 -0.027432442 -0.33600837 -0.06983059 -0.038805272 0.21443765 0.08818563 0.14049046 0.039740477 -0.34909368 0.013695715 -0.56489563 0.260551 -0.08877304 -0.2225681 -0.109060876 -0.21604384 0.019305108 -0.1454394 0.5199568 -0.47266948 -0.28049037 -0.33836848 -0.5745417 0.4778555 0.23361485 -0.50128555 -0.22522005 -0.023597812 0.24729618 -0.10614454 0.123983406 -0.56999296 -0.8173021 -0.0976102 -0.34207612 0.5271658 1.1251892 -0.49933928 -0.08679996 -0.27206865 -0.24558768 -0.15016323 0.13877809 0.3532209 -0.025515513 -0.03788792 0.09184445 0.32759902 -0.07167116 0.29444233 -0.08153466 -0.55975956 -0.1736138 -0.69535476 0.3613203 -0.35458294 -0.03649671 -0.55992967 -0.17604074 0.21896943 -0.15764792 -0.012870836 -0.37390286 -0.44391266 -0.19906482 -0.5100397 -0.60594404 -0.1780653 0.968155 0.020261172 0.21972896 -0.51166284 -0.15846846 0.22381645 -0.5071378 0.18244234 -0.22731565 0.43572965 -0.4447365 -0.44878417 -0.13703795 0.5081489 -0.4337457 -0.6686415 -0.63535845 0.1998224 0.30509314 -0.3055259 -0.5008246 -0.49998805 -0.31378826 -0.28954923 0.14120838 -0.34412903
4792 -0.047769014 -0.39643827 0.8506565 -0.11542755 0.10809604 -0.034725457 0.8913238 0.3068165 -0.07043508 -0.15090223 0.26377484 0.6595099 -0.5692163 0.2570805 -0.5282359 -0.025474168 -0.06949595 -0.20770745 -0.38174537 0.05815124 -0.29151422 -0.29150188 -0.13051692 0.4241105 -0.10045482 -0.3074422 0.2933591 0.26191625 0.30948696 -0.3827315 0.29414624 0.08480327 0.3435722 0.22091904 -0.14582819 0.4379801 0.13117793 0.11013693 -0.5842031 0.011908698 0.40997747 0.06886827 0.50519276 0.66743225 0.18297708 0.05368348 -0.30271706 0.6029575 0.12756932 -0.4439247 -0.1462334 -0.38299334 -0.33647403 -0.02907931 -0.090013824 0.18630181 -0.062489912 0.45144305 0.1371425 0.30247658 0.016306631 0.31408176 0.19145411 0.3933963 0.20324306 -0.020560583 -0.5566098 0.6206554 -0.16537766 -0.45779687 -0.19940762 0.19713405 -0.3345861 -0.45782524 0.09581137 0.051221058 0.7352337 -0.25325033 -0.5232207 -0.03687746 0.70236254 0.14890662 0.09440252 -0.08788452 0.102573775 -0.28746188 0.22846414 -0.057713166 0.8236419 -0.2750876 -0.47073454 -0.8042796 0.5293913 0.08786538 -0.49174184 0.12388805 -0.04913316 -0.27913114 0.21676958 -0.4113691 -0.21290997 0.2484334 0.2189851 -0.16253564 0.14289857 0.118523516 -0.3798409 0.12088153 -0.46573305 -0.5292327 0.13285497 -0.820496 0.053123295 -0.19350943 -0.087239735 -0.1867084 -0.33530077 0.10328389 -0.73044854 0.36430994 0.16681507 0.16130003 0.22452173 0.010874919 -0.31578442 -0.0061890073 -0.06125409 0.41458338
1632 0.28287143 -0.3452959 0.11882723 -0.53979117 0.5322355 -0.20419757 -0.38717225 0.079173885 0.17783989 0.35980642 -0.65423286 -0.003550581 -0.24813111 0.02905756 -0.08324722 0.4547219 -0.32204643 0.12515724 -0.1437307 -0.49015248 -0.25308955 -0.3858878 0.54398066 0.1864589 0.2932953 -0.09515056 0.02297931 -0.106663436 0.420783 0.43425226 0.3628316 -0.0042593745 -0.75083363 0.23806018 -0.33424217 0.35736227 -0.13689499 -0.30853733 -0.17040518 -0.2416026 -0.51172465 -0.521254 0.20689277 -0.2237686 0.14055727 -0.028325867 0.39034477 -0.23862562 -0.42957273 0.048835393 -0.3476281 -0.3295466 0.6329208 0.33765844 -0.70607036 0.05674188 -0.072493605 -0.08547223 0.20666902 0.052505787 0.03791076 -0.05593726 0.12552685 0.054743078 -0.3981925 -0.7931449 -0.5843059 -0.22818862 0.20556894 -0.15713449 -0.3554766 0.21025178 -0.20150745 -0.5011156 -0.059277743 0.18647338 0.3282368 -0.028553681 -0.20787472 -0.095520295 0.022635268 0.1917158 -0.4131518 -0.41953632 0.38290468 -0.06153166 0.11746669 0.25959152 0.2857234 0.28630185 -0.07930415 -0.28488308 0.08095055 -0.037818152 0.033841178 -0.054754682 -0.53987837 0.33528876 0.2620193 -0.6732328 0.24376935 0.26037052 0.5469765 -0.16182052 -0.2861447 -0.19030058 -0.509086 -0.25761583 -0.5765552 -0.27836403 0.25013638 -0.3325609 0.052046075 -0.33101988 -0.04470066 -0.14453766 -0.58136845 -0.33827204 0.013137522 -0.14975262 -0.07637753 0.5861851 0.09015252 -0.89608663 0.07181948 -0.15450792 0.38333 0.1817983
13382 -0.5344421 0.04968736 -0.14487255 -1.0214545 1.0435491 0.11215739 0.21479583 0.3661309 0.37471533 0.4433281 -0.66368043 -0.5675507 -0.06692534 0.21051186 0.27347282 -0.013031952 0.2076677 -0.25286523 -0.80190796 0.54304534 -0.48867202 -0.19839871 0.4465129 0.3142693 0.63163763 -0.2967141 -0.051270377 0.4605188 -0.5330207 -0.016763726 -0.20941396 -0.5742022 -0.9793286 0.51660377 0.1758656 1.0815372 -0.22711407 -0.33783793 -0.1855063 -0.60448086 0.7132051 -0.00165602 -0.0069444813 0.3172689 -0.83748955 0.3135775 0.0076954006 -0.20094767 0.037442636 -0.33758688 -0.70920837 -0.11200333 0.7914083 -0.54629207 -0.434764 -0.6464108 0.120735675 0.12631375 0.39929277 -0.38122877 0.120252796 0.54744786 -0.6155507 -1.0160475 0.076376796 -0.71080095 -0.59281266 -0.24894239 -0.18131065 -0.12708475 0.300005 -0.12686217 0.5085134 0.040822737 -0.55305314 0.3892954 -0.3295651 -0.29399958 -0.045322735 0.4897676 -0.3753796 0.22630641 0.33175075 -0.22212854 -0.06335529 -0.023411669 0.47626382 0.42068654 0.08871917 0.3889848 0.031486027 -0.4580029 -0.3529786 -0.13046023 -0.0015123879 -0.07803562 -0.312382 -0.2763197 -0.11342717 0.3148637 -0.06495143 0.075536005 0.038814623 -0.1485889 0.111263104 0.03535714 -0.115643635 -0.40315947 -0.811287 0.47453517 0.23628065 0.14408432 -0.54736614 -0.14364485 -0.21045768 0.13444692 -1.1858462 0.46805537 -0.06785725 -0.084743954 0.4208189 0.20348182 -0.18535733 -0.3311102 0.26276758 0.5978419 0.61634076 0.8064234
17532 0.20238681 -0.2883158 -0.123270385 -0.24320018 0.49345535 0.722343 0.0017473807 -0.32391253 0.20437527 0.8402696 -0.8759062 0.038277846 -0.12387747 0.23051198 -0.49960494 -1.0281607 0.03463679 0.3483651 0.47917303 -0.64304453 -0.047945805 -0.081117354 0.3815111 -0.026918871 0.13417967 -0.53060323 -0.6049865 -0.08565615 0.14708142 0.259922 0.16045512 0.57904106 0.3734573 0.5222055 -0.25180802 0.077233315 0.060782716 -0.10966333 -0.25278085 0.39750785 0.358191 0.24719496 -0.41633576 0.84429497 -0.63889843 0.45228288 0.42073458 0.5258164 0.11731389 -0.22779574 -0.7997629 0.5036369 0.647491 0.3739962 -0.3568655 -0.09762311 -0.03257731 -0.30175245 0.3575774 -0.66648644 0.20926778 0.7874902 -0.4958323 -0.05786201 -0.7326488 -0.6262225 -0.9059121 -0.15175964 -0.08461387 0.10741438 -0.9049995 -0.76479 -0.31254858 -0.4039174 -0.080069855 0.27278125 -0.02590504 -0.51237714 0.24456416 0.2162748 0.23412775 0.46756697 -0.59118456 -0.03549593 0.4366963 -0.14575663 0.55637705 0.28669494 0.5937719 -0.04103114 1.5848602 -0.40489122 0.28532222 0.5404654 0.07030404 0.22621256 -0.8245596 -0.06545572 0.37140852 0.23755223 0.31087214 -0.681084 0.5159912 -0.13943988 -0.4527624 0.14529856 0.21192761 -0.6237862 -0.993286 -0.7905717 -0.05758796 -0.2038743 0.7703521 0.13293608 0.16803108 -0.57003856 -0.28871253 0.24095903 -0.27182165 -0.6099152 0.37743983 0.67370653 -0.13850966 -0.7074487 -0.029574824 0.35106635 0.102992445 0.62452245
18957 0.18398216 -0.29877537 0.23742731 -0.6448285 0.43176264 -0.38525298 -0.50246334 0.0027365382 0.2132884 0.43783224 -0.77080053 -0.11417391 -0.27495164 0.14862041 0.1093096 0.28932786 -0.109658666 0.27887172 -0.2740245 -0.43253747 -0.37659025 -0.32450944 0.804709 -0.109593816 0.49513185 -0.22530416 0.27426672 -0.24845402 0.6284289 0.22816804 0.4567468 0.06886929 -0.73477477 0.23036046 -0.20848191 0.15500706 0.10665719 -0.29584497 -0.19069472 -0.13200629 -0.5371475 -0.48395574 0.16039442 -0.17618664 0.25933558 -0.15502167 0.3580153 -0.35516408 -0.483086 0.12190294 -0.38405553 -0.16336872 0.6323745 0.39260885 -0.62285244 0.033462904 -0.13512817 0.06454671 0.16557029 0.11055605 0.20974283 -0.122126296 0.07359066 0.10989636 -0.32597023 -0.79335773 -0.88919276 -0.30688405 0.12668163 0.073260084 -0.35607934 0.12452274 -0.024026839 -0.31799787 -0.06851291 0.06475635 0.22010066 -0.3166382 -0.41683978 -0.07852687 0.0657927 -0.08731422 -0.41512474 -0.326047 0.3634555 -0.1646644 0.16237485 0.16263439 0.2740297 0.23054285 0.032615535 -0.29186207 0.0976685 -0.05130491 -0.17296368 -0.12230358 -0.36714712 0.4159436 0.19121103 -0.59296644 0.11494596 0.21646987 0.48948827 -0.14137113 -0.38065416 -0.15985034 -0.22606356 -0.15919092 -0.7001216 -0.24691972 0.2833658 -0.22196215 0.05997546 -0.595511 0.06756811 -0.07545593 -0.65648526 -0.3447848 0.08561704 -0.114958644 0.1931337 0.7451144 0.0107546365 -0.9790096 0.0967805 -0.05394657 0.43404356 0.23525675
1331 0.36252517 -0.53168195 -0.42559275 -0.08192379 0.5079304 0.005106454 0.32996336 0.34972736 0.18531802 0.5213474 -0.40151894 -0.2958615 -0.30364484 0.7457374 0.3507661 -0.29388246 -0.28648746 -0.14157462 -0.001277063 -0.57609665 0.28451255 -0.07857473 0.5161462 -0.17336167 0.9344042 0.010896008 -0.014622215 -0.6880224 -0.56786203 -0.2556273 -0.042163827 0.64293617 0.22583441 0.06934802 -0.6267558 0.31453037 -0.4845661 0.121417284 -0.26553193 -0.031745497 0.015971135 0.66110945 -0.28618866 0.21086664 -0.17237076 0.32067654 -0.013915038 -0.033200588 0.26498863 0.08056247 -0.83325124 0.1826443 0.35260344 -0.27352688 -0.7659724 0.19462827 0.12927571 0.13211048 -0.30113146 -0.21635792 0.11119273 0.15643865 -0.16282086 -0.29724038 -0.45294863 -0.03190294 -0.5553912 0.66881406 -0.35212564 0.6304799 -0.24479964 -0.48740745 0.009471026 -0.69223285 0.20605277 0.117961496 0.033722688 0.06591124 -0.41976047 -0.6457374 0.75227994 0.059395533 -0.5538308 -0.19317867 -0.27468106 0.13835502 0.14862606 -0.0052137407 0.04925757 0.030503122 0.8495432 -0.3263745 0.22179317 0.02279891 0.03938471 -0.06333757 -0.27978548 -0.27959985 -0.3557845 -0.13920537 -0.06701327 -0.1367858 -0.106529824 -0.3547347 -0.09701243 0.014655901 -0.14281248 0.15056735 -0.1401266 -0.21151844 0.3648101 -0.33251098 -0.4725359 -0.19869082 -0.33732933 0.2272155 -0.65945643 0.22643937 -0.41146493 -0.04537528 0.40850216 0.19265452 0.06395954 -0.004729138 -0.33332264 0.15136667 0.31021258 -0.074345686
14277 -0.40148166 -0.41952035 0.38585183 -0.38992375 -0.34821737 -0.5965989 0.5671303 0.3393739 -0.120860755 0.3017036 -0.12244242 0.4722895 0.019629069 -0.054746028 -0.31162554 0.18566701 -0.4369964 0.10044829 0.13656054 0.12278523 -0.16736642 0.4933664 -0.00080614624 0.86484927 0.18499719 -0.46072474 -0.051246222 0.15460186 0.26572973 -0.041925356 0.36327183 -0.019653708 0.03581655 0.30277517 -0.003745286 0.6142173 0.085494064 -0.15370238 -0.38696715 0.0017676239 0.7184036 0.3122215 1.0447824 0.5877016 -0.09052311 -0.41976562 -0.037924908 0.479811 0.15242513 -0.31092772 0.11107328 -0.14595754 -0.60720104 -0.29529864 -0.14286575 0.56622934 -0.29992175 0.2049802 0.112509176 0.124239095 -0.096806794 0.061292414 0.24818693 0.19910203 0.4313556 0.37244982 -0.5566692 0.43496278 -0.25073972 -0.7963873 0.4711989 -0.063631125 -0.67500323 -0.30096716 0.20459163 0.11825638 0.2501511 0.11839877 -0.6535089 0.17866042 0.11178683 -0.036150966 0.20602202 0.41111276 0.24769649 -0.19316593 -0.31616402 -0.4849091 0.92129755 -0.10852986 -0.2434415 -0.87161434 -0.029572232 0.39316234 -0.16693038 0.040873207 -0.1961053 -0.55880976 0.22384277 -0.023475181 0.13707581 0.043823678 -0.2405533 -0.057858735 0.5399526 0.0710887 0.29070538 0.03444943 -0.22168347 -0.103416614 0.46858832 -0.72856104 0.16653548 -0.3673808 0.21735314 -0.09728317 -0.558653 0.23047243 -0.44738752 0.07378823 0.12403777 0.55105126 -0.12555182 -0.2081097 -0.6819085 0.09027117 0.15699184 0.3377746
5291 0.039808184 -0.41762003 -0.23614241 -0.09662321 0.4353967 0.7719375 -0.18151174 -0.18599083 -0.32488906 0.56053734 -0.55344266 0.27583304 -0.051941898 0.5608777 -0.06530263 -0.28140268 0.028977752 0.20408131 0.6321887 -0.37194964 -0.14509861 -0.028161727 0.05057584 -0.05183824 0.3812552 -0.65846145 -0.18688346 -0.15366702 0.11862041 0.41911983 0.2324788 0.11701997 0.2837736 0.6360647 -0.25573304 0.0912221 0.23248416 0.02511363 -0.35178307 0.00015702046 0.27410272 -0.0053343903 -0.053188488 0.56100446 -0.60605043 0.44663036 0.4870813 0.38532108 0.23878199 -0.0069906027 -0.62670326 0.5085194 0.7526757 -0.10585578 -0.77911174 -0.04522798 -0.34889984 -0.2894692 0.33351803 -0.25886396 0.13413389 0.18487336 -0.012385401 -0.36385792 -0.64806575 -0.427105 -0.7595606 -0.14919059 0.18591149 0.064784914 -0.6135242 -0.53992325 -0.24642 -0.40602767 0.1111624 0.43073282 0.20486453 -0.6023715 0.4021861 0.15216191 -0.060260963 0.37787285 -0.3767897 -0.4406862 0.4677859 -0.033870537 0.2655184 0.19798046 0.5361346 0.05805144 0.98920053 -0.30493665 0.21192883 0.2782404 0.16830787 0.05352947 -0.42209244 -0.42960927 0.48149276 -0.32991758 0.22680274 -0.6638542 0.44330397 0.15308404 -0.73748296 0.17398325 0.009750692 -0.5996672 -0.50998944 -1.1348549 -0.1141609 -0.52912104 0.41716433 -0.3213718 0.2782399 -0.51805556 -0.48965234 0.22773746 -0.15621044 -0.544564 0.4086461 0.50770307 -0.1798788 -0.7900772 -0.26259837 0.12598224 0.30058798 0.4303179
5111 -0.18281394 -0.009009881 0.490947 -0.3698396 0.19331074 -0.031641383 0.8720427 0.8401889 -0.040578447 0.36172205 0.1634384 -0.6648644 0.273379 0.824812 -0.25911236 -0.29460526 0.6111795 0.2461267 -0.027884802 -0.82827616 -0.1721854 0.7699201 0.40742728 0.183897 -0.41443467 0.44368142 -0.14853597 0.033390768 -0.5137542 0.871822 -0.07642814 0.063455164 0.5328772 -0.36205482 -0.41207653 0.1137901 -0.42314768 -0.12681678 -0.33076715 -0.14330332 0.34180075 0.20484346 0.17645952 0.09187399 0.23178352 0.38435504 -0.18967183 0.14505382 -0.5231864 0.296899 -0.4404421 -0.3926025 0.3206183 -0.048149638 -0.92415756 -0.13550866 0.23286963 -0.44262964 -0.58044857 -0.74720895 -0.6015443 0.4055237 0.7410488 -0.20415635 0.4646242 -0.3576196 -0.39657375 0.2502747 0.531786 0.20229764 1.0779953 0.54379267 0.28860137 -0.26532382 -0.7519374 -0.411339 0.67703056 -0.38492522 0.062442593 -0.39402142 -0.7837062 -0.089698985 -0.41014862 0.4531061 0.20854777 0.31416032 0.6881454 -0.5205324 0.6371865 -0.43274125 0.05231544 -1.0648946 0.5886856 -0.22183056 -0.59743655 0.13704641 -1.2243181 0.0033618005 -0.03293669 0.07908492 -0.512803 0.317219 0.9610605 0.31855637 -0.2650613 0.3230911 0.4941705 -0.47500104 -0.076251335 0.089828335 -0.2778145 0.20980044 0.13356085 -0.1938923 0.14306968 -0.5480643 -0.96477556 0.4558746 -0.40858293 -0.3015135 0.078655735 0.5572386 -0.3906561 0.13732868 -0.27536452 0.17578712 0.7087887 -0.040712666
15360 -0.015058359 0.20710811 -0.26183742 -0.41878974 0.19784288 0.19722244 -0.2587687 -0.58348733 -0.24549226 0.62780493 0.19806726 -0.032762095 0.21100937 0.24796863 -0.43002918 0.2885355 -0.2500297 0.511677 -0.37923396 -0.52302 0.49470377 0.33913624 -0.08007954 0.2953218 -0.15298583 -0.5971538 0.17507152 0.015096025 0.35371622 -0.12844728 -0.44712222 -0.6408339 -0.30860728 0.49970275 0.11862256 0.5190059 -0.31125236 0.19514394 -0.4326081 -0.062620446 -0.09630943 -0.2214431 -0.124518685 -0.05664503 0.27765268 0.2999125 -0.3529827 -0.071336396 -0.03598026 -0.10903111 -0.41811535 -0.7499891 0.11725977 -0.13874862 -0.43569344 -0.43490466 0.271409 -0.2526571 0.11195378 -0.21560968 0.014855259 -0.31568673 0.17904568 0.15943293 0.108898714 -0.27689007 -1.1019958 -0.11009796 -0.41047317 -0.19294249 0.41863796 -0.053408127 -0.35743287 -0.51832926 -0.7948902 -0.014763298 -0.29403317 0.058845647 -0.17971411 -0.0022635723 0.22171736 0.22635497 0.0025136159 0.16510263 -0.23255992 -0.3500453 -0.11064306 0.07446971 0.3262199 -0.07015977 0.07332203 -0.25838646 0.07055599 -0.14734152 -0.0010200272 -0.34164152 -0.10825712 -0.041950762 0.3929924 0.2622076 -0.5011266 0.7890167 0.09590613 0.18811281 0.38180143 -0.40641102 0.2519109 -0.3028974 0.20214333 0.030559834 -0.56229436 -0.09980041 -0.11180289 -0.7874727 -0.5099599 0.09054134 -0.029787948 -0.551535 -0.72698873 -0.63065994 0.6647093 0.56653124 0.11705946 -0.3850512 0.50005955 -0.3042363 0.23383826 -0.03596182
2289 -0.4242693 -0.16468285 0.491212 -0.08438583 -0.49781212 -0.6282374 0.45324054 0.26790735 0.06609989 0.39992887 -0.35956228 0.6613677 -0.30286518 0.035397355 -0.60045326 0.029688083 -0.5686109 0.41359603 0.33829764 0.05221843 -0.19545753 0.6052732 0.2731684 0.58638144 -0.12780558 -0.35265166 0.21410032 0.2650368 -0.008165696 -0.319139 0.07255262 0.109151855 -0.22893083 0.04825903 -0.20716044 0.33434093 0.0066512413 -0.12648936 -0.49518356 0.20222765 0.559627 0.40425816 0.8533483 0.49202016 -0.23751174 -0.3210548 -0.07061659 0.2506482 0.03619404 -0.30023915 0.062452637 -0.20189 -0.91521204 -0.15865308 -0.13821799 0.47889146 0.18379062 0.14483055 0.5919863 -0.18705264 -0.039775025 0.074536406 0.28805417 0.4460458 0.2917148 0.10355006 -0.57150394 0.04607063 -0.40491688 -0.9244985 0.044708375 0.03166765 -0.31462976 -0.30195916 0.045655686 0.18571693 0.39984933 0.012002109 -0.42724746 0.030231072 0.2031447 -0.1287037 0.25488946 0.34867057 -0.24421805 -0.12329027 -0.36472952 -0.27035913 0.9484789 -0.16648954 -0.23107699 -0.87518704 0.11195332 0.34334 -0.11931378 0.02730347 0.12924798 -0.28417176 0.17052542 -0.14707498 -0.24808118 -0.14690562 -0.1445767 -0.23499063 0.28429198 0.0079633575 0.26108912 0.08696482 -0.38695726 -0.21550693 0.35699973 -0.5354101 0.12265396 -0.42308822 0.15482336 -0.25325587 -0.4472121 -0.07899306 -0.5395754 -0.14245199 0.11612827 0.015258682 0.30592006 -0.3981505 -0.63366884 0.0066388575 0.34569317 0.5896166
19720 -0.94372797 0.24505234 0.25876477 -0.7017717 -0.5525519 -0.015596949 0.81798226 -0.2647433 0.2701787 0.57878053 -0.7233414 0.594729 -0.34774342 -0.21200672 -0.5151754 0.23183338 -0.11428831 0.4566827 -0.37674347 0.18386818 0.07197375 0.45701125 0.15037405 0.32424852 -0.16928491 -0.37818405 0.275081 0.09840895 -0.33538666 -0.13934165 -0.045363583 0.60324144 -0.16470179 -0.09254234 0.18847257 0.5999458 -0.500391 0.1484812 0.189787 0.38693985 0.5636708 0.6184909 0.91416335 0.4438685 -0.23792654 -0.74525166 0.5005096 0.46910045 0.7431192 0.56909627 -0.09999806 0.32676536 -0.48870182 0.038369857 -0.39854783 0.39025778 0.2987895 0.056153756 0.121788286 0.45512828 -0.23543634 0.22781456 -0.1697147 0.45209485 0.6264207 -0.018287383 -0.72935593 -0.20324634 -0.7110507 -0.07474266 -0.1605961 -0.29589304 -0.7999381 -0.5179641 -0.9018385 0.05427076 0.4073026 -0.1203238 -0.26399136 0.35272428 0.8219587 -0.10252376 0.26638252 0.21902792 0.1918374 0.84996355 0.15514454 -0.48192233 1.5251254 0.3194946 -0.37222055 -1.302109 0.002435995 0.10259915 0.20762037 0.03349541 0.28067708 -0.95299965 -0.31787193 -0.33308926 0.24768867 0.7325791 0.21276593 -0.23367514 0.1810157 -0.045693588 0.28260684 -0.044532206 -0.2936828 -0.72931385 0.8579549 -0.75645393 0.2889514 -0.20130292 -0.023390725 -0.09847381 -0.20632991 0.3772885 -0.6708663 -0.1846685 0.23372762 0.45868027 0.62736356 -0.33443138 -0.58392555 0.3111885 0.12336644 0.12917973
25296 -0.050175965 0.19414687 -0.24059334 -0.50855696 0.28611538 0.50589603 0.3736006 -0.37914115 0.22361024 0.9412968 -0.4432611 0.033240438 -0.07854756 -0.29173934 -0.39413354 0.22434932 -0.056437805 0.3880114 0.07838028 0.0080334935 0.6497409 0.50055605 -0.036924288 -0.73006016 0.75500995 -0.40340042 0.15298486 -0.6858801 0.28291184 0.51089495 -0.4671275 -0.122689776 0.31002736 0.2570464 -0.090159066 0.14890572 0.022892583 -0.5687051 -0.33140993 -0.116113245 -0.0585626 0.06532632 0.2128169 0.69959587 0.08017162 0.8838908 0.40399474 0.37014517 -0.11450124 0.29759866 0.10890945 -0.71818274 0.16829617 -0.41599175 -0.01241668 0.4443835 0.8160526 0.2455675 0.45997977 -0.15386623 -0.30751246 -0.31983668 -0.4790101 0.72026914 0.1714292 0.28909138 -0.8960937 -0.0007201481 -0.10855074 -0.5340569 0.31821877 -0.6804527 -0.33724236 -0.4701757 -0.5121651 -0.1302119 -0.04148308 -0.09954873 -0.48504335 0.15815584 -0.15532707 0.7731108 0.30055788 0.58650535 -0.26709795 -0.7744259 0.18089695 0.07285834 0.3206168 -0.11158675 -0.41137388 0.014840363 0.18603724 0.22892791 -0.17300145 -0.39807364 -0.07604308 0.0025656787 -0.10985913 -0.19382246 -0.472168 0.915554 0.6402468 0.57781607 0.004796758 -0.97269684 0.044362113 0.010709241 0.49889612 0.71805745 0.14676872 -0.05205266 0.5011638 -0.10123288 -0.043061595 0.37382063 0.19345482 -0.053805735 -0.43339416 -1.0534983 0.5772072 -0.1422964 -0.05807333 -0.2470439 0.3086332 0.16860479 0.6237107 0.1402198
6151 0.31559488 -0.2896328 0.52517647 0.06583287 0.11218183 -0.0030347002 -0.09433727 0.24314113 -0.07226356 -0.10668562 0.04609208 0.426877 0.3946922 -0.40298754 -0.07699178 -0.09977231 0.110849805 -0.44769424 0.01385554 0.08378013 -0.3345464 0.36001408 -0.04377119 -0.45758876 0.76800734 -0.34932128 0.12704434 0.17810762 -0.12304286 -0.14961055 -0.8878445 -0.0931072 0.12873545 -0.14894146 -0.23011743 0.060127582 -0.4861364 0.1464162 -0.02727951 -0.6631777 -0.093635835 -0.19535346 0.04991982 -0.1591262 -0.29323387 0.2557434 0.25310946 0.8055888 -0.18222924 -0.17934567 -0.13718738 -0.22935377 -0.22045119 0.16026221 -0.4356496 0.12549521 -0.21178484 0.35995373 0.51994956 -0.8831335 0.22494644 -0.15681112 0.38262308 0.045863535 -0.59587353 0.33188978 -0.005934529 -0.36590284 0.017647581 -0.1942607 0.52741945 0.08706894 -0.55168813 -1.2283194 0.45402303 0.35883066 -0.016503455 -0.66600347 0.12515207 0.4787918 0.54442066 0.12740126 -0.028314076 0.2094786 -0.55035555 -0.16392565 0.011853133 -0.32218254 0.5906016 0.14358988 0.06987744 -0.47612873 0.5697204 0.6272905 -0.24209923 0.60054195 -0.34970668 -0.04501136 0.4908056 0.3025971 -0.14322132 0.38751122 0.15784122 0.5000254 0.4340913 0.6944087 -0.29127544 -0.12424345 -0.25588986 0.10874755 0.039481293 -0.38805446 0.51819396 -0.01741153 -0.067807615 0.17897226 -0.9020655 0.9855716 -0.15250406 0.45097592 -0.21809414 -0.48542476 0.71954024 -0.54416203 0.034186184 0.48415402 0.12880667 -0.04377026
22563 0.1090334 -0.29657564 -0.5916525 0.35642365 0.39146948 0.49882674 0.35052085 0.105747186 0.048908755 0.2000891 0.44435298 0.25771183 -0.21772133 0.7732189 -0.019934677 -0.2560996 1.1235163 1.2374113 0.3810987 0.2706893 -0.035010897 -0.24796514 -0.43810898 -0.32531568 -0.28526732 -0.0824303 -0.4967183 0.15691788 -0.17696975 0.38416022 -0.30747196 -0.26131794 0.18140838 -0.1407556 -0.22205362 0.16501379 0.48778027 -0.12235191 0.5375108 -0.37603155 0.40710753 0.95699394 -0.2951407 -0.31131914 -0.6281936 0.058237705 0.3911829 0.6444881 0.015832955 0.2706034 -0.41715208 0.27867252 -0.15701717 -0.361179 0.28635064 -0.072171904 0.1745055 0.5599659 0.7326582 -0.50628155 0.22401057 -0.50964856 -0.34739468 0.39315543 -0.1461912 0.2721029 -1.2047652 -0.7871908 -0.55581754 -0.7447635 -0.20824504 0.026615493 0.2136664 -0.3933927 0.62340933 -0.08831558 0.48447013 -0.49290964 -0.016243972 -0.11021721 0.6801747 0.41899613 0.068124935 -0.11521908 -0.3407216 0.25488666 -0.17248358 -0.09366323 0.65656245 0.29454523 -0.3765889 0.096141584 0.3233563 0.71343863 -0.94009525 -0.055039193 -0.19273284 0.039422657 -0.0576175 0.090753846 -0.43160382 0.39286622 0.119533084 0.21388601 0.07456142 1.3001939 -0.1684124 0.1611984 -0.43395483 0.35456836 0.013049439 -0.13027635 -0.20875993 -0.7093775 -0.42445302 -0.19541672 -0.5570298 0.23420013 -0.67835414 -0.5756666 -0.30382422 -0.7214804 0.028301738 -1.025394 -0.2967974 -0.27526855 0.23834886 -0.24033959
1016 0.056987826 -0.5194391 -0.31692496 -0.2744901 0.046334326 -0.015314525 0.0452717 -0.60990936 -0.19299464 0.16899842 -0.5821973 0.15535866 0.08638104 0.41654685 -0.4828042 0.33079332 -0.21509953 0.31754383 0.29963836 -0.06369631 0.7166691 0.21453628 -0.32891452 0.015079875 -0.14637814 0.25680912 0.5089726 0.40326786 0.03875501 0.2065008 0.3549671 0.5963564 -0.49976155 0.03929708 -0.43999037 -0.05938674 -0.113063075 -0.3048586 -0.19011948 0.2891937 0.042782012 -0.19068038 -0.2941087 -0.16692233 -0.1032502 0.006569046 0.558775 0.004428357 -0.031015078 -0.6019658 -0.15465283 -0.641099 -0.050428662 -0.03472946 -0.58102846 -0.19517751 -0.3484872 0.18309547 0.42301568 -0.1428115 0.114239566 -0.45585614 -0.076911464 -0.18340352 -0.31534135 -0.5225348 -0.49581748 0.08242069 -0.4015281 -0.17450358 0.122371234 -0.21785688 0.24304368 -0.6175706 -0.13131814 -0.13093558 -0.4111544 -0.21548447 0.3177184 -0.070223145 -0.63234484 0.49760476 0.2044115 -0.17164049 -0.17331462 -0.13890254 0.36845955 -0.36383966 -0.30655122 -0.057086743 0.5315189 -0.52749366 -0.39149407 0.20361349 -0.23199634 -0.7785072 0.005423491 -0.28319886 0.40956923 -0.037859 -0.3015009 -0.17042394 0.1882462 -0.37254533 -0.15668383 -0.00025257052 0.2045376 0.24687783 -0.28778777 0.20495328 0.60568357 0.7836923 -0.22336917 -0.15699564 -0.18342759 0.05993073 -0.8545382 -0.09052317 -0.7919725 0.2401766 0.29763094 0.3217385 -0.32605353 -0.44241136 0.3805228 0.8341743 0.1022627 0.06249019
6841 0.04435986 -0.5014365 0.21521915 0.49615064 0.36825278 -0.6510074 1.456724 0.44294837 -0.29796943 -0.07813113 0.2021147 0.27805832 0.84345317 -0.49157324 -0.47577617 -0.3551865 0.59378207 1.8102771 0.7557088 0.80557996 -0.631385 -0.45419246 -0.59961313 0.3039843 -0.35691226 -0.249824 0.5519045 0.64912885 1.0957253 1.2459904 0.3007749 0.44147557 0.12981118 0.40271297 -1.3372418 0.83164066 -0.39702 0.35867432 -0.67809767 0.30852428 -0.20854872 0.5685493 1.0839156 0.976025 -1.3527887 0.74531037 -0.23770088 0.48551884 1.4857248 -0.24219431 -0.6364787 -0.36930797 0.8612631 1.1067522 0.04825997 -0.2608392 -0.1866647 0.4212303 1.6171877 -0.22372857 1.298516 -0.57204556 1.1065748 0.0967058 0.6957911 -1.3426647 -0.8521415 -0.48430285 -0.4347274 -0.04478363 0.34644032 0.45728505 -1.2848796 -1.6425472 -0.86144894 -0.68308926 0.044998005 -0.510144 -0.3533941 -0.20697656 1.1590202 -0.680612 -0.24819402 0.39008364 0.006057229 -1.2461967 -0.2977315 -1.1763055 0.93502593 1.8099844 -1.0238687 -0.19237202 0.75574714 0.48913717 0.2604963 0.601592 -0.9020135 -0.9153923 1.0582412 0.93234706 -0.6637648 1.2475564 0.15290035 0.45414314 -0.097296126 -0.19268171 -0.89712864 -0.7052474 0.18999204 0.7562726 1.4597 -0.08372556 -0.06081239 -1.3970029 0.6224776 0.15423185 -0.060890514 0.8330833 -0.70180386 0.7844257 0.715285 0.8133177 -0.10718348 -0.58426154 0.21208498 0.94544023 0.3659569 -0.26372468
2911 0.56254715 -0.20261136 -0.17237325 -0.43979758 0.36845025 0.1839774 -0.39868355 -0.014160068 0.024375334 0.5345062 -0.23850773 -0.043430924 0.3650808 -0.07633782 -0.3817982 0.3073216 0.06000853 0.08204231 0.19465022 -0.23690936 -0.21004455 -0.035314597 0.5127911 -0.100669235 0.23484685 0.027890438 0.10175912 0.16241583 0.20403013 0.28072113 -0.05615623 0.028778747 -0.60192543 0.22092743 -0.14874075 -0.2984682 -0.3092901 -0.28435555 -0.3986122 -0.19705473 -0.11466233 -0.37999332 0.32955965 0.04556889 -0.109343685 -0.08594852 0.050774496 -0.17957103 0.04475116 -0.12290148 -0.30572355 0.09652802 0.43541545 -0.38731578 -0.7038094 -0.16602166 0.16076523 -0.040754505 -0.2895346 -0.030071808 -0.058900263 -0.00041194554 -0.1531315 -0.15962495 -0.18795411 -0.60214293 -0.5728914 -0.14479342 0.18391766 -0.102102205 -0.035965286 0.29711992 -0.09749394 -0.215019 0.25931653 0.009219251 0.66630256 0.3148494 -0.11237455 -0.09996051 -0.13331231 0.19056441 0.13393016 -0.19232148 0.07037531 -0.12001981 0.08006682 0.343842 0.50690573 0.04374011 0.34046975 -0.022389954 0.005164065 0.19935581 -0.22600383 0.37613955 -0.71734744 0.53973484 0.15538946 -0.23991857 0.1680787 0.08478318 0.3517468 -0.13372697 0.11165651 -0.32168484 -0.6065599 -0.21691318 -0.19455615 -0.17257348 0.64539343 -0.1602921 -0.30617583 -0.26648077 -0.024016546 -0.32383573 -0.2928535 0.47989854 0.04500901 -0.27656233 0.10857218 0.5713907 0.09076031 -0.69723785 0.03276172 0.17905104 0.06296495 0.24299856
4131 0.040993627 -0.5151399 0.86340284 0.018597156 -0.0051717125 0.0576209 0.6902476 0.3892938 -0.06485287 0.03007945 0.176262 0.6923745 -0.38052338 0.3060148 -0.61249244 -0.15321635 0.024735978 -0.13291657 -0.35631144 0.06388759 -0.36335889 -0.13077846 -0.12481907 0.43579355 -0.20392315 -0.33499488 0.46671563 0.3107665 0.18497546 -0.4522946 0.38095662 0.084292494 0.24428366 0.17895997 -0.08191752 0.38867012 0.050253846 0.006823328 -0.5042807 0.07046213 0.43759134 0.09603106 0.5996588 0.87260914 0.21920736 0.046783317 -0.19559872 0.5166336 0.4092933 -0.39663118 -0.1655336 -0.5945568 -0.3311641 -0.24405174 -0.0040391157 -0.00052087434 -0.036526144 0.32972607 0.071838036 0.5552953 0.018648397 0.28273997 0.14438105 0.5178891 0.12389423 0.038824078 -0.5809564 0.5395413 -0.003089622 -0.40156075 -0.096602 0.15915036 -0.47247466 -0.33873793 0.08074188 0.04565473 0.4859992 -0.32580727 -0.62910414 0.06004515 0.6544583 0.21184738 0.21748053 -0.101889424 0.13443601 -0.16832264 0.23306456 0.17461924 0.6580737 -0.12097943 -0.48597214 -0.74696934 0.5484348 -0.1174193 -0.5911061 0.33838156 0.075788945 -0.19430336 0.1736588 -0.5406067 -0.25700215 0.36326286 0.06655432 -0.09483873 0.21228296 0.18635876 -0.14249904 0.092604816 -0.53729415 -0.5451683 0.13187967 -0.73671734 0.037843972 -0.34701687 -0.093753554 -0.09805776 -0.54341173 0.13868847 -0.7033352 0.43248567 -0.0052790446 0.25081995 0.15663247 0.09243523 -0.4470941 -0.0051103695 0.04383045 0.38383153
