2182 128
452 -0.051670462 0.17270821 0.3304553 0.089854464 -0.17534895 -0.38121814 -0.34191275 -0.42486092 0.263893 0.54105186 -0.4609324 -0.053556778 0.4586778 -0.071362674 0.52852535 -0.047284845 -0.10904599 -0.01930951 -0.37774596 -0.0018736846 0.1732305 0.10539884 -0.26883087 -0.34431446 0.08580815 -0.27265805 0.104009315 0.22364274 0.4055955 -0.1160284 0.061478283 0.5189401 0.70803607 -0.61051774 0.255838 -0.61115617 -0.16993526 -0.053048834 -0.093280345 0.45938185 -0.10884717 0.34352937 0.3903497 -0.31453887 0.010543033 0.33831692 -0.18450513 -0.06640059 -0.03932006 -0.5880023 -0.28236502 -0.3139269 -0.36622587 -0.15193944 -0.7690748 -0.21538666 -0.18534236 0.2146746 0.06799993 -0.036481492 0.024891138 0.38260344 0.42031926 -0.5158541 0.011421582 0.8903311 -0.4951387 -0.30203936 -0.17076235 0.32457685 0.14326689 0.10577001 -0.68506527 0.16536547 0.3830579 0.5589283 1.1014881 0.22350107 -0.29944035 -0.119485736 -0.15380414 -0.15103315 -0.27131408 -0.020786894 0.17459336 0.19333112 -0.31892535 -0.38267967 -0.40549576 -0.22307773 1.0148661 -0.07141719 0.1839739 -0.49728864 0.29221752 0.0071482807 -0.27767006 -0.017092995 -0.18358704 -0.20350224 -0.37846878 0.23740561 -0.0669564 -0.26828527 0.49264175 0.26255244 0.26494712 -0.11565284 0.42805997 -0.3332686 0.36257955 -0.016863462 -0.17622396 -0.13126367 -0.568472 -0.24063227 -0.2805884 0.076773025 -0.15675873 0.553143 -0.1863378 0.44852725 0.6312476 0.3131361 -0.47685596 0.251736 0.277379 0.2740378
2462 0.07278931 -0.22278185 0.10174313 -0.26284742 0.34182405 -0.71052337 -0.19782929 -0.61204004 0.0431002 0.22213018 -0.7293632 0.28784034 -0.33809838 -0.21374117 0.40838706 0.024214316 0.15344298 0.0120490305 -0.08422639 -0.21324703 0.13867365 -0.12475363 0.3297306 0.44908926 -0.03900995 -0.13623327 -0.18933015 -0.2104775 -0.014101969 -0.070985205 -0.42683712 0.12005586 -0.090351775 -0.5840845 -0.07605246 0.06865005 0.18591242 -0.46125662 0.0740116 -0.167562 0.3508185 0.21354356 0.14323318 -0.09383208 -0.25886458 -0.30857554 -0.7862261 0.24143665 0.06186332 -0.23607004 0.1959737 -0.58114374 0.051886115 0.5901498 0.2223066 -0.14405684 -0.03218672 0.1659935 -0.22117822 0.16597742 0.39057708 0.32630253 -0.18596025 -0.49870816 0.036085382 0.41442168 -0.2079277 0.20743306 -0.07756012 0.28772727 -0.30438253 0.37085515 -0.487622 -0.03236592 -0.5114153 -0.123879015 0.35184312 0.0007065778 0.5611441 0.21585795 0.19088168 0.22263749 -0.16434336 -0.06828127 -0.053145964 -0.34601068 -0.23881762 -0.5942303 0.01121239 0.095649056 0.07994548 -0.05441343 0.1192569 -0.8759062 0.30439943 0.29637635 0.038904525 -0.078854956 -0.124391496 -0.19080374 0.32571298 -0.012349881 -0.19057013 -0.20604004 0.20489825 0.17504074 -0.12514134 0.12892997 0.09280936 -0.02040577 -0.26990622 -0.46056935 -0.5383129 0.24286227 -0.17636369 -0.016321005 -0.3010972 0.27320257 0.04628937 -0.012403665 0.38242218 0.3255168 0.23446853 0.028142123 -0.4106819 0.11392567 0.41983142 0.5287807
35 -0.04366223 0.74308026 0.10136192 0.45907924 1.0042647 -0.037354384 -0.72683316 -0.13905933 0.22567844 -0.64061797 -0.7161749 0.05194263 -0.668007 -0.38280174 0.24640346 0.41002455 -0.60914874 0.36265478 -0.16431944 -0.48669848 0.09927508 0.010165804 -0.0925975 0.19280852 0.234547 0.9736079 -0.34603906 -0.16623354 0.5245365 0.23339345 -0.24546137 0.2379892 -0.343439 0.36518884 0.48760435 0.15827619 -0.36465922 0.3662996 0.024357842 -0.22907928 0.017463969 0.448254 0.54890764 -0.3365822 0.32988456 0.05792573 -0.053240396 -0.09348173 -0.30241865 -0.5477227 0.13233185 -0.13705482 -0.014262443 -0.082082115 0.44996512 -0.009849757 0.6985747 0.40632832 -0.12514816 0.28468955 0.50704134 0.15243421 0.20131351 -0.06367791 0.06485857 -0.3024817 0.14881083 0.4319212 -0.0064790337 0.5331766 -0.7576994 -0.43890658 -0.009715864 -0.20449074 -0.2166247 0.3569141 0.14473443 0.10563929 0.14498325 0.72424036 0.31607866 -0.21616824 0.24218515 0.0579974 0.4109635 0.282863 -0.11723235 -0.27547315 0.3355257 0.23538405 -0.1421671 -0.18938304 -0.4056066 -0.6793013 -0.4367254 -0.42026955 -0.5216307 -0.42093575 -1.0067408 -0.7548054 -0.66858727 0.0896271 -0.5804959 0.081601955 0.0044780574 -0.23925395 -0.15335196 -0.34424815 -0.83879715 1.1035471 0.83783233 0.3417079 0.38085386 -0.13581297 0.2193072 -0.48785928 -0.30000338 -0.43586078 0.30302304 -0.109090015 0.16052873 -0.017591702 -0.27567735 0.79018325 -0.19915317 0.12222339 -0.2233171 0.102897115
724 -0.29021803 0.30288857 0.14956853 -0.22157748 0.31444067 -0.0859322 -0.15706454 -0.12716962 0.11305719 -0.10251586 -0.7085215 -0.05474318 -0.28182688 0.17841518 0.08292849 0.011945886 -0.47473156 -0.15261206 -0.026159447 0.049121298 0.22547641 0.3675699 0.2271361 0.26088062 -0.0044857115 -0.034141354 -0.49420193 -0.7246009 -0.5182589 -0.17707072 -0.28763276 0.31976944 -0.086927675 0.2242054 0.08177956 -0.434317 0.12205524 -0.376339 -0.1279591 0.03566799 -0.21793325 0.02567311 0.114259385 0.18963175 -0.11215641 -0.041196484 -0.78634226 -0.097752415 -0.29329896 0.29826975 -0.32906753 -0.07180449 0.35226262 0.012541587 0.25166106 0.19853774 0.22007406 0.5045927 -0.19693874 0.3385021 0.15031949 0.22993821 0.10337878 -0.4118774 0.2903641 -0.067027174 -0.45620254 -0.5172318 0.14500436 0.36320415 -0.17248337 -0.057227883 -0.24613972 0.14856921 0.05433854 -0.012155587 0.092543595 0.5221121 0.2644347 -0.2118227 0.38377425 0.15675128 -0.16173583 -0.034284327 -0.15011664 -0.17144974 -0.41083455 -0.08385684 -0.0014809142 -0.0358544 0.17510931 -0.23507014 -0.060364436 -0.33816302 0.27624345 -0.041530464 -0.092162125 -0.0116822645 -0.34418702 -0.20238008 0.09545859 0.038450383 0.14453427 -0.18783954 0.29333562 0.014027342 -0.07268879 -0.076648936 0.12485984 -0.5683244 -0.20221592 -0.32013285 -0.014684116 0.3622118 0.2958647 -0.11688768 -0.35277683 0.17472523 0.14050831 -0.52702683 0.19659938 -0.1374471 0.17341113 0.034326505 0.3249502 0.1510461 0.009196011 0.27723044
5731 -0.009092303 -0.17415331 0.16110623 -0.30649403 0.30078796 -0.86265284 -0.18325542 -0.55281115 0.11134927 0.086403474 -0.80468863 0.20438632 -0.42329872 -0.24726033 0.34202185 0.002606439 -0.123095386 -0.08983026 0.048729103 -0.18203598 0.0832768 -0.17405438 0.5383135 -0.019889219 -0.08435864 -0.3267304 -0.15492696 -0.18815957 0.06850035 -0.13510472 -0.60419905 0.21611908 -0.028380511 -0.32828423 -0.17452717 -0.06487429 0.06502722 -0.88735515 0.08768342 -0.11512954 0.3035172 0.28069618 0.41273394 -0.06958366 -0.115412936 -0.41040733 -0.6944102 0.033452325 -0.25123546 -0.27588186 0.14917903 -0.84329075 -0.06141576 0.44893625 0.0716844 -0.19162437 -0.09254075 0.17938899 0.07668245 0.059705343 0.5148486 0.39746562 -0.1545832 -0.3839919 0.030733015 0.3399051 -0.11283613 0.15585667 -0.033442605 0.36026376 -0.11252177 0.15535624 -0.36238322 0.039280932 -0.8360321 -0.23579584 0.62800795 -0.1722416 0.25978306 -0.054335117 0.25006333 0.035113014 -0.111396745 -0.020089364 -0.07063857 -0.38865447 -0.304427 -0.529906 0.05132779 0.19832918 0.23408903 0.15740743 0.03770663 -0.6581992 0.4361405 0.34308687 -0.26980832 -0.027040673 0.11465028 -0.01661695 0.28435174 0.09551437 -0.3642905 -0.22967449 0.27726775 0.41082793 -0.15378235 0.35529438 0.33448717 0.12573282 0.023166435 -0.54032695 -0.3553663 -0.02021271 -0.56822383 -0.009497919 -0.30034083 0.19951206 -0.00032070864 -0.1442681 0.6830499 0.3883524 0.3370649 -0.12514476 -0.33602223 0.124616 0.7815533 0.5734274
2 -0.51538944 0.24353296 0.37656477 -0.7039254 0.85703033 -0.355101 -0.6081062 -0.24181253 -0.80859554 -0.28034773 -0.2988072 0.180435 -0.10476168 -0.06410788 0.6488571 0.13303395 -0.17292991 0.060953427 -0.86284363 -0.018737556 -0.3855378 1.2518977 0.6357492 -0.6012545 -0.008001634 -0.054815274 0.1500335 -0.013009554 -0.25484693 -0.24645287 0.4932991 -0.22106516 -0.16529043 0.956445 -0.23308234 0.029766455 -0.18317993 0.6233252 -0.4614615 0.042432263 0.39993605 -0.016733149 0.4884447 -0.6291738 0.5327705 0.21403645 -0.1796364 -0.5519487 0.008875575 -0.21258923 -0.54275507 -0.16912141 -0.03058044 0.1423241 0.21146758 0.66219383 0.5135746 -0.048298765 0.43771797 0.27715555 -0.027151765 0.11216147 -0.32335657 0.1629679 0.5777241 0.12507597 -0.05116876 -0.54930913 0.642291 0.47158092 -0.09577518 -0.32960624 0.6237504 0.36732036 -0.53424895 0.10832519 -0.2790867 -0.09110389 -0.18575364 -0.7664362 0.004187139 0.4539789 0.38538465 -0.13684867 0.050949868 0.33725172 -0.008901921 0.116448835 -0.19927199 -0.026549507 -0.23923624 -0.48494074 -0.34872937 0.32142162 0.41926 -0.07972938 -0.34633553 -0.10968018 0.021354334 -0.38817984 -0.716577 0.11764058 0.32333967 -0.4927972 0.21835707 -0.041098617 0.37080386 0.36133027 0.021192828 0.74064225 0.22098833 -0.052773274 -0.7305476 0.540883 -0.0067784903 -0.44705215 0.27760822 -0.23384622 -0.23057665 0.30057 0.22757068 0.11108784 0.018380607 -0.15316139 -0.35025972 -0.41431516 -0.39202064 -0.046584588
1465 -0.059956573 0.3509689 0.7333565 0.34358165 0.64665 0.6390085 0.09535064 -0.17553625 -0.006712272 -0.34281465 -0.4312666 0.4524005 -0.30183807 -0.2786558 0.5019905 0.31627378 -0.20970993 0.21632162 -0.6974288 0.2002528 0.3855189 -0.17552048 0.3655111 -0.08431301 0.15899992 -0.080662385 0.34626445 0.14824392 -0.1638754 0.18161002 -0.49746752 0.5058959 -0.3981301 0.08972994 -0.09930393 0.07039704 -0.17174703 -0.014675048 -0.42851672 0.13585739 0.015401511 -0.21150774 -0.35716924 -0.44960803 -0.6289033 0.25708887 -0.030630333 -0.46485925 -0.40480387 0.026688317 -0.41513252 -0.3827477 -0.3367054 0.06742582 0.37202495 0.07785676 0.27205765 0.004128479 0.036744874 0.24642333 0.08060194 0.33893517 0.24124265 -0.5390146 -0.17775746 -0.36113137 -0.31957883 -0.10320721 0.047020067 0.53432655 0.1775326 -0.5535722 0.11212767 -0.031387415 -0.13497363 0.2523766 -0.17806916 -0.00690894 0.41611174 0.12371226 -0.03265113 0.041738812 0.71849465 0.45079798 0.4074371 0.5208518 -0.3621465 0.29122052 0.3433565 -0.10507396 -0.39735454 -0.62360096 -0.12912251 -0.1382943 0.037474807 0.43282416 -0.28829518 -0.054540124 0.43500814 -0.0049363817 -0.7283806 -0.056312785 0.33983955 0.19450921 0.45856395 -0.3488354 0.18848073 0.56489915 0.1994594 0.3656796 0.4456369 0.27761257 -0.32569587 0.07862695 -0.35586032 -0.029628247 0.37348545 0.17738669 0.15747128 0.27380136 0.07068788 0.58449733 0.07574323 0.14088449 -0.27971098 0.075830586 0.04347361 0.053078134
8349 0.3284601 0.42490777 0.19714038 -0.07369806 -0.08577884 -0.027663263 -0.13908109 -0.23034622 0.5293136 0.044995323 -0.57814443 0.27494094 -0.06469544 0.14236777 0.3443366 -0.48891458 -0.30011404 -0.2674008 0.14907274 0.061773114 0.30827218 -0.1275202 0.0780421 -0.28984985 0.2967259 -0.09484836 0.3665827 -0.330565 0.15366961 -0.30167827 -0.47011998 0.6035033 0.086175166 -0.0621268 -0.13368139 -0.40465686 -0.36482754 -0.5104088 -0.06598546 0.37775093 -0.024128329 0.57697046 0.4801374 -0.19432269 0.02622035 0.0872497 -0.14174064 0.74049664 0.013895687 -0.34403434 -0.39564285 -0.56615466 -0.51154697 -0.12807666 -0.24201037 -0.4040548 -0.15409295 0.09461833 0.2830093 0.028022619 0.2944452 -0.09662276 0.10049031 -0.6167176 0.16957574 0.7822224 -0.16729978 -0.0162352 -0.27727464 0.46131176 0.29567045 0.11971782 -0.45515198 0.32598117 -0.09131279 -0.25547925 0.90874726 -0.38181219 0.03718995 -0.19654708 -0.13296352 -0.44832394 -0.31064534 -0.26925164 0.25675014 -0.13985266 0.022607984 -0.37109706 -0.19378711 0.18620361 0.58584696 -0.16694613 0.008368093 -0.21026057 -0.12705764 0.43329906 -0.064609185 0.15848729 -0.14584754 -0.28467408 -0.21612868 0.71419245 -0.33060223 -0.97038543 0.6849424 0.4752939 -0.11229923 0.03526003 0.5036563 -0.20244259 0.48358628 -0.60590774 0.25744364 0.24899289 -0.6777776 0.1395351 -0.06545066 0.45143336 -0.12444782 0.1254888 0.3643174 0.41623867 -0.01121967 -0.2709912 -0.25349805 -0.037763346 0.6376821 0.5099083
491 -0.03323835 0.042813126 0.09451198 -0.027845994 0.45050132 -0.78666645 -0.14653806 -0.8619006 0.25213435 0.27769262 -0.2693223 0.5258393 -0.004130736 -0.21622075 0.07530105 -0.2661639 -0.2509726 -0.04406904 0.18427132 0.03061421 0.040291037 0.04167116 0.059917357 0.18976748 0.19289522 0.24317928 -0.030431967 -0.083591275 0.08188254 -0.18579572 -0.4429076 0.15929353 -0.09683581 -0.2161662 -0.31187186 -0.7550051 0.2918267 -0.342004 0.006059332 0.15991728 0.4962834 0.35902634 0.462239 0.19016735 0.055290252 -0.17228416 -0.7649222 0.15506661 0.16374525 -0.33492664 -0.20845598 -0.7580279 -0.13341027 0.39493608 -0.101076275 0.105440184 0.019019023 -0.008706767 -0.30471686 0.26218158 0.37796366 -0.13652074 0.10109075 -0.36992696 0.12360936 -0.04211647 -0.64107794 0.28929433 0.55189884 0.3988435 0.11980785 0.72159237 0.039311666 -0.011818335 -0.47609144 -0.14120069 0.44133043 0.03879883 0.009827025 0.31657854 0.05474515 -0.018502194 0.1853966 -0.11959243 0.0580017 -0.13847838 -0.21732377 -0.66803944 -0.028516324 0.38360187 0.21309152 0.21502988 0.65080106 -0.85223603 0.30004737 0.34116852 -0.08819984 -0.32541987 -0.05860094 -0.42993072 0.46522546 0.15488017 -0.061766703 -0.50702995 -0.031223783 -0.19710684 -0.45824474 0.41028598 0.5146134 -0.22834337 0.00043846582 -0.5436607 -0.22380644 -0.30980343 -0.33231995 -0.5269073 0.08024207 0.17056058 -0.033116534 -0.03441585 0.56550187 0.28328562 0.5920588 -0.057742953 -0.3349043 0.43061996 0.22010101 0.45547116
1565 -0.10468572 0.109330304 0.6480431 0.17578788 0.81228095 0.6531659 -0.15220217 -0.17523484 0.010538296 -0.26589113 -0.6481397 0.24676041 -0.49929336 -0.4719031 0.5068494 0.25099796 -0.34243995 0.11919026 -0.55556417 0.26375005 0.17738193 -0.6228891 0.1933434 -0.0049324865 -0.036481272 -0.016571749 0.22037785 0.17020568 -0.30165792 0.18055557 -0.25626138 0.36872154 -0.47022972 0.078624025 0.09751081 0.14766347 -0.28188926 0.1607355 -0.63310987 0.034121346 0.16515714 -0.09020148 -0.29337946 -0.51214033 -0.5710158 -0.04975197 -0.15406412 -0.25464487 -0.43085945 0.117249824 -0.58429796 -0.41012037 -0.2429341 0.2926901 0.3099819 0.05908722 0.39119485 -0.003942346 0.13011564 0.3658624 -0.058650546 -0.04835392 0.12403719 -0.9577137 -0.13636626 -0.59365803 -0.47023147 0.017923225 0.14762421 1.0336162 -0.18953447 -0.30313832 0.14259245 -0.105410196 -0.20408092 0.119227774 -0.13714892 -0.1591457 0.38144705 0.17583272 -0.03341061 0.19119392 0.5911353 0.84627366 0.31316355 0.6617252 -0.7181621 0.28502288 0.42805263 -0.20937069 -0.16660802 -0.77769804 -0.30277035 0.059886366 -0.30791315 0.3769448 -0.18608318 0.14209664 0.28482574 0.08756086 -0.82332367 0.25633585 0.5849827 0.29831427 0.5053069 -0.48033512 0.048133865 0.6361405 0.456601 0.36021113 0.26484329 0.2919878 -0.5161653 -0.0757262 -0.11534227 0.026187973 0.48305792 -0.0022135456 0.22721325 0.348779 0.2870671 0.9592021 0.21700026 0.056791343 -0.17595677 -0.14312989 0.034288935 0.02561948
1788 -0.35503757 1.037809 0.4336503 -1.3528459 0.19403683 0.5188665 -0.36064264 0.8780279 0.77088505 0.18915276 -0.23280466 -0.13334748 0.10520642 -0.53759176 0.068507 -0.062661245 -1.2226022 0.6489106 -0.023168985 -1.0849998 -0.37492803 0.23592198 -0.18081439 0.7689615 1.0665567 0.19721185 0.4201466 0.718009 -0.03964068 0.2623422 -0.8221234 0.42629942 -0.4158301 0.08913954 -1.2434847 0.054596193 -0.6023749 0.6713099 0.14231145 -0.5441427 0.16771336 -0.20877275 -0.29621956 -0.18547606 -0.4970716 -0.32818782 -0.6651375 -0.33373812 0.19547449 -0.6704223 0.41531122 -0.7772617 -0.4996641 0.16866909 0.2921632 -0.11820607 -0.48966655 1.1959049 -0.39915493 -0.5184835 0.70628583 0.2634531 -0.19589612 0.03385962 -0.07430548 -0.5009167 0.25106966 0.20355152 -0.09383218 0.54924124 0.28239176 0.28831005 -0.6495751 -0.11702878 0.55833215 0.90486974 0.24814542 -0.18757176 -0.89468884 -0.13733165 0.04841832 -0.84979355 0.31709257 0.47698814 -0.011625012 -0.20312242 -0.6880204 0.2294733 0.75695044 0.11605185 1.3958828 -0.38642842 0.63417983 -0.24264327 -0.18706365 -0.41745928 0.21800658 -0.6761696 0.99619585 -0.8511842 -0.7114795 0.38088283 1.1796639 -0.44399014 1.4555335 0.29193065 -0.3708236 -0.7375057 0.63031346 0.894003 0.36907664 0.9595861 -0.5626829 0.3997096 0.2945978 -0.53758585 0.3535608 -0.46665227 0.2772243 -0.902495 0.10981886 -0.53749746 -0.3146403 -0.6043065 -0.49609116 0.058838848 0.52471864 -0.1944986
4473 0.097244516 0.10001583 0.74361736 -0.13620766 0.043677192 0.0021546094 -0.43383604 0.5242844 -0.1374458 0.24450985 -0.47625363 -0.3633186 -0.112381056 -0.16276816 -0.4681277 -0.09801351 -0.08379673 -0.12054791 -0.028267577 -0.36661685 0.52162117 0.45147035 -0.23905022 0.31677693 0.41816112 -0.04120777 0.07316825 -0.26328745 0.3488015 -0.2624795 -0.37896204 0.30569917 -0.036236763 0.19559689 -0.063534155 0.27433848 -0.0010865354 -0.007812961 0.10570369 0.0017189883 0.107033625 0.61097723 0.06361567 0.046608005 -0.26984394 0.113632016 0.43198583 -0.23913419 -0.03860387 0.11596668 -0.65979946 -0.48938268 0.1385013 -0.105807826 -0.28196305 0.098683104 0.57272834 0.2261028 0.08068095 0.022362866 0.24850814 0.3899195 0.45106196 -0.4303109 0.07534539 0.05928284 -0.34318027 0.36642015 0.05712529 0.4197809 -0.058321323 0.22792982 -0.6152184 0.41592082 0.29287833 0.5013415 -0.112784944 0.2900917 -0.051357895 -0.27846688 -0.077294774 0.34202078 0.1828976 -0.027762556 0.47233137 -0.23264204 0.09604344 -0.5225486 -0.25414374 -0.33902967 0.11288305 -0.5308006 0.52049166 -0.341219 -0.0034945067 0.24282002 -0.08025947 -0.14068201 -0.11821858 0.16903824 -0.6097951 -0.08133683 0.070871346 -0.22612137 0.4867428 0.4011109 -0.23897412 -0.11879934 0.09276263 0.06010169 -0.3853674 -0.29811206 -0.016157502 0.093276806 -0.09214717 0.33037108 -0.36280712 0.5104768 -0.29659426 0.038217094 0.6779504 -0.19614886 0.2748227 -0.1082819 -0.0902021 0.499646 0.399538 0.0009400365
50114 -0.4014909 1.0673609 0.45220223 -1.3679819 0.26845515 0.43926832 -0.3745533 0.9821024 0.7401916 0.14267834 -0.27360368 -0.08063652 0.12529789 -0.54524904 0.021796508 -0.040364858 -1.3050463 0.7169047 0.021594392 -1.0473163 -0.43845636 0.25314474 -0.17044389 0.7349851 1.1277555 0.1892454 0.41412708 0.7327376 0.006657142 0.4042969 -0.87147003 0.46888083 -0.49097675 0.12826417 -1.269894 0.042420264 -0.66343015 0.7691074 0.23358312 -0.5316427 0.1724313 -0.24456017 -0.3040267 -0.15058479 -0.5638683 -0.28872672 -0.6784391 -0.37882844 0.19239525 -0.6179817 0.42116943 -0.731175 -0.54426765 0.16389355 0.34773326 -0.20120151 -0.47995406 1.1435161 -0.45552468 -0.5367074 0.6775984 0.25658756 -0.16708493 0.011143002 -0.011746957 -0.48603985 0.23052508 0.18183075 -0.06368882 0.5115273 0.36436415 0.22060148 -0.6783257 -0.0573746 0.5616078 0.9236493 0.24324362 -0.20973314 -1.033776 -0.14678025 0.049564146 -1.0112684 0.28168026 0.3696072 -4.280335e-06 -0.13401982 -0.7264935 0.24173334 0.7450132 0.18829946 1.3986914 -0.46779662 0.7207869 -0.35674897 -0.18569483 -0.39345148 0.28086728 -0.6932948 0.9945044 -0.8831137 -0.7082119 0.3767203 1.2941122 -0.47898638 1.5642226 0.2275695 -0.42526555 -0.6480623 0.6116015 0.8791543 0.33081248 0.9374713 -0.5682546 0.4024838 0.34339935 -0.6136579 0.26336193 -0.499269 0.33415195 -0.93980783 0.17710365 -0.4591493 -0.376691 -0.5561189 -0.47021395 0.028350148 0.58395517 -0.20437698
1897 -0.263577 0.24317327 0.84611094 0.21805339 0.6118797 0.70669824 -0.21964957 -0.22620454 0.0996257 -0.32307047 -0.6320488 0.24190325 -0.70958436 -0.39536622 0.4065509 0.41953376 -0.32301542 -0.029771242 -0.552557 0.30217734 0.13835892 -0.62080556 0.16793424 -0.060897812 0.08253702 -0.05833957 0.18467428 0.21814272 -0.29385698 0.22925423 -0.41514733 0.61712074 -0.41952085 0.118241094 -0.0017840113 0.24384932 -0.16384163 0.13235301 -0.74137986 -0.022266628 -0.10159624 -0.17951985 -0.3207917 -0.44426847 -0.70807487 0.22650044 -0.13966472 -0.39356083 -0.41813406 0.094858035 -0.49874833 -0.39965612 -0.2949284 0.31520763 0.46641746 -0.028559301 0.4130919 -0.05462682 0.105317816 0.50298977 -0.024024045 0.071940996 0.10987738 -1.0827608 -0.31255195 -0.5403183 -0.3683651 -0.06772836 0.115203895 0.6945338 0.026059188 -0.38079548 0.16458355 -0.14036413 -0.33424255 0.21450946 -0.26623997 -0.33705226 0.3679387 0.1144836 0.05804649 0.12351107 0.5534247 0.8505318 0.3729061 0.5574213 -0.7005768 0.14429808 0.56706953 -0.20127712 -0.28719842 -0.966066 -0.27525413 -0.20826465 -0.45484552 0.22494213 -0.2809006 0.21330361 0.24025524 0.22516173 -0.89573693 0.106518075 0.5285557 0.30011985 0.56797266 -0.526416 -0.030821128 0.6639337 0.31467745 0.39204803 0.37010235 0.45408002 -0.60652727 -0.11848978 -0.24673586 0.05058398 0.5142181 -0.12309833 0.08984781 0.4706161 0.46449628 1.1171559 0.24487653 -0.043355018 -0.1921538 -0.22900644 0.1599812 0.11331663
1615 0.22689165 0.03432522 0.31489283 -0.13310853 -0.25420794 -0.17699727 0.026496492 0.5513318 0.78238916 0.29927683 -0.6334006 -0.22780053 -0.29067218 -0.11316526 -0.5156444 -0.34272054 -0.37732384 0.37668183 -0.32739463 -0.14099307 0.62037534 0.30161 -0.032390833 -0.042094152 0.1075189 -0.02412222 0.17396145 -0.4405512 0.36827347 -0.375361 -0.47910643 0.3366975 0.29429677 0.08330814 -0.19069563 0.16529985 -0.49434584 -0.1497809 -0.32116216 0.16898425 -0.099748105 0.7466357 0.17697467 0.23731296 -0.115823 -0.25723046 0.38389122 -0.52467227 -0.06591838 0.03885021 -0.9126495 -1.1746862 -0.35114977 -0.114265785 -0.018106818 0.46740392 0.26014692 0.1889943 0.24489461 -0.06700375 0.080664165 0.11251843 0.591649 -0.14436826 0.36609006 0.2654047 -0.105738856 0.45652235 -0.22487956 0.6201822 0.12809229 0.18067141 -0.35327083 0.62688804 0.9304411 0.18279368 0.11690288 0.35147953 0.1632758 -0.27190748 -0.05003805 0.27702022 0.22260046 0.19257729 0.3170139 -0.102953 -0.075243555 -0.4689991 -0.29171136 -0.35971475 -0.04408595 -0.45649248 -0.041310985 -0.20723872 0.32011905 0.15240279 0.5174401 -0.077249855 -0.13452725 -0.14942193 -0.3137707 -0.09091141 -0.2717147 -0.054286018 0.6543156 0.37760857 -0.15351681 -0.008629911 0.05776189 0.13833061 -0.39430776 -0.54051846 -0.43505454 0.27346483 -0.12535104 0.23048401 -0.63932455 0.05508861 -0.04647531 0.24142705 0.79934895 -0.21560319 0.77950335 -0.04659566 0.04265912 0.3631206 0.38241434 0.17565705
3153 0.06976825 0.021445217 -0.07548354 -0.6754278 0.765204 -0.12529294 -0.34583622 0.23158331 0.10398434 0.052163947 0.015315548 -0.15382195 -0.18687558 0.16790795 -0.01881915 0.09048477 -0.4377301 -0.12830125 -0.20626594 -0.05994854 -0.23784925 -0.36248085 0.39970243 0.16459721 -0.32010868 -0.012362735 -0.12905739 -0.40371335 -0.32489955 -0.070186846 -0.47512743 -0.08968187 -0.61985934 -0.7078832 -0.19876735 -0.10687717 0.477404 -0.122145414 -0.556049 -0.35155353 0.19299226 -0.039138325 0.6971532 -0.57579875 0.10892413 -0.37112448 -0.43738917 -0.2492199 -0.22079186 0.06804599 -0.19532205 -0.69417363 -0.05277407 0.097250186 0.0553495 -0.14001778 0.13441266 -0.23067312 0.19783065 0.32282156 -0.058689285 0.32585004 0.2953002 -0.30690476 0.16488345 -0.029397216 -0.22102015 0.3212413 0.29075944 0.04859786 -0.23824996 0.50887483 -0.4900622 -0.03523537 -0.34983543 0.0046019894 0.23260006 0.40353924 0.39578328 0.39081174 0.2680006 -0.26005456 -0.10230927 -0.06879013 -0.15122002 0.019662848 -0.20806049 -0.48718026 -0.37048197 -0.006397509 0.05054638 -0.29254368 0.24710213 -0.253316 0.066384 0.4560533 0.15025501 0.22324948 0.30459112 -0.532451 0.028801711 -0.04100865 -0.400238 0.22689897 0.52655613 0.58018 -0.11454168 -0.33195013 0.1588846 -0.101321936 0.06505214 -0.07042514 -0.29725173 -0.03437805 -0.33242005 0.10806002 -0.26953128 0.25459442 0.19590609 0.010347872 0.43325752 0.30777305 0.070027284 -0.21383527 -0.054696556 0.1660585 0.3425263 0.1740334
13620 -0.12060292 0.045951065 0.5028007 0.43437588 0.09487594 -0.014956048 -0.4730884 0.37993434 0.41720572 0.8164255 -0.21460716 -0.007814091 -0.12437799 0.06696488 -0.68525994 -0.4862095 -0.6638812 0.13753662 -0.46461415 0.07832915 -0.1505482 -0.39961255 -0.2565265 -0.10803303 -0.09340801 -0.5461786 0.09852258 -0.27782404 0.22245179 0.6692712 0.1254388 0.16723064 -0.34410596 0.09986028 0.53634286 -0.6558823 -0.15330814 -0.27556804 0.061056387 0.15537459 0.22121307 0.3057656 -0.14304714 0.14103122 0.5029894 0.084690586 0.059734136 -0.4326642 0.019069105 -0.63804704 -0.7564226 -0.71562886 -0.07412768 0.071669325 0.6624914 0.23473258 0.8870348 0.3725956 -0.06881261 -0.5586212 0.30948195 -0.10257827 0.5106997 -0.46458805 0.049073175 0.26519263 -0.8453034 -0.22882539 -0.70608723 -0.123204954 -0.2522103 0.46243393 -0.1238778 0.24663983 -0.23941647 -0.14567095 0.6845074 0.655203 -0.09072358 -0.29135528 -0.260444 -0.04407049 -0.25208628 0.043018144 -0.039903067 0.2980746 -0.68897784 -0.6189634 -0.42548257 0.28770557 0.15796275 -0.63145 0.43979466 0.101615965 0.1196737 0.0717628 -0.09584434 -0.03168824 -1.066547 0.049307838 0.21026504 -0.044031505 0.4956861 -0.28686294 1.1244583 -0.14695416 -0.3277739 -0.61424327 0.08425844 0.24828711 0.35245374 0.25388902 -0.4288607 0.38298866 -0.15867613 -0.2551838 0.2526102 -0.0067090006 -0.3186307 0.5545983 0.059805505 -0.118983604 0.2413696 -0.03487874 -0.5106519 0.3350601 0.11588332 0.1774053
210872 0.084128864 0.7674451 0.116466515 0.40254202 1.0015509 -0.040140215 -0.68291247 0.0077585327 0.36733705 -0.7783111 -0.779381 0.03628361 -0.61049193 -0.4409325 0.26090428 0.44107753 -0.6237684 0.25473458 -0.21113211 -0.47270554 -0.011196702 -0.081011936 -0.13059649 0.16479106 0.26462728 0.91949093 -0.29138467 -0.11852048 0.5859829 0.15617588 -0.15290481 0.24374942 -0.23092473 0.48574758 0.3458676 0.07656949 -0.35611355 0.328388 0.05284946 -0.20132892 -0.16990548 0.41975805 0.6569453 -0.24420634 0.25988242 -0.14252895 -0.0555909 -0.19402157 -0.2867131 -0.4826018 0.13498187 -0.10284931 -0.020426027 0.06384396 0.41238376 0.22779253 0.7566119 0.5668698 -0.06443529 0.36673027 0.3803792 0.11051381 0.2547347 0.01918866 0.052579917 -0.29610646 0.16490933 0.54511297 -0.0021666146 0.5748666 -0.7320133 -0.46728796 0.008473067 -0.23490489 -0.28656054 0.27325508 0.11224258 0.2840019 0.06895462 0.6276411 0.21970153 -0.07552157 0.25030184 0.03434079 0.3983816 0.22154008 -0.027459584 -0.16423723 0.44907597 0.37745088 -0.07573493 -0.20126292 -0.4389044 -0.66017747 -0.4494526 -0.5015171 -0.7404299 -0.4328726 -0.9962515 -0.61786175 -0.64094126 0.101994745 -0.4927248 0.106095366 -0.10054984 -0.17728916 -0.20102997 -0.26767004 -0.70451075 1.2402049 0.9179788 0.24910833 0.32530382 -0.057420038 0.20728321 -0.6384149 -0.4217981 -0.58363724 0.34069824 -0.15332273 0.2581562 -0.052254632 -0.3458322 0.8278232 -0.1663772 0.0936823 -0.005875393 0.13903658
82920 0.07764543 0.859015 0.03225038 0.17122424 0.9023439 -0.20258579 -0.8386348 0.2522219 0.4120584 -0.75408494 -0.5142718 0.12192951 -0.49902913 -0.66695166 0.21491076 0.30942738 -0.74243253 0.1376571 -0.2352523 -0.24353997 0.09413137 -0.05226673 0.018771002 0.13292615 0.2769623 1.2547263 -0.43548644 -0.14892435 0.25705764 0.22328539 -0.07958957 0.122153185 -0.672852 0.45629182 0.31577685 0.3350285 -0.327587 0.40475407 0.16754629 -0.24747215 0.14802799 0.5267411 0.6371669 -0.10626198 0.24339998 0.059301756 0.06209853 -0.040574614 -0.46269497 -0.5396805 0.07533852 -0.2518202 0.1681806 0.04629645 0.2990548 0.08996796 0.42475545 0.57692385 -0.00925801 0.4364153 0.7882625 0.2028005 0.37276804 0.08549988 -0.05840721 -0.3720139 -0.013975553 0.43187305 0.052069474 0.69779474 -1.032507 -0.4925029 0.13861524 -0.26635155 -0.46339393 0.10663872 0.3721708 0.3450558 0.014085413 0.5640482 0.29096875 -0.30809027 0.19956292 0.36321804 0.4990678 -0.08331575 -0.18768632 -0.11764946 0.5982398 0.2165285 -0.37537006 -0.39200038 -0.3605661 -0.52205163 -0.45018536 -0.4743099 -0.48880708 -0.35833687 -1.1842581 -0.5513604 -0.8164119 0.10056224 -0.6475691 0.50167453 0.023460586 -0.14511679 -0.29024577 -0.21235551 -0.76238865 1.4932705 0.64474607 0.2541878 0.13029236 0.06879315 0.29515073 -0.71258146 -0.2513854 -0.63716877 0.179738 -0.2698636 0.18309984 -0.044665825 -0.24628983 0.9695048 -0.044539914 0.01736695 0.009712781 0.23513255
887 0.06757376 0.6640092 -0.20887876 0.49851903 0.76379234 -0.18039657 -0.461404 -0.062330186 0.26138753 -0.62332 -0.553647 -0.14698935 -1.1034776 -0.34521493 0.102882765 0.5108787 -0.4657496 0.28696796 -0.16746396 -0.32047042 -0.23761149 -0.22849703 -0.041693274 0.23785338 0.23825079 0.8049505 -0.19019371 -0.13373806 0.3894498 0.0674947 -0.7210858 0.25332695 -0.16276227 0.15679179 0.46220335 0.02899067 -0.30504426 0.32737952 -0.077167995 -0.38820285 -0.17841724 0.2896104 0.6588636 -0.05292866 0.12450495 -0.18597248 0.25370744 0.040741373 0.0003356964 0.047708865 0.124020495 -0.2795949 0.26025677 -0.037464283 0.63472867 0.24009413 0.18701036 0.5300611 0.08749923 0.2583843 0.76782054 0.03577726 0.13465284 -0.06803389 0.20603676 -0.21567988 -0.0807625 0.43280724 0.005388543 0.63197035 -0.28052875 -0.312243 -0.079737134 -0.22921441 -0.23601952 0.25663373 0.0936041 0.059999235 -0.07261205 0.62947387 0.105396464 0.019703127 0.21664773 0.21859308 0.48949507 0.3801944 -0.16237196 -0.14780936 0.32070324 0.29621604 -0.35018998 -0.29134542 -0.3053016 -0.7287105 -0.37230846 -0.72160286 -0.36298046 -0.01648905 -0.9165296 -0.48826197 -0.3471012 0.35535154 -0.34104168 0.073122695 -0.12139746 -0.040796086 0.23455949 -0.39404786 -0.3462572 0.83232915 0.7015487 0.35308853 0.2020771 -0.02546275 -0.065637074 -0.35220358 -0.4512052 -0.18237516 0.18610243 -0.3328981 -0.034039088 -0.058132853 -0.17627284 0.67994845 -0.19724596 -0.06202975 -0.19586706 -0.030769343
4584 0.0062574423 0.77363205 0.02822598 0.26841676 0.36846188 -0.05300554 -0.80554974 -0.2934586 0.45350653 -0.7190061 0.28465158 -0.11707228 -0.7668576 -0.85384804 0.0809176 -0.3572282 0.014070924 -0.35552835 -0.58014023 -0.14214242 -0.23691216 0.16317287 -0.25312155 0.2866453 0.5583775 0.97917825 -0.35231254 -0.21308689 -0.38397473 -0.067562364 -0.5341496 0.38111255 0.10213937 -0.03556363 0.04365261 0.02863449 -0.19490534 0.31800878 -0.6590328 -0.30738533 0.4266018 0.10372011 1.1079886 -0.03643292 -0.35134897 0.1336564 0.19840154 -0.3806812 0.09258723 -0.15497617 0.44614506 -0.44735423 0.09403697 0.40058348 0.35065514 0.22049323 0.103953525 0.34353948 0.39551863 0.5071038 0.9755529 0.18242137 0.45468158 -0.08063191 0.5446575 -0.37465283 0.23085144 0.22615983 0.1301649 0.92729807 -0.14857553 -0.3815548 -0.39882565 -0.51517665 0.03374366 0.4160817 0.110528104 -0.29917845 -0.2264081 0.056545686 -0.19726925 0.05478865 -0.21709014 0.7436498 0.23925453 -0.06108928 -0.68676674 0.24568912 0.25442493 -0.45589575 -0.2674014 -0.6192818 -0.16075848 -0.71789384 -0.39184123 -0.93489176 0.5849237 0.27310705 -0.76114005 -0.75699925 -0.7002894 -0.19132286 -0.2427883 0.28164136 0.1802015 -0.59689224 0.08083656 -0.42795143 -0.7840993 0.7495266 0.66218126 0.5443071 0.075982355 -0.2270496 0.23308802 -0.3141848 -0.23950687 -0.02476695 -0.37044132 -0.017002659 0.04394585 -0.121283405 -0.5766709 0.52585346 0.0107219685 0.042925604 -0.093130015 -0.22090182
8327 0.11117395 0.027871028 0.09875772 -0.65504277 0.72990483 -0.5100606 -0.31377643 -0.5571639 0.71370333 0.059186596 0.23426364 0.28696477 -0.10357119 -0.04189549 0.22581056 -0.09012223 -0.51312464 -0.24562232 -0.35592633 -0.0008719105 -0.41278964 -0.17783415 0.29845133 0.07670676 0.0612965 0.029006816 -0.11753747 -0.042760123 -0.3356749 -0.061379462 -0.5451413 0.07166209 -0.34308794 -0.7127345 -0.35435075 -0.15405247 0.32757837 -0.5183936 -0.1509307 -0.23834752 0.6134577 0.14038227 0.3219787 -0.68295556 -0.20749792 -0.057052094 -0.70071495 -0.1854272 -0.38081098 -0.2565847 -0.15052189 -0.7857256 0.19940378 0.24895364 0.0003247853 -0.4859018 0.1917327 -0.13938816 -0.094548754 0.32518813 0.47675076 0.5668161 0.40929678 -0.52338064 0.1991194 -0.2817978 0.09628665 0.48830414 -0.034313638 0.42713112 -0.11199157 0.09462728 -0.5974298 -0.07474406 -0.6602185 -0.11057147 -0.13051757 0.6963987 0.34729868 0.35212305 0.1757899 -0.2623804 -0.29760543 -0.77331823 0.27544543 0.035124812 0.022053706 -0.5726378 -0.58640784 -0.34460774 0.14335573 -0.56329894 0.69272727 -0.035868626 -0.037064143 0.085617535 0.056780793 0.15943077 0.3381005 -0.7733252 0.46833196 -0.40539026 -0.4904603 -0.18807141 0.7739891 0.0977853 -0.20650417 -0.22259614 -0.120106004 -0.032848697 0.2156096 0.06572204 -0.44052017 0.23541915 -0.31052297 0.015265498 0.21886736 0.49386704 0.075136624 -0.12552486 0.44709343 -0.058435712 -0.063311346 -0.15279746 0.04670375 0.250841 0.62163013 0.31321707
6213 0.055177517 0.68401563 0.16493803 0.23745744 0.73049664 0.28682587 -0.44621593 -0.33786988 0.4206355 -0.51930594 -0.11650778 -0.050079037 -0.8444845 -0.548143 0.09016156 0.036536124 -0.44299865 -0.25939932 -0.30702674 -0.38322353 -0.1497762 0.035962686 -0.5879029 -0.0013513989 0.35088235 0.7773896 -0.36020562 -0.054292496 0.3038221 0.050141428 -0.8679211 0.12840652 0.15659712 -0.41312227 0.40723312 -0.21804145 -0.24627776 0.11937319 -0.2290561 -0.38592964 0.35215816 0.1743243 0.5565358 -0.027705817 -0.047885578 0.32123432 0.18636376 -0.36456448 -0.27881685 -0.29542932 0.27628002 -0.25851625 0.05556687 0.2693944 0.30428818 0.605727 0.023682624 0.40453112 0.6038587 0.365626 0.44989052 -0.009991028 -0.20153995 -0.06579188 0.46921805 -0.30062717 -0.20211998 0.31115752 -0.24827981 0.44050395 -0.19184019 -0.20747438 -0.20295484 -0.44381756 0.1876411 0.13532609 0.0127897505 -0.028136006 -0.061022345 0.5704777 0.12476556 -0.07492463 -0.2037286 0.2827472 0.20472822 -0.14986509 -0.24216603 0.16046505 0.1320222 0.08071669 -0.043627318 -0.6488433 -0.45892218 -0.50534576 -0.38640568 -0.49746987 0.18843003 0.01741455 -0.9101708 -0.2090483 -0.57786363 0.22550015 0.031816196 0.27398783 0.18225996 -0.33864903 0.0004764563 0.0135842115 -0.53313524 0.6998718 0.6126856 0.4228873 0.34623915 -0.5733841 0.092502646 -0.32159713 -0.32181102 -0.027996756 -0.021420056 -0.16526856 0.22114086 -0.09898909 -0.07130647 0.3009883 -0.08216918 -0.15561256 -0.2664029 -0.09882219
5222 0.03224193 0.21495752 0.7744482 0.06288995 0.46015227 -0.401292 -0.18300383 0.04113826 0.105622575 0.17921968 -0.7668957 0.17338577 -0.16129433 0.34937108 -0.20267521 -0.1580395 -0.32037157 -0.3111047 -0.021253355 0.3245223 0.57055056 0.2739586 0.31219015 0.04872683 0.4054143 -0.40954933 -0.68693537 -0.39504313 -0.07749646 -0.18048629 -0.2783813 0.2630551 0.59121364 -0.3112717 0.20987323 -0.4321225 -0.12928843 0.11375837 0.10649846 -0.39283356 0.043329433 0.16826679 0.00863 0.24487944 -0.05676106 0.018313289 -0.8081979 -0.045797545 -0.16786076 0.3027234 -0.2788841 -0.07949269 -0.012671607 -0.41467836 0.1344271 -0.024946723 0.33794576 0.37802684 -0.28484347 0.4979863 0.35091826 0.19318336 0.39176533 -0.5269932 0.56150305 0.046401702 -0.4101047 0.34302753 -0.17811608 -0.40295327 -0.41623056 0.075383544 -0.24095555 0.6786267 0.039718185 -0.1700258 0.22807005 0.47221634 0.32724312 -0.0060021984 0.17225945 -0.13312277 0.007274808 0.38975406 -0.14094144 -0.21533686 -0.18242928 -0.24800688 -0.33401474 0.9926734 -0.044959955 -0.42072573 0.16712777 -0.1511486 0.42970031 -0.5068305 -0.16876563 -0.2200469 -0.21626776 -0.2856215 0.09636003 0.25468963 0.20579943 -0.15924275 0.49271485 0.58755404 -0.11371423 0.10659653 -0.24315317 -0.6175175 -0.008413542 0.15581745 -0.037372958 0.2948482 0.074943416 -0.026732178 -0.33533254 -0.08722917 0.023929456 0.032026503 0.7236419 0.26551124 0.13424793 -0.4775389 -0.08254027 -0.10210113 -0.1281042 0.0863483
3028 0.40576535 0.4111962 0.06888945 -0.28145203 0.8981893 -0.09737193 -0.47698644 -0.28855723 -0.18018222 0.040095426 -0.33773607 0.24480173 -0.24556746 0.2536018 0.15043114 -0.47164297 -0.53378135 0.17313765 -0.49554372 -0.3256115 -0.14908588 0.41699597 -0.01757595 0.6084087 -0.1518701 -0.0768128 -0.268747 0.022980362 -0.245653 -0.15977047 -0.2335268 -0.0737602 -0.18519863 -0.5544316 -0.37240362 -0.13071074 0.45020995 -0.5162575 -0.29908812 -0.58246636 0.195772 0.37259054 0.3022864 -0.33953163 0.7167874 0.27010322 -0.68259716 -0.096933186 -0.65844625 0.0015242693 -0.103352845 0.0707935 0.39336166 0.7071424 0.1564729 0.18882357 0.21466798 0.17100434 -0.17704222 0.3184255 0.032183323 0.6065686 0.4618117 -0.37497586 -0.13255854 -0.21198392 -0.2701148 -0.2649093 -0.16962422 0.5112201 -0.2749519 0.62335795 -0.16156957 0.14665802 -0.30459955 -0.57894075 0.11565887 0.1505043 0.93358004 0.28822377 0.19141361 -0.16759449 -0.24121529 -0.46085337 -0.19809556 -0.6590476 -0.21510272 -0.53198403 -0.4001697 -0.44632447 -0.17361464 -0.58515394 0.0516865 -0.27189282 0.5662634 -0.049681887 -0.16063426 -1.0768276 0.2624983 -0.102714844 -0.14847475 -0.103564635 -0.520416 -0.15548256 0.7825521 -0.304221 0.2906081 0.47881156 0.276363 -0.64844644 0.11097997 0.2254597 0.34484294 -0.11768213 -0.22409257 -0.19775863 -0.206517 0.20064323 -0.5540111 -0.20750868 0.452653 -0.13516253 -0.048271768 -0.5740118 0.22696501 0.63402617 0.11494804 0.28460926
9570 -0.03531278 -0.13707887 0.23175395 -0.03646225 0.8752168 -0.86569524 0.32569754 0.38116977 0.6861719 -0.08540526 -0.43485108 -0.11888245 -0.4667084 -0.17470764 0.1192464 0.1968726 -1.0195192 -0.33076236 -0.35639086 0.91998935 0.2163153 0.7608933 0.8716397 0.2669031 0.031511314 0.09262704 0.317195 -0.41351274 0.23335849 -0.2245098 0.20680316 0.84414417 -0.18965313 0.033880837 0.061110113 -0.40066245 0.29871568 0.20530063 0.031038204 0.16020289 0.3833713 0.9131399 -0.26888683 0.13147776 -0.034293808 -0.3751684 -0.74807096 -0.33118144 -0.1675248 0.19927967 0.3784473 0.0021040011 -0.79828316 0.16678171 0.11096711 -0.20524085 1.0332009 0.52151316 0.37611765 0.39815533 -0.00087313895 0.68152463 -0.18957567 0.03409697 -0.10625565 -0.21081416 -0.68688565 0.27681065 -0.124017924 0.3217361 -0.020554354 0.12880884 -0.12154848 -0.02357206 0.563757 0.022260247 0.12944256 -0.48425996 -0.5357098 0.4946857 0.055906788 0.011660852 -0.26360342 -0.08510553 -0.21125323 0.24987192 0.14039329 -0.4988095 -0.116591185 -0.49960536 0.17065327 0.13283816 0.32562354 -0.6682517 0.2855955 0.40021586 -0.1519172 -0.33693886 -0.23603825 0.4198962 -0.6786372 -0.081596546 0.3854453 0.4161927 0.45236543 0.029755589 -0.18273287 -0.5081463 0.09062184 -0.2320068 0.68678033 0.09690086 -0.48099345 -0.10811266 0.015812095 0.3003684 -0.0968276 0.12863453 -0.40665185 -0.22192454 0.39102784 0.8109194 -0.40585688 0.6835343 0.26985878 0.09501934 -0.24756952 -0.058152474
8251 0.71978706 0.065258056 0.9304793 -1.3387781 0.9965966 -1.0257566 0.1253467 -0.0059249545 -0.4158985 0.6365061 -0.52164376 -1.0879515 -0.99809515 0.89398706 0.042225808 -0.29592213 0.15424168 -0.472902 -1.1946299 -0.13647124 0.046465885 0.09638156 0.08627367 -0.65331733 0.6016987 0.025851931 0.101083994 -0.31319365 -0.41804028 0.99320334 -0.9685437 0.8480224 -0.011499651 0.5378496 -0.3556563 -1.4160374 0.04259038 0.1423217 -0.523106 -0.045630787 0.6150853 0.32044476 0.15920025 0.24372539 0.22557911 -0.67987585 -0.4115828 -0.022309018 -0.3798446 -0.8123872 1.0561739 -0.27905595 -0.31877455 0.029846113 0.16604954 -0.61128104 1.2259653 0.38975036 -0.041437417 0.42278364 -0.39010012 0.4683492 1.0950049 -0.42495012 0.028074035 -0.7639727 -0.22507317 0.23944885 -0.24282397 1.1022006 0.38589677 0.6909503 -0.78401166 0.02989759 0.94172114 0.90194356 -0.46787307 -0.13802008 -0.4590209 1.0617235 -0.0111424 -0.9582817 -0.3596903 0.30504078 0.056724112 -0.6318043 -0.21354385 -0.4484374 1.5531666 -0.70805305 -0.1731313 -0.9527104 0.21469061 0.78858966 -1.0895032 0.100740574 0.8435186 -1.4261116 0.27026382 -0.5599927 -1.2654339 0.1508025 0.14330837 0.09133303 1.0329726 -0.5861361 -0.1664069 0.7958848 0.24226072 1.8328682 0.53089887 -0.24324004 -0.3099561 0.9792914 0.10089384 -0.31057793 -0.10941264 -0.20920599 -0.926679 -1.1510565 0.91425097 1.4688362 0.11069939 2.1694617 0.30965096 0.24649556 -0.58360213 0.14545436
8237 0.73826796 0.10990078 0.93068695 -1.3651139 0.9226924 -1.0267334 0.1610022 -0.15402505 -0.397141 0.6727548 -0.5055084 -1.2042885 -0.9875949 1.0500125 0.120282255 -0.29889485 0.06749646 -0.4694976 -1.2546562 -0.17093264 0.06506672 0.056977343 0.05866546 -0.6623072 0.51545614 -0.00724958 0.2214011 -0.3482725 -0.33298495 1.0093592 -0.9885284 0.90384406 0.007211977 0.61905336 -0.26397002 -1.4180497 0.0037148532 0.13427497 -0.5874028 0.06346264 0.5910196 0.37257832 0.18652794 0.21338865 0.2225762 -0.6315191 -0.41272008 -3.2829896e-05 -0.40578946 -0.8560496 1.2236302 -0.22361647 -0.35944974 -0.008148972 0.23487438 -0.69152457 1.2129567 0.40904027 -0.14720517 0.4514944 -0.27271584 0.56464183 1.2380271 -0.4477614 0.03239188 -0.6962975 -0.22003204 0.24902412 -0.29715663 1.0741434 0.39170447 0.7186073 -0.91020006 0.02637551 0.97429854 0.86502105 -0.35393104 -0.21712098 -0.3628674 1.0002508 -0.04610663 -1.0309947 -0.41082776 0.31494272 0.1702179 -0.6874057 -0.2010167 -0.5675763 1.6149321 -0.7602475 -0.20676996 -1.020463 0.26859722 0.776422 -1.0780355 0.13734558 0.85847 -1.569948 0.32105142 -0.59818447 -1.3427774 0.15636885 0.20516214 0.09653275 1.0845346 -0.62564015 -0.21145622 0.87064093 0.25650162 1.8302981 0.55083376 -0.25448957 -0.3374913 0.9478064 0.14032634 -0.23176442 -0.06931726 -0.10305037 -0.9835206 -1.2201151 0.9436682 1.5639646 0.06309078 2.1728115 0.29173547 0.22714669 -0.5589081 0.1901158
24755 -0.1861676 0.21838363 0.8067132 0.225384 0.70402443 0.80358785 -0.23476596 -0.11471429 0.2247282 -0.40328673 -0.7224622 0.14189908 -0.67581975 -0.5326164 0.5127642 0.20412396 -0.25316635 0.05900313 -0.61948466 0.29318017 0.22984302 -0.5195808 0.21999583 0.14454186 0.011880839 -0.113734975 0.26209426 0.4470203 -0.30352125 0.21841142 -0.46917638 0.55585605 -0.24490137 -0.008241585 0.114468336 0.27266356 -0.16231284 0.16285986 -0.6969333 0.02316939 -0.16010384 -0.080518186 -0.31458247 -0.40955955 -0.7563652 0.19024846 -0.14637032 -0.25012577 -0.5151955 0.16745485 -0.52162254 -0.52035713 -0.2658887 0.3974786 0.37767023 -0.17377527 0.2671269 -0.08948615 -0.023273235 0.54674673 0.023996383 -0.011488957 0.16145676 -1.1150826 -0.43965232 -0.54316616 -0.379981 -0.042989466 0.10092246 0.7651739 -0.028724302 -0.32491937 0.21563233 -0.042079724 -0.3536883 0.23704024 -0.2800519 -0.32181972 0.34137368 0.23236118 0.033337973 0.0876372 0.6572605 0.8495771 0.33514076 0.63189834 -0.8149228 0.25210527 0.64654225 -0.101886585 -0.2233123 -0.8616297 -0.36606202 -0.12042858 -0.50524163 0.27217886 -0.32648265 0.037203178 0.29378217 0.20195536 -0.9122003 0.037474755 0.5846778 0.447215 0.74467295 -0.4584368 0.045148313 0.6192797 0.3538777 0.33180165 0.3916183 0.3270585 -0.6250381 -0.20035721 -0.28768685 0.039742853 0.4839664 -0.023759786 0.14037915 0.34308693 0.42536786 1.0113319 0.12135228 0.058538057 -0.19823037 -0.14105673 0.11072524 0.07145281
2537 0.13662821 0.22203809 0.6012402 0.42521593 -0.09092033 -0.1857324 -0.26269254 0.13662572 0.022076381 0.38676924 -0.67095566 -0.24178347 -0.0365074 0.098753296 -0.46967298 0.24087805 -0.25909573 -0.3793834 -0.16991812 -0.18343578 0.49866825 -0.063920215 -0.24334018 0.043323744 0.5126856 -0.078052446 0.0269005 -0.25500914 0.08603989 0.16278537 -0.27217185 0.6628578 -0.070674434 -0.36340648 0.38455153 -0.40475887 0.26359254 -0.16971175 0.051903974 0.016341941 -0.21376146 0.3619116 -0.005806119 -0.020432627 0.6829903 -0.042144455 0.2608515 -0.41050908 0.07478195 0.5488032 -0.47528794 -0.26905224 -0.65462214 0.46165544 0.0295766 0.38956973 0.48885852 0.34780446 -0.012112178 -0.3987356 0.2947401 0.523022 0.15339532 0.10532623 0.37077713 0.37852353 0.0963343 -0.21803884 -0.5267973 0.20301992 0.31562862 0.5780596 -0.7492736 0.29907152 -0.3582508 0.37773436 -0.25554553 0.3341833 0.31319436 -0.1432632 -0.2839056 -0.27665886 0.25191 0.40098357 0.03504203 0.019923665 -0.25210407 -0.42795798 -0.29004154 -0.2646989 -0.13289154 -0.12747529 0.18140325 -0.007002817 0.35931846 -0.0475647 -0.19241019 0.0060788775 -0.114567585 0.24732415 -0.16733769 0.48189527 0.30282876 -0.19478549 0.4375685 -0.13337666 -0.765936 0.10944844 -0.0075974395 0.5579544 0.35708034 -0.060141988 -0.42827106 -0.034823857 -0.014167797 -0.12018353 0.041604362 -0.21213384 -0.15741111 0.16897316 -0.4107828 -0.00958828 0.09909839 0.2249685 -0.7019595 0.0054498105 -0.12290865 -0.31411305
2390 0.18739954 0.7074411 0.41558295 -0.08875832 0.21792418 0.18595088 -0.22482508 0.2884865 0.55544835 0.20473114 -0.25519443 0.14561544 -0.12129125 0.1676515 -0.42663807 -0.337772 -0.43267518 0.06982628 -0.38278115 0.123795204 0.017739723 0.19676301 -0.45319402 0.22949415 0.09395259 -0.3299827 -0.015312499 -0.32344913 0.022689354 0.005387077 -0.42470998 0.12898017 -0.24523422 0.07202681 0.34685084 -0.10922334 -0.39086318 0.13736632 0.12569693 0.12490439 -0.14454389 0.48822194 -0.3439925 0.12187084 0.49997863 0.006420408 0.27629822 -0.24543461 -0.14751932 -0.31701654 -0.15467072 -0.5809958 0.028367914 -0.1727418 0.48322093 0.38934222 0.66851896 0.17502561 -0.18358669 -0.090672635 -0.11074621 -0.08264433 -0.027444718 -0.4630272 -0.045430154 0.29258224 -0.48845637 0.06777508 -0.71336675 0.3009649 -0.294195 -0.07186972 -0.33243424 0.5746518 -0.30712277 -0.22272505 -0.05613498 0.5181763 0.046802863 -0.19794698 -0.0017198217 0.07229388 0.23638247 -0.16007172 0.24436095 0.1713864 -0.5072311 -0.9532066 0.21299063 0.15139364 0.29447123 -0.21051092 0.32160038 0.018343775 0.21412091 -0.05161163 -0.12591429 -0.10763335 -0.48684493 -0.33450332 0.24442348 -0.6134528 0.04797191 -0.15256082 0.96393025 -0.14365248 -0.12996407 0.09365415 0.43073124 -0.12510435 -0.5083531 -0.3684132 0.11976056 0.42352644 -0.19525158 -0.42858097 -0.10013366 0.08435864 -0.02909368 0.29230502 0.37278113 -0.012098078 0.19840686 0.32405415 -0.3414366 0.2951634 0.2619434 -0.011890486
1888 0.30955788 0.33500567 0.112495154 -0.059182547 -0.061908413 -0.24900363 -0.252692 0.68168914 0.06779506 0.6212535 -0.3214592 0.32915524 0.17381832 -0.2309619 -0.84303623 -0.05978813 -0.124357074 -0.08015035 -0.22359657 -0.37736458 0.058973476 -0.029499333 0.18955953 0.59257305 0.52947575 0.11323376 -0.08458811 -0.4131538 -0.22870761 -0.013016317 -0.495716 0.1064632 -0.15723261 -0.054567836 0.056199934 0.20113134 0.1799232 -0.63571393 -0.15310585 0.24140108 0.30657572 0.24706891 -0.08972455 0.065239854 -0.43882182 0.48196805 0.019888548 -0.25748825 0.09781318 -0.23270702 -0.6213624 -0.29021204 -0.23456998 0.061285146 -0.11406132 -0.08804263 0.59204316 -0.084140524 0.0077141994 -0.08624656 -0.25529504 0.18065937 0.07803182 -0.22488034 0.26754025 0.46435425 0.12747903 0.08624996 -0.123939656 0.59871167 -0.11651699 0.078535184 -0.3805361 0.5500346 0.13679631 0.53433096 -0.11202598 0.32074574 -0.08437462 -0.041398916 0.24471505 0.47243732 0.12863141 -0.012755308 0.42660037 0.04166515 -0.24767388 -0.5015235 0.04697935 0.08207427 -0.021539781 -0.48768234 0.30286625 0.049845006 0.43788892 0.17366762 0.010971437 -0.60355514 -0.1250372 0.020714872 -0.68631166 -0.007891526 0.043848023 -0.44038528 0.6022435 0.1916125 -0.17506991 -0.2689851 0.19823173 -0.06996461 -0.14175504 0.21336207 -0.0030635723 -0.046340406 -0.062380955 -0.36814928 -0.55647886 0.38304245 0.18962163 0.03040085 0.62792087 -0.27529505 0.3082187 -0.2832188 0.014937782 0.019466398 0.33306855 0.13051675
78805 -0.11158359 0.24684264 0.8969609 0.28996506 0.82742786 0.83102775 -0.2674147 -0.40190563 0.086291924 -0.35948548 -0.6798811 0.30891225 -0.7190585 -0.5546266 0.4562552 0.3143943 -0.25487584 0.014927949 -0.6366169 0.1529877 0.06588086 -0.4538142 0.12947261 0.15176366 0.038234435 -0.0938389 0.3142181 0.34799704 -0.4486551 0.2186471 -0.5332872 0.7132031 -0.44215292 -0.064155325 0.13173838 0.2678308 -0.27359158 0.19562674 -0.7283264 -0.06400431 0.033524312 -0.09923699 -0.26664373 -0.6085571 -0.78750795 0.21169998 -0.14181852 -0.32812765 -0.42273486 0.14015183 -0.728908 -0.42345366 -0.38870624 0.32427874 0.51972574 -0.14167939 0.24974506 -0.06471316 0.09470181 0.6402049 -0.12264646 0.1178391 -0.023953894 -1.3177199 -0.39022526 -0.6059277 -0.37920472 -0.08715261 -0.005013348 0.801987 -0.14099234 -0.369681 0.21496788 0.067497015 -0.28521064 0.17224464 -0.32566425 -0.26248178 0.46317604 0.2721538 -0.044783782 0.10695249 0.72216874 1.0112681 0.52418303 0.7915396 -0.8551979 0.1993589 0.6597255 -0.30280605 -0.25594136 -0.99303895 -0.2420695 0.0027970043 -0.3425773 0.28884876 -0.19561 0.12795658 0.14617513 0.14677055 -1.0329895 0.25246358 0.45394266 0.39452142 0.7018452 -0.69489706 -0.0044773966 0.8049616 0.42081422 0.25817874 0.46475005 0.52400905 -0.6004107 -0.16655858 -0.22486313 0.10790704 0.5095861 -0.02075951 0.074746944 0.50246894 0.4257361 1.1405963 0.26340038 -0.03017956 -0.32082763 -0.037860587 0.16866747 0.27322802
124378 0.42180768 0.62845045 0.110539064 -0.36589655 0.35941684 0.26215369 -0.06310991 0.5646306 0.6007452 -0.24393332 -0.5360723 0.15125148 -0.21971484 0.011551532 -0.7707502 -0.2219349 -0.37370515 -0.21310341 -0.43322498 -0.05132525 0.124069616 0.18524928 -0.33330232 -0.095013686 -0.10908713 -0.5048546 0.31946662 -0.2091363 0.522196 -0.11684981 -0.8122274 0.023364957 -0.1569666 0.17612004 0.14216211 -0.61212325 -0.105403975 -0.19576642 0.25388452 0.12919387 -0.10940081 0.3515942 -0.32485977 -0.06528387 0.59081316 -0.21830757 0.35148996 -0.22003116 -0.4389096 -0.678956 -0.3418674 -0.47131228 -0.19753197 -0.014818261 0.7949742 0.42547005 0.7944024 0.41728854 0.12922595 0.07692152 -0.24600957 -0.000941578 -0.117577665 -0.32864302 0.32831502 0.14418374 -0.3697076 0.19581765 -0.84021026 0.32588404 -0.59706205 -0.07158367 -0.41865358 0.70461845 -0.2340337 -0.58609927 0.19063978 0.6350573 -0.0051112017 -0.3779228 -0.5428151 -0.033626683 0.845013 -0.40010893 0.4815859 0.22890714 -0.6273688 -0.94849145 0.09082053 0.035597697 0.22562762 0.004995775 0.22303386 -0.15202774 0.19677246 0.03554531 -0.12835127 -0.14966485 -0.57390404 -0.15983713 0.54287195 -0.60550314 0.103798084 -0.20334195 1.0875857 -0.10318149 -0.24026667 0.14452527 0.52276134 -0.07113763 -0.29240662 -0.046201844 0.006621827 0.08474463 -0.1717685 -0.36821997 -0.4268685 0.17533576 0.1304633 0.11640979 0.46132034 -0.10595141 -0.14211008 0.026677413 -0.68726313 0.60252565 0.57183266 -0.19694686
1047 -0.60301936 0.7496646 0.71955574 -0.35908955 0.49130926 -0.16537924 0.590483 0.08267781 0.21689963 -0.35101295 -0.77039397 0.2026943 -0.8340371 0.73455894 0.038800303 0.13722634 -0.891617 -0.024365304 -0.10696355 -0.7643523 0.14369278 0.31821635 0.48867318 0.05395784 -0.36016905 0.5084158 -0.60727775 0.7556426 -0.17724547 0.3234014 0.36412838 -0.108597375 -0.87146294 -0.053157363 0.18815067 -0.33147863 -0.22687307 -1.2017202 -0.8202316 -0.3412948 0.52055913 0.57443774 0.15682678 0.12741023 -0.94786096 -0.028544594 -0.37483716 -0.08979565 -0.34985045 0.2574284 0.30152512 -0.5467836 -0.26944843 0.4798459 0.26062965 -0.218668 0.5483353 0.26614732 0.068140775 0.23610863 -0.2742137 0.6511785 0.3539116 -0.3818572 0.2051176 0.0348991 0.14049233 0.38333273 -0.26933223 0.32247004 -0.54298604 1.2443289 -0.41468742 0.36126733 0.70327216 0.5417415 -0.66393167 -0.009777129 -0.2784597 -0.34232008 -0.20139559 0.19724178 0.12471798 -0.55928177 0.5727963 -0.7816304 0.05156988 -1.0973647 -0.6799484 0.42700148 1.1656919 0.4768232 0.6411989 -0.16390727 0.44381636 -0.46946397 -0.48157048 0.31313795 -0.108240314 -0.028458703 -0.26497376 -0.2755802 -0.013556925 -0.30042145 0.28630602 0.09893631 -0.08424763 -0.103459455 0.37471744 -0.22520566 0.86209327 0.08320741 -0.7055859 0.14860651 -0.076215774 -0.13926163 -0.027299985 -0.34412372 0.13929592 0.16010582 0.39596272 -0.055111226 0.44432876 0.2734857 -0.39565212 0.7242485 -0.13386814 0.06767854
4013 0.13500758 0.033834353 -0.08384311 -0.40725982 0.9946794 -0.434616 -0.16821472 -0.07201695 0.42888483 0.13023943 -0.36275908 0.17496431 -0.41553244 0.093165666 0.17477548 -0.02811363 -0.35207295 0.13741942 -0.2176183 -0.044557597 -0.3256252 -0.2424463 0.35099578 0.3442574 -0.00633178 -0.049136307 -0.32638392 -0.27742028 -0.33213514 -0.010633097 -0.735501 -0.121821225 0.015186341 -0.7668856 -0.27823007 0.44305733 0.25912073 -0.13705413 -0.3945238 -0.28570223 -0.012017505 -0.28713915 0.6430088 -0.51330966 0.09859056 -0.4474061 -0.7131629 -0.2621867 -0.06332838 -0.04898396 -0.13139305 -0.65926695 -0.1010393 0.18047908 -0.1212484 0.10602689 0.45432228 -0.37651694 0.00949123 0.8032205 -0.22431037 0.41068947 0.43363357 -0.09231653 0.30272472 0.223982 -0.2544239 0.4393495 0.13078848 0.45284468 0.0051691933 0.29220104 -0.35505036 -0.03396898 -0.5123756 -0.059792157 0.081458986 0.5908282 0.19635847 0.08978191 0.09001846 -0.14635141 -0.35884252 -0.53243893 -0.05083448 0.10874204 -0.15341984 -0.29376742 -0.5812097 -0.07144548 0.00631813 -0.022142274 0.53568417 -0.22219197 -0.0034187539 0.48040086 -0.08766787 0.09752526 0.41397735 -0.6920698 0.3882373 -0.051225793 -0.15792032 0.4778916 0.6519749 0.31451064 -0.2934221 -0.20786336 0.109192796 0.04102088 -0.18429534 -0.26057997 -0.18833403 0.34245434 -0.3886331 0.3847955 0.19756415 0.024499446 0.19199398 -0.15112208 0.3515707 0.10376964 0.13884036 -0.09807673 -0.0027172233 0.21095018 0.34990972 0.44792688
27699 0.022658093 -0.24524958 0.24192746 -0.14658485 0.5363579 -0.69656956 -0.43122822 -0.53603053 0.14268678 0.17954296 -0.7853731 0.26381853 -0.3997729 -0.11697498 0.47209805 -0.1532689 -0.050975848 -0.116162695 -0.048707172 -0.05353634 0.32088783 -0.17822392 0.3818801 -0.183526 -0.2674268 -0.3293287 -0.08578843 -0.27407825 -0.13799043 -0.057029903 -0.6598334 0.30535522 0.10197269 -0.3002597 -0.13542257 -0.014230414 -0.040289607 -1.1392003 0.13759741 -0.21234049 0.28325427 0.37166104 0.33108735 -0.19354263 0.019827968 -0.39934093 -0.8123864 -0.06754957 -0.14623968 -0.19764003 0.21395694 -0.7797424 -0.25247687 0.3828708 0.13973878 -0.3217371 -0.34835723 0.14095601 0.16685914 0.097729415 0.36529222 0.4694267 0.035217803 -0.38343656 0.04297765 0.28329256 -0.08215042 0.17462824 -0.0054703047 0.26474681 -0.10424237 0.020592649 -0.44119298 0.3280977 -0.7630224 -0.3139245 0.8682451 -0.18264504 0.37894857 -0.16154456 0.13634585 0.0741714 -0.269103 0.0819212 0.0058113215 -0.3914616 -0.33966583 -0.5776856 0.18946843 0.27069706 0.3743941 0.22484402 -0.14804564 -0.5815873 0.35705757 0.41102627 -0.27109423 -0.032905158 0.24898751 0.11567058 0.04567205 0.13259383 -0.50354207 -0.1728753 0.35776922 0.31472594 -0.36621732 0.19428894 0.19496848 0.23771381 0.12941824 -0.5035336 -0.2211406 0.028731659 -0.6944836 0.058265656 -0.45557055 0.18232387 -0.22717418 -0.18936391 0.6679826 0.30877036 0.24321437 -0.029209062 -0.17911884 0.07252233 0.995682 0.70506734
1553 -0.14732952 0.20485069 -0.30571237 0.14699072 0.27901712 -0.9799427 -0.0441539 -0.8334846 -0.07455452 0.0978769 -1.0288506 0.77267134 -0.48990732 -0.20115246 -0.28784594 0.104315326 -0.34528056 -0.16034245 0.36856157 -0.18310963 -0.05155555 0.31079674 -0.15841906 0.2991124 -0.3725412 0.21547213 -0.18630607 -0.7266085 0.06032945 -0.7288807 -0.41218755 -0.052534677 -0.1943286 -0.12197815 -0.2097406 -0.35027346 0.17195901 -0.59645224 -0.35182744 0.21028972 0.13419755 0.054444447 -0.06384963 0.36507583 -0.07687039 -0.5076021 -0.8774423 -0.36248913 -0.56450045 0.29786393 -0.24404651 0.06345172 0.24135877 0.35556862 0.1310068 0.25824225 0.2335381 0.41995654 0.110670984 0.24791762 0.0025986552 -0.048501536 -0.12713455 0.22188595 0.013886544 -0.23117809 -0.7382038 -0.039594732 -0.16227989 -0.2918177 -0.31345227 -0.0036825095 -0.70904136 -0.055065434 0.12987648 0.59756464 0.023172248 -0.19004117 0.6173078 -0.121589854 0.18935661 -0.38775897 0.19962117 0.28531477 0.18834858 0.16038118 -0.3082975 -0.83749014 -0.22462362 0.34715807 0.27882865 -0.3511094 -0.4878163 -0.14819452 -0.041353233 0.09814386 -0.006539447 -0.21808206 -0.4665198 -0.4948591 0.1204944 -0.04406074 -0.024725929 -0.0958357 0.73869085 -0.008619669 -0.59046715 0.070282064 0.25315654 0.026543377 -0.24967277 -0.24165712 -0.088718824 0.6383551 -0.042772017 0.303024 0.18223788 0.037759013 -0.109258264 -0.09597819 0.28332224 -0.25484416 0.68965334 0.10298294 -0.16456717 0.13358666 0.23842078 0.6276467
18130 -0.56695074 0.8849207 0.7819721 0.070098296 0.6709988 -0.17178702 0.22158338 0.12993278 0.17564978 0.15288916 -0.86424404 0.2530458 -0.8100647 0.7685299 -0.03749069 0.06461111 -0.5610345 0.18024261 -0.19905342 -0.45986843 -0.2482417 -0.10075104 0.41419104 0.036437362 0.12666005 0.4451661 -0.6033792 0.23522659 -0.19172204 0.16493484 0.32471064 -0.3107737 -0.4129132 0.2218024 0.50088197 -0.16098985 -0.23312938 -0.5944077 -0.8985801 -0.44527224 0.4448704 0.33804774 0.21049125 0.4703179 -0.45191473 0.28116617 -0.3345996 -0.2262739 -0.085119896 0.62744564 0.6406018 -0.5405013 -0.0119828535 0.37233907 0.51678574 -0.0893335 0.29238242 0.32031187 0.24529934 0.0781821 0.09067278 0.23536116 0.20483561 -0.21116792 0.026446683 0.06227504 0.18263455 0.4492158 -0.12332437 0.57609737 -0.45572275 1.0375302 -0.50842845 0.16080013 0.6567443 0.500475 -0.81651676 0.094495095 -0.07492432 -0.28308707 0.11769065 0.06784791 0.20321122 -0.24849014 0.367112 -0.539894 -0.026631262 -1.10239 -0.63898045 0.2717918 1.178732 0.1587889 0.39400843 -0.20308974 0.54720867 0.02965529 -0.26734495 0.064689375 0.063114956 -0.017938478 0.06300078 -0.29829532 0.018428518 -0.106949285 0.21662958 0.099346906 0.30002323 -0.35935614 0.38421428 -0.2774598 0.78642184 -0.010670603 -0.61680746 -0.02429818 0.055322006 -0.038017977 0.4264901 -0.33013391 0.09749022 0.29201785 0.58749306 -0.37692636 0.36123922 0.16217904 0.11165328 0.6661168 -0.074557185 0.3136248
29180 0.058707874 -0.62764937 -0.25947902 0.36832923 0.49501953 -0.33746803 -1.0279475 0.65786433 0.9580703 -0.3877113 -0.108796544 -0.4519145 -0.685909 0.47968557 1.0615381 -0.7964945 -0.22871935 -0.7592551 -0.7242628 -0.029339695 -0.19653848 0.025507132 0.13615052 0.32569364 0.99496174 0.45585722 -0.25309885 0.012269582 -0.015099073 0.55395836 0.39218608 -0.12389354 -0.6649756 -0.21082191 -0.77088636 -0.36976734 0.012657774 -0.64563596 -0.457383 0.15844545 0.7549824 0.27285805 -0.074559756 -0.2614097 0.041299652 -0.4281597 0.09913191 0.44237497 -0.35239303 -0.06927947 0.17496462 -0.16616857 -0.86155725 -0.5496703 -0.10837177 0.36841118 0.6166584 -0.18126434 -0.8158431 0.60445946 0.27648768 -0.38876492 -0.020096026 -0.18401797 -0.55314326 -0.4063626 -0.77480763 0.5832603 0.12882507 0.63309383 -0.50993913 1.1236695 -1.5148144 0.42619014 -0.55990636 0.22124788 -0.31140456 0.21854152 -0.50891525 0.936303 0.33684343 -0.52015775 0.087767646 0.5242829 0.4566212 0.24665362 -0.6258982 -0.03584465 0.17711331 -0.71873355 0.080176435 -0.5273165 -0.21135616 -0.11944261 -0.3069667 -0.108872406 -0.6492544 -0.18513183 -0.3540896 0.47320676 -0.6096265 0.11124371 -0.18077806 -1.1933372 -0.5213118 -0.3359367 0.3887881 -0.21789691 0.28499752 0.4765336 -0.70946974 0.310158 0.51826245 -0.8775832 -1.0744228 -0.10143337 0.48177984 -1.0700998 -0.35461372 0.4864659 0.6983597 0.4102112 0.16448821 -0.3871537 -0.5190825 0.91937536 0.86456835 0.6486071
3465 -0.14706174 0.32184345 -0.11275112 -0.8138913 0.5410816 0.4251545 -0.6342411 0.10970447 -0.85630786 -0.58784205 -1.0120244 0.036086436 -0.066543095 -0.0732434 0.6066495 0.040692993 -1.1038699 0.03436995 -1.1043448 -0.34376106 -0.7620535 0.061703403 0.25700548 -0.4712793 1.2497573 -0.56218386 0.89276046 0.06495013 0.7205586 -0.10320299 -0.22552523 1.3173492 -0.34015813 0.11218339 0.26534823 1.2336344 -1.5571125 -1.2866902 0.15525293 0.3045124 0.6353939 0.69708306 0.18923976 -0.22346915 -0.47695184 -0.8984247 0.16769333 -0.42524958 0.52096736 -0.20518261 0.559495 1.2031835 -0.33032033 0.032932978 -0.07139927 -0.7318193 0.9986347 0.80685544 -0.523357 0.6747706 0.9618594 -0.37682655 0.8702001 -0.6631437 0.3218078 -0.37979642 -1.0281808 0.826731 0.41675156 0.2193179 0.22700256 0.27563468 -0.8141014 -0.8221811 0.33433223 0.14119123 -0.85008204 0.56690806 0.45543146 0.21262586 0.6614775 0.32378593 0.7186303 1.3686087 -0.11646034 0.3365655 -1.0829755 -0.8436097 0.3895426 -0.009566738 0.26994774 -0.009550362 0.98959255 0.7073974 0.21289448 0.7456289 0.47774357 -0.6099074 -0.2800988 -1.1647232 0.07004932 -0.15431824 -0.034508888 0.1022607 0.5768269 -0.44186172 0.47483873 -0.8182157 0.40056887 0.1475615 0.03230452 -0.3604167 -0.23652288 -1.0057051 0.09675763 0.2426025 0.9157433 -0.38287184 0.4916814 -0.27546304 -0.5173014 0.36812776 0.42391044 -0.5703321 0.008497887 0.3077411 0.22767277 -0.14111125
10177 -0.28415722 1.7421366 0.7947248 -0.24405047 0.82125825 0.7166248 -0.36581483 0.10160513 -0.15847114 -0.6403104 -0.67925537 0.1315381 -0.4062012 -0.33176878 0.613908 0.505815 -0.08825736 0.5512356 -1.9328572 0.0042907177 -0.11223759 0.329746 -0.25557202 0.31813323 0.12151011 0.28055793 -0.116004065 0.047284544 -0.8245027 0.2816796 -0.5955457 0.94218326 0.5177589 -0.21624173 0.2547773 -0.019113107 -0.30857623 -0.4154412 -0.1368866 0.34328356 0.87571746 0.30497932 0.090100385 -0.9752947 -0.093752645 -0.48834142 -0.799333 -0.01747721 -0.53700674 -0.77940685 -0.41250092 -0.8430872 -0.013624699 -0.2981054 -0.6795019 -0.627294 0.54264915 0.4057094 -0.3327441 -0.7101576 -0.36471102 -0.77151 0.13141288 0.80511445 1.2178046 0.46516043 0.33231354 -0.48141193 0.66315794 0.30547142 -0.40825418 -0.15274437 0.6103432 -0.29784873 -0.41105694 0.771081 -0.29406756 -0.8400445 0.36724162 0.6881822 -1.140635 -0.40514803 -0.074955806 0.5074058 0.38877046 -0.69956815 -0.76136094 -0.2569114 0.10758675 0.5379516 -0.21715975 -0.7907647 -0.41968104 -0.05146904 -0.17639056 0.4890397 0.063112676 0.034448568 -0.4229886 -0.4651894 -0.61361086 -0.27842724 -0.01401468 0.18724073 -0.002772362 -0.2576112 0.4076907 -0.29125568 -0.5134684 0.53379786 -0.2949317 -0.19534388 -0.5713754 0.18819398 -0.53403825 0.349518 -0.30971792 -0.69919276 -0.768662 -0.50359815 1.1996754 0.43829292 -0.52371967 0.43097293 -0.49166697 -0.3304365 0.116796665 0.544011
21033 -0.28824756 0.20209776 0.103329174 -0.85640466 0.36159074 0.26240662 -0.29196212 0.19014719 -0.61065006 -0.7424264 -0.8650901 -0.10941065 0.057912234 -0.13868904 0.7704615 -0.11872793 -0.8798765 -0.013332479 -1.1738795 -0.40586504 -0.517738 0.2541492 -0.008219385 -0.32232472 0.58482814 -0.38368472 0.69887966 0.30459592 0.43962812 0.018909413 0.015638568 0.7532887 -0.2309229 -0.21682781 0.45363304 1.2033758 -0.7460511 -1.3274567 0.012282949 -0.0789301 0.23310904 0.66020894 -0.000532678 -0.08038597 -0.07107933 -0.8493607 0.29643348 -0.5354743 0.33965775 -0.13206024 0.7295532 0.7732854 -0.11297729 -0.10157416 -0.4574783 -0.188911 1.1385863 0.49773043 -0.59121007 0.41526338 0.48598105 -0.18882744 0.5915055 -0.74492025 0.19743882 -0.25828418 -0.3495725 0.69411117 0.36960316 -0.02972432 0.045819502 -0.036858577 -0.15710163 -0.56397325 0.23989989 0.3955606 -0.6586628 0.27747533 0.3864835 0.17523576 0.3661396 0.26162186 0.456145 0.9587993 -0.3965074 0.27257416 -1.1862662 -0.51620835 0.5796363 0.10651063 0.16222401 0.24023576 0.80290467 0.82585555 -0.0734306 0.44607008 0.09515012 -0.27901816 -0.33850476 -0.93105704 -0.13828921 -0.09941283 -0.2729727 -0.5357345 0.5244215 -0.3504614 0.07658451 -0.43102142 0.16514711 0.04598954 0.10838732 -0.0685812 -0.6134251 -0.7897637 0.0090988325 -0.04871311 0.65815586 -0.57008696 0.3300646 0.013248133 -0.28814226 0.68851435 0.6126127 -0.11883365 0.025515022 0.2384587 -0.1616715 -0.41318238
9136 0.08093448 0.06427752 0.18671142 -0.2268784 0.18784396 -0.12707911 -0.07689514 0.56422573 0.13021167 0.44292134 -0.2937298 0.30286545 0.21592243 -0.0509006 -0.62296957 -0.24862736 -0.32495794 -0.22903967 -0.13415012 -0.40171462 0.050131556 -0.09966827 0.132824 0.63364017 0.6733268 -0.060968727 -0.10189467 -0.26623324 -0.057960622 -0.21047983 -0.32766798 0.48951274 -0.002855659 0.13206556 0.28116912 0.24133186 0.24366504 -0.3668689 -0.05339948 0.40544045 0.09910487 0.5358287 0.022728946 0.0030907746 -0.13666587 0.37836847 0.38214305 -0.16999131 0.0017053608 -0.20863637 -0.6990804 -0.6097529 -0.34839475 -0.11539512 -0.26397774 0.17739907 0.5767094 0.17554197 -0.153136 -0.15289539 -0.05783986 0.42496505 0.3113019 -0.27509955 0.01366819 0.4024064 0.1716903 0.17633335 -0.4682784 0.5849325 -0.15528053 -0.0034804645 -0.5573483 0.24692753 0.102937534 0.6827676 -0.34748155 0.32338023 -0.22953843 0.01605761 -0.22446546 0.46730685 0.1058825 0.10350617 0.11622376 -0.19161807 -0.2355545 -0.61813563 -0.08168205 0.26009902 0.0061262967 -0.792308 0.28331128 -0.04503602 0.35136557 0.18392128 -0.11656077 -0.4621487 0.00027750304 0.106064126 -0.62425786 -0.12957466 0.037287995 -0.20652594 0.35073677 0.14574374 -0.31103322 -0.021931777 0.18904246 -0.064965405 -0.41417056 0.17001666 -0.022043446 0.007758469 -0.18385588 -0.3477915 -0.5031496 0.33856022 0.14406848 -0.09700283 0.6848595 -0.41882458 0.25019985 -0.13315497 0.2352877 -0.30600125 0.1251671 -0.09170769
4468 0.40828827 0.20178722 -0.019941267 -0.12341686 0.65521383 0.056793686 -0.28278834 0.43008506 0.40388894 0.5292043 0.075630076 0.71516514 -0.054703817 0.47872365 0.06747981 -0.009493349 0.32773325 -0.34139055 0.1579267 0.42589617 0.73955643 0.15263739 -0.9646403 -0.12023939 0.5380954 -0.22614406 0.29983887 -0.426791 0.56878686 -0.19003724 0.39279568 0.1688965 -0.08673928 0.43644348 0.17544197 -0.29308966 -0.09746788 -0.7264994 -0.6312492 0.30355236 0.6831351 0.494123 1.098471 -0.40867475 -0.41850543 -0.4421112 0.06338798 0.22815374 0.17204528 0.4195661 -0.358776 -0.21240124 -0.14941308 0.61581 0.9787592 -0.19343191 0.50611794 -0.33534256 -0.017361026 0.015022688 -0.30777162 0.5198822 0.44796306 0.009351429 0.4793528 0.2588477 -0.22301145 0.4826235 -0.30717048 0.90817076 -0.11813274 -0.16083485 -0.579273 0.17395787 0.5053209 0.064579904 0.055944175 -0.11560633 0.16968979 -0.4334856 -0.34641236 0.11955151 -0.0819183 0.17791158 -0.28332308 -0.01594169 0.00074134883 0.3349239 -0.71565366 0.19171411 0.7497019 -0.18137266 0.62143666 0.30618796 -0.26669487 0.071739405 -0.29125652 -1.0818957 -0.6713623 -0.11339008 -0.4942963 -0.0941545 0.29452714 -0.88665867 0.6797639 -0.7176526 -0.27863106 -0.4634205 0.69301504 0.6636721 -0.03860393 0.5446223 -0.6009649 0.55746984 -0.42962846 0.21215372 -0.73972994 -0.16161326 -0.09533452 -0.159155 0.7234116 0.05450205 0.33450595 -0.38804248 -0.09242717 0.82428867 -0.7098121 -0.17494868
3563 0.043995414 -0.021962337 0.019642055 -0.64819765 0.86767 -0.28531653 -0.22784524 -0.018375233 0.18344933 0.10417527 0.084038466 -0.0052809594 -0.4892273 0.3870679 0.20707043 -0.050241712 -0.24196273 -0.15494302 -0.2015342 0.15352598 -0.12097034 -0.3562931 0.6760118 0.2326447 -0.16584563 -0.12995653 -0.07993143 -0.21566017 -0.14836495 -0.25349653 -0.54420865 -0.14656673 -0.36701444 -0.8579406 -0.47831017 0.095524356 0.4735182 -0.17519487 -0.27512306 -0.35927376 0.0068605538 0.03852274 0.6597433 -0.47271463 0.22760455 -0.16946404 -0.36333507 0.012469546 -0.19388767 -0.096181355 -0.23652151 -0.6833796 -0.31648722 -0.025309417 0.11447683 -0.300893 0.52789116 -0.1425823 0.20153166 0.5141378 -0.20600846 0.24433713 0.25002646 -0.40306732 0.11149074 0.041321576 -0.21262151 -0.06614087 0.0822535 0.27115726 0.09910492 0.24492288 -0.59294134 -0.30334085 -0.47143757 -0.21241403 0.33059645 0.32281768 0.47940093 0.2753233 0.13342729 -0.091161884 -0.09237949 -0.27143005 0.09455208 0.05300026 -0.42081925 -0.37615654 -0.3024595 -0.025773194 0.16857316 -0.3505179 0.1889369 -0.035069875 -0.19092728 0.403774 0.016244927 0.09302308 0.19250739 -0.6358984 -0.05337174 0.08822834 -0.25035262 0.03508059 0.40101752 0.39426404 -0.090600565 -0.6786777 0.09790731 -0.20120053 0.17595403 -0.078585766 -0.057449788 -0.02268461 -0.66455233 0.006879694 -0.33580562 0.24890743 0.25353298 -0.08805844 0.37697184 0.034558803 0.1659368 -0.037184536 -0.18818796 0.22701561 0.27716985 0.1564305
248634 0.3838341 0.17382081 0.42642045 -0.21727863 -0.36045405 -0.057631575 -0.19079952 0.24929188 0.745153 0.08824027 -0.4370004 0.11103026 -0.60478866 -0.29440537 -0.26247153 -0.49783832 -0.36062315 0.2596055 0.016732618 -0.31279463 0.69451785 0.18682 -0.019627986 0.0073715625 0.5618106 0.06556939 0.37773675 -0.0575534 0.16418757 -0.70108354 -0.5700818 0.10359259 0.3602173 0.39253786 0.22224538 0.29443526 -0.14853194 -0.33267003 -0.3484459 0.35938594 0.28901637 0.8842145 0.4423913 0.21654648 0.16185342 -0.30483913 0.4493962 -0.050366327 -0.0948595 0.16782965 -0.90269464 -0.987762 -0.7602613 -0.07537337 0.12153819 0.26092187 0.5027236 0.12704563 0.46097633 0.33236647 0.09009969 0.2240687 0.7604131 -0.4508876 0.09088719 0.022970535 -0.19889006 0.10039034 -0.18862377 0.7439737 0.48956224 0.19691792 -0.3668179 0.60341054 0.44878882 -0.20372154 0.10561123 0.42736828 0.072849914 -0.18249345 -0.20297241 -0.036550026 0.52661216 -0.23831536 0.576005 -0.21528968 0.24055448 -0.6840489 -0.36012062 -0.18357454 0.38181114 -0.62602943 0.01068986 -0.1739573 0.22831692 0.16216685 0.49308395 0.16571105 -0.4492945 0.07686924 -0.23903278 0.32866696 0.04098137 -0.6816965 0.8781251 0.52567494 -0.6559535 -0.19220309 0.23052199 0.18562128 -0.2439367 -0.8429288 0.09352609 0.49733078 -0.24599132 -0.07501539 -0.60491925 0.34871194 -0.27196693 0.14748757 0.97283894 -0.33496726 0.24153897 -0.16986251 -0.2623109 0.20963039 0.4090898 0.2629666
6644 -0.6194295 -0.071509875 0.6263617 -0.3700099 0.1968805 0.048956748 -0.016366716 0.05970442 -0.19232194 -0.11453713 -1.1109952 -0.026586793 -1.4424286 -0.929532 0.020615147 -0.15449488 -1.1378179 -0.20380774 -1.0826868 0.057411056 0.38288188 0.18915218 -0.8839493 -0.37903717 0.43606314 0.3328458 0.89875525 0.355017 0.1436971 0.3100511 -0.037235606 0.24366167 0.047802404 -0.7627766 -0.6051799 0.6852918 -0.42313188 -0.24447176 -0.20196931 -0.30320174 0.74901605 0.40787405 1.0293384 -0.41930428 -0.15380394 0.24356294 0.1775077 -0.19439548 -0.25620908 -0.11549344 -0.2976543 -0.82996774 -0.3673951 -0.57054055 0.40116557 0.7492875 0.2931315 0.17652185 -0.54087365 0.17325939 0.37158826 0.3856372 -0.017473927 0.7244408 0.33682525 0.2536108 -0.75533456 0.03954828 -0.03288856 -0.018846275 -0.2806099 -0.20223449 -0.21969914 -0.16303562 0.29627147 1.1062019 0.5030116 0.17895305 -0.3054735 1.1997995 -0.17130148 -0.51591873 0.8249199 -0.104206815 0.5573183 -0.3421197 -0.12281748 -0.10188258 0.62957144 -0.21470918 -0.14669524 0.1265441 0.008059915 0.31900942 0.3944035 -0.043594442 -0.26118517 0.4831336 0.46257424 0.04229685 -0.09028687 0.61993515 -0.35688868 -0.68200445 0.6142549 -0.17978281 -0.24627556 -0.31836784 0.11017922 0.5508115 -0.109793 0.8173417 -0.50697994 -0.342396 -0.3621301 -0.32302144 -0.2688173 -0.36996526 -0.057646222 -0.21162158 0.008973447 0.026944328 -1.0189602 0.44222087 0.09500212 0.11608768 0.08803085 0.27808
4792 -0.0117211975 0.26094267 0.6323323 0.44464692 0.71628374 0.70804507 0.1989959 0.025693769 -0.17238577 -0.1466115 -0.5010527 0.25108203 -0.44269118 -0.09741317 0.37247875 0.07433028 -0.25077075 0.2212275 -0.8157454 0.49069262 0.13918366 -0.10783636 0.25217745 -0.3854207 0.30092764 0.046701908 0.071225464 0.22016658 -0.18081559 0.13645314 -0.5296939 0.39795873 -0.31977066 -0.045883425 -0.104488544 -0.041478757 -0.42350987 0.022166438 -0.46774286 0.17247054 -0.14081745 -0.17581496 -0.3135076 -0.6041026 -0.5595211 0.17750412 -0.34677 -0.57666755 -0.1844771 0.010121936 -0.18115202 -0.5543856 -0.48780367 -0.016938696 0.2033089 0.12385657 0.36097717 0.13178761 0.13900234 0.4252865 0.10651119 0.21181272 0.34144706 -0.67250615 -0.21819009 -0.1750125 -0.4150761 0.2485541 0.2387859 0.28906605 0.15073271 -0.35542563 0.21967274 -0.087412134 0.06686809 0.28992218 -0.04619815 0.22128357 0.3606717 0.29103032 -0.10011793 -0.22469139 0.89994586 0.12234574 0.10123082 0.56461364 -0.27399254 0.25183755 0.2768171 -0.11204288 -0.3130405 -0.47211286 -0.29589325 -0.13653769 0.18424153 0.6238 -0.31212762 -0.11419539 0.39057118 0.029766476 -0.86570305 -0.024088828 0.39023128 0.39017504 0.77752537 -0.41522145 0.013148211 0.6326646 0.34376976 0.5109992 0.12904538 0.07358387 -0.23933733 -0.10020559 -0.29653448 0.024985086 0.6273642 0.06561407 -0.05278879 0.16228358 0.22425336 0.5687616 0.09958973 0.027302634 -0.3421114 -0.3232598 -0.16230534 -0.09199725
1632 0.25707272 0.29829857 0.12768665 -0.15512545 0.21675146 0.33524838 -0.3754238 0.30092013 0.43735847 0.3181881 -0.5299008 -0.0042711436 -0.42300826 0.11304275 -0.42047527 -0.32924 -0.2964186 0.26204863 -0.5584475 0.3265257 0.0889253 0.1519807 -0.2661923 -0.005022391 0.41853297 -0.72832495 0.08540547 -0.16226724 0.08024265 -0.24185811 -0.57112837 -0.006245265 -0.21690731 0.28386542 0.3728611 -0.21343604 -0.1999627 0.23903061 0.25520515 0.22692694 -0.016279453 0.17222652 -0.30087304 0.19952996 0.6707513 -0.071970806 0.41340086 -0.45833105 -0.12578557 -0.08204203 -0.24859938 -0.6237506 -0.20579615 -0.44887096 0.7613973 0.5853193 0.7032805 0.27103963 -0.118050866 -0.24049401 0.02014863 0.15974881 -0.116819896 -0.27034757 0.012076053 0.12761018 -0.33390144 -0.11425862 -0.4741035 0.41767094 -0.37309876 0.06333041 -0.61811227 0.62582755 -0.107682906 -0.22841574 0.03202236 0.26166028 -0.21365914 -0.022814648 -0.013204864 -0.10242054 0.43337014 -0.20623471 0.20187415 0.42927322 -0.35018227 -1.1408664 -0.013629917 0.17968498 0.42003483 -0.098205894 0.16017252 -0.31817925 -0.021623485 -0.022635527 -0.22598977 -0.29667246 -0.5606437 -0.019615699 0.09055787 -0.58018476 -0.20279619 0.076178 0.98725885 0.009169686 0.05027485 0.17338839 0.32357076 -0.08349205 -0.31461102 -0.1810105 0.12579614 0.12574793 -0.27423435 -0.37388048 -0.2086082 0.13723125 0.124947205 0.3983356 0.32235858 -0.17109494 0.16976123 -0.14521004 -0.14451039 0.18792345 0.2136596 -0.02584714
5395 -0.110500984 -0.21461663 -0.22209279 -0.7213958 0.14770478 -0.94808155 -0.25966856 -0.28465024 -0.2659468 -0.11798705 -0.6008354 0.4754412 -0.13482784 0.09001027 -0.3264143 0.30823383 -0.6878227 0.12000976 0.051361557 0.1955433 -0.030257015 0.3560796 -0.04956862 0.39714456 -0.13639109 0.32942757 -0.08999679 -0.2883375 -0.13679557 -0.0875641 -0.3242316 0.58026665 -0.5497229 -0.20615487 -0.064394645 -0.4731501 0.07907457 -0.8328118 -0.5575089 -0.209715 0.118732505 -0.0065281955 -0.29418495 0.3560782 -0.16554375 -0.018106757 -0.6769131 0.28106353 -0.6614341 -0.023553755 -0.38247868 -0.5453837 0.43988213 0.36550942 0.3986269 -0.071404636 0.42908856 0.025370581 -0.059778422 -0.10015271 0.28425217 -0.07390779 0.33296856 -0.50115275 0.2663426 0.40059537 -0.52910006 -0.079513684 -0.25108415 0.11878823 -0.88456273 0.17539798 -0.72111917 -0.051111847 0.16834076 0.20489621 0.40983218 -0.24108693 0.2116884 0.033273112 0.42087138 -0.3537956 0.13679808 -0.17298494 -0.22437567 -0.07419057 -0.23812239 -0.71299285 -0.61000556 0.25917298 0.000691722 -0.07306418 -0.2295789 -0.46980315 0.45353454 -0.019832773 -0.08117713 -0.017148362 -0.107393846 -0.4765861 0.017452281 0.055871088 -0.43104663 -0.48502037 0.35437754 -0.33620125 -0.5891496 0.32714716 0.48564196 0.034472954 0.2471554 -0.35479444 -0.298103 0.12037555 0.4962627 -0.2946357 0.6220923 0.52668875 -0.33195293 0.19870271 0.3767551 -0.28242362 0.13296674 -0.084063604 -0.2722687 -0.009230787 0.025541572 0.724593
1331 0.04443546 0.16967113 0.6613761 0.6042802 -0.077994615 -0.23130122 -0.50752294 0.32301 0.40946922 0.5669613 -0.9566972 -0.343773 0.15142931 0.21591963 -0.4508588 0.020147411 -0.5492358 0.06899689 -0.13486828 -0.26316527 0.43458998 0.026018409 -0.33845034 0.31710997 0.82473797 -0.2137279 0.13039039 -0.33586362 -0.43487018 0.33698907 -0.013321925 0.43823734 0.049398318 -0.17796358 0.1991477 -0.4540679 0.4074417 -0.23064902 -0.10755625 -0.28767246 -0.45153692 0.07124517 0.032382954 -0.01894797 0.51724356 0.022122895 0.016709358 -0.40387225 -0.014865627 0.4022384 -0.5534357 -0.2943575 -0.5878734 0.37458616 0.22418705 0.4269168 0.2678475 0.37351537 -0.33114314 -0.050242025 0.2927992 0.5264384 -0.08527802 0.36818576 0.3826377 0.09123135 0.09156772 -0.45127726 -0.39943218 0.16373709 0.3318857 0.70451134 -0.6937162 0.47029978 -0.30238974 0.48393074 0.1634855 0.1929491 0.31973907 -0.12279855 -0.18966891 0.37501946 -0.059712518 0.49693304 -0.008597472 0.39673162 -0.5666383 -0.5540553 -0.14384007 -0.3241667 -0.112870954 -0.011253658 0.29428437 0.09401347 -0.21143883 0.19883789 -0.06427146 0.092228636 -0.16196182 0.0056068376 -0.28960997 0.55319446 -0.18277575 -0.21583901 0.5111358 -0.27349365 -0.7403347 -0.1532565 -0.4443184 0.9388053 0.63118297 0.268596 -0.55010617 -0.56505686 0.52625895 0.07216661 0.00847137 -0.2208711 0.32773578 0.26567248 -0.14450476 0.17475995 0.09983586 -0.074352905 -0.6724805 -0.26542807 0.10327346 -0.21354744
15360 -0.07342125 0.21188852 -0.010985287 -0.46693444 0.7386406 -0.59793586 -0.37984866 0.21482363 0.442007 0.059176795 -0.153048 0.12014103 -0.46642387 -0.1896936 -0.12888017 -0.033130478 -0.44234875 -0.23391943 -0.19074318 -0.038638037 -0.2153574 -0.467282 0.6192067 0.14819682 -0.20531306 -0.1724438 0.027303098 -0.077057794 -0.13318658 -0.14476737 -0.65453553 -0.1786881 -0.25886622 -0.9121073 -0.16719052 0.3190588 0.44015983 -0.42423666 -0.344494 -0.17288391 -0.04775941 -0.36340442 0.8014147 -0.19936691 0.23181699 -0.32962814 -0.6236447 -0.07904119 -0.059729975 0.0274571 0.10483411 -0.66392046 -0.02301483 0.12061551 -0.07794582 -0.1744782 0.19646747 -0.2255627 0.23232919 0.578109 -0.46874708 0.48296744 0.5464325 -0.26474077 0.11917579 0.06703426 -0.13671009 0.39405423 0.31009123 0.28202155 -0.21901865 0.29175746 -0.34282196 -0.2610587 -0.9108456 -0.03634938 0.4252962 0.38201544 0.19253697 0.22215246 0.5301506 0.020805117 -0.16497116 -0.22366619 0.23278302 -0.35095432 -0.16243125 -0.7256077 -0.5588386 -0.046704885 -0.014506299 -0.4574529 0.09319393 -0.2625044 -0.13456562 0.3163519 -0.03968713 0.47395372 0.39128608 -0.32352462 -0.019163417 0.12826855 -0.15410967 0.24651603 0.90267617 0.43507537 -0.35029176 -0.3060768 -0.12238965 -0.03187497 0.10056936 -0.4102767 -0.47939107 0.25321195 -0.45749503 0.21128911 -0.14265443 0.28850394 0.24209747 -0.1410379 0.18062294 0.13651781 0.13707393 -0.27438 -0.041164383 0.2379673 0.22448957 0.49351072
18957 0.09293529 0.29519552 0.38913748 -0.17463672 0.14738978 0.21489513 -0.28521007 0.34977844 0.6917047 0.27360925 -0.35345224 -0.18513756 -0.3797926 -0.010083285 -0.4778207 -0.5224517 -0.36170623 0.10148642 -0.64131826 0.28206804 -0.060423765 -0.03320993 -0.40088323 0.12975156 0.10989901 -0.60866904 0.08652778 -0.065738946 0.18142836 -0.2325088 -0.61970735 0.071343616 -0.17442365 0.29252324 0.37677065 -0.23307909 -0.15367211 0.18835835 0.20657377 0.3149463 0.032381922 0.29800808 -0.34780177 0.27898258 0.6518496 -0.1396486 0.23388897 -0.40599802 -0.13049203 -0.13341174 -0.35421392 -0.6236649 -0.24688542 -0.24489608 0.7722813 0.42974004 0.7711029 0.4361361 -0.034399394 -0.14331815 -0.12625018 0.015635818 -0.08301819 -0.1706183 -0.11558012 0.12875564 -0.4197117 0.16656369 -0.6384329 0.5353047 -0.36187157 0.004530958 -0.34457073 0.5628975 -0.098049596 -0.35367712 0.08490024 0.370919 -0.19235829 0.032867987 -0.12833194 -0.06811102 0.34390426 -0.16394085 0.05375911 0.26590645 -0.5042996 -1.0136195 0.06603303 0.29277092 0.25141028 -0.10779906 0.25468677 -0.19127804 -0.17604509 0.012022731 -0.199352 -0.30336225 -0.403715 -0.123746686 0.3880254 -0.5272912 -0.12583892 0.008454504 0.97621125 -0.17294098 -0.025103096 0.14322539 0.3337152 -0.15984574 -0.5350519 -0.040778916 -0.06532011 0.21320358 -0.05723773 -0.39815682 -0.19478998 0.21761467 0.29834843 0.48285708 0.38413003 -0.41339985 0.09344683 0.07457756 -0.28448623 0.1696096 0.45597202 0.008327562
17532 -0.86122197 0.38762555 0.038824383 -0.03194776 0.669025 0.009519072 -0.4489532 0.46725342 0.7671253 0.2556694 -0.6471224 0.059471037 -0.03770595 0.030298851 -0.21615288 -0.37064633 0.27111077 0.3564726 -0.047341257 0.10818638 0.655042 0.31038767 -0.43458822 -0.5041126 0.76541865 -0.37582043 -0.28441903 -0.61659753 0.34979224 0.64703023 -0.17186208 0.13700111 0.05568761 -0.044213872 0.31061375 -0.27611402 -0.22357738 -0.70857924 -0.402236 -0.12501238 -0.025794163 0.7565941 -0.5003789 -0.7057806 0.538757 0.47849044 -0.45416602 -0.68887424 -0.2831347 -0.75113 -0.28667304 0.034803674 -0.81348604 0.3064752 0.617531 0.3350779 0.18974897 0.1741605 0.2522368 -0.2890912 1.271091 -0.022948036 1.0742766 -0.30810866 0.5580431 0.8256415 -0.48044384 -0.094721265 -1.0455911 -0.2911607 0.8485585 0.42574188 -0.54294056 0.9902552 0.14963198 0.2449867 0.10968514 0.34933653 0.17163724 0.06832363 -0.15612046 -0.3545251 0.35593015 0.21266168 0.5901245 -0.042742714 0.21342424 -0.30590203 -0.47648084 -0.0084351245 0.10327238 -0.602151 0.9885873 -0.1272253 -0.3819862 -0.092315 0.06289655 0.017432168 -0.21305913 -0.2261615 -0.48515537 -0.06458411 1.0134717 0.24902226 0.63256735 -0.42556942 -0.54891825 -0.12734625 -0.11995538 0.17200357 1.0815585 -0.2822219 -0.9186603 -0.03296253 -0.07675959 -0.32474688 -0.36800063 0.15626372 -0.3908272 0.6075277 0.2838347 -0.05997658 0.0016370696 0.13847789 -0.23122743 0.38028812 0.063267656 0.4912237
5291 -0.57327276 0.59335023 0.11742888 -0.26803568 0.650865 0.1127553 -0.3430291 0.45614856 0.5474412 0.10541209 -1.0414872 -0.14737932 -0.076322265 -0.44105682 -0.16522707 -0.38771257 0.41532132 0.9668677 -0.42694846 -0.3148026 0.3191165 0.25960734 -0.24339594 -0.39390394 0.7148132 -0.3193205 -0.52092606 -0.38886133 0.47598955 0.12797174 -0.07240522 0.62560266 -0.3693626 0.14025103 0.53734034 -0.54474986 0.12306148 -0.469358 -0.45554742 0.07924211 -0.16267212 0.4172129 -0.26991266 -0.30979308 0.55069625 0.015670046 0.07464815 -0.56451136 -0.18337962 -0.12192626 -0.13733035 -0.0711942 -0.3955278 -0.14157052 0.41560096 0.290962 0.2014544 0.10204153 0.23902483 0.029439954 0.7639501 0.15667632 0.8110877 0.09339793 0.11348751 0.52535266 -0.33265606 0.43072566 -0.7191129 0.057049066 0.6811499 0.174638 -0.749459 1.0843501 0.12556526 0.3401419 -0.15939161 0.017374797 0.6476785 0.17303105 -0.101610966 -0.49443063 0.3987529 0.18929802 0.530215 -0.034612965 0.08266191 -0.33635268 -0.2545117 0.011617811 -0.035345104 -0.44015503 0.85543907 -0.052728046 -0.2613242 0.03685537 0.5050431 -0.19161434 -0.119886324 -0.1110944 -0.18169938 0.26074094 0.85467213 0.20211373 0.20042928 -0.26212075 -0.6618166 -0.31377444 0.20834355 -0.40817067 0.35662404 -0.31207457 -0.66621846 -0.13134648 -0.014156472 0.06037273 -0.55418974 0.34568638 -0.27642494 0.5825945 0.2966049 -0.008613325 -0.14612144 0.06723494 -0.6552532 0.1000644 -0.15341313 0.22410029
5111 -0.29233542 0.3792274 -0.16976024 -0.018282779 0.80794305 -0.7054714 0.3132121 0.14804284 0.8606712 0.46604186 -0.38399965 -0.034495085 -0.34874627 -0.45985016 0.38545015 -0.07372746 -1.3408078 -0.43087953 -0.06663866 0.67962456 -0.05089379 0.60572463 0.57091284 0.20697613 0.01802788 0.36679378 0.27570713 0.3996204 0.49919856 -0.030241556 0.35146087 0.7485 -0.6538095 0.074748345 0.2302255 -0.7219503 -0.3409505 0.35999367 -0.0055071753 -0.20773312 0.9146511 1.0151763 -0.31398153 -0.016349273 0.14767355 -0.1669702 -0.9611716 -0.5438966 0.026935024 -0.162629 0.6725252 0.23617253 -1.2199752 0.48357674 0.5005888 -0.3628845 0.8693011 -0.124848396 0.45075175 0.5830941 -0.102855265 0.6624905 0.078187205 0.5401357 -0.31269336 -0.4278605 -0.67428 -0.033659633 -0.0777895 0.5874912 -0.11475788 0.19156508 -0.41103384 0.30197576 0.8372519 0.114686154 0.037517324 -0.72342384 0.0135513125 0.3430744 0.009543845 0.41073126 0.49019533 0.17438583 0.37397397 -0.27615708 0.10922296 -0.59169585 -0.13720201 -0.36792752 0.5892267 0.3568089 0.17153978 -0.6919903 0.104421996 0.32638973 -0.47375584 0.065488786 -0.16682798 0.04852836 -0.062319636 0.28369346 -0.11052224 0.20264801 0.68612695 0.16289799 0.008606475 -0.43155152 0.13078746 0.39263222 0.6291771 -0.03896417 -1.0231069 -0.012191033 -0.015990427 -0.4358036 -0.6835277 0.29869694 0.0015585208 0.45515254 0.23357037 0.52234405 -0.46468467 0.043398615 0.31416035 -0.06759917 -0.22047159 0.25877708
6841 -0.61729825 -0.15790541 0.23322272 -0.4480638 0.7079232 1.2936238 -1.1239096 -1.4461612 0.46649784 -0.29266265 -0.8480244 -0.039308626 -0.8428597 -1.0787008 0.1451006 -0.1616683 -2.0477195 -0.22475804 -1.5968208 -1.0572777 -0.14192167 -0.48415017 0.4044552 -0.70981705 1.1915644 0.6528645 -0.24047346 -0.011322825 -1.7179158 -0.22342992 -1.0614146 1.424163 -0.66576153 -0.34521344 -0.7355621 -0.09465157 -0.26808324 -1.4859899 -0.5594014 -0.8346712 0.27770165 -0.5890974 -0.10592947 -0.56942606 0.4033009 0.3598603 -0.7637462 -1.3494899 -0.7279354 0.8329258 0.09674247 0.18199334 -0.80764526 0.30433676 0.91712373 0.7822878 -0.5893347 -0.19353423 -0.06746862 0.87311506 -0.42255047 -0.37584296 0.24780121 -0.263884 -0.6511503 1.7395536 -0.70794076 0.4473523 0.14558442 0.24042834 0.80418944 -0.4712386 0.2892543 -1.2086558 -0.33954576 0.010301514 0.2824744 0.6315853 -0.38158187 0.62393796 0.680963 0.2087648 1.0936673 0.33970293 0.60571563 0.536406 -0.61729676 -1.5210111 -0.6415631 -0.50526106 -0.48025814 0.19522831 0.566724 -0.109725334 -0.10374879 -0.21752758 0.25123593 -0.6235737 -1.2603838 -0.6188003 -1.4840456 0.2679779 -0.02369384 0.20235682 0.57600313 0.64313805 0.34517848 0.19312978 -0.037828986 0.8658958 0.1955944 0.43387803 0.92301077 0.6995947 -0.84545434 0.12756754 -0.7599554 -0.29836354 0.6225085 -0.295886 0.927428 0.53159314 -0.5256429 0.5148168 -0.56441575 0.9199212 -0.858241 -1.0063195
14277 -0.08633237 0.26400828 0.76379484 0.29879332 0.17178792 0.79282033 -0.022125702 -0.22216384 -0.36878902 -0.518718 -0.5216559 0.70984703 -0.34834898 0.12887047 0.76217425 0.36390048 -0.07005596 0.5644249 -0.51453924 0.10764769 0.4912409 0.11747368 0.3157482 -0.20651989 0.09354256 0.11871135 0.65891695 0.103609234 -0.49335548 0.26401854 -0.33197546 0.5482008 -0.3654781 -0.2446646 -0.028137328 0.03487698 0.24385308 -0.09768998 -0.4471527 0.41382816 -6.2504434e-05 0.03087416 0.024056375 0.06294177 -0.37966335 0.38182363 0.08691249 -0.70294476 -0.52847314 0.013714273 -0.31597686 -0.13090886 -0.5174517 -0.052035682 0.16552193 0.26722157 0.034035582 0.15740252 0.10177252 0.35767433 0.23775716 0.201818 0.14024438 -0.31617582 0.07107379 -0.295036 -0.6885826 -0.41013652 -0.28090224 0.6973282 -0.09919582 -0.36792722 0.3057428 -0.13735461 -0.2456061 -0.3498658 -0.116700396 -0.30642653 0.36769232 0.076246805 -0.004974447 -0.27884585 0.4822857 0.58126754 0.20427679 -0.1632796 -0.3225027 0.29737228 0.55143493 -0.182884 -0.5326462 -0.48630035 0.052080806 -0.19722167 0.0040569524 0.42271972 -0.4586875 -0.24602373 0.23917821 -0.22452842 -0.47187743 0.18323141 0.28690103 0.4346245 0.5561328 -0.33456066 0.24579607 0.4765799 0.29625902 0.49404854 0.17098628 0.5611362 -0.06394955 0.13330032 -0.40734246 -0.08250102 0.4364348 -0.022412304 0.148211 0.43521285 0.27377626 0.54543895 -0.2999584 0.05380486 -0.007704012 0.23888654 0.38878664 0.31910333
13382 0.1373715 0.028567731 0.1957195 -0.09223804 -0.0011424716 -0.053563837 0.15365142 0.79342073 -0.2752649 0.62433213 0.03544357 0.52971256 -0.020390343 0.064151846 -0.56392926 -0.03020085 -0.30586904 -0.3709052 -0.35919696 -0.45191577 0.028165903 0.06491012 -0.35103193 0.30052897 0.26350513 0.35240242 -0.30852088 -0.2982971 0.07166049 0.4553227 -0.59969413 0.73500973 0.5141393 -0.25487262 0.45641547 -0.4608871 0.35623583 -0.68541056 -0.1535152 -0.016873745 0.50941044 0.54346424 0.18598847 0.3167192 -0.75632066 0.79828244 -0.25167894 -0.7357378 0.21631746 -0.67905265 -0.93802965 0.16776821 -0.6294985 0.43595988 0.2838286 0.16347761 1.0574687 -0.5688548 0.011130658 -0.06036193 -0.07225829 -0.07202188 0.7899291 -0.40854332 0.40647826 0.00048867194 0.32741332 0.6541812 -0.004296737 0.5818923 0.40205964 0.37389028 -0.3595687 0.75440717 0.270888 0.23587759 -0.0713153 -0.30785975 0.16441545 -0.04246368 0.13577555 0.51504236 -0.3995268 -0.8857751 0.1842736 -0.10798681 -0.7556499 -0.5395294 0.16124329 0.09519966 0.4012807 -0.37353817 -0.3343205 -0.18078318 0.38323286 0.14874561 0.42556635 -0.7203069 -0.18426338 -0.5834346 -0.16479267 -0.04203654 -0.11885133 -0.32235864 0.74898994 -0.10522264 -0.67099947 -0.138854 0.07908 0.0033726871 -0.2449149 0.6483119 -0.6974968 0.20152056 -0.17625736 -0.86236745 -0.68822914 0.3512022 0.114753075 0.21965657 0.85788846 -0.29815245 0.12653531 -0.5702725 -0.3376022 0.18454652 0.26876903 0.10153181
1016 -0.02108714 0.25515103 0.29465023 0.31096396 0.44744378 -0.41225925 0.28675544 0.58984965 0.1416335 0.40196833 -0.69790447 0.4466249 0.20122075 0.2156352 -0.4362293 -0.3153314 -0.2904422 -0.42467114 -0.2947352 -0.059355743 0.2557931 -0.1448613 0.63002396 0.039503448 0.18375586 -0.028389823 -0.3995473 -0.6645265 -0.22985534 -0.03380708 -0.35810333 0.13413857 1.1368895 -0.27465087 0.41309586 -0.29656345 -0.1481837 -0.23112178 0.057712 -0.211427 0.058291283 0.43774703 0.0923536 -0.103856556 0.18378739 -0.23313749 -0.7267161 0.003427664 -0.547612 0.2702533 -0.18729462 -0.24651165 -0.14265952 -0.5993135 0.31584007 0.31328174 0.34890053 0.7310553 -0.2547294 0.36513928 0.27344367 -0.3655769 0.3122397 -0.40935588 0.3307811 0.09032365 -0.4746997 0.44742578 0.26539364 0.18997894 -0.503847 0.06176814 -0.32263535 0.7038495 -0.018888934 -0.34031683 0.115588956 0.16788012 0.5618769 0.016547062 0.274483 -0.036384407 -0.12545227 0.09840368 -0.07232031 0.11030985 -0.15816228 -0.1277105 -0.31447193 0.5650273 0.38918263 -0.36638665 0.23098323 -0.33831432 0.24426784 -0.46822515 -0.07411091 0.10242039 -0.034421388 -0.19036353 0.06324988 -0.0785716 0.41062152 -0.1334832 0.4770025 0.16665041 -0.29933417 0.61675096 0.014491123 -0.5388835 -0.10388318 0.50077033 -0.45846722 0.0972889 0.42960137 0.454452 -0.49298367 -0.049918752 -0.2577021 -0.31064934 0.19164382 0.10758485 0.19024503 -0.27093443 -0.08922951 0.16713871 -0.118922256 0.22732837
25296 0.32263383 0.2196899 -0.042790946 -0.45765865 1.1209416 -0.272454 -0.37106025 0.13070592 0.51659495 0.6479963 0.23765697 -0.06709653 -0.5266687 0.6249975 -0.0021094528 -0.29858527 -0.046608858 0.18233776 -0.50080407 -0.39153802 -0.120387934 -0.6802201 0.56167376 0.64583266 -0.39637738 -0.29296708 -0.08504305 0.1102531 -0.14267635 0.25186697 -0.4278016 0.9087441 0.29076198 -1.0586016 -0.59290063 0.30749494 0.68183994 -0.26645315 -0.2660285 -0.75171876 0.4650367 0.8043617 0.53124064 -0.6795453 0.6040119 0.19168377 -0.4016299 -0.030202713 -0.8578205 -0.19257031 -0.31937551 -0.6362332 0.31600615 0.26231173 0.43507206 0.10332346 0.46168885 0.14213714 0.11201826 0.49204364 0.18100135 0.51450986 -0.097480364 -0.16877656 0.08227897 -0.38795388 -0.24894434 0.1768166 0.20752554 0.63631 0.10525846 0.36671984 -0.48247817 0.059793808 -0.20378743 -0.8175765 0.24125464 0.7897446 0.4189845 0.43350163 0.19113034 -0.486862 -0.051083975 -0.74353707 0.01048733 -0.3358391 -0.27231067 -0.25074446 -0.6384181 -0.5714474 0.16470006 -0.5918716 0.29998377 0.2771679 0.17535129 0.073905945 0.043375246 -0.4422576 0.20692421 0.04155678 -0.53358597 0.13215582 -0.29287612 0.10449632 0.54686725 -0.164333 0.25438315 0.027539276 0.16017722 -0.4512074 0.3916137 0.28035945 0.29576528 -0.30197468 -0.26523075 0.11593558 0.48712695 0.37633038 0.074333645 -0.3078524 0.44654882 0.06356129 0.051317118 -0.20606253 -0.11968683 0.6991307 0.06712311 0.11424401
2289 -0.15370163 0.26645046 0.716087 0.34045127 0.34693268 0.85183865 0.20401685 0.09267635 -0.11916295 -0.22003388 -0.4658057 0.57333875 -0.26096785 -0.2585035 0.5517048 0.19961318 -0.071640685 0.44940603 -0.88600576 -0.25759777 0.29734647 -0.086546086 0.38773817 -0.28472036 0.117940284 0.25492877 0.28428844 0.025311837 -0.620553 0.1563062 -0.30109644 0.4649147 0.21160875 0.007690031 0.13175921 0.23437214 0.36341563 -0.089678265 -0.5033143 0.3998414 -0.0716435 -0.24030434 -0.24210535 -0.17509545 -0.46767116 0.38894793 0.12874654 -0.6054291 -0.41590595 0.027630296 -0.48237526 -0.31220886 -0.37701118 -0.17398772 0.21380441 0.08857965 0.1706003 0.0087984055 0.15551083 0.1494832 0.026382305 0.061208554 -0.10392593 -0.23043433 -0.06404164 -0.43762767 -0.6033066 -0.03289913 -0.021095708 0.61277485 0.02649473 -0.3890609 -0.11708644 -0.46960285 -0.5720068 0.049237702 -0.24888057 -0.20526059 0.29017818 0.011979444 0.048435304 -0.10478566 0.5272474 0.19576336 0.5004915 0.19804192 -0.2585592 0.44378003 0.57058066 -0.17107017 -0.5240251 -0.2861779 0.13523293 -0.33987188 0.040355608 0.27942517 -0.22752385 -0.26916057 0.22991227 -0.37757298 -0.7905401 0.12141297 0.3225095 0.140083 0.5090214 -0.4518439 0.01278611 0.4150488 0.17300272 0.1838595 0.42243373 0.21778195 -0.3774657 -0.0150701115 -0.40817124 0.24065097 0.3579617 0.2113622 0.40846086 -0.096969664 -0.0057432307 0.6370313 -0.097952396 0.080826655 -0.44629505 0.22789794 0.566524 0.2990557
2911 0.123615466 0.14509119 0.4663483 -0.41760468 -0.07666267 0.21161352 -0.25356296 -0.03691828 0.1622171 0.05069233 -0.16193509 -0.4230175 -0.38664195 -0.42270416 -0.10567906 0.023844097 -0.073984124 -0.18412763 -0.22252819 0.0063983495 0.71990603 0.37686473 -0.062309522 0.26884106 0.341454 -0.39629737 0.045034975 -0.427456 0.0007345244 -0.094586805 -0.029544184 0.39301112 -0.012006907 0.22613762 0.0068297335 0.22461858 -0.35477754 -0.03734911 0.24141815 0.4411668 -0.0886065 0.114516854 0.034288608 0.18031211 0.38916373 -0.045138095 0.31229952 -0.50808 -0.33885655 0.3731582 -0.33361554 -0.6370032 -0.39192447 -0.30247435 0.24259111 0.15089802 0.5989616 0.16763327 0.03757013 -0.32624683 -0.021273391 0.08169412 0.24040776 -0.51062703 -0.24373308 0.18727732 -0.14909317 0.09916526 -0.3925074 -0.09552381 0.088479 0.20234413 -0.5141602 0.77115846 0.25316438 -0.37005416 0.0999534 0.44000208 -0.0040898644 0.20566137 0.07357781 -0.24693564 0.19720928 -0.18097901 0.1732965 0.25990498 -0.16918455 -0.6646408 -0.24536254 -0.13698108 0.47047496 -0.2179447 0.26848796 -0.4667071 0.12875327 -0.059531953 -0.237942 -0.33665046 -0.041067954 -0.28008425 -0.12786475 -0.44576868 0.08541688 -0.28607386 0.5203239 -0.04851106 -0.15433134 -0.19409086 -0.05452842 -0.08565702 0.18546611 -0.2687237 -0.20902261 0.2638739 -0.08667871 0.0540251 -0.69790494 -0.075109676 0.12150878 0.41434383 0.37075105 0.076691166 0.5479824 -0.288187 -0.20708643 0.106678315 0.1794324 -0.022328978
11255 -0.6528598 -0.14562663 0.25191426 -0.4992416 0.7250565 1.2656462 -1.1166096 -1.4668055 0.4676877 -0.37141675 -0.8642207 -0.03368723 -0.88273937 -1.2036924 0.13870618 -0.19172272 -2.168282 -0.19738731 -1.6393514 -1.1449158 -0.14231436 -0.5681931 0.45271435 -0.7462478 1.2666954 0.7418861 -0.27765256 -0.0337993 -1.7394631 -0.21622816 -1.1661947 1.4479814 -0.65912217 -0.31267133 -0.7013475 -0.16925412 -0.34700897 -1.5212312 -0.57734764 -0.8197193 0.23472859 -0.6088317 -0.15513851 -0.6450439 0.35887465 0.37479234 -0.7801733 -1.3858783 -0.7213441 0.78941256 0.14733595 0.21017238 -0.79014677 0.22946157 0.93665874 0.8287704 -0.40031108 -0.24355806 -0.048575174 0.85710776 -0.307492 -0.2583817 0.3091515 -0.19361891 -0.7208808 1.8212448 -0.65998447 0.5206681 0.28926063 0.28399047 0.82961136 -0.46018603 0.29034162 -1.3327901 -0.37455666 0.017558526 0.30151233 0.6643531 -0.44915646 0.52137357 0.7555064 0.110817485 1.1728383 0.27742323 0.6500119 0.6333934 -0.594507 -1.6048299 -0.59005135 -0.4982649 -0.571821 0.26633957 0.57548827 -0.1548919 -0.018128403 -0.17484266 0.2610668 -0.69432837 -1.1900353 -0.65039325 -1.5807302 0.2921875 0.006503637 0.12467018 0.5320705 0.6335055 0.38843912 0.15690723 -0.106286325 0.93584526 0.14040133 0.44229406 0.94983053 0.67581487 -0.8753995 0.12831749 -0.78069454 -0.24530348 0.7121912 -0.33917266 0.94176203 0.596522 -0.47140652 0.5312161 -0.62301 0.9402571 -0.8567394 -1.0611657
3259 -0.76198536 -0.5203822 0.44563985 -0.9445786 0.34173152 0.42608806 -0.7795175 0.18160532 0.39176977 -0.15352672 -0.28248122 0.14186151 -0.36186963 -0.11458944 0.61664057 0.21092862 -0.4992031 -0.34488615 -0.6272388 -0.17851654 0.32382 -0.64376396 0.15887044 0.4301775 0.5859739 1.0192285 -0.23600027 -1.0633683 -0.18096752 -0.14256339 -0.4033801 0.9049217 0.19708057 0.2955249 -0.31047165 -0.048219137 0.5040646 -0.26944095 -0.013296028 0.12176279 0.215907 0.4087859 -0.054129954 0.34969532 -0.14657357 -0.18375897 -0.8925463 -0.32216826 0.11636724 0.16966291 0.31346568 -0.060377385 -0.26360565 0.20864293 0.09100577 0.8306894 0.24695793 0.53767866 0.14821672 0.25380895 0.24641593 0.037522975 0.09465458 -0.18305969 0.48456147 0.3538581 -0.101401076 0.0638527 0.4031994 -0.1517928 0.058733996 -0.004817635 0.46215233 0.14676833 0.09846709 0.06333069 -0.103237525 -0.14143193 0.121282384 -0.17657597 0.9503963 -0.08103764 0.43320096 -0.49918705 0.43760008 0.49461436 -0.6743922 -0.42200434 -0.23213986 0.16090211 0.005013176 -0.7323804 0.25012234 0.4237377 -0.11266122 -0.6850418 0.09567921 -0.37765154 -0.4506261 0.573073 -0.5967067 -0.209372 -0.17087781 0.37324685 0.26494843 0.34767833 0.7477979 -0.16109015 0.6140656 0.055522606 0.22430266 -0.011871197 0.24846067 -0.2878524 -0.27331966 0.2665027 0.15537082 -0.51532215 -0.08470983 -0.44936082 -0.20072761 0.192216 0.047532693 0.3516472 -0.6484616 0.24342932 -0.3494973 0.019773828
22563 -0.10714522 1.0530995 0.26201844 -0.20757927 0.50113374 0.115857795 -0.7669389 -0.074211486 0.09233807 -0.33788124 -0.19066194 0.011978542 -0.33185294 -0.34653413 0.02665057 0.2521382 -1.0770898 0.8835408 -0.88380635 -0.12215519 -0.16346619 -0.29611534 0.17505167 0.41913182 0.53774583 0.34060848 0.4649239 -0.08773049 -0.00026975773 -0.08306111 -0.75311893 0.8196706 0.28457478 0.3958692 -0.06902672 0.1381223 0.120476685 -0.25324214 0.39019522 0.1632128 0.43940547 0.217812 0.6586137 -0.6188338 -0.19773568 0.68087286 -0.08643405 -0.21805246 0.047030307 0.42543197 -0.28790423 -0.023802506 -0.07571923 -0.08580775 0.10627369 -0.42370307 -0.23698807 0.46603525 -0.44625154 -0.3205733 -0.8994253 0.2825608 -0.21316269 -0.24961141 0.8591225 0.4705644 -0.23967765 0.6170597 0.7706088 -0.045580715 -0.19605358 0.26233354 0.0010565452 0.36287087 0.05406679 -0.6957431 -0.6510575 -0.078764394 0.08415319 0.31420475 -0.41508713 -0.2396246 -0.09878971 0.486273 -0.73449504 0.057132628 -0.64196783 0.18484572 -0.24000183 -0.2868198 0.03536778 0.016762316 -0.28252918 -0.36598048 -0.32007378 -0.7596552 0.15903144 0.34739223 -0.7013091 -0.9813418 -0.3451723 0.43747678 -0.32083824 0.62104756 0.34404975 0.67228943 0.29315215 0.18495655 0.12739381 1.6276842 -0.143088 -0.07338371 0.6231739 -0.052179534 -0.3244232 -0.504393 -0.16561617 -0.5279665 0.10703708 -0.42803526 0.40422437 0.2655972 0.14220059 0.178532 -0.2971176 0.2254455 0.72556365 0.3940411
6151 -0.026931614 0.5676903 0.13129847 0.23283611 0.5608629 0.1274455 -0.47376025 -0.118802525 0.48311648 -0.73042464 -0.23636691 -0.012441928 -0.93125105 -0.5316202 -0.10128531 -0.31838095 -0.4380048 -0.2100658 -0.39803427 -0.32165995 -0.08123094 -0.20693836 -0.475807 0.15411296 0.29707202 0.8372901 -0.42322668 -0.01226011 0.20887586 0.23917156 -0.7466837 0.5506888 0.2889749 -0.45267594 0.33661655 -0.18733627 -0.04801791 0.14038889 -0.3753143 -0.27901873 0.189908 0.45097938 0.6843865 -0.12693647 -0.052285846 0.34252205 0.20891182 -0.38797796 -0.22800928 -0.43072987 0.2627367 -0.44023782 0.1323906 0.17849194 0.30355787 0.6165988 0.1799175 0.44634545 0.7159276 0.4591821 0.6261848 -0.06551077 -0.35179314 -0.14620253 0.48318422 -0.37113556 -0.13086495 0.3443234 -0.07423371 0.5557702 -0.14843488 -0.1780403 -0.115667105 -0.4666779 0.15431309 -0.00038003517 0.09203949 0.13751368 -0.11293249 0.5163761 0.027843466 -0.13301146 -0.06934522 0.072882265 0.23347294 0.023253022 -0.4315096 0.2877881 0.050112125 -0.026754005 0.001379483 -0.6027578 -0.4879776 -0.6257354 -0.56786156 -0.57843184 0.15729286 0.1083967 -0.8266525 -0.3170667 -0.5639957 -0.07646337 0.09118629 0.29649875 0.0581337 -0.4169888 0.05748478 0.014791081 -0.67228836 0.84982574 0.7791904 0.3594584 0.32875213 -0.47288042 0.1975011 -0.32770032 -0.42892745 0.09063871 -0.06449206 -0.3152183 -0.06345723 0.23080395 -0.05414909 0.2288255 -0.010081959 -0.05482474 -0.29237625 -0.087855786
