2182 128
452 -0.022945084 0.33691174 0.34958953 0.26043558 -0.0706071 0.39488187 -0.66496766 -0.055650275 -0.093463235 -0.30537406 -0.013932773 -0.032027062 0.49219754 -0.24607849 0.37096593 0.49086776 0.012482376 -0.27126053 -0.13006303 -0.3735987 -0.040005226 -0.40921953 0.16385105 -0.31355885 0.5779266 0.24949251 0.22710508 0.32133117 0.46591032 -0.19665878 -0.3167004 -0.088981636 0.6352675 0.29306918 -0.123150036 -0.44370514 -0.07304625 0.5608367 -0.26274437 -0.1418008 0.51316077 0.021255376 -0.4342811 0.3497502 -0.16825274 0.16574457 0.15330681 0.6957836 -0.34773967 -0.35219723 0.32868272 0.37710792 0.23981594 0.13464133 0.8965981 0.22165449 -0.15232524 0.3177928 -0.32602355 -0.59865314 0.096163884 0.18935895 -0.5461738 -0.7873009 -0.3335092 -0.094718665 -0.0005639074 0.34555885 0.033412904 -0.6076323 -0.18739194 0.16783571 -0.33071154 -0.34309962 -0.26139244 0.14217064 0.42521796 -0.24466696 0.27302796 -0.66506773 0.013129743 0.01842188 -0.15447779 0.110794865 -0.14753833 0.21892254 0.3769463 -0.78270423 0.17397971 0.134764 0.8311452 0.16879642 -0.20067328 -0.0023366692 0.21295144 -0.21520257 0.22958128 -0.00061140634 0.28007412 -0.29879704 0.17804316 -0.99676204 0.06131479 0.19044577 0.06250141 -0.101479225 -0.10681879 -0.060550977 -0.40251482 0.106502555 -0.41926292 -0.6202105 -0.042840395 0.08330059 -0.35072777 0.013921228 0.15616897 -0.026286833 0.5497604 0.2623142 -0.4322872 -0.19828577 0.56882393 -0.10901937 0.995626 0.082100324 0.31482375 0.11285977
2462 -0.4678284 0.63445574 0.08515285 -0.17243972 0.26651764 0.261951 0.2933397 0.02722926 0.15054679 -0.1576977 0.23136121 -0.4631301 0.38510054 -0.31651577 0.0409412 -0.09930676 0.07739042 -0.38690534 0.18863986 -0.75086117 -0.008930233 -0.31717753 0.49508822 0.23676796 0.15181127 -0.27808458 -0.3836931 0.325933 -0.11836402 0.0084764175 -0.053632647 0.19140315 0.33304387 0.61152613 -0.41363886 -0.34768367 -0.18932824 -0.004604369 -0.43641663 -0.28249413 0.25208068 0.06381909 -0.11218635 0.35999817 -0.102270424 -0.015359642 -0.1936748 0.050129876 -0.38333336 -0.120400034 -0.40035543 -0.3513583 -0.46675888 -0.12397721 0.3311095 -0.092911534 0.54461163 -0.08551978 0.18789181 0.30314147 0.55362135 0.19569404 -0.33094537 -0.7034797 0.16803339 0.24094859 0.06320332 0.25426242 0.4423431 -0.7090592 0.6155863 -0.13774733 -0.35397407 -0.026681896 0.34640625 -0.022444343 -0.0042793765 -0.5391032 0.2599171 -0.1602167 -0.07809057 -0.15610659 -0.13789272 0.23591043 -0.14087386 -0.092255525 0.24834423 -0.1403922 -0.26593745 0.35122827 0.36947942 -0.100504965 -0.11480732 0.14236893 0.20058621 -0.18357691 -0.21522962 0.4500929 -0.42197773 -0.3850533 -0.2687572 -0.4311513 -0.20088524 -0.41386825 -0.059411567 0.19056556 0.15640494 -0.7025269 -0.07505816 0.48800546 0.06379979 -0.27481303 0.04983455 -0.101596594 -0.3814075 -0.25392872 -0.22638394 0.16345823 -0.07396754 0.50616914 -0.3265618 0.5468691 0.11533807 0.29340547 -0.020367404 0.14201753 0.02477787 -0.02530688
35 -0.19873086 0.047912918 -0.27191177 -3.479641e-05 -0.59618354 -0.112520926 0.39118734 0.05462334 -0.2879686 -0.106113635 0.9989187 0.22274108 -0.13861203 0.6339634 0.1445893 0.22318321 -0.031974092 -0.27167317 0.22469811 -0.1692884 -0.46358725 0.24169122 0.5439928 -0.66004527 -0.44909662 -0.23650385 0.6201584 0.0150056705 -0.51865727 -0.47507605 -0.3471711 0.51919234 0.45298415 -0.12594071 -0.37521145 0.4857403 0.13577569 -0.24859521 0.8263917 -0.16361007 0.68234634 0.48247877 0.35437718 0.8696814 0.2127394 -0.14383538 -0.78929585 -0.19766708 -0.60524946 -0.19864354 -0.1060892 0.008486774 -0.07489912 -0.23171924 -0.093570836 0.08413896 -0.21693747 -0.48989284 -0.109594434 0.42107597 0.37473541 0.109254815 -0.71226513 -0.4964944 0.26557764 0.3523088 -0.34389102 0.16685343 0.34769014 -0.15226926 -0.09087436 -0.014258225 0.295847 -0.07791637 -0.3585778 0.89501196 0.040039543 -0.59628016 0.08801481 -0.2723777 0.5538251 -0.19319825 0.2574178 0.6365226 -0.9016887 0.05726164 -0.13610542 -0.55736446 0.75760674 -0.22351588 -0.20774141 0.048496507 0.73820233 0.33584443 0.10835768 -0.42234242 -0.20422773 -0.04721448 0.66072416 -0.65124196 0.01423895 -0.5705894 0.3152546 -0.3206852 -0.0215339 -0.3006801 0.12958339 -0.11875826 -0.10336261 -0.08371394 0.106003605 0.25269663 0.03372219 -0.21835057 0.6908327 0.17383838 -0.17287979 0.17608368 0.21065034 0.47546148 0.18818222 0.037657164 -0.51063365 -0.62392247 -0.5811854 -0.34969208 -0.5262392 0.6828404
724 -0.0758123 -0.13439281 0.2959401 -0.008592803 -0.06387946 0.045596547 -0.2078769 0.2933476 0.17564447 0.12218353 0.13202034 0.15141606 0.20386702 -0.019991858 0.38519606 0.59741634 0.26862055 -0.37901938 0.3992104 -0.15324013 0.10168287 -0.6451086 0.2636179 0.1511874 0.10426069 -0.40229082 -0.061201837 0.23270828 0.07583449 0.15460274 -0.42608792 0.21797363 -0.16852617 0.39503118 -0.099247344 -0.15958966 -0.191903 -0.18507786 -0.29804975 -0.23159914 -0.05867518 -0.15861513 0.013861781 0.32005784 -0.5675987 -0.013369611 0.15029058 -0.48396116 -0.578042 0.5809918 0.26376116 0.36021298 -0.3254725 0.0789924 0.22024089 0.031420656 0.12507814 0.076080374 0.13380489 0.006108655 0.5474824 -0.029491883 -0.11445789 0.01989156 0.083866574 0.34936768 0.33148694 0.017308215 0.18341728 -0.32546407 0.28935635 0.13394351 -0.044230364 0.123001374 0.1103921 0.36573315 -0.31962854 0.100127466 0.20834008 -0.43459228 0.3835168 0.103347324 0.47506946 0.5349865 -0.40089786 -0.17641363 0.12736215 -0.06692161 0.08745544 0.13418186 0.010882259 -0.039258838 0.023864074 0.022756089 0.014695243 -0.35600978 0.0059725414 0.014333883 -0.0789737 -0.14627714 0.061318513 -0.08321138 -0.2524993 -0.19540991 0.2084839 0.29484296 0.13611758 -0.39140964 0.17045869 0.3406629 -0.12987874 -0.17431225 0.024179038 -0.7224723 -0.09873482 0.10855745 0.2480001 -0.080726214 -0.59866005 -0.042019617 -0.039725084 0.31298602 0.18258017 0.0025654116 -0.36877662 0.41363624 0.33759728 0.1403319
2 -0.3292807 0.061566915 -0.68441063 0.20712791 -0.12332478 -0.32498312 0.09004432 0.009300695 -0.07436474 0.5958827 -0.26933363 0.53714967 -0.41774452 0.14185506 1.2064337 -0.12925687 0.9305719 -0.93244326 0.08463443 0.30521095 0.004608774 0.07759256 0.29676592 -0.16879955 -0.15061043 -0.06845453 -0.18053369 0.09831625 -0.32479766 0.1234873 -0.29463226 0.293494 0.043582067 0.20465222 0.05165472 0.18658388 0.28803155 0.3999709 0.34341168 -0.78627014 0.3344653 -0.21167912 0.4022532 0.30483162 0.19698396 -0.47697183 -0.560183 0.4176288 -0.2116398 0.4178066 0.25652114 0.22917469 0.42619336 -0.39256465 0.24010228 -0.21762583 -0.4581275 0.20154671 -0.11349624 0.23312038 -0.4237586 -0.35738158 -0.23115651 0.014987109 -0.64195555 0.17973645 -0.14515589 -0.58366024 0.28920117 -0.22481257 0.14195205 0.39322206 0.4099613 0.872688 0.14452088 0.78719074 0.3613969 -0.069953255 0.16313721 0.15083726 -0.61100346 0.18756554 -0.12181385 0.09947905 0.047615238 0.19009113 -0.68613434 -0.6588705 -0.288292 0.54067373 -0.38246995 -0.020827921 -0.24504645 0.51562494 -0.36747393 0.42021996 0.5097646 0.009239943 0.3888536 -0.71213245 0.2542945 0.028070886 0.075266205 -0.5209886 -0.9569535 -0.33363017 -0.18166713 -0.26999882 0.08977394 -0.056064025 -0.42157027 0.23971842 0.94881326 -0.29245192 -0.18849316 -0.17941149 0.22044982 0.089935414 -0.038217533 -0.3687331 -0.34138212 0.5184017 0.15890154 -0.34735873 0.27412093 0.12287765 0.07491124 -0.36194095
5731 -0.48369598 0.61783713 0.07465195 0.30754098 0.21269907 0.08198204 0.36267442 -0.13052113 0.20989357 -0.15278707 0.6211608 -0.19937894 0.72524446 -0.2223363 0.115332656 -0.14589907 0.186499 -0.16349322 0.42097387 -0.89067554 -0.26741475 -0.5811019 0.38936028 0.25553855 0.19166794 -0.2183177 -0.30796665 0.39434305 0.04409985 -0.1876655 -0.24730964 0.09504296 0.32880253 0.5001422 -0.4222167 -0.34253332 -0.27911755 -0.14581272 -0.56508374 -0.13264416 0.51045346 -0.014604434 0.019147936 0.47444966 0.09660242 -0.0571399 0.13940777 -0.069657 -0.27287826 -0.13469893 -0.21885572 -0.485901 -0.4559615 -0.049202736 0.2851629 -0.1496305 0.18618548 -0.19879772 -0.01909432 0.3998377 0.7469837 0.27928242 -0.32681963 -0.60606587 0.05817091 0.22496106 0.071712 0.59805214 0.1264277 -0.7155388 0.7749994 0.012009201 -0.30575043 -0.09800128 0.2684811 -0.09346189 0.3719988 -0.7190285 0.107942976 -0.1997257 0.057315875 -0.08530489 -0.07823569 0.10570263 0.10555175 0.16291569 0.37793067 -0.46323353 -0.3642234 0.16239566 0.3797777 -0.045871455 -0.37830094 -0.009099658 0.13544689 -0.3582437 -0.09818201 0.3515488 -0.47837257 -0.59069335 -0.25184608 -0.50193644 -0.3370397 -0.38424626 -0.06916507 0.16467687 -0.0684621 -0.5854914 -0.15868531 0.41765663 -0.07846017 0.04510364 0.2665956 -0.3875002 -0.399735 -0.3381441 -0.25687414 0.3957931 -0.17696299 0.18735155 -0.20369586 0.4014393 0.14135164 0.44209856 -0.029037926 0.13716713 -0.11140194 0.054142978
1465 -0.6233705 0.1698209 -0.14707884 0.22431289 -0.14536643 0.020474155 0.33364207 0.0149083175 -0.1798618 0.24866499 0.41319108 0.33798787 0.038651567 0.053200785 0.24595392 -0.124875486 0.22180945 0.06169252 0.23386948 0.240235 -0.38975886 0.39792934 0.14159271 0.09754358 -0.33518466 -0.027579715 0.36610085 -0.11322654 -0.2982397 -0.07267183 0.08746115 0.07031471 -0.5843521 -0.3465312 -0.46653062 -0.027199836 0.37252197 0.33825007 -0.07792104 0.11087189 0.045622393 -0.29450452 0.3460253 0.08625377 -0.5025979 0.18952821 -0.20173818 0.16110012 -0.28149337 0.22140355 0.49959227 -0.7769041 -0.09517717 -0.37885848 0.47383928 -0.057843883 -0.059173603 0.051785417 -0.4311457 -0.518123 0.05250804 -0.1909296 -0.4031714 -0.71394193 0.010601173 0.21934158 -0.1129011 -0.36052248 0.60578126 0.22489822 0.13667154 0.1784136 0.48099875 0.6244571 -0.3172536 0.33629695 0.5650025 -0.28886336 0.09073543 -0.1433717 -0.16514292 0.279367 0.41052437 0.23836102 -0.04409386 0.0650064 -0.30591476 0.0062219263 0.49392867 0.14799681 -0.31100565 0.0909625 -0.0796577 -0.08587771 -0.5933427 -0.38697866 -0.03571055 0.96584064 0.5307171 -0.10688079 -0.17008598 -0.4838158 0.29980934 -0.064401194 -0.24369012 -0.68249184 -0.29925475 -0.42338386 0.020138206 0.14561589 -0.59074926 0.00029507972 0.013324352 -0.19762184 -0.50007963 -0.009139994 -0.112868935 -0.64898825 0.1898132 -0.14890538 -0.19624914 0.17747582 0.2930276 0.12552293 -0.47915974 -0.565003 -0.019876387 0.079241596
8349 0.17335342 0.4038273 0.52984583 0.43469107 0.08040404 0.4152027 -0.0677058 -0.12757912 -0.15515193 -0.2715654 0.18014649 0.18071914 0.87813306 -0.09354766 0.6236559 0.3630595 0.044435263 0.047879674 -0.0398187 -0.37658584 0.13413264 -0.4635903 0.023417247 0.28071946 0.9543561 -0.0066093737 0.16082054 0.30022368 0.14794715 -0.15455367 -0.27944303 -0.19541536 0.30570737 0.21636231 -0.3337604 -0.13517551 -0.44563165 0.3378247 -0.4493527 0.34126487 0.8482014 -0.0063658087 -0.118769616 0.18235849 -0.04695204 -0.1980047 0.1883388 0.1567404 -0.069231585 0.28679866 0.013518812 -0.4579259 -0.086765006 -0.07736467 0.7440657 0.10963417 0.17116937 0.46789756 0.17924745 0.10657997 0.6647324 -0.14051388 -0.26359907 -0.87935376 -0.44160447 -0.26291493 -0.34955388 0.5125204 0.3324788 -0.5092022 0.3051741 0.081617355 -0.21490157 -0.037507452 -0.0671726 -0.29274356 -0.054146666 -0.7936015 0.2689853 0.027229164 0.3794053 0.08079326 0.1541266 -0.116059914 0.21160865 0.10816873 0.23007028 -0.37480873 -0.464945 -0.26719102 0.751804 0.21806517 0.21843015 0.060397234 -0.31396443 0.31179893 -0.10886592 0.046829365 0.094034694 -0.26861084 -0.050704062 -0.9865068 -0.45443976 -0.2333705 -0.41583002 0.42153448 -0.2605359 -0.29788756 -0.24890898 0.39469853 -0.34721613 -0.1269162 0.11563768 0.05911849 0.11711026 0.14692485 0.47719806 0.6269733 0.024199665 0.18161915 -0.12479806 0.28833017 0.78403836 -0.36895582 0.29041722 -0.092498474 -0.2878338 0.6287983
491 -0.20427573 0.4470763 0.16025561 0.3296665 0.30373666 -0.24711342 -0.0054448457 0.38212544 0.18409356 0.01931008 0.44721276 -0.6173553 0.48731327 -0.43324625 0.27885568 0.093191735 0.21909767 -0.15945812 -0.016050817 -0.9156679 0.43149826 -0.39124432 0.51563716 0.22188959 -0.19452606 -0.0060403524 0.013368516 0.07038602 -0.08170761 -0.028308704 -0.16938534 0.43250152 -0.03087196 0.66817075 -0.4689949 -0.05954449 -0.21679573 -0.047210217 -0.28828156 0.17904417 -0.03872676 -0.41254655 0.20717727 0.09891615 0.16924983 0.015832972 -0.16253439 0.15763502 -0.21413673 0.04763126 -0.43604526 -0.2995304 -0.47489595 0.18691088 0.5814408 -0.3326404 0.3615829 -0.25347054 0.34144762 0.26515055 0.57898694 0.73244333 0.23508243 -0.4425276 -0.15750115 0.3442235 0.19587976 0.42239234 0.24355604 -0.7562325 0.3883982 0.041565314 -0.24162656 -0.35221365 0.10987427 0.2198023 -0.09070328 -0.13233165 0.4756738 -0.13633832 -0.14222917 -0.06304237 0.04797054 0.30351642 0.30302033 -0.2313693 0.22413358 -0.86391336 -0.08128857 -0.024576532 0.4599415 0.3427585 -0.4366195 -0.08625439 0.26607105 -0.26414278 -0.14063454 0.50564724 -0.1987282 -0.2212892 -0.0044343914 -0.52492225 -0.11972917 -0.29837465 -0.12000398 0.05917831 0.13536257 -0.71823597 -0.25883606 0.35779536 -0.23420835 -0.08078169 0.6835288 -0.21052611 -0.25012752 -0.25067613 0.121052146 0.017391726 0.13186055 0.70900685 -0.09759413 0.6358565 0.2472419 -0.21124162 0.15595339 -0.047401953 0.14741544 -0.055295415
1565 -0.6962263 0.2357515 0.231686 0.120490015 -0.15785061 0.2609982 0.3582217 0.17422248 -0.4029773 0.22843711 0.5078908 0.5085561 0.18004675 0.2088881 0.33862194 -0.08914533 0.1593908 -0.13342108 0.26494306 0.4370621 -0.41660428 0.5803059 0.28125334 0.2067703 -0.6926451 -0.17634816 0.65801764 0.080645986 -0.5343224 0.20023063 0.16274688 0.17986232 -0.69590175 -0.38551822 -0.32846674 -0.17592303 0.4029543 0.15775737 0.016754914 -0.14669059 0.091006294 -0.10586987 0.5531943 0.43283945 -0.78075826 -0.032337517 -0.38493186 0.4817587 -0.2786479 0.33526626 0.68408436 -0.72186863 -0.22760957 -0.013023391 0.7317268 -0.09330069 0.13101454 -0.022232646 -0.61750644 -0.66593105 0.006718887 -0.079502255 -0.48989302 -0.38459864 0.07724334 0.24039346 0.21935561 -0.2574783 0.67969126 -0.08138596 0.17109424 0.02414918 0.8239319 0.6066267 -0.2024668 0.26048788 0.32388458 -0.8065265 -0.056533355 -0.051463775 -0.17169914 0.30816373 0.46431673 0.24626093 0.08540893 -0.18708415 -0.3631008 0.037082717 0.3054981 -0.16798986 -0.09692517 0.057244577 0.043004844 -0.031563397 -0.31647086 -0.28413787 -0.013192731 0.96230423 0.7717534 -0.12986353 -0.09040631 -0.6335973 0.3274724 -0.39583987 -0.49806148 -0.8442725 -0.13600051 0.007388222 -0.15153597 0.3674547 -0.5024314 0.022200279 0.13572605 -0.20146434 -0.52716744 0.07396784 -0.20077662 -1.0137473 0.037249126 -0.27910018 -0.30375552 -0.019017082 0.14839359 -0.13174996 -0.14558578 -0.66599625 -0.022666994 0.38711464
1788 -0.32677034 -1.0103093 0.99059916 0.4104029 0.019147245 0.65850365 -0.47837144 0.40121078 0.06737044 0.8810389 0.58147264 0.5431334 0.81100565 0.56301826 -0.090345375 0.6874532 -0.5871029 -0.7285791 0.28657755 -1.4546986 -0.6295819 1.2272333 0.44512972 -0.6200612 -0.6262285 -1.0083926 0.44980788 0.9608798 -0.0007681673 -0.08918033 0.19503188 0.024950039 -0.5339271 0.19062375 0.16516466 0.076695934 0.032569613 0.9437833 -0.3336511 -1.1440127 0.52964675 -0.261473 0.1297391 1.0255474 1.1512963 0.7495811 -0.97246367 -0.7592034 0.45795858 0.44244465 -0.76916593 0.56100374 -0.28308693 -0.27096543 0.7848029 -0.2900134 -0.5901269 -0.34580016 -1.0214149 -0.13221046 -0.22279626 -0.6424062 -1.5821666 -0.39685643 0.8335894 0.031421814 0.47053483 0.6164766 -0.2684016 0.80080616 -0.26717132 -0.4483094 -0.045705013 -0.2899315 -0.4400334 1.0391898 -0.15941766 -0.28704563 -0.08330658 0.6407184 0.4059852 0.033043448 0.056408584 -0.62735665 0.0006353203 -0.01761401 -0.8529645 -0.6320781 -0.34761238 -0.010474797 0.4474991 0.42825133 0.38324186 0.32321852 -0.8071159 -0.10423813 -0.38847905 0.8263196 0.2699594 1.0831513 -0.8114415 -0.07515931 -0.57318056 -0.03874743 -0.87426585 0.55482984 0.40267935 -1.1209553 0.611312 -0.20831151 -0.7634363 0.14792679 -0.1380175 -0.21452835 0.22662272 0.077274896 0.2315691 -0.8369154 0.43445912 0.5206235 0.7348745 -0.1624742 0.72502697 -0.20340343 0.45635444 -0.033780362 0.39918372 0.83173794
4473 0.20867889 0.24933375 0.55833834 0.47860554 0.17956027 -0.030508576 -0.24192451 -0.062195837 -0.1725671 0.41611117 0.18221958 -0.38920403 0.40141222 0.24278593 0.3656195 0.2447551 -0.35148618 -0.09220217 0.85418844 -0.6392884 0.18021327 -0.45444024 0.15103872 0.3755768 0.3100716 -0.46070635 -0.22131126 -0.16073225 -0.46259707 -0.35914055 0.04261873 -0.1912489 -0.08584601 0.52057916 -0.17658375 0.14926651 0.047230646 0.33645502 -0.342948 -0.060904294 -0.09020367 0.28584465 -0.6681387 0.59854174 -0.46741247 0.18522696 -0.023671454 0.24589339 0.37983787 -0.058144625 0.47175044 0.57716566 -0.12590457 0.015295098 0.28142065 0.23698716 0.033581257 -0.10028993 -0.6953462 -0.1412147 -0.12227232 -0.24799843 0.43395248 -0.56518805 -0.059063308 -0.16252469 -0.4107377 -0.080398664 0.16464421 0.15281908 0.17263246 0.10694987 -0.062181715 0.23477206 0.35419896 0.3226302 -0.16635229 -0.3115093 -0.20915407 -0.2090811 -0.06435068 -0.13067403 0.20506318 0.17227535 -0.08156042 0.19117303 0.105628416 -0.50205344 -0.011979403 0.26717278 -0.05903546 0.20950815 0.3916902 0.2738451 -0.36381584 -0.026320262 0.6233228 0.21872155 0.20377904 -0.28577107 -0.25708303 -0.5729116 -0.12460246 -0.14082326 -0.3346625 0.09528969 -0.16827366 -0.695178 -0.14033516 0.10491078 -0.20192784 -0.31088674 -0.16552505 -0.070784494 0.16753405 0.25392926 0.1650893 0.049340192 -0.114072844 0.11239314 0.19157332 -0.2659983 0.2687847 0.042094592 0.13276891 -0.50180405 0.37605333 0.19514987
50114 -0.26669806 -1.1212995 1.0707815 0.4367646 0.012032495 0.6755525 -0.47480896 0.39419517 0.08195974 0.896779 0.6291049 0.42832297 0.7875258 0.44750315 -0.10352948 0.7374173 -0.6079166 -0.7631866 0.30599633 -1.583991 -0.6016962 1.249084 0.53582627 -0.56549764 -0.59674484 -0.9774812 0.51630574 1.001286 0.027719405 -0.13738279 0.08256141 0.024481596 -0.58790445 0.18634884 0.1814999 0.053175297 -0.009560498 1.0091424 -0.32497132 -1.238099 0.5262792 -0.23382711 0.17665789 1.019886 1.1493909 0.79324 -1.0048062 -0.7783678 0.41470176 0.4401957 -0.70178986 0.56950676 -0.29347363 -0.31688166 0.88837665 -0.32223985 -0.6525443 -0.30938685 -1.0528476 -0.16020486 -0.2630469 -0.54301924 -1.6833904 -0.3936336 0.78045416 0.05809169 0.48792914 0.6230983 -0.33001316 0.87501276 -0.27234843 -0.5295611 -0.05860593 -0.1641437 -0.55117935 1.1501906 -0.05231706 -0.3016833 -0.011985118 0.7207599 0.4763458 -0.008955432 0.035535794 -0.6860024 0.07536305 0.07086193 -0.92926764 -0.68962735 -0.36003107 -0.08258438 0.41225836 0.40207836 0.48798925 0.32001638 -0.8439981 -0.011996636 -0.5248456 0.8224147 0.17299 1.1325328 -0.81477976 -0.048532132 -0.6645827 -0.0937274 -0.8597492 0.63444376 0.53539044 -1.1598288 0.69805485 -0.19511963 -0.74560076 0.09718228 -0.12081832 -0.20259051 0.35383064 0.007483354 0.28841513 -0.8922587 0.4565066 0.5421442 0.81199044 -0.12027015 0.73501885 -0.26530546 0.4187228 -0.042170547 0.41094667 0.86588824
1897 -0.7908375 0.07590961 0.03893615 0.24616003 -0.12703814 0.3286801 0.46280962 0.24645638 -0.45061675 0.18588059 0.61393267 0.4653122 0.1409077 0.11766694 0.36972368 -0.0018749598 0.24353875 -0.0008393287 0.2395803 0.35642353 -0.46624592 0.47685105 0.27508217 0.17888379 -0.6086584 -0.06743468 0.50456184 0.063212186 -0.6322766 0.16908567 0.11134251 0.13868487 -0.7527764 -0.3698425 -0.35120517 -0.055448156 0.39974964 0.16586474 0.18993638 -0.041542135 0.05117776 -0.09720573 0.5663613 0.40936026 -0.890543 -0.01847367 -0.4349719 0.5581431 -0.4049661 0.4494888 0.68067145 -0.8126976 -0.31033263 -0.18540974 0.9072487 -0.030699601 0.10455384 0.0052606785 -0.66885394 -0.7303674 0.040752184 -0.11331457 -0.4899355 -0.51428545 -0.05099352 0.27038604 0.096486524 -0.28715882 0.6612003 0.03724228 0.16446668 0.025775164 0.99606305 0.7793187 -0.22340839 0.30512378 0.44911245 -0.9096066 -0.1897632 0.10135319 -0.1788589 0.39202166 0.17735104 0.08877832 0.109917186 -0.29630816 -0.3647316 0.030886536 0.28376415 -0.17763856 -0.21066533 -0.061424006 0.005892012 -0.059566665 -0.4865532 -0.47685584 -0.08292612 1.0104624 0.785499 -0.13701206 -0.31857428 -0.62350965 0.37791207 -0.4374275 -0.65947425 -0.9184412 -0.119492956 -0.19407547 -0.09957979 0.24700397 -0.47721893 0.23094547 0.0985746 -0.21304604 -0.482852 0.17587243 -0.21747838 -1.0004147 0.05707666 -0.2534423 -0.20521417 0.17790766 0.2880897 -0.09642955 -0.13562587 -0.63401544 -0.03601555 0.2629999
1615 0.20463331 0.17238544 0.65042394 0.5508227 0.031764507 0.28760856 -0.28838935 -0.19897532 -0.8269062 0.64865273 0.19226006 -0.2556025 0.5393027 0.010618295 0.40987095 0.4019172 -0.37202576 -0.43981317 1.0035067 -1.0330013 0.20187172 -0.9438849 0.5294515 0.3610833 0.1222988 -0.12693833 0.10706585 0.18502824 -0.63876325 -0.64955884 -0.4239571 -0.47015545 0.34092504 0.6798904 -0.09007508 0.14524499 -0.078991644 0.06803055 -0.44965506 -0.0635661 0.007558667 -0.009735336 -0.24279565 0.6061486 -0.56108165 0.082653046 0.1186143 -0.16233458 0.15989101 -0.022588719 -0.009028626 0.28587508 0.0073585426 -0.23510224 0.35110193 -0.051926326 0.2840626 0.08342484 -0.8114723 0.24549842 -0.20386297 0.4283954 0.29459828 -0.38745865 -0.2567994 -0.034317706 -0.7050688 -0.11814301 0.40868786 0.1715663 -0.029281843 0.5467657 -0.2996367 0.487237 0.041070666 0.29749075 -0.11106292 -0.15299094 -0.38016656 -0.32552278 0.316179 0.29461822 -0.16525908 0.43722638 0.67792094 0.09057039 -0.16162968 -0.1436998 0.16179597 0.020271987 0.11060038 0.2353956 0.41659787 -0.0016347896 -0.096516915 0.2711884 0.6282657 0.090852655 0.1211734 0.10703988 -0.46282881 -0.55752254 -0.08539776 -0.020134557 -0.5751733 0.4397599 -0.1496574 -0.64220065 -0.14459713 0.17776929 -0.018695097 -0.2500446 -0.5112416 -0.124323 0.20518668 -0.03985853 -0.18239781 -0.070102334 -0.17613246 -0.170567 0.16660658 -0.3254236 0.6449001 -0.14696191 -0.11086658 -0.43577743 -0.08394882 0.085469365
3153 -0.250205 -0.04535839 0.5770692 0.038761877 0.15125245 0.07936396 0.43857095 -0.061438102 0.50436467 -0.43054098 0.20925564 -0.53707886 0.20664456 0.042147633 0.454076 0.037835814 0.7157367 0.16765219 0.5184032 -0.17999187 -0.32653275 -0.038327295 0.48638362 0.13492921 0.090762705 -0.562803 -0.15450194 -0.022877688 -0.1283694 -0.37407944 -0.15078893 -0.23736861 0.22432509 0.41450983 -0.00476049 -0.089090765 -0.12004932 0.043108217 -0.33912417 -0.19667548 0.72717017 -0.028798737 0.41426778 0.34908423 -0.3451512 0.33860973 0.036573283 0.27213725 -0.3163517 0.048129465 -0.15319648 -0.22523066 -0.5442064 -0.25327125 0.09895406 -0.36895755 0.4741007 -0.14154853 -0.21464153 0.11695978 0.25720057 -0.14061324 -0.17827044 0.29336473 -0.00029152137 0.24959023 0.18991275 0.31720483 -0.26395065 -0.3715068 0.016688583 0.22585611 -0.3175444 0.6822916 0.33500716 0.08365431 -0.16468948 -0.19118758 0.4021399 -0.5657832 -0.1435351 0.27795693 -0.13373518 0.4496013 -0.0367926 -0.14865987 0.26213643 -0.41571155 -0.004258358 -0.030355833 0.40573692 0.24275455 -0.0010278024 -0.04279307 0.053103983 -0.16520575 -0.6455357 0.5482396 -0.37014344 0.11152752 0.027976459 -0.118210025 0.054731388 -0.17183161 -0.48721203 0.15941757 0.36667624 -0.11814736 0.17361598 0.2657401 -0.14947869 -0.7050035 -0.10678103 -0.22010629 -0.14853378 -0.19204335 -0.22050838 -0.04288393 -0.2926305 0.3414127 0.36096826 0.22354095 0.049573667 0.2983029 0.17994875 0.08012485 0.08734813 0.65438324
13620 -0.009133187 -0.44633272 -0.029097812 0.072158456 -0.116848186 0.28043193 -0.2633965 -0.3722101 0.17717966 0.49125797 -0.09134361 -0.2072152 0.31272167 -0.9154244 -0.2926681 0.4850948 0.5296306 -0.04702375 0.29399294 -0.052028198 0.36291173 -0.38666698 -0.19070986 0.039677907 -0.23474613 0.17411926 0.54239726 -0.025135651 0.21854447 -0.29349384 -0.82738465 -0.1348906 0.012464569 0.89264655 0.19609973 -0.05044765 0.011794287 0.26816908 -0.26866376 -0.2604272 0.091403544 0.105979465 0.038415093 1.0909075 -0.12272435 -0.24793454 0.297129 0.05220359 0.42565668 0.69747484 -0.018997109 0.5975022 0.3510334 -0.2131584 0.7521865 0.28268236 -0.033711128 -0.39376867 -0.6630446 0.2585071 0.12759492 0.4255911 -0.08198373 -0.7616325 -0.5093961 -0.030876603 -0.43708545 0.32717478 -0.01190089 -0.078613855 -0.05650932 -0.31027687 0.12423361 0.14563772 -0.11077159 -0.051845573 -0.18041997 -0.35677782 -0.36413026 -0.7457331 -0.68228394 0.61548644 -0.016841926 0.23068741 -0.037352618 0.59845984 0.42952123 -0.055082463 0.17008811 -0.44805515 0.16582295 0.17096081 -0.24353434 -0.079024985 -0.3972567 -0.824676 0.27645463 0.06556436 -0.3032003 0.13352263 -0.39700297 -1.126922 0.5047433 0.16492 -0.7805814 -0.19626157 0.7930722 -0.70456356 -0.49041796 0.29348648 0.24295942 -0.40968063 -0.5434486 -0.11522263 0.15010406 0.13206413 0.02456094 0.36502483 0.012772391 -0.17092074 -0.021098204 0.1457377 0.17497471 0.13881306 0.2100317 0.04333516 0.08164023 0.13182184
82920 -0.32794297 -0.1721946 0.04863441 0.09771919 -0.7921593 -0.27120167 0.20709161 0.32789326 -0.22782299 -0.038694374 1.0863894 0.68760574 0.08604667 0.624948 0.19344671 0.40348795 -0.17414893 -0.21207103 0.4111825 -0.089605495 -0.4990973 0.43059942 0.7315057 -0.6285755 -0.58429027 -0.07670708 0.36888212 0.003172431 -0.51015395 -0.4711884 -0.41519728 0.4805121 0.5076667 -0.31384927 -0.4645528 0.7784938 -0.1635931 -0.34681156 0.871419 0.10408664 0.7888027 0.11821238 0.39634764 0.85443544 0.4075598 0.09750396 -0.78577095 -0.2134096 -0.61186093 -0.087155566 -0.3297078 -0.053667434 -0.3168985 -0.1573095 -0.20117433 0.061438337 -0.15987392 -0.19698593 -0.07724794 0.33157355 0.3096553 0.06925742 -0.84173703 -0.3583448 0.43353963 0.1518362 -0.33379355 0.28663316 0.4047388 0.07957778 -0.036938608 0.28993618 0.22186755 0.05472708 -0.0013933997 0.9686767 0.09254456 -0.43402025 0.26978737 0.024812497 0.951432 -0.30186355 0.11715817 0.947589 -1.1772287 -0.2746459 -0.20476104 -0.5544824 0.7601407 -0.0055033285 -0.27512145 0.059830077 0.90084606 0.10677253 -0.28047022 -0.22763507 -0.31154943 0.10981924 0.86429954 -0.69482076 -0.3681326 -0.44181406 0.47398868 -0.1376623 -0.03128747 -0.22679736 0.035902623 -0.13306712 -0.16970208 0.23118111 0.31361958 0.4245912 0.3774066 -0.33956796 0.86411196 0.22098854 0.060065385 -0.0001632679 0.3374321 0.7047477 0.21179633 0.017144144 -0.53279245 -0.7526028 -0.48742986 -0.28689328 -0.4319808 0.60147244
210872 -0.091400295 0.05129836 -0.049643684 -0.0602891 -0.69729465 -0.32006133 0.41439086 0.11055495 -0.27039328 -0.088165775 1.1853181 0.2633886 0.017952193 0.6021515 0.027727416 0.10879121 -0.06930943 -0.1303681 0.33434027 -0.2306427 -0.59100837 0.32457536 0.6166857 -0.6206026 -0.4051194 -0.015435386 0.62173605 0.040725444 -0.5036109 -0.3042815 -0.30020908 0.6290028 0.55666053 -0.15390703 -0.32106766 0.5303476 -0.006294913 -0.2362419 0.9804611 -0.04165933 0.8618354 0.4136829 0.5903997 0.95855594 0.2343946 -0.01559044 -0.5954916 -0.22193901 -0.51574475 -0.17984664 -0.20725158 0.094716445 -0.07773764 -0.4958478 -0.10107313 -0.04105973 -0.08299905 -0.32136652 -0.13259792 0.46923414 0.27412263 0.060211904 -0.67484796 -0.5668974 0.3148513 0.2950321 -0.42595202 0.16510144 0.40034297 -0.11499509 0.03516549 0.0007453796 0.22480315 0.09243659 -0.2617315 0.92100066 0.058551904 -0.64336973 0.1048957 -0.09719357 0.5843009 -0.22480454 0.33910325 0.61908627 -1.0493942 0.18568859 -0.10060393 -0.57787186 0.8686932 -0.25736767 -0.19356516 0.15547585 0.69528127 0.48225823 -0.0014991915 -0.47015408 -0.09674289 0.03769214 0.66281325 -0.6137749 -0.16680174 -0.46953148 0.23825167 -0.047156308 0.045986794 -0.33241767 0.123711735 0.017905472 -0.057440568 -0.02122272 0.01731888 0.41613322 0.1312171 -0.28153652 0.6520739 0.13835609 -0.078764424 0.13479257 0.3425424 0.39420182 0.27219012 0.014588298 -0.4335078 -0.69056135 -0.56033796 -0.26986033 -0.5727571 0.693673
4584 0.21651903 -0.09449326 -0.14405137 0.10761364 -0.9294594 -0.4354978 -0.036816623 0.26632324 -0.68784267 -0.18531194 0.67111135 0.36706024 0.28750402 0.30661207 0.66367185 0.22077319 0.15496688 -0.08561209 0.87402356 0.40572974 -0.6906358 0.110086635 0.2694644 -0.73372734 -0.9681056 -0.1466848 -0.24344878 0.60920304 -0.28894955 -0.30934605 -0.23934194 0.47728035 0.024632253 -0.15301155 0.09735107 0.4648883 0.30319834 0.13059123 0.4645102 -0.6350986 0.41702545 -0.01147211 -0.057775255 0.9821096 0.2108527 -0.49539712 -0.610214 0.04825464 -0.33094248 -0.35748783 -0.24801916 -0.63751936 0.07626031 0.48256597 -0.10711355 0.50375044 -0.43951434 -0.6287257 -0.11660083 0.14733808 -0.16488817 -0.013082193 -0.3596087 0.4311922 -0.320596 0.45304385 -0.15269026 0.42831126 0.46918008 -0.08776523 0.056929134 -0.06323062 -0.15039773 -0.08405597 -0.33882314 -0.2993312 -0.06588041 -0.2605288 0.26504803 0.4921502 0.5040772 -0.26693526 0.111525185 0.5084332 -0.39162317 -0.2903917 -0.0043716365 -0.77085406 0.3921144 -0.091512494 -0.57048047 0.068211295 0.88620204 0.1416394 -0.6518642 0.13063629 -0.30509502 0.6420137 0.9052295 -0.5322357 -0.11358203 -0.6428599 0.018701088 -0.28124422 0.34189022 -0.7408616 0.2761209 -0.25868756 -0.09301443 0.8252532 0.13516197 0.06251844 -0.29677588 -0.19074807 0.24857001 0.6151328 -0.12368229 0.09676812 0.5278255 0.42732716 -0.04282132 -0.010448853 -0.108841285 -0.18950687 -0.8530993 -0.43232042 -0.0065077394 0.84569734
887 0.200398 0.032985386 -0.14799508 -0.09560014 -0.58937764 -0.2786142 0.016349519 0.13765454 -0.33976468 -0.16396543 1.1042734 0.5713932 0.035872493 0.63497204 0.23941278 0.053703874 -0.1570264 0.022686472 0.35418543 -0.29119968 -0.5276588 0.33830932 0.3889096 -0.5225335 -0.7363313 -0.12523466 0.32265693 0.027893333 -0.47025368 -0.19888923 -0.25007698 0.2731275 0.18588074 0.03572755 -0.26951954 0.6088749 -0.04211115 -0.05261138 0.6355997 -0.16747288 0.3445276 0.33491164 0.5008153 0.89772403 0.04841566 0.049862787 -0.5206904 -0.16489571 -0.38357908 -0.44096217 0.007940407 -0.084342115 -0.19806124 -0.11276502 -0.046180077 0.505674 -0.37178883 -0.4691322 -0.13066867 0.5371291 0.22157688 0.26403186 -0.487523 -0.17021236 0.21967945 0.26731712 -0.29737946 0.066572174 0.3262373 0.07752999 -0.0915582 0.08718539 0.13470781 -0.08409642 -0.16249318 0.6668431 -0.2899044 -0.60781175 0.20650207 -0.101869315 0.31448612 -0.2980759 0.1511271 0.37166345 -0.72136503 0.25661433 0.05132878 -0.61680496 0.703499 -0.2783308 -0.43237177 0.24099115 0.4990954 0.31370708 0.03337557 -0.20602708 -0.3072156 0.038707595 0.45023134 -0.5415677 0.066262774 -0.5766561 0.36733824 -0.20406522 0.008855274 -0.3669559 0.29814544 0.0019694914 -0.025764093 -0.023262626 0.124160565 0.36278203 0.25353128 -0.021970991 0.14258105 0.4177877 0.08342099 0.065843716 0.07308467 0.5438538 0.28978875 0.2928559 -0.46346506 -0.29938653 -0.46884105 -0.1698555 -0.43169284 0.61369014
6213 0.26836604 0.33669034 -0.04742339 -0.12089737 -0.64073396 -0.48055053 0.17174867 0.32630375 -0.35548595 -0.18580198 0.45181495 0.3155456 0.16785964 0.3883718 0.33403042 0.27897176 0.113170534 0.2032517 0.23160173 0.112954736 -0.71911126 0.0022878735 -0.0030710998 -0.73564065 -0.489941 -0.053743437 0.020344097 0.58310544 -0.2906271 -0.15170103 -0.23172213 0.30540922 -0.07177361 -0.2819246 -0.23952593 0.36371297 0.14996035 0.61821413 0.5930116 -0.1268552 0.5519147 0.2899103 0.5467959 0.6740262 -0.17091289 0.19953473 -0.45449483 -0.17254008 -0.22093919 -0.02230523 -0.48920038 -0.36361796 -0.2720792 -0.21154894 -0.21521428 0.6290083 -0.51616514 -0.5103846 -0.25641385 0.020480799 0.13774894 0.20248811 -0.034712873 0.056178324 0.17984894 0.34164566 -0.2187328 0.2581617 0.41752607 0.05801309 -0.046818316 0.09268979 -0.09692101 0.07002886 -0.39405772 0.08005937 -0.3151959 -0.55653584 -0.05071407 -0.04341502 0.3402282 0.10496114 0.0902153 0.41772896 -0.5239885 0.31235072 -0.08500406 -0.6764777 0.3813286 -0.23539937 -0.3613767 0.28994054 0.72124094 0.13034813 -0.20704243 -0.29261816 -0.19533567 0.2995019 0.6993615 -0.4777383 0.1142358 -0.517789 -0.0024041191 0.16669534 0.17233436 -0.40422437 -0.026154382 -0.033691227 -0.22183558 0.55934566 -0.20854199 0.22264156 -0.062580615 0.095075816 0.12663208 0.6922518 -0.1444496 0.34851757 -0.19378935 0.67759234 0.030251201 0.5396323 0.0074331015 -0.62380606 -0.67507964 -0.42109874 -0.12130447 0.5883928
5222 0.14697391 -0.39760295 0.054861356 0.32610297 -0.030947924 0.31910855 -0.39666227 -0.2955066 -0.1689951 -0.07259176 0.13364334 0.27225792 0.2681936 -0.23852189 0.48267394 0.52487886 0.02376684 0.4780933 0.6690445 -0.34365988 0.01086834 -0.40712723 0.6108915 0.046791773 0.12597202 -0.17668267 -0.019080332 0.272058 0.265462 0.029867947 -0.07379899 -0.02254332 -0.2737206 0.10888012 -0.28949648 0.05891913 0.3176747 -0.102751985 -0.26297653 0.12653492 0.07109259 0.055980433 0.6215468 0.4023631 -0.4293377 0.20166126 0.055623587 -0.062679954 -0.23884131 0.59443456 0.5320687 0.052573413 -0.077183925 0.08069165 -0.15837306 -0.25222656 0.005322633 -0.03171589 -0.02247753 -0.06312234 0.19253342 0.033598017 -0.25663316 -0.19932948 0.21069382 0.63684547 -0.37032154 -0.050081965 0.4627281 -0.28084335 0.43292534 0.32378253 -0.028014451 -0.23760632 0.5008824 0.50323784 -0.47934604 -0.17515305 -0.16047455 -0.25348938 0.070889756 0.050582867 0.87296367 0.42042112 -0.23439524 -0.49625283 0.26559815 -0.10606135 -0.051044695 -0.15807742 0.28431565 0.12961191 -0.3787104 0.25021324 0.21240902 -0.1039085 0.49625298 -0.061664842 -1.029344 -0.2934771 -0.16492528 -0.41537526 -0.39711776 0.7025327 -0.119527794 0.2729803 0.27443162 -0.88477045 0.39046523 0.6319677 -0.25548467 -0.41925806 -0.42871794 -0.24015708 0.38716152 -0.38549677 -0.09084859 -0.13593888 0.21209054 0.018531136 -0.09461879 0.39687958 -0.044602804 -0.14086576 -0.28303212 0.65172166 0.33808845 0.10423711
8327 -0.65503836 0.15874255 0.18833794 -0.46456617 0.78202283 -0.14370865 0.21739185 0.16686755 0.1440231 0.09784516 0.09666866 -0.1874575 0.8885324 -0.31080365 0.3136281 0.3069953 0.5477783 -0.093822755 0.21416247 -0.49135202 -0.3126306 -0.41220605 0.47207004 0.23719174 0.2574551 -0.8638882 -0.3347216 -0.12631977 0.47053048 -0.104202494 -0.014405959 -0.21006893 0.24538109 0.5077113 0.518693 0.11743399 -0.016796984 0.15558602 -0.5567217 -0.06909949 0.6940466 0.24785589 0.52926284 0.07300546 -0.070817925 0.46940863 0.2244616 0.512701 -0.12207969 0.2144535 0.21568756 -0.36080918 -0.68943805 -0.33950016 0.41338238 -0.4491667 0.44217548 -0.03342969 -0.14150906 0.07348047 0.52279407 -0.07300302 0.3850321 0.073610075 0.08459261 0.24290195 -0.3482057 0.18820493 -0.08819323 -0.7161688 0.20632353 0.42825475 -0.3738717 0.74258226 0.076115794 -0.0009401497 -0.22580506 -0.642987 0.037587278 -0.32876748 0.008762833 0.23816809 0.02708054 0.33207434 0.43923685 -0.29609427 0.0014941895 -0.5115918 0.15476558 -0.4928259 0.114939526 0.22286496 0.17910706 0.1628287 -0.15039772 -0.10637099 -0.6272068 0.78046525 -0.41699755 -0.14749654 -0.15507531 -0.1165693 -0.01661484 -0.70364976 -0.027718557 0.14368163 0.24834633 -0.38100344 -0.09561242 0.23878703 0.010694898 -0.5262185 0.24424452 -0.5807614 0.29903036 -0.5058883 -0.21505941 -0.20700634 -0.11332656 0.9966515 0.5692052 0.6052314 0.30277345 0.28370473 0.3431991 0.10274356 0.233864 0.58956486
3028 -0.683784 0.35078505 -0.35391328 0.01897748 0.359964 -0.15889551 0.06521367 -0.038088456 -0.15845479 0.15895785 0.16667664 -0.48553056 0.30504605 0.23584607 1.1464504 0.021141924 0.6821624 -0.12814651 0.34692782 -0.5436986 0.11267106 -0.8451518 0.14235671 0.4610602 -0.13392727 -1.0554563 -0.6331886 -0.20289712 0.29896498 -0.03581561 0.5165271 -0.1885587 0.12035742 0.46257296 -0.06213212 -0.53144497 -0.024773108 0.35997108 -1.0102113 -0.40326318 0.24136215 0.26491252 0.50813204 0.23680834 -0.24990408 0.53952575 -0.123762034 0.40892646 -0.1573008 -0.15498812 -0.16682759 0.09267378 0.18435448 -0.63825357 0.31706467 0.11364725 0.38801873 -0.2596683 0.3216836 0.4945757 0.02503126 -0.29061532 0.16039555 -0.10532249 -0.13072202 0.43127 -0.1860379 0.2390613 0.08193769 0.15994774 0.4536879 -0.13227072 -0.36695877 0.4968314 -0.41432247 -0.10240912 -0.1880823 0.50723964 0.20161119 -0.07146915 0.4522396 0.36862367 0.22525644 0.52208304 -0.40267414 -0.15156762 -0.04092595 -0.648224 0.08056128 -0.72513485 -0.10607612 0.38184074 -0.22835834 -0.26075783 -0.02802727 -0.37876746 -0.04983926 0.071411245 -0.036829628 -0.40462667 0.0977586 -0.3502247 -0.11121238 -0.28981203 0.45400316 -0.09832443 0.31248 -0.78859276 -0.25265872 0.6333698 -0.07795205 -0.57248193 -0.120623976 -0.13828151 -0.64052075 0.007484265 0.1054864 -0.34192395 -0.5395273 0.6560596 0.24645422 0.67515063 0.17747837 -0.28241736 -0.34190798 0.27646053 -0.44078007 0.3604235
9570 -0.13427939 -0.793518 -0.6242506 0.44489783 0.2241988 -0.48365033 0.48745164 0.28943223 0.5223417 -0.40301856 -0.053127132 -0.40044653 0.5399138 -0.18040587 0.39696285 0.6925868 0.034432203 0.08763852 0.49706474 -0.5145667 -0.054793846 -0.7684846 0.22061402 0.18239759 -0.13721871 -0.403738 0.7202675 0.13141668 0.19843458 -0.45284337 0.42829454 0.094315805 -0.5896647 0.5951835 0.6697749 0.07668102 -0.48196432 -0.63343734 0.83079743 -0.11525623 0.12284074 -0.5639743 -0.29965356 0.12506942 -0.44764525 -0.2619373 0.32138672 0.7000139 -0.16682833 0.3641497 0.19546512 -0.25427133 -0.095897816 0.24399662 0.4341299 0.052219097 -0.14411646 0.39926443 -0.46122676 0.096181765 0.22623865 -0.114864826 0.039156757 -0.41727886 0.016122343 0.70287627 -0.45938215 -0.3308304 0.57062894 0.34125468 -0.054572254 -0.04322274 -0.31371495 0.35322642 0.10564597 0.13103 0.03718461 -0.924773 0.076608896 0.47979516 0.061499372 -0.26362193 -0.18178217 0.22286165 -0.2769625 -0.14560518 -0.007690282 -0.5577255 -0.16804968 -0.17414217 0.056832403 -0.036614224 0.66308415 0.3053909 0.7685733 -0.859129 0.17955944 0.7469521 0.14864916 -0.47090596 -0.2672992 -0.537166 0.41982275 0.2611759 -0.30803898 -0.08573204 -0.41272837 -0.21232462 0.4338901 0.55246806 -0.1956952 -0.36380026 -0.47704217 -0.44024876 -0.2791465 -0.067875236 0.46204248 -0.3160173 -0.3625682 -0.5638209 -0.15294355 0.31083104 0.11383993 -0.29035425 0.26006436 0.650522 0.06900967 0.6418068
8251 0.71751994 -0.952386 -0.10734081 -0.58752185 0.24384388 -0.62710935 0.3196429 0.4200307 0.45884666 0.106867 0.9300474 0.03127079 0.016553557 0.19068913 -0.25888383 0.681306 -0.2053057 -0.4137558 0.6322968 -0.8030233 -0.37241998 -0.45229 -0.03246187 -0.44582656 0.33905187 -0.07766789 0.44071725 0.96111435 -1.2861736 -0.40769145 1.2715758 0.3059748 0.66056406 0.49774966 -0.52989143 0.29894587 -0.04860396 -0.7805464 1.0391655 -1.2657783 0.29073092 -0.065782756 -0.3167977 0.2831939 0.5450151 1.4183314 0.5862619 0.9836017 -0.9732033 -0.5454553 -0.67616147 -0.08349617 0.68864685 -0.48954478 0.76090497 -1.0069501 -0.79981786 0.9504264 -0.18015026 -0.99227375 -0.24297978 0.58715147 -0.62269396 -1.2125348 -0.2255945 1.0038434 0.6089082 0.88556325 0.6966568 1.3177853 1.2673805 0.9115212 0.015726585 0.7759144 -0.20923425 1.4845475 0.52707136 -0.21654591 0.57849807 -0.6471885 -0.7436821 0.5351974 0.8172374 1.1479661 -0.1577768 0.3289674 1.1504552 -0.3671581 -0.1391131 -0.42150253 0.6267941 0.08384236 0.45099604 0.8891226 0.023188435 -1.7702355 -0.66717845 1.4506972 0.2275797 0.29411715 -1.2126303 -0.15417218 0.14383519 -0.5665733 -1.0480089 -0.34649763 -0.36345047 -0.06972169 1.0601777 0.10624314 -0.04375278 0.17223383 -0.6475475 0.49212122 0.092828795 1.0023024 0.10962409 -0.47040957 -0.585956 0.03516839 0.3280424 0.79287714 0.20660889 -0.20028576 -0.728969 0.10078782 -0.6184457 0.63368917
8237 0.62968695 -0.94104856 -0.086577065 -0.6769082 0.26562878 -0.71140695 0.3648526 0.36856532 0.42202008 0.03688111 0.9136811 0.071559966 -0.095097914 0.24019949 -0.2972658 0.5949041 -0.2412905 -0.48591602 0.66295695 -0.88631344 -0.3702137 -0.36374798 -0.06624058 -0.39025268 0.3691014 -0.07518105 0.40837362 1.0559573 -1.3676926 -0.43640795 1.3564084 0.41142356 0.67504567 0.49511018 -0.4164807 0.30122685 -0.03767507 -0.75097984 1.1167464 -1.3091025 0.3216278 -0.0037819692 -0.27321383 0.35784414 0.688917 1.5011503 0.6913967 1.0381333 -1.0409523 -0.59912944 -0.7428378 -0.13544345 0.7319915 -0.48279443 0.5878675 -1.082311 -0.940337 0.97957927 -0.32500985 -0.9761567 -0.27967316 0.579584 -0.63957244 -1.3354124 -0.23231286 0.90088314 0.5848606 0.880121 0.70024204 1.3612784 1.3504679 0.9423841 0.07095777 0.83173007 -0.17110328 1.6639117 0.52596295 -0.2679698 0.5900125 -0.6105379 -0.6164028 0.5385011 0.8922338 1.1280667 -0.0539682 0.33296108 1.1475346 -0.34348294 -0.17627451 -0.29018924 0.6432101 0.16877298 0.4372815 0.8571934 -0.030933144 -1.8935513 -0.6928086 1.523517 0.23991694 0.25956848 -1.2642819 -0.24488644 0.19433904 -0.52239895 -1.130785 -0.35150146 -0.3084261 -0.115937956 1.115018 0.08323513 -0.0470503 0.13249192 -0.6834416 0.5296554 0.031903412 1.0713377 0.08895898 -0.40920752 -0.44163597 0.029766474 0.26851127 0.7706139 0.22878131 -0.22565824 -0.8057441 0.04453591 -0.6191395 0.7372887
2390 -0.27440795 -0.25823292 -0.04129901 0.24243683 0.01553066 0.1669443 -0.34713054 -0.20843945 -0.23217928 0.41086718 0.21743774 0.120996706 0.30860105 -0.40384483 -0.021126496 0.29608634 -0.051266186 0.2124343 0.10143141 -0.22663376 0.45537364 -0.14699006 -0.15312922 -0.102845654 -0.14879033 -0.75338656 0.2507883 -0.04715018 -0.37151393 -0.11715669 0.029454237 -0.19538043 -0.1718435 0.6577465 -0.23951924 0.19706234 -0.43820944 0.3544765 -0.34920922 -0.13593283 -0.0068089175 -0.09465816 -0.15037929 1.0129721 0.04213961 0.017754933 0.035401054 -0.2408876 0.10615099 0.48726308 0.00501149 0.552173 0.06958169 -0.1766211 0.4600145 0.17768636 0.11942421 0.0024542203 -0.19513778 0.44802305 0.45281023 0.3900834 0.11299265 -0.28728247 -0.026366306 -0.36382538 -0.6810456 0.2645894 0.13768223 -0.069452226 0.060894445 -0.07602302 -0.2490821 0.48767644 -0.12065716 0.28161478 0.050175566 -0.62948716 0.06172074 -0.54211956 -0.83457667 0.5390911 0.0033274116 0.6256211 -0.13270178 0.33076048 0.21223272 -0.0137706315 0.3184558 -0.26279125 0.040758926 -0.004910578 0.007020985 -0.24883957 -0.05840592 -0.10754702 0.37631607 -0.17507738 -0.024234084 -0.20490097 -0.18110408 -0.2987913 0.24397388 0.12830558 -0.5098685 0.12345516 0.17269684 -0.77247727 -0.10947202 0.6416903 -0.12354441 -0.66068107 -0.38788643 -0.38117567 0.057517946 0.018073332 0.30496693 0.34326223 -0.104077265 -0.041636698 -0.14077738 -0.113172784 0.35748622 0.35897386 -0.16204858 -0.46461657 -0.13872938 -0.0031151278
24755 -0.6484241 0.21493955 0.18495913 0.10582404 -0.18553554 0.4566631 0.42646056 0.115164116 -0.43240198 0.20686415 0.7266762 0.48257 0.12658352 0.13372232 0.2695634 -0.03181639 0.1687222 -0.05235753 0.3778306 0.3305858 -0.59711456 0.47935578 0.25674862 0.31635067 -0.6148319 -0.23167726 0.6229348 0.093658514 -0.6750945 -0.012063109 0.14861292 0.019848041 -0.9021941 -0.41739416 -0.3225623 -0.10312311 0.5036223 0.2587044 0.15975168 -0.02340317 0.086709365 0.011074623 0.6079052 0.45716244 -0.8171463 0.012785981 -0.41536862 0.52090406 -0.46073925 0.5174959 0.6564917 -0.9118538 -0.26202735 -0.16608234 0.7427099 -0.024744637 0.23683417 -0.04246214 -0.70784104 -0.7885827 0.06393975 -0.16570213 -0.48663026 -0.5470273 0.15183441 0.26785746 0.19803062 -0.44238785 0.6769411 0.022627655 0.106332704 -0.04332987 0.9620748 0.6919321 -0.28857604 0.23736978 0.55027384 -0.8390613 -0.17031269 0.030470943 -0.04230273 0.49240452 0.286075 0.24372934 0.04862939 -0.31691313 -0.40489665 0.122335136 0.31741935 -0.22774106 -0.13462101 -0.06621981 0.07332978 0.00747791 -0.47888735 -0.5148515 -0.21775962 1.1635507 0.64719844 -0.13783138 -0.21478012 -0.66606367 0.34788674 -0.3282906 -0.41170716 -0.9523785 -0.10713193 -0.10014914 -0.029967083 0.45583922 -0.43877965 0.08185333 0.20574756 -0.15868144 -0.55475247 0.111946315 -0.2601129 -1.1463335 0.07013617 -0.2870193 -0.23449166 0.14510162 0.20954697 -0.04378621 -0.292773 -0.5960196 0.04195423 0.39022478
2537 0.036385346 0.13714124 0.11161867 0.022249306 0.11649818 0.15967672 0.04631833 -0.13426504 0.5876474 0.2658166 0.18941182 0.36168545 0.42190596 -0.17063935 0.23750852 0.17368086 -0.060945883 -0.15778442 0.51012194 -0.072964385 0.29447463 -0.47991735 0.5124936 -0.4819632 0.11178294 0.35036728 -0.014404911 0.322871 0.16889514 -0.5351459 -0.18344171 0.04683337 0.07884319 0.45567837 0.45307586 -0.028753825 0.0038415077 0.38338286 -0.45171255 -0.06470745 0.5393964 0.23435913 -0.45415252 0.56986755 -0.27491298 0.22846808 0.04180885 0.58469707 -0.06383628 0.50797766 0.3377599 0.47080514 0.6658192 -0.35718927 0.5577238 0.08830133 0.07200995 -0.18374614 -0.7600935 0.35164502 -0.064107955 0.38922092 -0.015175268 -0.36006123 0.16631025 -0.31621084 -0.20365936 -0.15852414 0.17615695 -0.23420267 0.061191626 0.03288776 0.16537482 -0.12543514 0.25800398 0.20417145 -0.20382127 -0.2570108 -0.089821614 0.14309645 -0.19470935 -0.14047031 0.5674429 -0.32566357 -0.05700595 0.18876494 -0.06427625 0.002202648 0.14203659 0.051372956 0.20374426 0.31093076 -0.2598607 0.09326061 0.035527945 -0.624065 0.5222 0.4614096 0.058210924 0.29206222 -0.014309887 -0.15302686 0.70248413 0.0010395218 -0.2668234 0.01315059 0.2874736 -0.38839352 -0.16930199 0.8136364 0.19657204 -0.54180807 -0.34367505 0.14742108 0.30943707 0.6354935 0.20041011 -0.393598 -0.07145794 0.26408932 -0.18190248 0.13112977 -0.41328648 -0.0026835948 -0.14421622 -0.14644155 -0.31345344 -0.31960952
1047 0.040511772 -0.049097434 0.46417615 -0.18281503 1.0936369 0.5495033 0.20162524 -0.36556214 0.33474427 0.5157087 0.8056918 -0.24356243 0.4841631 0.1716637 -0.22804219 1.3768895 0.08690403 0.43835524 0.10212359 -1.0049378 -0.070292756 -0.6990584 0.35797077 0.6335049 0.486529 -0.7947076 -0.20790128 0.21046342 -0.043279953 0.2823579 0.1525319 0.08356779 -0.0077743847 0.8671805 0.043091632 0.15853341 0.55213845 -0.55780387 0.336977 -0.44862226 0.04541599 -0.41340315 0.350587 0.56771433 -0.47490975 -0.04554962 -0.42363438 0.5783939 -0.32278076 0.5288541 0.34253642 -0.037505314 0.08241222 -0.5610232 0.4981249 0.52419734 -0.5386014 0.3924682 -0.82928765 0.46625024 -0.14825207 0.10258819 0.09335061 -0.20648213 0.53227633 -0.047874883 0.3553947 0.10250107 0.06762356 -0.60792744 -0.42426318 0.402415 0.08379956 0.10442961 -0.5413306 0.417587 -0.21405032 -0.18245955 0.8614897 0.13788123 0.071259275 0.59073114 -0.76053846 0.044853337 -0.434663 -0.086301394 0.111301616 -0.18518846 -0.056016393 0.14350516 -0.6205047 0.74808586 0.27225226 -0.56511927 0.38602185 -0.5460093 -0.051318157 0.7355623 -0.09661314 0.14480932 -0.025032924 -0.29894006 -0.2416055 -0.27215716 0.37336525 -0.024738854 -0.9720121 -1.1273077 -0.12712853 0.21637298 -0.21346977 -0.42480096 0.5106955 -0.45615506 -0.3906325 0.3576484 -0.026031975 -0.14628232 0.28918162 -0.40171367 -0.36679965 0.7405033 0.07454203 0.085508965 0.0756675 0.2384341 0.19196656 0.25533637
1888 0.37436903 0.5619354 0.51206505 0.14526418 0.42404798 0.3681755 -0.23481664 0.15025383 -0.39562225 0.13924874 -0.14252436 -0.25748202 -0.16719963 0.16900887 0.40923044 0.015547245 -0.38854742 -0.18637428 0.45828846 -0.3809268 -0.34333968 -0.5495332 0.6408992 0.036864616 -0.0041378946 -0.6256812 0.100144744 0.045319915 -0.36175668 -0.17182468 -0.36627093 0.03975599 0.25054264 0.57636666 -0.53445685 0.06073088 -0.046919677 0.18112087 -0.2577153 0.096121445 -0.07688762 0.05955699 -0.59494805 0.29413548 -0.26028147 0.100042626 0.02394836 0.6526476 0.4192657 0.6155514 0.035905402 0.6042903 0.2912173 -0.32272407 0.071811154 0.10498779 0.20128456 -0.2498396 -0.33537152 -0.024107538 0.16038202 -0.0039053592 -0.025200354 -0.28510663 -0.11024082 0.20587906 -0.32412598 -0.07226006 -0.37797233 -0.14545448 0.45036668 -0.029484795 -0.0032052577 0.53814024 0.10800909 0.37606564 -0.31523627 -0.31076244 0.08819913 -0.5166941 -0.13037956 -0.30796036 0.25840664 0.37890756 0.22277266 0.3485103 -0.0183063 0.016512826 0.18042777 -0.33665845 0.17294289 0.32929257 -0.16851112 0.3218869 -0.30049095 -0.36440745 -0.1414597 0.109332 0.34383607 0.104340695 0.07579996 -0.13405326 -0.09694999 0.12219057 -0.35627112 -0.04013729 -0.28162083 -0.93719757 -0.009721493 0.26111656 -0.2339573 -0.34879136 -0.22488071 -0.43269974 0.1854143 0.06557921 0.12948959 0.25187916 0.15144868 -0.010883147 0.12407816 -0.30397823 0.5844062 -0.10676133 -0.2937405 -0.43241587 -0.03760787 0.11740653
27699 -0.44075125 0.5946338 0.12616713 0.27354905 0.16209833 0.35387164 0.23807889 -0.035619356 0.1587604 -0.33035123 0.6567329 -0.21498373 0.67416286 -0.27880585 0.22758174 -0.15234993 0.11081913 0.005888964 0.42998174 -1.041987 -0.3786919 -0.5751862 0.26604426 0.27056557 0.30452845 0.010684122 -0.3219891 0.18842971 0.17584363 -0.16557518 -0.15399908 0.24691822 0.50670874 0.5156508 -0.5315765 -0.31396118 -0.121681966 -0.30547535 -0.7596731 -0.2940211 0.8168171 0.0875856 -0.10530865 0.27869186 0.09444289 -0.29662186 0.30861953 -0.23632433 -0.08047393 -0.09233354 0.021309923 -0.5986465 -0.39444932 0.0109189795 0.4367316 0.04296288 0.041449662 -0.22642423 0.14053993 0.17314607 0.6251279 0.3273671 -0.45529056 -0.5446239 0.13855846 0.057691216 -0.10543127 0.534054 0.3806481 -0.5710291 0.84395397 -0.01831842 -0.3596607 -0.15791835 0.25128 -0.20025949 0.33332065 -0.76841855 0.17958 -0.10200146 0.1387203 0.042155728 -0.10178623 0.32728523 0.07000638 0.23578945 0.5211115 -0.4659262 -0.2012911 0.18245901 0.3036693 0.10231191 -0.41099483 -0.033220958 -0.034601267 -0.3265712 -0.25046408 0.28488696 -0.33397138 -0.5704877 -0.100694105 -0.7438383 -0.3349916 -0.5061128 -0.42637235 0.18398792 -0.111664124 -0.64036727 -0.20674762 0.4007338 -0.26430264 0.17925063 0.22811408 -0.42507738 -0.24647778 -0.23949601 -0.19373934 0.5755944 -0.12846236 0.25120434 -0.31714612 0.2763401 0.2218688 0.4049212 -0.15396279 0.18681444 -0.3736255 0.1185752
124378 -0.19944292 -0.014413355 -0.1442542 0.33819565 0.4460163 0.28514612 -0.04976339 -0.25801703 -0.059818543 0.23008639 0.36871812 0.2843898 0.077883124 -0.5223721 -0.36177796 0.5016484 -0.23319453 0.687163 -0.020117389 -0.2010359 0.594392 -0.23727599 0.2912409 0.13371418 -0.1800086 -0.9872829 0.25431445 0.05094816 0.20106947 -0.19398329 -0.20706218 -0.5495412 -0.12932 0.7504855 -0.30546057 0.2417946 -0.58938354 0.32036316 -0.66943675 -0.37807742 0.18392561 -0.19119735 -0.29999948 1.1290547 -0.013668235 -0.3403773 0.08559683 0.013358542 0.14036496 0.5982417 -0.005791508 0.5959256 -0.30230492 -0.100716986 0.26188362 -0.06611192 -0.014611735 0.15669584 -0.33913556 0.25025943 0.32560372 0.688973 -0.00542838 -0.24286525 -0.06221681 -0.24289447 -0.47369096 0.4804463 0.3843205 0.14035012 0.37162876 0.35255334 -0.060620118 0.52986217 -0.39193815 0.29542086 -0.6635033 -0.7547875 0.04195513 -0.5250023 -0.9865488 0.59711015 0.38986662 0.54323286 -0.21554546 -0.033297397 -0.059355043 -0.2508835 0.3892567 -0.482132 -0.37778193 0.16158587 -0.08050219 -0.3417376 -0.344945 -0.11324998 0.3479396 -0.16677015 -0.20176204 -0.056187585 -0.58580464 -0.35654026 0.5933102 0.38361531 -0.4751469 0.20218357 -0.078219466 -0.5649694 -0.26986915 0.71434605 -0.2257129 -0.57474124 -0.32044873 -0.41713572 0.4652175 0.16995767 0.467253 0.5554678 -0.28085428 0.21658736 0.1414988 0.25463536 0.5618413 0.15102737 -0.26955134 -0.5066567 0.07531771 -0.058100507
78805 -0.7467663 0.2162136 0.15902254 0.0942301 -0.19336456 0.294392 0.5469936 0.26021743 -0.54579055 0.25392708 0.64153767 0.60744077 0.30408412 0.2867284 0.2004402 -0.110839665 0.22053029 -0.02031853 0.37984645 0.39365673 -0.5260426 0.64198077 0.18689212 0.07561233 -0.59755594 -0.27333337 0.68130416 0.11139838 -0.7183204 0.0037795454 0.10101825 -0.0077203936 -0.76321286 -0.54258704 -0.4658829 -0.11120078 0.5819431 0.21836816 0.10374028 -0.14230208 0.049956072 -0.036474574 0.64962953 0.4258969 -1.0345699 0.03326328 -0.41903415 0.5952385 -0.44076616 0.59411055 0.78241146 -0.82531035 -0.32883883 -0.27096432 0.96799326 0.075292364 0.23654217 0.027422704 -0.841813 -0.657441 -0.11493897 -0.19008842 -0.50617975 -0.54484624 0.009360106 0.4215242 0.07715867 -0.39820474 0.7458964 -0.061631635 0.18258908 -0.09781742 0.98753834 0.6488318 -0.16581473 0.37494853 0.52601564 -0.9310893 -0.21212052 -0.052195933 -0.15933529 0.4250335 0.22275962 0.12141644 0.04695143 -0.37867275 -0.42946938 -0.07954008 0.29387707 -0.2530741 -0.16628435 0.04451219 0.023039812 -0.08841929 -0.52628356 -0.5833707 0.042628143 1.1833065 0.75921893 -0.22878814 -0.217026 -0.6502565 0.5531726 -0.31612858 -0.6894234 -1.0108097 0.09016641 -0.13366643 -0.11552558 0.3904087 -0.37192407 0.36664176 0.074264556 -0.27199417 -0.71231794 0.0656035 -0.31516558 -1.0813347 0.11599672 -0.45972994 -0.20205776 0.14480273 0.2289554 -0.06783033 -0.13267384 -0.73080575 -0.018723877 0.4931646
4013 -0.35432157 0.10523794 0.40345696 -0.3101936 0.34865844 0.33418894 0.47755915 -0.01883692 0.17690605 -0.43317395 0.038500287 -0.3116129 0.53021145 -0.14157848 0.36343968 -0.1527946 0.5769205 -0.3175032 0.4573018 -0.5015436 -0.45034367 -0.50503016 0.34868887 0.013882324 0.14285506 -0.43383545 -0.2916164 -0.36776575 0.13547948 -0.51056117 -0.20292486 -0.266065 0.42911658 0.49671558 0.007563484 -0.17388564 -0.26090774 -0.29793313 -0.44785526 -0.026226312 0.79489344 0.028179523 0.62636006 0.6272107 0.059031583 0.4603934 -0.03326517 0.37379652 0.061432105 -0.13651529 -0.1544 -0.16038138 -0.70371914 -0.060306918 0.15172127 -0.47633994 0.43810463 -0.035104804 -0.40462804 0.25177318 0.39560777 -0.19739614 0.06520642 0.25648808 -0.1318609 0.18070857 -0.079319336 -0.09166175 0.012273126 -0.4360857 0.16679946 0.5384375 -0.33183348 0.17456013 0.006602733 0.34723842 0.07249505 -0.27138776 0.26207557 -0.28381515 -0.33867285 0.43573573 -0.035482883 0.713053 -0.0130925095 -0.38616517 0.15965287 -0.26903188 0.29922748 -0.12735148 0.2152796 0.33868065 -0.10843092 0.20225485 0.22591351 -0.46584648 -0.38891676 0.67667985 -0.16619408 0.31745988 0.053172164 0.14605643 -0.12498076 -0.14099799 -0.34916922 0.3332818 0.56745964 -0.0191169 0.09014043 0.08428086 0.04284636 -0.42654252 0.042859938 -0.24945801 -0.014764091 -0.04978437 -0.27009714 -0.14585182 -0.31510764 0.6468716 -0.0580222 0.26264885 0.38956672 0.36499324 -0.20537406 0.20764251 0.3843975 0.6861039
18130 0.06501504 0.08544168 0.33676788 -0.20227686 1.1884953 0.323369 0.19530411 -0.52469313 0.34742495 0.49514562 0.23697099 -0.04532768 0.05552895 0.15783197 -0.11923966 1.2030993 0.37740925 0.33041355 0.222079 -0.6177192 -0.017256444 -0.417233 0.58167666 0.5139808 0.260962 -0.90490514 -0.03510956 0.23580883 -0.20355986 0.34825185 0.23867002 0.016734261 0.06913996 0.6700058 0.1636991 -0.03605554 0.4845717 -0.43080536 0.018757418 -0.3633523 0.2625338 -0.32481787 0.27015868 0.80508894 0.05275547 0.3192775 -0.6773366 -0.041728128 0.2506366 0.6736811 -0.1550795 0.09495236 -0.049732078 -0.5760559 0.6930536 0.4313165 -0.55756456 0.40114483 -0.28150463 0.29702017 -0.34202942 0.08590539 0.04062512 -0.42175013 0.6136015 -0.02427722 0.37579155 0.27657542 0.00071244256 -0.5178479 -0.3855735 0.59629387 0.14600092 0.19002125 -0.25536102 0.15845768 0.12439244 -0.10809163 0.84527636 -0.0019731973 0.006550006 0.5316947 -0.3778573 -0.29247126 -0.36479178 0.023086037 0.25912476 -0.48674697 0.025435654 0.067762904 -0.17818537 0.773874 0.28273043 0.098750636 0.80676115 -0.41266942 0.3652531 0.50276303 0.009622105 -0.19286492 -0.1383249 -0.4050016 -0.2957037 0.024199162 0.30392364 0.1592441 -0.48108205 -0.7541865 -0.075019464 0.44344488 -0.32500437 0.053856213 0.14565301 -0.57426184 -0.49086848 0.2150294 -0.2883189 0.0143574 -0.09070462 -0.5419944 -0.367214 0.602181 -0.21555611 0.044220567 -0.09028434 -0.0004245276 0.4986215 0.39008975
1553 -0.279873 0.052912105 -0.13512252 0.18516263 0.3854965 0.3402224 0.1598162 0.081691094 -0.44405875 -0.21885234 -0.3026838 0.17854632 0.21354035 -0.21162556 -0.275402 0.24453126 0.22735465 -0.1574399 0.40849683 -0.16123553 -0.13864358 -0.7447021 0.5158609 -0.6480018 0.073504634 -0.23398204 -0.4748701 -0.34308755 -0.80986214 -0.10087168 -0.3975125 -0.3609274 0.06186369 0.6230327 -0.15594645 -0.013098632 -0.2919072 0.08363962 -0.19601858 -0.11213905 -0.24312961 -0.17079306 0.33295396 0.908297 -0.38285 -0.6122476 -0.17104042 -0.50224304 -0.4885819 0.42353097 0.08282211 0.3298638 -0.3453535 -0.07736598 0.471957 -0.013452784 0.011592596 0.18892136 -0.5154093 0.14196074 0.48380324 0.15300862 -0.13756962 -0.21738741 0.22604325 0.25124407 0.37004945 0.19385369 -0.1318535 -0.44292912 0.5402371 0.0027324874 -1.0151672 -0.08663438 0.18433417 0.03644939 0.48977137 0.018142238 0.10586834 0.12110023 0.41728628 0.11457882 0.23432913 0.75718325 -0.16114758 -0.18659787 0.69006974 -0.06818009 -0.020241154 0.029796118 0.057038162 0.00823464 -0.0543282 -0.057991378 -0.29564098 -0.28673726 -0.13602683 -0.035807453 0.2787779 -0.37151343 -0.1673537 0.20754373 0.005858167 -0.40237212 -0.44794872 0.46991232 0.060834512 -1.133623 -0.33490798 -0.13874508 -0.12853849 -0.23983029 -0.0064168232 -0.5801338 -0.5981749 0.08621377 0.14872728 -0.043057747 -0.59418124 0.24165924 -0.09602034 0.8843501 -0.49901962 -0.6257321 -0.25222588 0.21955736 0.26280636 0.14726368
3465 -1.1213043 -0.441083 0.425901 -0.13787054 -0.2771866 0.20158142 0.06723937 -0.0061106766 -0.048610553 -0.14471968 0.83216166 0.104316175 0.4404975 -0.0067011626 1.1971104 -0.28433767 -0.22744258 -0.56924075 0.9638749 -0.5758373 0.39978963 0.313425 0.27245685 -1.4165415 -0.1614031 -0.58518374 0.7998148 -0.5110681 -0.109587096 0.2024064 0.9138205 0.36424643 -0.134827 1.2321147 -0.22725788 -0.047673166 0.16484816 -1.2499527 0.08024468 0.76425683 0.04183427 -0.64028263 0.4543764 1.2792906 0.302499 0.44114444 0.24367812 -0.2609676 -0.3163671 -0.014951698 -0.99549586 0.35516867 1.3971368 -0.21999364 0.36383495 0.49933508 -0.946666 1.0307238 -0.9549221 -1.1968769 0.91148674 -0.07773163 -0.6090292 -0.023676416 0.21787262 0.021288754 -0.42442226 -0.5509083 0.031632002 0.23325455 0.7039831 -0.16890818 -0.19097264 1.7287078 -0.11835465 0.95138794 -0.6173369 -0.41211832 -0.70966786 0.3436356 0.21770118 0.25342435 0.13402301 -0.22687156 0.4624587 -0.8511202 -0.5045484 -0.100310676 -0.33149797 -0.11007838 -0.5946186 0.47560745 -0.5196812 0.21184869 0.18340704 0.23280032 -0.858128 0.920974 1.1076139 0.23751254 -0.45277613 -0.95648956 -0.70116526 0.035543222 0.9257413 -0.45356616 1.1841748 -0.42662382 -0.011004779 -0.10879877 -0.09845675 -0.42972818 0.424569 -0.16204092 -0.2221137 0.0057042534 -0.72264194 0.93748176 0.041605018 -0.45621824 0.29966092 1.0249984 0.22637914 -1.4064003 0.5401484 -0.8451747 -0.45624688 0.2843115
29180 -0.6083708 -0.024150914 0.31476825 0.046946835 -0.2714883 0.15011677 0.49425003 0.9644704 -0.21247832 0.82668895 0.87469614 -0.6970978 1.1393698 0.6856714 0.12000998 0.50034535 0.50513995 0.11832983 0.38379723 -0.58456236 0.4750652 -0.5376835 1.0232317 -0.2832507 -0.010519279 -0.17549141 0.053864293 -0.29712477 0.5751105 -0.047933362 0.65616435 1.7243537 -0.5845187 0.41237774 -0.24434662 0.48209435 0.020991346 -0.19981174 -0.23757777 -0.40885806 0.38257718 -0.50004745 -0.061085854 0.3566692 0.33134675 0.01020679 -0.44423786 0.1926565 -0.020089032 -0.0053702453 0.44387668 0.77192366 -0.9481042 0.19969803 -0.4262579 -0.332392 -0.45680717 -0.43563554 0.019957792 -0.24830887 -0.5287134 -0.04998886 -0.59219724 -0.8719898 -0.029400101 -0.09486589 -0.8906934 -0.6798511 -0.5955012 0.09622387 1.2512922 -0.85212207 0.71362746 0.14445637 -0.72264534 0.1633267 0.4749543 -0.11808087 0.1189269 0.35553724 0.121558204 -0.17989022 0.6025164 -0.39934653 0.4788159 -0.32178125 -0.5263959 0.0039035003 -0.07620308 -1.0530216 1.1251866 0.11917739 0.07303771 0.45249295 -0.31116194 0.24121615 -0.5015482 0.73642534 0.025727589 -0.518602 0.2153556 -0.53443736 0.7560492 0.5712624 -0.8843044 0.07425627 -0.20583792 0.10275918 0.2695459 0.050251603 0.09829685 -0.7715083 0.27181247 0.5507206 -0.4375467 -0.576766 -0.35724297 -0.004772095 -0.6767274 0.54727226 0.16211732 0.6485002 0.20436312 -0.16751334 -0.33118954 -0.7570403 0.19833487 0.842625
10177 0.13743971 -0.2706557 -0.38857904 -0.120564766 -0.9697881 -0.42443973 -0.46291307 0.7213596 -0.18270667 0.35585096 0.97821677 -0.025153507 -0.4139627 0.9586701 -0.0038206063 0.68861055 1.1988351 -0.015961457 0.87923735 -0.5613018 -0.6054242 0.043815017 0.8080228 0.3630183 -0.8306151 0.4822247 -0.07738951 0.6568526 0.6288777 -0.1907609 -0.10374743 -0.45629793 0.09297643 0.14065787 -0.08381584 0.6230653 -0.21643133 -0.24957882 0.5484815 -1.1496474 0.6918942 0.22451574 0.52389866 0.2810848 1.404535 0.19226089 -1.1569991 0.8590645 0.6568012 0.8679354 0.36627212 -0.8474036 -0.39972904 -0.033008926 0.20549966 0.5180814 -0.7057776 -0.35954425 -0.6719626 0.08626109 -0.07125417 -0.2484078 -0.5422436 -0.6525439 0.18611184 1.0079075 1.0745592 -0.6823195 0.7377376 0.30391523 -1.047414 0.10525095 0.8664928 0.29406345 -0.1607692 -0.5394388 0.46104756 -0.8379561 0.16196403 0.13635749 -0.11870829 -0.30399898 0.14782026 0.2074547 -0.47733614 0.4375912 0.6125689 0.46906608 -0.10239572 0.17716089 0.76352304 0.36136472 -0.026125457 0.41742852 -0.717916 0.34958747 0.56174636 1.138283 0.62226844 -0.40276253 0.39686957 0.0041714287 0.6613055 -1.3055683 -0.32662687 -0.8081428 0.33179593 -0.79397905 -0.04457281 0.5479815 -0.32453734 -0.11672155 -0.4236219 0.029886412 -0.25323585 -0.5319199 0.1047524 -0.16696098 -0.5718542 -0.17213762 -0.16598248 -0.016005449 0.00027243447 -0.33054912 -0.33368942 -0.03969155 -0.09411454 -0.33000594
21033 -0.9875866 -0.43095687 0.3885531 -0.09358216 -0.6092449 -0.023475138 0.11412539 0.15456967 0.1724377 -0.031942528 0.53615785 -0.18082762 0.22254367 0.2518462 0.7042435 -0.15005407 -0.066931434 -0.3052096 0.6737704 -0.412793 0.17254592 0.013303926 0.4509197 -0.940271 0.12636676 -0.31614873 0.4279493 -0.4426247 -0.46193683 0.36277875 0.4484445 0.6805149 -0.136699 0.7663901 0.089357354 -0.008640908 -0.011468395 -1.3030931 0.33464924 0.76026666 -0.19331111 -0.2823188 0.5085898 1.0647795 0.18771806 0.10243123 0.20339459 -0.37888315 -0.3715906 -0.13253626 -0.3872173 0.53396726 0.7384826 -0.06430998 0.2575853 0.36817512 -0.67400795 0.9054882 -0.3236093 -0.93106896 0.43149436 0.20855135 -0.44665653 -0.22042997 0.009130406 0.3090458 -0.11276922 -0.6964496 -0.054767646 0.38214657 0.43620506 -0.014571262 0.15582281 1.3890541 -0.14032054 0.64377296 -0.6241349 -0.5844791 -0.7900283 0.28939334 -0.1851232 0.02786449 0.1778456 -0.028291546 0.4835364 -0.54696685 -0.4538422 0.29258478 -0.2002595 -0.040715173 0.06350782 0.51336 -0.22506757 0.593352 0.11789558 0.46439072 -0.6558323 0.91151965 0.57806873 0.2671394 -0.4350427 -0.841913 -0.7132479 0.19208726 0.70887554 -0.2455038 0.9971093 -0.24123189 -0.009201757 0.27423462 0.23934741 -0.41575727 0.13708434 -0.23526002 -0.3091081 0.11249133 -0.48677528 0.5971734 -0.073372796 -0.107145905 0.37666187 0.6276338 0.4530167 -0.74431276 0.3987748 -0.4098621 -0.4067949 0.10114666
6644 0.0033024526 0.1836069 0.28254944 0.48059988 -0.10815118 0.0921095 0.81371737 -0.0628456 -0.748272 0.35762915 1.1068246 0.7090798 0.6090626 0.8243465 -0.13179623 -0.060126808 0.508627 0.37012655 0.54666257 -0.6388623 0.4228611 -0.36309603 0.17144258 -0.13529037 -0.45758688 -0.08233714 -0.030188272 -0.37317082 0.13249244 -0.37470135 0.06739772 0.39981434 -0.22176608 -0.16358735 0.22865199 0.3386347 0.57372105 -0.03811981 -0.6792059 0.31168833 0.079476394 0.6473683 0.5730979 0.14853778 -0.104336336 0.21967013 -0.63461345 -0.22592303 0.15234251 0.05938353 -0.1195298 0.16804904 -0.006628719 -1.003753 0.7583029 0.27831528 -0.33132774 0.5108185 0.19509965 0.020183938 0.17087382 0.52471685 -0.16391958 -0.16548494 0.67674726 0.60124743 -0.38052642 -0.17080976 -0.27897254 -0.20608746 0.6165742 -0.2291295 0.5474328 0.021370241 -0.43246326 0.76681525 0.41910648 -0.5515482 0.3191037 0.29723316 -0.6896075 0.5477558 -0.46071318 0.21804933 -0.6649238 0.38740495 -0.32066113 -0.14819881 1.0167567 0.28981385 0.5206742 0.050768495 0.53185815 -0.11760631 -0.39895135 0.30798936 -0.6640108 0.85271585 0.4066928 -0.9353955 0.15440848 -0.1797835 0.6320599 0.5772053 -0.46306315 -0.09482369 0.15109459 -0.30472246 0.7677715 0.7351069 0.21618739 -0.24952325 -0.21192622 -0.503682 0.02991943 0.28803793 -0.5997003 -0.47697914 0.50183594 0.24017231 0.32469118 -0.007314072 0.6824925 0.0411412 0.99453604 0.2506881 -0.0021664947 0.5762286
4468 0.20195039 0.4193697 0.3339236 -0.033993766 0.15115678 -0.3232264 0.26998776 0.039488245 0.18992501 0.17207749 1.2873687 -0.40410328 0.0034399787 -0.2740422 0.56841654 0.5424486 -0.3465866 -0.2235466 0.50466895 0.47013813 -0.3666278 -0.6796035 0.1747248 -0.20027058 0.20182498 0.078086466 0.3116181 -0.4169422 -0.21198116 -0.5104487 -0.60474485 -0.3044189 0.44142702 0.3193528 -0.61612695 -0.017132003 0.1732955 0.47743613 0.17240036 -0.25995865 -0.5781802 0.50806135 -0.45872664 1.0665087 0.40122598 -0.1101451 0.32058305 0.46439567 -0.23900199 0.87195927 0.4389412 0.68834287 0.14421777 -0.4476508 -0.22821088 -0.2287048 -0.6889268 -0.1274364 -0.058997076 -0.29880002 -0.23022863 -0.6438829 0.37380835 -0.7365137 -0.35679737 -0.39339858 -0.17189929 -0.57962126 0.10562341 -0.29421684 -0.333289 0.33390272 -0.022800652 0.24458934 -0.47694454 0.20268494 0.071071945 -0.14604276 0.6113748 0.23443002 -0.24619906 0.618095 -0.30121788 0.53766966 0.22333308 -0.12222756 -0.36635867 -0.7418161 -0.190848 -0.5338463 0.10486928 0.45736617 -0.408871 0.30279687 0.1590072 0.14567904 0.47950506 -0.19997463 0.05855651 0.14146306 -0.8088737 -0.24351236 0.5174466 0.07521857 -0.47865605 0.6920767 0.093278795 -0.62697995 -0.3697057 0.14010689 -0.9894155 -0.8242838 -0.4792938 0.48871592 -0.38282552 -0.10706844 0.1543756 0.13616101 0.16095017 -0.13536002 0.3825428 0.60539615 0.809498 0.113159426 0.14527448 0.44771212 -0.73706573 0.10037316
3563 -0.16286433 0.24351104 0.53326863 0.17658675 0.19353577 0.11233482 0.48624426 0.105402626 0.5392395 -0.46430734 0.31108454 -0.5893086 0.5102021 0.08508975 0.4370106 -0.11264207 0.6495353 0.120618306 0.5803894 -0.5133121 -0.12174075 -0.11182712 0.5125843 -0.08967121 0.40578562 -0.5323785 0.0059624882 -0.16082825 0.032649424 -0.10226833 0.17893964 -0.059622645 0.12104998 0.3423702 0.22820725 -0.02287001 -0.06574187 -0.06117716 -0.46784487 -0.30149588 1.0358166 0.026087359 0.6688906 0.47628486 -0.45866317 0.1201703 0.23179051 0.48569697 -0.027212888 -0.19240421 -0.115971066 -0.19422166 -0.36577076 -0.06638944 0.27523014 -0.3470438 0.42697453 -0.44146788 0.025739131 0.19506049 0.2902056 -0.18033792 -0.17830989 0.005029291 -0.37376657 0.17248352 -0.07782573 0.36492747 -0.1942256 -0.20175762 -0.04056243 0.22371568 -0.20594741 0.4809174 0.1312992 0.074142225 -0.28297037 -0.22008361 0.52633077 -0.47897047 -0.42961404 0.32500905 -0.059398558 0.45995912 0.06980304 -0.049538795 0.32172477 -0.2672422 0.26631054 -0.18823606 0.051925562 0.1646854 0.17953873 -0.15685505 0.039968643 -0.20760868 -0.40624633 0.70785075 -0.19802524 0.12000708 -0.016783707 -0.02297909 -0.31965068 -0.12421799 -0.308702 0.18139112 0.21297096 -0.10811543 -0.010178848 0.3893574 -0.12885214 -0.58326674 -0.026670758 -0.12625103 0.1140284 -0.29000726 -0.19399416 -0.15290178 -0.12324275 0.25870556 0.18856181 0.29778904 -0.01917839 0.06640788 0.1484987 0.16931187 0.5166285 0.6334582
248634 0.5239131 0.0370914 0.7701254 0.6855134 0.039745674 0.5458022 0.1033889 0.10632756 -0.5949348 0.53695023 0.07449777 -0.119016886 0.73317826 -0.02956297 0.21577135 0.29369268 -0.022315187 -0.24244273 0.6133295 -0.9170508 0.21762048 -0.7777633 0.5434772 0.10656098 0.5541698 -0.5117557 -0.15205823 0.36076105 -0.17770146 -0.60763437 -0.0055939355 -0.5991167 0.1360969 0.38704267 0.098708086 0.12242719 -0.3740385 0.08262604 -0.59433943 0.24964288 0.45847657 -0.008353071 -0.4315624 0.5753676 -0.54694176 0.04852328 0.020109288 -0.09027535 0.10256808 0.3376929 -0.14103925 0.57635444 -0.20396626 -0.48419338 0.37594032 0.3227086 0.2107559 0.19129215 -0.45537946 0.40152866 0.20570454 0.38235104 0.15603393 -1.149077 -0.36305073 -0.2571794 -0.56083953 0.20863064 0.804172 0.35067376 0.12820089 0.5087159 -0.2928975 0.4310502 -0.050298214 0.1861102 -0.40566832 -0.6563751 -0.44076923 0.03973811 0.056580976 0.33637333 0.19852087 0.20813872 0.538975 0.21291178 0.18015179 -0.029348774 0.059281956 -0.043510042 -0.021420848 0.3827979 0.64824355 0.2184278 -0.33229733 0.29783517 0.63107187 0.27469352 0.3093914 0.09153015 -0.4013616 -0.61488783 -0.17129944 0.037158333 -0.46797445 0.51031154 -0.01115169 -0.78017545 -0.30241475 0.2903004 -0.31263357 -0.22153701 0.1769868 0.07648853 0.7427518 -0.19383556 0.20797534 0.30253264 0.006150836 -0.10732216 0.43492147 -0.20082398 0.6160605 -0.14944786 -0.3082846 -0.36989027 -0.0021408894 0.3042846
9136 0.36440983 0.63804644 0.53848886 0.216912 0.18038937 0.20369081 -0.22147745 0.14407288 -0.27727044 0.022223014 0.05209101 0.02068172 -0.1295644 0.16841301 0.2490025 0.16398521 -0.50300837 0.027662136 0.7638309 -0.3571842 -0.15714563 -0.60244685 0.751478 0.28628194 0.15288584 -0.33599496 -0.1616708 0.20362504 -0.54888785 -0.039343756 -0.101800025 0.17897922 0.0045639747 0.67500794 -0.1374837 0.18268348 -0.28413138 0.2480317 -0.23245335 -0.19680679 -0.23145264 -0.014467855 -0.55631393 0.27051568 -0.33057702 0.4739826 0.274778 0.3603129 0.633081 0.48103088 0.028827224 0.7163924 0.107919246 -0.27696723 0.10126995 -0.033136323 -0.02495669 -0.017560564 -0.37902325 0.2194811 0.05552346 -0.103536166 0.23711929 -0.22331569 -0.23659943 0.06253755 -0.4211177 -0.26324207 -0.29390267 -0.22284742 0.23787683 0.027879456 0.32173887 0.12901823 0.3748847 0.46077424 -0.2614395 -0.63225055 0.038894944 -0.6202726 -0.07411087 -0.10636263 0.30663142 0.05289725 0.23155645 0.26353487 0.054698776 -0.03853933 0.3430421 -0.3794647 0.047183603 0.00022633986 0.047773845 0.23951308 -0.47536573 -0.21504867 0.007982132 0.27718273 0.56772304 -0.06745764 -0.05480829 -0.32377756 -0.10320781 0.06743931 -0.21877293 0.10692074 -0.23665328 -0.7227668 -0.2784865 0.34933403 -0.11078237 -0.5340069 -0.296663 -0.31036898 0.11786222 0.053608093 0.11570889 0.0915713 0.12675485 0.06722597 0.0246716 -0.26300976 0.47638366 0.21083103 -0.17703311 -0.4415347 -0.04029184 0.3082904
5395 -0.25876555 0.09632371 -0.30829695 0.51018536 0.17580396 -0.22043149 0.47548038 0.26701 -0.008961636 0.24897401 -0.13337627 -0.07281511 0.21516591 -0.16813152 0.19064231 0.87288815 0.4825951 0.019273333 -0.029161923 -0.4279791 -0.17568107 -0.92184305 1.0004743 0.027494475 0.09768041 -0.7368454 -0.37410718 -0.3340206 -0.5117045 0.43546978 -0.7428049 -0.02540909 0.19534157 0.7094083 0.07811021 0.06209939 -0.21857102 -0.08752464 -0.29872558 -0.2975607 -0.4434457 0.18128343 0.26074532 0.5611849 -0.18526909 -0.33048278 -0.36453128 -0.031704772 -0.25807413 0.058157373 0.7249482 0.5022768 -0.20759946 -0.52040565 0.7941327 -0.10331566 0.25314602 0.36354756 0.094626285 -0.013911271 0.35328102 -0.13466945 -0.3616122 -0.3302101 -0.30601835 0.6193484 0.56474113 0.14947324 -0.24247745 -0.6601328 0.33676162 0.086925544 -0.2852431 -0.21666424 0.18093279 -0.32365122 0.053465597 -0.157061 0.14827201 0.08874013 0.52690405 -0.43692714 0.42186287 0.69032854 0.55184585 0.30000922 0.2817611 -0.06493608 -0.26748037 0.06677494 0.080580235 0.046744425 0.061857063 -0.3318421 0.1073507 -0.06954043 -0.66911453 0.29681793 -0.15948771 0.2504299 -0.20302019 -0.63401735 0.056966458 -0.69155556 -0.029801127 0.027182916 0.13901508 -0.7827901 0.32836416 0.58483994 -0.16420972 -0.29594183 -0.11419148 -0.30139467 -0.3726477 0.10521084 0.1848085 0.22210826 -0.12672721 0.5693667 0.45005697 0.73936355 0.1322744 0.011714238 -0.46193334 0.48552832 0.17721692 -0.15333225
1632 -0.087291114 -0.20036557 -0.32759115 0.28988665 -0.08703245 0.5788814 -0.23884352 -0.11199784 -0.1356785 0.12074791 0.1884849 0.1622311 0.23460601 -0.27465868 0.21294895 0.37547985 0.17260669 0.34535196 0.03428912 -0.4104855 0.59380466 -0.22722325 0.03920494 -0.03861953 -0.3071807 -0.76672083 0.06946417 0.030613216 -0.4115179 -0.11001503 -0.2305248 -0.26252383 -0.18267995 0.5123272 -0.21058582 0.08273692 -0.29239133 0.24648724 -0.38209704 -0.29531324 0.17394502 0.13359597 -0.25661576 0.93668425 0.0920847 0.00220778 0.14597702 -0.19547161 0.30288857 0.08162649 0.15183021 0.6523134 -0.21955675 -0.25593853 0.30132648 0.3298659 0.15929362 0.016392538 -0.134851 0.26734525 0.3298265 0.432972 0.020790324 -0.22432019 -0.10487862 -0.31635126 -0.57934004 0.27014384 0.20641002 0.04698611 -0.004589463 0.08603691 -0.19903821 0.38045907 0.29521853 0.5215318 -0.29445404 -0.610901 -0.07480749 -0.5580977 -0.6920899 0.4065326 0.018153852 0.6371934 -0.05427653 0.09526995 0.2249393 -0.121043324 0.34756744 -0.30983943 -0.3246883 -0.2733628 0.092299804 -0.2283692 -0.34492427 -0.38756305 0.3721896 -0.09440141 0.13346013 -0.20818491 0.0025086578 -0.62769014 0.52153724 0.5897126 -0.67165786 0.31585914 0.36145875 -0.6167254 -0.24035148 0.63727397 -0.016334627 -0.47813538 -0.3246 -0.25226364 -0.11046239 -0.12697086 0.26446724 0.43586555 -0.0977758 -0.14598419 -0.11570547 -0.056104414 0.54464734 0.17196134 -0.2611856 -0.84831464 -0.059488658 -0.054661576
4792 -0.5846528 0.28719607 0.061389454 0.16221072 -0.031976514 -0.22342083 0.28419685 0.09352661 0.08878981 0.13276406 0.3336863 0.32177135 0.1591673 0.1695006 0.54620135 -0.21625595 0.35504547 -0.22182909 0.18124375 0.13374181 -0.15477617 0.49421078 0.43917018 -0.17322838 -0.23630351 -0.0051782764 0.47840494 -0.2752146 -0.35504526 -0.21427792 0.14393699 0.32491308 -0.8426001 -0.3916095 -0.3629415 -0.0994012 0.51611054 0.10066615 -0.20619668 -0.029911846 0.12871367 -0.20659849 0.29986432 0.105545886 -0.40763083 0.32389522 -0.3567039 0.19016 -0.12899728 0.10015164 0.29805636 -0.868158 0.06226874 -0.23008549 0.43177533 -0.090764426 0.18186978 0.12731116 -0.4798329 -0.48744842 -0.29059055 -0.37187368 -0.43125182 -0.6384381 0.018962909 0.3046635 0.015559415 -0.3191438 0.63197756 0.32417488 0.082526505 0.4879679 0.59443414 0.607773 -0.40292448 0.2923466 0.6091559 -0.5221636 0.22817905 0.077393554 -0.06798612 0.3082694 0.31254694 0.18768518 -0.14152521 0.16972749 -0.065681644 0.0690011 0.20621748 -0.033368856 -0.6261471 0.526712 0.06372437 -0.12981558 -0.80965686 -0.5721733 0.014088442 0.86064905 0.47226277 -0.038725406 -0.26204744 -0.5051829 0.13393873 -0.25385308 -0.29533768 -0.34917572 -0.28667262 -0.3289882 -0.059205044 0.22070025 -0.9274291 0.04618663 0.10274714 0.0057120877 -0.43367562 0.20352088 -0.5510562 -0.6440448 -0.12804867 -0.12071314 -0.18838648 0.09854571 0.24343953 0.089139335 -0.44534126 -0.5359246 -0.016742544 0.082465194
1331 -0.18705961 -0.1524342 0.16230017 0.042886518 0.15469413 0.106197715 0.059903994 -0.28532386 0.33040228 0.2725133 0.33610165 0.48447996 0.22249503 0.1413249 0.0012840279 0.49166343 0.0938125 -0.2244371 0.71515715 0.004687315 0.20668468 -0.67221725 0.0607776 -0.54060245 0.09963573 0.6341432 -0.15122543 0.17987709 0.14946753 -0.43347645 -0.050724175 0.019664114 0.26646566 0.49483362 0.29954514 -0.28020915 0.30305877 0.30488274 -0.2042416 -0.12856627 0.6532927 0.36487854 -0.5182703 0.6152946 -0.27737018 0.04314226 0.12259015 0.5995474 0.03678702 0.7097199 0.16611075 0.29787275 0.49870852 -0.19704165 0.59708554 0.25483137 -0.009642664 -0.13102858 -0.50798434 0.055215843 -0.2662327 0.113905504 0.02156538 -0.42327103 0.09784953 -0.32169938 -0.5749375 -0.023957495 -0.11301025 -0.08896748 0.06644849 0.016211296 0.09719124 -0.038793527 0.38048133 0.28019962 -0.1441569 -0.23008893 -0.03490833 -0.0061004544 -0.28315294 -0.27534822 0.5457491 -0.33159098 0.16577944 0.20651136 -0.17222992 0.094325475 0.074588686 -0.054601748 0.34760982 0.4443562 -0.5649964 0.034750804 -0.21312001 -1.0669246 0.5668647 1.0214609 0.30660218 0.4735873 -0.11232779 -0.43086287 0.8352402 0.1627181 -0.31034878 -0.11277125 0.8403951 -0.48523867 0.26510447 0.59791905 -0.010629192 0.097278126 0.062257018 -0.06685972 0.6101986 0.61578447 -0.18928607 -0.06009752 -0.73116535 0.43127307 -0.24529615 0.37838578 -0.34596127 -0.094120026 -0.40957722 -0.0277285 -0.2679934 -0.3160359
13382 0.3302223 0.5738813 0.3724576 0.18286966 0.8984174 0.18680274 -0.066480465 -0.14735696 -0.0979342 -0.30683684 0.0028395928 -0.5901234 0.43773782 -0.5186312 0.91200745 0.14095119 -0.38940758 -0.050415665 0.44021493 -0.19901577 -0.63343 -0.68336296 1.4291893 0.34802854 0.010505949 0.090361685 -0.1972453 0.365045 -0.29338837 0.14426358 -0.16143525 0.24295494 0.21700168 0.89898777 -0.63440454 0.72615016 0.042535864 0.35483876 -0.46301526 -0.08188824 -0.03858589 0.04160608 -0.5729102 0.45116237 -0.25165784 -0.5270571 -0.21574502 0.10372098 0.63721997 0.67849207 0.022992069 0.7285093 0.06891998 -0.79152924 -0.018311162 -0.38383484 -0.15371354 -0.54865617 -0.39031348 -0.28499904 0.3200208 0.20606308 0.33851606 -1.2021222 -0.38206354 0.18647082 -0.39366147 -0.3364722 0.17803596 -0.1700119 0.41988456 -0.291573 -0.0044996226 1.1405103 -0.133064 0.7618771 -0.2207512 -0.2361744 0.15962036 -0.6398053 -0.5341296 0.1713529 0.49133086 -0.09074632 0.048059233 0.8965452 -0.016252562 0.013531745 0.019900259 -0.53660196 0.39205772 0.6625016 -0.1322146 0.40634957 0.41256332 -0.1620692 -0.42689192 0.08469321 0.30852452 0.12994875 -0.26063192 0.07817033 -0.14887644 -0.1436865 -0.2205261 -0.10595213 -0.100540794 -0.79640895 0.17789641 -0.10466842 -0.49699068 -0.1482773 -0.35544804 -0.41184175 0.15291964 0.38789842 0.2716914 0.010541759 -0.019096877 0.20695166 0.17140333 -0.50016284 0.47355726 0.112857886 -0.5013236 0.05374512 -0.50254667 0.08455792
17532 0.23903242 -0.4389518 0.4199283 -0.13475482 -0.11379831 0.6368031 0.146427 -0.25042027 0.30366075 0.6571036 0.5963 0.24043691 0.0046070665 -0.22394924 0.07419327 0.7263643 0.26061025 -0.32062134 0.66436857 0.28971064 0.4915261 -0.11801387 -0.14124766 -0.13273114 -0.48986146 -0.25164464 0.6364066 0.4143051 0.27319354 -0.5063872 -0.5839562 -0.18962106 -0.13864507 0.4964062 -0.3840592 0.48005727 -0.31266344 -0.006175872 -0.2048445 -0.86089975 0.29785615 0.58597225 -0.32263553 0.7917419 -0.85513866 -0.6716116 0.12555182 0.3564449 0.45892036 0.057409596 -0.08764952 0.37839025 0.20099954 -0.6153409 0.28235853 0.89374954 0.031497814 0.17600001 -1.075848 -0.19358169 -0.008887089 0.35077634 -0.45308515 -0.44702417 -0.63464546 0.49941102 -0.5761512 -0.3061241 0.27151158 -0.6310021 0.6168725 0.26114568 -0.29652625 0.015798906 -0.005346522 0.1873568 0.105367 -0.40366298 0.2076339 -0.42736316 -0.79283667 -0.3343392 -0.46530688 -0.13512015 0.453987 0.08128387 0.3165678 -0.5239304 0.11715861 -0.23653421 -0.15577184 0.5085459 -0.81670517 -0.13832277 -0.34951547 0.38222316 0.83062905 0.46720645 -0.070467114 0.58940214 0.11650187 -1.2502037 -0.24566813 0.1942453 -0.27935803 0.064173326 0.453542 -0.45535362 0.118900456 0.30317274 -0.35250393 -0.4977093 -0.639199 0.08211535 0.3350635 0.17994674 0.41506588 -0.13801822 -0.8063925 0.93524337 -0.043859694 0.37343332 -0.2971851 -0.32859826 0.6431799 0.07180606 -0.07995805 -0.26307714
18957 -0.10168333 -0.2383526 -0.044674717 0.17963687 0.19408962 0.43883002 -0.19595464 -0.09521868 -0.19494647 0.3042558 0.23133467 0.2938578 0.27901286 -0.5121138 0.06061474 0.4543793 0.17221896 0.25707886 0.028367626 -0.17496188 0.5280297 -0.24035493 0.09698201 0.03407536 -0.37496993 -0.6380048 0.1820473 -0.0974874 -0.35833594 -0.13122849 -0.16043569 -0.27411512 -0.2296293 0.70708036 -0.21614777 0.13817222 -0.27114743 0.34526053 -0.5460896 -0.29394367 0.11750658 -0.14909783 -0.31210187 0.92194563 0.16233534 -0.007161739 0.20768231 -0.25358766 0.26359552 0.2489128 -0.027502896 0.70152164 -0.18701719 -0.18543354 0.19585711 0.38353646 -0.13903214 -0.17421348 -0.3273763 0.16756357 0.23829354 0.4038231 -0.16943172 -0.2673932 0.092205316 -0.41609037 -0.56012774 0.23753634 0.14854951 -0.02457275 -0.16454412 0.13580704 -0.3183022 0.49412188 0.31799123 0.30920723 -0.3599796 -0.6671967 0.108533144 -0.57123333 -0.80860615 0.43223596 0.07021932 0.73685694 -0.11546082 0.26647148 0.07616537 -0.022817334 0.39526838 -0.31939605 -0.28017673 -0.24119116 0.023758572 -0.21737754 -0.38714877 -0.39298707 0.37475824 -0.14255306 -0.055151157 -0.30687118 -0.52404225 -0.6270943 0.40171567 0.53402436 -0.56553406 0.39715406 0.28926888 -0.73718196 -0.13257591 0.769626 0.13587922 -0.32798994 -0.2712009 -0.21289104 -0.009087804 -0.02745797 0.3115029 0.45899093 -0.052700896 -0.10335436 -0.035194065 -0.036197584 0.65694046 0.18409488 -0.15656726 -0.8160923 0.014477375 0.040783826
5291 0.21114498 0.06135869 0.6104183 -0.106705844 -0.29922405 0.37343168 0.44234163 0.050990865 -0.0232518 0.80376196 0.5522132 0.26106617 -0.28034613 -0.2348524 0.17631283 0.39533925 0.23786248 -0.2959382 0.57425934 0.048318554 0.43470308 -0.14462177 0.37291503 -0.10655015 -0.31810218 -0.5007907 0.5418027 0.28056005 0.29355317 -0.63694936 -0.5504056 -0.114235625 -0.4435684 0.037908923 -0.08308665 0.49568838 -0.36116952 -0.13602662 -0.26070023 -0.42896172 0.19653347 0.25484303 -0.41722926 0.552133 -0.68814576 -0.71656525 -0.20263232 0.26339123 0.5049119 0.053703018 -0.18942167 0.11016429 0.058612373 -0.32287058 0.25983945 0.20034158 -0.20226842 0.1958147 -1.0851412 -0.12067502 0.06152724 0.24406917 -0.6299537 -0.2848899 -0.13049333 0.22705956 -0.5493809 -0.1885187 0.30447498 -0.3275351 0.4249586 -0.010271377 -0.33256125 0.23438649 0.5895081 0.32675618 0.115107775 -0.54488283 0.41660103 -0.29353705 -0.2124688 -0.38050193 0.06756186 0.0041766064 0.41613293 0.15512386 0.51430285 -0.3283914 0.20917228 -0.34379217 0.023704853 0.32027948 -0.4781323 -0.0793359 0.11473235 0.7154053 1.140933 0.601528 0.18316486 0.5218605 0.42527646 -0.50825286 -0.2505404 0.78872496 -0.3450321 0.11131244 0.2928334 -0.47527838 -0.3412111 0.56332743 -0.23396263 -0.4169005 -0.5802851 -0.14719535 0.23312046 0.32037792 0.16482879 0.3502297 -0.3613182 0.7602978 0.16698985 0.5564168 -0.0498354 -0.13744654 0.6571099 -0.23765473 -0.087404616 -0.0017071129
6841 -0.30922708 0.061878107 -0.50961274 0.4995373 -2.1874444 -0.15612042 0.8169208 1.1153197 0.52286196 -1.474969 0.54383564 0.5368877 0.5901733 -0.120755315 -0.07889884 1.0690476 0.3384011 -1.2906312 0.22921182 -0.35965598 -1.0175352 0.0067839962 0.114945404 -0.10479168 -1.743363 -0.9018553 0.77535146 -0.91026676 0.55005276 -0.09837275 -0.57229453 -0.14709535 -0.2140885 0.8419452 -0.6780546 0.5997797 1.0208249 0.22583263 -1.6482835 -0.81925887 1.7399708 0.8563778 -0.138295 0.6361002 -0.6714395 0.38253936 -0.7948452 0.27554992 -0.41240287 -0.43046355 -0.005918215 -0.43947405 0.3205632 -0.20208737 0.20695564 0.59504455 0.13773946 0.58408374 -0.6384966 0.75544804 0.3104604 0.71531 0.45191535 0.43239322 0.26115873 0.67173994 -0.9323194 -0.1663934 0.72283477 -0.43233672 -0.19971775 -0.103404894 0.8712406 1.1072655 -0.90826607 0.2993818 -0.37565786 0.32622224 -0.60989213 0.22259982 -0.8751048 -0.2680144 1.0742569 0.19196466 -1.063077 -0.33751848 0.5456917 0.086164184 1.1040144 -0.9027309 0.6045762 0.536145 1.0493912 0.8880781 -0.016584907 -0.3949267 -0.30734944 1.5040157 0.5212603 -0.6998265 -0.37964275 -0.8378516 0.291063 -0.14382148 -0.3517939 0.9455059 0.050767068 -1.4086179 0.09544214 0.3381375 -1.1120244 -0.7721026 0.89760935 -0.6434789 -0.5413089 0.15288927 -0.19513331 0.7392725 -1.0208492 -0.22981967 0.25096408 0.8901397 -1.1301624 -0.2704885 0.26911402 -0.44383904 -0.37394196 0.34008488
1016 0.17428127 -0.055474848 -0.0016455741 0.5010114 -0.61926305 0.06004705 -0.46489614 -0.4045626 0.49247247 -0.07340949 0.19974877 0.27506644 0.13226378 -0.17433497 0.30339634 0.46383163 -0.14491801 0.38406086 0.9033472 -0.16177104 0.08178708 -0.34918582 0.5234479 0.18029863 0.26129094 -0.5522381 -0.33825126 0.5906208 0.70103014 0.017018996 -0.33128735 0.17319709 -0.08373694 -0.038792714 -0.19697803 0.02123675 -0.64536816 -0.31651556 -0.023114435 0.020825032 -0.20155825 -0.443871 0.34742618 0.3029535 -0.3022316 -0.13541193 -0.0050132307 0.22447254 0.046185248 0.8770924 0.112700514 0.0122464495 0.23983222 0.0033184309 0.093186505 -0.061992746 -0.013402089 0.19801642 0.31296188 0.068125665 -0.020963 -0.51313657 -0.035055894 -0.85586405 0.36359608 0.7014529 -0.15300557 0.22698575 0.18770428 -0.08650649 0.22729495 0.5358461 0.05369962 -0.27172124 0.037076306 0.28000256 -0.16386734 -0.26103124 -0.120579466 -0.37246302 0.22906068 0.44266832 0.729806 0.64001083 -0.13749047 -0.34330365 0.25811052 0.21557178 0.33606037 -0.35904232 0.13033241 -0.22050853 -0.27476683 0.42843205 0.16114628 -0.26406136 0.57035923 0.0045043235 -0.8889756 -0.16843717 -0.5998648 -0.19352596 -0.5079242 0.16811517 -0.35234693 0.24450499 0.21243991 -1.0121444 -0.02684146 0.38681558 0.0118254125 -0.18504903 -0.16285262 -0.6542355 -0.054171458 0.07576761 -0.54210943 -0.3984243 -0.06321371 0.27278572 -0.10007406 0.07682531 -0.016362447 -0.26893216 -0.09920805 0.16823949 0.31606516 0.1057613
15360 -0.59071887 0.21666494 0.63141364 -0.15949257 0.5542727 0.17045254 0.15618609 0.14132243 0.24641444 -0.8990657 0.27003562 -0.56241375 0.45257327 -0.006784907 0.07916712 -0.06553027 0.86519057 0.1659753 0.53003544 -0.59647906 -0.73731244 -0.26017642 0.5911734 0.15492919 0.41949725 -0.59026235 -0.20399076 0.03922783 0.096133985 -0.6014962 -0.03715365 -0.0569131 0.12749246 0.47827327 -0.071222536 0.2507935 -0.093469374 -0.29291505 -0.35364187 -0.11232669 0.896673 -0.021736579 0.530114 0.47669813 -0.2812369 0.16525966 -0.08457533 0.22967237 -0.16145161 -0.31442428 -0.06340395 -0.26542103 -0.2644486 -0.14328268 0.75501895 -0.61868256 0.35361487 0.029374465 -0.14360286 0.25013882 0.16912588 -0.22946699 -0.05182698 0.13543168 0.034692578 0.29071265 0.071807854 0.28353494 -0.21377625 -0.4856123 0.22117016 0.4078045 -0.50759053 0.49263442 -0.0063975765 0.27384382 0.09628515 -0.39071912 0.1044563 -0.49192265 -0.29589647 -0.0024730137 -0.13136569 0.84510344 0.1576207 -0.07393911 0.33076105 -0.5594161 0.04007799 -0.064041555 0.17716621 -0.049795546 -0.19030975 0.19872172 -0.15206295 -0.07903723 -0.2336637 0.5129367 -0.26859725 0.26347253 -0.15565707 0.14738812 -0.2527543 -0.37108868 -0.56408626 0.105866104 0.3689819 0.065882996 0.19883727 -0.042687163 -0.077827275 -0.40174946 -0.06563876 -0.12637533 0.14187941 -0.0686252 -0.5054382 -0.30084005 -0.43390712 0.2757935 0.15179127 0.30815193 -0.07412475 0.112766586 0.19549075 0.22451973 0.41964585 0.609333
2911 0.15988882 -0.10156682 0.19926116 0.4163522 0.0813677 0.093351044 -0.12858646 0.16934636 -0.24723119 0.24809863 0.22204414 0.14455947 0.16208461 -0.2172456 0.36125457 0.26036397 0.123517096 0.09843336 0.35398296 -0.6101066 0.3183105 0.093732044 0.12781559 0.092754714 -0.19836096 -0.1859331 -0.45667547 0.26304093 -0.14626431 -0.31608352 -0.077954 -0.17549631 -0.14261204 0.20668359 -0.17324562 -0.09854987 -0.2665026 0.030132249 -0.08916102 -0.19633093 0.3561317 0.36065388 -0.6448402 0.90071887 -0.4500703 -0.27751106 0.05965221 -0.1089705 0.00636761 0.0696516 0.34242323 0.44852406 0.08350355 -0.43770772 0.1022513 0.09383673 0.079461224 0.008757738 -0.24808857 0.012548174 -0.3191962 0.21035841 0.4295383 -0.6751006 -0.09040397 -0.10800373 -0.37932903 0.22858243 0.004577885 -0.20624013 0.027649216 0.36363116 -0.5328118 0.37180454 0.33014962 0.41208032 -0.09335628 -0.52467304 -0.34759048 -0.15141252 -0.10874527 0.28633252 -0.16407025 0.3642287 0.054967795 -0.38190824 0.23332763 -0.015341352 0.25283846 0.012739318 -0.03645013 -0.18199572 0.3182966 0.0025115053 -0.2738992 -0.20005247 0.18504421 0.37816167 -0.2078016 -0.24887429 0.20937246 -0.35778993 0.09314332 0.41377005 -0.15211366 0.21155833 0.13120253 -0.56488246 -0.23246327 0.36146376 -0.13201672 -0.60804284 -0.366236 -0.051596373 0.06923573 -0.34099302 0.23267348 0.018274738 -0.33675483 -0.14065003 0.0037436194 -0.4380318 0.5663253 -0.028606502 0.21466811 -0.3904213 -0.03349367 -0.22112179
6151 0.22762604 0.27977234 0.23945962 -0.03394298 -0.70130587 -0.5473236 0.28789288 0.13960734 -0.46638566 -0.16241461 0.63666874 0.34927502 0.18612158 0.40209094 0.33513263 0.26905394 0.0698754 -0.041441243 0.43857428 0.06640486 -0.70135814 0.06325512 0.21654877 -0.7162022 -0.65081024 0.11495798 0.22819476 0.8137058 -0.32836506 -0.15492149 -0.16019763 0.4153217 -0.06400291 -0.13277031 -0.13793734 0.36939177 -0.053531945 0.43361828 0.6125591 -0.28196508 0.4895197 0.019631924 0.599999 0.85743207 -0.31094536 -0.07337077 -0.58213764 -0.027915923 -0.42135006 -0.17912908 -0.41211036 -0.52707475 -0.2588814 0.09606525 -0.28787586 0.68609965 -0.6673193 -0.4157853 -0.3882267 -0.02205542 0.004586148 0.33147442 0.005513309 0.032842513 0.10231886 0.41585198 -0.17532316 0.3801636 0.44067705 -0.04938292 0.007533385 0.14486699 -0.11937812 0.13237572 -0.32451987 0.07890077 -0.22603135 -0.596346 0.15281239 0.07811865 0.27610588 0.059722655 0.06288084 0.55015343 -0.52152807 0.59088266 -0.17584214 -0.63771206 0.27806002 -0.07709105 -0.4811164 0.009844198 0.65945524 0.23395054 -0.07540588 -0.21904038 -0.26787037 0.33022875 0.72962594 -0.3217694 0.113606885 -0.51858157 0.09007344 0.030272225 0.2644965 -0.49391806 0.13557142 -0.061250657 -0.40928712 0.41058066 0.060579903 0.29156998 -0.13149585 -0.10221568 0.32757705 0.6542683 -0.030935228 0.35479832 -0.25562346 0.7847655 0.16613631 0.57751405 -0.018190408 -0.35515058 -0.6805924 -0.26858243 -0.054524746 0.5706691
25296 -0.41580668 -0.045109745 0.7013488 0.090130575 0.15917383 -0.44235197 0.23522943 0.019048713 0.022864098 -0.39933354 0.006581814 0.029893044 0.86674386 -0.0725281 0.9624369 -0.2558948 0.6557643 -0.38098994 0.4091787 -0.36303905 -0.11668105 -0.019821987 0.7338232 0.0069546117 -0.1706039 -1.2835907 -0.6370897 0.088416144 0.25300995 -0.38325694 0.35069466 -0.013586394 0.43350518 0.269035 0.26718736 -0.3015547 -0.081671625 -0.060301647 -0.41730705 -0.8516675 1.1362535 -0.21014538 1.0739847 0.12317616 -0.30620944 -0.20279089 -0.22737846 1.0876768 -0.22663112 -0.19520569 -0.024400823 -0.008649698 0.12793003 0.25655422 0.11593493 -0.1508866 0.7480274 -0.2805947 -0.025148924 -0.015383118 0.10704369 -0.20117547 0.6757963 -0.51262593 -0.46126977 0.2739162 -0.0026109915 0.046036243 -0.28846303 -0.012861951 0.33485794 -0.06046396 0.15552592 0.40231368 -0.5139067 0.13983434 -0.26995665 0.5894743 0.60780776 -0.28725907 -0.25385022 0.6309458 -0.117476925 0.33382076 -0.0052260133 -0.15195966 0.25127906 -0.48449695 0.26160887 -0.61168 -0.32887757 0.6652075 -0.39956748 -0.5667448 0.10586569 -0.12844028 -0.09507662 0.6247263 0.14258265 -0.029810416 -0.27703658 -0.49969298 0.23788342 0.068153195 -0.07338932 -0.11164641 0.19897267 -0.24361075 -0.4488738 0.57904196 0.5009422 -0.5282248 -0.33147156 -0.15882602 -0.41593698 0.1747702 0.26803038 0.41145435 -0.2965957 0.5126959 0.8628863 0.35150838 0.37418708 0.075031936 0.53989273 0.41762206 0.015434058 0.44293174
11255 -0.25417584 0.004716478 -0.5132843 0.44815332 -2.2379346 -0.100807145 0.8731338 1.087004 0.5390935 -1.4547559 0.6029655 0.5837582 0.65483975 -0.14854199 -0.20897126 1.0657756 0.32887653 -1.3135524 0.23352014 -0.44257933 -1.0410079 -0.07159008 0.1428358 -0.12042099 -1.775887 -0.9605463 0.7914026 -0.9963574 0.5689301 -0.029191675 -0.52160335 -0.16938572 -0.20909339 0.94683194 -0.58226985 0.629267 0.99686193 0.2174197 -1.6088686 -0.78613013 1.7082586 0.8505465 -0.018996308 0.6879905 -0.6336807 0.29726946 -0.7807935 0.34995314 -0.5532398 -0.46640238 -0.0031624818 -0.4357561 0.2811912 -0.321699 0.2064583 0.508756 0.14293587 0.65391904 -0.660632 0.78351563 0.3545185 0.7982517 0.4043707 0.5348999 0.3157231 0.59228534 -0.83196646 -0.22765797 0.6927574 -0.51615846 -0.22672752 0.0070462497 0.8868997 1.1097915 -0.97428876 0.3830706 -0.36960128 0.36783665 -0.60474586 0.19953768 -0.8425488 -0.28492367 1.2237725 0.2339298 -1.0084531 -0.2915588 0.49951172 0.009362952 1.0372621 -0.9319731 0.5166057 0.42626935 1.1224773 0.8616114 0.11851064 -0.37428197 -0.30022117 1.4728956 0.48766705 -0.68857247 -0.32676193 -0.8730462 0.28368354 -0.11411929 -0.4303739 0.92960507 0.033089608 -1.5712316 0.062402405 0.3048164 -1.1704451 -0.8376043 0.8812284 -0.64286 -0.48893377 0.055035725 -0.21265715 0.84956497 -1.0134454 -0.2274401 0.22966981 1.011715 -1.2894294 -0.24744913 0.22966504 -0.437477 -0.35336795 0.37233984
48692 -0.0188536 0.16804725 0.4792788 0.45599 -0.029674122 0.12252161 0.86048913 0.032691408 -0.91315645 0.4581946 1.158999 0.6804069 0.45678547 0.6364519 -0.16723406 0.029825581 0.58056754 0.3055298 0.61022145 -0.53988075 0.41235963 -0.35358223 0.25624168 -0.05746472 -0.49012893 -0.05095539 -0.21893804 -0.33103645 0.08367854 -0.48551583 0.0034577586 0.456993 -0.2226025 -0.12043926 0.2552456 0.35731775 0.70672274 0.079531856 -0.6172013 0.26060224 -0.020650905 0.62507594 0.678398 0.21068577 -0.11582087 0.16780387 -0.7348113 -0.27464935 0.18418948 0.1730927 -0.19346862 0.09333874 0.005826738 -0.9731093 0.86588454 0.28859735 -0.2780367 0.48406976 0.19967069 0.028680125 0.13453689 0.5398602 -0.24310935 -0.19033533 0.7416704 0.48508394 -0.3124809 -0.31232524 -0.3495939 -0.17480323 0.64376634 -0.22034463 0.6213868 0.14796628 -0.39325434 0.8452687 0.25939667 -0.7837065 0.24298052 0.3958449 -0.6574498 0.5287296 -0.5429768 0.22681354 -0.86842763 0.21316335 -0.46463892 -0.1624989 1.0000525 0.3258714 0.5134058 -0.02243868 0.67640734 0.0121344235 -0.48818988 0.2136681 -0.68499213 0.8606044 0.4771065 -0.9346785 0.05472092 -0.17170876 0.57140434 0.55846673 -0.57294977 0.041119803 0.22613695 -0.26817507 0.9346161 0.8387721 0.21119574 -0.32756215 -0.30953464 -0.66090816 0.05034049 0.2345275 -0.57462835 -0.42976922 0.37290433 0.3284812 0.30410016 -0.086417876 0.7117225 -0.016961982 1.1929286 0.2881835 0.116353 0.4881954
5111 -0.25459045 -0.7500853 -0.20178118 0.016996909 0.48173505 -0.64295477 0.38956288 0.01395608 0.86442775 0.13360357 -0.2582375 -0.4274728 0.5891657 -0.068474 0.054689527 1.100377 0.17882921 -0.08266828 0.1322067 -0.08675378 -0.57170403 -0.41427776 0.750404 -0.06283489 -0.28471532 -0.3360285 0.36004558 -0.7126524 0.44710028 -0.57138526 0.0467224 0.5286964 -0.2734441 0.84640175 0.5149213 0.42217344 -0.34121087 -0.31206667 0.6949314 0.32225809 -0.06949571 -0.80288494 -0.7443333 0.3053079 0.010664158 0.1115201 0.017570572 0.24387604 -0.062382545 0.05702209 3.0404346e-05 0.44781253 -0.32663533 -0.2112394 0.5995869 -0.20394535 -0.40635398 0.20684396 0.102709524 0.23760669 0.12889454 0.24999332 -0.14038438 -0.2650308 0.14336681 0.44235215 -0.870663 -0.25609028 1.388426 0.03290315 -0.35800436 0.21764152 -0.2726983 0.79687446 -0.3928304 -0.17742957 0.40554807 -0.9762908 0.21662119 -0.036360145 0.21191227 -0.583946 -0.23385714 0.05514523 -0.22764549 -0.08520723 0.0062696426 -0.66563785 -0.0643448 -0.017476851 -0.2730901 0.17895244 0.6773324 0.46018183 0.73161596 -0.69878584 0.05389657 0.7482761 0.09801683 -0.57150877 -0.70093244 -0.22569942 0.22992992 0.4984435 -0.3221664 0.101054005 0.065509975 -0.6081369 0.2149113 1.0063152 -0.49239516 -0.014958074 -0.17682746 -0.683448 -0.47781667 -0.0019477899 0.2538303 -0.13581477 -0.07975239 0.19677626 -0.13549946 0.14491042 0.41529396 -0.5208653 0.38122562 0.39387614 -0.33607492 0.5331585
14277 -0.3935275 -0.070943676 -0.14767079 -0.20721088 -0.37999776 0.022439532 0.3543507 -0.17672423 0.023982724 -0.1393445 0.66795033 -0.0029587753 -0.1178148 0.2562736 0.007977657 -0.015412414 0.6361218 -0.16874376 0.26474482 0.13381279 -0.5800932 0.58703613 0.5963182 0.4652739 -0.4283105 -0.1940113 0.18150157 -0.12615013 -0.1218459 -0.28290153 0.1450903 0.005617798 -0.27650395 -0.5125493 -0.58690464 0.0031290592 -0.00785765 0.27958155 0.075399 -0.0053616716 0.18863931 -0.47085172 0.68882984 -0.00030561877 -0.15074733 -0.099509746 -0.03410932 -0.03907636 -0.23949516 0.17651793 0.6787787 -0.65421075 0.19504088 -0.5525154 0.3457292 0.06617289 0.2725431 0.21211527 -0.7398864 -0.697178 0.23973668 0.041855708 -0.21110341 -0.6937859 0.02575641 0.007911231 -0.3969495 0.08195968 0.7083643 0.04784435 -0.25277022 0.40249163 0.4490162 0.4993226 -0.07633356 0.24334309 0.9066075 -0.17025837 -0.1679907 -0.44728822 -0.6056247 0.12233477 0.58500576 0.3892905 -0.30428392 0.04969369 -0.2515254 -0.24376473 0.24102262 0.4559638 -0.20400181 -0.40344113 -0.14128974 -0.20944199 -0.76499975 -0.05089032 0.27013996 0.9374182 0.59487206 -0.05304132 0.109046616 -0.5249405 0.14964905 0.12536857 -0.35330325 -0.721035 0.019674962 -0.11148829 -0.053616036 -0.19137745 -0.35529727 -0.12159015 0.077614546 -0.14342982 -0.5041473 0.1701884 -0.08638399 -0.48449567 0.3256534 -0.18501718 -0.33834067 0.4802061 0.6081479 -0.097942114 -0.210467 -0.5621743 0.51917434 0.33382908
2289 -0.53413695 0.0018805345 -0.1952417 -0.13795325 -0.2584202 -0.1449884 0.28055164 -0.025377542 -0.09094691 0.033374783 0.84989524 0.15226781 -0.0127524035 0.44603473 0.22002143 0.07820673 0.6952952 -0.1325525 0.37218732 0.22493726 -0.51018226 0.59334445 0.2687828 0.27206087 -0.3282061 -0.41792822 0.108538724 0.12014908 -0.25983688 -0.18730105 0.10730834 0.097745 -0.54379046 -0.55651355 -0.3739231 0.13284665 0.04536951 0.32957283 0.018249996 0.257559 0.24851725 -0.42387518 0.49230772 -0.009174795 -0.323447 -0.24429983 -0.15293683 -0.12781805 -0.19121523 0.30986103 0.5885723 -0.50404704 0.109982304 -0.4238398 0.157711 0.30694553 0.080641165 0.2643179 -0.63636893 -0.4682684 0.15435787 0.20847435 0.103048794 -0.59700763 0.24059169 -0.27172077 -0.065634616 0.087621234 0.47235668 0.25118583 -0.089199536 0.34809947 0.53980947 0.65797234 0.016125262 0.107101806 0.750423 -0.07326118 0.22203445 -0.22605917 -0.47801122 0.43355745 0.7856528 0.37117645 -0.061414786 -0.104783386 -0.45076716 -0.13130206 0.45234177 0.16098577 -0.33435825 -0.3120019 -0.3984708 -0.015870726 -0.39857298 -0.44999164 -0.028349996 1.0219504 0.3738002 -0.2733193 -0.15913935 -0.23036051 0.63870895 -0.1467648 -0.21093205 -0.51568407 -0.504256 -0.012384597 0.11001639 -0.057902303 -0.60946083 -0.09449095 -0.10837743 -0.39910915 -0.18474351 0.18395971 0.09543645 -0.2697251 0.5435589 -0.022967573 -0.40021196 0.46312448 0.49677017 0.20239398 -0.20254113 -0.8224196 0.29291183 0.15202926
3259 -0.2466062 0.4378798 -0.8045142 0.5769695 -0.607042 -0.4386313 -0.56853706 0.90932214 0.4659046 -0.015351498 0.42549765 0.24429603 -0.17749825 0.48654655 -0.21346235 0.052785058 -0.8451324 -0.73012644 -0.16379653 -0.16309084 0.178046 0.016527208 0.5580386 -0.17836857 -0.75800407 -0.21269889 -0.5782763 0.6972503 -0.02791728 -0.13523854 -0.25985903 0.13789202 0.6963228 0.15209787 -0.06650806 0.048185475 -0.023983538 -0.24191615 -0.13232288 0.08715218 0.6855124 0.17407253 0.7107676 -0.49834728 -0.3070241 0.10917832 -0.029203305 0.50845945 -0.49877816 0.18650228 0.55209774 0.06542856 0.21445283 0.05768293 0.35220852 0.34192514 -0.1883162 0.16901666 -0.70512605 -0.025225908 0.00023115725 0.15588036 -0.514536 -0.07614338 -0.19671981 0.12389963 -0.3722064 0.19517048 0.5648882 0.28589475 0.21187326 -0.029905524 0.23762186 0.549751 0.3516858 0.70804834 0.017596893 -0.16373707 -0.46357933 0.6682778 -0.27738583 0.26684883 0.0884777 0.77267116 -0.7367352 0.34586766 -0.062623344 -0.18927011 0.04491135 -0.73942053 0.23150696 0.35698324 0.058509424 0.09672882 0.31563303 0.5598549 -0.46569008 0.91449535 0.021435017 -0.17344694 -0.29236457 -0.52553797 -0.04761493 -0.14147438 -0.0039529167 0.60073406 -0.044518445 -0.33659598 0.20898204 0.56374234 -0.49378753 0.083571844 -0.023655886 -0.44362715 -0.36454114 -0.037168738 0.0023082255 -0.10297961 -0.5484663 -0.6775489 0.23686428 0.6315468 -0.3311793 -0.45882472 -0.30547512 0.09142582 0.61375993 0.6036769
